# (192, 192)
-0.034043565
0.20843367
-0.03149489
-0.035986938
0.09556713
0.012365503
0.15077056
-0.041067377
-0.12816001
0.11661171
0.28023502
0.022116175
0.13131769
0.046987183
-0.12964208
0.083105326
0.03139986
-0.033029012
0.15082327
-0.19607751
0.20237283
0.033800002
0.080061726
-0.034195866
0.1686516
-0.019252684
0.008424861
-0.009730892
0.11235046
0.15781458
-0.07944129
-0.009288407
-0.044664886
0.20518355
-0.08465579
0.12965567
-0.024627877
-0.05930182
0.15226157
0.09628328
-0.17204246
-0.08672759
-0.076876484
-0.16517605
-0.025850432
-0.17151529
-0.06477219
-0.10610473
0.054087006
-0.09835788
-0.15846913
0.06734824
-0.18463267
0.09521352
0.12709437
0.17242324
-0.07122584
-0.11646616
0.37923804
0.066081166
-0.0049016345
0.20799235
0.08925088
-0.039533556
0.11045117
-0.0015316894
-0.03165459
-0.17001402
0.20884697
-0.12596923
0.098607786
-0.118046224
-0.2841085
0.18954344
-0.16816778
-0.08599278
0.14569297
-0.055686504
0.073332146
-0.09212654
0.08031144
0.3294302
-0.0320377
-0.18424426
-0.03154602
0.08856859
-0.21020849
-0.092554405
0.1844249
0.020637412
-0.13420413
0.3297928
0.18484014
0.03348233
0.05259364
-0.13900745
-0.0070005134
0.056642015
-0.21439159
-0.10658248
-0.20575374
-0.09929692
0.08613438
-0.012149242
0.14183407
0.36803728
0.026861921
-0.050198395
0.122859895
0.19496167
-0.19941796
-0.055367228
-0.1511204
-0.28420582
0.10631776
-0.15014248
0.18078284
0.087074846
0.13351895
0.21617441
0.17466438
-0.2636189
0.21650091
-0.21879421
0.05163955
0.120215945
-0.039915018
0.109710954
-0.29605353
0.058699977
-0.481359
0.07235977
-0.10509879
-0.021956276
0.26192096
0.25397193
0.12876996
0.1087529
-0.07378466
-0.08980893
0.12570024
0.02780271
0.13685139
-0.2035825
0.07572755
-0.11476017
-0.03689418
0.13588469
0.25050467
0.147026
0.06879218
0.22210295
-0.27530193
0.027209923
0.013820816
-0.16027167
-0.24212694
-0.07585819
0.03923563
0.00976561
-0.09447026
-0.074509054
0.13145839
-0.2788234
-0.029404126
-0.014427101
0.15531729
0.006972282
-0.24218836
0.060862634
0.08948992
-0.11787304
-0.081575416
0.16056715
0.22430597
0.26183608
-0.08038857
0.06052529
0.14190722
0.11096845
-0.046505343
0.11404768
0.07728212
0.17452759
-0.0200641
-0.011074514
-0.23431435
-0.006084125
-0.18500222
-0.06518563
-0.11568314
-0.22992456
-0.03220098
-0.15568657
-0.14978977
-0.040967837
-0.09211445
0.069986016
0.09945124
0.1542312
0.049849078
-0.0042135543
-0.4053643
0.2608672
-0.10290166
-0.18792146
0.20826659
0.031422134
0.039554168
-0.0114684785
-0.14837195
0.13168292
-0.13235083
0.17272651
0.14702256
-0.027130293
-0.16039124
0.14335601
-0.49319306
0.016244093
0.15442511
-0.22422357
-0.03482242
0.11325228
0.047372356
-0.13231158
0.15932359
0.08989647
-0.06960688
0.06459975
0.023190951
0.15366256
0.026822543
-0.11613631
0.13824911
0.026276456
0.11985528
0.08453078
0.24398015
-0.089812875
0.13567989
-0.0136998
0.25782052
-0.18234955
-0.20007975
-0.16184513
0.010036859
0.101952985
0.14185093
0.17043981
0.13384041
0.08310381
0.030595912
0.14170665
-0.0916955
-0.10518016
0.001909202
0.12145561
-0.06140225
0.018765982
-0.08881134
0.14186276
0.040470056
-0.008344336
0.03852034
0.06669284
0.09039875
-0.09822784
0.07104172
0.11303673
-0.04890519
0.029761758
0.23409477
0.18711258
0.2158095
-0.040301576
0.11585596
0.020438083
0.02073347
-0.13280906
0.027315795
0.1487289
0.14782089
-0.04934269
0.17360276
-0.040351897
-0.131107
-0.09653945
-0.098006636
-0.025498087
-0.08859175
0.19769655
0.007589699
-0.07644924
0.0011563482
-0.039822042
0.05375299
-0.18597387
-0.072590366
0.020129263
-0.029524434
-0.19475043
0.18322107
0.072440416
-0.06856622
-0.14927818
0.023716716
0.005563743
0.20028153
0.05039388
-0.053972133
0.21494661
-0.19770345
-0.0029163295
0.0998097
0.05647597
0.0349281
-0.17318982
0.008820975
0.08122718
0.1187629
-0.014831118
-0.12537196
0.018322866
0.058457755
0.015875984
0.041226603
-0.034423593
-0.26296535
0.12689036
0.0019942757
-2.3383188e-06
0.0649177
0.014130637
-0.116290264
0.0039471323
0.072793715
-0.09338004
0.029813053
0.046126094
-0.12924525
0.124509856
0.2514873
-0.2501322
-0.12465416
-0.037639447
-0.18197447
-0.07540054
0.07606978
-0.03332366
-0.029678514
0.045708932
-0.11785629
0.20383398
0.058072004
-0.23516124
-0.13827412
-0.13353363
0.023510758
-0.09841274
-0.11762568
-0.008763364
0.0342159
-0.08197541
-0.2606191
0.34872898
-0.02371402
-0.012540125
0.2859494
0.0060436693
-0.12293008
0.040231634
0.01797049
-0.034785364
-0.058217168
-0.03941487
-0.09946626
-0.010070266
-0.0083479425
0.035562444
0.11474936
0.057708725
0.27992266
-0.12689668
-0.16831401
-0.18471116
-0.071535945
0.2262048
0.023122784
-0.1162911
0.13419989
-0.21817629
-0.04023769
0.020728769
-0.15431747
0.2763146
-0.10833433
0.25005978
-0.15291427
-0.055342417
-0.09101257
-0.1636614
-0.032462526
-0.1623976
0.050069578
-0.40985432
-0.09092243
-0.046748526
0.012234475
-0.10109226
-0.15539567
0.0053884173
-0.25419897
-0.08961813
0.18345046
-0.15273419
0.012925052
-0.22894491
-0.02699909
0.08624726
-0.028178668
0.025438366
-0.1877481
0.02027544
-0.03166195
-0.0094797015
-0.23269282
-0.0070172977
-0.0020539043
0.09072704
0.13690625
-0.06326877
-0.06819141
-0.17856921
0.027598523
-0.021982914
0.12635885
-0.17600498
-0.13187279
0.20953225
0.24360691
-0.066270985
0.30264726
-0.14597523
0.028704334
-0.13971208
-0.08340256
0.10016386
0.082229294
0.14434803
0.10991241
-0.07588197
0.21838781
-0.10505871
0.061957832
0.032528583
-0.05151307
-0.20788221
-0.0779901
-0.077149466
0.16557293
-0.15101929
0.004633536
-0.17722332
0.042140953
-0.08354851
0.2463928
-0.11695959
-0.136901
-0.114396416
-0.0066633103
0.07426644
-0.0018225822
-0.008322939
0.2609918
-0.05332537
0.08175697
-0.043122172
-0.07083362
0.13987632
0.23092666
0.07834879
0.24429524
-0.24695468
-0.15954866
-0.011908949
-0.051298674
-0.01273992
0.10146298
-0.14812241
-0.082151614
0.026794638
0.0148858
0.038358063
-0.07490204
-0.23831423
0.03716866
0.17423531
0.14044386
-0.00029082134
-0.14529195
0.1999639
0.22089982
-0.013747418
0.06905686
-0.027055597
0.15682045
-0.15845668
-0.18464535
-0.051000632
-0.05024264
-0.05121775
0.06908869
-0.19488223
-0.009667738
0.036825217
-0.12519136
0.076197185
-0.042065524
-0.05514935
0.09064222
0.09494011
-0.13725422
-3.5744983e-05
0.17328256
-0.030845527
0.18735775
-0.29762518
-0.0022312594
-0.08015298
-0.11101149
0.18310161
-0.025615845
0.107693076
0.08283768
-0.09040377
-0.063901395
0.14537911
0.05607977
-0.34550104
0.16079234
-0.08587591
0.17613837
0.106981814
0.19127855
0.083213575
0.13445316
0.021058997
0.13458999
-0.025879731
0.0015153987
0.10231953
-0.19286233
-0.15364745
0.024163224
-0.17967539
-0.22264874
0.09053904
-0.0013981401
-0.11912978
-0.11610976
0.18913725
0.09606114
0.123892404
0.087440096
-0.12261316
0.0804437
-0.28052726
-0.025999121
0.07497571
0.044247087
-0.24982046
0.2781387
-0.08251364
-0.22919448
0.12834895
0.1543867
-0.06684572
0.21834338
-0.22916624
-0.28645733
-0.18117002
-0.28049648
-0.2756384
-0.2971577
0.0052524973
-0.25158948
0.002515427
0.16147618
-0.011742764
0.058295686
0.07604662
-0.09923125
0.06891912
-0.04023871
-0.19715862
0.2529716
0.19984628
0.15649551
0.14070229
0.073164955
0.06270408
-0.005316367
0.1634202
-0.0056789084
-0.081439905
-0.018020343
0.11821534
-0.04316425
-0.07981846
-0.19705549
0.029521823
-0.39712182
0.014203762
0.08857703
0.08204802
0.03068305
-0.09156663
-0.048832025
0.07051066
0.20245035
0.068685904
-0.2108882
-0.036122225
0.07289754
-0.044492453
-0.1841695
-0.17540734
0.17772481
0.03395247
-0.049702913
-0.2240621
0.008018583
-0.07305595
0.18556784
0.14624566
0.019546743
-0.024081608
-0.09518341
0.20480102
0.1922946
0.0711522
-0.18550804
0.116602264
-0.17767803
-0.11550807
-0.15008649
0.11940937
-0.044247728
-0.00043053934
-0.052117046
0.04185322
-0.032934356
-0.064209394
0.25839514
-0.35221574
-0.02635089
-0.31037247
-0.012673494
-0.21976511
0.028226962
-0.20111367
-0.015962526
0.13225928
0.019691467
0.26166788
-0.0121637015
-0.08604795
-0.052898698
-0.06430564
-0.01276734
0.3041075
0.039513577
-0.15551618
-0.07130101
-0.08523659
0.101761915
-0.13008456
-0.061419312
-0.48352686
0.08513516
-0.24654391
0.16686685
0.25837997
0.11666307
0.17080896
-0.25692946
-0.10203342
0.049325727
-0.1492793
0.19995566
0.115008
0.19228904
0.16505769
0.16603225
0.2184641
-0.10633035
0.12405793
-0.0019138139
0.06064884
-0.11504494
-0.10798604
0.031802963
-0.04988326
0.08161888
0.16541629
0.1300385
0.047530275
-0.076356806
-0.086962864
0.15294325
-0.20530528
0.08453681
-0.13988279
0.0011475558
0.01652374
0.06195508
-0.025272757
-0.053761866
-0.06396781
0.31095773
-0.031449433
0.010823052
-0.073060885
0.1314337
0.027471919
-0.20612401
0.0474362
0.07745982
-0.2669876
-0.03053337
0.12325039
-0.01863761
-0.11914989
-0.083819605
0.06235981
0.075769655
0.22969621
-0.11607927
0.2250833
-0.077813655
0.22194774
-0.0027314425
0.22300187
-0.14954048
-0.24751152
-0.37182957
-0.06347494
-0.09673529
-0.088421665
-0.18507944
0.100948915
-0.0119460635
0.042421885
-0.28257623
0.05319916
-0.11578445
0.05131469
0.16674185
-0.12545767
-0.04920241
0.06129064
0.028157534
0.16131604
0.029701825
-0.0019661845
0.0597093
-0.16022259
-0.12578225
0.22437176
0.065930784
0.28143755
-0.030382259
0.15088584
0.17046875
0.25405368
-0.02614571
-0.08228681
0.011077123
0.03170547
-0.07247393
0.19111487
-0.035465755
-0.086902425
-0.22934312
-0.06294938
-0.06892633
0.13839245
-0.112597786
0.013755067
0.11937071
0.022983897
-0.07942098
0.058123104
-0.088066794
0.10872354
0.1446495
-0.028883358
-0.0014837992
-0.10588518
-0.084589496
-0.19132298
0.1887913
-0.0994322
0.092500225
-0.25044364
-0.33625957
-0.1421811
0.057279512
-0.058446042
0.09765215
0.047199868
-0.14140582
0.04965379
0.14781977
-0.088835955
-0.003662431
0.1743461
0.009416307
0.19412287
-0.17523952
-0.061832603
0.1615174
0.116382726
0.13629116
0.055146534
0.015729781
0.00986228
-0.054042727
0.20925197
0.20931628
-0.06831436
-0.12171856
-0.061621416
0.23124437
-0.15445921
0.08201253
0.078552105
-0.03262315
0.053154115
-0.20837936
-0.1117253
-0.058330867
0.09888105
0.055137135
-0.08734012
-0.1153587
-0.0676072
0.04756155
-0.11068459
0.20153747
0.003390159
-0.025026126
0.049851056
0.2945548
0.12971394
-0.0130872065
0.04627387
-0.009120648
-0.017324578
0.087993905
0.14732806
-0.1803825
-0.105350696
-0.12728092
-0.24821845
-0.025826596
-0.00096625893
0.21806853
0.09494198
-0.053622823
-0.21636076
-0.061590455
0.029431209
-0.023381969
0.056078117
-0.11166083
0.124696404
-0.02394433
0.1513032
-0.021018663
-0.09197988
-0.115262926
0.040540513
-0.042375915
-0.05822854
-0.076522306
0.021797983
-0.061036382
-0.002482462
0.01168316
-0.08565076
-0.13975686
0.0067200735
0.11616836
-0.111832604
0.08617388
-0.11649286
0.038462806
-0.07554837
0.07812331
-0.11020104
0.122990206
0.013122565
-0.21610971
0.023359371
-0.008197974
-0.036144115
0.15549353
-0.010353516
-0.06990449
-0.11987927
-0.11115891
-0.039632354
0.04448946
0.029760106
-0.16392143
0.011139275
0.13683023
0.051633764
0.2004403
0.15033934
0.091727175
0.20762558
0.10858497
0.21971317
0.0632762
-0.3269136
0.17321971
0.02478171
-0.34767058
-0.08352836
-0.14208248
-0.016519537
-0.3066419
0.07608385
0.033814855
0.1471007
0.014112302
-0.035030704
0.17232975
-0.051714282
-0.3700259
0.056768842
0.11843074
-0.083699256
-0.013823018
-0.28766897
-0.13715662
-0.15339817
0.008268217
-0.10508756
-0.20945475
0.26370963
0.17597693
0.052945018
-0.014111208
0.067816235
-0.043891426
-0.09092471
0.24878648
0.06625235
0.20356855
0.07472887
-0.13037908
-0.27568284
-0.033488568
-0.13985227
-0.018588621
-0.011596511
0.09986979
0.07660889
0.13360044
-0.045041766
0.1760512
-0.06484929
-0.09060556
-0.30156428
0.009974191
0.1642476
0.098139584
0.1621516
0.12063026
0.23273547
-0.16845293
0.103227735
-0.15754728
-0.087530695
0.0069290167
0.034621254
-0.013963813
-0.25027046
-0.013556093
-0.03208647
0.015678575
0.07436876
-0.093882106
0.17352921
-0.030365273
0.17984463
-0.04898773
0.18407236
-0.28704247
0.021848628
0.15925308
0.00024065038
0.14164436
-0.09502639
0.018979076
-0.10164093
0.14096491
-0.08046628
-0.10215393
0.1562909
0.079495184
0.017451162
0.06956432
0.1602549
-0.27425653
0.1872763
0.003065404
0.05122669
0.013055914
-0.042317323
-0.12340381
0.058889523
0.33395058
0.025209378
-0.20863473
0.20130183
-0.15768707
-0.13172658
0.04003467
0.13334355
0.03802176
0.07196261
0.19095619
0.12533525
0.12719242
0.0023055228
0.07412564
-0.016096747
0.1832527
0.03879387
-0.08087965
0.11386223
0.10158597
-0.09687218
0.27047324
0.110427454
-0.08021379
-0.029246362
-0.033881694
0.18532743
0.08503654
-0.0045985943
-0.041184872
-0.057024885
0.10943716
-0.09228905
0.012642791
0.023922702
-0.10216411
0.042333897
-0.076631024
-0.19648752
0.1058278
0.116305925
-0.26016387
-0.07728867
-0.059415612
-0.33383706
-0.07179522
-8.522896e-05
-0.1896539
0.11766818
-0.17059752
0.24572842
0.12518854
-0.2596057
0.14730665
0.04140716
-0.03515163
0.15084249
0.1626312
0.18813527
0.12739302
0.0721017
0.08532317
0.26934603
-0.12023993
0.18341136
0.005551828
-0.14344324
-0.02299949
-0.03715124
-0.0020173325
0.111582614
-0.027232716
-0.24732406
-0.09477956
-0.07374646
-0.0125046475
0.09079664
-0.22100423
0.21487439
-0.2679699
-0.12341194
0.064238995
-0.09540051
-0.00881085
-0.14791152
0.24174869
-0.03194026
0.14994253
0.020302232
0.11619997
-0.15150402
0.085022494
0.032351915
0.16701657
0.19858353
-0.26263517
0.09726317
-0.09421008
0.100721665
-0.20575458
0.07188362
0.019885581
0.037090715
-0.16463372
0.2768649
-0.021810923
-0.31897178
-0.076774925
-0.043911327
0.13990161
-0.13673368
0.24238521
-0.1787606
-0.089443
0.030645996
-0.064274654
0.120352015
-0.015024461
-0.034940038
-0.01254213
-0.117539376
0.17052397
-0.07247148
0.10335348
-0.14818022
-0.06415311
-0.23441231
0.050330646
0.048611794
-0.05418834
-0.0663753
-0.31788927
0.09262486
-0.005549736
-0.020837476
-0.15008935
0.20668273
-0.13740052
0.024121316
-0.01819827
0.09902179
0.053860407
-0.08125664
-0.13144095
0.10042437
-0.05808619
-0.07317092
-0.21094172
0.16905846
-0.06837861
0.17535532
0.033283483
-0.16343278
-0.22877274
0.13284487
-0.06786962
0.10432211
-0.035982963
0.30922547
-0.14100595
0.051259972
-0.09195024
0.032425772
-0.05120604
0.03859264
0.06429392
0.17690144
0.014914927
0.07706055
0.06559012
-0.09078141
0.3072853
0.1201348
-0.025514204
-0.014659082
-0.07409029
-0.11193267
-0.05820128
-0.22935866
0.04620369
0.116493635
-0.17415418
0.19017078
-0.20553035
-0.122645505
-0.025944566
0.04094432
0.053554084
-0.22924326
-0.006025406
0.014686368
-0.05879379
-0.12370282
0.11032804
-0.1934262
0.14093292
0.08251613
0.06667152
-0.03053147
-0.16783524
0.07251281
0.0089947935
-0.08213676
-0.0069798357
0.101568714
-0.019792935
0.2550477
0.03834476
0.27670324
0.020468535
-0.089757845
0.016489707
0.13217708
0.19803397
-0.26803863
0.109437115
0.07833714
-0.2527118
0.07965112
0.1386517
0.025450535
0.16091207
0.06631249
0.16761027
-0.113568224
0.17150138
0.13767436
0.09322681
-0.048840884
0.017325487
-0.0652112
0.012398009
-0.29356366
0.044537723
-0.14324051
-0.058120962
0.042133305
-0.114229314
-0.15066838
0.06328136
0.19399846
-0.09480484
0.15688623
-0.27854547
-0.1564803
0.06364466
-0.2387488
-0.064045906
-0.13289231
0.3194664
-0.058777053
0.030564435
0.13838252
0.10478111
0.10437829
-0.1808676
0.048850592
-0.014522023
-0.12361928
0.09076214
0.1653369
0.04230669
-0.124693975
0.01102867
0.1421186
0.061341446
-0.046018474
-0.09482671
-0.040639997
-0.1048751
-0.026611695
-0.17388536
0.010565128
-0.08388311
0.035271708
0.28841305
0.22350462
-0.2176099
0.06778225
-0.12474786
-0.006114179
-0.08791144
-0.103003345
-0.17181773
-0.028446224
0.25978774
-0.1331088
-0.09398936
-0.2754502
-0.035904013
-0.3033898
0.28510332
-0.009643098
0.2280381
-0.10088904
-0.06194584
0.12211184
0.014166246
0.20519426
-0.015253417
-0.20472202
-0.24768016
0.09230716
-0.31830704
0.33528584
-0.073477395
-0.009923026
-0.17219739
-0.17012592
-0.07437061
-0.12089689
0.038214892
0.02029046
0.11270684
-0.07846246
-0.23370825
0.045854285
-0.12252514
0.06721328
0.051158365
-0.0705448
-0.18679895
0.19491045
-0.043008193
0.3292468
0.068971455
-0.08565658
-0.13854258
0.15174447
0.048166856
-0.1872261
0.0011956072
-0.02240763
-0.14618145
0.008556158
0.15493536
-0.18297735
0.052239895
-0.14516352
-0.17740218
0.21389347
0.011071411
0.2785688
-0.09957594
-0.055334106
-0.1328078
-0.06344994
-0.070140414
-0.053043477
-0.1761351
-0.24378231
0.14268202
-0.13519219
0.08307329
0.25550702
0.07009475
-0.120636925
0.06319243
0.052179497
-0.14175718
0.15590945
-0.030267408
-0.050315913
-0.076585636
0.21793872
0.114707105
-0.11860058
0.10327748
-0.0026901984
-0.11175727
-0.10715674
0.21140431
0.035359986
0.18968351
-0.15437675
-0.27439436
-0.023779038
0.22610337
0.17666218
0.1902778
0.06626236
-0.108374834
0.1663019
-0.24995317
0.056729108
0.24992786
-0.047140766
0.08387955
-0.12505779
-0.09683301
-0.26596695
-0.009065539
-0.1803215
-0.17711766
-0.012659429
-0.03864708
0.014713707
-0.076133735
-0.052468628
0.015655754
0.03616709
0.2291695
0.11924395
0.11469635
0.0013855654
0.17157488
-0.09796608
0.2363939
0.010129246
-0.00242741
-0.15850118
0.07134347
0.09426764
-0.104974255
-0.10207404
-0.24904436
-0.055988297
-0.22253163
-0.035144333
-0.036098618
0.06969089
-0.18898329
-0.024428677
0.17389917
-0.008035244
-0.0072515286
0.23364922
-0.10422909
-0.25441033
-0.004956684
0.11494149
0.117172204
0.114935294
-0.062128246
-0.055078376
-0.1511167
-0.122961424
0.12660366
-0.018512774
0.07210826
0.023321288
0.049716618
0.19762905
-0.0532681
0.05809483
-0.04207477
-0.074825
-0.15244102
-0.11463237
-0.022244386
-0.23449546
-0.24246937
0.092319846
-0.11527786
-0.013383713
0.10526451
-0.07672899
0.05695265
0.16927944
0.07396376
-0.0997671
-0.1271877
0.42642084
-0.1937701
0.121731855
0.1034609
0.1906151
0.039420426
-0.23077202
0.122433424
-0.1033837
-0.03136114
0.15160029
0.081036545
0.22732493
0.25200772
0.16442569
0.082044914
-0.10690447
-0.30998358
-0.060461592
0.24279165
0.04186193
-0.053075995
-0.17257558
0.21321692
-0.1283631
-0.025433475
-0.096934006
0.033891104
-0.07987826
-0.018526014
-0.00023832837
-0.11836834
0.01500803
0.016189892
0.009904801
0.12696852
-0.059845943
-0.20526212
0.1902806
-0.0041908887
0.023146184
0.0971915
0.08899458
0.4057879
0.0073698945
0.014544293
-0.037216265
-0.06260616
-0.024708197
0.18655384
0.17347714
0.2281023
0.16361898
0.055384994
0.21893053
-0.12391758
0.008954142
0.13760667
-0.11047294
-0.16179556
0.03869433
0.18244159
-0.095937155
0.16463289
0.062032927
0.14995338
0.084109396
-0.041793343
-0.22662129
-0.13960266
0.21334293
0.011144808
-0.065522574
-0.050356463
0.02480745
0.1574473
0.2079497
0.03165941
0.20642494
0.18007047
-0.057483684
0.089668475
0.20519868
-0.111838445
0.18155427
-0.17558734
-0.037709128
-0.16603671
-0.23679379
0.051450238
-0.15770069
0.0014608271
-0.121708564
0.064772606
-0.00046835447
-0.12460777
-0.07766731
0.09485821
-0.12578861
0.22719364
-0.21228163
0.33440703
0.035415065
-0.0881966
-0.09995511
0.05602252
-0.0070911977
0.030655582
-0.06535905
-0.14663951
-0.14203393
0.03297556
-0.08481985
-0.20747495
0.15475044
0.06846131
-0.13240825
0.0028441397
-0.02415084
-0.014603085
0.091378056
0.17934045
-0.0004909045
0.089863576
0.045611653
-0.17273082
0.050948314
-0.12698798
-0.019775689
-0.19108313
-0.21216854
-0.1006632
0.030843422
0.042725015
0.011890004
-0.07302633
0.05529506
0.0152789205
0.13297236
0.17165959
0.015063883
0.04601829
-0.015528795
0.12734605
-0.011295213
0.016244715
0.10119046
-0.08203593
-0.14964022
-0.06503328
0.21954824
0.07382531
0.124761805
-0.22042269
0.009025079
0.061765082
-0.25642648
0.049762804
0.007189296
-0.09400203
-0.03930209
0.34559447
-0.015716404
0.0025427637
-0.20674813
0.012739735
0.24265322
0.19230805
0.050385397
0.15892084
0.060026463
-0.18655239
0.09852147
0.16080976
0.1651065
-0.2634621
0.14957973
0.22717176
-0.28937104
-0.07775103
-0.16699617
-0.044065524
-0.032637198
-0.058680125
-0.02882764
0.21732219
0.057477787
-0.15185648
0.11469109
0.2934985
0.14386794
-0.046390243
-0.107331395
0.08766147
0.0703578
0.094918914
0.059166662
0.2235372
-0.08687801
0.2958061
-0.06293666
0.24665813
0.035996974
0.06210853
-0.14206734
0.14806464
0.20736971
-0.02584192
0.07054638
0.0783177
0.2010196
0.16412993
-0.05728988
-0.028174017
0.16027524
0.10007262
-0.06145864
0.0079064015
-0.005161666
-0.071142375
0.25703874
-0.13759604
0.11632334
0.021252122
-0.15287845
0.019500243
0.07050238
-0.027881382
0.13865383
0.22958887
0.049198978
0.010032258
0.04021966
0.06199233
-0.036102366
-0.040874913
0.10111853
-0.1634136
-0.043376625
0.06562761
-0.02187894
0.06625625
0.00116479
-0.020419378
0.08989668
0.09891781
-0.09631038
0.14207125
0.03220411
0.03472536
0.015511698
0.042876992
0.19614954
0.06907611
-0.17278814
-0.08569562
0.10060119
0.3826323
0.12437041
0.15972152
-0.103909135
-0.12325872
0.13097914
-0.02297909
0.07703582
-0.094237976
0.23043145
-0.022936817
-0.31712618
0.15914889
0.12380019
0.05531546
0.028975304
-0.20935203
0.111965686
0.047941405
0.28984383
0.016767725
0.097042635
0.07997251
0.007429235
0.08949241
0.01721061
0.044497743
-0.08076649
-0.16676505
-0.2649064
-0.060148276
0.032531217
0.17619649
0.06564473
-0.052747097
0.22287787
-0.058178272
-0.12423029
-0.04866778
-0.08994822
-0.07468102
-0.03103023
-0.061202083
0.036082573
0.23184949
0.11645766
0.040747225
-0.06859935
-0.07740768
0.09359001
-0.1606204
0.076602034
-0.087586105
0.1184418
-0.025786566
-0.21136978
-0.108068295
-0.122921966
0.086535946
0.14715329
0.009478624
-0.021217717
-0.011994712
0.04916681
-0.059532676
-0.23135687
-0.03004427
0.019397475
0.023967493
0.03489776
-0.42290428
0.009182189
0.07854079
-0.03363667
0.14516439
-0.14579292
0.11040723
-0.2629887
0.08438747
0.09446562
0.082932584
0.12758274
0.12348618
-0.0921814
0.08590437
-0.21525179
-0.128853
0.020397155
0.04600768
-0.14372113
-0.13985346
-0.08961146
0.2584601
-0.27062684
0.20379399
0.24651168
-0.22072122
-0.078951605
-0.24324527
-0.05197965
-0.024773788
-0.13093567
0.17834897
-0.04784948
0.03837979
-0.08577635
0.058026087
0.18737675
0.08183445
0.102123015
-0.034879494
0.23014149
-0.007459477
0.116697684
0.12476177
-0.0039051904
-0.09204824
-0.092719376
-0.111539945
-0.14559792
0.08805814
-0.10984989
0.08450426
0.018468408
0.1744051
-0.15038615
0.156344
0.055941906
-0.016975695
0.16554964
-0.08625079
0.024861926
0.0908399
0.043044668
-0.07427665
-0.067598216
0.09257629
0.07869692
-0.10501324
-0.005957084
0.06624728
-0.008587036
0.23684132
-0.031692173
-0.017104425
-0.107134916
0.38850647
0.013169186
0.082317874
-0.23105635
0.01656294
-0.13219312
-0.08391984
0.24375677
0.071594864
-0.040322945
0.10815183
-0.031826068
0.2257182
-0.11842097
0.05682215
-0.12357079
0.073996894
-0.098460294
-0.40226668
-0.08670501
-0.0070267543
0.1037961
0.37181914
-0.19631988
0.05709817
-0.061171472
-0.20008597
-0.03253942
-0.14839776
0.07712833
0.27194098
-0.00010665766
0.016303172
0.23627411
-0.06308777
0.087271556
0.17220716
0.07072333
-0.2891692
-0.113890074
0.038513523
-0.033904053
-0.16994043
-0.024539547
-0.07115405
0.31300402
-0.031761006
0.20541367
0.19939311
0.17446524
0.12806429
-0.01131042
0.039366912
0.060500395
0.10625203
0.02658565
-0.14903308
0.07692505
0.14076325
-0.21938562
0.106821194
0.019055624
0.19829969
-0.15186554
0.17792597
-0.08385283
-0.05001524
-0.1446369
0.25607127
-0.30437872
-0.035522416
0.012961916
0.11575971
-0.020122925
-0.043901887
0.03762929
-0.14242221
0.042629156
0.31670633
-0.004942894
0.285612
-0.058820352
-0.23007414
0.03362664
0.010229585
0.020687822
-0.065077685
0.19438347
0.089796096
-0.12892918
0.19348721
0.07298556
-0.16555895
-0.0041954364
-0.11865915
-0.19515309
0.10216572
0.079979576
-0.061227713
0.085590385
-0.016535513
-0.28411272
0.2908781
0.032400947
-0.18504073
-0.11354104
0.037780546
-0.23941746
-0.083822966
0.17698155
0.0048428294
0.0037362804
-0.11714832
-0.18988892
0.011896934
-0.106767565
0.09269249
-0.04960761
0.13178283
0.028970422
0.09288005
0.0030276033
0.13251346
-0.18816176
-0.0063718534
0.24903473
-0.12073413
-0.009502777
0.14180958
0.12807831
0.11618701
0.058981337
0.10314919
-0.13433583
0.4411236
0.24837159
0.12107562
0.01574797
-0.14888826
-0.21063398
0.12007937
-0.0660082
0.07113684
-0.020449257
-0.09912922
0.11632641
-0.10171679
0.072425656
-0.3056495
0.07599755
-0.16594128
-0.21428218
0.09815558
0.022685392
0.16728011
-0.17032911
0.13785113
0.17016983
-0.14959975
0.25661078
-0.055600733
0.08729993
-0.0023568438
-0.152104
0.10192434
-0.07875507
0.046221074
-0.076508455
-0.1489879
-0.035484124
-0.050485782
-0.021721778
0.15826525
0.25738752
0.15082213
-0.046340287
0.20614657
0.083266824
-0.18298256
0.0677518
0.18533641
0.11928064
-0.12679695
0.075078286
0.052455317
0.21036711
0.06073801
0.07181323
-0.31300697
-0.11255021
0.061218068
-0.22313868
0.002254904
-0.09801207
0.15202637
-0.028121242
-0.29144347
0.23275079
0.4369714
0.07777663
-0.19003534
-0.05926719
0.018318981
-0.22782601
-0.04061708
-0.1512159
0.06541324
0.15568861
0.12960976
0.06334678
0.009718275
0.001731914
0.19954741
-0.2324672
-0.31543365
-0.009559351
0.013567511
-0.296759
0.10547613
0.12510736
0.13339621
0.37435612
-0.042407356
0.06951947
-0.09500554
0.043387696
0.07437803
0.095918246
0.23830532
0.1030776
0.24123499
0.047682274
0.111787565
0.04312807
0.21501686
-0.0038646862
-0.17513943
-0.15214972
0.016559385
-0.060425024
-0.16029695
-0.28069133
0.3215917
0.14071806
-0.097295254
-0.03129492
-0.10062219
-0.07131152
-0.0011470255
-0.26967564
0.0009573673
0.031012753
0.030275274
0.31844446
0.05748285
-0.059453752
0.055855222
0.12242093
-0.08412938
0.1712651
-0.0013176396
-0.025748363
-0.13557777
-0.15356901
-0.06683214
-0.07946986
-0.14390446
-0.0313599
-0.007624519
-0.016988643
0.13495336
-0.055104893
-0.004210281
0.07169073
0.07649685
-0.07560537
0.0010891749
-0.054114178
-0.17603742
-0.008715604
-0.010046348
0.12040491
0.092713475
-0.04376805
-0.08862984
0.0072689536
-0.18533035
0.15744446
-0.06329339
0.034027502
0.23172094
-0.013364207
0.04810993
-0.23842444
0.18101062
-0.031071631
-0.39023027
0.013068487
-0.22242734
-0.2652713
-0.0017497813
-0.017489927
-0.0090159755
-0.09812476
0.11459405
0.110575035
-0.08122464
0.08038594
-0.15653138
-0.22830199
-0.061919533
-0.15599363
0.10089523
-0.11465088
0.07716631
-0.17876798
0.13043253
0.10807612
0.36285728
0.23064746
-0.14516899
-0.030518519
0.13611628
0.1464956
-0.07389172
0.011219106
0.13063975
0.0041678995
0.18742226
0.14666963
0.16740446
0.024979476
-0.033900894
0.11049806
-0.12514378
0.18483226
0.016783077
-0.3676917
0.15746091
0.19797438
0.048297364
0.06538897
-0.0828356
0.04166794
0.24942797
-0.28950918
-0.04488149
-0.16130558
0.039328888
-0.011545607
-0.033058684
-0.05922338
0.06571622
-0.09453239
-0.052482136
0.030363807
-0.11894895
-0.13273305
-0.07809465
0.21078382
-0.10318916
0.184621
-0.02251606
-0.11991467
0.10341848
-0.034017988
0.0307874
-0.21025231
0.052803047
-0.12350512
-0.022156607
-0.08516665
-0.09785768
-0.024652846
-0.2690896
0.12400284
-0.038660634
0.11287137
0.016712394
0.04174848
0.020851757
0.080543846
0.026711948
-0.113224305
-0.18542446
0.11708154
0.07150471
-0.15917659
-0.13320251
0.012629578
0.03474991
0.16819236
-0.04292625
-0.041877307
0.040090386
0.11827428
-0.088385485
-0.19837299
0.01528287
0.06755966
-0.1541832
-0.06572531
0.21601981
-0.07340351
-0.10747702
0.09328373
-0.09087158
0.002762597
-0.06917295
0.04324415
-0.059479672
-0.2200772
-0.05049961
0.015299839
0.078637734
0.021821136
0.03644492
0.059739638
-0.10057995
0.13632509
-0.22855046
0.14473523
-0.0066029057
0.012531839
0.046379067
-0.04121238
-0.06739882
-6.160078e-05
0.045924213
-0.11478065
-0.07194424
0.019794568
0.10440472
0.14722614
0.045801457
-0.08128437
0.0030443606
-0.3250919
-0.04502391
-0.113684945
-0.26784953
0.14313287
-0.116125904
0.12055523
-0.04366989
0.2814408
0.114039615
-0.008756177
0.09594794
0.027450658
-0.23107326
0.047823377
-0.07811091
-0.0137930615
-0.079863265
-0.18069689
-0.04977981
0.21141732
-0.3604094
0.22276142
-0.06439049
-0.056707125
-0.10756586
-0.02745917
-0.16777048
-0.08417436
0.014346516
-0.28266233
-0.024076136
-0.086216986
-0.1844169
0.18279392
0.10111924
0.122878365
0.02317063
-0.09033287
0.10313948
0.10497895
0.09535971
-0.10179679
0.04494028
-0.0083727455
0.10169399
-0.07413774
-0.0134087475
0.13251343
-0.15060113
0.10096045
0.18367471
0.14572728
0.28743666
0.048091404
-0.2363807
-0.10736203
0.14608459
-0.069324605
0.20710567
0.103217185
-0.07722564
-0.027004084
-0.013258939
-0.089458406
-0.06046289
-0.11204892
-0.041988175
-0.027354259
0.10401097
0.09136245
-0.12981784
-0.059718266
0.23446652
-0.1471624
-0.07681488
0.022064194
-0.16963248
-0.30301848
0.05452805
-0.02081597
0.10189347
0.19368134
-0.01651945
0.011463271
-0.09282075
0.026365934
0.037563466
-0.17923406
0.19485967
-0.15763795
0.15308782
0.41653278
0.0023118115
0.13563043
0.010546912
-0.08034635
-0.20877573
-0.044573747
0.0532677
-0.15798457
0.017391095
0.17091092
0.007880397
0.07228937
-0.11521761
0.15292737
0.08558471
-0.07412067
0.08747422
-0.043152202
-0.18036345
0.14129578
-0.13942696
0.24795897
-0.18255928
0.008184784
0.18906528
-0.067001015
0.20749503
0.022306817
-0.15036628
-0.11405182
-0.11514492
0.016764933
0.18635744
-0.08613881
-0.186488
0.027370203
0.123043746
-0.1680319
0.04653091
0.17398806
0.032061595
0.024535608
-0.0006016651
-0.1401644
-0.15378465
-0.2590292
-0.10736611
-0.13403675
0.15180689
-0.2088238
0.015105935
0.22021393
0.18735844
0.06246769
0.07419385
0.1864842
0.082061626
-0.058570694
-0.12757325
0.018574938
-0.067068174
0.043757968
0.00826693
0.05465431
-0.17282376
0.18791303
0.21284182
-0.17794663
-0.04919012
0.09986599
0.053148426
0.1952026
-0.07158329
-0.27916762
-0.011964684
-0.10856674
-0.110745996
0.12097632
0.042288296
-0.04289084
0.08868503
0.085454814
-0.19898841
0.2367544
0.04325314
0.19381979
0.08159786
-0.08415198
0.011853101
0.09221237
0.22435889
-0.07175569
-0.14990807
0.090408444
0.15864226
0.04937872
0.21432334
-0.19276845
0.06079672
-0.0069227917
0.014261786
-0.09711185
-0.099018276
0.04250032
0.23526184
-0.120005555
0.05901436
-0.018883934
0.1264849
-0.25680262
0.05190443
-0.1875691
-0.0556948
0.06747587
0.10458213
0.12460725
-0.13247398
-0.4046479
-0.016754236
-0.122149706
-0.08221099
-0.10891719
0.05627574
0.070643075
0.1868889
-0.14948443
0.16568701
0.19572419
0.005400911
0.070304535
0.19078973
-0.24424088
0.11220372
-0.124225974
0.15342353
-0.0022979137
-0.13864869
0.059596233
-0.13851036
-0.21473527
-0.040355958
-0.10968219
0.053753365
0.1195102
-0.014026026
0.08362665
0.12131289
0.091099516
-0.060410455
0.09103785
0.11145239
-0.09847569
-0.11898353
0.070540845
0.13343991
0.055851277
0.053390335
-0.28404772
-0.023715727
0.054950215
0.17508626
0.097893246
0.092831045
0.15750611
0.020945005
-0.17388645
0.09713517
-0.13466957
0.05690573
-0.0532869
-0.12682648
0.06453698
-0.03547735
0.19979787
0.07624786
-0.26188916
-0.12559593
0.108066246
-0.13453062
0.013220738
-0.04615331
0.03137966
0.25512615
0.040081523
0.15054846
-0.114774935
0.05946694
0.05331243
0.19561596
-0.026326228
0.008684785
0.017730942
0.050811872
-0.18695287
0.04739257
0.1308918
0.13376689
0.013484194
-0.15024416
0.07467815
-0.003974742
-0.009758459
-0.022717547
-0.16791329
0.096776314
-0.023365133
0.033888835
-0.3132942
-0.08306766
-0.048945773
0.100455984
-0.2536412
0.21462679
-0.24942781
0.096558824
-0.2529913
-0.009073936
-0.058202077
-0.15715654
-0.039464753
-0.18364017
-0.07252899
0.19087256
0.112674505
0.14434409
0.088103235
0.13697101
0.029134385
-0.069292985
0.12525111
-0.122311085
0.1874336
-0.1396
-0.082492724
0.04165394
0.14562476
0.2272604
-0.08847061
-0.00019220673
0.14500414
0.12829207
0.017830297
-0.06392527
-0.08617727
-0.10841353
-0.1198927
0.16480486
0.13539632
-0.18251088
0.115351245
-0.23515925
-0.15324835
0.08818817
0.21861382
-0.0163277
-0.33714727
0.07107864
-0.02130992
-0.22004108
-0.020489046
-0.033040587
-0.010856106
-0.061558623
0.039135896
0.10258035
-0.06365543
0.25104654
0.17438395
0.029219877
-0.002404558
0.10151931
0.06136227
0.11871394
-0.28506264
-0.06428695
0.046389263
0.09392416
-0.20215246
-0.28410238
0.090202264
0.040709108
-0.08270066
-0.08158578
-0.17157231
0.021446532
0.14090306
-0.00880321
-0.24567424
-0.29620343
-0.14346322
-0.10562171
0.045994993
-0.084058136
-0.18583879
0.025224147
-0.14414977
0.14031594
0.06646178
0.10450973
0.26168665
-0.13862568
0.3228837
0.1639031
0.24070904
0.19335009
-0.20462103
-0.287246
-0.08787627
-0.05523481
-0.06513593
-0.24401955
-0.1898545
0.012655115
0.048302624
-0.06913133
0.035886053
-0.1422898
-0.27268362
-0.051469304
0.1727564
-0.0964887
0.106752634
0.16306432
0.049364164
0.034606777
-0.08145167
-0.3187154
0.054730255
0.031906165
0.10494409
-0.061498437
0.047563344
0.10659747
0.13407
0.19085194
-0.13938019
-0.09304195
0.034679145
-0.2366842
0.06575705
-0.10246075
0.11492937
0.04177275
0.0051621967
-0.2344266
0.16485597
-0.17799622
0.17289701
0.08739276
0.1823116
-0.01825049
0.03914063
-0.008558558
0.042679653
0.12887192
0.031086462
0.040513113
-0.16083334
-0.02410396
-0.14271991
0.4024276
-0.15396577
-0.18497762
-0.07774249
0.16107005
0.26235512
-0.1312208
-0.008523412
0.17746238
-0.16337
-0.094485484
-0.28689757
0.012388457
0.22157076
0.13397707
0.14183442
0.18601103
0.16911645
0.04976952
-0.016211674
-0.12129526
0.03129235
0.18235368
0.12078728
-0.05108735
0.03895531
0.04234085
-0.09764929
-0.087911665
0.008922658
0.33968312
0.3668387
-0.075740494
-0.0068954695
0.16583328
0.11636412
0.1019329
-0.12670286
-0.08326386
-0.0014304261
-0.06238968
-0.153652
-0.11837166
-0.07085172
-0.02428287
-0.02703584
0.13056064
-0.23965739
-0.20988674
-0.28590742
0.2873695
0.07341781
0.29192695
0.22195289
0.0145468945
-0.045080688
0.17534281
-0.0039367233
-0.021958593
0.20067295
-0.294254
-0.23946078
-0.10552021
-0.18991232
-0.023389077
-0.09012982
-0.07287019
0.3429945
0.037034538
0.1079512
0.07860285
0.032891393
-0.0045067887
-0.14736485
-0.05734052
0.1259221
0.042904954
0.03381912
-0.1585422
-0.14934915
-0.020468237
0.3189647
-0.26198298
-0.11131463
-0.028185463
0.20244686
-0.032499406
0.060444303
-0.085915595
0.045061644
-0.106859386
0.17730054
-0.030914892
-0.038684618
0.16887076
-0.040759943
-0.000654521
-0.009780187
0.07827349
-0.031200314
0.11828754
0.04717969
-0.13806324
-0.033288047
0.07951524
0.03492191
-0.03770197
0.24612364
-0.05250887
-0.0111320065
0.118999876
-0.012292493
-0.0010916132
-0.11188569
0.0055197463
0.34731683
-0.062226232
-0.07622144
0.022577524
0.2834448
-0.03963628
0.35283157
-0.03258709
0.017952973
0.055648156
-0.058987167
-0.03538492
0.18790124
-0.24273854
-0.14243248
-0.06330764
-0.11326973
-0.020832295
-0.38187394
0.061550595
-0.2035781
-0.06477098
0.102815926
0.13123032
-0.08705943
-0.020486087
-0.10595154
0.15160863
-0.048545215
0.03141497
-0.015202427
0.09943246
0.013131634
-0.004751329
0.019653963
-0.19924565
-0.24635509
-0.11374995
0.31177467
-0.034730878
-0.21432076
0.031349424
-0.17157629
-0.059828583
-0.1780369
0.1473993
0.074548416
0.068768926
-0.14751253
-0.079654
-0.0713558
0.04673193
-0.15173517
-0.06486663
0.19558011
-0.13797006
-0.2278182
-0.1481036
-0.016786722
0.041702863
0.020192593
-0.14609855
0.09223528
-0.037931636
0.016189309
0.18147822
-0.08761657
0.10808235
-0.25969508
-0.041102543
0.044476863
0.22834009
0.0011088043
0.23011528
-0.22202064
0.21670946
0.03614919
0.13651647
0.06568841
0.03403914
-0.1284387
0.051506594
-0.20674784
0.12927134
-0.14055085
-0.089801475
-0.0509146
-0.018192349
-0.19166851
-0.14744876
-0.2197175
0.20112391
-0.072188824
-0.031844866
-0.17456509
-0.05017212
-0.1063627
-0.1437487
0.2268363
0.1804115
0.011981798
0.036436055
-0.102329046
0.16686296
0.07068513
-0.068994455
0.11901679
-0.35892358
-0.009372242
-0.059648044
-0.18367012
0.14949843
-0.045810517
-0.24292006
-0.07981226
0.10953666
-0.023228368
-0.2774678
0.28672424
-0.05411491
0.07453689
-0.2965371
0.2762467
-0.35107386
0.11145684
-0.10552213
-0.04242694
-0.1168033
-0.1670972
0.114634976
0.114875086
-0.015643323
0.031074466
-0.2027006
0.06838931
0.032560676
-0.0022125673
0.08925599
0.10164508
0.00021375495
0.0019142068
0.37655294
0.1323203
-0.04374952
-0.017682256
-0.15605548
-0.065501176
0.004989906
-0.10972343
-0.13597845
-0.12612785
-0.15206581
-0.13137522
-0.00018545106
0.04273622
-0.052695937
-0.12030279
0.21473528
-0.21514353
0.10993565
-0.14775097
-0.026432926
-0.18081735
-0.009453533
-0.07764869
-0.26606426
-0.025000222
0.0405775
0.20820744
-0.028366214
-0.15186206
-0.101702854
-0.20060746
-0.1134745
0.07950325
0.015229248
-0.13429497
0.041692976
-0.09807937
0.1620212
0.2826556
-0.08590436
0.060193844
-0.08672771
0.14141148
-0.20567052
0.072476275
0.21821137
0.156861
0.064075045
-0.20827827
-0.16778517
-0.08338218
0.045382313
-0.1527888
0.16530943
-0.29013595
0.2261712
-0.12412462
0.05806298
0.016620615
-0.16831025
-0.021389307
0.15999562
0.10236765
0.3958423
-0.18400301
-0.1558928
0.0940986
-0.116790146
-0.04004758
0.093413964
0.099338114
-0.05004186
0.112453334
0.38792315
-0.19341536
-0.1398504
0.01650376
-0.17151059
-0.4074061
-0.051236667
-0.109111294
0.13671356
-0.13109288
0.0022592887
-0.13002275
0.09301875
0.15179478
-0.04793322
0.03380951
0.13172124
0.13864079
0.13077754
0.1122338
-0.10950651
-0.29938585
0.018101657
-0.023337781
-0.19957313
-0.113619775
-0.035694946
-0.12938903
0.1705384
-0.08440495
0.08225608
-0.114755705
0.037441533
-0.12269854
-0.09976113
0.069852866
-0.015312641
-0.15435246
-0.16290963
-0.037184842
-0.030311389
0.108434
0.029376345
0.017007424
-0.09568832
0.08880479
-0.04897856
0.20515415
-0.19247371
0.12474543
-0.07252559
0.06767633
0.032682013
0.24373598
-0.14810207
0.02236415
0.08459105
-0.058956005
0.084478006
0.087201424
-0.18097402
0.13897206
-0.026640115
0.13350381
-0.15166415
-0.051567413
-0.15749405
-0.03746337
-0.020413535
-0.063645326
-0.15610316
-0.14324443
0.023393992
-0.03609857
-0.07808361
0.20092805
-0.4552326
0.04449566
-0.063923165
0.197207
-0.23936997
-0.25996214
-0.18849419
-0.09475912
-0.095601805
-0.07637995
0.09566142
0.040566675
0.08799018
0.073515214
0.287224
-0.043776922
-0.1689506
-0.015878387
0.024823686
-0.0644694
0.101555765
0.11426895
-0.08171805
0.24145564
-0.046427056
-0.09258916
0.024407728
0.13841139
0.20987949
0.27095705
0.037376314
0.1512084
-0.10970367
-0.23648585
0.17285019
-0.21383381
0.25902757
-0.1022788
0.066856444
-0.07598638
0.015609272
-0.08403154
-0.20140205
0.15569626
0.07514669
-0.12738878
-0.021870319
-0.015265504
-0.12621635
-0.035167456
0.02253965
0.14239356
-0.022364866
-0.11876223
-0.083231844
-0.19788685
-0.22262254
0.1715645
-0.14169303
-0.074015304
0.21554425
-0.010926833
0.026955467
-0.077990614
0.12083395
-0.1035333
-0.012629024
-0.17380625
-0.11339759
-0.018404579
0.039132092
-0.021639144
0.1915115
-0.06739351
0.07504088
-0.21307485
-0.21284546
0.0123707475
0.008239921
-0.02188099
0.14174557
-0.14725474
-0.09497529
0.035292033
0.13271968
-0.049382444
-0.0027910054
0.14994705
-0.18077537
0.006604167
-0.036453642
-0.122760035
0.090071
0.13041815
0.12081654
0.033706587
0.07610508
-0.064613834
-0.10940723
0.13169344
0.06977973
0.17706282
0.06941264
-0.07028135
-0.010758086
0.08735404
0.023472019
-0.0035597621
-0.2693678
-0.2929497
-0.12980151
-0.09900206
0.10987992
-0.020588523
-0.18920887
0.01688663
-0.0863804
-0.16857862
0.061206985
0.013239898
0.043911144
-0.07324931
0.115907736
0.066723764
-0.099990934
0.14927731
0.13451087
0.065583795
0.190575
0.029102681
0.094275795
-0.0847173
-0.089046516
-0.36017442
0.12034167
0.041845717
-0.19960086
0.049828086
-0.058390476
-0.09128612
-0.015499446
-0.09665074
0.038463082
0.14065772
0.03632064
0.240501
-0.18657732
-0.38743114
0.070020325
-0.24744613
-0.056669824
0.16528036
0.3214481
-0.07112379
-0.074479155
0.088120714
0.10912516
-0.12711348
-0.12132177
-0.016400646
0.12295599
0.21662839
0.084209874
0.24569066
0.094743766
0.09750646
-0.20440833
-0.019160125
0.0051646796
-0.1563942
-0.07718177
-0.24934773
-0.06161745
-0.11632131
0.06320479
0.09019751
0.16878425
-0.04839406
-0.32200646
-0.18162727
0.22422211
0.01302465
-0.063332245
-0.0069056633
0.07898465
-0.0763016
-0.09920466
0.034112
-0.013604398
-0.03086701
0.015655197
-0.3202781
-0.10937736
-0.17187701
0.13536449
0.22368243
0.10532891
-0.15308678
0.08885544
-0.11068215
-0.16325183
0.081605956
0.021160014
0.21739615
-0.10564646
0.021740189
0.14232783
0.15517966
0.0075551784
-0.009889922
-0.005075404
-0.09734882
0.27016157
-0.15102103
0.06257248
0.003625637
0.23098886
-0.04934017
0.0008642357
0.1424288
0.24694581
0.19085473
0.12869704
0.12932245
-0.06183556
-0.029081788
0.036312442
-0.08685317
-0.000658315
-0.056522682
-0.0030836721
0.06431621
-0.018072646
-0.06410093
-0.23650946
-0.0889626
-0.07553766
0.027628828
0.18704394
-0.061090592
-0.016554167
-0.22365691
0.12616508
0.08155033
-0.15140304
0.04899291
0.03421241
-0.18195516
-0.08004928
0.17354836
0.0558989
0.11540189
0.31500402
-0.054707073
-0.13158111
-0.004283051
0.007449735
-0.031516645
0.12517099
-0.008251592
0.1331987
0.149199
-0.0245456
0.27321038
0.119039916
-0.021103855
-0.06993214
0.05078849
-0.008257236
-0.10826218
-0.2592324
-0.17163613
-0.026578277
-0.058992032
0.11739343
0.15010566
-0.008439669
-0.15223515
-0.21360825
-0.108746395
0.148985
0.19378667
0.17325784
-0.21580327
-0.04780275
0.009383832
0.066511735
0.20934497
-0.1447334
0.30642757
-0.02546939
-0.14110789
-0.38049418
-0.041685224
0.05090412
-0.029370211
-0.0614312
0.037796915
0.13959666
0.109412454
0.1302423
-0.29023126
-0.043939967
-0.04238465
-0.0028427748
-0.004155944
-0.27693796
0.0075179986
0.20570372
0.17113896
-0.006210373
0.048765857
-0.16693716
-0.0791331
0.022422012
0.19726768
0.13805541
-0.16849542
0.17830154
0.14646088
-0.06634248
0.006760398
-0.105037294
-0.03546016
0.11942545
-0.15718089
0.028316557
-0.03743247
-0.16496125
0.008431195
-0.016478604
0.047122937
0.28493017
0.12318314
-0.068007894
-0.1761528
-0.0646216
-0.07227456
-0.019085448
-0.07807103
0.03973098
0.089688756
-0.096943334
-0.3561462
-0.022094816
-0.22089775
0.07039994
-0.011362886
-0.14415836
-0.015957583
0.18040161
-0.10390848
0.28210348
-0.052432287
-0.058324613
-0.13640161
-0.16186586
-0.20026101
0.025783572
-0.0759875
-0.033043656
-0.06779783
-0.04964494
-0.08756372
0.019525668
-0.2889323
0.031467326
0.085133746
-0.088667236
0.0389282
0.018698998
0.19141498
-0.01404896
-0.0071456656
0.11994172
-0.051869035
0.11730914
-0.041481994
0.12978646
0.105657704
0.16590293
-0.17781684
-0.3685945
-0.13617723
0.09489094
-0.09565417
0.10447976
0.0026828519
-0.013784128
0.14846432
-0.155099
0.000994995
-0.051239584
0.11347433
0.12194041
-0.029134838
-0.07070169
-0.037136834
-0.09593684
0.32625875
-0.114635654
0.039736643
-0.02848499
-0.15333661
0.038733993
0.28781772
-0.1684905
0.22100566
-0.08217385
0.15194683
0.2572331
-0.074304886
-0.0381159
0.012245831
0.14076982
-0.104609005
0.08101843
-0.116101235
-0.17362274
-0.12157643
0.27619046
-0.053200904
0.23106103
-0.108594544
0.0043656034
-0.1471776
-0.0019811362
-0.049584918
-0.28006595
-0.29114035
0.19857574
0.062529154
-0.15003003
-0.04766518
-0.04431723
-0.15109389
-0.26961204
-0.13977525
-0.069040164
-0.16152765
-0.021107746
0.26401734
-0.37841755
0.07449346
0.03926559
-0.15320961
0.07379963
-0.1407172
-0.06162187
0.016604524
0.1477454
-0.026060315
0.022847354
0.061253943
0.0812336
-0.09874752
0.02352064
-0.03415882
0.066152446
0.13615452
0.14766304
0.050400518
-0.14050822
0.11853207
0.020253737
-0.090692
0.10444895
-0.046854828
-0.15826128
-0.16961262
0.17255555
-0.03221052
0.1550504
-0.035475966
0.059185155
0.08179903
0.0043491777
0.09946371
0.03339934
-0.091676556
-0.058395803
-0.20315081
0.005077917
0.0931519
-0.028558068
0.047733214
0.08381172
-0.11930453
-0.08265021
-0.01638408
-0.119523846
0.20116308
0.15601957
0.0073592104
-0.14430854
0.00018854636
0.19025865
0.043319896
0.12978697
-0.053068258
-0.12167636
0.096418016
0.049203616
-0.26590696
-0.10194121
-0.013983303
0.069357395
0.15787195
0.026299328
0.07128606
-0.08856366
0.061094675
0.15119654
-0.09173131
-0.19772662
-0.5368054
0.0129828565
0.11645232
-0.16583207
-0.08463463
-0.013364035
0.033163134
-0.024257317
-0.20515576
0.11489449
0.050525766
-0.11639885
-0.077380545
-0.054879524
0.037173472
-0.027111383
-0.100594975
-0.039126854
-0.23904057
-0.23377937
-0.011185194
0.19462416
-0.12950535
0.12694123
0.1975584
-0.16063762
0.118436165
0.082371354
0.04132156
-0.38252655
0.13308875
-0.1364204
-0.043833528
-0.0918394
-0.042922914
0.14839391
-0.13143708
-0.021102337
0.072609834
-0.10171111
0.08343511
0.044612452
0.12398152
0.006341631
0.02088739
0.2527227
-0.059777316
-0.0050862185
-0.15481457
-0.006030554
0.17839509
0.14046586
0.2923228
-0.11326279
-0.020967104
0.10526978
-0.06291729
-0.14214799
0.32411376
0.09816673
0.067996874
0.21310918
0.10234932
-0.11189535
-0.014164792
-0.12790895
-0.15233876
0.07146611
-0.12470294
0.10132867
0.079860255
0.004946897
-0.05928246
-0.17902777
-0.12889363
-0.01972438
-0.17804429
0.02625656
0.09628811
0.28930235
-0.1056706
-0.051320087
-0.0888359
-0.30140343
0.2375307
0.21263017
0.036842722
0.004006232
-0.035789818
-0.014101502
0.14867154
-0.2628215
-0.10983219
0.09174444
-0.17774619
-0.17452915
0.17127271
0.29676342
0.14163649
-0.046570644
0.030307649
-0.23439638
0.012708741
0.10236754
0.040035278
-0.024252364
0.029105876
-0.11233293
-0.16388512
0.011421093
0.031717565
-0.07699524
0.038960133
0.14713693
0.05638545
0.12010302
-0.0073761977
0.10267189
0.15003558
-0.11556542
0.15703356
-0.079869665
-0.023946142
0.26059636
0.069236346
-0.1665821
0.021358252
0.09202946
-0.06586822
0.013322921
0.0041173953
-0.012324991
-0.06560431
-0.20647381
-0.09993809
0.098350786
-0.06584309
0.38109222
0.07812908
0.11232341
-0.07988861
0.02580535
0.16277346
-0.08043453
0.16351831
-0.020054564
-4.137648e-05
0.06440626
0.25416607
0.149144
-0.0019837907
-0.03670666
-0.13192305
0.22491291
0.15005888
0.08413247
0.048515152
0.081605986
-0.061093584
0.25984412
0.18898557
0.21989223
0.10006501
0.15830335
-0.01662686
0.03670356
-0.21559204
-0.06606062
-0.055484656
0.19678853
0.023427142
-0.12306741
0.057954937
-0.12558858
-0.08292445
-0.2134857
-0.1011489
0.02202937
0.059419397
-0.07319964
0.07862426
0.116669595
-0.15510553
0.12043944
-0.2694211
0.0896322
-0.1506396
-0.025507266
-0.09571719
0.1683279
-0.09425526
-0.039269596
0.2120614
-0.1265056
0.19982524
0.01183015
0.21163538
0.3297166
0.111338645
-0.39394495
0.11345081
0.13185118
-0.27318856
0.12077352
0.13611436
0.096100785
-0.15612763
-0.049681544
0.23329914
-0.10519443
0.20700707
0.013553168
-0.13034335
0.1647804
-0.075299405
0.10251251
0.020495033
0.19133009
0.08220778
0.15775226
0.037556387
0.12501343
0.0028276385
-0.08325001
0.21859677
-0.055610266
-0.06242212
-0.010514557
-0.078114346
0.22823884
-0.18725231
-0.04178233
-0.117974125
-0.0046568564
0.2607048
0.1912432
0.040460628
-0.029367756
0.037312463
0.25776434
-0.0025647772
0.1628166
0.14316411
0.0025259657
0.023813624
-0.011147133
-0.04760243
0.2402417
-0.07651183
0.059818633
0.13075429
0.008483848
0.12189696
0.051034525
0.10913755
0.16569152
0.030325523
0.06397296
0.043838955
0.07587549
-0.031003809
-0.13266832
-0.049342662
0.0042987303
0.058780394
0.2784605
0.045339417
-0.053233664
0.15761806
0.12483337
-0.038017094
0.0366863
0.32576904
0.017582262
-0.063825764
0.031596135
-0.3643619
0.08581118
0.44091722
-0.0785507
0.035790846
-0.028456312
-0.24313672
0.08709074
0.060649555
0.0036381371
-0.078515045
-0.057304747
0.2941617
-0.16916308
-0.06731274
0.043730658
-0.0009349879
0.100815654
-0.049210265
-0.0811403
-0.09187473
-0.13635859
0.009358626
-0.056181807
0.05911392
-0.05753251
-0.05206083
-0.06294875
0.17619357
0.06253679
0.08394929
0.05805171
-0.18213035
-0.15285923
-0.08602613
0.07124922
-0.04528448
0.1077917
0.09093748
-0.08959414
-0.0023113315
-0.09012462
-0.20473865
0.13556477
0.14024812
0.007138399
0.045496665
0.12939231
0.14801441
0.028726298
0.011050991
-0.16366893
0.15391052
0.03121772
-0.030192968
-0.09513641
-0.045834284
0.17310679
0.042213578
-0.11792448
-0.017313812
-0.115433246
0.25467545
0.09462806
-0.037132572
0.09523767
0.15785523
-0.12774388
0.20880966
0.14184566
-0.18020135
-0.24261215
-0.045739166
-0.1774923
0.0063377596
-0.008627593
0.028753651
-0.12165836
0.08806952
0.09425361
-0.13980098
0.07225709
-0.07433817
0.10373656
0.00045948563
-0.11421253
0.08626035
-0.06501404
0.22048236
-0.09192125
-0.08169735
-0.0516037
0.054463845
-0.28882748
-0.02152585
-0.1665004
0.4016752
0.28732637
-0.19683193
0.04481846
-0.033988606
0.003937926
0.12020402
0.0296979
-0.10676344
-0.12095981
0.13929091
-0.085734114
-0.1296227
0.12995608
0.19723694
0.087749496
-0.07376706
0.05642816
0.19826205
0.1030886
0.041813504
-0.21269497
-0.07972448
-0.005086753
-0.10304856
-0.04464116
0.12691903
-0.061722882
-0.06582594
-0.0244944
-0.11988274
-0.060920924
-0.067032084
0.038896516
0.037945483
-0.0113810375
-0.04928709
-0.053782705
-0.021475894
0.17657752
-0.15036619
0.25899637
-0.03196406
0.109771505
-0.009790087
0.10660121
-0.0074232398
0.06836398
0.057854787
0.016527407
0.08406955
-0.040325604
0.17053767
0.04667927
0.007443804
0.035073314
-0.19177428
0.24147047
0.19595008
-0.052684713
-0.1622843
-0.09809317
0.13706064
0.024901856
-0.08580607
0.0073752445
0.077807784
0.099437855
0.03497639
0.12634194
-0.008329236
-0.0859303
0.04915107
0.18820415
-0.1181213
-0.20561706
-0.19026938
-0.27059284
-0.012078627
0.28348368
0.06369874
-0.13994183
0.07666996
0.02618373
0.13468608
-0.12976126
0.05934805
-0.085422024
-0.16721056
-0.09486975
0.24430686
0.19736393
-0.088678
0.039830256
0.11732095
-0.17868984
0.022503298
-0.091241285
0.210442
0.014946499
0.07627236
0.11140614
0.057071358
-0.09806289
0.13568868
0.124760754
-0.15729941
0.01710213
-0.019677714
-0.18056326
-0.0072497646
0.07964915
0.17627385
0.069848955
-0.060945243
-0.11382174
-0.038309988
0.042981986
0.021915548
0.027168712
0.12987988
0.12726116
-0.32755595
0.07488095
-0.0010986021
0.15698437
0.062155474
-0.31064045
-0.09882782
-0.012473795
-0.11929952
0.13632575
0.08049142
-0.07649043
0.4886368
0.17760521
-0.05381625
-0.029671168
-0.11131811
0.041834757
0.15927006
-0.16889183
-0.054001838
-0.07620074
0.101771586
-0.03425628
-0.051254008
0.21978426
-0.2827726
-0.07961018
0.08155859
-0.11874762
0.016497295
0.16943166
0.07953362
0.020277277
0.04171313
-0.23733114
-0.015921375
0.051728263
-0.29363135
-0.3118627
-0.13684593
0.08126672
0.09065618
0.023760173
-0.122848436
0.08328129
-0.077313885
-0.11249055
0.14683726
0.17753531
-0.06311488
-0.012440823
0.22418901
-0.1443053
-0.21939236
0.19718593
-0.17021976
-0.096297555
-0.2192459
-0.017863533
-0.0835768
0.038363572
-0.008005857
-0.009521123
0.16766803
0.12510228
0.0021077471
-0.03084279
0.0056749815
-0.13612206
0.07150687
0.16137478
0.21175723
-0.019804947
0.03564807
-0.0019513858
-0.09012597
-0.24796806
0.0133331595
-0.04424248
-0.18525468
0.015935615
0.075937584
-0.05553223
-0.0597523
0.1985338
-0.12581432
-0.17741407
0.07777341
-0.040647566
-0.03948841
-0.15126498
0.07500478
-0.025573103
-0.1008709
-0.11986204
-0.08336926
-0.08786538
-0.010747317
-0.062955275
0.08659432
0.16263767
-0.07117891
-0.26746902
0.22212394
0.005997415
-0.13964838
-0.038108934
0.17232066
-0.025280088
-0.2301118
0.34951112
0.00726398
-0.36942515
0.037672732
0.04088942
-0.17143083
-0.10640986
0.021931311
0.06109261
0.2070127
0.0032628071
0.065318145
0.036255192
0.042091947
0.025545571
0.06912123
0.19863151
0.21481624
-0.15410517
-0.08699304
0.057054896
0.20366432
-0.21735331
-0.17865624
-0.015187725
0.020276224
0.05565454
0.2740268
0.22646622
-0.22001073
0.1618331
0.04809687
-0.24278422
0.060740363
-0.09548644
-0.09688775
0.04482496
0.057019513
-0.06910262
-0.28744078
0.16529806
-0.020019546
-0.2525408
-0.1406653
0.06440784
-0.09558648
-0.16748355
-0.13682207
0.42763624
-0.15966006
0.014585233
0.23077373
-0.08072487
-0.07908582
-0.11195476
-0.15657282
-0.017546471
-0.007922353
0.022486966
0.16410235
0.16843265
-0.032083195
0.050590105
-0.026667364
-0.33034983
-0.01639826
-0.030333266
-0.024902474
0.15375294
-0.037566453
0.013221155
-0.22791988
-0.004390771
0.14526623
-0.010269926
0.036768824
0.045594603
0.07884418
-0.069932304
0.27840298
0.08460176
0.072475344
0.023154601
0.14420205
-0.060914263
-0.042816672
-0.12725519
0.05944947
0.12602928
-0.04547683
0.12560764
0.12766916
0.13521168
-0.010378942
0.052553985
-0.026847145
-0.015887493
-0.11891857
-0.16162606
0.1931521
-0.06410643
-0.20964804
0.012981154
0.013018821
0.08785475
-0.039861858
-0.10214036
-0.015515945
0.16891068
0.04144193
-0.05726887
0.00836428
0.29567024
-0.3301372
-0.13394979
0.010846697
-0.05705925
0.03481561
-0.21196549
0.22243555
-0.15905859
-0.14857768
-0.29313812
0.15747988
-0.052201968
0.12751593
-0.03485744
0.016111895
-0.15117225
0.16748141
-0.018906483
0.06742193
-0.035587322
-0.07834458
0.00929644
-0.08694755
-0.11994274
0.12660848
-0.14842996
0.1077929
0.037978355
0.21691509
0.058594633
0.1906434
-0.079241395
-0.05267945
0.08171
0.042635135
0.0943058
-0.044124793
0.09478896
0.07759666
-0.13948442
-0.015325674
0.2518822
0.06643745
0.07033956
-0.11443279
0.06051941
0.24550399
-0.35370088
-0.05187782
0.05513971
-0.06250613
0.09775219
-0.11573765
-0.32827878
-0.44339445
-0.027138859
0.18054323
0.1290921
-0.11992271
0.05318214
-0.070721336
-0.10032448
0.08994891
0.05542216
0.066627234
0.11170227
-0.013514135
-0.062216748
-0.06788674
-0.24106978
-0.027921489
-0.15261206
-0.13694043
0.0967708
-0.11321816
0.022830846
-0.086393446
0.23300439
0.14579798
0.11732363
-0.0019188361
0.03560934
0.13771993
-0.0346611
0.01621391
-0.03165387
0.026766494
0.026911046
0.00024296215
-0.22991532
-0.10431621
0.06625506
-0.18362619
-0.045781318
-0.30678248
-0.13541281
0.13334495
0.31376106
-0.1344616
0.20152497
-0.1273978
0.14559956
-0.09443994
0.20984082
-0.16721621
-0.08252898
-0.07777769
-0.21329194
0.08338386
-0.059405178
0.017105162
0.10827948
-0.19379824
-0.22179373
-0.002198116
-0.109305084
0.10686892
-0.019659419
-0.048562746
-0.19743094
0.06326356
-0.20493169
0.008955312
-0.049728636
-0.13234
0.0935683
0.095710754
0.1449262
0.09689707
0.1499017
-0.22386849
-0.026301976
0.11546073
0.032356806
-0.21102926
0.07358698
-0.041003313
0.07944779
0.13737743
0.07649365
0.048101913
-0.1114487
-0.036222912
-0.16047806
0.07762703
0.20476896
0.10099756
-0.026647408
0.0055901315
0.26767507
-0.3044499
-0.048057806
-0.13683501
-0.011870814
-0.16549595
0.07393876
-0.07857373
0.12718467
0.11655877
0.03126092
-0.05872847
0.12394199
0.063627854
0.014094918
-0.07176121
0.0412788
-0.20022686
0.1309764
-0.246622
-0.13753486
-0.19547391
0.16480935
-0.028114153
-0.14597149
-0.2137165
0.060059633
0.08163393
-0.17883798
0.07118782
0.041884225
-0.31788066
0.023609722
-0.1095901
-0.16221268
0.19358668
-0.33582318
0.0073633376
-0.019413663
0.021577746
0.04530708
-0.13277853
0.20823285
0.12759519
-0.08003405
-0.27358633
0.25168547
0.11417177
-0.13392219
0.107829474
0.10702022
0.057600792
0.16582155
0.13148639
-0.18997365
-0.0057673617
0.08046149
-0.14770208
-0.06493923
-0.023494534
-0.016232943
0.01769655
0.09066166
-0.0010652071
-0.14303508
0.08390241
0.07954926
0.3111865
0.029328676
-0.041571513
0.037894454
0.05310161
-0.15928413
0.2180758
-0.23357214
-0.047806796
-0.06257684
-0.107037105
-0.02123433
-0.011841061
0.17819737
-0.12191558
-0.251086
-0.2021717
-0.08919013
-0.018788056
-0.018529434
0.020694036
-0.13340634
0.19217186
0.06119292
0.185459
0.14604358
0.07948941
0.03231454
-0.15148173
-0.15409878
-0.14321235
-0.007965622
-0.0051399027
-0.0845233
-0.105176985
0.4251064
-0.13889112
0.048542045
-0.011236589
0.11326516
-0.06360309
0.2092509
0.35774225
-0.09304679
0.099814296
0.08209692
0.1954015
-0.027390784
-0.21912166
-0.08826879
-0.0013663283
0.09310581
0.02527184
0.03409146
-0.020258712
-0.094508626
0.082725234
0.028533014
0.010057991
0.036975905
0.09839042
0.24388872
-0.33033454
-0.032265525
0.065056905
0.11535435
-0.0163688
-0.36541697
-0.0681985
0.02718747
-0.18133761
-0.07594431
-0.042254742
0.2807209
-0.023646016
-0.26932776
0.03218351
-0.06465679
0.023515152
-0.006101514
-0.1821296
-0.171966
0.17266262
-0.10980656
-0.3538299
0.031020755
-0.16968323
-0.18100508
0.026411623
-0.27882305
0.015471166
0.077027194
0.11366108
-0.20201871
0.091206565
0.1423555
-0.015890352
0.2694639
-0.30799025
0.104898155
-0.046051756
-0.010927454
0.034628477
0.038026124
-0.19168319
0.037110038
0.0809225
-0.07871802
-0.23315056
-0.019274091
-0.37849218
-0.076431036
-0.11096735
-0.12382929
0.09544738
-0.074551076
0.07921711
0.07097208
-0.14172776
0.13163601
0.2112345
0.03782271
0.016774707
0.12518871
0.034092765
-0.1503988
0.027450034
0.20395681
-0.0203077
0.21627025
-0.11249343
0.06493071
0.0012515907
-0.03340537
-0.113477565
-0.15640496
0.024115065
0.040241864
0.056302793
0.12472184
-0.13420063
0.074067816
-0.007748197
0.11196653
0.09565847
-0.074523136
-0.2264851
0.13737658
0.15903433
0.12014185
-0.08010996
-0.043054435
-0.09536001
-0.20352122
0.07602128
0.43539527
0.134549
-0.0885018
0.054068636
0.00814827
0.15004258
0.14327034
-0.0098599605
-0.08950921
0.2267075
0.0014857255
-0.21887904
-0.07397177
-0.103245564
0.14243323
0.107389964
-0.06478049
0.111758
0.030757586
-0.051153604
-0.28631875
0.2932176
-0.07256138
-0.01973318
-0.2966877
0.09059167
-0.03655336
0.0377201
-0.25375703
0.12530504
0.13508324
0.1811899
-0.11112405
-0.054152388
-0.26748276
0.007797161
0.0050660456
0.3063156
-0.19129331
-0.0027657857
-0.16072504
0.01715724
0.10224647
0.02367562
-0.070072435
0.4175218
-0.11575207
-0.08051757
0.27045614
0.13853577
0.013370936
-0.044835158
0.058633056
-0.015745243
-0.26646373
-0.0038735822
-0.0243609
0.11442161
-0.13545862
0.016835218
0.0679489
0.24523787
0.26941526
-0.01765304
-0.03748275
0.18322968
-0.2113659
-0.0732626
-0.013228386
0.056225207
0.048768785
0.17463632
0.070499696
-0.16978097
0.21884954
-0.13936105
-0.04130515
0.20805386
-0.0013496326
-0.049782895
-0.049659096
-0.17628276
0.16696711
0.03601586
-0.18162102
0.31586087
-0.039630942
0.005837245
-0.10716325
0.1148701
-0.12418635
-0.15950958
-0.15331654
0.0036605506
0.0059738504
0.02852575
0.07777128
0.18068452
-0.119647294
-0.07258692
0.28250247
-0.27884352
0.101703316
0.018478738
-0.083817296
0.1614316
0.23727502
0.048736807
0.43689394
0.039597895
-0.07841171
0.11897135
0.06692308
0.10591154
-0.13351606
0.20291692
-0.07220852
-0.1752456
-0.1227264
0.26791233
-0.09140266
0.031787954
-0.11470407
0.22400565
-0.20962653
0.04547046
0.1875605
-0.03260926
-0.13654573
-0.044621903
-0.16921261
-0.03300462
0.17266184
-0.062398408
-0.09633813
0.009698901
-0.07829949
-0.10512903
-0.019608304
0.06107911
-0.16567256
-0.020436596
-0.18442489
-0.2738309
-0.2692564
-0.03367788
-0.1006237
0.11153136
0.09188062
-0.15619332
0.17247814
0.016049713
0.12148863
0.044605073
0.16246405
-0.13686325
0.24329689
-0.00026908432
-0.11350011
0.23375112
0.104432024
0.1449176
-0.09178938
-0.14046432
0.19304642
0.019005112
-0.03503903
-0.29300752
0.0059809145
0.12181892
0.36688945
0.0651172
0.13257256
0.1398172
0.048879363
-0.08429855
0.1296366
-0.1746329
0.18473329
-0.0047294144
0.06341429
0.16346659
-0.1808814
0.10653991
0.07614832
-0.14154612
0.5454035
0.1581672
-0.21862635
-0.016827427
0.15903106
-0.040464975
0.030730817
-0.106031775
0.024840152
-0.019319916
-0.068696655
0.19745496
0.16206403
0.1205122
0.37081733
-0.017311746
0.34726438
-0.16929151
0.07653012
0.2244149
-0.10788511
-0.077009924
-0.08958713
-0.21519838
-0.15129577
0.14042716
0.08039254
0.0860673
-0.07962069
0.0062857475
0.12702833
-0.15878408
-0.052701168
0.05895606
-0.08876241
-0.14396957
-0.17496628
0.1967829
0.030545834
-0.13741364
-0.10701116
-0.10367347
-0.018861536
0.025537737
0.27334863
0.022396842
-0.24541937
0.08966262
0.0740607
-0.27346882
-0.07754184
-0.061661553
-0.092509754
0.0120788105
0.104518704
-0.091994524
0.3221791
0.040591747
-0.18052159
-0.07129091
0.13530202
0.100248076
0.07026108
0.18254805
-0.15831341
0.08830461
-0.08803757
-0.03975446
-0.0727379
0.059680033
-0.112381324
0.021950543
0.0288841
0.19586533
0.060306914
0.20996182
0.0670603
-0.018132659
-0.17618011
0.024846118
-0.08405188
0.093296476
0.00584908
-0.077053055
-0.061986264
-0.008985517
0.047300406
-0.19734688
-0.27648583
0.08262288
0.40068197
-0.123789
0.17241767
0.06672137
0.002533482
-0.1445106
0.0049311477
-0.12702926
-0.12788478
0.23362274
-0.046841048
-0.1761794
0.0676426
-0.008526263
0.10117296
-0.035717458
0.30106875
0.23250392
-0.0957148
-0.04434459
-0.057012096
0.038050983
0.106796354
0.0821825
-0.024282353
-0.065495126
-0.16025025
-0.08562384
-0.13284127
0.015020236
-0.070948906
0.2000323
0.09202709
-0.1899027
-0.3389881
0.05999746
-0.08148656
0.12253977
-0.01725084
0.29921985
-0.20864488
0.037805166
-0.028072199
-0.031950325
0.06694158
-0.036281362
-0.027845317
0.160894
-0.16962618
-0.02351199
0.07553901
0.10645675
0.061854903
0.090084314
-0.111959875
-0.17236863
-0.027557956
-0.046852283
-0.10629628
0.19995852
-0.13309923
-0.1360962
0.12272667
-0.17449963
0.1653164
-0.0710965
0.07591439
0.23086412
-0.067113794
-0.14513023
0.15957916
-0.1529836
-0.15276438
-0.08986679
0.031388883
-0.041260704
0.09362133
0.1294912
0.049879167
-0.14147493
0.022967836
0.22078642
-0.026844958
-0.024784373
0.17971107
0.11314177
-0.17606816
-0.035744656
-0.15679958
0.19228077
-0.088898934
0.004453777
0.2394593
0.34443367
0.39905515
0.07704159
-0.052114245
-0.0851278
-0.15803473
-0.10294488
-0.053341735
0.10066896
-0.15701978
-0.06576551
0.009596428
-0.15186913
-0.065550044
-0.102406025
0.15603979
0.20085761
0.120503485
0.13301493
-0.060834605
0.056973405
0.17142269
-0.2053117
-0.16282757
0.073173955
0.041600205
-0.10585369
-0.050587673
0.13918667
-0.09475953
0.0009595632
0.022526287
0.124406956
-0.16947469
0.11085499
0.030883549
-0.1212601
-0.1775159
0.26468915
-0.14558911
-0.007324821
-0.16996318
0.1756496
0.11867203
-0.13163954
0.02040153
-0.025930528
0.1793191
-0.10904079
-0.14261097
0.099895224
-0.081518
-0.082025275
0.011602117
-0.22618572
-0.0013300001
0.06385471
-0.12204192
-0.027794758
0.08338151
0.061661642
0.24112721
-0.036191862
-0.1337966
0.00059664866
-0.030278297
0.16004205
-0.080006406
-0.21699733
-0.106581986
0.19494882
0.1341528
0.06826824
-0.07376945
-0.19848938
0.027252002
-0.19162479
-0.07889153
0.023910321
0.22340058
0.044775546
-0.21212988
0.12606157
0.28930134
0.18212752
0.101492435
-0.016002454
0.07094183
-0.13526934
0.015210938
-0.2548069
-0.07154357
0.06150802
-0.09380348
-0.040902913
0.08070034
0.08449838
0.029341688
0.31474185
0.054587502
-0.036334187
-0.10079875
0.022798369
-0.00988724
0.15809931
0.067532465
-0.036200818
-0.21748935
0.2695343
0.027157465
-0.20893402
0.16283761
-0.106438234
-0.066889904
-0.14715445
-0.012392598
-0.028632183
-0.14073722
0.0749671
-0.26466545
0.12161384
-0.09366417
-0.17871846
-0.013848979
0.04974194
-0.11253258
0.06689362
0.15100606
-0.122486494
-0.102132455
0.24901897
0.21889623
0.058869906
0.18278527
0.06607221
-0.15069935
-0.15432256
0.27120927
-0.12354921
-0.2815148
0.08685183
-0.03403627
-0.010965615
0.1251582
0.43239436
0.02593494
0.15691471
0.033775266
-0.07028451
-0.0943569
0.045323953
-0.110806264
0.029394621
-0.11196417
0.23352847
-0.1385307
0.15802306
0.17492549
0.0058120866
0.09074781
-0.018717157
-0.12688306
0.264885
-0.031985916
-0.28242078
0.10212127
-0.006248911
0.26354122
0.06952022
-0.105165415
-0.01402872
-0.10068727
0.06825031
0.1376921
-0.23952124
-0.08890447
0.007012379
0.24257092
0.16180465
0.17533992
0.1164534
-0.039626732
-0.08637793
0.07708108
0.25128797
0.15796845
0.12367142
0.12927617
0.07521537
-0.05737996
0.09617027
-0.23551641
-0.055953134
-0.043642882
-0.14527456
-0.08247904
0.079602726
0.2594049
0.13071565
-0.12646763
-0.17178711
0.060335997
0.28653228
-0.0030860798
-0.23391409
-0.108258694
0.2994395
-0.06973867
0.3548109
0.12965705
-0.14463972
0.04769134
0.04480897
0.116309725
0.061481975
-0.15140928
-0.080531605
0.09693964
-0.2729427
-0.02597207
0.22312498
-0.00554497
0.16485538
0.07657548
-0.13045801
-0.12603016
0.37008244
-0.0064059203
-0.14829963
-0.026157709
0.061772246
-0.008010416
0.19825798
-0.04046945
0.023315815
0.17172156
-0.031875797
0.12534742
-0.063524306
0.0770893
-0.090991564
0.104482956
0.013378598
0.074427865
0.0267297
-0.082066074
-0.12907574
-0.08418365
0.12588334
-0.043622438
0.094132185
0.2562145
-0.004412808
-0.06888424
-0.008035342
0.09095878
-0.1757584
-0.15240934
-0.041081116
-0.10954037
-0.17054874
0.08025003
-0.05345598
0.17220287
0.05566785
0.04187361
-0.0051620044
-0.1181112
-0.06284928
0.041280437
0.005462768
0.07752504
0.12259526
0.079701304
-0.061116043
-0.115314044
0.21938206
0.08874742
0.06972966
-0.19228686
-0.09850061
-0.15995611
-0.07668676
0.027783109
-0.0065877433
-0.012491977
-0.21339923
-0.12724291
0.07463252
0.19262148
-0.03835447
0.08983301
-0.09059051
-0.007412085
0.23207372
-0.061650515
0.077827595
0.10630518
-0.10375401
0.016729545
0.028979015
0.12501433
0.13043912
0.13369246
-0.22768907
-0.26650515
-0.12450309
0.057683587
0.18321392
-0.1319605
-0.06330337
-0.12255253
-0.09408187
0.1257946
0.05701443
0.051268473
0.22981142
0.105446555
-0.10409099
0.10248887
0.14272845
0.10255272
0.048255544
-0.14004251
-0.14488372
-0.080120474
-0.008333826
-0.20780909
-0.23592006
0.0033985234
0.1084864
0.10372087
-0.17697893
-0.022263695
0.14038926
-0.16407622
0.033009708
-0.22797371
-0.26464483
0.23319517
-0.12194396
-0.037917595
0.108838506
-0.10945626
0.31458518
-0.15322566
-0.053458076
0.061150733
0.03151374
-0.05505982
-0.095866114
0.044032753
-0.1275352
0.18213087
-0.13880928
-0.10046789
0.19687802
-0.13029866
0.03437901
0.21063231
-0.05117139
0.1232117
0.057256006
0.0066651725
-0.006402111
0.04579878
0.20877743
0.09526496
-0.17446522
0.2702166
0.034003973
0.09860978
-0.10668013
-0.18953285
-0.20505962
0.31328303
0.13923948
-0.04973507
-0.078022316
0.19100256
0.14764605
0.0012008927
-0.069916144
0.1762207
0.06224501
0.13318852
0.17729686
-0.14186585
-0.04382461
0.19286564
0.027373191
0.08074093
-0.17185397
0.17158416
-0.14827517
0.20011865
0.1170363
0.026099373
0.05531744
-0.28915405
0.02942162
0.006083614
-0.054613296
-0.09262936
0.08524637
-0.087528266
-0.036348287
0.018977001
-0.22407737
0.072304666
-0.052532837
-0.3976281
0.14344814
0.2463106
-0.0053190975
0.0057764216
-0.08355363
-0.10958683
-0.076560594
-0.1264875
0.21211188
0.27854753
0.0047395085
0.07478616
-0.097192995
-0.15535237
0.15614928
-0.06743174
0.11137249
-0.2105638
-0.14892246
-0.007037522
0.101472564
-0.008967253
0.15127155
-0.102309406
-0.082843915
-0.15761925
-0.012434366
0.13383965
0.13178009
-0.043042336
0.18336181
-0.044920277
0.14278093
-0.022321902
0.4216836
0.22588485
0.006491157
-0.1307686
-0.06255428
-0.08700256
-0.044038005
0.18275549
-0.04506013
-0.012144626
0.037350867
0.11439502
-0.104398824
-0.11056399
-0.09301665
0.10566458
0.07102473
0.11582514
0.089334354
0.101016924
0.10423333
0.24417958
0.055091754
0.013238666
0.04539107
-0.09256209
-0.06409331
0.06583088
0.06415634
-0.07783595
0.2417942
-0.14025341
0.23227362
0.049984474
-0.030311478
0.0053497436
0.05736744
-0.078630574
-0.13498326
0.23050998
0.035257466
0.12027837
-0.013398214
-0.09064882
-0.042362455
0.15483308
0.09760329
-0.12601146
0.025094034
0.12152981
-0.2216514
-0.1619308
0.15149122
-0.15476698
0.15716532
0.0075701177
0.081895724
0.24294423
-0.1959336
0.017196983
-0.11398905
0.471624
-0.16890325
0.07430672
-0.010213483
-0.18507761
0.41430053
0.11719764
-0.13230547
-0.052558538
0.12969664
0.070688225
0.19424029
0.21117294
0.12818499
0.03985883
0.26150396
0.021019533
-0.22702478
0.018494552
0.22843458
-0.09633101
-0.08137551
-0.07244865
0.17999396
-0.033395473
-0.049085546
0.008062148
-0.05547376
0.19282965
0.041082423
-0.12955259
0.039833974
0.16882443
0.07049115
0.09733161
-0.016757961
0.12472783
-0.060478702
0.011058441
-0.012675872
-0.2801475
0.025010815
-0.08051261
-0.23814513
0.21749184
0.008619533
0.13392165
0.07937369
0.081725
-0.14137518
-0.09263002
-0.016763425
-0.13732204
0.110561356
0.048966866
0.038963232
-0.16220313
0.18147954
-0.04779934
-0.2152604
-0.15283567
-0.23050319
-0.2019482
-0.0020755935
-0.05154353
0.0488274
0.14248307
0.030983664
0.09990669
-0.18166287
0.0023421603
0.0401094
0.008615458
0.15216732
0.073297545
0.059588686
-0.018755754
0.06698324
0.22612192
-0.22405541
-0.02996168
-0.2860555
-0.0070038633
-0.053247828
-0.20997125
-0.070518635
0.018887682
0.021725176
-0.15680377
-0.017130371
-0.15065075
-0.10333707
0.12188772
-0.17826176
0.09855021
0.02548055
0.13476257
0.08907196
-0.14928077
-0.039783597
-0.25830767
-0.14669977
-0.23169494
-0.06717247
0.04554284
0.01935904
-0.13986166
0.045191426
0.12391854
0.0050745946
-0.14169723
-0.18419355
0.004462351
0.05034155
0.031661615
-0.01548215
0.023227723
-0.10859355
0.0870919
0.012846042
-0.090529084
0.01502192
-0.19269916
0.31590903
-0.14296098
0.07876981
-0.09759457
0.07243277
0.026593724
-0.15005279
0.07648966
-0.013710708
0.07056501
-0.12894183
0.00320671
0.17725402
0.093243435
0.40107387
-0.083599046
0.16402733
-0.04253453
-0.0447441
-0.011180858
0.014029618
-0.2706884
-0.026138557
-0.0946966
0.048401408
-0.022508452
0.22175105
0.008054733
0.07758511
0.11036205
0.18944882
0.040430427
0.26940697
0.01327433
-0.22385997
-0.12015041
-0.114989445
-0.03854796
0.15996161
0.1435231
0.09481095
-0.04400606
-0.17743137
-0.017654417
0.24265191
0.23218857
-0.2905376
0.047773745
-0.10543885
0.11740911
-0.043376353
0.070625395
0.21564136
-0.030215418
-0.0040348647
-0.018039066
0.13530584
-0.15687293
-0.020232681
-0.148271
0.2520144
0.08341304
0.06997957
0.053247176
-0.12549078
-0.1293098
-0.20908889
-0.2882786
0.10690847
-0.13128744
0.021641346
-0.07467153
0.07563187
0.051072996
-0.32840723
-0.049293667
-0.052754365
-0.054762784
0.12850988
-0.18450147
0.22190414
0.07446836
0.06857501
-0.064211726
0.07222702
-0.15195861
0.12597978
-0.13645308
-0.43134654
0.0022229608
0.122516096
0.026638651
-0.14688437
-0.10804471
0.14547236
0.17778738
0.09411042
0.23806678
0.18545498
0.06940919
-0.13313232
0.13945572
-0.07618324
0.12062479
0.06519862
-0.18511781
-0.079133525
0.05233851
0.044368025
0.01597638
0.15076686
0.09981373
0.1536807
-0.21204382
0.33254427
0.038480576
-0.090014756
0.06797431
0.057425875
-0.00076430466
0.23453067
0.23692332
0.074501865
-0.13029017
-0.03548854
-0.29689187
0.21921602
0.13348879
0.07375665
-0.12991506
0.0038419554
0.09617828
0.14211465
-0.14818305
0.113523394
-0.16667627
0.10354809
0.023824688
0.11968186
-0.021876412
-0.15172502
-0.0065611135
-0.022035385
0.0029749428
-0.088375956
-0.008922707
0.120291784
-0.122266285
0.046161883
-0.028012503
0.11479349
-0.3465336
-0.14407727
-0.04149864
-0.07201202
0.019651983
-0.0062010945
-0.14941177
-0.08676462
-0.1278107
0.12564683
0.13627723
0.01735594
0.20098858
-0.07964162
0.18820123
-0.15560548
-0.110890254
0.025177667
-0.16824047
-0.13804802
-0.15473756
0.14729154
0.0504948
0.11246514
0.07991902
-0.048216697
-0.049833234
0.040795412
0.017676802
-0.14484604
0.31403816
0.16513216
-0.019952867
-0.15561785
0.012078552
0.029171828
-0.1839153
-0.02396441
-0.031765677
0.02545853
-0.1543768
-0.17467691
-0.04334116
0.062354736
0.094824456
0.13425267
-0.0070728846
-0.043451432
-0.21901801
0.1631737
0.23834313
0.17139126
-0.27884197
-0.19045305
-0.09429699
-0.1456298
0.12822242
0.048730765
0.29131576
-0.22036792
0.12427731
0.21831383
0.05784194
0.0020944846
0.17362109
0.07497098
-0.18311676
0.0797294
0.11458916
-0.14911371
0.15022166
-0.10734975
0.14929128
-0.092506215
-0.20453192
0.2696901
0.114430554
0.22521742
-0.01688426
0.101094894
-0.22323735
0.045567635
-0.08151594
0.1599656
0.46044722
0.11337793
-0.023294538
-0.13913716
-0.009953361
0.17942221
-0.21142542
-0.22397254
-0.14642863
0.032362103
0.09907089
-0.16433606
0.020417765
0.00335246
-0.034560356
0.04680237
0.05378883
0.04364963
0.22505683
-0.14502095
0.07726304
-0.2667517
0.111131646
-0.2563501
-0.28650108
-0.0246148
0.21641943
0.15592274
0.095568635
-0.15473756
-0.09308992
-0.17466678
0.00424257
0.053081896
0.1813501
0.0055346442
-0.08823008
-0.04514266
0.22477962
0.032981593
0.12225048
-0.034830358
0.2594993
0.023898605
0.049184818
-0.04084527
0.22768201
0.073166065
0.1051264
0.3025874
0.020209959
0.00286063
0.107733384
-0.28219408
0.1439126
0.083936036
0.0343924
-0.0581904
-0.041320287
0.25625902
-0.05371695
-0.2785668
0.004078561
-0.040647175
0.04870158
-0.020555358
-0.14037703
0.24215227
-0.18639208
-0.019496689
-0.14641152
0.114469625
-0.14294241
-0.04039464
0.019701377
-0.10915997
0.121525235
0.0033716713
0.2851762
0.06910717
-0.020146454
0.016167266
0.32444742
0.009046402
-0.17857312
-0.16711842
-0.017938789
-0.27218026
-0.111320354
0.0647915
0.01738693
0.13698655
0.03872114
-0.13848838
0.0022518665
0.048235208
0.07580681
0.14920066
0.08141827
0.09622177
0.010366089
-0.007141135
-0.107270636
0.07256341
0.20906846
0.09195624
-0.19114248
-0.1045495
0.10402069
0.17583081
0.11094002
-0.02315754
-0.031724654
0.10202451
-0.22691685
-0.2607036
0.054067742
0.0056935917
-0.014224796
-0.16601777
0.12570646
0.0735762
0.026743462
-0.017492846
-0.21539535
0.038960606
0.2216962
-0.01573238
0.17586575
0.16178201
0.19359866
-0.107230075
0.069885604
0.044754576
0.023126487
0.070987396
0.23717234
-0.22020051
-0.17513902
0.17712371
0.07429814
-0.15546328
-0.060932532
0.12003514
-0.023331488
-0.17055015
0.09420021
-0.12861761
0.14115185
-0.22464097
0.023534397
0.15873541
-0.11357713
0.116088815
0.04097057
-0.035630003
0.030045617
0.3611498
0.11233623
-0.1810497
0.18662384
-0.17691608
-0.06580332
-0.08059593
0.16676629
-0.015901534
-0.14562142
-0.123918965
0.033812758
-0.13845423
-0.071950555
0.22789626
0.100669734
-0.04331321
0.0782082
-0.27009857
-0.1868662
0.082156286
0.050209437
-0.07963702
0.16921754
0.039591327
0.2763114
-0.049162976
0.24472095
-0.0034262072
-0.00013294176
0.079407364
0.023829179
-0.1563671
0.063914046
-0.051797226
-0.30411324
0.065510124
-0.2586322
-0.10890696
0.18613851
-0.12264419
0.17353696
0.05985668
0.24014272
0.11360898
0.18456051
-0.066390865
-0.04864581
0.1143294
-0.0949226
-0.0739038
-0.08390479
0.052386396
-0.03919396
0.27190948
0.035651654
0.15110731
-0.052277546
-0.1533339
0.019448714
-0.07582883
0.1322778
-0.056452695
0.06814048
0.059081167
-0.066805765
-0.032458168
-0.20645714
-0.035510622
-0.04618478
0.14979899
-0.20533317
0.06635131
-0.16212448
0.16798829
0.17305382
-0.113059305
0.009993735
0.03709476
-0.056660965
-0.10402899
-0.16087864
0.083172925
-0.21684085
0.1469974
0.10152741
-0.17299566
0.08939742
-0.0025807116
0.0443115
-0.12054158
0.10048265
-0.07641467
-0.09224944
-0.019856032
-0.003069854
-0.19574001
0.2265859
0.0014304717
0.15419157
-0.1436453
-0.11873757
0.026396936
0.24021484
-0.07080552
-0.15570176
-0.15388508
-0.028993348
-0.01822637
-0.03411286
0.3274834
0.073889546
0.121682376
-0.033799805
-0.12554467
0.072369225
-0.38772684
-0.2670919
-0.07226128
-0.072119676
0.12567191
0.1759661
-0.08413321
0.15353806
-0.23217694
0.15954195
0.024156755
0.018708827
0.48913544
0.030982742
-0.23930022
0.15255794
-0.056666255
-0.2534609
-0.122067936
0.27916554
-0.0950186
0.09533374
-0.11258634
-0.08917852
-0.100866996
-0.043681275
0.10246235
0.09636301
-0.07007562
-0.43574747
0.09370927
-0.12689006
0.21443869
0.0027175462
0.105075285
-0.04810101
0.033843562
0.24425837
0.11579455
-0.13008411
-0.005143525
0.13243945
-0.12767753
-0.21491459
-0.075826906
-0.13165562
0.006349435
0.15038714
0.12119851
-0.018392375
0.0064435974
0.107521646
-0.019470848
-0.14494659
0.08812232
-0.1021049
-0.12130697
0.0126301
0.021774892
0.15969317
-0.0020648427
0.052896447
0.016228396
0.014678069
0.07635822
-0.108285636
0.09853895
-0.02802912
0.1592758
-0.016304005
0.042040955
-0.3774849
0.10619499
-0.0126097575
-0.05913293
-0.08613818
-0.011966613
0.20060991
0.040599924
0.29552606
-0.026270926
0.03173431
0.20063435
-0.016557595
0.0039197435
0.040055543
-0.07121295
-0.08218624
0.06377281
-0.029764118
-0.16639699
0.0018239308
-0.17815432
0.10317729
-0.009722927
0.023187868
-0.28404054
0.025513206
-0.10542465
0.029662363
0.019000955
-0.24413878
0.25393507
0.13196921
-0.05424965
0.120203964
-0.20017694
0.11539506
0.15495026
-0.18788946
0.21655348
0.08498871
-0.021999076
0.113593355
-0.08840911
-0.19747321
-0.31844378
0.20522313
0.17423218
-0.090068065
0.14900713
0.01609
0.31958193
-0.017780654
0.13171631
-0.17362484
-0.07859704
-0.002790467
0.22442226
0.2252773
0.02409815
0.26952899
0.064819105
-0.32154986
-0.031833254
0.10336983
0.09054303
0.13609627
0.21708728
-0.03884831
0.04065601
-0.17976402
0.08602811
-0.029081957
-0.047976673
0.020868048
-0.05067121
0.057958025
-0.046211164
-0.11595114
0.04532787
-0.20930442
-0.05349512
-0.034773268
0.18061817
-0.11789545
-0.02220876
0.026119959
-0.08645143
0.054508485
0.14035404
0.4577196
0.018025888
-0.08689154
0.3000242
-0.112744376
0.01821235
-0.269448
0.06302226
0.18673591
0.054306664
-0.25393277
-0.0057431143
-0.41710132
0.2081331
0.046236385
0.16503537
-0.08328722
-0.1314179
0.10201605
-0.10825632
-0.103489205
-0.03454174
-0.07581089
-0.18401678
-0.051025484
-0.1493697
-0.18881705
-0.023059761
-0.19339971
0.04244735
0.23705167
0.16902521
0.020622447
-0.118946604
-0.013570833
-0.0018876693
0.09351925
-0.020176416
0.026095873
0.15356101
0.32486203
0.004658817
0.16150908
0.014207463
0.17937708
0.23479941
0.20511536
-0.19359794
-0.14887649
-0.02994323
-0.025663167
0.28222924
0.061318725
0.030939626
0.14105374
-0.024403363
0.01104667
0.14137197
0.11369072
-0.2687785
-0.1005772
0.14321807
-0.059633773
0.050048247
0.013023681
0.14018947
-0.25328767
0.09413176
0.052465856
-0.091879494
-0.0360427
0.041175075
0.035003293
-0.15701638
-0.14136118
-0.0967588
-0.12580922
0.00061060255
-0.13225569
-0.03041694
0.068574436
-0.029998522
0.041201632
-0.061149575
-0.057846427
0.35611752
0.019800447
0.16066982
-0.12498832
-0.31568658
0.121085905
-0.11862031
-0.18119001
-0.017563518
0.06877206
-0.08242694
0.28337994
-0.034525
-0.102527186
0.17832334
-0.11441458
-0.21468559
0.11749442
0.06332413
0.009737917
-0.2945677
0.01179596
-0.18576989
-0.21534868
0.26532245
-0.0911962
0.03711282
0.032313302
-0.1917595
-0.12624592
0.049956437
-0.2307781
-0.06950484
0.0067662387
-0.005694554
0.14926706
-0.0020215416
-0.3460872
0.009009075
0.100597925
-0.20346333
0.053563114
0.01681183
0.030547794
-0.2847348
0.24963427
0.1899562
-0.033830438
0.17659277
-0.15809658
-0.3025348
-0.1789127
0.120315835
0.017623264
0.18834913
0.4376635
0.10385068
0.0149028
0.10230119
0.04108203
-0.070473455
-0.10694805
0.12955251
0.17315072
-0.08269598
-0.056881294
0.0018562055
-0.13722962
0.0887171
0.09501831
0.07996076
-0.099195145
0.0057900758
-0.06039901
-0.11437808
-0.14241871
-0.115729615
0.051232316
0.08976751
-0.27967492
0.004116654
-0.11731041
0.1351629
0.055313293
0.055309907
0.04364137
0.23220424
0.14427559
-0.2186591
-0.047878794
0.20823413
0.19459826
0.10449897
0.1106562
-0.065878555
-0.0033913217
-0.00029699577
0.012516222
0.18469667
0.041560076
0.0032869165
0.16086826
0.004495322
-0.093191005
-0.11906844
0.13555114
-0.24989857
0.08382999
0.027188877
-0.2165415
-0.012940794
-0.1257799
0.1395333
0.21726349
0.017824478
-0.028821811
-0.13220543
0.11529972
0.43751168
0.12276871
0.0101161795
0.15209217
-0.20808935
0.16886608
0.089865774
0.024837159
0.0775632
0.044974133
-0.11068537
0.051898126
0.16390333
-0.22479637
-0.20535406
-0.069464594
0.11729616
0.05217101
0.027071893
-0.2679491
-0.15665472
0.41160068
0.05460075
0.07404685
-0.0015058969
-0.14715192
-0.23022297
0.23639269
-0.15672389
0.17320111
-0.17412375
0.0042690197
-0.0719349
-0.052237358
-0.01578939
-0.03299767
-0.011452615
-0.064655446
0.096365154
-0.14583087
-0.012075094
0.044067916
-0.060481176
-0.11192406
-0.22562659
-0.0021231242
-0.031207575
0.013149024
-0.10208197
0.08611789
0.096149325
-0.06638358
-0.012235559
-0.031067498
0.010388291
-0.0805894
-0.2355599
-0.19957256
0.12151978
0.20522144
-0.14971597
0.08880126
0.07940097
0.004933929
-0.09607765
-0.026491422
-0.253085
-0.04565936
-0.12290704
-0.09778684
-0.1263339
0.22233967
0.018311432
0.094203174
-0.051521134
0.14589222
0.04404008
0.25630754
0.09430414
-0.068769686
-0.031153835
0.25705975
-0.25521308
-0.1625859
-0.22729515
0.25283888
-0.18221289
-0.1275879
0.051073898
0.12917198
-0.14997606
-0.07652439
-0.07019336
0.05147745
-0.20017092
0.10722181
-0.038926262
0.07223778
-0.25572774
-0.054769997
0.15192917
-0.35262057
-0.001996398
-0.018046422
-0.18431467
-0.0065929648
0.026049217
0.10450266
-0.08765621
-0.18908398
-0.02341328
-0.01313
-0.08887624
-0.2375274
0.20244093
-0.004664044
0.0071490873
-0.22120202
0.09678837
-0.104701824
-0.11083779
0.12078512
0.09314379
0.22988297
0.041080773
-0.13482244
-0.011150212
0.074745655
-0.09589057
0.02274571
0.016711485
0.28230458
0.04008419
-0.147415
-0.058539543
-0.0472551
0.10937655
0.054019395
-0.18807885
0.0094127385
0.31576002
0.15217331
-0.20162924
0.17868182
-0.109508745
-0.03590579
-0.08921033
0.22928971
-0.007954981
-0.09458794
-0.14046271
0.06993231
0.15187472
-0.042183425
0.10027476
0.10294628
-0.1808603
-0.061539847
-0.006599305
0.037636407
0.27520072
-0.016295493
-0.18208054
0.1300808
-0.09455503
0.0045235567
0.09503903
-0.25877103
-0.28881386
-0.044507574
0.12407888
-0.037180815
0.096387826
0.17802203
-0.123296216
-0.04136038
-0.029113224
0.013300163
-0.17340319
0.35047662
0.11656174
0.14938663
0.1148107
0.015286644
0.13466157
0.12751889
-0.12280843
0.14810844
-0.118556
-0.21874197
-0.2020937
-0.13536008
-0.02168592
0.004496725
-0.0059302915
-0.029651074
-0.019940762
-0.074448004
-0.035584256
-0.051206224
0.14728509
-0.051826313
-0.14634754
-0.09220283
0.1459412
0.07231503
-0.32163492
0.06739598
-0.24168341
-0.07268635
-0.03231546
-0.05993932
-0.11110595
-0.04449905
-0.093982995
-0.05939997
0.06378033
0.13139762
0.15387556
-0.22776724
0.10099871
0.23418707
-0.5488352
-0.003572861
0.0066036438
0.040688645
-0.12810409
-0.07221662
0.16262549
-0.28369978
-0.079302914
0.47087276
-0.036693823
0.15741585
0.081439696
-0.08013093
-0.043953028
0.20440112
0.05118829
-0.13211004
-0.016436707
0.116676755
-0.11713546
0.21019486
-0.04222145
-0.08542732
0.16813272
-0.078992106
0.1900484
0.077082224
0.15780117
-0.02718363
0.05727345
-0.004874935
-0.06942768
-0.0653813
0.221062
-0.014474447
-0.06146175
0.10917773
-0.05317863
0.07131682
-0.10705346
0.0490205
-0.20428668
0.13645011
0.3928717
-0.084880635
0.18764499
0.04135418
0.0661248
-0.11679897
0.1121362
-0.12146919
0.16246085
0.05693989
-0.048475187
0.19561552
-0.028304348
-0.24831176
-0.047685586
0.31798673
0.026785636
-0.06856429
0.0015208974
-0.090957135
-0.06662017
-0.02656992
-0.13918057
-0.13846776
-0.103668004
0.12794824
0.13920082
0.110351816
-0.12480545
-0.12999284
-0.05431892
-0.04910951
-0.060686313
-0.19965662
-0.009054988
-0.062378734
0.3301883
0.14916924
-0.015355165
-0.12418309
-0.1753344
0.022714725
0.035634965
0.024859248
-0.027269311
-0.054313984
0.018101403
0.0971763
-0.077438645
0.04011388
0.2218622
-0.23830675
-0.017986635
0.17668495
-0.12636392
0.053706914
-0.12673032
-0.027233107
-0.13737905
0.14943896
0.00076515763
0.08890388
0.25440004
0.0025974626
0.15804102
-0.10169999
0.16751727
0.020177683
-0.21758506
-0.10338577
0.21281278
-0.00014169812
-0.13214223
0.20738982
0.08430138
-0.26479685
-0.22283708
-0.059819944
-0.056302357
-0.016643915
-0.071154594
-0.073350556
0.10075289
-0.07289628
-0.0030096225
0.17631344
0.19661278
-0.03951213
0.034860704
0.045314714
0.068572946
0.12575808
-0.049290497
0.15270656
0.03599964
0.08412791
-0.109794356
-0.06590354
0.22194235
0.15152834
-0.05348973
-0.45754385
-0.12838247
0.14985763
0.11800228
0.093508236
0.20240372
0.27265668
0.08614236
-0.119913295
0.111641794
-0.0044188267
0.095936894
-0.42174485
0.006049354
-0.00886832
0.08961248
-0.17093842
0.0047566765
-0.027926946
0.0009868977
-0.11015388
0.2998309
0.05722401
-0.11271722
-0.10650389
-0.037892543
-0.10893576
0.08072762
-0.10473969
-0.004728623
-0.29508528
-0.14232
-0.01904872
0.43481863
-0.07891448
-0.12686962
-0.13456121
-0.08645484
-0.009200218
0.018414823
0.095536925
-0.0726091
0.10608275
0.13235101
0.14095935
0.028431749
-0.0072540655
-0.06599125
-0.24333419
0.22175029
-0.14513136
-0.16921304
-0.039313756
-0.12172816
0.107105084
0.18600386
0.08676496
-0.016599283
0.14308679
-0.0137014035
0.13565265
-0.253769
0.07891726
0.059576064
0.122913435
-0.115699545
0.09438621
-0.38649392
0.08929951
-0.17712349
0.1642801
0.14889914
-0.101852976
-0.0901839
0.3906897
-0.14834727
-0.06142911
-0.17503093
0.1897403
-0.080840155
-0.07993131
0.21412174
-0.12602952
0.10932197
0.06320217
0.04814343
-0.14801185
0.020751683
-0.15061308
-0.054001838
-0.22483946
-0.09025184
0.09094977
-0.012979328
0.418013
-0.09920235
-0.08653003
0.17571025
0.20954074
-0.19720992
0.060051147
-0.0729819
0.01863977
0.030231098
0.050044578
0.1215554
0.03895349
-0.2089285
-0.10316159
-0.051912356
0.01066131
0.009124652
0.08962661
0.20352973
-0.06911088
0.08381841
-0.0029614484
-0.036480367
-0.015727995
-0.19265984
0.14421931
0.33086115
0.0900397
0.05669487
0.10939475
-0.1095086
-0.0384912
0.31185097
-0.10583473
-0.024334816
0.03347184
0.007254069
-0.14977415
0.10423138
0.08371523
0.12716539
0.022863679
-0.10207877
0.054030176
0.07922713
-0.28508472
0.020653173
0.10840578
-0.050381165
-0.15552749
0.23730735
0.388596
0.2811412
-0.06937016
0.16379084
-0.050241746
-0.2384841
0.15003741
-0.032067772
-0.23957549
0.06461919
0.07964403
0.23081584
-0.5104108
-0.07146457
0.0132654505
0.10759992
-0.24543075
-0.17780118
0.14485584
-0.2892034
-0.033188384
-0.008249088
0.16196287
0.08136735
0.19675708
0.16123426
-0.26781824
0.06468332
0.30837023
0.06535275
-0.02344554
-0.21210998
0.07564855
-0.11971542
0.113653466
0.078581385
-0.036849316
0.111936785
-0.0040210974
-0.11569717
0.1684912
0.2271519
0.28038564
0.047380995
-0.076349996
0.10338743
-0.14804934
0.28453466
-0.066781774
0.27540082
-0.046448983
-0.025341723
0.0077236085
-0.19141732
-0.011679031
0.12350522
0.24236214
-0.27639925
-0.17556739
0.07098281
-0.15678838
0.16073586
0.02828643
-0.1509123
-0.047844287
0.2614211
0.36615002
-0.082694136
-0.01756605
-0.18223415
0.309394
0.022889465
-0.047439154
0.23995799
-0.0072458764
0.14966066
0.07173115
-0.051101375
-0.014169179
0.0062700626
0.04644876
0.042244006
-0.0786832
-0.08958067
-0.076696835
-0.066582784
-0.10784279
-0.2021632
-0.070755295
0.12120919
0.0040288046
-0.1424999
0.0015197633
0.12142032
-0.08163563
0.031711698
0.11525705
-0.2213431
0.16039139
-0.036451653
-0.40100017
-0.017536327
0.20781715
0.0059976447
0.10620781
0.14454243
0.17327486
0.100562096
0.012620257
0.13552453
-0.25162375
-0.11535832
0.13115934
0.071252055
0.03724786
0.06204475
-0.13738881
-0.016481478
-0.12882444
-0.0027705645
-0.073588684
-0.146389
0.24246423
-0.062499516
-0.13637339
-0.08181183
-0.033068635
-0.1760759
0.0018343428
0.3006235
-0.14519262
-0.0893887
0.05461598
0.03996369
0.22363557
-0.2805772
-0.09338048
0.30463722
-0.07399656
-0.124937505
0.19649477
0.07722666
0.14512676
-0.038662344
0.20072128
0.006049782
-0.12467219
0.23462363
-0.17691211
-0.061303753
0.2560719
0.149025
-0.086077675
-0.050054442
0.08416749
0.045035582
0.032333992
-0.080427855
0.044291995
0.0032485542
0.050045542
0.019139184
-0.03984767
0.22268514
-0.1373925
0.116701305
0.110359624
-0.032951772
0.10869749
0.025902625
0.17328231
-0.06700801
0.23034143
-0.13899864
-0.15626217
0.06848244
-0.019988066
0.024841255
0.11972594
-0.0617299
0.15341933
0.07401298
-0.1265435
-0.22388163
-0.023747435
-0.22772588
-0.05185577
0.5803711
-0.015367825
0.049695697
-0.15677789
-0.063405514
-0.12513793
-0.10415183
-0.21775922
0.06059838
-0.27246815
-0.17399639
0.20142135
-0.023041314
0.18592797
-0.20006816
0.033491112
-0.0036678028
0.13708496
-0.0218483
-0.12540409
0.03536748
-0.121849805
0.030104652
-0.0084036
0.31655467
0.28991377
0.017486135
-0.018569617
0.14819428
0.22432733
-0.11805537
-0.04495373
-0.018207755
-0.038289938
-0.034211498
-0.057195492
0.021269625
-0.06643612
0.156462
0.10511065
0.09288439
-0.10855168
-0.07108605
-0.3289859
0.013700599
0.39026037
0.0049375994
0.07102834
0.34026352
0.3201739
0.22253434
-0.013669424
0.039357208
0.0029801636
-0.043645795
0.16035712
-0.011148413
0.11394527
0.21870808
0.0710195
-0.09845643
-0.19696578
0.053548988
-0.004894193
-0.014924948
-0.13565171
-0.15492716
0.16719764
-0.12116445
-0.20443478
0.06736598
0.06277723
-0.06252492
0.05233403
-0.02002691
0.13489419
-0.14846595
-0.06944985
0.09260964
-0.13767166
-0.14038217
-0.14176632
-0.0017021203
0.30483025
-0.18120524
0.01728211
0.070688955
0.078718774
0.2887264
0.07019969
0.078273475
-0.12589324
-0.0014014096
0.28809032
0.09098661
0.029250104
0.07299557
-0.0022686848
0.06356403
-0.2349477
-0.15306525
-0.0029630342
0.147946
-0.12482038
0.03311353
-0.027620902
0.15690465
0.2260291
0.022707412
0.29636607
-0.011663033
0.15891783
-0.04617208
-0.06674939
-0.045787636
0.07098496
0.05214811
-0.15844613
-0.10080722
0.00022651748
0.03431392
0.15584277
-0.029507998
0.06692104
0.07564384
0.17026317
0.0174527
0.12023943
-0.01832438
0.10860573
-0.08150927
-0.115995884
0.10844659
0.15702744
-0.014913591
-0.22057153
-0.03270907
0.11686579
-0.26669738
0.2243443
0.0084007755
0.20462124
0.12633076
0.119890854
0.06321838
-0.10904357
0.070949905
0.07594182
0.16279043
0.16799322
0.04856182
0.15895027
-0.378168
-0.09789971
0.07867375
-0.04569766
-0.03129034
-0.0120288525
0.015846351
-0.22915888
0.06993111
-0.089929625
0.0040295282
-0.051140893
-0.0121051455
0.1938048
-0.03223689
0.24066153
0.27753222
-0.11323569
0.000109760374
0.04080786
-0.0046445564
0.14587687
-0.15494299
0.3015067
0.039309893
-0.024425449
0.06780645
-0.22136678
0.15750438
-0.1489981
-0.05366367
-0.15329409
0.15821314
-0.0467761
-0.21537636
0.053010568
-0.107917406
-0.12534915
0.04764569
-0.067989826
-0.11111594
0.09198946
0.036517832
-0.021889476
-0.13136375
0.11282475
-0.16863221
-0.06284962
0.048205283
-0.20341551
0.001929286
0.098930806
0.045860734
0.12999581
0.14795953
0.050178483
0.13537864
-0.07737511
0.040650245
0.09616419
-0.30853987
-0.09325579
-0.28825268
0.118328124
-0.2262243
-0.09352567
-0.10638734
-0.024455748
0.060358547
0.18025921
-0.23790555
-0.21440546
0.34970123
-0.15166216
0.22045252
-0.3397031
0.29077905
-0.0057089827
-0.19064313
0.13213593
-0.0087805325
-0.0010755106
0.00079291954
0.1678172
0.10440801
-0.18342447
-0.026211862
-0.056343503
-0.25343853
0.210684
-0.23073931
0.09831882
0.10634789
-0.07852256
0.060027182
0.02579412
0.10382987
-0.32623437
0.13718365
0.04223554
-0.14770424
0.1355839
-0.06312403
0.079350114
0.010873748
0.046520535
-0.14299592
0.08388048
0.09264776
0.045294695
-0.1473163
0.11341303
0.16258135
0.17655046
-0.010537738
0.030938132
-0.014745151
-0.13121074
-0.026943114
0.013001461
0.05435232
-0.052230805
0.27346817
0.09801854
-0.042428643
0.13643001
0.14275125
-0.0044752965
0.09891523
0.12717466
-0.072662294
0.046721578
0.16455194
0.0133582745
0.20556507
0.12815599
0.16942962
0.10834632
-0.15417252
-0.12399885
0.07935265
-0.121415935
-0.0014030593
-0.2622445
-0.115228124
0.048637386
0.1510121
-0.1644606
-0.14152786
-0.23809686
-0.12557405
-0.16681086
-0.014630423
-0.08693246
0.001225017
-0.013198512
0.078208745
0.023877285
0.02324718
-0.062354516
-0.11141958
0.053824633
-0.09601589
-0.06773496
0.09992975
0.2436276
0.018580656
0.011718613
-0.113447
0.08776325
-0.19241099
0.242946
-0.01944305
-0.114893705
0.21955839
-0.04030637
-0.05115213
0.19689147
-0.0615289
-0.14565195
-0.22170186
-0.11734564
0.07963545
-0.050853767
0.022809038
0.07238216
-0.010708527
0.079056986
0.07577031
0.21118225
0.24264146
0.19555405
0.104531884
-0.059753984
-0.14154993
0.027943984
-0.0019307273
0.32242516
0.05845749
-0.029467218
0.08388856
-0.0625463
0.120198086
0.0057009226
0.11770777
-0.08041881
-0.036857918
-0.090881206
-0.02105113
-0.07889423
0.2007585
0.13665633
0.10285395
-0.07362231
0.001532515
-0.062081683
-0.019359391
-0.010932544
-0.21049313
-0.090809405
0.02627219
-0.05490757
0.13229129
-0.10674821
-0.0048116953
-0.10576987
0.01998819
-0.11978897
0.09536315
0.05903106
-0.026726551
0.016435796
-0.013432927
-0.42773503
-0.100597404
-0.1061866
-0.07970349
0.0006368326
0.073491335
0.0065850927
0.05968807
-0.008258892
0.06685654
0.06604093
0.13945693
0.06072265
0.025200844
-0.016124612
0.09136407
-0.19445306
0.109981306
0.21776348
0.3254799
0.05604292
0.23155376
-0.2862378
-0.087914124
0.13887228
0.066911615
0.15238558
-0.08406301
-0.002855569
-0.12062542
0.14055979
0.20031863
-0.04935094
0.13565813
-0.13612227
0.06337604
-0.037048094
0.02240998
-0.10773481
-0.053449076
0.12041521
-0.04251689
-0.34720623
-0.019963982
0.011184681
-0.24841914
-0.09204884
0.05174454
0.020469157
0.106376305
0.26759472
0.01796981
0.033173148
-0.1958935
-0.22879626
-0.16428085
-0.0038155597
-0.056340568
0.053057693
-0.07412455
0.0018010121
-0.048973307
-0.2710344
-0.0061362553
-0.30215135
0.03855492
0.06619985
0.042283244
0.34391797
-0.27855697
0.16336451
0.12323172
-0.09314451
0.121134184
-0.009088042
-0.13779345
0.034324482
-0.033776965
-0.032136172
0.14204045
-0.08845279
-0.014387705
0.011887735
-0.14192353
-0.060567405
0.02144379
-0.019182334
-0.0104889795
0.12192827
-0.054869574
0.023194361
-0.11486003
-0.08368671
-0.24307548
-0.02647084
0.036597192
0.15069678
0.20207544
-0.29813495
-0.16678557
-0.021241643
-0.07001131
-0.15293789
0.32794967
0.16038139
-0.27758214
0.26718277
0.28323635
-0.12830526
-0.019590471
0.07679529
0.20566282
0.09962384
-0.14718488
-0.10886299
-0.1406611
0.070481755
-0.21652986
0.079366766
-0.22104202
-0.22885466
0.14143269
-0.19962586
-0.018953843
-0.18944506
0.0072346977
0.015786406
0.018563494
0.104614325
0.32097778
-0.08876938
-0.032812588
0.09747288
0.09799395
-0.017546434
0.101648524
-0.035015713
0.009805927
-0.098457
0.18850288
0.15587945
-0.015214951
0.05192945
0.13473235
-0.044354614
0.028952628
-0.021072114
0.21949588
0.12807994
-0.14219886
0.041462753
-0.010761585
-0.1987101
-0.039980117
-0.10706804
-0.08935987
-0.20106585
0.03367115
0.046997767
0.07598436
0.07221212
-0.30756947
0.09738131
-0.16526918
-0.23199967
0.19394132
-0.036756147
-0.09937404
-0.10735058
-0.13202283
-0.13249615
-0.076666005
-0.015680218
-0.40585485
-0.13307463
-0.10974076
0.054666456
-0.045874458
-0.1138593
-0.17913294
-0.031981386
-0.15090294
0.16926996
0.2050116
0.04810463
-0.13599865
-0.13967864
-0.12931737
-0.11783826
0.02568122
0.033735197
0.052470308
-0.17837302
0.06467287
-0.13642164
-0.019277455
-0.035399657
-0.12600404
0.19069281
0.116095245
-0.06516107
-0.07002059
0.09681542
-0.086930186
0.090025954
-0.21775977
-0.03580084
-0.13678336
-0.10800365
0.18756159
-0.036008973
-0.03203755
-0.18152456
-0.036849678
-0.3324276
0.10932474
0.11688208
0.043165307
0.14814629
0.030087706
0.14011832
-0.2793278
-0.1687487
0.16917832
0.042205147
0.26083627
0.18096448
0.12113832
-0.06672662
0.017755063
-0.016995149
-0.15558943
0.018564008
-0.1522831
0.21945737
0.030869832
0.2926373
-0.20754637
0.047496118
-0.07665498
-0.04472031
0.29297084
0.24683635
0.1699972
0.14365242
0.1965685
0.11003949
0.302522
-0.13710505
0.025935596
-0.058672898
0.036817197
0.034816172
0.23061901
0.025750553
-0.09700273
-0.06730269
-0.16747747
0.12078388
0.052986305
0.03296824
-0.041207075
0.19722497
0.050550118
0.013818024
0.057462536
0.14693834
0.057215773
0.11012095
-0.062948756
-0.1025176
-0.06540458
0.21424174
-0.24792922
-0.061293
-0.0517731
-0.05308173
0.010471776
0.11278533
-0.24894105
-0.022157863
-0.16361934
0.12181758
0.22568128
0.017499508
-0.30585158
-0.2332703
-0.13013028
0.0008759173
-0.1629215
-0.0383396
-0.019062394
-0.078202255
-0.034947235
0.04712667
0.06811641
0.043167077
-0.16384974
-0.031331614
-0.08706021
0.20207277
0.074523754
-0.056598946
-0.00047879893
0.11189745
-0.027742714
-0.2968225
0.10054468
0.14331989
-0.16955002
-0.09629081
0.2623012
0.09765779
0.34106603
0.034456886
-0.1033656
-0.021160582
-0.17944603
0.051700644
0.023779817
-0.06629904
-0.14497733
0.0016131557
-0.16513649
0.352835
-0.051243268
-0.10653923
-0.18770099
-0.0012444571
-0.021383746
0.060072113
0.14499472
-0.13571562
-0.099286005
-0.011144792
0.027868045
-0.043853287
0.20594339
0.0027315118
0.26773727
-0.06716949
-0.26566648
0.047800664
-0.010242644
-0.09911796
-0.0854027
0.093974635
-0.036117163
-0.12181518
-0.11862965
0.22721435
-0.11617133
0.13446398
-0.05609103
0.16027594
0.26671728
0.069883026
-0.073050186
0.04233543
0.23291662
0.22253571
-0.041898787
-0.013539645
0.07863808
0.26418328
0.14724497
-0.17723589
0.20303339
0.114569806
-0.16384466
-0.22285256
0.25824606
-0.112602234
0.18172495
0.06208247
0.19332357
-0.13467854
-0.05252729
0.014469667
0.006353327
0.10638969
0.16215459
-0.0155468425
0.14676863
-0.06517792
0.23812728
-0.034930855
0.12374061
-0.17177151
0.022884408
-0.11871308
-0.06961015
-0.02925842
0.22183292
-0.16239706
0.06115989
0.007803617
0.029789092
-0.0263839
-0.028906895
0.049698096
0.20774923
0.09599179
-0.06716588
-0.11044709
0.20791428
0.09267574
0.052315064
-0.20657684
-0.08927621
-0.14144869
-0.055629637
0.03236968
-0.11449887
0.020645076
0.018249663
0.014771975
-0.05842203
0.24473545
0.015387502
0.3270103
0.13973759
-0.057375044
0.1849249
0.026429377
-0.0020063734
-0.16496284
-0.056076873
0.012178215
-0.03647999
-0.056258995
0.24558184
-0.15035309
0.04872437
-0.23515177
0.06744585
-0.089536265
0.014126087
-0.0013177161
-0.20083825
0.009099679
-0.10670398
-0.1877738
0.024345739
-0.03627857
-0.03260774
0.19781998
-0.11266559
0.22486566
0.23198438
-0.111734934
0.14501141
-0.014641297
-0.106901295
0.08238482
0.17391561
0.043341096
-0.0529226
-0.124748304
0.01964248
0.05760967
-0.26977777
-0.06257933
0.122905746
-0.023659151
0.0076635405
0.037911374
0.12171351
-0.0844833
0.17109177
-0.063553825
0.073551916
0.058681175
0.014307471
-0.18789744
0.02253057
0.19740981
-0.03852742
0.023473173
0.04612195
-0.11829858
0.1587536
0.06726909
-0.103663065
0.11389031
0.017164439
-0.06214304
0.13495438
0.079279535
0.08601787
0.011853386
-0.008606554
-0.063727126
-0.059088692
-0.22667383
0.08456756
0.16685367
-0.015326241
-0.08078498
-0.30464333
-0.13594419
-0.121815786
-0.13252023
-0.10822026
0.07970203
0.009689729
-0.0030332096
-0.0016477138
-0.11563692
-0.2602163
-0.08257255
-0.14824782
-0.1273655
-0.03393151
-0.086074024
-0.08467672
0.026327247
0.06501694
-0.09021807
-0.03163661
-0.06533815
0.08719843
0.100464635
0.05854304
-0.2743017
0.15067068
-0.24034071
0.17965372
0.06889732
-0.04255265
0.045368925
0.123590246
-0.3277873
-0.25268555
-0.2572198
-0.0023486237
0.06552884
0.1835422
-0.02140819
-0.060218103
0.1994819
-0.16301434
-0.1569052
0.15569288
0.027314981
-0.021132495
-0.12926008
0.2411873
-0.28229514
0.026681872
0.04931707
-0.19069709
-0.034435287
0.081907615
0.102732435
-0.057642963
0.19934836
-0.011493884
-0.113786876
-0.12833574
-0.10462032
0.03464051
0.04693674
-0.26914293
0.040458467
-0.06980458
0.055062585
-0.2370055
-0.040340915
0.107566416
-0.0060000303
0.09710638
0.036951464
0.35131413
0.13145891
0.15433618
0.16942796
-0.0668025
-0.011135142
-0.10817131
-0.13480072
0.32073617
0.07960295
-0.12518279
0.18805757
-0.05821372
-0.109894365
-0.049694117
-0.17120668
-0.055551592
-0.067329705
-0.34976846
-0.18284366
-0.01394953
0.040288616
0.22422126
0.17651278
0.10066176
-0.09014902
-0.024508867
-0.08357213
-0.12804973
0.200739
-0.109022625
-0.14853
-0.23185821
0.044356223
0.036985915
0.04217336
-0.032833528
-0.026414134
-0.11234616
-0.2231355
0.15752363
-0.023961207
0.07486262
-0.109579675
-0.09051909
-0.12122813
-0.011350057
-0.2957736
-0.07909631
-0.12605086
-0.12164121
-0.022649484
-0.10518077
-0.4293003
-0.013826935
-0.11142776
0.021840075
0.22428566
0.18183482
-0.054125693
0.19902289
-0.4036678
0.010553692
0.010538923
0.26297814
-0.014524434
0.078319214
0.38241598
-0.022015432
0.080601536
-0.039031412
0.13181439
0.056458514
0.12664089
-0.16864702
-0.12642652
-0.0007505896
0.009221
0.032849178
-0.048112404
-0.070611395
-0.22300996
-0.09372072
0.13839094
0.124254555
-0.2041378
0.19806464
0.0326292
0.09915005
-0.14236245
-0.3112041
-0.065143034
0.30844182
0.17485614
-0.16483873
0.019689687
-0.023855198
0.09962084
0.1882091
-0.09489776
-0.12297426
-0.009971326
0.0414743
-0.19845301
0.2692039
0.06395706
0.118740566
-0.16734004
0.23723838
-0.025559751
-0.13182646
0.07512238
0.08793986
-0.10252785
0.23471668
-0.086720124
0.1419085
-0.12235517
-0.095907934
-0.21072751
0.22411473
-0.15222822
-0.03334698
0.04581488
0.08257189
-0.062871225
0.089349516
-0.03965389
-0.115046516
-0.00073418097
-0.05540937
0.054711264
0.09686881
-0.07410626
-0.06022188
0.17914625
0.11369613
0.30402493
-0.14447881
-0.07748728
-0.17142041
0.021226533
-0.18646103
0.01017329
-0.11238442
0.13842782
-0.0838504
0.14204694
0.16739094
-0.0863462
-0.0736308
0.3204899
-0.17262992
0.08042741
0.04579929
-0.28456917
-0.029956253
0.33049703
-0.00068377383
0.32378668
0.10919435
-0.14829764
-0.30729198
-0.06450144
0.12091285
0.064209126
0.20868921
0.18350458
-0.07126645
0.22010022
0.107239224
-0.02355668
0.23323175
0.23146516
0.07554726
-0.043825004
0.08480376
0.10667836
