# (192, 768)
0.023450928
0.043495975
-0.2633762
0.3480682
0.17632934
0.23645242
-0.16246277
-0.39809245
-0.27552962
-0.19987015
-0.06492758
-0.20703965
-0.2463626
-0.12569344
-0.028551016
-0.026355343
0.17465073
0.083931416
-0.19775906
0.11381095
-0.29611942
0.078142695
-0.18323927
0.12690772
-0.18793072
-0.016174288
-0.16881719
-0.056329634
0.010629893
-0.21958447
-0.21264815
-0.065803155
0.2658822
-0.055384126
0.21598694
0.20738643
0.1699744
-0.032270975
-0.031989563
-0.20771766
0.06735748
-0.029525215
0.21216865
-0.10583863
0.07417558
-0.13696103
0.06473791
-0.08013702
0.12870908
0.011444018
-0.05944515
0.02791612
0.08825993
0.05394671
0.0237051
0.23050715
-0.21476388
-0.0015604168
0.05892373
0.14653747
-0.29056203
0.05408338
-0.10117465
-0.1521612
-0.07087697
0.01800816
0.2457496
0.0925938
0.06795479
0.03460083
-0.13505769
0.050753918
0.071157865
-0.16446595
0.03655538
-0.029517302
0.029925851
-0.15657894
0.2229211
-0.029757906
0.13067405
-0.022099085
0.09768324
0.0053585703
-0.031194717
-0.2731892
-0.036846034
0.012565601
0.11495652
0.21306707
0.08861359
0.06629784
0.034936465
0.10564334
-0.2246926
0.15279417
0.056571063
0.20302738
0.023911744
0.12652963
0.033653487
0.09744795
0.106324665
0.19827332
0.036341902
-0.06730766
0.043109182
0.10071927
-0.017543254
0.07791374
0.14817674
-0.08067866
0.1932007
-0.09268665
0.04081952
0.053777676
0.20264971
-0.11786517
-0.063330516
0.052371755
0.055971406
0.0800815
0.07865195
-0.20124564
0.10126035
0.12978323
-0.0843024
0.01766624
-0.005309374
-0.14421666
0.037843604
0.014739217
-0.2940013
0.15031207
-0.20595224
0.014813541
0.14899085
-0.08350116
-0.1681032
-0.13776131
0.16930017
-0.010917344
-0.20601988
-0.10095944
-0.035171576
0.03204756
-0.17728664
-0.4009758
-0.074321784
-0.10057857
-0.050787646
0.11944372
-0.05519644
-0.065219395
0.032298844
-0.0052230586
0.18511172
0.0060279453
-0.08710846
0.14704153
0.09264436
-0.12206797
0.07999673
-0.21455137
-0.123920664
0.43536878
-0.068877935
0.37140816
-0.08922378
-0.00043207966
0.105845846
-0.005377891
0.025267728
-0.13424398
0.2695134
0.0003971163
-0.07296435
-0.016625829
-0.19508772
0.0342014
0.058325525
-0.012398322
0.17329861
-0.019952279
0.15963261
0.045441803
-0.05967911
0.005757986
-0.1352041
0.014990018
0.2584048
0.13230725
-0.06250289
-0.06256606
-0.14386696
-0.012110906
-0.11430038
-0.0579523
-0.17867173
0.09619543
-0.13961197
0.10596543
0.033438243
-0.040295407
-0.20423494
-0.18501642
0.067676194
0.0766054
-0.068009205
0.03533106
-0.10135774
0.011147743
-0.09154559
-0.21510212
-0.15502495
0.10755256
-0.36266887
-0.056646805
0.06820296
0.05785065
0.04343985
-0.3157455
0.081814036
0.12880716
-0.059340794
0.2061586
-0.048700474
-0.1831417
0.11527665
-0.016724177
-0.09154007
0.073685504
-0.2962291
-0.18143557
-0.20143561
-0.17159139
-0.16175891
0.1395742
0.20301826
0.048626613
0.19617656
-0.11013172
-0.07416626
-0.0719722
0.21428622
0.14073882
-0.024441142
-0.01383716
0.014077631
0.12291062
-0.06641354
0.027243381
-0.03492214
0.18615171
-0.015548294
-0.07046146
0.124233805
-0.14896064
0.024725163
-0.35931426
-0.06623067
0.09471421
0.1564712
0.24193627
0.12683004
0.025590364
0.104352996
0.12284022
0.004418051
0.103128746
0.14657661
-0.1348159
-0.22170877
0.14937556
0.014174678
0.36736548
0.2943885
0.034226302
-0.121108964
-0.07678153
0.044810195
-0.073773056
-0.16422226
0.027929178
0.081615955
-0.16119799
0.015962556
0.062247615
0.03797689
-0.07971397
-0.15952978
0.11379339
0.11360171
-0.05158108
-0.041209523
0.049178515
0.046536352
-0.0003580501
0.046900064
0.090770364
-0.12336608
-0.06832707
0.082924575
-0.27868065
-0.30110815
0.13246846
-0.028799418
0.22382626
0.08186318
-0.09066175
0.12764616
0.021405289
0.16057014
0.042055193
-0.058990534
-0.07111357
-0.11069967
-0.33290416
0.045798056
-0.09556199
-0.054949593
-0.26961336
-0.23866703
0.14000356
0.23315066
0.23815696
-0.07485566
-0.028903956
0.034481097
0.1367079
0.14313763
-0.22982281
-0.23684148
0.15969259
-0.22349288
0.18186124
-0.15935014
0.08099212
-0.0056623635
-0.021218175
-0.18734053
-0.099911116
-0.11654737
-0.037836954
-0.060366843
0.0019489416
-0.36461008
-0.04111765
-0.018980926
0.105006136
0.10744033
0.031466253
0.07293948
-0.07084076
0.07757397
-0.22156256
0.17098437
-0.08865207
0.15731081
0.09814501
-0.47350985
-0.35486677
0.048955034
-0.068970636
-0.10568237
0.05844642
0.10251129
-0.030278197
-0.029856186
0.07469032
0.12030413
0.035888284
0.15526502
0.03601244
-0.0134807555
0.14067046
0.13809164
-0.085347205
0.074350335
-0.24279106
0.18700752
0.092451215
-0.018299397
0.2848793
0.30150735
0.08146756
0.05950093
-0.29174212
-0.114804424
-0.05155515
-0.12100588
0.121615954
0.039978392
-0.08291688
0.045019735
0.021695912
-0.028744103
0.26585865
0.21972768
-0.011595022
-0.38671398
0.061505765
0.11376188
0.0034271209
-0.1350746
0.18074802
-0.109249376
-0.17440613
0.12445294
-0.0123585705
-0.2824506
-0.05040385
-0.060326423
-0.0016987715
0.08403947
-0.052361455
-0.16291359
0.06789274
0.010987883
-0.107717656
-0.203042
0.089697756
0.05220409
-0.2421356
0.45025837
-0.074056245
-0.09090953
-0.11590461
-0.08984618
0.095185116
-0.19737065
0.10006227
0.24009977
0.096994445
0.23767452
0.18943843
-0.1916974
0.14442539
0.19275397
0.034468744
-0.107637316
-0.15643089
0.16082714
0.111863725
0.02616165
0.012951165
-0.2686456
-0.3044634
0.13292617
0.04192817
-0.22680351
0.05859913
-0.059954867
-0.12651826
-0.11872217
-0.21755992
0.16623665
-0.1663047
-0.04074846
-0.22352313
-0.020287294
-0.38378164
-0.066846706
-0.1653305
0.18741861
0.21106888
-0.12575592
-0.09767468
0.115828246
-0.103731126
0.13974683
-0.052899726
-0.124067746
0.020279938
-0.011766519
-0.08874813
-0.09569401
-0.15137205
0.2634879
-0.01826243
0.41590536
-0.10341527
-0.112977766
-0.13077089
-0.029033657
0.015250935
0.10556501
-0.12661788
-0.1209579
-0.052304346
-0.36140755
0.30164033
-0.05167232
0.018373176
0.084328726
-0.13559762
-0.070453465
-0.112041146
-0.12925437
-0.26525065
0.03309219
-0.08841837
-0.031301588
0.017344477
0.13974549
-0.017531522
0.03220297
-0.103553265
0.011851006
0.074522525
-0.18718581
-0.002847351
0.2597826
-0.21704201
-0.0016622966
0.07347478
0.09791043
-0.12952721
-0.065433666
0.17282163
-0.08146579
-0.044973508
-0.11204151
0.05372935
-0.048383065
0.00080641283
-0.061956212
-0.15140101
0.16425432
-0.14384536
-0.06396993
0.16105275
-0.013667474
-0.039694563
-0.1428524
0.1738107
0.36117846
-0.06384482
-0.03999438
-0.29726586
-0.04644964
-0.29603
0.16892718
-0.05683869
0.25881222
-0.046815824
0.15081015
-0.029680565
-0.07042456
-0.012665401
0.056979693
-0.15762636
0.10619314
0.23496392
-0.052421894
0.16755305
0.08563269
0.17117439
-0.024403373
0.13192031
-0.01431501
0.124580756
0.048575964
0.2587337
0.32731193
0.18003088
0.0523208
-0.089802936
0.08359255
0.033120383
-0.026833924
-0.32147938
-0.11555353
0.27640027
0.038488153
-0.00075987
0.22094387
0.1461207
-0.3142796
-0.107073806
0.021547994
0.08993517
0.18671182
-0.007729724
0.04235774
0.046265174
0.13525397
-0.04598956
-0.35247123
-0.09706408
0.28332493
-0.012310038
-0.41682538
0.008092282
-0.14654358
0.041531518
-0.25000054
-0.21054831
-0.17660718
0.2288439
0.2532307
0.10455383
0.13620485
-0.13636996
0.03996801
-0.0031152715
0.13542482
0.087662496
0.16718587
-0.3494005
0.059975713
0.16233785
0.017189806
0.18912607
0.039332334
-0.036324464
0.085849866
0.05728911
0.02831068
0.011774891
-0.060633354
-0.16535795
-0.03536605
0.13557078
0.08546392
-0.15898797
0.07091608
-0.1076124
-0.022192387
-0.3231727
-0.011564415
0.15556933
0.21143405
0.01631985
-0.19329147
0.13866343
-0.1882021
0.024017107
0.17827465
0.056290325
-0.19431835
-0.31517076
0.29338965
-0.024769248
0.02437338
0.0017143707
-0.11656335
-0.22568873
-0.007233568
-0.019057568
-0.010374289
-0.08767449
0.057311904
0.023604674
-0.20869112
-0.046018697
0.12429271
0.13743936
-0.106081374
-0.153373
0.025815094
-0.10284696
-0.05267293
-0.31537154
0.0809534
0.0870111
-0.1574925
-0.011689995
-0.062158246
-0.01056841
-0.1496879
0.13723089
0.11228135
0.24876215
0.3118114
-0.045025688
-0.0071537183
-0.10508081
-0.117471345
0.1940102
0.033566497
0.017029833
0.20602243
-0.012718931
-0.046529416
0.20421581
0.13459662
0.065526724
-0.32657367
-0.061198518
0.17528921
-0.0005481945
0.1681892
0.09470379
0.14966841
0.09024859
-0.11456583
-0.020047931
0.05505599
-0.06447679
-0.009877527
0.009082156
-0.19643645
0.22021472
-0.05945969
-0.011807045
0.080890015
0.002887621
0.077153206
0.1284434
-0.065815315
-0.25233644
-0.24700929
-0.34048086
-0.08632885
0.077336535
-0.025620762
0.01613903
-0.0020212159
0.3019378
0.004299802
-0.08056338
-0.017703902
-0.17702855
-0.09436498
0.021628916
0.02283465
-0.15998977
0.079824015
-0.04775993
-0.024431473
-0.10713066
0.11734628
-0.0039559156
-0.22833364
0.011613243
0.024295297
0.12662244
-0.28245655
-0.04811342
0.0154454345
0.0145663
-0.11760686
0.016789597
0.15547536
-0.06871955
0.32825
0.086968474
-0.030447003
-0.06814048
0.10772213
-0.054541264
0.11141573
0.22214602
0.128987
0.027505891
0.09274326
0.028829504
0.086420804
-0.17945977
-0.049172502
0.16568689
0.029984275
-0.0079639545
0.14607596
0.008405296
0.11548647
-0.0038450176
-0.067876704
0.1561364
0.015253173
-0.020976236
0.03260044
-0.052495413
-0.009247765
0.14997354
-0.2562877
-0.19932987
0.06844728
-0.078348346
0.029997116
-0.01592805
-0.2732929
-0.11236544
0.07040186
-0.059646767
-0.123605765
0.077404074
-0.11896869
0.12154892
-0.130702
0.117243245
-0.17981781
0.14125271
0.14218684
0.26483023
-0.06953577
0.04534552
-0.11435617
-0.029851358
-0.074686766
-0.05227957
-0.10575481
0.18544847
0.07598253
-0.07581843
0.1740101
-0.06715463
0.027606644
0.0921614
0.11628589
-0.14783804
-0.26102376
-0.062393304
-0.19322124
0.013790263
0.16614975
0.15705083
-0.111881875
-0.23252518
0.12511675
0.0074823857
-0.20370637
-0.0061910124
-0.20140761
-0.14493266
-0.10812061
-0.11498094
-0.10097568
0.0034080762
0.1639595
-0.09112723
-0.052992858
0.05736161
-0.07256082
0.18415745
0.19771436
0.089910895
-0.24630597
0.014040598
-0.26349232
-0.17155753
0.115997516
-0.2282544
0.061345328
0.0018502827
0.16424529
0.18426718
0.18065804
-0.012343102
0.3776573
-0.017356101
-0.12045293
0.12294671
-0.11393474
-0.11266802
0.07319495
-0.10479702
-0.06698722
-0.03561309
-0.30627033
0.08933793
-0.011897247
0.1357232
-0.11324876
-0.12386833
0.09923436
0.06447101
0.02425644
-0.13439447
-0.18033402
0.11187088
-0.11042439
0.09350333
0.29662803
-0.07689119
0.20170116
0.09894787
0.012207183
-0.20463258
-0.044875123
0.06738798
-0.0354385
0.07099225
0.22853148
0.012839286
0.07337595
0.059191287
0.33319744
0.042513926
0.25119138
-0.24168415
-0.047115687
-0.08739569
0.27676356
-0.09541112
-0.055565197
-0.1360121
-0.065377586
-0.0062609487
-0.026509186
-0.10751941
-0.20596816
-0.083581224
0.2038178
0.08727122
-0.29976916
0.02169935
0.102323644
-0.16686498
0.073816516
0.0051732194
-0.1309731
0.2080075
0.10280149
0.12068602
-0.20627029
0.40424758
0.011321831
-0.07882533
0.1969788
0.07985018
-0.09995311
0.0534329
-0.2353188
-0.031929355
-0.027990023
-0.24723218
0.012594232
-0.13605471
0.068846226
0.042040035
0.06878034
-0.0021595072
0.093099855
0.0077200155
0.008117513
0.07274167
-0.0070985276
-0.35192883
-0.2942106
0.08306609
-0.27983
-0.047661975
-0.04309709
-0.09579451
0.08505127
0.12503944
-0.16349387
0.10602708
-0.18355006
-0.2606653
-0.20775965
-0.05637993
-0.1160163
0.14720249
0.045794476
-0.14880596
0.16891299
-0.0019916387
-0.105953254
0.1571318
-0.18818577
0.036558397
0.046508223
-0.048824634
-0.18018697
-0.17141914
-0.058979835
0.2630112
-0.124998495
-0.056179617
-0.0017073334
-0.039113108
0.06855763
0.20216852
-0.09085249
0.09645041
-0.22715595
-0.011234117
-0.025129369
-0.063415594
-0.12496695
0.049894065
-0.059981078
-0.20564412
-0.08028331
0.13427456
0.046045236
0.002972537
0.14841488
-0.0786472
0.023995915
0.03037823
-0.20070255
-0.15050448
0.12144244
0.03661259
0.15979423
-0.3077048
-0.10039628
0.046865493
0.15315762
0.007477091
0.17914265
0.011073105
0.06252348
0.033441566
-0.17596081
0.040016845
0.051668696
-0.1770788
0.12047526
0.052791532
-0.14068106
-0.028424444
-0.02209855
0.09266662
0.1531946
0.012676851
0.16662669
-0.18954147
-0.12895897
0.22250874
0.23854873
0.05073628
0.047125705
-0.06992077
-0.26916042
0.11714704
-0.110610135
-0.21449403
0.071497515
0.08598858
0.10830697
0.071282245
0.08072841
0.046594013
0.16846679
-0.15622436
0.082639754
-0.09589567
-0.08307258
0.11349118
-0.10178247
-0.10570893
-0.08842628
0.10470915
0.18566321
0.16603644
0.36057264
-0.2644333
0.12712243
-0.06108145
0.40765333
0.20599553
0.15235211
-0.19984046
0.13022308
0.06143654
0.01824994
-0.23613529
-0.2784687
0.09642317
0.04135111
-0.124759465
0.12374785
-0.26578915
0.19305219
-0.3448587
-0.06246424
-0.03036501
0.018469976
0.1642776
0.01038263
0.076427974
-0.1159387
0.010943442
-0.017809508
0.028123034
-0.061269693
-0.14517039
-0.022806836
-0.14080283
0.08891302
0.07202897
-0.003436257
-0.1549067
-0.00054058846
-0.043349586
-0.11654059
-0.17116684
0.19979149
0.021377368
-0.25349635
0.030790506
0.10937548
0.26283443
-0.062649585
-0.13473108
0.101983346
-0.2650098
-0.08253818
0.10868185
-0.023891857
-0.10464628
0.10739775
-0.03077981
0.0022008258
0.01134856
-0.1723521
-0.109374136
-0.1393045
-0.11258635
-0.009713921
-0.023214
0.053217538
-0.07426315
0.26325035
-0.14752705
-0.018759187
-0.04430945
0.0156142805
0.048853386
-0.22275716
0.07072192
0.09218273
0.22005321
0.20736016
0.107843965
-0.12213809
-0.19303666
-0.37210274
0.08761458
0.060694546
-0.15910228
0.04862758
0.036387827
0.17159642
0.033240173
-0.08303183
-0.10973805
-0.13006225
0.18001223
-0.24571064
-0.005924678
0.26231778
0.11753051
0.05655727
0.036446746
0.2024099
-0.03477427
-0.26741102
0.0645645
0.09264569
0.168515
-0.072713815
0.2269431
-0.28931364
0.12168188
0.33498928
-0.12667981
0.08667017
-0.16217269
-0.03301091
-0.17263483
-0.08479898
0.1327004
0.08385226
-0.029157799
-0.042493295
-0.2318343
0.018393746
-0.09596555
-0.3089616
0.22379386
0.07803054
0.01843703
-0.2971097
0.10713209
-0.16727601
0.12880081
0.16854036
-0.015518026
-0.34253854
0.08047114
0.14703262
-0.06602492
0.049011536
-0.12681252
-0.1102718
-0.06003884
-0.08504235
0.043992918
0.24573387
-0.18431169
-0.1535464
-0.03250043
-0.16145103
0.009803394
0.13414255
-0.08596237
-0.14327352
0.03553374
-0.081872635
0.021689089
-0.0023653677
-0.2707071
0.041216295
-0.014857865
-0.21698269
-0.006979135
-0.07112575
0.11083858
0.051105127
-0.061917912
0.12283584
-0.06693267
0.16498892
-0.2543343
0.03345531
0.11724215
-0.054210257
0.35012043
-0.093332924
-0.013688009
0.1075516
-0.15446989
-0.1166002
-0.044658966
0.019625442
0.08751585
0.053613815
0.14008613
-0.32448617
0.090365455
-0.04792083
0.17606579
0.1535479
0.028498907
-0.051565997
0.00709752
0.32763806
-0.104057886
-0.085985966
0.12668051
0.09784572
-0.108095385
-0.177544
-0.1923158
-0.06355748
0.19798864
0.13155347
-0.027764073
0.35389072
0.19699673
0.23059167
-0.23869194
-0.04192942
-0.016785784
-0.0012213571
-0.11036905
0.35405248
-0.035696253
0.13747971
0.12936153
0.05792781
-0.04106791
-0.019006101
0.12866016
0.086961195
0.02695261
-0.14009923
-0.038803715
0.13490023
-0.21603419
-0.108856484
0.089913644
0.13351457
0.009662716
0.22869302
0.048767548
-0.08799301
-0.0027235413
0.10018377
0.0052902107
-0.17192055
-0.09257043
0.13914438
-0.22319163
-0.13862887
-0.104538046
-0.10417144
-0.03984548
-0.19185673
0.36203748
-0.02886685
0.06922595
-0.091351725
0.05549803
0.21143268
-0.10060473
-0.016947297
-0.03122959
0.15137473
-0.3449326
-0.012946362
-0.450768
-0.12992962
-0.07559944
-0.07605014
0.080258325
-0.25199085
0.34508908
-0.22639881
-0.15945826
0.27297917
-0.14347212
-0.083258934
-0.11204711
0.03148354
-0.015312754
-0.059726495
0.080233246
0.217421
-0.027681744
0.19706781
0.010390558
-0.121721
-0.08957615
0.008759074
-0.038122956
-0.097283974
0.17583375
0.0027672825
0.25464168
-0.1311019
-0.33242533
0.08659066
-0.08361621
-0.030509893
0.06948021
-0.0076158815
-0.09908131
-0.080518566
-0.09046293
-0.16120331
0.15733597
0.060000923
-0.077123865
0.019599823
-0.22008929
0.2006768
0.05642552
-0.08390726
-0.034820966
-0.14800976
0.096558586
-0.24839109
-0.15478854
0.31049687
0.22577351
0.15208055
0.044291105
-0.018899944
0.15781373
-0.078964815
-0.031666886
-0.0073700985
0.26507404
0.035119146
-0.055845175
0.07984843
0.09443902
0.13953263
0.23670773
-0.020099578
0.05952916
-0.050754853
0.07176997
0.19209376
-0.18066613
0.4078555
0.23258317
0.11882425
0.18942483
0.21436955
0.03616077
-0.08235713
-0.15752546
0.0671981
0.16026975
0.025845768
-0.25795126
-0.13734066
-0.15465547
0.08410027
0.1401386
0.017318914
0.055254932
0.22090183
0.03069805
-0.10074455
0.07927781
0.030898854
0.10624038
0.40208137
-0.1602401
-0.03215964
-0.14858305
-0.0019077964
0.04227335
-0.05832549
-0.032064315
0.108310305
-0.1271466
0.17975616
0.16885307
0.19567376
0.09700307
-0.05866259
-0.051415898
-0.02046523
0.01906743
0.05001255
0.026189052
-0.15436523
-0.037266806
-0.011560294
0.30928174
0.15960482
0.045803886
-0.01240371
-0.057255093
-0.07107804
0.0014581985
-0.086655766
0.2342101
0.062222432
0.05621919
0.114638455
-0.1964788
-0.12674256
-0.015586743
-0.12330684
0.11398554
-0.03182083
0.0077196104
0.056725185
0.3506668
-0.016241198
-0.16459058
0.014626368
0.12877601
0.04513265
0.108100615
0.17576396
-0.13784659
0.10174802
-0.16465707
0.094174094
0.1401343
-0.006132799
0.0020297077
0.07040836
0.00185889
-0.31824124
0.06648242
-0.13508928
-0.1698998
-0.013603975
-0.008152568
0.018152151
-0.07788681
-0.11123791
-0.0062939497
0.0410204
0.01706122
0.022611707
-0.005679134
0.30129176
-0.19896439
0.072613895
0.050034236
0.13902286
-0.014254098
-0.11132167
0.12543398
-0.11954923
-0.12513453
0.2232254
0.029889116
-0.088643335
0.11109455
0.07521286
-0.14551333
-0.060609274
-0.11688975
0.10958005
0.14445107
0.03502707
-0.08433358
-0.021336393
-0.052972816
-0.17127407
0.17763971
-0.072385214
0.10193462
0.019061685
0.071727
-0.18852209
-0.030997872
-0.17068994
0.48206684
-0.09126095
0.09338126
0.092024826
-0.13146311
0.20171846
-0.2737141
-0.042486083
0.32672286
0.24049471
-0.05177644
-0.08722106
-0.14452586
0.3108421
-0.10902988
0.10271645
0.0024751455
0.017105544
0.055962197
0.20714597
0.18624587
0.05907259
0.08234025
-0.022044156
-0.08643915
0.028000379
0.23671867
-0.016014203
-0.17356622
-0.029640488
0.023156898
0.14635065
0.0029518513
-0.013121078
0.23039672
-0.297559
0.17735022
0.16256066
-0.35086092
0.20023826
0.22415078
0.096481204
-0.06601246
0.17740929
0.02076428
0.025453819
0.025057428
0.12272335
-0.07911053
0.1477833
0.17709456
-0.033869617
0.14953798
-0.084728934
0.08365501
0.11188548
0.038003888
0.060716446
-0.04763927
0.2850848
0.081278294
-0.17026407
0.02903685
-0.034301244
-0.08648744
0.008912034
0.23954608
-0.12891895
-0.13236515
-0.15871716
-0.13542673
0.06263922
0.021249289
-0.018077116
-0.2687381
0.09324191
-0.14462507
-0.053664282
0.2588126
-0.1703082
0.15301065
0.038461108
0.16268982
0.22012214
-0.077453986
-0.04572468
0.008951396
0.13305405
-0.02199204
-0.06137623
-0.17626457
-0.18772328
0.1337066
-0.025183948
-0.047502812
-0.0840058
-0.41639498
-0.04226815
0.108205095
-0.0005757239
-0.020459164
-0.024941875
-0.08924376
0.16877262
0.06845997
-0.2394976
-0.07920327
-0.2888795
0.2677941
0.26814416
-0.10799323
-0.19769865
0.051860426
-0.2167655
0.15238702
0.23521167
0.32656664
-0.037301157
0.040374875
-0.06118302
0.10067166
0.0049181143
-0.18778571
-0.17770015
-0.09873904
0.048781928
0.07966536
-0.09755082
-0.14595678
-0.041238025
0.36664724
0.13983904
0.14690575
0.1357089
0.05074661
0.12488581
0.09052196
-0.15309745
-0.17633094
0.019680833
-0.20125191
0.15732706
0.13449408
-0.07749676
0.034407355
-0.014318507
-0.2566995
0.009080912
0.15014493
0.039498493
0.0038547858
-0.15127285
-0.022439059
-0.070622236
0.086071014
0.026818398
0.013968575
-0.11965743
-0.116482444
-0.15647376
0.01631296
-0.04646497
-0.017267058
-0.07217159
0.07173076
-0.122410454
0.17509481
0.072666444
0.122414805
-0.030391624
0.03119805
-0.10951238
-0.019108003
-0.06303601
-0.13003674
-0.3198067
-0.022220485
-0.12806591
0.059557088
0.052708387
-0.1620517
0.0097898515
0.19616611
-0.054197736
-0.12483393
-0.1137066
0.031040944
0.10513413
-0.19228706
0.067977756
-0.13703278
-0.31772333
-0.11614313
0.07285198
0.18769637
-0.022023138
0.18424894
-0.14093828
-0.21707487
0.07193351
-0.3009076
0.007915776
0.31085852
-0.023902433
0.018060984
-0.2127467
-0.004496058
0.08964275
0.051848065
-0.037108563
0.2055206
-0.06751927
0.2056177
-0.09152049
0.10251358
0.11800811
-0.07171396
-0.18844755
0.025195036
0.04345764
-0.033128336
-0.4232688
-0.053455595
-0.0741728
-0.08780679
0.07583169
-0.03670886
0.10329003
0.011764654
0.1568304
0.26709592
-0.029739933
0.0028006837
-0.031237617
0.061244845
0.2347777
-0.05920829
0.03497519
0.34688455
0.30269602
0.20887984
-0.10023322
-0.12394616
-0.021617189
-0.012465687
0.10964813
0.14321026
-0.06763669
-0.14339837
-0.05014728
0.1748819
0.10414773
0.09300811
-0.22024114
-0.0004437257
-0.100106046
-0.03147641
0.01842416
0.14321764
0.01959672
0.03704183
0.0930008
-0.27393767
-0.053112738
0.36193484
-0.023670956
0.05383839
-0.090297766
-0.16018991
0.10254054
0.04640645
0.16640174
-0.21162702
0.08174495
-0.111858465
-0.07129038
-0.1858823
0.08474456
-0.01627275
0.00050747406
0.14459538
-0.12933987
-0.1268131
-0.17978872
0.030527437
-0.056866445
0.022340985
-0.02066129
0.08329288
-0.014754182
0.18053669
-0.022119597
0.3896254
0.020915795
-0.123361014
-0.081631824
0.049512204
0.051032733
0.078355215
-0.1142677
-0.3197702
0.12069559
0.0011691756
0.00035900128
-0.07318454
0.094641894
0.07306708
-0.05770162
0.09693031
0.1589281
0.12147163
0.12814167
-0.073307365
0.11644413
0.07798559
0.2608231
0.0303266
0.06350564
0.139231
-0.12197703
0.14629506
-0.09054428
-0.36963683
0.06316749
-0.124748796
-0.042059235
0.0065954872
0.14295459
-0.066918634
0.15342718
0.044661302
-0.2829838
0.17659417
0.22446458
-0.57573473
0.06408954
-0.14856777
-0.14815605
-0.004542486
0.15691794
-0.07417156
-0.0059451098
-0.27544302
-0.14615536
-0.3274757
-0.031299923
0.10802562
0.0977581
0.05019423
-0.1553541
0.14873178
0.22327454
0.085343644
-0.10261689
0.006066281
0.03337984
0.11507639
-0.033103358
-0.017408473
0.071795106
-0.13850047
0.25825626
-0.07232053
0.12558404
-0.04656472
0.20423962
0.28609392
0.11644988
0.0596465
0.018605286
-0.13243736
-0.07226317
0.30743766
-0.025507431
0.17184457
0.23944359
0.151702
0.014929698
0.014477246
0.07590941
0.04788479
0.14644182
0.016376456
-0.29988077
0.04375463
-0.107460946
0.02845212
0.17848203
-0.41389337
0.07132624
-0.11375811
0.31668264
-0.00783039
0.112463504
-0.14695355
0.1364743
-0.090896
0.005201007
-0.045530673
-0.097374186
-0.027468618
0.06634822
-0.01761009
0.15500063
0.16440573
-0.028178949
-0.010813677
-0.17567518
0.012079077
0.02380591
0.1482257
-0.16686429
-0.12194921
-0.062026095
-0.037702158
-0.14214541
-0.08647921
-0.16272794
-0.021793544
0.083203696
0.31777498
-0.04912016
0.15930794
0.29762426
-0.08976721
0.2579793
0.0049129417
-0.019818692
-0.091233045
-0.24804848
0.1723314
0.014154342
0.04189378
0.027792305
-0.013160156
0.18359627
0.18254882
-0.04279176
-0.026935527
-0.03567928
-0.12676136
0.04380941
-0.035424862
-0.2216583
-0.061929863
0.038569827
-0.042285606
0.04549457
0.023871263
-0.02066454
0.21852162
-0.13983788
0.019439198
-0.27346644
0.15449415
0.16503982
-0.010590709
0.014215953
0.008894538
0.016370296
0.16785724
0.18486902
-0.06298617
0.08394403
-0.013428248
0.1377264
0.05514328
0.14890014
-0.038323086
-0.010438589
-0.16324282
-0.04322608
0.010630876
0.041652404
-0.32311246
-0.097910814
0.004368634
0.06188701
0.16301864
-0.061562166
-0.25823393
0.073626086
-0.09255387
-0.13585007
-0.057779063
0.033094525
-0.19158646
-0.03983647
0.040905554
0.24896272
-0.16323154
-0.053193983
0.08835832
-0.00694461
0.06902675
-0.17509168
0.12695982
0.14529872
0.22277111
-0.089444526
-0.12646145
0.079756655
-0.15227784
-0.19536391
0.12330563
-0.0005640813
-0.118976995
-0.21411711
-0.1336639
-0.07030864
0.029366223
-0.072046295
-0.04309523
-0.09770824
-0.12750891
-0.0066071535
-0.3047642
0.31546685
0.23873912
-0.1297344
-0.25776544
0.004204796
0.18669905
0.040459447
0.023456968
0.096128784
-0.07629095
0.13680853
-0.14221036
0.18829033
-0.08403092
-0.017982567
0.07777014
0.10031486
-0.13557547
0.013033737
0.0118658915
-0.11896584
0.023654388
-0.117860794
-0.098151125
-0.10613077
-0.13920404
-0.11470604
-0.06403663
-0.021723025
-0.17006138
-0.07226675
-0.18276538
-0.4047394
0.082295366
0.018730965
0.14450409
-0.022364276
0.12410285
0.07680877
-0.053348016
-0.10692171
-0.026539203
0.042819135
0.062266674
0.14246406
0.007676492
-0.019131662
-0.038475655
0.23023173
0.14331833
-0.033208728
0.11215011
0.085491166
0.21987948
0.17053592
-0.2052089
-0.1376782
-0.106034845
0.12902078
0.109620735
0.22040194
0.005276453
0.0062133563
-0.106707916
0.11119087
-0.034878537
0.20170142
-0.32294887
-0.06842463
-0.013889554
0.21760757
0.0775116
-0.018736979
0.015098758
0.034598228
0.22118628
-0.0058925957
0.116255276
-0.054836053
0.02229714
-0.20742594
0.247995
-0.29032922
-0.06871231
0.02381595
0.07371051
0.005149602
-0.06402683
-0.11786301
-0.11697971
0.2306118
-0.03589063
-0.16717836
-0.10499588
-0.2657873
0.005060214
0.1939104
0.24254356
0.06007114
0.11781341
-0.008330618
-0.035900895
-0.029922586
-0.033728614
0.040516555
0.044980388
0.15501823
-0.017486734
0.12427176
-0.044632114
-0.17375918
-0.03039212
-0.24744909
0.11419822
-0.09806024
-0.08492611
0.052763525
0.07986365
-0.062893696
-0.20482478
0.5319587
-0.02720833
0.026611162
-0.09182189
0.074242115
0.05182501
-0.05474323
-0.057952743
-0.4288676
-0.0310053
-0.00031628236
0.060350142
-0.09622351
-0.1647021
0.18676282
0.23069684
-0.01181372
0.049786925
-0.006965573
-0.04593572
0.16893469
-0.06907261
0.094678186
0.1703391
-0.1345843
0.054433756
0.17579141
0.14509156
0.1467238
1.3248167e-05
-0.057758704
0.16797489
0.21316281
-0.057417884
-0.037655022
-0.2574277
0.016477821
0.09119534
-0.18673572
-0.13847136
0.026701715
0.12098673
0.08707058
-0.1392979
0.027866028
0.100357495
-0.083390266
-0.055555586
-0.067868814
0.032795697
0.08180664
-0.15022467
-0.084864534
0.42644626
-0.083794065
0.14438929
0.009969415
0.13998993
-0.40041146
-0.0117923245
0.07369812
0.24053468
0.1466703
-0.25712845
-0.14510155
-0.05911276
0.11246338
0.22405075
-0.12760283
-0.051399663
0.27534887
0.08088526
0.08488162
0.16446075
0.043014124
0.094231725
-0.10127206
0.057129145
-0.131884
0.08301919
-0.20189591
0.029730398
-0.08767432
-0.09091159
-0.16069274
-0.070831455
0.10684617
0.09738975
-0.2419741
-0.17456412
0.00693884
-0.28928608
0.034495234
-0.0080403155
0.07081919
-0.099153295
-0.06599296
-0.1095283
-0.14748889
-0.11438322
-0.012821802
-0.019216698
-0.18397786
0.0051020724
-0.00056568644
0.09733632
-0.08376999
0.013712937
0.06498513
-0.07426159
-0.1509521
-0.22694032
-0.13685092
-0.061813645
0.0705798
0.24631786
0.09136342
0.06736393
0.031732235
0.019872345
-0.13187742
-0.061432723
0.05125749
0.05819685
-0.1399429
0.026419321
-0.0794267
-0.03306066
-0.059312683
-0.1840022
0.12743957
0.053324804
-0.18463841
-0.051972486
0.12367437
-0.07638964
-0.16614312
0.18980564
0.37767917
0.23849969
0.10861525
-0.029654115
0.26380605
-0.24684148
0.04725029
0.03534912
0.0113457665
0.09304869
-0.2408974
0.06339878
0.16671164
0.19604483
0.043867998
0.13295941
-0.09112132
-0.015958574
-0.13089673
0.117567234
-0.34199825
-0.13983397
0.1295087
-0.1160463
0.09559006
-0.20370549
-0.057328444
0.018714605
0.138434
0.089325465
-0.04424189
-0.03442118
-0.023985296
-0.0055297366
-0.12059338
-0.06722662
0.13862745
0.055854626
-0.004792413
0.21790954
0.35742134
0.0675018
0.020403119
0.14594097
-0.16821483
-0.120860614
0.20036559
0.35635072
0.08727682
-0.17348032
-0.22522451
-0.01948161
-0.17414442
-0.082768105
0.17758583
-0.046632677
0.023346217
0.13949288
-0.19557221
-0.04698243
-0.13654397
0.019000517
0.09356793
-0.13236582
0.12492778
-0.18010744
0.22289339
-0.03653045
0.09554117
-0.12453206
0.10321042
0.13510907
-0.25346646
0.053084396
0.1228758
0.07529022
0.058327325
0.114231415
0.14697671
0.079746395
0.0682994
0.071796864
0.0697462
0.040575936
-0.11231025
0.10775475
0.1651228
-0.018913934
-0.07192686
0.21189944
-0.15474264
0.21107991
-0.1579228
-0.24052197
-0.097185485
-0.118287735
0.0046179574
0.22242028
0.11997151
0.074335515
-0.28073904
0.12536016
-0.10077841
-0.002795525
0.1527172
-0.23814742
0.17485163
0.017155785
0.28767067
-0.15122795
0.17335905
-0.036989976
-0.14163552
-0.19662702
0.19058077
-0.029014766
0.025586598
0.024551384
-0.095594265
0.22184636
0.08656727
0.082135625
-0.29868045
-0.14872326
-0.054842927
-0.015337159
0.13200274
0.09266256
0.08709143
0.085678354
0.019170562
-0.0034154046
-0.07397918
0.029656624
-0.1703509
0.12927194
0.030934518
-0.1684511
-0.08042393
0.24259482
0.10585214
-0.004725967
-0.23066556
0.0043670824
0.21415822
-0.40267187
-0.01580183
-0.14625171
0.16754529
-0.16311468
-0.13935152
0.012463071
0.17322564
0.098505
-0.049124718
0.19153975
0.0803402
-0.07129627
-0.17527686
0.030835854
-0.061935227
-0.18323748
0.36051223
0.108974904
-0.26777083
-0.15889707
0.04365886
0.015457886
-0.14600813
0.051181395
0.028975073
0.056339305
-0.3537874
-0.109699495
0.09980286
0.09502315
-0.21379441
0.08204087
-0.042006508
0.1796333
0.0076337303
0.019432949
-0.1296799
0.22534618
-0.09353625
-0.27314922
0.03861018
-0.011183821
0.047608588
0.1115719
-0.28893858
-0.047578163
-0.07818089
0.046690103
-0.050435822
-0.08215344
-0.18557693
0.015990362
-0.064818665
0.004786378
-0.18686818
-0.15223096
-0.24587953
-0.13108845
-0.25611144
-0.2417249
0.074672036
0.08070518
-0.20045461
0.11143421
-0.10700566
-0.009050364
-0.15184219
0.38235217
0.016750896
0.11877049
0.0046755187
0.118714295
-0.1583984
-0.02236811
-0.119144976
-0.032349024
0.038409244
-0.02029349
-0.06767817
0.10713798
0.13599204
-0.08893286
0.031616528
-0.14136311
-0.34147054
-0.18919577
-0.031980876
0.021921687
-0.21249141
-0.06359699
0.03009507
0.087244645
0.29760692
-0.17650943
-0.053982727
0.15493196
-0.1527406
-0.10724078
0.01103857
-0.12047111
-0.26404074
0.06366642
-0.079021186
0.12566479
-0.18347362
-0.18181743
0.21389158
-0.057333022
0.09685588
0.07736749
-0.12442088
0.0040602586
-0.17410399
0.13131951
-0.03496435
0.035682157
0.15047932
0.005016583
0.07110753
0.136597
-0.16020587
0.026213372
-0.060389347
0.046919934
0.29136178
-0.055220824
0.122819714
-0.12912357
0.041086826
-0.0495004
-0.049301248
-0.06650946
0.16689895
-0.050596718
-0.20082219
0.1646725
-0.20596494
0.13830368
0.10297293
0.06758204
-0.045909356
-0.1636383
0.048529502
0.060492046
0.07917433
0.004445577
-0.08936756
0.08612238
0.123587154
-0.113630615
0.019137915
-0.02401074
-0.06425536
-0.058333464
-0.08037317
0.04880051
-0.16832578
0.10596519
-0.058788277
0.030454084
-0.13384126
0.04802646
-0.22004554
0.036344737
0.24040288
0.18024793
-0.27475953
-0.015684174
0.19771123
-0.02902854
-0.1586863
-0.22759923
-0.14657822
-0.18466407
-0.08338476
-0.25293055
0.140064
0.0065868394
-0.18742527
0.21459094
0.13835055
0.20266587
-0.15824807
0.18807054
0.09960949
0.10103304
0.16007885
-0.13512692
-0.057829846
-0.18321231
-0.21644206
-0.009831639
-0.06506547
0.18166476
-0.26203668
0.28448543
0.103945024
-0.2118622
0.101574056
0.23845366
0.019602021
-0.26309088
-0.11260698
0.12504992
0.28231278
0.10773323
-0.10920383
-0.09886729
0.085150406
-0.29822344
-0.20438395
-0.028315222
0.047020577
-0.06779672
-0.011028966
0.052014377
0.3584471
0.28577182
0.3574764
-0.007077474
-0.0141256135
0.025365625
0.020068347
-0.082742
0.004428132
-0.32197112
-0.04025242
0.34784445
0.11008604
0.22926655
-0.079642735
0.12882078
-0.035137
0.043524437
-0.028243022
-0.0073999683
-0.018879607
0.09627701
0.11516918
-0.33913398
0.03689701
0.07860513
-0.066535175
0.043422945
0.10375498
-0.12062279
0.023313066
0.28026608
0.0093532745
0.023034617
-0.08860732
0.1091524
0.10027755
-0.20077032
-0.02541192
0.089131646
-0.13393794
0.17359267
-0.013061567
0.2237141
0.1274287
-0.16940597
-0.09185745
-0.04790395
-0.22778426
0.04887496
0.21105191
-0.17899111
-0.024391508
0.1895348
-0.14796665
-0.11263872
0.11662884
-0.15965886
-0.28118065
-0.1536136
0.025368625
-0.013541935
0.00059110834
0.043274533
0.07305628
0.09979433
0.04573701
0.15447211
-0.20490745
0.099681675
0.16788305
-0.12202757
-0.32598966
0.0648953
-0.013538818
0.022472564
-0.26722613
0.048509423
0.30559537
0.06718659
0.080494024
0.06412673
-0.029588202
0.11391069
-0.018498097
0.24389488
-0.09281015
0.17554662
0.026787663
-0.102294326
0.06027202
-0.061381813
-0.057659313
0.0071275905
0.086305976
-0.23343165
-0.09893191
0.111235365
0.16307321
0.124141626
-0.33942986
0.10896405
-0.06222269
-0.07375727
0.090511374
-0.035669807
0.022023708
-0.115248926
-0.0052413642
0.22897793
0.16984697
0.13478494
-0.045893546
0.16921325
-0.13639313
0.025698476
0.07885569
0.10214818
0.08900955
-0.0072477343
0.24183697
-0.16034956
0.13167652
-0.13455896
-0.091068536
-0.18141226
0.12256951
-0.0008405287
0.21644616
0.056519777
-0.13647547
-0.08202665
-0.05165112
-0.124156326
0.08671556
-0.11224851
-0.062884726
0.14240342
0.21123648
0.010320726
0.0018204255
-0.103145204
0.0142657375
-0.07433202
-0.08167416
-0.026629219
0.18190184
-0.26026917
0.012023975
-0.06458184
0.12012208
0.18778332
0.15746525
-0.10591842
-0.38023818
0.16679095
0.014595808
0.15911035
0.032893907
-0.2394457
0.10458987
-0.06266133
-0.18164778
-0.076329604
0.029306147
0.21071689
-0.11261918
0.02973652
0.1525106
0.05746097
-0.2813302
0.027007047
-0.00610311
-0.06748237
-0.15344338
0.34366664
-0.15952127
-0.19875821
-0.025416365
0.21845298
-0.2376956
-0.17263757
-0.17541961
0.08118047
0.04340727
0.06206555
0.35325566
0.1175994
0.15294987
0.16486481
0.07291352
-0.045303557
-0.050974563
-0.015399122
-0.03994168
-0.08434754
-0.09945468
-0.069729656
0.11379324
-0.18854149
-0.12769002
-0.07987742
-0.17642285
-0.02490256
0.2665387
0.19602174
-0.15506473
-0.24390359
0.23788612
-0.16965316
-0.10279303
-0.009787435
0.18160343
-0.09370949
0.0218754
0.06507312
0.1230167
-0.13404119
0.24729294
0.12660246
-0.18482198
-0.19451793
-0.0027055854
-0.07932629
-0.19093503
0.25354064
-0.11927962
-0.013277915
-0.03111999
0.15487598
-0.020867454
0.13015851
0.07524085
-0.061867863
0.10660578
0.18696927
0.049642373
-0.24083628
-0.020093983
0.043430004
-0.011294007
-0.024126884
0.09479712
0.14123623
0.20502967
-0.18453299
-0.24793956
0.17058265
-0.08158727
0.11343654
0.2957389
0.0057562874
-0.1230204
0.23091884
0.1512894
-0.01736708
-0.23591012
0.014587449
0.0684501
-0.056147277
0.20173408
0.053998634
0.020738807
-0.030305048
-0.06316901
0.19843715
0.012771514
0.051736444
0.08357758
0.19427164
-0.31130022
0.03020045
-0.026478212
-0.16987516
0.04280389
-0.099666655
-0.010620815
0.16711359
-0.22910717
0.16192839
-0.05720654
-0.16770132
-0.35083652
-0.029130433
0.12693852
0.016682785
-0.06414181
0.05778531
-0.072306626
0.03985072
0.040458776
0.043568533
0.045528542
-0.015424378
0.24024962
-0.17233177
0.10773177
0.11428283
-0.035387613
-0.19067536
0.106346644
0.012852506
-0.046598434
-0.05790852
-0.11080094
0.04334576
0.03441186
-0.032921597
0.060593605
0.11502703
0.07996278
-0.14901397
-0.034558624
-0.026148956
0.16058262
0.29233176
-0.040769253
-0.07252013
-0.111140005
-0.009035915
0.045315128
-0.1289433
-0.041468028
0.0783463
-0.10875547
-0.21213864
0.021758087
0.0055534085
0.37322515
0.014968227
-0.21035315
0.14011776
0.06139742
-0.036798533
-0.024885885
-0.03152818
-0.04345328
-0.0807244
0.101060286
0.02339939
-0.027798831
-0.3289217
-0.00422729
-0.17841089
0.055631217
-0.11780979
-0.24778585
0.10632261
0.08986486
0.014849655
0.2550109
0.14711541
-0.20002593
0.21208985
-0.25850824
0.057692572
-0.06918694
0.01462459
0.16685174
0.0387051
-0.040452935
-0.014403348
-0.3825646
-0.20008427
-0.013181597
0.24738611
-0.21799071
-0.067134775
0.06586134
-0.02259826
-0.09419683
-0.092659466
-0.22859968
0.054340385
0.11010187
-0.02126768
-0.0076279663
-0.1585053
-0.14007112
0.022628462
-0.07172891
-0.09365969
0.18383597
-0.055876523
-0.037194915
0.04377491
0.12818944
0.056406375
-0.053891353
0.0070677213
-0.077955626
0.38017103
0.22984025
0.029369911
-0.17658117
-0.09287055
-0.069140464
-0.043814722
0.07024789
0.008445609
-0.32945487
0.14384778
0.1537308
0.19462737
-0.14339735
-0.06965569
0.0219391
-0.06579323
-0.06447839
0.017649086
0.055262674
0.20487648
0.02750989
-0.12710708
-0.26844347
0.0129809445
0.02843053
-0.022415655
0.21356937
-0.16965732
-0.073155664
0.181267
-0.11892729
-0.09081185
-0.025448719
-0.12928809
-0.10221671
-0.16681902
-0.057750843
0.12305262
-0.26834005
-0.2654134
0.004954293
0.15885118
0.23838818
-0.06386446
0.12080649
-0.09951666
0.1072755
-0.13352202
0.18607277
0.095977105
0.13569508
-0.04793434
0.100566246
-0.0022113924
0.19927743
0.02197585
0.015774861
0.07821501
-0.04088522
-0.08100083
-0.097125754
0.05816629
0.03820132
-0.28109854
-0.06631525
-0.053813897
0.12383652
-0.07184636
0.13460292
0.043300144
0.24262996
0.07793778
-0.0035935931
-0.14328727
0.13488142
-0.24185179
-0.13920502
0.18036003
0.15025494
0.10613679
0.12280802
0.24613841
0.18755983
0.0029607122
0.25386977
-0.055744123
-0.0028522306
-0.14856672
-0.13866627
0.077284984
-0.10905551
0.09064028
0.15936027
0.10575124
-0.15754783
-0.237044
-0.019079894
-0.244656
-0.029908588
-0.095807925
0.056135774
0.13025911
0.17026994
0.10534068
0.088469334
0.16621064
0.1028021
0.052723505
-0.016016614
-0.087764814
0.033111185
-0.047960833
0.08186867
0.12035982
0.020081485
0.20922825
0.17299652
-0.24962687
0.028267814
-0.03474077
0.053754963
0.078510806
-0.17937566
-0.032981303
-0.0572612
0.16990817
-0.08613505
0.051935785
-0.016859666
0.17684603
0.14757138
0.08811807
0.20493412
-0.22382455
-0.18896843
0.0973097
-0.022721242
-0.18193607
0.03275851
-0.013601611
0.14991544
0.23970382
0.11931012
0.13408235
0.170851
0.019614413
-0.087946326
-0.018502872
0.018030027
-0.21819459
-0.061065327
-0.04056659
-0.2275611
0.163876
-0.12426896
0.10210811
0.06442049
0.18452522
-0.18263973
-0.070745826
0.0008027469
0.29366046
0.02230042
-0.25776336
0.14893977
0.014322946
-0.050272815
-0.25924844
0.099801704
0.23007585
-0.3660371
0.1672573
0.0074868733
-0.06050608
-0.20021649
-0.057499606
-0.027463257
-0.010363875
0.21242237
-0.008786775
-0.12359553
0.1400624
-0.04235862
-0.15885273
0.28333965
0.17312251
0.06734202
0.08883605
-0.07068707
0.12092576
-0.12227365
-0.15995999
0.16540183
-0.20517613
-0.10520548
0.20912433
0.00087985763
-0.029866481
0.16326751
0.025489224
0.007866697
-0.08452775
0.09191295
-0.12498509
0.30175272
0.048655592
0.0040762955
-0.008183207
0.056426205
-0.12332314
-0.12907305
-0.08590334
-0.05132236
0.15360115
-0.014592622
0.1711327
0.03314806
-0.12713677
0.0459198
0.16484465
0.36249298
0.16223477
0.037090678
0.018651107
-0.050983556
0.1539013
-0.062379103
-0.027883962
-0.24179564
0.10086775
0.045653142
-0.059376355
0.14260346
-0.12525842
0.16806035
-0.14531954
0.21971433
0.22980326
0.086200655
0.032585103
0.051445246
-0.010369609
0.19377656
-0.011972689
0.0055510337
-0.049207553
-0.07826881
0.1562538
-0.04784236
0.016895676
0.0026987155
0.09632042
-0.016536366
0.059915747
-0.12049214
0.18923427
-0.046515074
0.004584297
-0.11555586
-0.05856356
-0.015452237
0.3709329
0.07413982
0.18622258
-0.007071097
0.009434418
-0.23077969
0.031329997
-0.113596074
-0.080154605
-0.057232674
0.08034217
0.028387276
0.014541309
-0.10220038
0.08777856
-0.14076746
0.015451703
-0.056327935
0.035404637
-0.16195306
0.11085593
0.14756748
0.10661365
0.11488085
-0.06073893
-0.01800534
0.31232655
-0.05229052
-0.02563767
-0.06640245
0.27102733
0.040792897
-0.018854529
0.14877601
0.15554455
-0.14507487
-0.052428234
0.032681767
-0.06954705
0.0028424691
-0.34569025
0.17965771
0.026074361
0.2407807
0.0042125853
-0.026249696
-0.047171444
0.004395873
-0.022782201
-0.06330577
-0.2755111
-0.18756291
-0.06336246
-0.022406409
0.29663882
-0.0755949
-0.27371892
-0.35704857
0.15808912
0.14674567
-0.09922255
-0.09557856
0.16524735
0.07072384
0.13171211
0.21417104
0.110456675
-0.14745148
0.08146472
-0.1132804
0.18049234
-0.09700279
0.022193402
-0.14407852
-0.2548109
0.09370205
0.0713574
-0.19788752
-0.20503613
-0.047754157
0.32501215
0.14169462
0.17637008
-0.25778887
-0.16503486
-0.11950926
-0.09501597
-0.113853216
0.00081771216
-0.15287413
-0.052414563
-0.22257353
-0.04264104
-0.18184306
-0.2414297
0.047275994
-0.07922105
-0.07922867
-0.04265131
-0.2264313
0.21325578
0.12447149
-0.100431815
0.04657537
-0.18657589
0.06238656
0.05688153
0.15269096
-0.20722699
0.19760238
0.0398392
0.2100889
0.007544954
0.11603331
-0.09427892
-0.17855965
-0.1660931
-0.1910278
-0.22206667
0.06487338
0.15843822
-0.010872524
-0.19166285
0.20900133
-0.2739489
-0.03781342
-0.17414445
-0.17576493
-0.3014035
-0.24253158
-0.21052337
0.047650546
-0.05676231
-0.065289
0.02484453
-0.038144857
0.14341514
0.12762284
-0.032986235
-0.1728876
-0.22728714
0.13025995
-0.06265258
0.075029075
0.0056926413
0.08158042
0.023443867
0.3025851
0.14458787
-0.057783082
-0.0642976
-0.09355779
-0.11727259
-0.047110967
-0.15114912
-0.028711788
0.06756155
-0.0342601
-0.19158757
-0.05383479
-0.0354533
0.0744388
0.056495715
0.022139428
0.13000043
-0.14463016
0.13334586
-0.012655994
0.10983352
0.107230134
-0.27036226
0.01622423
0.31990656
-0.124051414
0.10430448
0.083042614
0.01200345
-0.055883393
-0.1522319
-0.25206643
0.06766065
-0.13067019
-0.30064118
-0.21580583
-0.14854829
-0.2463797
-0.0825373
-0.09242124
0.29731512
0.0018071318
-0.036369514
0.00605655
-0.030814884
-0.10528252
-0.029757451
-0.017147202
0.08659049
0.17643192
-0.1791157
0.029121313
-0.07252365
0.10251642
0.23586182
-0.13482271
-0.0603202
0.14473288
0.06390986
-0.12114054
0.18660454
-0.10083877
0.043515857
0.016543275
-0.06312006
0.13845056
-0.03267418
0.006915985
-0.04127626
0.007823318
0.07369376
-0.0014027874
-0.16393986
0.1102389
-0.18428299
-0.10251277
0.1501428
0.08927379
-0.19191681
-0.16610914
0.21174692
-0.08604199
0.1493504
-0.121163234
-0.21291786
-0.36485875
-0.040358413
-0.3745859
-0.12846713
-0.264817
-0.20188847
-0.06429309
0.13569245
0.14128996
0.23605295
-0.10123945
0.016421137
-0.07991875
-0.006631699
0.09381303
-0.027275868
0.00961357
-0.11110688
-0.1737709
0.119286105
-0.08040411
-0.23812075
-0.13549314
0.028885685
-0.2911977
0.023439655
-0.0059211906
-0.12103026
-0.2516527
0.14512022
0.0652297
-0.0522181
0.009394348
-0.20130418
-0.20720094
-0.23670489
0.36252078
0.03564934
-0.13261941
0.22016011
-0.14954524
-0.10469761
0.10683794
0.13691287
-0.087103345
-0.022272447
-0.1807605
0.021735413
0.13899869
-0.012225104
0.01896306
-0.094323315
-0.24271557
-0.21652366
-0.075202666
0.096330285
0.14313006
-0.09860349
0.060203213
-0.064576305
0.003887298
-0.12764718
-0.06035423
0.29009387
-0.0067688986
0.007045842
0.15687914
-0.09401946
0.106939964
-0.23088194
-0.0234569
0.013587259
0.07861932
0.03336179
-0.29564258
0.06456583
-0.3185106
-0.18243615
-0.07910348
-0.2763913
-0.15100932
0.29525945
-0.1608146
-0.024526276
0.30870354
0.013370111
0.16033053
-0.09551657
-0.05124721
0.19507338
0.1809479
0.28172785
0.25192857
0.14124136
-0.0023401673
-0.26681134
0.0035095138
0.13075216
0.1682377
-0.2859018
-0.08374077
-0.0076301666
0.066211365
-0.180768
0.09643164
-0.021008432
0.15691446
-0.18424721
-0.064254574
0.0052695326
-0.17768733
0.1467568
0.03137295
-0.15511803
0.04472604
0.30446965
0.16263117
0.24053127
-0.015427663
-0.011431643
-0.1290854
-0.20967485
0.33524218
0.09426859
0.26699492
0.13107605
0.076000646
-0.03330635
0.14151926
0.046508733
-0.07417059
-0.071592525
-0.1821868
0.06298605
-0.10520486
0.0042939405
0.050573878
-0.13730006
0.053330906
-0.024641024
-0.14087948
0.027245887
-0.22365272
0.13991714
0.22553901
-0.34793833
0.19063221
-0.2227188
0.26732823
-0.02843644
-0.18810265
-0.038410477
-0.06493507
-0.14722125
0.125962
0.01356883
0.13435349
0.08408973
-0.043832783
-0.21471314
0.080514595
0.15616171
-0.18648268
0.036878716
0.14627554
0.053859506
0.07872433
-0.049533818
0.05044289
0.026654521
0.017497849
-0.12861213
-0.047881145
0.019381393
-0.013806904
-0.13906206
-0.10041398
-0.003650564
0.014645302
-0.16644542
-0.18792614
-0.029214913
0.14118463
0.21233375
-0.01962525
-0.03471532
-0.05977378
0.08171388
0.2509889
0.35849553
-0.27830306
0.22292316
0.09383956
-0.12689862
0.07284491
-0.013717457
-0.05688235
-0.052011844
0.13132226
-0.07723818
0.21702503
0.032067183
-0.09677236
-0.017731747
0.060126923
0.23009668
0.15685864
-0.08909873
-0.067344986
0.36050004
0.28257838
-0.059080992
-0.080471046
0.21167476
0.13744053
-0.0066913804
-0.038505718
-0.008274928
-0.10746925
0.050951485
0.29578656
0.1122937
-0.21440284
-0.23144719
0.11561596
-0.06393575
-0.09798729
-0.06210173
-0.22963558
0.10146932
-0.2517292
0.0835684
0.08601063
-0.3428368
0.061248794
-0.053522743
-0.271605
-0.10261016
0.012235166
0.10833473
0.2967041
0.19669707
-0.06714258
0.32576483
-0.20805615
-0.10206468
-0.12768303
-0.29441217
0.13553487
0.08709438
0.05203499
0.24668075
-0.007498843
0.087605424
0.15917435
-0.11202168
-0.09216793
0.10373657
-0.03527507
0.050134286
0.12209881
0.23308936
-0.03520577
0.07915519
-0.109113045
0.012856297
-0.06693285
-0.19101053
-0.15219967
0.15017423
0.21802497
-0.12856941
-0.010081782
0.024255661
-0.12147626
0.14639196
-0.04943581
-0.02403295
-0.1902453
-0.14436
-0.11731353
-0.049948514
0.1686867
0.07522251
-0.18121599
0.007760885
0.16916157
0.3357866
-0.14396225
0.022986252
-0.02301902
0.050336983
-0.027929349
-0.09134439
0.08600907
0.027252557
-0.034766026
0.31661904
-0.25659677
0.05261298
0.07927343
-0.10218179
-0.28941405
-0.07203055
-0.08360605
0.017770495
0.36892882
-0.054561473
-0.019718098
0.05561281
0.08459672
0.05211522
-0.19234242
0.0082132155
0.2540346
0.10888716
0.017685257
-0.16535889
-0.08303757
0.09486341
-0.08837108
0.20640759
0.14450897
0.43397763
-0.092272446
0.0339161
-0.15730914
-0.09322908
0.05928225
0.13493215
0.05198255
0.09209489
0.007262857
0.019255204
-0.26146722
-0.06372308
0.026962489
0.21980084
-0.14046088
0.0021799668
0.17289397
-0.12169505
0.022340404
0.24660353
-0.049603257
0.20047837
-0.16408974
0.008226089
0.22878315
-0.07449416
0.08586361
-0.03344265
-0.083647765
0.10140868
-0.06630335
0.17484528
0.08151845
0.036307875
-0.15670756
-0.15060985
0.13125896
-0.045386523
0.13937995
0.10261732
0.11294883
0.26719877
-0.22915003
-0.24843982
0.26022398
-0.1630595
-0.39609924
0.09628762
-0.0873982
0.03117018
0.11576189
0.11164959
-0.036469854
-0.07592749
0.11922868
-0.027588533
0.23428288
-0.3534561
0.13840003
0.0508652
0.05058228
0.11806108
0.15812367
0.01542852
0.13155094
-0.10006421
0.22926342
0.28989503
0.12404183
-0.0802814
-0.08175741
-0.16704413
0.37621513
0.17186134
0.030028481
-0.22171095
-0.048692454
-0.0067094015
-0.28558606
-0.028169192
0.20129734
0.10819958
0.123154186
0.08013023
0.083722495
-0.08839303
-0.07922648
-0.17485063
-0.074575745
-0.15446562
0.0844005
0.20993485
0.24108583
0.10116939
-0.051962465
0.021616051
0.0193937
0.037166283
0.05893179
-0.17608845
0.037592832
-0.03275788
0.04595112
0.0072524794
0.09932741
0.013514629
0.10801277
-0.10106742
-0.079495646
0.04305053
-0.07672729
-0.0035065522
-0.061501212
-0.30333376
-0.21588688
0.112535015
0.031499274
0.05530311
-0.1774246
0.078218095
0.15848112
-0.12585244
-0.056615822
-0.022733899
-0.16528146
-0.07410479
-0.22020006
0.21473837
0.050176907
0.021299506
0.16793598
-0.14350039
-0.1857315
0.114678666
-0.13865037
0.11609884
-0.017397327
-0.1254475
0.12554769
0.11804257
-0.34076837
0.05857778
-0.09570055
-0.11367641
-0.097669914
0.09651046
0.021416834
0.23806705
-0.01127159
0.15422769
0.0006397839
0.04091752
0.099483415
0.046577632
-0.30552086
-0.1658241
0.057121795
-0.26720545
0.3253856
-0.19432198
0.030793253
0.025510408
-0.030012231
-0.06172292
0.09376355
0.0089310985
-0.11873518
0.013907079
-0.033706408
0.06470252
0.23163134
-0.036529854
-0.0011357819
0.13401246
0.09257233
-0.1334779
0.020109668
-0.11207482
0.09715054
-0.001766683
0.03475716
-0.02795022
0.11050206
0.05919908
0.10136617
0.06382011
-0.15898424
-0.018671872
0.09330033
-0.30880144
-0.11982405
0.045001082
-0.04338091
0.02017441
0.046712834
0.04095439
-0.20131046
0.06814258
0.2595973
0.20102073
0.1994154
-0.17317218
0.02386154
0.2010802
0.11900356
-0.090692736
-0.042311538
-0.11116214
0.116145596
-0.03367591
-0.16683052
0.07342887
0.01540896
-0.04965973
0.06652076
0.13830175
0.05809601
-0.09184666
-0.10276348
0.057328746
0.24240957
0.08325712
-0.091058105
0.013451655
-0.2610595
0.1258846
0.063922815
-0.08347128
0.102782056
-0.15790029
-0.009956815
-0.20523748
0.00091517903
-0.18664485
-0.18418221
-0.106561475
-0.18071678
0.033606827
-0.16296633
-0.06562085
-0.17251495
-0.14628428
-0.017532472
0.024406927
0.21876492
-0.0050653554
-0.0010138111
0.060493946
0.13037565
0.15100184
0.2844378
0.079258636
0.06509604
0.0008374543
0.0025700575
0.08665646
0.051170655
-0.03958553
-0.35452193
-0.0020018045
0.19268963
0.015683576
-0.2257692
-0.1663084
-0.16693726
-0.0103546465
-0.040769085
0.014138409
-0.17865491
0.2566025
0.13837157
0.12155815
0.14378734
0.07906026
-0.120465174
-0.091732875
-0.011153184
-0.24963433
-0.05590513
0.12358302
-0.004315057
-0.31080192
-0.37090212
0.115768395
-0.03939156
0.11861626
0.09469307
-0.12971996
-0.17574106
-0.008708048
0.19978221
0.20854239
0.14757124
-0.056658812
-0.03834245
-0.09196787
-0.018923892
-0.07423556
-0.03154121
-0.0014551039
-0.12994729
-0.17878418
0.043677956
-0.01280915
0.08314068
0.015527735
-0.15065773
0.034232453
-0.19472048
-0.15605186
-0.14312324
0.26053688
0.070349045
0.117204204
0.20721294
-0.07179038
0.22914591
0.08570337
0.021658717
0.09175048
-0.11374342
0.07457536
0.06396954
0.19940408
-0.19419703
-0.061739594
0.10039163
0.028832925
-0.09233054
0.0016381592
0.019381512
0.18171044
0.037996866
0.18740271
0.06923277
0.19065543
-0.09335058
-0.16034216
0.021151101
0.22007273
0.09934113
0.008472298
-0.14799567
0.149659
-0.13363709
0.19318971
0.057810433
0.014911546
-0.21344718
0.15728474
0.008008573
0.38506672
-0.048604198
0.12050833
-0.016862068
0.04389947
0.0071240896
0.06820806
-0.026165968
0.22961698
-0.08883895
-0.010083608
-0.23438399
0.12896816
0.13605933
-0.015394315
-0.07804625
0.0038137368
0.06902786
0.12285654
0.09722771
-0.23931916
-0.03377436
0.045141105
-0.42093992
-0.21046676
0.1196343
0.01639492
-0.07110204
0.07752334
-0.015097644
-0.019876366
0.09409729
-0.08903754
-0.28861144
-0.037996963
0.14792104
0.24218696
0.091804944
0.14719519
0.16807166
-0.04666533
-0.09201246
0.2733237
0.029608348
0.009349536
0.110016696
-0.17970346
0.14510983
0.17215195
0.12992711
0.13952151
-0.11854275
-0.27612123
-0.047934573
-0.18845853
-0.05053346
0.19504632
-0.11315631
0.060030375
0.03229944
0.17381613
-0.03900583
0.20875555
-0.14846987
0.10668017
0.005059169
-0.21985596
0.046288628
-0.10039366
0.04077494
-0.20853437
-0.20241873
0.1616019
-0.0019990858
0.13396508
-0.08681331
0.14144076
0.01361448
0.16041997
0.06413083
0.3351543
-0.08671277
-0.015125005
-0.04963794
-0.11045247
0.16213302
-0.24498759
-0.013925595
0.0069422433
-0.21345137
-0.13492793
-0.010026734
-0.050084848
-0.12158462
-0.12721263
0.26815528
-0.07010507
-0.11882926
0.080122046
-0.0011168243
-0.05435241
0.1974696
-0.039195947
0.11690744
-0.11139729
-0.07889273
-0.0648171
-0.085512616
0.0492586
-0.15529752
0.06397776
0.07977774
0.060561296
0.13307787
0.1309685
0.14630607
0.17225964
0.19141437
-0.36617175
0.0884976
0.005777587
-0.05339507
-0.057425715
0.07507223
-0.088259585
-0.1639186
0.008046207
0.09652482
-0.22875232
-0.15517613
-0.124701545
-0.029904773
0.051411085
-0.034970555
0.20650984
-0.19712912
0.10440283
-0.022893451
-0.12695365
-0.12834424
-0.14817704
-0.0055866116
0.17089339
-0.13052188
-0.016169727
0.08709382
-0.09814055
0.012004871
0.12292438
0.38120508
0.2534647
0.013664451
0.20315437
0.0049505527
-0.11098295
-0.1849374
0.19922274
-0.1887758
-0.07396094
0.049869284
0.036709283
0.02926029
0.08992383
0.014643067
-0.03210839
0.060774844
-0.030667694
-0.2594192
0.031330876
0.23276415
0.00908277
-0.00055087195
0.016106425
0.046731777
-0.08568327
-0.09510679
0.07990698
-0.16368292
0.11931653
0.07477823
-0.018942662
-0.019500207
-0.15947187
0.092838995
-0.18790586
-0.22404757
-0.0763238
-0.05121983
-0.17901799
0.051702335
-0.0949132
0.066758886
0.0013404426
0.0480835
-0.22030656
0.22912191
-0.019850517
0.13666202
0.050526552
0.10546305
-0.096347146
-0.022567622
0.13597791
0.11544839
0.009125125
-0.1425287
0.17453808
-0.08591721
0.15250413
-0.24903153
-0.0472208
-0.17594194
-0.13093117
-0.18783472
-0.03126777
0.17217301
0.04221078
0.34346363
-0.19848655
0.2813333
0.058009025
-0.10818914
0.1638574
-0.25527483
-0.08898036
-0.13112292
-0.41322902
0.023505304
0.13894273
-0.1062612
0.044587724
0.24113686
0.29322258
0.10582593
0.086544454
0.24474002
-0.047539413
-0.25896877
0.108842865
0.20579796
-0.022568714
-0.06223835
-0.0029689795
-0.13814849
-0.18419349
0.20659958
-0.090355106
0.07243361
-0.29346165
-0.21671131
-0.11107997
0.026331693
0.26302642
-0.17997189
-0.06485783
0.15903936
0.084348306
-0.10272621
0.27570617
-0.009453707
0.19177245
-0.15575704
0.09087865
-0.023313519
0.24005781
0.034778524
0.09441818
0.0038123415
0.15318154
-0.07397011
0.08210433
-0.035415787
-0.22743207
0.2671223
-0.3207718
0.04042737
-0.18172039
0.20470734
0.10252142
0.20201647
-0.06390043
0.06964111
-0.04537357
-0.14115246
0.4037478
-0.04652345
0.044789467
0.15450428
-0.010347033
-0.2361744
-0.14026394
0.12219325
0.14344789
-0.03498321
0.03781865
-0.29684272
0.13911858
0.20693794
0.18594687
0.13852999
-0.0056859334
-0.054979302
0.25823346
0.0067963954
0.22124135
0.027746942
-0.2251601
-0.15416226
0.1174737
-0.14700036
-0.18050198
0.28715095
-0.005117646
0.05865047
-0.18900977
-0.14164183
0.07259687
0.0164683
0.052363683
-0.30844954
-0.1655791
-0.042178765
-0.035270326
0.026642546
-0.08400502
0.08327671
0.07444579
0.2641086
0.15757479
-0.09923375
0.36679828
0.059173007
0.09704301
0.3290629
0.18472917
-0.123203985
-0.107566014
0.03297701
0.11526426
-0.035045687
0.09319956
-0.2449477
-0.06236791
0.09418039
0.04620653
-0.078102075
-0.045415368
-0.17848587
-0.1464667
-0.007674087
-0.03454127
-0.35613453
0.16209248
0.01503134
0.046508707
0.0049724136
0.09562875
0.14146592
-0.12923166
0.21690126
0.12658408
0.0537451
0.1783715
0.03444629
0.2032238
-0.020137515
0.09548082
0.015012177
0.12447006
0.075611815
0.113296114
-0.17052598
0.10976718
0.3646689
0.24051179
0.039586607
0.20010962
-0.002595597
0.06995453
0.045949686
0.22712016
0.14334494
-0.03149468
0.030600071
-0.024504516
-0.040872984
0.37346
-0.078736104
-0.10208016
0.012777383
-0.17901057
0.13590375
-0.05126442
-0.021926563
0.028112456
0.120229945
-0.20380074
-0.22719346
0.116725855
-0.026869737
-0.101944976
-0.0036317967
0.3610981
-0.21198325
0.069031015
0.07508308
-0.049333896
0.15920255
-0.095656745
0.188157
-0.11738078
-0.051211406
0.22353652
0.06126618
0.10680138
-0.099179216
-0.050598145
0.14150967
-0.050152373
0.2001445
0.13614585
-0.14312491
0.21361119
0.40292057
-0.10138615
-0.14288877
0.25189772
0.30821058
-0.052907437
-0.10424283
-0.088454135
-0.07964343
0.09167585
-0.20621741
-0.07015808
-0.0861344
0.084766015
0.005243385
0.2251275
-0.058693483
-0.083551936
-0.036039073
-0.15609118
0.22714187
0.037195448
0.13094865
-0.20647596
-0.06907279
0.10942388
0.064805664
0.0875581
-0.13803391
0.057004288
-0.10305353
0.16998635
0.07492529
0.20465025
0.27995983
0.03195489
0.062325865
0.043944944
0.016080292
0.117346704
-0.042701256
0.35235626
0.025098057
-0.019313265
0.34515244
0.15915798
0.01921623
-0.0055672233
-0.108448245
0.044427644
0.03519627
-0.13785249
-0.014303668
0.07511724
0.13091868
0.07142938
0.35301194
-0.13171478
-0.08137324
-0.007671767
-0.1631892
-0.055772576
0.30661285
0.22458325
0.06565003
-0.2134631
0.092160605
-0.18116045
0.07898902
-0.05841576
0.10135164
0.25633729
-0.30554366
-0.11338353
-0.040308006
-0.12836793
0.23407288
-0.1280369
-0.047138102
0.24725452
0.123318665
0.07466016
0.1875179
0.2930667
-0.15484306
-0.12099071
0.12090692
0.0032259442
-0.0032964738
0.00822842
-0.16888353
0.1623729
-0.00027051053
0.14054498
-0.051348746
0.22146028
-0.008940796
0.22221074
-0.087468304
0.21192199
-0.014307122
0.022145044
-0.07895992
-0.00065347244
0.21663198
0.1121823
0.121377155
0.07890219
-0.025851665
0.08062104
-0.082596034
-0.11458353
0.22000901
0.056408964
-0.034092475
-0.012711471
0.06543549
-0.0006313884
0.009513226
-0.049843922
-0.069029994
-0.22137749
-0.03691909
-0.029310687
0.3520781
-0.22969146
-0.047062673
-0.048816856
-0.03058269
0.13303734
-0.15303686
-0.11069318
0.07863336
-0.20132323
0.101692125
-0.056376643
0.13973099
-0.037264988
-0.02829442
-0.29594022
0.029007068
0.09948763
0.0077919564
-0.12523897
-0.114312194
0.048935752
0.0019183098
0.15247978
-0.034829274
-0.26514637
0.028418263
0.04748861
0.0022573161
0.054501127
-0.09321722
0.13618869
-0.10969236
-0.21577194
0.019111387
0.19920471
0.08048984
0.24820754
-0.046934694
-0.031969316
0.2417479
0.011722835
0.1959645
0.12594618
-0.050357148
-0.087097704
-0.18934032
-0.12252216
0.054410443
0.08612027
-0.2485494
-0.06691045
-0.065560915
0.22284739
-0.18596758
0.17363152
0.006209712
0.36149767
-0.003907276
-0.09463905
-0.015472123
-0.002552084
-0.016186567
0.016915917
-0.13808535
0.1028464
-0.14788789
-0.16394494
0.11019799
-0.23357487
0.16019726
0.2530618
-0.03158843
0.08933005
0.18687676
-0.051782127
-0.12497587
0.050854485
0.002696202
-0.11307207
-0.04414405
-0.010925646
0.13347878
-0.047757063
-0.15423353
0.12478539
0.016057972
0.05788068
0.04198563
0.23787035
0.16149485
0.20499223
-0.25126973
0.055422008
0.11953494
0.05257825
-0.18128358
0.085029796
0.19891153
0.22420564
0.038826708
-0.10057273
0.059619755
0.10178685
0.13228276
-0.012159936
-0.13132398
0.00038934426
0.056593943
-0.25478122
0.00015981002
0.19978957
0.12937805
-0.019518442
-0.20558976
-0.058622964
0.12490218
0.05122938
0.0004122675
-0.3559909
0.059352618
-0.037779387
0.09099565
0.034455355
0.18653949
-0.16781257
-0.18680751
-0.01247889
-0.2142412
-0.123737305
0.19983487
0.02278524
-0.088886276
-0.2511997
0.2717212
0.026799185
0.20482434
-0.14317733
-0.21019189
-0.05327716
0.13333909
0.2293275
-0.1897574
0.055257946
0.22934552
0.07362251
0.27392384
-0.06135023
0.20262828
0.13593762
0.02445875
0.006730514
0.28096503
-0.07218172
-0.13020505
-0.016462374
0.09458693
-0.030429313
0.105453715
0.25147942
0.17431824
-0.080002904
-0.18042639
-0.118866704
0.105834566
0.15201573
0.09865025
-0.1502671
-0.23630793
-0.353142
-0.11599174
-0.14821625
0.21809599
0.22698243
0.042958364
-0.045556393
-0.024346335
0.12274914
0.070364095
0.041900095
0.18974955
0.0688915
0.11736456
0.16329539
0.0042804587
0.1932573
-0.16586465
-0.066769324
-0.048075903
-0.028426405
0.1898382
0.13898277
0.21336535
-0.10033504
-0.029392866
0.15867987
0.1390104
0.016082693
-0.13580528
-0.019985074
-0.10267915
0.06125761
0.067834616
0.098352246
0.013836486
0.080179244
0.04013009
-0.044233058
-0.08480652
0.39300188
0.11678805
0.2375198
-0.06553836
0.03849552
0.15040058
-0.022628728
-0.10108768
-0.038782656
-0.03813458
-0.10227842
-0.04388813
0.107545696
0.03307576
0.105078444
0.2679487
-0.07906764
0.102569126
0.047980666
0.022502875
0.23058055
0.018933216
0.110283874
-0.0036804108
0.22428593
-0.19387327
-0.16950049
-0.34386376
0.022815013
-0.15992148
-0.11119375
-0.0084299715
0.039818916
-0.08901237
0.12048756
0.12240355
-0.1303347
0.017044121
-0.13220161
0.03344169
-0.037482034
0.18813488
-0.21985404
0.00077847583
-0.18408602
0.086189315
0.4507434
-0.06482709
-0.008844364
0.024153797
0.17846374
0.14714229
0.19298121
0.11798128
0.010456405
-0.12239749
0.04375569
0.012993757
-0.057978187
0.019338777
-0.13190033
-0.11181795
0.036862645
0.096219555
0.13050067
0.065148935
0.06881348
-0.09289163
-0.14590913
-0.09907274
-0.02781009
-0.1016379
-0.03395756
0.028457602
-0.13060805
-0.14091809
-0.19378409
0.21479644
0.24870048
0.006738085
-0.22864304
0.37313843
0.1815505
-0.15760462
0.073115274
0.15259406
-0.09638801
0.06349332
0.021982279
-0.12707984
0.23628317
-0.31208172
-0.05196031
-0.0040747575
0.07063771
0.033895344
0.025047997
-0.18480512
-0.32012138
-0.15315473
-0.24817197
-0.10827606
0.104632124
0.089453205
0.109077446
-0.09567577
-0.16006655
-0.12616126
0.09586219
0.13566059
-0.045552455
0.057289038
-0.3191413
-0.038985267
0.10261013
-0.04285311
-0.20160463
-0.0853433
-0.00645166
0.23655333
0.016772443
0.061448965
0.21023388
-0.03673141
0.1303956
-0.09826287
-0.065830395
-0.25120574
-0.021234589
0.169361
-0.20389032
-0.11537159
-0.08366557
0.13832562
0.25577426
-0.27600113
-0.14768013
-0.23264089
-0.047024366
-0.07934883
-0.022119775
0.16628255
-0.13982345
0.12511443
-0.25437686
0.08011869
-0.037811756
0.15783857
0.17993645
0.24211518
0.18443534
0.111943044
0.02161071
0.15585648
-0.044198904
-0.022640401
-0.17595893
0.011134464
0.17736986
-0.18280612
0.142756
-0.26920086
0.005265651
0.29685965
-0.1424715
-0.16379648
0.063806
0.35707724
-0.029185934
-0.08940417
-0.0609531
-0.11875633
-0.010536553
0.26490965
-0.025876362
-0.25200993
0.29661897
-0.019809006
-0.24063791
0.0067966576
-0.08960852
-0.06388794
0.1481631
0.034056906
-0.03595747
0.025556853
0.21768029
0.05619621
-0.07836348
-0.14096835
0.19464326
-0.19339196
0.05446154
-0.26389736
0.1780536
0.015408302
0.19417457
-0.016258493
0.01773696
0.037505567
-0.0047608577
-0.07556186
-0.08331999
-0.033473846
0.032559082
0.22994715
-0.17166817
0.016766593
-0.0071245427
-0.13977608
-0.21521
-0.00534452
-0.094433784
-0.10076812
0.21961999
-0.038762584
-0.12477048
-0.15084998
0.0935119
-0.15517783
-0.22830512
-0.13274935
0.16561759
-0.040425096
0.025499862
0.1847584
0.0036768427
0.060584888
0.15723757
-0.0038779748
0.064732134
-0.1635719
-0.06395374
0.048540227
0.060384937
-0.08907953
0.039545167
-0.01691522
0.2067995
0.024703447
0.0007146062
-0.03358613
-0.07833885
0.30513677
0.085809395
-0.2896175
0.15554364
0.02356702
-0.18121228
-0.07548656
0.03038575
-0.24284841
0.02080709
0.20770234
0.30560607
-0.17931482
-0.17525849
0.1476072
0.07952143
-0.24423777
-0.08310699
-0.019977521
0.08462324
-0.39871153
-0.27431977
-0.017739601
-0.07307888
0.01096001
0.087649435
-0.032996286
-0.30265647
0.076513015
-0.1642777
-0.12568441
0.012724055
0.12608546
0.12816525
-0.14233468
-0.2273002
0.2238139
0.045369085
-0.16338347
-0.21025391
0.11015031
0.1561205
0.093536235
-0.097819306
0.05825464
0.103828266
0.10432382
0.036593325
0.29424733
0.024101935
0.03384589
-0.15304032
-0.13281226
0.0053047873
-0.279458
0.10782472
-0.09540035
-0.0006714803
0.030706488
0.20245133
0.08549132
-0.16566354
-0.08706881
-0.10157976
-0.12002358
0.35588858
-0.13559926
0.039587155
-0.25800344
-0.020231903
-0.06689364
0.11139793
-0.2551238
-0.06686447
0.24198307
0.02720183
-0.09202449
-0.06332282
0.0681457
-0.2762593
0.1016241
-0.01883324
0.03008068
0.04385122
-0.07786428
0.014133642
0.16170175
-0.0917828
-0.03295142
0.024180807
0.11510327
0.030717818
-0.13450602
-0.010842155
-0.11984463
0.010588864
0.02677417
-0.09957661
-0.2775378
-0.010673041
0.12555552
0.16214244
0.18413015
0.039178837
0.08820961
0.14371271
-0.0241665
0.10880831
0.1003333
0.060540847
-0.104259245
0.12261475
-0.24133871
0.06686479
-0.168685
0.1897594
0.03667316
-0.012593168
-0.037150133
0.07085453
-0.15715581
0.06807988
-0.0045402143
0.11937466
0.034759846
0.10706666
-0.2297059
-0.18185674
0.2683289
-0.17615612
-0.04777076
-0.1274481
-0.035117485
-0.09233816
0.046616755
-0.1331917
-0.2547768
0.13262892
-0.16469744
-0.049840737
0.006519433
-0.027708571
0.15242228
-0.06405184
-0.028440095
-0.35885584
-0.19585094
0.026009081
0.23221654
-0.23763956
0.05349108
0.05950927
-0.18336485
0.20271996
0.14911382
-0.0511016
-0.14700878
0.112957336
-0.10328822
0.32949406
-0.005567543
0.3915176
0.060840443
0.08043517
-0.059014052
0.025378617
0.12037067
-0.10465107
0.18615122
0.09924328
-0.27964357
-0.09486097
0.12507501
0.016209144
0.0468599
0.15242782
0.23926876
-0.118918985
0.018223086
-0.41820338
-0.042839132
-0.17027009
0.06729534
-0.00256841
-0.1650598
0.07850146
-0.07433827
0.046073657
0.05215182
0.1754675
0.20288897
-0.11991551
-0.24148025
0.1202096
-0.052483317
-0.012988989
0.054401927
-0.101418406
0.21481396
-0.06750491
-0.10907062
0.0065730596
-0.19421859
-0.16811289
-0.03551575
-0.033881113
0.0475711
-0.17153922
-0.1026038
-0.18257739
-0.18815817
-0.19601592
-0.12757093
0.026966294
-0.28274426
-0.08037484
0.11493835
0.05293649
0.09775897
0.02510434
-0.052413665
-0.16630967
0.12854144
-0.057905793
-0.0925056
-0.24280542
-0.21584539
0.25778735
0.06591249
0.06969175
-0.02224204
-0.021627076
-0.08415625
-0.0647776
-0.0071109813
0.22093236
0.13135846
-0.066784345
0.039647374
-0.15934555
-0.1178649
-0.09791939
0.31393594
0.0044223377
-0.054317497
-0.21435583
-0.3594226
-0.049059216
0.19718641
-0.19388331
0.26584187
-0.054466207
0.22035721
0.041492756
0.017439913
0.25165808
0.23379645
0.050012577
0.019957762
-0.38451836
-0.20399606
-0.1799514
-0.03934623
0.13629207
0.22652659
0.04132428
-0.15362316
0.0152493045
0.007847055
-0.041493267
-0.20106372
0.05825196
-0.1633915
-0.06908456
0.009089909
-0.12859112
-0.19497363
-0.13753474
0.122655906
-0.07605035
-0.0035672174
-0.1754802
0.047003273
0.15429063
0.07781573
0.08015662
-0.12599508
-0.3311747
0.07923501
-0.09083498
-0.21562295
0.13705556
-0.16864763
0.07916031
-0.05420289
0.28820768
0.2690916
0.27527547
-0.098915815
0.27858117
0.024013104
-0.022919105
-0.11883378
0.02560988
-0.0723961
0.092043824
0.10562557
-0.12187978
-0.112388544
-0.047293905
-0.20737176
-0.3222747
-0.026356006
-0.107288204
-0.2495143
-0.1314554
0.053573165
-0.18261391
-0.08356167
0.07131951
0.035148494
0.036964662
-0.023273708
0.23296645
0.016614625
-0.2198901
0.2432098
0.100918226
0.09983174
-0.07297559
-0.16804743
-0.25604612
-0.02990643
0.0539869
0.13070042
0.16562673
0.14437573
0.051960666
0.07040752
0.012114885
-0.06369732
0.1414333
0.022575034
-0.04439244
-0.021254892
-0.04123687
0.2115128
0.07156929
0.09826539
-0.1055894
0.023214266
0.13470566
-0.28797632
0.006774257
-0.14823852
-0.081308246
-0.059226677
-0.07516434
-0.05080516
0.015828863
0.02202747
-0.091274224
0.05521593
0.18083197
0.0550124
-0.07507958
0.14734073
0.44062692
-0.06102699
0.061150886
-0.16685009
0.11860645
0.3477851
-0.19950575
0.23219122
-0.12375797
-0.18984944
0.07862066
-0.05229599
-0.044162296
-0.0705591
-0.1181796
0.5081963
-0.104729034
-0.15644917
-0.1555538
-0.047532417
-0.15438594
-0.054716866
-0.077770054
-0.059130635
0.0804078
-0.14989999
-0.13024671
0.19629702
0.12458166
0.039091904
0.050753247
0.34109965
-0.1306683
0.057462577
0.09749664
0.021427412
-0.007749731
0.0808815
0.04443735
0.24516526
0.0803252
-0.026431862
-0.20557155
-0.035153188
-0.15577759
-0.07591091
-0.1635338
0.2900707
-0.1777423
0.01692622
0.011553095
0.011413699
0.13220671
0.009596321
-0.14748536
0.02520669
-0.06568974
0.13603872
0.20248818
-0.024492145
-0.0077895094
-0.019718328
-0.03553069
-0.17804058
-0.33449456
-0.06356486
0.11243989
-0.051808346
-0.2636207
-0.005135291
0.16816974
-0.060571335
-0.060620096
0.014717784
0.044823714
0.0019367782
-0.04490407
0.013660432
0.16844754
0.011556485
-0.19309895
-0.16363712
0.107729755
-0.012861509
-0.04669934
-0.06155898
-0.025111252
0.20741142
-0.16226049
0.026835285
0.011392394
0.013954042
0.28479403
0.043017343
0.21380362
0.12667207
-0.21854572
0.08240073
-0.13823609
0.01681094
0.02698572
-0.102105215
-0.11158693
-0.14579317
-0.13123275
-0.008791874
0.19911914
0.16463867
0.05849004
-0.019798525
0.02164792
-0.09504295
-0.049806062
0.27240208
-0.0022574365
0.0048280596
0.038674537
-0.04802328
0.05988624
0.31418854
0.11087633
0.14757064
-0.3091811
-0.13723373
0.04672529
-0.08181688
-0.21415848
-0.11498999
0.09833362
-0.10067432
0.08738593
-0.05304426
0.08302496
0.1296023
0.199422
-0.016260473
0.10762926
-0.16383624
0.14210193
0.05659527
0.11199114
0.06487159
-0.015757224
-0.014883637
-0.05395431
-0.12857527
-0.114011444
0.13951309
-0.05614959
-0.0899052
0.14309675
0.0961594
-0.13468328
0.032147273
0.049040467
0.29267344
-0.0027356865
0.19574422
0.2254012
-0.08596936
0.23850074
0.099848844
0.1511494
0.079800464
-0.08259009
-0.02144058
0.077456735
-0.05259607
-0.024743453
-0.23042345
-0.0030139973
0.15816258
-0.1904161
-0.040716518
-0.13180867
-0.03680604
0.19560379
-0.07865878
0.08294336
-0.19108634
0.2850383
-0.17830679
0.076450475
-0.15676585
0.18610577
-0.004062192
-0.10175973
0.112923145
-0.019579686
0.29593346
0.2074494
0.036136083
0.03877109
0.017971158
-0.007614619
0.18205996
-0.07079896
-0.0028974952
0.036534887
-0.007440433
0.019652197
0.20148486
-0.14169103
-0.0051539917
-0.21932669
-0.3304439
0.19252789
0.013338578
0.027983554
0.1471339
0.099967785
-0.045184545
-0.06763824
0.010909366
-0.15817028
-0.090411775
0.06577428
0.1711174
0.11976639
0.05566377
-0.341161
0.057102073
0.13997874
-0.24051623
-0.07842601
0.25708163
0.07831618
-0.09013558
-0.25701797
0.018376244
0.22118488
0.14515775
0.061244316
-0.15743409
0.23346798
-0.05006694
-0.01750329
-0.05162247
-0.24465136
-0.003754636
0.018520117
0.067396395
-0.18630677
-0.021850655
0.11218953
0.13575165
0.2601526
-0.26577035
-0.057803214
0.15603887
-0.015741708
-0.08047614
-0.30015713
-0.18450443
0.04980356
-0.15068056
0.19806801
-0.069504686
0.12850256
0.25361428
-0.11605581
-0.34282264
-0.10548166
0.0067244237
-0.09779787
-0.097565
-0.29098043
-0.11536301
0.034396637
-0.15433677
0.026154399
-0.14586039
0.06735717
-0.14330907
-0.21056882
0.04475722
-0.06175311
0.27489546
0.2053935
0.15304962
0.06756694
0.057857107
-0.030572513
0.11902406
-0.10513096
-0.21890926
-0.081916146
-0.14183399
-0.13451666
0.20341672
0.12728205
-0.1676773
-0.013226957
0.07975391
0.18240371
0.012772857
0.13619702
0.002449345
-0.047779635
-0.07317046
-0.11978362
-0.089696564
-0.0036039243
0.009765047
-0.044549234
-0.14397459
-0.02323786
0.0844117
0.07990682
0.12829328
-0.10934575
-0.2205417
-0.34351376
0.11263567
0.17371005
-0.007914095
0.07496976
0.18590239
-0.00037725113
0.12611711
0.30343652
0.05001838
0.14899066
0.07422148
-0.007045135
0.025712026
0.06750904
-0.01676139
-0.27644172
-0.18805748
0.043620635
0.026682103
0.020188557
0.1302305
0.09752783
0.033869654
-0.15659101
-0.093218565
0.031039702
-0.020993333
0.21503413
-0.15719478
0.08714395
0.025556173
0.18736881
0.06044671
0.1296458
-0.013339038
-0.0472623
-0.07347366
-0.16336945
-0.16094445
0.07380227
0.29071462
0.11277693
-0.193056
-0.028479343
0.083099335
-0.044858314
0.14478427
0.12100107
-0.23613639
0.2394034
-0.043709446
0.14344196
-0.24474263
0.16145943
0.22742063
-0.12363439
0.14019932
0.106185675
-0.0054584807
-0.19225173
0.086749196
0.182379
-0.06517008
-0.17145073
-0.30881378
-0.011383278
-0.28334442
-0.010433647
-0.057369847
-0.11187167
0.059238806
-0.13497885
0.0054087196
0.07383756
-0.1807271
0.06272268
-0.016281147
-0.047077112
-0.045027785
-0.107791565
0.11598223
0.058654614
-0.15599316
0.029327983
-0.017871987
0.28594136
-0.26717252
0.028191853
0.06144562
0.18094447
0.08341889
0.040512316
-0.09372851
0.13558762
-0.08104549
-0.0011273738
-0.5006527
0.0064757452
-0.22317609
0.27605537
-0.14776579
0.2501435
0.13928743
0.2916649
0.16060454
-0.03425764
0.09003548
0.017831301
0.051991407
-0.14290516
-0.17786346
0.07667337
-0.11568179
-0.04828814
-0.008963515
0.022776747
0.2034986
0.061744954
-0.12545685
0.1926035
-0.17426093
0.084237576
-0.027310308
0.013623561
0.22022288
0.22319563
0.061434567
0.2871877
0.101690866
-0.11894417
-0.15076448
0.004666291
-0.10189808
-0.19951403
-0.0024397855
0.02435703
0.27990133
-0.19026116
-0.14285614
-0.04537015
0.0036886157
0.3514091
0.06273111
-0.047844756
0.16320731
-0.07374963
0.009970786
0.12561077
0.13796447
-0.2124453
-0.032383673
0.12009528
0.031738676
-0.04539645
0.04626694
-0.061177462
-0.11554317
-0.030819392
0.23576564
-0.28460273
-0.28266326
-0.23190637
-0.12949741
0.14616936
0.01327886
-0.11627094
-0.109419584
-0.00077797956
-0.15791965
-0.26255113
-0.043700654
0.041807957
0.07477013
-0.0370772
-0.009742674
0.12237926
0.03528068
-0.18880671
0.016954798
0.10727722
0.15352091
-0.10445178
-0.020986825
-0.035127137
0.12829566
0.017500507
-0.12826435
-0.0391264
0.0474225
-0.1406737
-0.16340767
-0.17443326
-0.18106408
-0.025464082
0.043350995
0.22098224
-0.009372583
-0.14730577
0.24158344
-0.020320073
-0.050664056
0.07603573
0.1586332
0.18013996
-0.15105085
0.15344466
-0.18274073
-0.010515296
-0.13891737
-0.068603374
0.14721212
-0.11031752
0.060441434
-0.120947145
0.2759842
-0.0077801226
0.040808465
0.10369438
0.003282605
-0.14552924
-0.10121393
-0.01851858
0.11955833
-0.04548521
0.29918516
0.16525035
-0.13842456
0.080688395
0.22442311
-0.16447997
0.18128072
-0.24414337
-0.0017445884
-0.19895883
-0.03146525
0.014559242
0.116078734
-0.098857746
0.14743759
-0.046346195
-0.036965735
-0.012086548
0.2691847
0.011518993
-0.37912592
-0.20963293
0.014528918
-0.19302301
-0.0068423245
0.22083934
-0.20883133
-0.037045572
-0.03614655
-0.11272594
0.06702528
0.0007244019
0.21644822
-0.36913335
-0.21122317
0.10511126
0.020705124
0.09247395
0.008179361
0.101589166
-0.21638696
-0.1922685
-0.101161025
0.14358106
0.08585397
-0.045767717
0.22526225
0.1549601
0.19720013
0.09981077
-0.040072374
-0.091048546
0.03404371
0.14168184
-0.023682358
0.017098516
-0.120896414
-0.08668684
0.13780104
0.06354467
-0.18598899
0.15995914
-0.11480826
0.07527578
0.11526855
-0.093403175
-0.18411732
0.20173857
-0.056131512
-0.09568883
0.059459865
0.011817939
-0.05236886
-0.0414562
-0.07082362
0.08699382
0.18032463
0.022121936
-0.2855859
0.11747324
-0.15065558
0.27922142
-0.29056895
-0.031954974
-0.044906978
-0.0076697506
-0.1084796
-0.007685784
-0.09698658
-0.14490649
0.006551921
0.22516155
-0.09444774
0.14956018
-0.0043447944
-0.047152117
-0.32977608
0.0047132894
-0.054718934
-0.20877936
-0.061246943
0.31253242
0.07954055
0.43659434
0.06427898
0.010290493
0.20488942
0.1549944
0.29088753
0.06573034
-0.01523366
-0.12031268
-0.061596744
-0.20403063
-0.04775789
-0.29198125
0.0047110943
0.07177423
0.053870276
-0.14722681
-0.034538984
0.067831025
-0.045270134
0.20052193
0.09387137
-0.17119902
-0.033911902
-0.14655349
0.11183284
-0.12754285
0.1492658
0.0108921835
0.116128735
-0.042393718
-0.10576341
0.06647223
-0.18138297
-0.050355207
-0.029137066
-0.0626179
-0.10317422
0.027729739
0.005333844
0.20653264
-0.2173727
-0.09204815
-0.033564813
0.0878176
0.39671737
-0.015214971
0.040687103
0.02190617
0.09915706
-0.10760958
0.15874869
0.26338148
0.13403207
-0.06359179
-0.17764345
0.13943037
-0.15534969
-0.13730529
0.13746034
-0.22747391
-0.07454288
0.11980956
0.05322362
0.03321533
0.19712831
0.0124502005
-0.12892744
-0.047354165
0.026732223
-0.47718418
0.22779526
-0.15264109
0.16341199
-0.10234104
-0.01865245
-0.047258433
0.03298007
-0.15981337
0.11196199
0.009112217
-0.004865543
-0.1240944
0.18838535
-0.08231822
-0.11489013
0.01018367
-0.07386679
-0.011814147
0.12939802
-0.06269542
-0.26223978
-0.1222736
0.29860613
-0.022548962
0.09782177
-0.06222525
0.0971827
0.23483458
-0.122687325
-0.11326437
0.1271089
0.017342256
0.030017868
0.058221616
-0.076456256
-0.052708913
-0.15030187
0.1182974
-0.12980857
-0.16850038
0.13492313
-0.053686537
-0.09280656
-0.17607923
0.03909718
0.05232466
-0.06898209
0.06722612
0.1878894
0.088705674
-0.25677004
-0.44351855
0.04437576
-0.023938525
-0.22413026
0.09866921
0.21567923
0.29662746
-0.05159538
0.008055931
-0.25259775
0.02336344
0.11740388
-0.09625279
-0.102255516
0.16109574
-0.3058455
0.31853676
0.055324882
-0.0735174
0.13142791
-0.03421895
-0.021655552
0.07039999
0.15837021
0.1662186
-0.29389122
0.052049614
0.19495727
0.0757508
0.07999642
-0.017287884
0.13169286
-0.05647937
-0.09071857
-0.13988568
-0.28611383
0.19502427
-0.030587029
-0.10396419
-0.05953049
0.14482458
0.18382117
-0.21691887
0.03685834
0.0394212
-0.30591476
-0.08166797
-0.22025178
0.20693837
-0.12036641
-0.13387512
0.43703705
-0.074387364
-0.03453705
-0.07934354
0.0715263
0.026673464
0.34864113
0.07527937
-0.15183808
-0.13783984
0.28592622
-0.0940171
0.014066675
0.03217888
0.10894342
0.14444883
-0.2002912
-0.025672471
-0.16174614
-0.06781222
-0.05878325
-0.079033285
-0.004415298
-0.14630798
-0.100464635
-0.08167269
-0.10253528
-0.010867799
-0.052553833
-0.2545616
0.06635558
-0.14433695
0.26008716
-0.04666323
-0.21379608
-0.004098304
-0.030145936
0.09898918
0.020160364
0.13942619
0.0005973826
0.18252502
-0.03129345
0.06291939
0.18473847
-0.06575872
-0.22186285
-0.00838016
0.08005429
-0.11203704
0.10706542
-0.10550422
-0.22143866
0.10674522
0.08358725
-0.18177153
0.22924443
0.16272895
-0.03603633
-0.10398885
0.12630527
-0.321823
0.3010627
-0.009992564
-0.072350785
0.10569549
0.22344764
0.19795278
-0.057752363
0.00964027
0.25575387
0.02355255
0.070765026
-1.7419761e-05
0.17727531
-0.19799255
-0.008630994
0.30647483
0.21608543
-0.122928075
-0.1691848
0.043882255
-0.32832086
0.13071595
-0.08340607
-0.08225292
0.10143261
-0.06247393
0.08072524
0.20162882
0.06191846
0.06406729
0.12469496
0.084687516
-0.094079375
-0.03780291
0.010949219
-0.08639829
0.016251277
0.06785769
0.090148196
-0.18947162
-0.13917257
-0.09677507
-0.18239014
-0.033503603
0.2817471
0.124723494
-0.01180958
0.247723
-0.11362453
-0.030012477
0.10344891
0.023810873
0.13934292
-0.024127368
0.020448213
-0.010866251
0.019170985
0.15625803
-0.19564566
0.21938185
0.10834376
0.12587371
-0.004440918
-0.08300063
-0.012926272
0.07920215
0.35862806
-0.24214783
0.09422992
0.060289834
0.08998229
-0.05003836
-0.18004197
0.08256785
0.09430172
-0.029014587
-0.027605735
-0.0573637
0.102753885
0.042778604
-0.11195768
-0.09264418
0.22024268
-0.08700731
0.047243804
0.09593336
0.06759989
0.16362213
-0.009260002
-0.04095999
0.01536759
0.3517428
0.15884699
-0.08494915
-0.051523298
-0.09622614
-0.04001599
0.02333149
0.010538359
-0.0055098715
0.031004352
0.21352902
0.26463467
0.03864541
-0.08188298
0.15445587
-0.15054339
0.29064816
-0.014649529
-0.062199153
0.030590238
-0.16089375
-0.1417164
0.03652666
-0.024846913
-0.15930471
0.15642773
-0.01659117
0.024191633
0.17722093
0.34269837
-0.27712134
0.033493266
-0.2255092
-0.23385946
0.027004011
-0.04143877
0.024035135
-0.28851148
-0.028807782
0.014485514
0.01655509
0.104909375
0.0160988
-0.15210845
0.18474726
0.080904
-0.22136904
0.07248446
0.02250413
0.13490508
-0.15197407
0.14953837
-0.124818675
-0.068101525
0.025099061
0.028087024
-0.05721838
-0.12724137
0.0391656
-0.13415433
0.047661174
0.18244906
0.026582059
0.17207624
-0.051075995
-0.13806255
-0.20435081
0.03914395
-0.1883391
0.00509913
0.041071642
-0.12702407
-0.07928599
0.1402679
0.23582323
-0.14415641
0.10040061
0.24777767
-0.13183136
-0.0027624292
0.15069336
0.16221012
0.055821843
-0.063903764
0.00017149119
0.385399
0.100855425
0.17529118
-0.18224622
-0.20574367
0.11835409
0.03583186
0.026182797
-0.02351334
-0.0342378
-0.0855
0.12251933
-0.072479516
-0.029053858
0.15804683
0.17093676
0.049057964
-0.18557635
0.060190763
0.16808584
0.20122287
-0.04510975
0.10461715
-0.0155339595
-0.18204546
0.17666152
-0.024073973
-0.01138994
0.105971515
0.070267394
-0.14111313
0.07329122
0.0136005925
-0.38681203
-0.07634549
0.057226665
0.28225923
-0.074911684
0.06093658
0.029414594
0.09083868
-0.011567252
0.21583723
-0.04981297
-0.048677355
0.028709773
-0.16220202
-0.017878892
0.060022324
-0.101195246
-0.0059684953
-0.1783731
-0.13180785
0.057778142
0.23764765
0.04611526
-0.07480047
-0.090524
-0.024341168
-0.05347049
0.046882734
0.27217203
0.045927253
0.26665664
0.22637618
-0.09318465
0.009578857
-0.24487413
-0.03571148
-0.16460802
0.06256081
-0.081244364
-0.017440625
0.020466125
-0.044925857
-0.0064471182
-0.14130226
0.18418005
-0.058027413
-0.027942505
-0.2075973
0.10933249
-0.29378775
-0.0663777
-0.32039312
-0.22006845
0.1746716
0.26591086
0.08769157
-0.09073611
-0.13791372
-0.38270226
-0.23210664
0.09747066
-0.123899095
-0.1028152
0.29060578
0.047307443
0.091761686
0.092005774
-0.0046079457
0.16870761
-0.13734734
0.16035186
0.26487914
-0.061145153
0.06522573
-0.22420357
0.06954858
-0.20837465
0.110154
-0.03460908
-0.07520522
-0.23126374
-0.057677306
0.057359196
0.09301625
-0.19170892
0.17247565
-0.244646
-0.06083684
0.18464226
0.3970443
3.550879e-05
-0.06912861
0.03984917
0.06609504
0.024812298
0.000423092
0.008658934
-0.18885078
0.061171174
-0.022391224
-0.24358435
-0.07011078
0.06888544
0.1673207
-0.07216465
0.05511274
0.111759365
0.17201605
0.21804728
-0.1097785
-0.1016254
-0.027770806
-0.018023675
0.10274488
-0.024578962
0.19162646
0.08467638
0.08115706
0.219304
0.04021071
0.019166362
-0.018133797
-0.018594593
-0.05151896
0.034354575
0.13288319
-0.05959001
0.12485506
0.19224776
0.084152125
0.26846987
0.12936497
0.115347885
0.08212953
-0.026149625
-0.085571535
-0.08593602
-0.0045920783
-0.14343128
0.15910295
-0.23171625
-0.0031776936
-0.14320682
-0.08906272
0.029600004
0.10052029
-0.143406
-0.028300816
0.20085637
0.28359622
0.19277944
0.022141173
-0.039114952
-0.06674915
-0.17751153
0.009631551
0.004704677
-0.10631893
-0.34134117
0.2396133
0.06872725
-0.12756571
-0.096599646
0.15624724
-0.013334602
-0.07119642
-0.0033429058
0.058239352
-0.16320656
0.06228125
-0.1121387
0.028071389
-0.07008741
0.060207065
0.16591273
-0.094982766
-0.12353042
-0.07846635
-0.17138623
-0.12708594
0.09908405
0.24622712
0.4195222
0.063505545
-0.23031767
-0.019727545
0.092455015
-0.084149316
-0.051576607
-0.07001361
0.22803481
0.1549575
0.034292664
0.07217402
-0.038557313
-0.0808698
0.082250424
-0.07646915
0.01660578
-0.2521836
0.103616424
-0.018694025
0.26834482
0.08567387
0.052907884
0.06059772
0.22946249
-0.15953176
0.02222573
-0.01065823
-0.1820048
0.16434422
-0.12183322
-0.03321119
0.2592677
-0.005057973
0.015324928
0.15042992
0.07271033
-0.107141905
0.03528251
0.034776308
0.30606142
0.2786366
0.19665237
0.18900849
0.22535358
0.18019004
0.15731332
0.12765947
0.0049916646
-0.250752
0.080109075
-0.08871068
-0.09201394
-0.098525554
0.10397428
-0.10853297
-0.21787767
-0.23610081
0.30356428
0.017470725
0.005040451
0.007610008
0.2602775
0.29814932
0.030623851
0.038812567
-0.04975531
-0.058965046
0.09224183
0.15197648
-0.026356611
0.07675089
-0.2124306
-0.12972268
-0.0717878
-0.055835832
-0.15189408
0.024216628
0.2583956
-0.29703254
0.15311314
0.3104378
-0.08714922
-0.15673529
-0.13251048
0.17744902
-0.05236238
0.018182619
-0.05132311
0.0028234397
0.10412272
-0.2547876
-0.14807497
-0.14410894
-0.07128104
0.19796126
0.05198038
-0.123236194
0.074441426
-0.06630953
0.16792797
0.1459921
-0.12939957
-0.0145942215
-0.06445706
0.19771032
0.06047663
-0.13079405
-0.06660921
0.30396798
-0.14838076
-0.023533238
-0.09323674
0.07686951
0.008459737
-0.12731217
0.12789977
0.24249057
-0.33624896
0.33742797
-0.11596693
0.16682494
0.08403865
0.08207959
0.036478717
-0.23597226
-0.0017437792
-0.25920913
0.07551647
-0.027927032
0.20574428
0.15131871
0.10322928
0.04701128
-0.25751284
-0.090680905
0.07706814
-0.06289615
-0.068195984
0.06751643
0.033419322
0.0013008383
-0.20399848
-0.1836409
-0.10352562
0.14231937
-0.074817404
-0.117862806
-0.038434815
0.042709123
0.09962512
0.022986362
0.0025632798
0.06355117
-0.043813962
0.10433822
0.020309573
-0.17824477
-0.08879824
0.12756056
0.17529702
-0.036269154
-0.19897574
0.031926513
0.011443531
-0.26690558
-0.20075625
0.18544418
-0.16553864
0.056306675
-0.08622857
0.030419214
0.09065827
0.024946496
0.016669782
0.012051871
-0.232076
0.14110732
-0.17278154
-0.19640906
-0.21143004
-0.14229773
-0.017783266
-0.16568056
0.06813704
-0.18401217
-0.078091815
0.05624314
-0.013642728
-0.12792568
0.12573929
0.18150666
-0.20565902
-0.051310193
-0.05526613
-0.16561362
-0.18488936
0.2562026
-0.1711636
0.26606888
-0.17159021
-0.12765898
-0.013655732
0.12291192
-0.10629243
-0.037120968
0.1496985
0.21471334
0.19394453
0.18098265
-0.05058204
0.05184419
0.08667436
0.32616204
-0.16743016
0.24815437
0.08131468
0.24023859
-0.0644731
0.056557067
0.11951359
-0.050607413
-0.12879571
-0.10688551
-0.02730144
-0.20487711
-0.002036449
-0.05959815
-0.0047686286
-0.2043774
0.0170996
0.2766268
0.11898632
-0.043899294
-0.18815649
-0.08878868
0.07387921
-0.21273434
-0.15166622
-0.011251528
0.13294636
-0.13167106
-0.01872729
0.14392987
0.01262659
0.3603982
0.09949955
0.111356825
-0.042746834
-0.07173642
-0.040831644
0.07426141
0.11425953
0.14298254
0.101812564
0.14896554
-0.100155026
-0.1562317
0.013606687
0.059651226
0.17903224
-0.031298712
0.0264354
-0.009238621
-0.13712151
0.103765234
-0.062349807
-0.0942363
-0.11855381
-0.1258131
-0.036376834
-0.08342049
0.011768962
0.050159
-0.11317632
0.13783617
-0.20521133
-0.0017081553
-0.00084398425
-0.16619782
-0.23416932
-0.1831035
0.29457727
0.06640082
0.09016163
0.16141823
-0.04339196
-0.00072055374
-0.08227147
0.023505105
0.17473121
-0.09118804
-0.15785821
0.023395512
-0.008457963
-0.007628583
-0.22989038
0.11007945
-0.20155884
0.15014729
0.2583599
0.038688976
-0.013466807
-0.18539159
-0.014484139
0.02163015
-0.15792006
-0.08735781
-0.04509328
-0.010121428
0.044028934
-0.41483283
-0.029290589
-0.2674886
0.10023278
-0.13756114
-0.050513055
-0.069631666
-0.016806219
-0.0014711383
-0.03815874
0.11170025
0.058799677
0.025510455
0.016618941
-0.1948477
-0.20791166
-0.0724083
-0.13431336
-0.15151402
0.14335282
0.32238978
-0.09822845
-0.009632417
-0.07004226
0.20729789
-0.21133614
0.009313123
-0.088557534
0.08064513
-0.15884642
-0.12099354
0.10768215
0.050594214
0.041551504
-0.13349758
-0.078317635
0.026142932
0.023702674
-0.038186897
0.35407713
0.02687589
0.20556493
0.14804806
-0.16253735
-0.016957326
0.059996597
-0.06530514
-0.006555346
0.05235403
0.05169705
0.16878955
0.05302909
-0.123150125
0.3092918
0.036429778
-0.36871642
-0.23086625
-0.049064506
-0.17838648
-0.262986
0.16196166
-0.124088444
0.09670224
-0.2418495
0.007593254
-0.071522
0.076108895
-0.23593532
-0.20036045
0.067555554
0.039707907
-0.20981422
-0.05594472
-0.301528
-0.23614825
0.022722717
0.10906688
-0.058281116
0.07253369
0.2252262
-0.33243617
-0.10373174
-0.09427761
0.004923741
-0.0035255733
-0.12039372
0.35785323
-0.014904414
0.09478456
-0.1180155
0.22232485
-0.020414392
-0.2620224
-0.014818169
0.07994291
-0.088248804
0.08560626
0.12794723
-0.070180066
0.30371362
-0.23157836
-0.2397336
-0.07333612
-0.0058079427
0.1611326
0.2196554
0.1653078
-0.16146283
-0.010592977
0.067022316
0.07106133
0.123133235
0.124136046
0.026356533
0.07668668
-0.2645028
-0.16047582
0.10698708
0.3139678
0.013025461
0.01587863
0.037734415
-0.100395605
-0.198563
0.08423233
-0.02473527
0.3000378
-0.073761195
0.1405146
0.09109293
-0.047472283
-0.12897068
0.32540926
0.26310858
-0.2876476
-0.15607746
-0.0973468
-0.08119167
0.039535865
0.029481718
0.12318578
-0.09775834
-0.0144689055
-0.032384228
-0.05700065
-0.12961969
0.008905668
-0.13050623
-0.27001318
0.13574891
0.09662149
0.0019613628
-0.16045967
-0.31671727
-0.07967915
0.10030712
-0.17758381
-0.0062779603
0.17036459
0.1926753
0.10532445
-0.047105912
0.073353104
-0.09847641
-0.101916894
-0.16901188
-0.2253233
0.22817524
0.01045429
0.04971785
-0.10563937
0.13279858
0.19217691
0.05432343
-0.05084941
0.07844101
-0.16021904
0.09833475
-0.061159782
-0.20678157
0.042822853
-0.03814921
-0.02486041
0.0818233
-0.1395274
-0.023752986
-0.036221895
-0.17273305
0.08667528
0.06887164
-0.15767771
-0.16222355
0.10402233
0.004742055
-0.03032712
-0.12372926
-0.17781097
-0.15547733
-0.023607096
-0.19296196
-0.01740791
-0.32492802
-0.2550301
0.2265594
-0.08080265
-0.06673185
0.07302887
-0.01075464
-0.20554975
0.14456633
-0.14583115
-0.10702498
-0.304399
-0.21384491
-0.1177928
0.064774804
-0.070658095
0.23323601
-0.102930985
-0.12133107
-0.002534528
-0.042663705
-0.0016834742
0.038860667
0.020357283
-0.1955872
-0.047337763
-0.041990507
-0.023484215
-0.17417021
0.04736753
0.010243116
0.023035599
0.12262612
0.085742004
-0.101229385
0.077212475
0.19930637
0.01147853
0.138642
0.15318938
0.045138996
0.026002303
0.0019308636
0.08104048
0.13915215
0.40729582
-0.11747445
-0.109349094
-0.0018229844
0.07488544
0.048025433
0.24817024
0.012409744
0.08258019
0.22597158
-0.1861897
0.014112929
-0.06563741
0.14079897
-0.05183918
-0.12101356
-0.003937466
0.07716539
-0.016663652
-0.13490061
0.0967073
-0.09306538
-0.09065868
-0.0486233
0.015403816
0.014776868
0.014437624
-0.19208959
-0.037576117
0.1365575
0.14406635
0.28302744
-0.0344962
-0.15052828
-0.2146024
-0.22179194
-0.14447162
-0.008278485
0.026342079
0.22361656
0.15452386
-0.02442482
-0.054445546
-0.19010915
0.14779975
0.1420904
0.12338255
-0.111951746
-0.16058615
-0.025729124
0.0094489595
0.023675216
0.17021894
-0.0007042158
-0.24854669
0.010921478
-0.08382325
0.06354996
-0.054626647
-0.041107606
0.16376026
0.20920232
-0.09433838
0.18964277
-0.01601124
-0.10808731
0.2161022
-0.18683107
-0.11137998
-0.08878803
-0.16583616
0.14932768
0.09557956
0.053440668
0.016979776
0.22478758
-0.059433576
0.17419466
-0.26296437
0.055863917
0.37700942
0.033894286
0.048810467
-0.08797404
0.025031907
-0.04834177
0.03985785
-0.08732454
-0.036664426
0.033089105
-0.075629674
-0.07596602
-0.020541154
-0.11791535
0.08990117
-0.014297846
-0.16426778
-0.051589355
-0.13184783
-0.08878164
0.23731036
0.05349023
-0.1638555
-0.024886543
0.055526752
0.07749845
0.009889125
-0.05061445
-0.06555625
0.07380708
-0.068955086
-0.31905162
-0.16159548
-0.20144561
-0.07119911
-0.29529992
-0.0151659055
-0.061670303
-0.22438361
-0.0021787968
-0.12621592
-0.261121
0.09771867
-0.10063249
0.0023818407
-0.14021267
0.22560516
0.05503353
-0.053264428
0.02034063
-0.13281828
-0.012056311
-0.0104897125
0.37333307
-0.25533336
-0.1818442
-0.1653947
-0.008479145
-0.20928152
0.021094266
0.19275208
-0.15314926
-0.019275999
0.17903592
-0.024425872
-0.113981105
0.04172636
0.15824647
-0.2593638
0.05754672
-0.17435737
-0.012740576
-0.17234261
-0.24220335
0.11138353
-0.17709348
-0.112093925
0.24339204
-0.10448514
0.005316836
0.0999409
0.01447174
0.20876329
0.071746185
-0.20163713
-0.01466749
-0.2872155
-0.06741539
0.102097325
0.08914545
-0.033785403
0.004951837
-0.06671729
0.0061070593
0.33075437
-0.010710877
-0.004001939
-0.32949138
0.03659462
-0.092662685
-0.10252463
-0.18621227
0.2204718
-0.13444537
-0.017885238
-0.01186439
0.058621634
0.028594924
-0.29821712
-0.042539082
-0.08528203
0.053785425
0.0697414
-0.029319199
-0.07072426
0.110201575
0.025966715
-0.13385563
-0.029622642
0.09266031
-0.14092709
-0.030037295
0.06671689
0.012828429
-0.018311432
-0.023454573
0.14394827
-0.09118269
0.08241661
0.17215319
0.10668123
-0.1479114
-0.20745485
0.024952168
-0.13879298
-0.3282023
0.052092377
-0.011182178
-0.19319639
-0.16808179
-0.056559738
-0.11837636
-0.27228516
-0.040138036
-0.033996925
-0.030728666
0.06220412
0.019394387
-0.021443754
-0.016737198
-0.009835715
0.01770755
-0.19890499
-0.15312296
0.1093174
0.056030642
-0.00071027887
-0.23214914
0.0896868
-0.13761419
0.010352194
-0.023553818
0.17821261
-0.04231749
-0.104309686
0.1009708
0.051490307
-0.14614841
-0.14332744
-0.06468814
0.28561208
0.3969507
0.09661483
-0.2148166
0.096913606
-0.013657575
-0.25014675
0.08333886
0.14029625
0.11915665
-0.15434317
0.12415123
0.005828848
-0.1020602
0.17289177
-0.27121678
0.020803384
0.009077703
-0.10149376
0.12441842
-0.040137596
-0.011992602
-0.037463434
0.18274388
0.04284914
-0.1463594
0.15685196
0.20850755
-0.029825784
0.13798593
-0.18063375
0.04763104
0.04127824
0.12240832
0.05501081
-0.023035096
-0.26054585
-0.25125268
-0.1637082
0.053190473
0.13906772
0.13820231
0.12232285
-0.006706972
0.1299632
0.017701313
0.08843808
0.09166457
0.0996453
-0.05114562
0.15218922
0.18978433
0.014952956
-0.08492571
0.053662296
-0.12724257
0.07633949
-0.1462015
0.018512389
-0.22361453
-0.02898982
0.046299018
0.20165917
-0.05849778
0.10343235
0.2852051
0.19118328
-0.07461307
-0.0030338762
-0.047638614
0.036691785
-0.105554745
-0.100504145
0.06341157
-0.04315213
0.13858113
0.17891538
-0.14736909
0.13950291
-0.023317918
0.018243859
-0.042803675
-0.24997966
0.020685023
-0.07812468
-0.19937749
-0.058355767
-0.059307955
-0.3470389
-0.22791895
0.056720417
0.12426148
0.08173242
0.068905585
-0.009177248
0.08461585
-0.008987313
0.0047515375
0.24015516
0.14618482
0.17920472
-0.11830517
-0.017789714
0.041041616
0.04304794
-0.064966254
-0.08064431
0.17655893
0.053684015
0.39544538
-0.052667897
-0.11071292
-0.07947093
-0.057638645
0.063923396
-0.1417643
-0.021276224
0.13973118
0.23184684
-0.15171233
-0.1440306
0.016507704
0.015245038
0.18364947
-0.11502831
-0.1488335
0.027242243
-0.03534712
0.057763547
-0.079023615
0.17707245
-0.15646002
-0.048741058
0.0927062
0.1250661
-0.0018793049
-0.00038073343
-0.13036981
-0.032494485
-0.29795933
0.11064016
-0.054678246
-0.008637867
0.058393057
-0.06326251
0.11060589
-0.06648071
-0.067667134
0.06038613
-0.027380899
-0.05951543
-0.089740336
-0.0068157576
-0.15477888
0.19693029
-0.27339315
0.1533068
-0.26770207
0.08544058
0.034408364
-0.059790537
-0.0014776582
0.01140798
-0.0115808
0.21367681
-0.13122201
-0.23057131
0.0026164865
-0.0799422
0.11004216
-0.1557602
0.06358204
-0.014562318
0.06454642
-0.13754323
0.00029470513
0.099862605
-0.24459079
-0.0108736055
-0.23681852
-0.1795592
0.14410849
-0.26965052
-0.02171708
-0.1066093
-0.08251027
0.17233253
0.18474574
0.13170682
-0.110261604
-0.11943496
-0.17189072
0.26060584
0.16693828
-0.23651433
-0.15870179
-0.2232026
0.02240746
0.13626845
-0.26938608
0.10482988
0.012083057
0.02123698
0.13387479
0.04264094
0.12786599
0.1366557
0.30683753
0.1936359
-0.115473
-0.264808
0.036546193
-0.0970364
-0.04788781
-0.052275486
-0.05668186
-0.17138784
0.18820062
-0.35543904
-0.047228172
0.05851027
-0.028775988
0.077935316
0.15222786
0.17599538
0.05431535
-0.14002156
0.17059012
0.17509553
0.15485884
0.1477256
0.18520872
0.24978179
0.29653856
0.20269737
0.1072685
-0.18129754
0.336268
0.111995585
-0.14864428
0.49951836
0.08352136
0.051387563
-0.108311705
0.16793779
0.012098641
0.051588543
0.1406905
-0.006132156
-0.10048595
0.09030595
-0.14721595
-0.03423048
0.07118519
0.21548116
-0.030947555
0.022201858
0.23332599
0.094833605
0.072747216
0.021278841
0.038532417
-0.20240119
0.12126525
-0.01978354
-0.0066226195
0.06263388
-0.036053263
-0.061871156
0.12394061
0.021657253
0.033301264
0.10624669
0.09966731
0.056421593
-0.25091445
0.08992884
-0.117774904
0.16971876
0.08271845
-0.15334636
-0.052619044
0.15554929
0.027258413
0.12416429
0.064673476
-0.05499301
0.24579474
0.050951652
-0.014492482
0.1924053
-0.08147086
-0.2529728
-0.008783889
0.010745045
-0.017933076
-0.10336407
0.030235568
0.017708287
-0.09888673
-0.044163484
-0.012162542
-0.13893269
-0.18505079
0.17229596
-0.035849344
-0.18198963
0.14802319
0.08913613
-0.0806408
0.028258165
0.05530222
0.4341003
-0.13293423
0.14725907
0.011760731
-0.061936837
0.2922638
-0.076563425
-0.20930982
0.18716782
0.051194448
-0.082208484
0.1526042
0.24547695
-0.111436106
0.06278726
0.08911249
-0.163428
0.15160507
0.01687515
-0.056052256
0.10633369
-0.13889936
0.15440737
-0.18920144
0.09241741
-0.022392888
-0.044483677
-0.06689959
-0.22252077
-0.06563227
0.060101483
0.040477026
0.08878411
0.26547158
-0.3060537
0.03886095
0.100500554
-0.10050394
-0.045648776
-0.081106246
0.01862378
0.1881726
0.050108448
-0.028150393
0.2878901
-0.02957921
-0.026614532
0.006142139
0.0675642
0.05061284
-0.09526886
-0.16416402
0.33874482
0.052544925
-0.10119418
-0.033421762
-0.029959016
-0.08768674
0.0054965024
-0.03791667
-0.025510414
0.090634115
-0.013591479
0.13015145
0.17274138
0.18031633
-0.17474484
0.19543982
0.028756384
0.120816536
-0.004598634
-0.084315926
0.24845229
0.0668602
0.045683067
-0.0837538
0.00494844
0.027872913
-0.086574666
0.026475139
-0.21377252
0.201197
0.074700296
-0.0034267283
-0.28980103
0.27153847
0.006560959
0.11499117
0.018665217
-0.012026922
0.07638998
-0.022815388
0.02943277
-0.025963023
0.075134724
-0.031513777
0.15267666
-0.0036831372
-0.14458679
-0.06983489
-0.023152588
-0.07504711
0.26675624
0.039495092
0.05109294
-0.14206943
-0.24166137
-0.039257657
-0.05452335
-0.4396548
-0.12321484
-0.07296677
0.035232686
-0.06431472
0.1702956
-0.058282413
0.014876214
-0.16795042
-0.22227518
-0.0380516
0.07416167
-0.15328135
0.15127537
-0.26740393
0.046280004
0.004803643
0.043827333
0.14356896
0.018217692
-0.0032090342
-0.17578833
-0.20770966
-0.08701107
-0.20098671
-0.0034589425
0.09164057
-0.03483727
-0.09034912
0.12617463
0.2457845
-0.1478127
-0.017437369
0.2244016
-0.07981827
-0.06672291
-0.040668596
-0.0059514306
0.049997583
-0.15961517
0.16408117
0.09853006
-0.034997117
0.096889816
0.02606821
-0.11248959
0.15187275
0.2368396
0.24898818
0.01167352
0.11831708
0.26678893
-0.04615837
0.022589717
-0.10688691
0.051230565
-0.04902799
-0.060041916
0.058723673
-0.26823145
-0.33310345
-0.06855843
-0.031788312
0.018364621
-0.005625216
0.044640325
0.023211382
-0.08792279
0.027562145
0.017333636
0.019675361
-0.055515673
0.11348568
0.18922178
-0.3044031
0.060120843
-0.0434985
-0.116140425
-0.060491156
-0.054649252
-0.107852064
-0.034952275
-0.19205227
0.32590905
-0.23125826
-0.1194696
-0.019100891
-0.25994495
-0.16377938
-0.06658333
0.110315725
-0.047156833
-0.14610456
0.15055491
-0.14467081
-0.07770861
0.45300946
0.0152910175
-0.066256255
-0.10094627
0.05752748
0.04191083
-0.07786894
0.12661028
-0.063845195
0.13075049
-0.016491467
-0.10793504
0.11593842
0.117847905
0.014014953
-0.08156221
-0.10414666
0.021136608
0.12504119
0.016456636
-0.017140016
-0.03534288
-0.27906993
0.14320865
0.07934552
-0.077964395
0.11922538
0.23510994
0.006353549
-0.03551387
0.029768799
-0.03215273
0.10901269
0.0885398
0.01209123
-0.020551898
-0.09393754
-0.115011126
-0.06947898
0.15813503
-0.067055374
-0.032625735
0.28266674
0.003179239
-0.08691384
-0.036724396
-0.06740018
-0.08336457
0.10321385
0.0026334466
0.11067181
-0.13089648
0.30393732
0.12916185
0.11931456
0.13619179
0.21216778
-0.037021156
0.17793192
-0.18242033
0.06806035
-0.14531651
-0.14123279
-0.16454944
-0.1811291
-0.08999875
0.0728382
-0.029796308
0.08056175
-0.11487471
0.19826432
-0.103701785
0.004505104
0.05543008
-0.0054088715
-0.19938922
0.070618555
0.09104701
0.26871732
0.0140786255
0.17681317
-0.015582946
-0.06412489
0.04725861
-0.2091708
0.14051645
0.28525996
0.100005075
-0.037629075
0.05748447
0.09982943
0.078283325
0.19310005
0.24718596
-0.21186562
-0.18250287
-0.11746171
-0.32115752
-0.10154107
-0.274476
-0.08306807
-0.043662924
0.049342122
-0.15120348
-0.079307675
0.0636046
0.13604258
-0.0902679
0.033696935
0.143042
0.039256927
0.063704535
-0.19546483
-0.025026256
0.010096783
-0.27684087
-0.0072990875
0.22404534
0.008740985
-0.12846488
0.28078938
0.21312925
-0.018266013
-0.12039228
0.13843872
-0.011238431
-0.232874
0.033511158
0.002242966
-0.09339329
-0.4489862
-0.17677253
0.07263954
0.10326958
0.017835867
0.06573236
0.13288993
0.1898122
-0.13496564
-0.26310888
-0.17339504
-0.055084664
-0.07459622
-0.008328267
-0.11184577
-0.06809989
-0.05560863
-0.05009636
0.06729513
0.21067645
-0.18088883
-0.08188728
0.1475193
0.0027846182
-0.14476298
0.01887708
-0.023183988
-0.081808485
-0.10853074
0.17646922
-0.065190494
-0.07393669
0.19950683
-0.28172624
-0.2606534
-0.01414173
-0.090335466
-0.032648016
-0.14035432
0.074990645
0.05232486
0.12396325
0.004023298
-0.017184213
-0.30182767
-0.0036724876
-0.109638765
0.055579115
0.11665291
0.13099267
-0.08961996
-0.29098344
0.09179368
-0.13247645
0.031593043
0.19347754
0.10393414
-0.11363415
-0.21078259
-0.12677146
-0.031609036
0.04263668
-0.026429385
0.11886029
0.11696064
0.1423535
0.021860106
-0.18768956
0.23760082
0.009398359
0.09959775
-0.11175542
0.09054475
-0.04254578
0.021353073
0.020170687
0.17422791
-0.053130023
-0.101031244
0.08127883
-0.24938262
0.11271385
-0.13614832
-0.09822458
0.08469034
-0.06052753
0.016584806
0.030673163
0.049345195
0.033688232
-0.14643297
0.08664702
0.065265805
-0.18919452
-0.085099936
-0.009354255
0.052498773
0.12126604
0.062385954
-0.11380117
-0.087611966
0.014806047
0.21864344
-0.06701634
-0.1717941
-0.31732407
0.028260859
-0.21918476
0.3020895
-0.24363476
0.08911096
-0.033042394
0.10600444
-0.07192472
0.036754254
-0.0037277648
0.2270195
0.09331547
0.12999818
0.048833933
0.0823299
-0.13615091
0.07122011
0.13628253
0.08812468
-0.046031818
0.03627681
-0.15901497
0.01389971
-0.038452916
-0.045463737
-0.112022735
-0.23167697
0.07442002
0.19858746
0.06346168
-0.14591555
-0.17649299
-0.2393698
0.4630019
-0.06615737
-0.006874538
0.2843934
-0.10471712
-0.02449212
0.05855859
-0.1816956
-0.051343333
0.052022874
-0.34661606
0.122022755
-0.088605575
-0.072696395
0.07684514
-0.022366764
0.058044523
0.09592328
-0.15550487
-0.08995715
-0.16654108
-0.10923509
0.073859476
-0.025621735
0.08656697
-0.06102065
-0.21626332
-0.5496717
-0.12055835
-0.19729832
0.19237642
0.20878723
-0.28458372
-0.3087218
0.040566057
0.05404683
-0.08767541
0.18364519
0.0867202
-0.07727913
-0.2710147
0.054640733
0.008073292
0.15909801
-0.1201439
-0.16254286
0.06951046
0.24604349
-0.07338126
0.034637194
0.009141121
0.18429679
0.16586684
-0.15983109
0.1724991
-0.18398874
0.103173845
0.14666331
-0.04342023
-0.027994767
0.13229512
-0.29607716
0.32509932
-0.03756185
-0.033808507
-0.15477109
-0.021422295
-0.1708121
-0.17670849
-0.07678781
0.09075602
