# (65, 192)
-0.02029669
-0.001094358
-0.024533598
-0.002389542
-0.0138417035
-0.027744962
-0.007524122
-0.024894424
0.034536127
0.03326851
0.01943636
-0.0031021307
0.012207279
0.025322484
-0.016630782
-0.021804214
0.0043333312
-0.011019174
0.028508468
0.024850564
0.0025145197
-0.0036350016
0.0011747015
0.03726334
-0.013100654
-0.0019499921
-0.0027139878
-0.035526983
0.01238611
0.030578217
0.005308249
-0.034337666
-0.00584555
-0.012305206
-0.015617437
0.03920876
0.014291891
-0.02720754
0.0047335103
-0.025507344
-0.005235994
-0.033573326
0.0057647973
0.018113501
-0.0062720943
0.004217867
-0.015160603
-0.015509527
0.019624408
0.017318942
0.003162854
0.010600976
0.0024732444
-0.003432978
-0.0045257434
-0.019415202
-0.033193447
-0.0078411475
0.019518934
-0.008394905
0.007358092
-0.016900165
-0.03145335
0.0016387799
0.028210666
0.00076122803
-0.011759925
0.010698107
-0.013735273
0.0028553738
-0.004048623
0.010080954
0.0050904686
0.020858817
0.007089912
0.0058188
-0.008042123
0.0010792334
-0.0009195485
0.0029942729
0.01228859
-0.0018251241
-0.031254765
0.0413451
-0.017548028
0.0066887103
0.0014125546
0.009932392
-0.008232614
-0.0036584022
-0.0044035516
0.0025686605
-0.004588932
0.025927773
-0.004742406
0.009291223
-0.0032183607
0.019184215
-0.018682675
-0.0074460753
0.006623184
-0.010401257
0.017519115
0.005620154
0.005840083
0.017854208
-0.026719825
0.010689644
0.015658773
-0.00089002546
0.019070609
-0.026664957
0.024347903
0.014862418
0.009466523
-0.023558304
0.0081107225
0.006726946
-0.024739768
-0.004464502
-0.012458849
-0.010996876
0.011420025
0.0020972693
-0.030940963
-0.026452646
0.0015327656
0.0076394486
0.00023489795
-0.015451627
-0.010758065
0.01973454
0.024161637
-0.013259791
0.02161061
-0.012561549
0.01479309
0.0019923237
-0.01927018
0.0014789605
0.0061692838
-0.019553568
-0.006844673
-0.0053262017
-0.014617228
-0.0051051406
0.06370305
0.03537498
-0.00042491133
-0.014118552
0.015023845
0.013005339
-0.009581574
-0.00021617913
-0.002825652
-0.0331115
-0.025975887
-0.008095786
0.008512575
0.003991936
-0.0058722994
0.024450254
0.00056275394
0.002806784
0.013582107
0.018776925
0.007110677
0.0070134867
-0.011274815
0.0034261746
0.0011822656
-0.007374119
-0.0035157613
0.009974664
-0.035661735
-0.038864736
-0.0070795696
0.015378757
0.015580765
-0.03339534
0.035694517
0.007947777
-0.024443228
0.0006852606
-0.047706388
0.030422926
-0.0016631585
0.0001565564
-0.021973467
-0.027814092
-0.026633484
0.004281335
0.0045291097
-0.006497205
-0.04128352
0.02879244
-0.001659179
0.002956617
0.0223332
0.034107503
-0.017381884
0.00026430376
0.021022541
-0.009637339
0.006361902
-0.0031002131
-0.027199749
-0.041098177
-0.009449882
-0.0351086
-0.0069900025
-0.037583057
-0.0057868552
-0.014860452
-0.03053735
-0.011768328
-0.015259163
-0.008990518
-0.011631489
-0.0023776644
-0.020351889
-0.030932596
-0.01922876
-0.02413906
0.014784908
0.013796983
0.006004325
0.004300441
0.02795006
-0.033165183
0.0149396835
0.013878301
-0.020813532
-0.000649269
-0.047402397
0.021205174
0.025101623
-0.015022219
-0.011441961
-0.0068076104
-0.022488829
-0.01542224
0.012203077
0.03146365
0.024379283
-0.01618442
0.009654095
-0.0010596109
-0.0042065317
-0.02589822
0.039654665
0.02569094
-0.0003433264
-0.014655258
-0.010889994
-0.013930799
0.05377783
-0.007164156
-0.00045977993
-0.032905817
0.029463138
0.024529371
-0.038244486
0.0181403
-0.015522646
-0.01317281
0.010724925
0.023622125
0.008891656
0.004288261
0.0046525192
-0.015495421
0.0031373417
0.007788311
0.031670183
-0.015890092
0.039572503
-0.009751839
-0.0066429474
-0.031433344
-0.0009577522
-0.01193857
-0.019270143
-0.008911565
-0.02460233
0.001824203
-0.0353144
-0.018273236
-0.0008762639
-0.010106893
-0.012562237
0.026725857
0.002860444
0.012117357
-0.006018115
-0.0058052754
0.02816707
-0.034274932
0.009095685
0.01731736
0.015815003
-0.028145216
-0.00030109228
0.007602648
-0.005434105
0.012939681
0.007045446
0.035960756
0.007663229
0.030953648
-0.007747282
0.019948231
-0.016912047
0.0018627386
0.0018646548
0.013405722
-0.0011908292
-0.015584631
-0.0001344107
0.028540784
-0.02402645
-0.010104367
-0.005281368
-0.030889712
0.005555628
0.0073420065
-0.01908246
-0.031309355
-0.010734478
0.018333625
0.038559046
0.030772971
0.015867757
0.013826032
0.017856115
-0.027162353
0.011077491
-0.025977666
0.015551875
0.0038955119
0.0028864713
-0.01731842
0.0026489436
0.036096483
0.01608338
-0.019610915
0.02961066
-0.027016105
0.004266498
0.017437207
-0.019019913
0.018116238
-0.009471419
0.012631138
0.0094979545
-0.004472673
0.0391891
-0.047624987
-0.001179408
-0.0015632118
0.0021137914
0.030296138
0.006989597
-0.0043189526
-0.025141766
-0.034514308
0.008208312
0.002403455
0.0045116465
0.03557942
-0.014940585
-0.0032896318
0.014504865
0.033258073
-0.017702343
0.046756666
-0.059580974
0.014257104
0.029117076
0.039696854
-0.031889096
-0.012947721
-0.0044562593
0.03409381
0.013715043
0.0041512065
-0.011171971
-0.01730906
-0.007946288
-0.011413364
0.013208131
-0.01360291
0.01762155
0.011247143
0.010892131
0.013857229
0.020375352
0.009624955
0.009890914
0.004950765
0.030907106
0.038600903
-0.0107742855
0.00761927
0.03452655
0.006194115
0.0055043763
0.009894291
0.0061998884
-0.028966183
0.015548497
-0.016115146
-0.02986059
-0.030571304
0.011304076
-0.011643943
0.012881979
-0.0012045507
0.010874787
-0.017368635
-0.0059412317
0.019978918
-0.019304706
-0.001340477
0.02763061
0.038324844
0.00014656034
0.025571533
-0.013355707
0.0005140164
0.028921487
0.024439719
-0.009773588
0.010979658
-0.012895088
-0.032132942
-0.0070893797
0.008721751
0.022148296
0.018065387
0.0035695508
-0.01829533
0.013819527
-0.0020191066
-0.0020945722
-0.019054046
0.010158819
-9.377239e-05
0.0024095038
-0.0031227868
0.02191589
-0.03217632
-0.014191889
0.017099977
-0.012466342
0.03950187
0.0033087372
0.021675674
-0.01652279
0.023879634
-0.021404816
-0.01881993
-0.043029316
0.017372247
-0.026600543
0.018935079
-0.023855617
-0.0042480654
-0.05436104
-0.008201432
0.01715384
0.0038834144
-0.0018407672
0.0103341695
0.003276147
-0.021151602
0.015386598
0.014196485
0.012196542
-0.0013015817
0.031945948
0.023645744
0.007076777
0.01041512
-0.008196866
-0.0026978971
0.026546368
0.0047042137
0.018194253
-0.014011675
0.023734523
0.026942475
-0.011737404
-0.01429412
-0.01682985
-0.027263602
0.0065489346
-0.0008234478
-0.036906067
0.029015979
-0.03393241
0.01431268
0.00975846
0.0039652917
-0.0034134074
0.0038543197
-0.008774277
-0.00070202694
-0.011896014
-0.005696258
-0.011009349
-0.0066964454
-0.009124673
-0.006831246
0.014440601
0.0036616968
0.0065455907
0.020664174
-0.01028987
0.044619974
-0.004321578
0.02032103
0.030269722
-0.012821115
0.0058339187
-0.0355646
-0.025742318
-0.030840525
-0.009738369
0.024647774
0.007063904
0.023388889
-0.008315101
0.023668513
0.010807264
0.038651887
-0.0021587035
-0.0015234714
-0.00059993705
0.010901967
-0.024197375
0.028437521
0.00833443
-0.010080333
0.00597665
-0.012684534
0.016751684
-0.008002325
-0.026537482
-0.013126875
0.0019301411
-0.043540176
0.030587623
-0.015488063
-0.014857105
-0.025463242
0.027035467
-0.010992037
0.03768508
0.0015279067
0.016886553
-0.0048064184
0.010539606
-0.030691404
-0.013014532
-0.025457902
0.021613682
-0.0018615737
0.00740482
0.0059780157
0.003933377
0.04429708
-0.045757096
-0.011252455
0.0028548806
-0.027633658
0.031338237
-0.0016537621
-0.019076046
-0.006057882
0.02110895
-0.038768087
-0.003260615
0.0095738955
0.0061097327
0.03192558
-0.010408482
0.009350838
0.00065765367
-0.0015882985
-0.020412048
0.01642715
0.02504912
0.019345857
0.021624748
-0.009139482
-0.0029648307
-0.007890692
-0.018075747
-0.036467317
-0.012261399
-0.005457808
-0.0029460501
-0.006221267
-0.017122073
0.016489906
-0.005230812
0.008236708
0.008653811
0.0032938211
-0.009157317
0.016531035
-0.014232199
-0.0009375486
-0.005468984
-0.01352346
0.011342082
-0.02196372
-0.027478231
0.012682561
0.0031634537
0.020864291
0.0048162304
-0.025606398
0.016104175
0.0103193605
-0.04277303
-0.010360663
-0.023465408
-0.0014529545
0.057964783
0.045230012
-0.018959424
-0.005920576
0.021626227
0.017392403
-0.04017245
0.003386711
0.013940991
0.019820677
0.016431466
-0.006233508
0.0071139857
0.0064175874
-0.012866075
0.0014186082
0.024492962
0.04836034
-0.0043491595
0.0012006795
0.0091641415
0.008073021
0.0008326318
0.016499039
0.045103185
0.007378332
-0.028783722
-0.0052881986
0.025665266
0.010914626
-0.032851227
0.044388466
0.023147281
-0.018925296
-0.01606771
-0.0026904189
-0.038508955
0.015490715
0.013463666
-0.010945801
-0.005833531
0.02877594
0.024612106
-0.015810395
0.04664989
0.0056067705
0.022461256
0.030864298
-0.009924683
-0.0127770435
0.036075644
-0.003236602
-0.015085072
0.033885237
0.021129709
-0.027233806
0.020859148
-0.012095498
0.004406322
0.00027997463
-0.024258744
-0.006634978
0.024241699
-0.0058799325
0.017941512
0.025694398
0.0052586775
-0.0007968654
0.008643196
-0.015884101
-0.033132788
-0.0593799
0.018770985
0.012356342
0.0052914596
0.013280228
-0.0039090267
-0.01732448
-0.035195637
0.010293425
-0.007984316
-0.022442838
0.026445663
0.006729642
0.020853784
0.008661741
0.026928937
-0.005625004
-0.02597951
-0.0014257069
-0.027447456
-0.013488286
0.021603703
0.015299185
-0.005452079
0.033063255
0.017985323
-0.007831143
0.0050749383
0.0055252193
-0.015143514
-0.0046530557
-0.019848239
-0.0167187
-0.005821397
0.020770399
-0.0029074152
0.0032645115
0.014881192
0.02512244
0.016432762
-0.007689653
0.00076537166
0.026201874
-0.012555146
-0.006672357
0.025705317
-0.001868248
0.008120506
-0.021694822
0.031238467
-0.0005279645
0.0033941625
0.0032731248
0.017693894
-0.008334616
0.00031225328
-0.005118392
0.0026933737
-0.0062682265
-0.04054976
-0.00017134628
-0.0068931337
0.025448276
0.020659892
-0.0059966836
0.02650746
0.036710005
0.0024671191
-0.005615145
-0.014089503
-0.03403006
0.0071909023
0.03620979
0.0026656126
-0.014141417
-0.0017862808
0.005695458
-0.00186709
-0.011950661
0.018166222
-0.03363158
-0.008627351
0.06294372
0.03195531
0.02596554
-0.025353912
-0.012656984
-0.011223695
0.024591887
-0.01769237
-0.011184685
-0.019553915
0.009219272
-0.0393796
-0.0038944934
-0.0012945019
0.012232058
0.011964696
0.0020524203
-0.036548577
0.021271266
0.05083349
0.019336918
-0.007947983
-0.013524661
-0.011373149
-0.0261535
0.02287751
-0.0046578813
-0.0077755265
-0.0065079257
0.04694312
-0.011307753
-0.0022952189
0.016072009
0.003042797
0.010609518
0.0068177655
0.008026119
-0.00786179
0.0062387264
-0.02476097
-0.01948329
-0.032692168
0.039089337
-0.004120494
-0.04880165
-0.0012018029
-0.016728388
0.049689353
-0.002565039
-0.015799915
-0.008504377
-0.03475031
0.026994744
0.036984112
-0.016256368
0.0012683447
-0.010141098
-0.0026397295
0.008406707
-0.008874582
-0.019276423
-0.008631996
-0.017526582
-0.042373657
0.028047748
-0.012331501
-0.007598
0.012210516
0.007818282
0.024392197
-0.030350825
-0.023387529
0.016558554
-0.009413204
-0.008355485
0.0010259895
-0.0018269368
0.031536534
0.040976465
-0.0033820465
-0.059858397
0.004946468
-0.007867263
-0.01994787
0.02861282
0.010902695
0.012035457
-0.03268918
-0.013551146
-0.0013773298
-0.016593201
0.010957299
0.03296371
-0.004257412
0.008521056
0.027340613
-0.0030688047
0.031104134
0.017222816
0.02706064
-0.008355308
0.019882008
0.015596872
0.015886229
-0.0033768357
-0.034600366
0.0049704374
-0.0020146281
-0.01589124
-0.0050928276
0.023374781
-0.0431106
-0.0014010513
-0.02654866
0.013369827
-0.0028197546
0.025581772
-0.03232707
0.011098569
-0.015138874
-0.02445366
0.005068849
-0.0036977488
0.01657441
-0.010765491
0.0054134894
0.0025766448
-0.027738174
-0.0060279714
0.0062904614
0.029776048
0.01871384
0.02228336
-0.011013888
0.053938627
0.0016654466
0.02081155
-0.038944643
0.012836171
0.010494272
-0.004588702
0.025021281
0.0014746931
-0.010643607
-0.007867011
0.022893993
0.007720327
-0.02433061
0.0288192
0.04128281
0.006555322
-0.023558788
0.022110099
0.012476577
-0.016570572
0.016077714
-0.0005644675
0.037483152
0.0060227923
-0.008467133
0.016684795
0.0073164133
0.028908674
0.005359961
-0.02915136
0.034375817
-0.032567896
-0.0076013473
-0.02896334
-0.023673028
-0.0043500694
0.016437778
0.019166898
0.0007739474
0.023993786
-0.018635143
-0.028984958
0.021870041
0.010879078
0.018343613
0.010425878
-0.00045714813
-0.0066864
0.008372368
0.022140639
-0.046969797
0.0011130732
0.019870216
-0.026363634
0.009805877
0.01841066
0.02445616
-0.016073605
0.025302881
0.00084275444
-0.007911533
0.00665984
0.0062144957
0.013317738
-0.005208271
-0.028072271
-0.008017037
-0.019111628
0.0017247489
0.0070468835
-0.007153688
0.047102757
-0.0021773293
-0.023898933
-0.011409217
-0.039404802
-0.007928102
-0.03479473
0.0051942957
-0.039295442
-0.01653415
-0.005122291
0.004662444
0.017240863
-0.004418926
-0.011835654
0.021814546
-0.035865594
0.0074666766
0.028307352
-0.034494486
-0.037438918
0.025984153
0.017475294
-0.014458097
-0.026232636
0.00905943
-0.02428543
-0.004748006
0.019093122
0.010896084
-0.034104988
-0.0098157395
0.010087451
-0.014076425
-0.023110408
0.026945114
-0.018897831
0.010052696
0.0008922693
-0.022051401
-0.0096670715
-0.01973194
-0.008581078
-0.017125404
0.0025067537
-0.008328604
-0.019090366
0.00075292797
-0.007993941
0.019171178
0.020009482
-0.0011380864
-0.027436785
-0.021252615
-0.019246353
0.014102917
0.033112958
-0.015230231
-0.028107611
0.043719463
0.013897389
0.024433477
0.0038454228
-0.01579251
0.00047426045
0.0010387104
-0.0311675
-0.008743899
-0.024483461
-0.022350712
0.04415579
0.011737687
0.026982099
-0.024052259
-0.057522118
-0.025037093
-0.019628605
-0.025515173
-0.008898208
-0.0034249872
-0.022160368
0.03822702
0.0008192079
-0.016233435
-0.0025794473
0.009328278
-0.009915849
0.04662409
0.010092831
-0.01436205
0.007779378
0.008502685
-0.0076835146
-0.0045157433
-0.0019265132
0.019805001
0.025041461
0.045482125
0.041659236
0.018703453
-0.011052672
-0.010731182
0.008097508
0.010449176
0.00078675325
-0.025548961
-0.019937348
-0.017674696
0.004058962
0.0036855538
0.011323925
-0.0021687367
-0.036582462
-0.006175885
-0.025114171
-0.0050338977
0.018680537
0.013014862
0.03576465
-0.006063872
-0.004812484
0.02064354
0.016469015
0.0014785057
0.055037417
0.012495298
0.014059847
0.021846242
0.007155741
0.0065727383
0.010378935
-0.017833456
-0.022465996
-0.009098275
-0.012817285
-0.0020480799
0.0247739
0.010904279
-0.0219203
-0.009887705
-0.025506672
-0.0030421603
0.010899127
0.0048299595
-0.011448796
-0.014897898
-0.0128475195
-0.021261089
0.03339304
-0.024398355
-0.02625236
-0.009638878
-0.0170089
-0.041608594
0.019474767
-0.024053032
-0.01096338
8.293727e-05
0.0030901816
-0.0056408024
0.02704366
-0.016725289
0.008634281
-0.010751741
0.020648709
-0.015273499
0.047902226
-0.013355315
0.0114887925
0.010876886
-0.027888391
0.020723963
0.007943773
0.017038329
0.009210807
0.0075939014
-0.0058906255
0.0031859083
-0.016177967
-0.021318655
0.028028663
0.039103888
-0.017808821
-0.015771508
0.009669926
0.021597873
-0.031300955
-0.0140104
-0.015212314
0.015511505
-0.037193973
0.017527753
0.0395275
0.014387512
0.021051824
-0.019213751
0.012605178
0.005368184
-0.035715308
-0.0046220124
0.003677299
0.013975428
-0.019172741
0.0072117844
-0.0047023585
-0.0041495124
0.01939957
-0.020561783
0.031401478
0.029760025
-0.005492555
0.010613143
-0.014056441
0.022061964
0.019850008
0.003974153
0.019044312
0.0021662267
-0.02583126
-0.042217597
-0.005593794
-0.015153592
0.008211885
-0.040436115
-0.02392788
-0.014901834
-0.028139925
0.0054858923
-0.0066880905
-0.03323324
0.0058205076
-0.0258372
0.019659234
-0.01380892
-0.01595418
-0.011600037
-0.0062626735
-0.011773603
-0.008846479
0.0003829233
0.0058011482
-0.013903918
-0.018351365
-0.009392942
0.025794907
-0.008306424
-0.0068809185
-0.0046415934
-0.015114831
-0.039590802
0.0018399006
-0.0062591694
0.005938468
-0.028714627
0.01658912
0.023877876
-0.0037986138
-0.013352264
0.01121618
-0.017162833
-0.015319459
0.0067194193
-0.016416153
-0.0144953625
0.029415434
-0.03334061
-0.008533514
0.023275778
-0.030791007
0.008777004
-0.0022783342
0.007622656
0.012313512
0.0012922164
0.03677496
0.02415719
0.015090308
-0.0001678872
0.017239796
-0.0002865166
-0.0066203857
0.018019104
-0.02597635
-0.0019918378
0.011978103
0.015627243
-0.005017083
0.007541674
-0.006877661
0.008537989
-0.010561249
-0.01805195
-0.0076694814
0.022736294
0.009490589
-0.002397046
0.019435938
0.029224716
-0.0038406882
0.039804034
-0.029957687
0.031558964
0.0008877687
0.010423985
0.024866821
-0.0092621725
0.035845425
-0.0318431
-0.020568844
0.035440315
0.022227997
0.0029813598
0.038119357
0.009688664
0.008267418
-0.001432916
-0.02261382
-0.009087977
0.021356558
0.013015121
-0.025518395
-0.032618716
0.0049558976
0.0029668887
-0.03306893
0.02029834
-0.0074228016
0.026506
0.002563814
0.0051906137
-0.020108085
0.016311843
-0.021723956
0.013853365
-0.02006423
-0.0029244565
0.012831218
-0.012375117
-0.0046911733
0.038958512
0.02043881
0.025346579
0.003127607
0.035267614
0.024268031
-0.03246345
-0.03364924
-0.01767751
-0.0077799805
0.009330907
-0.0041719354
0.017753236
-0.016735762
-0.022982176
0.0040593497
-0.05386474
-0.025685245
0.018706243
0.019722734
0.030066773
-0.026596865
-0.018287858
0.0009628919
-0.0016345031
0.0015050338
0.028840015
-0.017818803
0.008049239
-0.029431667
0.02178527
0.009077885
0.0018750121
-0.006952016
-0.032962143
-0.0014902002
0.010323653
-0.0063176495
-0.011628102
-0.039584238
0.008017081
0.0061211926
-0.029752228
-0.0008319913
0.014661726
0.010311246
-0.044227056
-0.00057719246
0.034108195
0.005951778
-0.03440807
0.009209273
-0.028489415
-0.015014649
-0.024089122
-0.00051415444
0.016342042
0.0062798304
0.004577049
-0.0070608035
-0.045031484
-0.023356892
-0.0018427188
-0.01936807
0.037518375
0.023130428
0.012324799
0.021602286
-0.0075185606
0.036188185
-0.00878548
-0.0026863646
0.020979067
-0.007865959
0.013443998
0.019513445
-0.008401417
-0.03350669
0.0044394433
0.020916995
-0.0010321329
-0.018353783
-0.003842087
-0.01220996
-0.04737244
0.043235727
-0.020272497
0.015741479
-0.0064157485
-0.0044747586
0.022048788
0.0029858297
-0.032537974
-0.0043292013
0.007465453
0.020068653
0.020624535
0.011261004
-0.027199415
-0.004285826
-0.01651109
-0.01092879
-0.002154429
-0.0073117856
0.007408787
0.013720704
0.010065852
-0.0011541473
0.014754072
-0.014523756
-0.024213748
0.010467032
0.01653053
0.0033294791
-0.028141579
-0.0018966263
0.0245335
0.030058132
-0.020517396
0.031275805
-0.008982631
-0.01911326
-0.019905878
-0.00081297476
0.0013716466
0.008467134
0.008585702
0.009738727
-0.028442139
0.008603636
-0.00040104953
0.0050871014
-0.021855192
-0.0041916776
-0.017468663
-0.0013725737
0.016839033
0.018153202
-0.018425677
0.0031211984
0.0026169536
0.0020844515
-0.008673357
0.009195425
-0.01396377
-0.0039957496
-0.012147148
-0.017453544
0.016028684
-0.008924943
-0.008051377
0.008316276
-0.020963235
0.017349368
-0.016677981
-0.0030891348
0.0105118845
0.002667652
0.009287153
-0.0053642076
0.000118435026
0.028815895
-0.014895657
-0.0069391537
-0.01634516
0.0006499309
0.010047406
0.033366743
0.025221033
-0.0058790348
-0.015163044
2.2990416e-06
-0.01784887
0.0016225579
-0.0052541005
-0.022977628
-0.015687805
0.009700344
-0.015565554
0.027197398
-0.005941693
-0.035573237
0.0035713688
-0.033581953
-0.007339596
-0.029183382
0.01949531
0.026039205
-0.008480757
0.014697204
-0.006040173
-0.028632278
0.02104143
0.0036504273
0.010188666
0.043969605
-0.0066468287
-0.023483526
-0.014759253
-0.004388665
0.0037215666
-0.000608379
-0.017273132
0.03290474
-0.0016691537
-0.011994151
-0.016966794
-0.008784382
0.013851563
-0.0036514439
0.0052123545
0.009399375
-0.019243319
-0.0028306255
-0.013606306
0.025504427
-0.025539014
0.008768988
-0.005518036
-0.022836251
-0.026904132
0.013614881
-0.030501762
-0.0033492723
-0.010702526
0.013007221
-0.013231286
0.008533614
-0.010484484
0.013174429
0.008846046
0.012795147
-0.020199034
0.011182285
-0.022445235
-0.008985462
0.020992944
-0.0277987
0.0073218714
-0.005924993
-0.017346581
-0.008367178
0.0033390187
-0.0061708163
0.0033021965
0.043144636
0.006905428
0.021275293
-0.042214938
-0.00022538412
0.029144803
0.00015356799
0.036828786
-0.016776342
0.015361639
0.030110355
0.006287974
-0.0013739085
-0.0032304847
0.013545868
0.0153492065
0.02967894
0.04046941
0.049516514
-0.0011834117
-0.0061872005
-0.00051254174
0.012023514
-0.027367853
-0.0008753812
0.018881172
0.003205544
0.0048345737
-0.010980966
-0.00038020394
0.013894862
-0.0038717315
-0.00751928
0.018537235
-5.8434725e-05
-0.030932829
-0.016712729
-0.015097197
0.047087193
-0.005636991
-0.02569542
-0.0112342425
-0.009496682
0.04367345
0.002071742
-0.02419317
0.011718009
0.015113112
-0.010586275
-0.01744442
0.013817379
-0.011852687
-0.01062503
-0.009470008
-0.0021874905
0.014519325
-0.012857262
0.029019445
0.010726085
-0.006812378
-0.009790198
0.0036564781
-0.0015264517
-0.0007953751
0.005180781
-0.020010008
0.034603994
-0.026411066
0.029790381
0.03289299
0.0063834563
-0.0054343436
-0.0097428
-0.022912597
0.011477487
0.031422522
-0.016387798
-0.014083009
-0.0125803705
0.01608359
-0.0024690547
-0.008866123
0.011850588
-0.009302384
0.012132807
-0.016024513
0.017367285
-0.016278995
-0.0028467276
0.020777151
-0.011342544
-0.031660363
-0.016757796
-0.034672134
-0.039230816
-0.008159137
-0.028175235
0.017920565
0.020508833
-0.015577429
0.005545333
-0.0070913103
-0.010169236
0.045340866
-0.019306142
-0.029705713
-0.019854942
0.012212042
-0.008147803
-0.011209756
0.012400976
0.025310747
0.021326674
-0.01904871
-0.002467117
0.016152928
0.0032202401
0.021204853
-0.00038759536
0.008869007
-0.012493723
-0.004722023
0.02785783
-0.0048857275
0.01455919
0.033453926
0.008635538
-0.010297145
0.0034869136
-0.015996853
0.018525396
0.0018933713
0.025131747
0.028540239
0.0075173853
-0.006282044
-0.0074221883
0.013508013
-0.0058491933
-0.00508019
0.007999892
0.0010295783
0.0059374045
-0.003099839
0.012976677
0.011952266
-0.0037402248
0.011661668
-0.025198879
-0.006180302
-0.015346747
-0.031285297
-0.02272252
-0.016613632
-0.029006397
-0.0070274794
-0.0252983
0.010804606
0.0049692974
0.020557689
-0.008792927
-0.03114326
0.0048972582
0.034997437
0.010155294
0.017514475
0.009206719
0.0052927826
-0.023030391
0.0056518363
0.019428933
0.017808743
0.011320476
-0.025160154
-0.0054826117
-0.012126481
0.008006647
0.044737272
-0.010821086
0.05738603
-0.0046336013
-0.0062132627
0.019786526
-0.0131449085
-0.01066517
-0.002113619
0.009059006
0.02578882
-0.0074443184
0.02732038
0.013715999
0.0029942258
0.039721746
0.01956568
0.019433983
0.02487585
0.00836077
0.013918055
-0.012188852
0.012023196
-0.009409649
-0.03991788
-0.013959826
-0.029712705
-0.038604613
0.014582308
0.00041482307
-0.011347768
0.023770133
0.013033857
-0.017157009
0.0033394303
-0.022596875
0.031570368
0.036500357
-0.04168898
0.030855294
-0.0029003236
0.004299157
-0.010260496
0.0061824284
0.021018071
0.0033233224
-0.0009299915
0.017325696
-0.022525936
-0.021101313
0.005857453
-0.017145896
0.0030808852
0.025152257
-0.022728294
-0.0018496037
0.0121391015
0.029150989
-0.028450465
-0.01442653
-0.0219173
0.028076066
0.019041281
0.027092705
-0.018131308
-0.010827525
-0.010643957
0.008287106
-0.028656347
0.008461547
-0.016112352
0.030611945
-0.0001409982
-0.043413945
0.003348504
-0.0022090995
0.029592948
-0.008531755
-0.010419276
0.020130815
-0.019508343
0.007127409
-0.0009633489
-0.020414678
0.0041469703
0.00073161593
-0.025349788
0.019054431
0.019706957
0.0051743183
-0.033335805
0.0086524105
0.03719811
-0.029126067
0.0071093407
-0.012670603
-0.007511163
-0.01776079
-0.013440943
-0.0007936596
0.042578053
-0.016079374
0.007073965
0.007281939
0.010585336
0.010918738
0.029798733
-0.0011582419
-0.02198525
0.016864343
-0.0058373436
-0.0026636764
-0.004202294
0.006052027
-0.0137201445
0.0064434987
-0.021348853
-0.013741828
0.011905087
-0.011779744
0.010367807
-0.016264366
0.035122935
0.008673653
-0.024072843
0.020520076
-0.0044875885
-0.012855146
0.022833506
0.0125537515
0.012079716
0.0028923338
0.0053435625
0.0023652883
-0.042600855
0.0335253
-0.006838476
-0.027609225
0.017319603
0.007103633
-0.00093364
0.010097146
0.017401865
0.012319408
0.03436226
0.0036214285
0.011060599
-0.010505745
0.005790417
-0.009040732
0.013293402
-0.012769022
0.022997174
-0.021144785
0.0020274774
0.0099380985
0.004745794
-0.03536726
0.017261108
0.012051706
0.017268373
0.006112942
-0.013606542
-0.01586839
0.0097548505
0.009518001
-0.012769861
-0.024407217
0.008918581
0.034024347
-0.023653373
0.018184511
-0.0042155674
-0.041756418
0.014072377
-0.007213408
0.029393053
-0.016441664
-0.015911149
-0.00051815424
0.033690892
-0.002302393
-0.014146417
0.009296719
-0.015935574
0.02081716
0.0021319406
-0.017364277
0.010067288
0.030730223
0.029008238
-0.032106176
-0.001030885
0.002407357
0.017335657
-0.006935632
0.015977262
-0.013324521
-0.024729202
-0.008139806
0.0019621833
-0.02202925
0.04651315
-0.03125679
-0.0036903643
0.024373641
-0.00059252774
0.0062930332
-0.026291532
-0.011359813
0.0006550863
0.04037383
-0.039557114
-0.018249905
0.017314209
-0.012855633
-0.011932396
0.03774235
0.032946993
0.017957909
0.009879068
-0.004602529
0.0024832673
0.0045665083
-0.0036787183
0.0014092345
0.010373835
-0.009537768
0.008070577
0.005610677
0.029568499
0.016048571
-0.021642193
0.0011312196
-0.004612979
0.028330857
-0.009787697
-0.042365737
-0.009764941
-0.025475701
0.035286818
0.005474368
-0.003941379
0.008867788
0.012593821
-0.01688509
0.001923494
-0.017950851
0.036280423
0.0015364728
0.016726792
0.013349598
0.01721164
-3.370528e-05
-0.021539968
-0.0009952069
-0.012286554
-0.028527884
-0.004196109
0.006280928
0.0053361226
0.012075477
-0.008521712
0.0023198014
-0.0008821518
-0.0109917605
-0.012042756
0.02599523
-0.027804874
0.008839398
0.011412578
0.0045451983
-0.02112905
0.002164338
-0.037874192
-0.021029916
-0.015039815
0.03118918
-0.030233359
0.034437332
0.010524738
-0.03098413
-0.030100256
-0.031203791
0.0048630144
-0.024729295
0.0128809605
0.014648775
-0.02862852
-0.003711147
-0.0053179082
-0.013856409
-0.030066788
0.01309805
0.009419386
-0.051208466
0.020751758
-0.0009861758
-0.0022254516
-0.001025595
-0.0012214851
-0.007865256
0.010508973
0.024541905
0.008720418
0.025910353
-0.013607499
-0.031570904
-0.00950333
-0.01714335
0.04162472
0.0075495252
0.007927786
0.0020293652
0.03274853
0.0092921
0.038613386
0.008126351
0.011133964
-0.005829865
-0.051819995
-0.015662313
-0.013071994
0.0024398244
0.019993663
0.020173417
0.0022710592
0.0032922267
0.021849649
-0.005722324
-0.031143786
0.014958017
-0.010628057
-0.0063442686
0.00813378
-0.007058877
0.024220085
-0.021045407
0.005420564
-0.018415311
-0.0019394087
0.04878606
0.021817788
-0.012638842
-0.015322996
-0.0044029215
0.024210734
-0.011150944
0.006528267
0.009810413
0.027875083
-0.017397396
-0.004923919
-0.018528614
-0.0065794364
0.0047731437
0.0133215375
-0.01614426
-0.0165577
-0.00027119
0.019681962
-0.01817888
0.013671783
-0.012229121
-0.0005238083
-0.011974845
-0.021388276
-0.021241702
0.01554957
-0.001923318
0.009777924
-0.0064871702
0.030674811
-0.016009497
0.021808142
0.0029479363
-0.005569235
0.0001090489
0.0012389824
-0.0017072347
-0.0013247095
-0.008508469
-0.01417356
-0.021294722
-0.038293965
0.009901626
0.011113318
-0.025903016
0.020121727
0.00118938
0.040380277
0.006518226
-0.001997427
0.00834454
0.0046398127
-0.0014671792
-0.0040528253
0.014830291
-0.018001596
-0.027043723
0.020869637
0.04305424
-0.016560746
0.0225375
-0.015586127
-0.022762572
-0.026718795
0.008743471
0.012634495
-0.040759344
0.0018002304
0.03885712
0.015563763
0.012091744
0.011571829
-0.0147414
0.007428584
-0.0019927018
0.02729279
-0.025675975
0.023966398
0.0139766
0.00059585046
-0.0005432845
-0.026055848
-0.024695536
-0.031142278
0.003802475
-0.021138292
0.028243575
-0.014193486
-0.02116859
0.011377363
0.040641595
-0.014438833
-0.015641067
-0.0025176462
0.050752793
-0.022894608
0.007818281
0.026019812
-0.010003827
-0.016289582
0.023837425
0.03309543
0.0028801672
0.0007505103
-0.0036192674
0.008470195
0.016619409
-0.010389717
-0.023536105
0.004439697
-0.047731504
0.027035363
-0.016334476
0.0041339127
-0.034869764
0.015825551
0.02056204
0.0134270275
0.004372551
0.0032249363
-0.0035268553
0.010335268
-0.021056566
-0.02487926
-0.027324865
0.028902676
-0.0064475257
-0.0066546462
0.0046191206
-0.0048863557
-0.018962506
-0.003450132
0.007525104
0.010541616
0.016080793
0.012595937
0.011120822
0.0012369514
-0.0052409978
-0.002277684
0.018606575
0.0028583233
0.0065983706
0.013793205
0.008390351
0.01690052
-0.0026946273
-0.017721236
-0.02322077
0.0017826399
-0.031190874
-0.012687368
0.0034834128
-0.010544991
0.002372194
0.025964336
-0.0020788657
0.009052834
0.0026600233
-0.02649431
-0.004847471
0.01206649
0.0013731272
-0.02766381
-0.0064343945
0.016130216
-0.005112039
0.03217924
0.024665896
0.02123182
0.016396357
0.004749863
-0.018154927
-0.012895815
-0.0043467972
-0.007160051
0.009436018
-0.014096577
-0.0061910115
0.034302752
0.014070117
-0.05069317
0.021964697
0.034275502
-0.011473217
0.0109414775
-0.007575281
-0.05104062
0.01625899
0.014285876
-0.0074970345
0.0039461264
-0.0051936167
-0.00271365
0.010638722
0.04484071
0.016124507
0.009587385
0.04783684
0.01939195
0.018289907
0.009018644
0.012786401
-0.009688116
-0.0035683778
-0.017069139
-0.020243347
0.03563819
0.029161839
-0.027634198
0.03437592
0.005125148
0.02746441
0.045632813
-0.007442818
-0.007709917
-0.0054144287
-0.016500983
-0.0014158195
-0.042183653
-0.017796872
0.033418033
-0.013877526
-0.012291755
-0.012238289
-0.026524639
0.017307607
0.0032569906
-0.007222525
0.025342762
0.0102140885
-0.015000878
0.010244946
-0.015140353
-0.0121135125
0.005346005
0.024753887
-0.020667102
-0.009142414
-0.007428138
-0.03062012
0.009606095
0.023504743
-0.041339636
-0.0143378815
0.022361502
-0.0077857855
-0.01735854
0.030359961
0.018012233
-0.0220542
0.000726853
0.023128275
-0.008315217
0.012992677
0.014123658
-0.017580243
-0.0011369648
-0.030652655
0.008714601
-0.016237905
0.02928017
0.011346693
0.01638983
-0.0077027725
-0.04184386
-0.03506378
-0.033965793
0.02391632
0.012648664
0.014967749
0.052133765
-0.027365344
0.028315632
0.01095516
-0.017378783
-0.038611405
-0.033370674
0.014155142
0.0147897955
0.008915743
-0.015717726
-0.0033808514
0.004149058
0.02293746
0.01239184
0.037508316
0.029378964
0.026337352
-0.004293644
-0.008067465
-0.0008197516
-0.032082345
0.02136112
0.0022175056
-0.022074133
0.02974817
0.021943986
0.019421548
0.03752493
0.031134248
0.004721479
-0.01935116
-0.012066482
-0.015669936
-0.010426831
0.02876857
-0.005610845
0.0064065363
0.028257757
0.012954431
0.007056745
0.008432462
-0.01570121
0.0051417076
-0.019666985
0.020459332
-0.0062749577
-0.01911186
0.01092227
0.008668968
-0.007333329
-0.009954506
0.022850662
-0.01942302
0.01667589
0.01066923
0.003301063
0.011688689
-0.00400241
-0.007998523
-0.0011936303
0.041588496
-0.002611179
-0.0035529726
-0.024218597
-0.049266253
-0.0033550102
0.039403845
0.009227834
-0.014755487
0.011297037
0.022942994
-0.034153536
-0.027433233
-0.0025243715
0.012662128
-0.01693817
-0.011022397
0.009325844
0.029462697
0.008320061
0.012348926
0.022274699
0.01163375
0.0018851258
0.0023490347
0.04255079
-0.0048484374
0.038054504
-0.0004018227
-0.039717846
-0.03671227
0.0009038734
-0.005086011
-0.02618623
-0.005907872
0.0067348173
0.01454003
0.04932727
-0.042053178
-0.033012055
-0.01071188
-0.03251835
0.0031920192
0.02548911
0.004191968
-0.0070905774
-0.009328369
-0.0093208635
-0.016095374
-0.0032867293
0.00029545647
-0.0064741485
-0.027991656
-0.013849196
0.0021587529
0.010753917
0.013612319
-0.00028395772
0.021642629
-0.00016725413
0.025823252
0.02338756
0.015460091
-0.013092617
0.0120506985
0.012874106
0.033210542
0.00077867054
-0.010857041
0.028478423
-0.006894794
-0.01943941
-0.0006799147
0.002413376
-0.015235793
0.011476428
-0.009914732
0.0014110985
0.0035298343
0.016560445
-0.026281126
-0.027363785
0.023051487
0.00924302
-0.04826583
0.029262453
-0.017582089
0.003971399
-0.0048170118
0.0059563266
-0.006717193
0.014123564
-0.035910163
-0.008548728
-0.006865389
0.047640834
0.018237604
0.019432737
-0.009862715
-0.045868944
-0.009526061
-0.003887298
-0.0018881405
-0.014400938
0.0060617873
0.01574359
-0.02270936
0.013730181
-0.026791476
0.013826244
-0.021496618
0.017806454
0.016723648
-0.0033937388
-0.001442801
0.008415094
-0.010296238
0.028315155
-0.02218814
-0.0005473707
-0.02583143
0.03466573
0.0019349328
-0.0088005485
0.030869603
0.025667856
-0.0149390455
0.004326204
-0.00125291
-0.02115786
-0.016001206
0.026049437
-0.016888624
0.024145382
0.00873264
-0.0067854044
-0.02528317
-0.03723818
-0.024665339
0.025511269
-0.02407001
-0.01584056
-0.016854877
-0.010578474
-0.010150507
0.01277351
0.0075429543
0.05311658
0.031161908
0.0064869216
-0.0018501703
-0.021157524
-0.012023288
0.024894083
-0.005822554
0.0076620453
-0.016022788
-0.036556736
-0.035357643
0.004481133
0.011662862
0.027726093
-0.013689478
-0.00415178
-0.011736723
0.029812038
0.015882125
-0.0015777935
0.056752227
0.011853572
-0.0059690154
-0.00018294148
-0.022022087
-0.006899157
-0.0076771164
-0.0073504923
-0.018633801
-0.011383367
0.022250483
-0.032824516
-0.023339367
-0.018783541
0.017564543
-0.009524421
-0.055609077
0.004292635
-0.020152435
-0.012144638
-0.0068531237
-0.008866934
0.016977092
-0.006516333
-0.006715339
-0.010660052
0.0068791686
-0.021133486
-0.028615385
-0.012275186
-0.012867485
0.014886211
0.0055547976
-0.009798108
0.031357687
0.0029406338
-0.04462391
0.04774468
0.02764352
-0.0061874622
-0.014569776
-0.03130081
0.010283142
-0.009353156
-0.015489457
-0.0081667295
0.0030574347
-0.013022041
-0.015242458
0.017063476
0.00842702
0.014755841
-0.016074644
0.013614699
-0.0045528007
0.0031028406
0.01931554
-0.021567993
-0.008381754
-0.035542745
-0.030119931
0.0150496885
0.037588708
0.032752495
0.0082305325
-0.056464165
0.010901243
-0.023889873
-0.032385223
-0.019759163
-0.010689149
0.036890317
-0.014834025
-0.0114269
-0.034587704
0.01904412
-0.014621132
0.0077906167
0.011009458
-0.030353198
-0.0075689587
0.02813126
-0.0042194296
-0.020397892
-0.039374724
0.01444004
-0.0068231025
-0.07603011
-0.021902123
-0.005979177
-0.010688464
0.01302835
0.027935524
0.0046513397
-0.027063724
0.036114894
0.027053736
-0.023368565
-0.00087708107
-0.0065325503
0.009199618
0.00322372
-0.010565588
0.043282416
0.0051940763
-0.01946189
0.04640654
0.04063823
0.0053791455
-0.016908612
-0.012021686
0.017635876
0.007374164
0.03561558
-0.008073705
-0.010477151
-0.012886436
0.0266912
0.00094412523
-0.048482094
-0.009925017
0.016942525
0.013200327
0.0029381826
0.020014191
-0.004530837
0.03275777
-0.008594095
-0.003148966
-0.015951388
0.0074864845
0.031841196
0.006241903
0.031443402
-0.011772545
0.018917782
-0.012263025
0.006289037
0.012673017
0.018448574
-0.01765883
-0.017497255
-0.008300758
-0.015495106
0.01224007
-0.028009066
-0.0075444025
0.018977875
0.011824213
-0.0057773027
0.045586143
0.025393553
0.0084221745
-0.0073906356
-0.0021779798
-0.0059949546
-0.0024199185
-0.017742207
-0.003940758
0.03021428
0.019050702
0.022804432
0.0043454897
0.004721369
0.027655263
0.0124956565
0.0002878611
-0.032382734
0.043536767
-0.02802867
0.013800498
-0.0036586726
-0.013738882
-0.0070360415
0.008013916
-0.017081443
-0.010718427
0.0015629011
-0.029918207
0.008676216
-0.012174692
-0.008806694
0.0037864896
-0.00703262
0.035619844
0.014707666
0.011847447
0.025731968
-0.009135791
-0.0068935184
-0.025253756
-0.039004818
-0.01238564
-0.03847111
-0.018304454
0.009765235
0.029771205
-0.012017583
0.014457514
-0.019663805
-0.014545771
-0.015621293
0.013590453
0.0028309615
0.0031704877
-0.0016969385
-0.014609943
-0.002256899
0.03753926
-0.0081496425
0.0315759
0.005146301
0.050098322
0.01606234
-0.0021420151
0.02211851
0.009277005
-0.027934862
0.011143886
0.028735952
0.0012939207
0.03482238
0.01950816
0.012477849
0.017034067
-0.02253657
-0.014203316
0.012635917
0.05930719
0.004866976
-0.007827226
0.029979596
0.010265211
0.008086625
-0.01910922
0.004554477
-0.039911993
-0.013710976
0.042531546
0.005724931
-0.009877888
-0.0062235426
-0.015434514
-0.023992347
-0.013461221
-0.005297086
0.0011961146
0.016587451
-0.0039506988
0.010589896
0.023618754
0.009446534
0.041207656
-0.008117893
0.005261557
0.0046266085
-0.042813256
0.016730338
0.0225233
0.0039899545
-0.0032956582
-0.012689553
-0.008120443
-0.010263051
0.01142309
-0.0036750939
0.008235023
0.0030650871
0.0063738553
-0.00803107
0.009816161
0.023575041
-0.00332517
-0.022728348
0.0035990977
0.013291859
0.006308069
-0.0025538253
0.003319066
-0.019974304
-0.007445949
0.040746555
-0.011795399
0.02351191
0.0012759438
0.0048876745
0.016120467
0.0021105057
0.017241554
-0.0028249538
0.017449804
-0.0022068294
0.028949363
-0.008610681
-0.010119754
0.02564553
-0.018031124
-0.016691154
0.011014219
0.022187857
-0.018272238
-0.021977982
0.0037658887
0.006832709
0.01649626
0.00216368
-0.020178836
0.015893755
0.008855504
-0.026617307
-0.033166695
0.027729906
-0.03743183
-0.022972813
-0.050030377
-0.0066537783
-0.012985298
-0.0026471033
0.015864823
-0.020114092
-0.02477167
-0.0076426244
-0.009086484
0.014984826
0.02115932
0.02092949
0.0094536375
-0.012452291
-0.011897157
0.003517165
-0.02009884
0.0046614213
0.011835356
0.00569053
-0.009590557
-0.020223979
0.01957012
-0.007834975
0.007543003
-0.0398034
0.051507473
0.010503807
0.006398996
0.024661236
0.0006464239
0.033414066
0.007857344
-0.0284142
0.0043739625
-0.0043146987
-0.011956825
-0.008347004
-0.012841463
0.0055281133
0.0026317274
0.029692098
-0.0016512627
-0.005995198
-0.013339574
0.021458091
0.0077029415
0.008539995
0.0015028262
-0.015362071
0.029131094
-0.010468193
-0.005222428
0.010954593
0.00289705
0.017220983
-0.02848994
0.0097428495
-0.009954269
0.007517704
-0.0035285437
-0.054723635
-0.012710594
0.0029718634
0.011430205
0.009492532
-0.0035638614
0.004072215
-0.0014949878
-0.0026414385
-0.027692718
-0.014491428
-0.001303297
0.02122101
0.024890222
0.006362074
0.011851637
-0.03382618
-0.020374026
0.003529735
0.009281309
-0.00955035
-0.003386498
0.029342346
0.0072949594
-0.0032972544
0.011403022
-0.024774117
0.024117693
0.009341471
0.005273528
-0.018504266
-0.0044266135
0.017437657
-0.014132127
-0.0062213656
0.012046349
0.013338063
0.01504202
0.023589952
0.0064952676
-0.012259953
-0.026470121
-0.027368685
-0.011611955
-0.017360887
0.01944885
-0.00401749
0.0118485615
0.011800657
-0.012524962
0.03693292
-0.021505207
-0.0036155283
0.019252082
-0.0041418727
-0.014139276
0.015549626
-0.02583568
0.015812643
0.02624475
0.0365952
-0.028467087
-0.007173765
-0.01897574
0.00945264
-0.0017015372
-0.0037332554
0.018546645
0.020614624
-0.007498048
0.024651889
0.007608393
0.028885478
0.0040586963
0.028981315
-0.004273819
-0.00411398
-0.0164643
0.00079926173
0.023875287
-0.032581773
0.04849977
-0.0033570349
-0.009791012
-0.03987414
-0.009822442
-0.006333727
-0.036873322
0.021009143
-0.010404041
0.0031866361
-0.001273225
0.0028986877
-0.031600475
0.015172299
-0.010870215
-0.01600041
-0.024939513
-0.02724141
-0.030503836
-0.008482985
-0.057712287
-0.03029512
-0.0065209917
-0.007664061
0.0050007137
-0.043665517
0.016878033
-0.00025248688
-0.034609992
-0.02120826
0.0017582453
0.0058712843
0.018006308
-0.0066023874
-0.002188451
0.018229853
0.0014218153
-0.028859379
-0.013837011
-0.019865032
-0.006874616
-0.005612823
0.015249776
-0.012903768
-6.918632e-05
-0.011888072
0.0015411677
-0.0025283278
0.022964438
0.03209411
0.011162742
0.02143317
0.023031337
-0.0018307468
-0.02165956
-0.061036848
0.03767177
-0.0007624256
0.02788715
-0.031153385
0.0016331087
-0.02034797
0.008484386
-0.0152749745
0.016267736
-0.0023760216
0.013969001
-0.0049164165
0.036682267
0.018582646
-0.023289654
-0.008925408
0.02489238
0.0026515343
0.013565495
-0.009123551
-0.009511175
0.018388165
-0.0111553725
-0.02683511
0.024282057
-0.04215581
-0.009514069
0.025866147
0.023536464
0.016813887
0.017479012
0.0020676462
0.00064187555
-0.026459286
0.012742628
-0.022593025
-0.04256218
-0.009797593
-0.009925882
0.019934671
-0.028526556
0.0011593495
-0.0064571905
0.0059500304
0.008690414
0.018449984
0.00025225055
0.015633041
-0.0019914
0.03713039
-0.0051481924
-0.012211137
0.012272534
-0.0048723714
0.0036574474
-0.020726753
-0.023130547
-0.036799554
0.0040483037
-0.017062604
0.008510736
0.012740655
0.005891439
-0.012502123
-0.0068813
0.0057031414
0.012290032
0.010174224
-0.032031763
0.01791526
0.035169147
-0.0041589197
-0.002892315
-0.023591433
-0.02273651
-0.0053683417
-0.008393267
0.008373378
-0.012035712
0.013612511
-0.006174341
-0.0018464403
0.0042587514
0.016949218
-0.008809138
0.013045679
-0.0071785846
0.0045606834
0.0013786944
-0.006179665
0.03773867
0.0038805827
0.0013405412
-0.0053312946
-0.004341144
0.022022579
-0.006670854
-0.07256077
-0.0042892788
-0.0006172026
-0.018080292
0.008180671
0.015148612
0.015340124
0.02642445
0.009549665
-0.005570802
0.0058152596
-0.0067024697
-0.024764955
-0.035137847
-0.01755774
-0.017482756
-0.00050707586
-0.018865606
0.022516508
-0.009759751
0.0213918
-0.01641835
-0.0006275376
0.0037391996
0.028977202
-0.001875389
-0.0045655095
-0.017567327
0.015137698
-0.03396431
0.038702436
-0.0028950416
-0.025444988
-0.009025634
-0.022658106
0.009706906
-0.021994067
0.021969633
-0.018267082
-0.019967843
-0.027229201
-0.0158771
-0.018263908
-0.018803975
-0.0058460194
0.0048974105
0.028076565
0.019097986
0.008141362
-0.0006256835
0.007655232
0.02475334
0.052405436
-0.0052730716
0.022822408
-0.019581709
-0.02396567
-0.0069692945
-0.028811881
-0.027779898
0.002117268
-0.0057995133
-0.0028602646
0.01629154
-0.025516722
0.0148769
0.021219278
0.040873647
0.0044014263
0.013828134
-0.04979744
-0.026507476
0.042803567
-0.0015532864
-0.023201577
0.0017611413
0.025199682
-0.0031636108
-0.03793547
-0.037328474
0.002388944
0.010527659
-0.010006817
-0.010686008
0.0026330396
-0.05598591
-0.0014798398
-0.049632195
-0.004520755
-0.0062396275
0.009902587
0.010881298
0.008025575
0.01286615
-0.017306065
0.016074248
-0.0041525126
-0.0019492795
-0.012691408
0.017464153
-0.027769871
0.009645286
-0.005834578
-0.008294145
0.009231416
-0.020021286
0.03382877
0.006574725
-0.0038202961
0.014072861
-0.011023615
-0.011888348
-0.012153856
0.0043745553
-0.0120081045
-0.02514064
0.028228566
0.030300727
-0.017032214
0.034032103
0.011443415
-0.005360204
0.029955635
0.027590342
-0.03033859
0.0060962425
0.063381925
-0.0032459972
0.020280566
-0.03569145
0.012294927
-0.018427474
0.02301867
-0.011514759
0.02646849
0.0070084655
-0.019505471
-0.036686346
-0.025979614
-0.026451921
0.021153491
0.0018401463
-0.053157084
0.02132294
0.023849735
0.013232134
0.037818506
0.0077547645
-0.0073169027
-0.0070960317
-0.009279938
0.005553576
-0.0064212615
0.0026038727
-0.006672803
-0.0049041146
-0.029844526
0.038057886
-0.0030584848
-0.02496316
-0.012528729
0.012037833
-0.0065019536
-0.00490418
-0.0051498273
0.01725923
-0.0073730308
-0.02124442
-0.020193443
-0.014241874
0.021748738
-0.013944185
0.006257518
0.014807877
0.00037487177
-0.006776336
-0.015245836
0.0044844
-0.019085696
-0.05093241
-0.016601186
-0.01152558
0.032129575
0.0044138003
-0.033373903
-0.023549644
0.01538322
-0.005911482
-0.009499841
0.0013868032
-0.009952006
-0.0067120227
0.0093505215
-0.010152463
-0.020849735
0.02883885
-0.031038474
0.032982696
-0.03473479
-0.0018149329
-0.0024425972
-0.021408958
0.015755726
-0.036892384
0.0386543
0.027750807
0.012347938
-0.0333218
-0.041096557
-0.023898015
-0.012348938
-0.0063116327
0.00883103
0.023937969
0.010968096
0.029854016
0.0070302277
0.008460696
0.012262159
0.0030040136
-0.03301175
-0.009157471
0.006668379
-0.011419353
-0.033821817
-0.02787555
-0.0033796763
0.0075338553
0.0067030773
0.02929952
-0.021509187
0.0012775732
0.011666388
0.02775484
0.016015444
0.026180767
-0.037668135
0.009561902
0.019612134
-0.031928208
-0.030566983
-0.0054008057
0.014326142
-0.017885655
-0.0003191256
0.017844757
0.0097856
0.018611312
0.004402846
0.04503867
0.045614958
0.026969776
-0.018923504
-0.009259423
0.019836023
-0.0013439305
0.0017088668
0.022689328
-0.0009030948
-0.016196053
0.030176613
-0.031114724
-0.029710423
0.002320762
-0.01669274
0.01409421
0.0065473453
-0.012105171
-0.023817107
-0.014673849
-0.018386645
-0.0033881138
-0.014880953
-0.024500279
0.006775229
0.008292809
0.03914916
-0.029150795
-0.0222027
-0.0055364612
0.0015971252
-0.022945369
-0.037097804
0.012691626
0.0019325489
0.020820986
0.013355755
-0.011968354
0.0081169605
-0.035164837
0.010247373
0.0023010394
0.00036558168
-0.00010971294
-0.021108445
0.00396144
-0.039218374
-0.0038893758
-0.018387185
-0.018207747
0.00094522414
0.0033581555
0.0027777886
-0.002389037
0.0023965142
0.030254403
-0.015046475
0.032794334
-0.00870823
-0.0053765248
0.033717
0.033579335
-0.030000083
0.02140221
-0.038655978
0.03664015
-0.01487799
0.00914077
-0.026987549
-0.0035512757
0.032723784
0.034015533
-0.031990435
0.011195917
0.016053952
0.0051282686
0.026815262
0.004661995
0.025395917
0.008566073
0.007443224
0.0062630503
-0.022847984
0.046881743
0.008559128
0.0005327854
-0.019919628
0.0027131066
0.0025356165
0.015815916
-0.005825656
0.013266768
0.035748262
-0.003857049
-0.014939143
0.0049214764
0.015429787
0.0070441626
-0.018098712
0.007006029
0.03379672
0.032093234
-0.012540642
-0.0067530447
-0.0007847905
-0.004045827
-0.013943208
0.010759964
-0.02720283
-0.005368106
0.028348379
-0.013037871
-0.03215498
0.035117045
-0.0155528085
-0.029363861
-0.008171346
0.014922502
0.008195511
0.012407814
-0.009917485
0.00079179276
0.015842423
0.04408207
0.021726927
-0.016533373
-0.0032514294
0.019681947
0.034387007
-0.0050720675
0.03799324
0.003502024
0.037942454
-0.011001974
0.015063172
-0.039750014
-0.017702255
-0.0042767916
0.025805766
0.018641364
-0.032365426
-0.029576898
-0.011865722
-0.014118494
0.001553708
0.003791426
0.017421206
-0.0051351422
0.010691542
0.010257178
-0.0113535235
-0.0027973175
0.021194011
0.0028376728
-0.04438228
-0.015293315
0.023984367
-0.026866626
0.002601756
0.012997266
0.025094895
-0.002168298
0.0054407236
0.026388997
0.002960216
-0.007134143
0.022287318
0.023173595
-0.017365167
-0.029474482
0.012865024
-0.03720245
-0.01600559
-0.015168007
0.008854853
0.026049886
-0.016940845
0.022507047
-0.0148135405
-0.022902824
-0.010565039
0.012488754
0.0105761215
0.008126139
-0.01234483
0.017276822
-0.019886877
0.009617128
-0.02263468
0.031756915
0.003108873
-0.004109456
-0.031739566
0.04668143
-0.017177224
0.016262645
0.012285242
0.03575254
-0.0141483955
0.01554562
0.017210646
0.008238307
0.019456971
-0.0005505534
-0.027358875
0.014769828
0.005737694
0.04473893
-0.005299096
-0.00548652
0.0382504
-0.02725752
-0.04073932
-0.00846243
-0.00020169214
-0.0032417919
-0.01607779
-0.010294181
0.030429987
-0.01427124
-0.026951086
-0.006077507
-0.0110276425
0.0075056865
0.011406197
-0.02563005
0.009652704
-0.022483055
-0.009125414
0.013834591
0.0088750655
0.018788256
-0.024175588
0.031017134
0.03208619
0.022236647
-0.009049442
-0.0028310558
0.016642561
-0.006358648
-0.0011857462
0.010344312
0.03107698
0.0046720374
0.007779569
0.0008302124
-0.0018660474
0.020845084
-0.004324375
0.00077282597
0.015088814
-0.021759458
-0.006791627
0.033497605
-0.027701838
0.0038011244
0.027245453
0.0033647886
0.012070231
0.02292579
0.05145428
0.033456683
0.022745876
-0.011795368
0.0061152834
0.0066475836
-0.0018255526
0.021428494
-0.0038494526
-0.0044931406
-0.013337616
-0.028873004
-0.021005297
-0.027384272
-0.022750303
-0.005667347
-0.040674414
-0.024689373
0.022214264
0.024293715
-0.011087155
-0.025673501
0.018833129
-0.032279983
-0.0171432
0.03354847
0.026879594
0.0066511557
-0.0047817933
0.012995846
0.0009777297
0.031056546
0.021973941
0.032640062
-0.0006071855
-0.03637031
-0.051934514
-0.021270046
0.013280413
0.0083750365
-0.016606718
-0.003248057
0.02915559
0.00065229164
-0.0004698458
-0.020482238
-0.004637914
-0.010851862
-0.0168973
0.032688532
5.081182e-05
0.00017493175
0.0108075505
0.025866747
-0.0076635457
0.01589711
0.019428205
0.029809443
0.00800732
-0.018176025
0.02570395
-0.04144902
0.0479253
-0.022046676
-0.0053857523
-0.0068708234
-0.00086230424
0.021855375
0.020649783
0.021799736
-0.010204038
0.0045207758
-0.027199475
-0.007233391
-0.0018876084
0.015153378
-0.02005341
0.025497356
-0.0010890119
-0.008390858
-0.03323927
0.0074238908
-0.034999937
-0.013327094
-0.020059135
-0.054271974
-0.0014982444
-0.028069073
0.02783605
-0.0123258075
-0.038671874
0.013521599
0.015686614
0.02863047
0.022355927
0.026176335
0.016440744
0.023029847
0.0316946
0.016784834
-0.015350576
-0.01109225
0.04144258
0.0052273446
0.010797608
-0.042403594
0.0051270337
0.0020904064
0.02238769
-0.02397138
-0.01186284
0.014142799
-0.0125431465
-0.006964341
0.0006092287
-0.013501173
0.012052423
-0.017583463
-0.025905024
-0.001319596
-0.011079445
-0.010445668
0.012076382
0.024700858
0.001185579
0.007900543
0.0010335649
0.00020452258
-0.010718541
-0.002616806
-0.0049878466
-0.02258307
-0.03481553
-0.0378786
0.01889443
0.0062767845
0.025430791
0.00013496233
0.001680519
-0.001600171
0.009988385
0.0015757963
0.010477757
0.030866994
0.017675048
-0.032487176
-0.008641555
-0.056285948
-0.010725294
-0.019909285
-0.019726338
-0.0099338945
0.031170363
-0.01220976
0.019024462
0.049303524
-0.00712564
-0.006003791
-0.020022942
-0.04492036
-0.02076849
0.004553446
0.0033704864
-0.028853234
-0.005304831
-0.0072736447
-0.034043044
0.030445885
-0.0077227424
-0.021326328
0.021546818
0.016478056
0.008577796
0.0038719287
0.014622201
0.043136634
-0.01307191
-0.008523008
-0.006338342
0.035844605
0.014610735
0.004177626
0.0038061498
0.0018798403
-0.0021674347
0.008197718
0.00037203668
0.0016950422
0.01120766
0.036029037
-0.0014843941
1.8683722e-05
0.005156423
0.009207729
-0.0051278905
-0.0022105689
0.062460583
0.025621703
0.010688216
-0.035457097
0.011740329
0.006491276
0.029957896
0.015857657
-0.009466341
-0.043691657
0.014262657
-0.027004585
0.02536703
0.017030867
0.011185
0.0176623
-0.0077717616
-0.019594992
0.020125575
0.01760458
-0.030715782
-0.0030538924
-0.014651318
-0.006522119
0.0038704432
0.008469519
-0.0071272235
-0.0037124741
-0.007697127
-0.018874027
0.014840153
0.001262027
-0.021047633
-0.008634555
0.028359499
0.012501955
0.019672304
-0.024201006
-0.019942239
0.0065273577
0.00923474
0.05823858
0.019110313
-0.0011767409
-0.0074262484
0.012250548
0.0040341425
-0.00082263566
-0.009739737
0.034857586
0.0040254886
0.0178327
0.012088294
0.03863883
0.016196584
0.030481998
-0.028534159
0.0046621347
0.042515438
0.02209837
0.0045463764
-0.04546263
-0.0067439256
0.026567604
-0.008075804
-0.024375955
0.02643704
0.028114557
0.03145785
-0.008800811
0.018154321
0.014848242
-0.0015087981
0.0074852854
-0.040366888
0.0062380815
0.02965232
-0.010061363
0.00479323
-0.014690179
-0.019827873
0.0020424158
0.0048322785
-0.007415346
-0.0353419
-0.020127537
-0.012488026
0.0051540015
-0.0043089855
0.02198068
0.018857906
-0.007541412
-0.026851807
-0.022334818
-0.0047439467
-0.004165518
0.023147097
0.00062941766
-0.0021534392
0.029092306
0.023123411
0.031318404
0.02173887
-0.0046902276
0.03140241
0.040296476
-0.00077977125
0.004111914
-0.004545518
0.012392859
0.008299178
-0.0088004125
0.020103289
0.01241639
-0.029766401
-0.022481509
0.025018908
-0.005201048
-0.041357078
-0.031314693
0.03176373
-0.047567304
-0.00824006
0.026221609
-0.0067166174
0.016781265
-0.00952068
0.0066276
0.018062444
-0.0052605937
0.009221913
0.01203213
0.029421631
-0.0038371582
-0.014195519
-0.011446761
0.023235299
-0.001819241
-0.0009494751
0.0025880923
0.02753649
-0.012556358
-0.023299756
0.0048716194
0.0025672724
0.01591493
0.026759176
0.011342536
-0.019644842
0.001243857
0.005457479
-0.012266297
0.06367921
0.012369786
-0.0107463505
0.016169189
0.012780188
-0.01591298
-0.019240703
-0.016251666
0.02291647
0.00836228
0.03335774
-0.007816274
0.031007743
-0.0051716357
-0.00824221
-0.0028981122
-0.018973438
0.009807122
0.007627471
-0.0039413185
-0.019710856
9.693145e-05
0.01953618
0.015111779
0.0034550775
0.012258717
-0.0044969236
0.0027998735
-0.0057832142
-0.006424691
-0.0047563226
0.011601857
-0.036235314
0.03661695
0.023676608
-0.024464263
0.02493914
-0.01878854
0.03381745
0.0037865504
-0.0035104607
-0.030168401
0.010621242
-0.012428847
-0.020502187
0.027547592
0.020596582
0.06595015
-0.03870156
0.012810684
-0.0003851019
0.033761468
0.054950792
0.003591855
0.03170161
-0.060503773
0.03579693
-0.014336836
-0.027057655
-0.013531745
-0.0036944195
0.024376648
-0.012473807
0.0068291295
0.0010848133
-0.013787586
-0.007908993
0.0014516697
0.011290603
-0.0041542603
-0.025072753
0.019456357
0.024888659
-0.0012059557
-0.00014402268
0.012583401
-0.015126963
4.9316597e-05
-0.005338816
0.016804365
0.04210671
-0.014715531
-0.0063501094
0.0052066008
0.009705613
0.005236017
0.01597522
-0.019076629
-0.005201287
0.0114932535
0.0061901044
0.01593701
0.023070892
0.0060197166
0.032950103
0.0110046035
0.022598539
0.0006306701
0.022126073
-0.016944624
0.021364478
0.009493108
-0.023328554
-0.016702725
0.011152073
0.058973916
0.025566688
0.0043215295
-0.027984196
-0.01748721
-0.013650703
0.008397111
0.007373499
0.0012258693
-0.017588291
-0.027327806
0.025019724
-0.0064073247
-0.016331963
0.032283764
-0.025623908
0.020115394
0.009294961
0.0064152256
0.031426273
0.0096434625
0.0064151967
0.014480951
-0.016245555
0.020065196
0.032035
-0.01002293
-0.003914975
-0.015768347
0.014685274
0.01261566
-0.0036930647
-0.02161284
0.007607592
-0.00986278
0.007176483
-0.04459337
0.021842446
0.021538636
-0.015688352
-0.022296228
-0.04272427
0.026795318
-0.016378446
-0.0035928611
-0.016975503
0.0007801256
0.072321154
0.0040755556
0.028402166
-0.015469672
0.018850245
0.004124312
-0.036186848
0.0062258667
-0.0052730525
0.007018894
-0.008228347
0.01654402
-0.010253541
0.014518755
0.030906998
0.032543022
0.020509051
-0.011704051
0.008908976
-0.017645555
0.014980568
0.015063392
0.03568899
-0.001593213
0.0019394184
0.034104105
-0.019854948
0.008636845
0.028184509
0.04180386
0.033460077
0.005012981
0.036479384
0.0051634926
-0.019417863
0.008036773
0.019890001
-0.025170961
0.026069881
0.0071113682
-0.007130837
0.0150119085
0.021843648
-0.005359071
-0.014172386
0.008467038
0.010239922
0.021644864
0.0046120505
0.029107144
0.018804092
0.02131778
-0.024916679
-0.008572278
0.008186911
0.024816288
0.037306808
0.0027080723
-0.016426146
0.014048336
0.027652211
0.028226366
0.0074960915
-0.021441486
0.026754502
0.05649937
0.031819295
-0.011765495
-0.0011507069
0.014075264
-0.00083978084
-0.03977487
-0.017275708
-0.040522896
0.013172794
-0.037289567
-0.02547345
0.0072409306
-0.00126389
-0.03299937
0.0033048533
-0.02903889
-0.011357036
-0.00079828553
-0.014896895
-0.020558352
0.029899906
0.0065459996
-0.0073425747
-0.009751223
0.0069248634
-0.019725008
-0.011727002
-0.010432188
0.016356522
0.008906316
0.011633121
0.010386007
0.027097687
0.02502251
0.014835171
0.017817806
0.0010632806
-0.009828551
-0.00878922
0.017511157
0.0002759107
0.013539846
-0.0069160573
0.010194213
-0.017510254
0.0010711725
-0.0045862133
-0.0039343266
0.0075095682
0.00897327
-0.00354706
-0.029318053
-0.025115468
0.0053447667
0.047161657
0.018599352
-0.00226095
-0.015682302
-0.047605146
0.013503488
-0.016018918
-0.020027682
-0.019495118
-0.0024427064
0.01127751
0.011263777
-0.00617769
-0.005852657
0.0020157404
0.014911576
0.03836061
-0.0157074
-0.08221155
0.030237498
0.034722667
0.023313168
-0.0041409354
-0.0010776846
-0.013651375
0.018393056
-0.023602044
-0.0047086147
-0.0029062075
0.012017555
-0.007389142
0.003460149
0.0068997084
-0.022429552
-0.0143804215
-0.011750986
0.0021442987
-0.032782283
-0.0038427615
-0.016909825
0.014804242
-0.034182332
0.0105153425
0.01912205
-0.0115212165
0.020109858
-0.00507057
0.029074563
-0.038465973
-0.010694023
-0.011655481
-0.02244209
0.033385843
0.010212389
-0.014391267
-0.009986811
0.010173074
0.027198413
-0.053313434
-0.008897808
0.021092564
-0.009412399
0.0117003955
-0.009836695
0.007741808
0.0049131876
0.005659135
0.0519796
0.017667193
-0.004474166
0.0059771286
-0.041593436
-0.018532353
-0.020575166
-0.009242167
-0.0060507795
-0.014353252
-0.0032621878
-0.014417475
0.009868675
-0.04255527
-0.02168458
0.012141551
0.022359848
0.023669643
0.0022577045
0.0067596114
-0.014357952
-0.013664629
0.008316598
0.011180942
0.019670881
-0.007523795
0.006767612
-0.0017831458
0.0015377798
-0.01947554
-0.0013444447
-0.0063010827
-0.0044413595
-0.00890823
-0.006449587
0.004564225
0.011992731
0.039731793
-0.0039761765
0.0023885102
0.007737943
-0.0034176016
-0.024537189
-0.016131593
0.03167436
0.0026344422
-0.025949113
-0.009705498
-0.034734774
0.034657117
-0.00828227
-0.032458477
-0.0036730724
-0.0059474665
-0.013293612
-0.026092753
-0.013043847
-0.017236713
-0.0073512136
-0.0020699026
-0.018422846
-0.0010815336
0.016782323
0.03825158
0.0006752494
-0.029152114
0.02299985
-0.018245503
0.025169369
-0.018483523
0.0014640569
0.0006412723
0.0043809465
0.04317466
0.021706734
0.012477717
-0.0012561377
-0.0022476178
-0.011362632
0.02649873
-0.020538317
-0.0021483437
-0.04075679
-0.015090136
0.016885364
0.0023221627
0.018273532
0.032540318
0.0014928714
0.007412536
-0.013215069
-0.005672044
0.035540085
0.01011133
-0.019775411
0.01377773
0.010793721
-0.0008279958
0.0060781627
0.026407488
0.007916935
0.0056839655
-0.0031441057
-0.02164673
0.009312132
-0.029190166
0.030987995
-0.034621242
-0.0010877291
-0.019021308
0.021602282
0.006472576
0.0101617575
0.0074439947
0.031824436
-0.043561872
0.028904116
0.019981071
-0.0016848606
0.031274643
0.006928719
0.037250023
0.015923377
-0.030591695
0.011720045
0.0384389
-0.014365639
0.014842159
0.004459374
0.007802407
-0.0003297016
-0.012410889
-0.004836933
-0.011235302
0.009809008
-0.0044791126
-0.03024098
0.03352698
0.024925798
-0.013891936
0.01562571
0.0101534845
-0.017402807
0.013487339
0.0037286838
-0.015145124
-0.007967542
0.014309958
-0.01204648
-0.029048417
0.018609073
0.011186598
-0.010528348
0.0038884182
0.012472704
-0.019905115
0.0016557229
-0.020394182
-0.011462508
-0.007847849
-0.025965443
0.024922708
0.029683862
-0.035750743
0.02443438
0.004130722
0.018449467
-0.02378108
-0.009109095
-0.02209101
-0.016112067
0.010668103
-0.00635753
0.023817487
-0.01121882
0.017055552
0.022154786
0.01448372
-0.01815319
0.009414155
0.003594169
0.048841156
-0.028307652
0.00462644
0.023487767
-0.05077749
-0.0039963727
0.03064356
0.0019283409
0.0028663569
-0.018697951
0.0066304016
-0.03655835
0.050655015
0.008560464
0.002854838
0.005686082
0.009721584
-0.011328991
0.00041953853
0.0053914413
-0.014844835
-0.012970626
-0.038634427
-0.02347088
-0.012668648
0.012743952
0.0054750363
0.031612292
-8.164323e-05
0.017992308
0.0033269462
0.021743625
-0.0051379376
0.021798141
0.021492535
0.0032451185
0.012998392
0.012940893
-0.014721021
0.008080859
-0.03925235
-0.015640913
-0.012717265
-0.0053679347
-0.003999823
0.014028255
-0.018623527
-0.0065201144
-0.013040067
0.03035164
0.023669017
-0.010097501
0.01499576
-0.010338848
-0.009966059
-0.009066734
0.004185353
0.00521608
-0.045568183
0.012895688
-0.020867275
0.021223528
0.012187393
-0.0046828226
-0.015676266
0.003838553
-0.012239707
0.002160755
0.015190033
0.00241054
0.016867131
-0.04078371
0.04466056
0.026052663
-0.0049821003
-0.0032961634
-0.0020769432
0.009351944
-0.0031843602
0.040114306
-0.020550715
0.026698926
0.004898999
0.0110329585
-0.022709882
-0.030010121
0.012159869
-0.009301924
0.005817721
0.016719216
0.005105581
-0.004969069
0.00092168205
-0.024388587
0.014137741
0.012533113
-0.013214142
0.021931145
0.006559008
0.00282687
-0.0039125476
-0.024515536
-0.008315097
0.0061898488
-0.016812729
0.019149631
0.018865492
0.012574922
0.0029417216
0.023490762
-0.044602368
-0.028998446
0.023869423
0.0015018292
0.008201585
-0.01803077
-0.044627417
0.039452977
0.030174155
-0.010043176
0.014916948
-0.017513055
-0.007871307
0.01491396
0.012851339
-0.015449043
-0.0055273906
0.024080412
-0.027528597
-0.009148534
0.03832845
-0.044635177
0.005098909
0.01981819
-0.03293602
0.06936708
-0.0016053645
-0.028925752
0.029600095
-0.060466938
0.005965331
0.00125825
0.025970114
0.011735792
0.025857568
0.009887846
-0.0066860113
-0.030609703
-0.03386148
-0.0017268414
0.03507125
0.009933725
0.022787223
-0.016573036
0.018399835
-0.017250715
0.011604902
0.019430859
0.026567992
-0.012874176
0.019383814
0.002445282
0.03225428
-0.020573175
-0.009489366
0.028679434
-0.015061205
0.014291036
0.0054476983
-0.0014931192
0.0077428566
0.02300684
0.035313
-0.0014463922
0.010270613
0.02897357
-0.012709997
0.01465872
-0.01825739
-0.01827064
-0.009605415
0.006630121
0.015772643
-0.013012011
-0.00019314302
-0.003190345
0.008006393
0.015777169
-0.015621722
-0.017492332
0.010107958
-0.016925152
0.008096681
0.011572499
0.018824942
-0.002417812
0.0082620485
-0.008312898
0.0012624229
-0.009484548
0.0021978684
-0.0041548396
-0.008767894
0.013979627
0.009277431
0.003092993
-0.034078497
-0.030412406
-0.00660729
0.022218978
-0.042837024
0.012558946
-0.0107716415
-0.009067512
-0.005921428
-0.0114256665
0.042610787
0.009139203
-0.02477387
0.010374947
-0.013921972
0.009817898
0.0010305002
-0.020908495
-0.006048743
0.020244258
0.022210903
-0.014519212
0.009801151
-0.00017838452
0.03103614
0.001855136
0.030522859
0.026167184
0.010226796
0.0025329343
0.030083438
-0.030102303
0.002403283
-0.022010641
-0.037424795
0.03835146
0.0071265446
0.025656905
0.021822361
-0.02746133
-0.0017658006
0.03378803
0.0015979726
-0.0058266334
0.013530557
0.04169207
0.0011080083
0.028586358
-0.00031522888
-0.015744042
-0.022208693
-0.019717034
0.0179445
-0.008756095
-0.03459066
-0.0023393892
-0.0027300941
0.020708725
-0.016862448
-0.010747632
-0.0134250205
0.014358191
0.01304375
-0.029858747
-0.0054848823
-0.008791726
0.04218042
-0.019431807
-0.03801404
-0.0029332472
-0.043070316
-0.018702628
0.011795457
-0.007582167
-0.018558921
0.0014169783
-0.008135086
-0.025003685
-0.022892306
-0.021094399
-0.016761107
0.007314059
0.028563306
0.015464551
-0.004094842
0.048879933
-0.023841152
0.00483396
-0.006708689
-0.008336261
-0.014887452
0.017283574
-0.018866034
0.02346817
0.015844643
-0.014866425
0.007117127
-0.018981518
-0.0142068155
-0.00039278372
0.0046312744
0.013753649
0.01075746
-0.022823626
-0.0023225727
-0.0023332674
-0.00010818612
-0.03682973
-0.018776245
0.023934262
-0.027532054
0.004328321
-0.0076950695
0.0056607896
-0.011487549
-0.021098478
-0.009572643
-0.017826203
0.022094132
-0.017010925
0.0011632325
-0.002800876
-0.00628686
-0.036518868
-0.0042916266
-0.010510398
-0.00804334
0.016245268
-0.0029944228
0.015386235
0.016318325
0.03932137
-0.010747045
0.0067363903
-0.008554151
-0.028190698
-0.029719261
0.024840113
-0.041741442
-0.009227422
0.026622467
-0.0026747158
0.021900527
0.022895023
-0.011510097
0.021677546
0.037310064
0.005068247
-0.014085483
0.018846478
0.009205246
0.007059869
0.0055628
0.024065675
0.016527515
-0.007251794
-0.01941969
-0.0019193023
-0.040357232
0.029056197
-0.05720251
-0.023670895
-0.00045909692
0.013155307
0.03317515
0.020718414
0.010792295
0.057131708
0.0012295946
-0.0049762987
0.004192348
0.0035482424
0.010868164
0.0062487167
0.009854419
-0.02735477
0.0041071665
0.018187385
0.0076020067
0.0166991
0.03441807
-0.0025438806
0.022975909
-0.009012953
-0.009675323
0.005342838
0.004847942
-0.010769932
-0.004522428
-0.002776142
-0.027604505
0.0025413465
-0.0015220101
0.008740084
-0.012740856
-0.01139043
0.0029123202
-0.0009280737
0.008234939
-0.009445782
0.036582854
0.018233508
-0.0042286823
-0.012975698
-0.015171498
-0.010231243
-0.006882387
-0.009621418
-0.0148741305
-0.0013673279
-0.03314125
-0.019263888
0.01935637
0.019314704
-0.035551086
0.008519019
-0.01946647
-0.010240636
-0.037527017
0.020795798
0.02012013
-0.0047854283
0.016457655
0.014870516
0.008686355
-0.009585472
-0.0054574907
0.025479423
0.0031501758
-0.009508625
0.0047020516
-0.0062080235
-0.017888239
-0.008156031
0.029803406
0.017533442
-0.0075187725
0.043948624
0.005277617
0.027639536
-0.018865218
-0.0151634
-0.00011020318
-0.01064886
0.026047966
-0.015284518
-0.02783246
-0.013391561
0.0064482274
0.0014282598
0.024552109
0.034280892
0.0104060015
-0.037035763
0.028970694
0.03957946
0.014820258
0.045868866
-0.020578258
-0.034006473
-0.008144209
-0.011365282
0.0147668235
-0.014431023
-0.01574673
0.009770908
0.009175688
0.0050553
-0.0036907059
-0.025759248
0.0009993715
-0.008774893
-0.006283381
0.027819442
0.0074348385
0.0071962606
0.0369915
-0.051098075
-0.015089712
0.020331291
0.004928759
-0.016146846
0.012336966
-0.029587576
-0.016930468
-0.0011125001
-0.0045409463
0.012732837
-0.003093959
-0.00086638
0.010033569
0.03760942
-0.025340628
0.030247776
0.00544296
0.0017994968
0.0006809771
-0.0001884252
0.034737285
-0.0054491954
-0.013224049
-0.0043876246
-0.010145776
0.011284008
-0.011786957
0.015502095
-0.014838164
0.020410221
0.006019082
0.044059552
-0.0035549642
0.039382745
0.004813488
0.00064384995
0.012205057
0.025812574
0.015055835
-0.02047331
-0.019365173
-0.0032760026
0.010443717
-0.0025705807
-7.505698e-05
-0.029119888
0.012697744
0.03610235
0.012584116
-0.00021879736
-0.028144525
-0.021222048
-0.049328428
0.009129286
0.0056686834
-0.0130081475
0.01585371
-0.007945318
-0.031408038
-0.0013311799
0.00989738
-0.029828876
-0.0023639891
0.009158007
-0.007681614
-0.0016269031
-0.018959075
-0.01948355
-0.010540278
-0.046366666
-0.0140705
0.0162638
0.024347803
0.028352115
0.018935744
-0.004742003
0.008391819
0.018888803
0.016792815
-0.015063303
0.027700137
0.027190456
0.018575678
-0.009870779
0.014840332
-0.015086499
0.038482934
-0.0048885033
-0.0057840687
0.011941438
0.029694201
-0.0010265883
0.028933138
-0.011907673
-0.048047967
0.007828622
-0.0021643175
-0.0010425062
0.014132881
0.013032011
-0.035521105
-0.007553949
-0.0042541274
0.0104061365
-0.01735497
-0.007905513
-0.015333768
-0.011523134
0.016363261
-0.009616604
-0.027528929
0.03822865
-0.0017117368
-0.027012846
-0.02872709
-0.0038201942
-0.038000025
0.012752418
0.017088715
-0.0322604
0.04933901
-0.004356225
0.00539493
-0.015438579
0.019224016
-0.02251065
-0.010638049
-0.0014464711
-0.031871166
-0.016808987
0.03515691
-0.018321939
0.00012702314
0.011011903
-0.025239285
-0.009518752
-0.010612718
-0.0061711213
0.043903507
0.018158333
0.020662451
0.022403855
0.017138653
-0.003158971
-0.0057394486
0.026137413
-0.015385131
0.010981159
0.0087452335
-0.008728052
0.016896151
-0.0020076106
-0.023177957
-0.004686321
-0.0076033007
-0.013475571
-0.02928917
-0.012973216
0.014548989
-0.01460608
-0.012489793
-5.4696142e-05
0.025635233
-0.056113265
-0.01758668
-0.001475065
-0.0004961445
-0.01723294
-0.0071254796
0.003781839
-0.004524687
-0.001915432
0.002317507
-0.02056278
-0.015760826
0.00777698
0.027383182
0.028035779
-0.015863825
0.018014468
0.017709004
0.015985003
-0.001109157
-0.016530046
-0.02712388
0.026138382
0.017679721
-0.0018734536
0.0030825436
-0.01551942
-0.007268005
0.019749697
-0.012938418
0.007382469
0.036219668
-0.045727085
-0.022214025
0.015033833
0.00071762374
-0.0035904115
-0.021246327
-0.018466352
-0.005968347
-0.036430445
-0.014285829
0.0074996087
0.0138889225
0.0020237342
0.018763816
-0.009125522
-0.023737613
0.014287689
0.0122298235
0.016873812
0.017834688
0.018789537
0.009587456
0.0013100768
-0.005453106
0.032552004
-0.0077126333
-0.023992443
0.017750688
0.047757056
-0.021306867
-0.0036261117
0.006674656
0.048833355
-0.011273573
0.010562662
-0.0031846883
0.0008161881
-0.022433845
-0.01815593
0.022983471
-0.021907322
0.028322974
0.021310117
0.012338988
0.025043342
0.013694186
-0.011903032
-0.014002053
0.014626151
0.039175235
-0.012360867
-0.033106957
-0.045634955
-0.00787103
0.0336996
0.0074929222
0.009177123
0.030826045
0.00043665385
0.015973844
-0.024583101
-0.0093482025
0.05308131
-0.013223033
-0.017058311
0.020361023
0.021125639
0.009916594
0.022281513
0.011580487
-0.0004912262
-0.004542083
-0.017037006
0.03583689
-0.008061724
0.0032307818
-0.012690026
-0.011143563
0.011800046
0.006609453
0.0042760856
0.021816816
0.017243844
-0.0063190567
-0.018867467
-0.006239121
-0.0024923575
-0.017026857
-0.035321932
0.014970094
-0.0054625445
0.011664857
0.009645003
0.0011490507
0.025735043
0.0034366483
-0.014294427
0.0009871792
0.005900809
-0.013430772
0.0037769473
-0.042344097
-0.0060888724
-0.011983795
0.011165945
0.0057691718
0.03285884
-0.01970379
-0.03478562
-0.016286362
0.021243338
-0.005430933
-0.00334772
-0.0040288013
0.018521713
-0.014381142
0.01995499
-0.0066542802
0.03792186
-0.0012546884
0.0070374375
0.0062927143
0.031561192
0.028066937
0.03453704
-0.005823204
0.016553555
0.003981198
-0.023834782
-0.006818372
0.002045321
-0.015170374
-0.015754325
0.028869659
-0.008118497
0.0077787605
-0.017358866
0.0072734547
-0.022820868
0.00064692175
-0.008467113
0.0032828322
0.008095932
-0.0067788586
0.021613982
0.012879868
0.023211585
-0.012187502
-0.017342277
-0.007507376
0.010676108
0.019666666
-0.021699855
0.018376328
0.012625895
-0.02106933
0.016789284
-0.012522169
0.022834623
-0.0051316097
-0.027008198
-0.0037511569
0.0068759904
-0.010169738
-0.050788634
0.00481357
0.0136099
-0.006179481
0.00022186445
0.012688609
0.013642334
-0.019631702
-0.022256939
-0.0076361457
0.018973172
-0.009345053
-0.01775797
0.062735364
0.0018986203
-0.011151916
0.0029083127
0.013365784
0.009798994
-0.018967997
0.021873878
-0.04821234
0.042365186
0.021087656
0.033200946
0.036579106
0.008899288
0.0281004
-0.020145936
0.013845691
-0.010472618
-0.0053711715
0.021369513
0.034684747
0.0019911765
-0.008112987
-0.014413997
-0.027121633
0.005221024
0.015537333
-0.0008632111
0.027032627
-0.018486185
0.0055243825
0.026052872
0.012848877
-0.006805184
-0.0041391454
-0.020350968
0.00044379977
-0.0041819136
-0.01932118
-0.018299969
0.010134421
-0.007825595
-0.007187239
-0.009661087
0.036672816
0.004509873
0.0062768864
0.006738921
-0.004469368
-0.0145802
0.018843316
0.021607121
-0.027701098
-0.01067368
0.012085627
0.0084577305
-0.0031985806
-0.04631452
0.040453613
0.012660207
0.022307687
-0.023713063
-0.020916108
0.0023164642
-0.0045719487
-0.04218234
0.01242581
0.013639272
-0.016386025
0.02270801
-0.029826941
0.004625409
-0.047149375
-0.0127257705
0.004598331
0.019593915
0.03332583
0.03277442
-0.024834987
0.018164799
0.02579226
-0.009328818
0.0045852275
0.013082177
-0.021466283
-0.02742829
0.008716923
-0.0044167195
0.00037963886
0.012121828
-0.0034435638
-0.038083807
-0.007388277
-0.010115138
-0.017572416
-0.032634538
-0.014151065
-0.044704992
0.027189828
0.014100243
-0.0013344344
0.0053631268
-0.01967451
0.014450099
0.02686248
-0.00011825533
0.016337031
0.013299759
0.0024019517
-0.0337398
0.00211816
-0.00080437184
0.031946637
0.025569161
-0.009639616
0.003974903
-0.0071287933
0.01510389
-0.017144186
0.029799676
0.020046942
0.03094086
0.025432333
0.010230002
-0.010767487
-0.0002120842
0.0050404444
-0.009631596
0.0011216204
0.025922623
0.0077321557
-0.018971179
0.0043268274
-0.014263239
0.0070811617
0.018628297
-0.009617839
0.0049540396
-0.0141231725
0.020491462
-0.033242896
-0.011486842
-0.013595799
0.012308832
0.012080513
0.0066128485
0.042721033
-0.004128626
-0.027396802
0.004117376
0.010621854
0.00070553756
-0.010076566
-0.027812978
0.012891986
0.0074534314
0.014998548
-0.0076119057
0.02586085
0.015076933
-0.013681412
-0.012645671
0.02393558
-0.01889327
-0.0030789443
-0.007635432
-0.019882629
-0.0068949037
0.015420222
0.038090553
0.03541844
0.019974867
-0.01438045
0.042164754
0.0027625703
0.00635227
0.015819583
-0.026680887
-0.02478809
0.012345546
-0.010992016
0.028935108
0.028525846
-0.014663586
0.0022411842
-0.019045383
-0.022781087
0.009964029
-0.020019326
0.020745195
0.031822134
-0.02976357
0.0023041517
-0.036214665
-0.0007238918
0.008526039
-0.015985018
-0.031019062
0.02201544
0.009088909
-0.03829966
-0.015641987
-0.007483436
-0.0046852734
0.0155351255
0.014843787
0.009868932
-0.0009874064
0.040469877
-0.028302481
0.021046681
-0.004493511
-0.0032910192
-0.011680999
0.00045012578
0.03083776
0.004753577
-0.0024338728
-0.02559552
-0.0031080302
-0.0048709107
-0.013291513
0.033576835
-0.009845676
0.0041558696
-0.0048017735
-0.011265959
0.009595121
-0.0045031076
-0.027736578
0.015866958
0.016542034
0.01600816
-0.026005987
-0.007805186
0.002960219
0.0075033098
0.036164127
0.005187054
-0.037581716
-0.026669335
-0.0030953877
-0.05328564
0.023435758
0.024070062
-0.0133308815
0.020409111
0.009620221
0.009350103
-0.030817932
0.028170738
0.020862874
-0.018791527
0.01576939
0.009370623
-0.019878631
-0.012322492
0.011812229
0.011972929
-0.028997647
-0.0074539063
0.014893435
-0.021634275
-0.0050058803
0.004674706
-0.0024864487
-0.0013540065
-0.013042438
-0.016239999
-0.02074366
-0.0056156088
-0.03927673
-0.022337658
0.016610093
0.052956298
-0.023647273
0.0043251966
0.041012492
0.01716633
0.020381562
-0.010100003
-0.024601651
-0.0271418
-0.02159891
0.015461216
-0.031009104
-0.008007018
-0.022263786
0.04913079
-0.026269695
-0.047574762
-0.019460728
0.008156195
-0.020597255
0.0038741184
-0.018287169
-0.014513138
-0.0076947096
-0.026883824
-0.008180682
-0.038580928
0.03944348
-0.0014273428
0.005531378
0.016245281
0.013112849
0.010553887
0.014579876
0.0051470706
0.0020363254
-0.013842669
0.032647666
-0.034904636
0.033003923
0.014462446
-0.038237534
-0.0038249583
0.0025212886
0.0053181294
0.013750741
0.024834123
0.027013425
0.019506048
-0.012711523
-0.031495675
0.014714933
0.044631198
0.015167185
0.03358394
-0.019338567
-0.013554426
0.034944806
-0.014902471
-0.014567292
0.034417484
0.011521505
-0.013065053
-0.033808775
0.007180272
-0.0047980375
0.00022625584
-0.025200495
-0.01769837
-0.002721806
-0.028400222
-0.0022174886
0.0068446347
0.010467382
0.0016698504
-0.003394818
0.017354582
-0.013698424
0.007919396
-0.00023294336
0.025595078
-0.0043353396
-0.0002485004
-0.0058157975
-0.0044993456
0.034342773
0.0060053957
-0.026293777
-0.016472433
0.011216394
-0.007977443
-0.01602934
0.005063464
0.032080885
0.017723644
-0.016500175
0.016767807
-0.0034159953
-0.031071743
0.012886338
-0.0039777723
0.01573447
-0.013733766
0.008815105
0.014656999
-0.0061884997
0.0066500953
-0.024142915
-0.013935351
0.017028227
0.00032244742
0.007832775
0.0118494965
0.03693853
0.02079075
-0.013174196
0.0069389683
0.0059152273
0.0058529526
0.024927028
0.0058446485
-0.024847627
-0.015779234
0.0114092035
-0.014677667
0.020138152
0.023728715
-0.010564499
0.0097511085
-0.013168729
0.0018782318
-0.013423001
0.0064835823
0.021654034
-0.017436666
0.0003739568
0.019004395
-0.002446189
-0.04174477
0.020844858
-0.010406988
0.02147816
-0.032367524
0.00942584
0.010844923
0.024434881
0.0033891308
0.0061722314
-0.006016338
0.0018680635
0.0034703182
0.015645979
0.0117764175
0.009114478
-0.03538548
-0.034776542
0.013208156
-0.0029133947
0.017236862
0.029426511
-0.037444234
-0.014875809
2.7331653e-05
-0.001718933
-0.03743772
0.014484242
0.0027323784
0.025685553
0.00014757055
-0.03804452
0.0025200485
-0.010656291
0.001483418
-0.02503628
-0.0072452645
-0.00037431557
-0.030647129
0.015083148
-0.007115616
-0.030502163
-0.007946194
-0.008663087
-0.025927335
0.04520452
0.0096233925
0.024269436
-0.0056913984
0.005722144
-0.0021008777
-0.004328421
-0.023863014
-0.01597889
0.008819888
0.003537928
0.0024391557
0.015874714
0.035576276
-0.0077507324
0.0051177014
-0.0025274125
-0.045081113
0.011641458
-0.023195548
0.013032819
0.008479347
0.0038292056
-0.013608261
-0.0016528853
-0.015456681
0.0042568278
0.0017952302
0.008367488
-0.023583293
-0.025741378
-0.0143574495
-0.032844048
0.00039888345
0.036010668
0.012528217
0.010130635
-0.015692161
-0.017926559
0.008623229
0.011019154
-0.041954707
-0.005139737
0.010541979
0.05459149
0.020365477
-0.010263032
0.005451582
-0.0018900468
-0.029907435
0.00555975
-0.009951974
-0.02562823
-0.003480727
-0.005507923
0.006212706
-0.0011114652
-0.029921738
0.00506611
0.017945882
-0.019926663
-0.0073567256
0.014228711
-0.005403431
0.0010603532
-0.01025105
-0.017068725
-0.009825742
0.002213942
0.0027037563
-0.014785816
-0.010970654
-0.022911686
-0.0273427
-0.0044349506
0.01622059
0.0092388475
-0.0012176178
0.016579865
0.0032699509
-0.01701896
-0.009649017
0.012370004
0.0034139818
0.0036732447
0.018473752
0.009662991
0.030548941
0.017558744
-0.023758369
0.05121589
0.022360027
0.010782669
0.0017058285
0.03363168
0.004594273
-0.011464698
-0.021895003
-0.0057228873
0.013819693
0.026972387
-0.010270388
0.040725425
-0.0017974827
0.016343568
0.02640803
-0.05788993
0.017254319
-0.0075313817
-0.014023263
-0.0010513804
0.022619719
-0.0049949167
-0.0022240414
-0.019539893
-0.0010506775
-0.03315164
-0.025473844
0.014984022
-0.0073340093
-0.0074780416
-0.010076963
0.019875508
-0.0320851
0.028992467
0.01775756
0.0020215313
0.0046081697
-0.00027554625
0.03304094
-0.016166134
-0.03891017
-0.016456727
-0.012721029
-0.033652578
-0.02080017
0.01697806
0.012963818
-0.00612316
-0.0068116155
-0.009229786
-0.029419886
0.016023928
0.00827304
0.0069355885
0.02858389
0.005204495
0.002949929
-0.02095783
0.007086685
0.015118005
-0.019715628
0.022571847
0.022313565
0.030959802
0.0050333124
0.0059373006
-0.0036937417
-0.011865025
-0.009574073
0.0060223434
-0.0042492994
0.018633526
0.014113741
-0.0014299356
-0.01069841
0.019187778
0.015918965
-0.013674865
-0.0049897525
0.014769937
0.01024623
0.0045875804
-0.029547777
0.018933814
0.0044838837
-0.01604004
0.0027479918
0.03946846
0.0017337173
-0.004467318
0.029552834
0.02352179
0.0059748697
0.013127838
-0.0029825538
0.0405394
-0.005485739
0.0074013816
-0.040279582
-0.018156664
0.027370283
-0.008928235
0.029747277
-0.020488974
-0.017994603
0.012620229
0.02927228
0.0073144096
0.009275321
0.016154382
-0.013002762
-0.0347647
0.01190559
0.013845455
-0.02035771
-0.008337195
0.043149818
-0.0071855467
0.06209948
0.010700495
-0.0056992695
0.01156861
0.032349646
-0.020565666
0.0073886625
-0.0025298542
-0.0021738156
0.03532715
-0.006395442
-0.03479704
-0.011438099
0.0017239561
-0.022817105
0.014724261
0.023466034
-0.019033635
-0.023814784
-0.028267257
-0.013011281
-0.007793648
0.02874659
0.016510755
-0.027015325
-7.448477e-06
0.0053507118
0.021969775
0.010344335
0.015848087
-0.035731774
-0.027136799
0.021254824
-0.011660095
0.0051483023
0.009890795
-0.023275528
-0.019651962
-0.0041171215
-0.010992018
-0.011845905
0.014166749
0.0079190815
-0.0052811075
-0.009296566
0.013790638
0.007711454
0.0013030979
0.00015177584
-0.015816031
0.0007041698
-0.0016700617
0.010460497
-0.027374642
-0.012771105
0.0046683517
0.012946516
0.04114913
0.026400005
-0.029390099
0.024762928
-0.015066341
-0.021794101
-0.033450898
-0.0046090772
0.0007942879
-0.02154661
0.002308396
0.016285535
0.014824892
0.003920485
-9.1567745e-05
0.010873434
0.0061795246
0.023322593
0.039127856
0.0008142307
0.024888322
0.018121878
-0.0098826885
0.011923811
0.046207726
-0.010229073
0.0065648556
-0.0011691339
-0.013905238
0.020964839
0.01446676
0.04603668
0.0015683937
0.008209379
0.0044366745
0.0008261124
-0.015716808
-0.0047294335
0.0022522176
0.026763907
-0.0034159978
-0.020680249
0.015208224
0.00019611041
0.023689374
-0.007886785
-0.0029577725
0.0008135587
-0.030315861
0.04214284
-0.029104592
0.008920537
0.017480038
0.016950594
-0.001959699
0.018305335
0.033787366
-0.0048509254
-0.010562387
-0.034529224
-0.013810614
0.016203169
0.016943142
-0.0009314759
-0.016923178
0.017822916
0.01672257
-0.0016445406
0.031005597
-0.0037167026
0.014513111
-0.02034848
0.019769276
-0.028080205
0.007837259
0.004495842
-0.0019387685
-0.0015696932
-0.029191453
0.01493185
0.008686274
-0.006032451
0.011597809
0.047117908
-0.0033851352
-0.016190441
0.025233103
-0.00957165
-0.01053969
0.03509882
-0.031403005
-0.011621479
-0.01992192
-0.01341349
-0.0013663684
0.01546452
0.006674278
-0.012266355
-0.021977846
0.015897878
0.027014239
-0.028656255
0.009989578
0.022440683
-0.00806974
-0.011511311
-0.00866055
0.023874745
-0.008572891
-0.0036369306
0.021966673
-0.015468021
0.01435154
0.025665361
-0.0055264267
0.032160006
0.004889865
0.031736612
-0.0013293155
0.007939249
0.010118263
-0.015006144
-0.0007151821
0.007817689
0.021356473
-0.003145927
-0.0027820342
0.0026778688
0.03763138
-0.023297507
0.003940154
0.029594885
-0.019207407
-0.024149362
-0.02433898
0.01938719
-0.006053895
-0.0043657105
0.011188747
0.026924415
-0.012232926
-0.005851039
-0.0056094886
-0.009596722
-0.024758603
-0.004794097
0.0015074442
0.003445454
-0.008684275
-0.015081671
0.0041039316
-0.0149932075
0.011867512
-0.0034734537
-0.0063333153
0.003213697
-0.011480677
0.018992733
0.025829209
0.015659025
-0.039732967
-0.007032715
0.036050394
-0.03946185
0.0129438685
-0.0013098196
-0.007852903
-0.009027613
0.007864612
0.01429553
-0.0068845493
-0.0005534911
0.031629566
0.031501476
0.018703114
0.029030476
5.96681e-05
0.024866097
-0.0011932662
0.02351039
0.022384504
-0.021630712
0.0144794695
-0.0063814167
0.006690397
-0.045859374
-0.011108345
0.025322795
-0.045853212
-0.0035779467
0.026669038
0.034261957
0.03196956
0.029379891
0.031623147
-0.007086675
-0.012742647
0.04840219
0.0042411955
0.027122391
-0.021188451
-0.0013227327
0.013983923
0.04134971
0.0012361348
-0.013449326
0.0007138953
-0.017764367
-0.007795019
-0.022305556
-0.03297671
0.005415253
0.0088445945
-0.016134696
0.025359355
-0.01799565
0.0011832815
-0.0045095496
-0.00033725845
-0.010587322
-0.04581179
-0.017243233
-0.013280142
0.008230231
0.007997199
0.024254853
0.016894812
0.003499006
-0.011006662
-0.033624455
0.03973337
-0.0067149876
0.008155074
-0.014876841
-0.018594949
-0.023076553
0.013277584
0.027084915
-0.04341386
-0.0062711677
-0.012368252
0.006630164
-0.01522301
-0.024554664
0.011844482
0.0015564484
-0.0021160503
0.013940187
0.003316147
0.0247599
-0.010960831
-0.0048915218
0.01329592
-0.022853868
0.01910006
0.017862644
-0.0074595576
0.016181033
0.008889538
0.007852519
0.013107902
0.018551707
-0.0060858824
-0.034887172
0.038713217
-0.029478842
0.0027055617
-0.009862447
-0.017342906
0.008319948
0.017545275
-0.026666235
-0.010822579
-0.023956422
0.0041107587
0.03608476
-0.02454942
0.008906296
-0.019003425
-0.021686547
-0.012963948
0.02394804
0.013299165
0.005084227
-0.0075335805
-0.008095783
-0.008226233
0.029658958
-0.010837143
0.004185125
-0.05356896
-0.023918621
0.031034952
0.029447164
-0.016819445
-0.023812551
-0.0068058437
0.017192764
-0.03413053
-0.002619814
-0.010904052
-0.01930344
-0.04048493
0.0049767783
0.03612799
0.0024535689
0.008391025
-0.02157829
-0.005554081
0.00063595717
0.008417277
-0.019643968
0.04152135
0.02459597
0.024816811
7.112851e-05
0.0059664566
0.011046794
0.008428394
-0.008950775
-0.035275914
-0.018377636
-0.0043618903
0.008571729
0.020651037
0.012191292
0.01635948
0.007663498
0.04533266
0.035095055
0.0047709234
-0.013428266
-0.0048553306
-0.02315761
-0.0054127974
0.025203088
-0.028611707
-0.021853747
0.0042490545
-0.014948215
0.026777238
-0.008783875
-0.014722195
-0.0074237594
0.057593863
-0.034708966
-0.0012050244
0.011663612
0.0030272857
0.020796916
0.011817708
0.004533652
-0.012345185
0.0037075423
0.026409384
0.023014883
-0.009706426
-0.00205548
-0.02372932
-0.010162913
-0.010287934
0.037231307
0.009250098
0.020924311
-0.011018053
0.032963075
0.036078766
-0.003523423
0.011758916
0.024725089
0.012913231
0.0123110395
-0.005163111
-0.04410982
-0.0034115715
-0.022311416
-0.031638093
-0.0072327796
0.025472816
-0.018978983
-0.006316219
0.0046610236
-0.006469069
0.03392172
-0.015790727
0.018331291
-0.031207906
-0.018708454
-0.0009907193
0.02583312
0.000107826265
0.019374484
0.007579813
-0.01337997
-0.0064768363
0.008024992
0.019984188
0.025915897
0.0043296367
-0.027151845
0.046079762
0.0028928167
-0.0068528005
0.0078295395
0.0079726
-0.0062540374
0.01753041
-0.015306192
-0.032260828
0.010388881
-0.029995061
-0.0030115813
-0.025914408
-0.02321583
0.013970469
0.0012805247
-0.03798283
0.0069819163
0.0006376343
0.01280597
-0.018909406
-0.0124698635
-0.00044413886
0.0021211382
0.0001801816
0.014673873
0.009854277
-0.006105904
0.021375163
-0.014691542
0.0006779491
-0.02188057
0.009273399
-0.008066883
0.010393168
-0.008954121
0.015127114
0.0078639835
-0.031096289
-0.023306174
-0.03132589
0.0041694525
0.02507411
0.0096476795
-0.0021822473
-0.033880156
-0.046424337
0.017384827
0.033168294
-0.024944296
0.007566006
0.01615152
-0.009975513
5.0636896e-05
-0.0077051674
0.008365145
0.017933594
0.019916436
0.019585378
0.004361331
-0.005899053
-0.01974206
0.03473231
0.008540464
0.01629616
-0.027083466
-0.040503193
0.006267901
-0.023295335
-0.0016114267
0.006714954
0.012245216
-0.001613196
0.0059552267
-0.007607731
-0.008833071
-0.0001222476
-0.014088977
-0.0029217394
-0.023893273
-0.011985988
0.017625995
-0.0033267485
-0.010743815
-0.010100266
-0.007844609
0.039110158
0.006999184
-0.012841776
-0.015080134
-0.0005149076
0.022184981
0.023722937
-0.015244893
-0.024399161
0.0071354597
0.0007392913
0.052965578
-0.009358021
-0.0075145196
-0.012869899
0.014694546
-0.0048416583
0.0030215147
-0.033258364
0.019996686
-0.017293593
0.019187212
0.0012416624
0.0040618367
0.0378739
-0.0033859848
-0.04396415
0.00064098276
-0.002690766
-0.023059718
-0.019613985
0.017132021
-0.014663451
0.00071695616
0.013609252
-0.011351864
0.005441266
-0.0016538379
-0.001351633
0.003465009
-0.0016660915
-0.028520316
0.03944629
0.023429003
-0.0047459635
0.028046923
0.0027613642
-0.0073609166
-0.0040215803
-0.0056584724
-0.0030404055
0.002617779
0.001955467
0.021714674
0.025211686
-0.009173605
0.0051522753
-0.030409727
-0.0034512295
0.015944019
-0.013124667
0.00871079
0.0057379217
0.024626652
-0.014678555
-0.012747072
-0.026768262
0.0029232316
0.010357469
0.01873549
0.008569715
-0.016509263
-0.018266365
0.0060595656
-0.002540034
-0.020815853
-0.000505614
0.0020306057
0.02812231
0.024594504
-0.03795738
-0.0130186165
-0.009837355
-0.0092319995
-0.0050379746
-0.0034354269
-0.0006811028
0.032452345
-0.020019824
0.0061886
-0.012093965
0.026200552
0.0057670455
0.016892457
0.0001649014
0.014020049
-0.014621833
0.0052941106
0.00593515
0.029310822
0.036673117
0.015719349
0.010422587
-0.022415847
0.0015007305
-0.027574487
0.026252385
-0.021845939
-0.0024946292
0.022141714
0.021834275
0.0023733408
0.0037256696
-0.0043922695
0.0009556443
0.01705835
-0.009753422
0.03796007
-0.00796602
0.00787907
0.026568366
0.010912024
-0.02472394
0.01773381
0.021229252
0.04949644
0.0274989
-0.02025004
0.050105996
-0.017028917
-0.020418331
0.04012468
0.00176327
-0.025268413
-0.029436992
0.032140136
-0.012939574
0.018832544
0.013357043
0.0014034926
0.023012605
0.020636175
-0.0047414657
-0.016784444
0.0070159254
0.0132117355
0.0018987956
0.003954669
-0.009179974
-0.02689836
-0.016542194
0.012452569
-0.031949144
-0.004634345
0.0052329632
-0.0079618115
0.015945578
0.015571324
0.031364635
-0.0173396
0.021280611
0.032237805
-0.009957347
0.0068829474
0.022903938
-0.011560598
0.012201154
-0.0073863002
-0.033539258
-0.026410963
0.004178151
-0.044598088
0.016181402
-0.0159649
0.00097865
-0.0021282095
-0.022986462
0.01828371
-0.0066209254
-0.018432511
-0.03890741
-0.023975398
-0.0006443129
0.028703434
-0.0035733061
0.005174712
-0.005690231
-0.008629576
-0.032981865
0.002720968
0.0009015092
0.0020517227
0.021637904
0.014473428
-0.0048591453
-0.010636911
-0.00046494682
-0.001565803
0.027895274
-0.028714785
-0.005776305
-0.0017313932
-0.010820663
0.00026471328
-0.0016358576
8.782666e-05
0.008093446
-0.03524093
0.031066014
0.008550219
0.020212412
-0.039257094
-0.027271142
0.018308306
0.0054336768
0.008667173
0.0061185765
0.025447626
0.026402589
0.008619858
-0.000656235
-0.02224117
0.01572541
-0.0006269622
-0.00420279
-0.000546236
0.018343685
0.03329924
0.014112078
-0.040949166
0.011953802
0.00872183
0.00711419
0.020609781
0.014519131
0.023482323
0.01896328
0.016252248
-0.025020363
-0.025290748
0.017898247
0.0017058229
-0.008465073
0.018466836
0.0108050555
0.0031397603
0.01788131
0.0029397414
0.017076775
0.005230367
0.00015993482
0.004112161
0.011706387
-0.0006321009
0.009698299
-0.0072520953
-0.01064611
0.011785467
-0.006482853
-0.004918724
-0.007772133
0.029268362
-0.0037328296
-0.006280369
0.01299478
-0.0052556586
-0.021801788
0.01743769
-0.0071984516
0.029027684
-0.0067127203
-0.0016028743
-0.042132825
-0.01972937
0.020351674
0.011680052
-0.0077109155
0.04302057
0.0054021333
-0.013672571
-0.008701036
0.0054227486
0.012678393
0.031069987
0.012105857
0.020030212
0.037740566
0.019351076
0.01273627
-0.019900948
-0.004406671
-0.021911629
-0.017541768
-0.031067802
-0.03521077
0.041472863
-0.028815031
0.054861862
0.0076023033
0.003992479
0.021900479
-0.0015024857
-0.017252821
-0.032048855
-0.016384713
-0.0314756
-0.00959029
0.016462518
-0.009664802
-0.0043488643
-0.02364907
-0.013064355
-0.021541623
-0.01818175
0.007364797
0.011289151
-0.02530124
0.020690734
-0.0018520367
-0.01892929
-0.02550712
0.012308943
0.024398645
-0.0043787602
-0.00082615175
0.008905862
0.028732326
0.0144767435
-0.0033224234
-0.021177014
-0.046776243
-0.017045252
0.010540626
0.026709115
-0.005133201
-0.021654464
-0.012223331
-0.0038801406
0.00027552352
-0.011781924
-0.019090433
-0.0032184406
-0.025992643
-0.011044175
0.019859722
-0.021386845
-0.006952787
-0.012847739
-0.007761324
-0.010198746
0.007899595
-0.035609286
-0.023640776
0.023970878
-0.019162023
0.033518154
0.00481845
0.019493233
-0.013465844
0.007132565
0.0067024385
0.013313587
-0.018930916
-0.0031721774
-0.04118509
0.006867253
-0.021909313
0.029557051
0.010541888
0.00087948865
-0.015438229
0.031053595
-0.021503061
-0.020986728
0.014606799
0.005103314
0.014938604
0.038555406
-0.04172418
-0.023153285
-0.006219896
0.0028038092
0.027900495
0.005835286
-0.00031456194
0.0037212272
-0.029817585
-0.031664785
-0.00800078
-0.029400652
-0.02754816
0.005327898
0.0023892664
-0.021296358
-0.008445425
-0.013803534
-0.0030902543
0.035087552
0.00868465
-0.0023282617
0.018965563
-0.007894253
0.008885455
-0.025032554
0.0049455967
-0.005158152
-0.03949775
0.03557151
-0.015491805
-0.006202648
0.012050144
-0.016623301
-0.02532704
0.009997504
0.0028420133
0.0059912424
0.0071104127
0.00769129
0.0039218743
0.051673703
0.0025204336
0.015531977
0.008808847
-0.023892784
-0.014814109
0.0032547398
0.018063499
0.0043442654
-0.009466009
-0.01662763
0.008048055
0.026272029
-0.0092406375
-0.021921994
0.050101995
-0.008063078
0.06680456
-0.019604128
-0.0038613107
8.4842504e-05
-0.016759114
-0.01970421
-0.033982657
0.0016565757
0.0031287943
0.009792236
-0.008215974
0.030533813
-0.022223165
0.007369099
0.0025227426
-0.020406839
-0.028639453
-0.014760221
0.022276444
0.036516864
-0.00057447277
0.0009791198
-0.012311289
-0.008887727
-0.0040830527
0.010559107
-0.008456502
0.037866566
0.031884093
0.0003909006
-0.024826037
-0.02019465
-0.012646993
-0.012084478
-0.021835629
0.036661394
0.0038077615
-0.007281089
-0.0007913488
-0.009605667
-0.018434592
-0.010746587
0.013745461
-0.0054328376
0.011943128
-0.037877876
0.023520818
-0.016428143
-0.02339021
-0.013494783
0.005421555
-0.06632657
0.013559098
0.029171182
-0.004068075
-0.027018735
0.0053045675
0.015519594
-0.001412345
0.02678386
-0.006794866
0.03267403
0.019673433
0.011315107
0.0139895305
0.0042441958
-0.004351655
-0.00531334
-0.0013624147
-0.0013028141
0.021228299
0.010546084
0.0620769
-0.015173827
-0.01430418
0.03695332
0.025213294
0.02744631
-0.003739325
-0.015507042
0.024765082
0.0051849596
-0.0006679935
-0.03514901
0.009898335
0.009610313
-0.014256711
-0.031114528
-0.055535633
0.0033885597
-0.018990971
0.032937884
0.040399387
0.025183175
-0.002252421
0.024304423
-0.019108405
-0.00798665
0.012218841
-0.0149987405
0.01589547
-0.034302518
-0.0024520124
-0.04370778
-0.015449362
-0.027344145
0.0005736021
-0.018087974
-0.019206703
-0.00859814
-0.013932391
0.00057041855
-0.003502386
0.019902073
0.043750517
0.01029184
-0.010045292
-0.0024623047
0.006375613
0.016446799
0.021885175
0.024595331
0.01475702
-0.01441438
-0.0029119572
-0.016741088
-0.020298336
-0.016981391
-0.048189268
0.0027191886
0.01883634
-0.0010916214
-0.00010870868
0.022718668
0.026377816
0.020531284
0.05687575
-0.012300894
0.01584595
0.024188241
-0.042463966
-0.01971472
-0.0069136536
-0.011052976
0.034607597
0.020563904
0.0038492223
-0.0012968801
-0.020167496
0.050444916
0.016508697
-0.0040325965
0.01803527
-0.007494748
-0.021071013
0.0092667015
0.02621398
-0.02004594
-0.0043078274
0.0029043981
-0.013557721
0.04469655
-0.0074586654
0.001394553
0.008594384
-0.0044557136
0.019372297
-0.0442883
-0.01759759
0.021265732
0.018141363
-0.024054853
0.015462486
-0.022447664
-0.026167644
0.042364635
-0.007514041
-0.01902826
-0.0027504072
-0.02100971
0.0332701
-0.004121967
0.026234834
-0.027700871
0.009868093
-0.03088293
0.005676474
-0.034381226
-0.03427123
0.003441366
0.00891415
-0.015813792
0.0055660773
0.02440643
-0.022061573
0.033143543
-0.02728403
0.025884254
-0.029007874
-0.016850738
0.008471691
0.046297792
0.004488289
0.023846366
-0.009597596
-0.017585536
0.020578388
-0.03907862
-0.028426116
0.018177854
0.028003192
-0.04227536
0.015690744
0.002848485
0.002460625
0.02897004
0.003777235
0.06068603
8.7350505e-05
0.010292898
-0.017122792
0.01954799
-0.0044175405
0.0005246625
-0.013737726
0.020378891
0.012258937
-0.0073623126
0.01807065
0.010221657
-0.010664076
-0.0020148377
0.005612897
-0.011553429
0.004580848
-0.038042463
-0.007172377
0.011094696
0.007869651
-0.02704772
-0.033025116
0.00032267947
0.011720387
0.01069127
-0.006479828
0.011306376
-0.053353637
0.03455792
0.013907608
0.016030485
-0.0018002562
0.007273445
0.010473683
0.014894123
0.024289817
0.020119516
0.017373217
-0.03536966
0.013539811
-0.00049657864
-0.020451035
-0.010681137
-0.019735055
0.018684907
-0.034034576
-0.03987833
0.0015326781
0.01114219
-0.02176054
0.031877484
0.008928673
-0.008062462
0.025073985
0.0039137704
0.029943462
-0.020454695
-0.0074486802
0.031561784
-0.007481296
0.02827953
0.034804065
-0.020048508
-0.014191591
0.024834892
-0.007724365
-0.004405944
0.0073295906
0.002751503
0.05837149
0.020101376
-0.011014271
0.024479277
0.0015812388
0.015774267
-0.027191233
0.007940289
-0.022118956
-0.001752838
-0.025777344
0.008241566
-0.00434746
0.005877894
0.013634094
-0.008751375
-0.0114901075
0.009496033
0.0018040217
-0.0024216427
0.020660894
0.0058460752
-0.0055860877
-0.009026857
-0.013745948
0.00067317754
0.016780721
-0.004274063
-0.030157262
0.0014011547
0.032399297
0.011968388
-0.008429065
-0.026104461
0.037144925
0.002496776
0.0056236642
0.034273002
-0.00781857
-0.028130472
0.0032603762
0.017517738
0.027529607
0.010243173
0.0016439981
-0.014906617
0.016850926
-0.019354122
0.026777178
-0.04313454
0.03203107
0.025707595
0.003967361
-0.009425456
0.004503596
0.00076743757
0.017731344
0.029147979
-0.004940437
0.028012771
3.3772587e-05
-0.0014239036
0.008621601
-0.016070379
-0.009990896
0.019825922
0.004740258
-0.028866183
0.017582765
0.048589792
0.01810016
0.014796444
-0.022277476
0.012571514
0.0090696355
0.017134946
-0.021456778
0.021722013
-0.0154485665
-0.035039905
-0.015365807
0.00421043
0.025476208
0.021255327
-0.006012956
0.008016378
0.034506515
-0.009082043
-0.012452285
-0.023304278
0.002656644
-0.017800687
-0.00078358187
0.02380327
0.010368755
-0.02958084
-0.003195978
-0.0044700275
0.0048803356
0.032122612
0.016914673
0.0047854586
-0.020125609
-0.01785985
0.012206516
0.020382337
0.029822182
0.042160124
-0.0038785764
0.026649706
-0.0068159625
0.010400868
-0.016951162
-0.0009302401
0.00094179384
0.007853913
-0.008239708
-0.033892643
0.020541951
0.038642317
-0.026349911
-0.016424097
0.012188482
0.0016857476
-0.0101206135
0.0124805495
0.00604717
0.013183307
0.015697533
0.025483131
-0.007847533
-0.0052498123
7.920807e-06
-0.0495272
0.010168139
-0.009789804
-0.019114694
0.026273586
0.0016221995
0.008546245
-0.022555675
0.014577864
-0.013935534
0.022080932
0.022689668
-0.02706247
0.0034279493
0.004414763
-0.032057546
-0.012144379
-0.010211779
0.0147954915
0.0007494567
0.013453028
0.033455666
-0.008726435
0.012294766
-0.0188515
0.026551984
0.019641425
0.006401768
-0.03575002
-0.0032156424
0.031418398
0.010466973
0.023391513
0.002906425
-0.0046705306
0.0279463
-0.04126316
-0.013595821
-0.00054945133
0.027756725
-0.006681172
0.020481607
-0.012815141
-4.759504e-05
0.0001363404
-0.042433906
0.03879502
0.00053601654
-0.0026422455
0.014988288
0.020349009
0.009711082
0.015974214
-0.013707391
-0.016776755
-0.035476755
-0.021965396
-0.0040259813
0.011863646
-0.01370568
0.0004257285
-0.013564405
-0.017065633
-0.027430845
0.011576247
-0.011290802
-0.032155797
-0.027151138
0.015453276
-0.03665446
0.0016416078
-0.018018095
0.007083255
0.026816513
-0.021927444
-0.0066465973
-0.021682696
0.089539364
-0.015273947
-0.025526764
-0.011465696
0.021640513
0.0005845018
0.029842827
0.016783003
-0.0094700325
0.016817525
0.011577748
0.026349368
0.018489785
-0.021702806
-0.013031089
0.017409498
0.00024487267
-0.023993516
-0.0014723461
-0.026948366
-0.008377493
0.025086138
-0.021139495
-0.013813616
0.025561886
-0.03202629
0.0039829765
0.011208816
-0.030307319
-0.020396095
-0.011664543
0.028052274
0.015829759
-0.019518266
0.001622935
-0.025118785
0.0036063849
0.01912245
0.018088639
0.0069978773
-0.037265237
-0.019442022
-0.026960833
-0.013551818
-0.0052676117
0.0470717
0.034693144
0.004032768
-0.028709779
0.005258876
-0.018304838
-0.022542235
-0.0019708104
0.024797043
0.017495353
-0.023466455
-0.02608183
0.0030691272
-0.004749342
0.037622068
0.020160133
-0.0013406569
-0.021520566
0.006047042
0.017463952
0.043275546
-0.015297546
0.025406227
0.013431596
0.023380406
-0.02008095
0.004811236
0.0062434785
0.026808586
-0.012620623
0.008001715
-0.026592076
0.0013472347
0.0064081345
-0.0022960284
-0.023347024
0.020446114
-0.016428966
-0.04275277
0.011543683
-0.035561834
0.017606623
-0.005976328
-0.023270756
0.011445224
0.0138214715
-0.02464412
-0.021010326
-0.009961143
0.009186937
-0.01553121
-0.02491201
0.026690826
0.025084266
0.012877993
-0.007509018
0.035511594
0.041434396
-0.003151235
-0.0028053846
0.021288252
0.006362714
0.013764132
-0.010480546
0.013630588
-0.0028024048
0.009189858
0.021181565
-0.0073428825
0.02762308
-0.016061531
0.018681506
-0.008781937
0.0024967524
-0.025931988
-0.0111902235
0.016642567
0.0059206686
0.017568026
0.013056526
0.051487394
-0.029448174
-0.023904929
-0.013709227
-0.0139869815
0.017470665
0.020032639
0.003187608
0.0038459387
0.017745778
-0.045375112
-0.0043715597
0.01556197
-0.00754515
-0.014755211
0.0051372973
0.005842599
0.0037535122
-0.016573986
0.0077300654
0.007838257
0.0028876935
-0.014082051
0.0077171996
-0.0052317507
-0.03709768
-0.0030372015
0.008287377
0.03188294
-0.0012448394
-0.04301001
-0.03268802
0.013337784
0.0015870713
-0.021601371
0.022718553
0.0065899203
-0.013577874
0.009070786
-0.023386111
-0.0098184515
0.008121803
0.0072755846
-0.0076070405
-0.009628271
-0.0014724266
-0.0057562673
-0.02389708
-0.027634706
0.017891759
0.0141890915
0.015180924
-0.0007203115
0.027390685
-0.013741325
-0.02815451
0.0225123
-0.023719808
-0.0049130656
0.005618656
0.008304877
-0.024340862
0.01961073
0.006458653
0.021829035
-0.0028890276
-0.01678907
-0.0025621306
-0.029982405
0.028144151
0.011541842
-0.011961256
-0.003942072
0.0024794019
0.012719252
-0.015916377
-0.0023589295
0.001918043
-0.010204185
-0.037707683
0.00817874
-0.017343624
-0.0127448635
0.019817159
-0.032402843
-0.009615759
-0.006585458
0.001816704
-0.04060488
-0.01988341
-0.032799307
-0.01498127
0.012291704
0.013395737
0.0097948285
-0.012768989
-0.016843243
0.004721662
-0.007146745
-0.012731193
0.012927976
-0.02632678
0.024733225
0.041449714
0.021123584
0.03233896
0.0012682012
-0.043819807
0.014851106
0.011803326
-0.0035562401
-0.025909642
-0.003937726
0.0064693145
-0.026780581
0.04070073
-0.013005861
-0.014378408
-0.005001899
0.0031163846
-0.006786636
0.0023698795
0.011208715
-0.017218007
-0.0375737
-0.018463701
-0.016542925
0.04371313
0.009205701
0.015180566
-0.0075531485
0.0039267284
0.03003599
0.0068549034
0.0029294484
-0.015157326
-0.02915965
-0.005714251
0.013485441
0.02009422
0.024601564
0.012066732
-0.005310842
-0.02054361
-0.0062647047
-0.0049393727
0.037475042
0.0024900222
-0.033303455
0.014470987
0.0071282373
0.0073085628
-0.015440269
-0.011798497
-0.015752159
0.0073758704
0.004536298
0.011818609
0.013825504
0.0045619966
-0.009653746
-0.0024136154
0.017953254
-0.004527354
0.0024766417
0.028611662
-0.013028086
-0.025360785
0.043750837
0.004276468
0.0068861055
-0.02494373
0.015176532
-0.032616284
-0.01627222
0.016523926
0.007054329
-0.0032397353
-0.008474888
0.0014317968
0.02595205
0.00045533074
-0.003328359
-0.020805515
-0.0062457994
-0.0043808776
0.0030201098
0.021887524
0.028152628
-0.028132925
0.00021271335
-0.017027885
-0.025214527
-0.016048837
-0.0351141
0.01669564
0.009836803
0.003344632
-0.003124178
-0.05173574
-0.0020550266
0.00783673
0.029093754
-0.00075291895
-0.025261113
0.024933375
0.0033711302
-0.0112788305
-0.03742181
0.038597625
-0.00069259567
-0.023705158
-0.018260268
0.014879783
-0.030610904
-0.0133733535
-0.0049516684
-0.03847007
-0.026537003
0.006190081
-0.024820384
0.0077323075
-0.00036815275
-0.018090738
0.021075279
-0.03186375
-0.03300475
0.00032136528
0.016743658
-0.019441571
-0.0025983027
-0.00021189133
-0.007961024
-0.053008866
0.027414553
0.0065796184
-0.016356084
-0.019736817
0.014781212
0.012929561
-0.013878316
