# (128, 192)
-0.029341308
0.013978748
0.018781867
-0.018744184
-0.017985681
-0.02169732
-0.0047017643
0.0006579763
0.019483143
0.004642593
0.0091801295
0.021804519
0.021153467
0.0021473775
-0.001297193
-0.020065483
-0.004325171
-0.0077133086
0.0033585818
-0.041909885
0.024598155
-0.0055580414
0.033717234
-0.0058166394
-0.009354361
-0.025830345
0.0067793555
0.005772757
-0.005199723
0.023674551
-0.017524501
-0.010649423
0.0055829072
0.011542935
0.004539279
0.030689497
0.0047014477
0.018014312
0.021165961
-0.0057111382
-0.011331324
0.0062197
0.008677175
0.007219797
0.03083667
0.0075995657
-0.015178589
0.012287736
0.020249601
-0.0018302279
-0.031014811
-0.029253816
0.03906544
-0.012179763
-0.012357158
-0.022407994
-0.021166597
-0.013949276
0.021867553
-0.04032802
-0.00024623802
-0.00298843
0.024686178
-0.008907866
0.029024456
0.0010851772
-0.005925339
0.006121153
0.023381684
0.00060676446
0.02814381
0.010243828
0.02185819
0.028085772
0.019551462
0.009288157
0.0060577616
0.0023070918
0.050284106
-0.009955143
0.037457295
-0.019806102
-0.021253377
0.019527549
-0.008594405
0.018356198
-0.002413506
-0.0098621985
0.029365612
0.023334699
-0.021309188
-0.028265955
-0.0053405594
0.0015437446
0.0062253196
0.003189874
-0.014728882
-0.0016547224
-0.010795556
-0.007095137
-0.03636227
0.0009979048
0.0086628
-0.013896831
0.010790516
0.03607507
0.028195255
0.0032713036
-0.018916892
-0.026623793
0.026914962
-0.00210737
0.012499418
-0.0069304653
0.029561242
0.0041252426
0.012473014
-0.02276219
-0.0078054965
0.012803672
-0.008571307
-0.0133550465
-0.02176551
-0.022690194
-0.027069489
0.0014625171
0.0061326236
-0.04019894
0.03098278
-0.014343227
0.0059016855
-0.012671456
-0.0059789508
0.02608159
0.024406308
0.013441092
0.013977165
0.01831974
-0.061968364
-0.005217106
-0.0038877423
-0.0073276483
0.00857505
-0.025030186
-0.027935976
0.031740088
-0.002625575
-0.0168564
-0.021644842
-0.011223442
-0.029626526
0.0042069205
-0.01752884
-0.022164375
-0.017943831
-0.0104302345
0.017770337
0.005536029
0.0320703
0.019395007
0.009363918
-0.0019927605
-0.035150357
0.017821
0.023222566
0.03211095
0.0011979043
0.024086649
-0.00048069563
0.009876508
-0.004976165
0.01468274
-0.007196372
-0.009747079
-0.017492158
0.0022416487
-0.010599874
-0.012768488
-0.0086209085
0.03535245
0.034905355
-0.015292138
-0.020411024
-0.019118544
-0.027766239
-0.0256561
-0.01466081
0.029683411
0.039822966
-0.009734769
0.015750883
0.013713236
-0.019475542
-0.0023636338
-0.00015537815
0.0042468077
0.029084744
0.016665611
0.008908493
0.012913986
0.0076277177
0.0041962033
-0.0069140494
0.006459118
-0.018008113
-0.018683357
-0.011593567
0.01660248
0.0004941375
-0.030634396
-0.021384086
-0.026368262
-0.023828194
-0.005747874
0.016408885
0.00093787845
-0.031173104
-0.025580298
-0.009029803
0.0127495425
0.0089658825
-0.010998079
0.008031437
0.0060233474
0.016663743
-0.014648604
0.020713797
0.0058133113
0.009151194
-0.014434838
0.009164428
-0.012481878
-0.018718658
-0.010096147
0.03182693
0.027234793
-0.035858665
-0.038625315
-0.011059276
-0.0073972186
-0.020314151
-0.023987055
-0.0068607735
-0.020001447
0.012661965
-0.035823822
-0.015299526
-0.041353557
0.0070771384
0.028179787
0.009714214
0.0057855397
-0.067633525
-0.043261435
0.004208206
-0.0057254722
0.00017420757
-0.0020220438
-0.006441525
-0.021971406
0.016438924
0.0031394109
-0.017915107
-0.00401879
-0.022933593
-0.035209227
-0.009722117
-0.0057443217
-0.011881914
0.00875003
-0.014717769
-0.009201087
-0.013306979
0.02567139
0.009786695
0.02515418
-0.008648092
-0.00038263056
0.018388748
-0.014402856
-0.013973468
-0.00023511639
0.026291724
0.011655222
-0.004981778
-0.0015409719
0.016663617
0.016421054
0.033786923
-0.015743691
-0.016030543
0.032196604
-0.018200621
0.008859202
-0.006411867
-0.011317672
-0.008210602
0.01896535
0.020280072
0.020843524
-0.022453932
-0.0075526848
-0.012214154
-0.02008966
-0.027311819
-0.0012925598
-0.016732156
-0.0044224854
0.0064770635
-0.010964002
0.0016371759
-0.0153580615
-0.030928195
0.010155048
-0.0019307868
-0.013854585
-0.021789202
-0.027393363
0.027056603
-0.021565283
0.00075857475
0.020015942
-0.009646454
-0.007682064
-0.021866044
0.0019560969
-0.0029394345
0.007344168
-0.013479651
0.0039649243
0.023067588
-0.008390799
0.008834076
-0.009755818
-0.009149156
-0.05901266
0.002344483
-0.008387144
0.0003034586
0.014411661
0.007792521
0.039488103
0.012134621
-0.028229434
-0.027542224
0.0004238516
0.018861251
-0.005366092
-0.014531246
-0.013691159
0.024602901
0.00050999015
-0.03648026
0.00013505713
-0.0101371985
0.00099228
0.0037240891
0.050138004
0.017067198
-0.002975463
-0.017907921
-0.017799739
-0.015307722
-0.019676164
0.023594903
-0.029069457
-0.008157229
-0.0048828507
0.014453141
-0.014711129
0.011629192
-0.007881513
-0.00666361
0.007478271
-0.008513015
-0.002914887
0.012295293
0.02750606
-0.029742574
-0.030107481
-0.02577839
-0.023881247
0.0052123456
0.032318488
-0.00496783
-0.002166374
-0.038678028
-0.017189156
-0.010383982
0.041851334
-0.026222609
-0.006008307
0.021897456
-0.00085446704
-0.02121292
-0.0081799235
0.025382077
-0.013001958
-0.0086813485
-0.04030925
0.034020066
0.0079476535
0.0060855914
0.015722394
-0.040907506
0.0066716247
0.0019652827
0.004631633
0.0012435542
-0.021350402
-0.031800263
0.010265896
-0.005180212
-0.017074628
-0.026855545
-0.021923138
-0.002463761
-0.021655025
0.009265819
0.03509643
-0.01636852
-0.0039639706
-0.010729081
0.010393007
-0.00329271
0.0039682593
0.017763674
-0.011487337
-0.0048063407
-0.016011562
0.018521234
-0.002486802
-0.0033113472
-0.018989649
0.038855333
-0.030850897
0.0016629318
0.009124473
-0.008082942
-0.02921326
-0.008362014
-0.016470375
0.01827117
-0.046768267
-0.03788819
0.008154334
0.016328497
0.00960309
-0.012963823
-0.002641498
-0.031834036
0.01883169
-0.016641775
0.038495764
-0.057466716
-0.012530063
-0.0030971672
0.015964592
-0.029597107
-0.0029008305
0.00043155576
0.005029783
-0.029224345
-0.013977179
0.00033111975
0.008556979
0.013434283
-0.001918962
0.008986281
-0.019853614
0.008326572
0.004764634
0.018346317
0.0054606292
-0.0010334278
-0.020213045
-0.006182212
-0.025364162
-0.002350569
-0.02322119
-0.023735559
-0.0096042575
0.0133213075
0.0028750193
-0.036305435
-0.01642319
-0.019134687
0.0059719807
0.022562431
-0.0003037339
0.008540843
0.016301472
-0.005968463
-0.010071547
-0.014185248
0.051101916
0.0005847235
-0.030309891
0.0034660732
-0.00504515
0.016903386
0.0014025478
0.04051068
0.043094795
0.016922725
0.010623836
-0.02263964
0.0031958332
0.007863355
0.038665295
-0.0144576095
0.023817165
0.0025885678
0.0129496595
-0.01102704
0.0098594
-0.0030515355
0.02879396
0.0001744833
-0.00062167883
0.0026008077
0.0091227265
-0.022344934
-0.0032202
-0.00092433294
-0.01636477
0.020771828
-0.03026707
0.0181797
0.016854608
-0.0077179275
-0.011088054
-0.010597927
0.00692327
-0.045547534
0.023771228
0.009377128
-0.009229011
0.02902471
0.006629732
-0.017269587
0.0038588943
0.010175264
0.04439842
0.0040474306
-0.041565426
0.029115412
-0.008675709
-0.035803974
-0.01376228
0.011994411
-0.014758979
0.012640665
0.015706053
-0.0074899653
0.004436748
-0.015428963
0.007083123
-0.03327502
-0.00728014
-0.02236354
0.017527703
-0.0178274
-0.014264884
0.024728365
-0.02728957
0.02893201
0.01941883
0.0010799081
0.008694846
-0.005987983
-0.0020758386
-0.0022856793
0.010069155
-0.0015144642
0.00046856282
0.0048085134
0.0038340809
-0.008396164
-0.0049880696
0.017777469
0.014194612
-0.021826431
-0.012395461
-0.012804566
-0.0026399025
-0.0018194339
-0.017402302
-0.0061573903
-0.009246038
0.01629727
-0.005961184
0.004915334
0.05625975
0.008394447
-0.022068232
-0.015584763
9.963059e-05
0.008802799
0.027107706
0.011214832
0.019901194
-0.0077183484
-0.02031954
0.03112481
-0.015155746
-0.018983295
-0.009198903
0.024158273
-0.0058647925
0.0050870976
0.03185053
0.0030322375
-0.014295324
-0.02645574
-0.0007047207
0.0015523654
-0.0040727193
-0.03148138
-0.016910668
0.019793969
-0.005156846
0.01715462
-0.01724539
-0.01079078
0.02366188
-0.0018186267
-0.0039877538
-0.0005457963
-0.0036455472
0.014506661
-0.0066792374
-0.03208288
-0.0018205681
0.00811953
-0.0008181859
0.008200537
-0.0012640243
0.0029456555
-0.008979806
0.00031959932
0.016197981
0.011419884
-0.025019398
0.021359447
-0.023069689
-0.021252658
0.0133815
-0.019730598
-0.02496722
-0.01939338
0.0002253053
-0.019337567
0.04535347
0.012176407
0.026065905
-0.012512424
0.015384474
-0.033402987
-0.027035093
0.008164569
0.0038567728
0.012144625
0.042986836
-0.012309019
-0.003657526
0.014710782
0.018717969
-0.011184211
0.005244853
0.016838646
-0.0046231435
0.035071105
0.009054391
0.01687149
0.04334824
0.033977035
-0.00025785627
-0.016718272
0.0369555
2.6702191e-05
-0.0027942678
0.0041968166
0.01937848
0.009114722
0.0067499676
-0.041375745
-0.014484417
-0.041978028
-0.027503027
-0.03469156
-0.016202135
0.011756609
-0.02793858
-0.015942244
-0.020063886
0.02033101
0.014961567
0.0014918499
-0.007293657
-0.017643897
-0.017117184
0.029390916
-0.008676099
-0.035204142
0.031789005
0.017613094
-0.03827007
-0.019691762
0.014265956
-0.010857323
-0.017564584
-0.0044872016
-0.022596253
0.0040436466
0.016773885
-0.040248904
-0.013834983
0.007775459
-0.012582698
-0.010201558
-0.021874344
-0.003439559
0.0020757224
-0.025871575
-0.014817996
-0.006731598
0.028676229
0.039291464
-0.0030074108
0.016005404
-0.008989546
0.0030243548
0.024200652
0.0133480355
-0.014377415
-0.02883378
0.007288409
0.00446643
-0.023645334
-0.015867725
-0.008183833
-0.0054494427
-0.0037085717
-0.03234223
-0.008681642
-0.001063669
-0.021155288
-0.0064540403
-0.00874493
0.0077749663
0.00092567725
0.0036356978
0.03844928
-0.017103683
-0.0058455965
-0.0038201313
0.029877897
0.033456225
-0.013818969
0.0098180445
-0.016087614
-0.019452482
-0.013590291
-0.020763788
0.005341726
0.03455024
0.0075494265
-0.05188581
-0.015593961
0.033676904
0.007115005
0.002152497
-0.00451374
0.018417984
0.021670219
0.00681721
0.032549307
-0.008216917
8.191402e-05
0.0040419293
0.018335903
0.01731811
0.0040979832
0.04140177
-0.0018771192
-0.00822295
0.06147489
-0.0025178047
-0.025245458
-0.015939018
0.0009686147
0.013994976
0.012028469
-0.00037834074
0.01784678
-0.011017245
-0.019953245
-0.047625516
-0.017884139
-0.006943428
0.0461211
-0.033086333
-0.012499592
-0.012858706
-0.0060717165
0.013567884
-0.010633525
-0.030867588
-0.007799679
0.0148386955
-0.014851253
0.015691321
-0.001447064
0.0015088991
0.034536038
-0.014645687
0.0029570134
-0.04540364
-0.03365605
-0.027112484
0.0045835664
-0.055935137
0.026830666
0.030400561
0.0046658064
0.008156917
-0.011096418
-0.019093841
-0.020224016
0.018884024
0.011337491
0.03060899
-0.041757934
0.016851816
-0.021404013
-0.019907337
0.02632545
0.028639982
-0.034333684
-0.00680216
-0.002284562
0.04216421
0.003728142
0.029172841
-0.017880926
-0.019395135
-0.0076435325
-0.027370924
0.020456953
0.012001133
0.017522585
-0.029987535
-0.004504673
0.015723834
0.0047583682
0.007228689
0.012870058
0.028616985
0.010284579
-0.0071245884
0.013802944
-0.019633409
0.008604339
-0.00046646164
-0.04253051
0.014377554
0.011288737
0.01417336
-0.0014608689
-0.0016664857
-0.037636247
0.0046329964
-0.0025215107
-0.015244233
-0.055990323
0.0007624089
-0.019398442
0.013908124
-0.0007757189
0.019203778
0.0043021934
-0.01821578
0.0349975
-0.026984096
0.0011373867
0.008468698
-0.027851176
0.010546897
0.007083176
0.0014359453
-0.028462714
-0.0015362827
0.004373177
-0.027279548
0.00041989822
-0.011717994
-0.006318748
0.005057195
0.011960291
0.01813381
0.008932175
-0.033065923
0.014617168
-0.004602122
-0.01905851
-0.008667981
0.019988634
0.013955114
0.005248161
-0.012961013
-0.0070705297
0.020048868
0.034541238
0.01726098
0.011644065
-0.02562232
-0.013195529
-0.0058871754
-0.010006406
-0.009458558
0.009429872
-0.026284907
-0.025797948
-0.009066377
-0.010050174
0.018157674
0.009824114
0.043236587
-0.012160978
0.03340765
-0.020213071
0.048632074
-0.0021524476
0.0008046849
0.008688588
-0.011909865
0.034992438
-0.013101161
-0.013385113
0.0029982163
-0.002034703
-0.021860583
0.046757597
-0.007733929
0.036059268
0.024019873
0.0048059328
-0.0147018945
0.021290183
0.011187277
-0.014365368
0.008739959
0.02592767
-0.025862817
-0.010355434
0.0053474293
0.024536533
0.0009541858
-0.0021300928
0.026040172
-0.0007762153
0.0026835748
-0.02481019
-0.024856381
-0.021376118
0.005584581
-0.0155446585
0.022363162
-0.01829337
0.02020375
0.0024635151
0.0029228318
0.028794752
0.00079399615
-0.013071759
0.011486507
-0.0129310535
0.0062136212
0.011062609
0.00029319798
0.0094652185
0.017937595
0.02301464
0.03011767
-0.023356544
0.018783508
0.025830517
-0.0031671738
-0.0029206872
-0.020619476
0.020158105
0.026602784
-0.007490143
0.0005231094
-0.013792942
0.012565051
-0.022499578
0.037347786
-0.028855346
0.013220665
0.013469724
0.01926646
0.016089631
0.04111002
-0.038223885
0.0023085242
0.02706019
-0.0117339175
-0.029768102
-0.014200073
-0.03679817
0.040798873
-0.027871815
-0.016513772
0.012327597
-0.022876902
0.05614751
0.017798379
0.0059165787
0.015661519
-0.015806198
-0.056464598
-0.021007316
-0.026376514
-0.019381292
-0.010846744
0.008898942
-0.006543301
-0.010896538
0.001097067
0.023215882
-0.031672318
0.0048574056
0.0049917265
-0.027947048
0.03459152
0.032522403
0.031838764
-0.025884716
0.004844605
-0.0006949492
-0.006179759
-0.027220532
0.046831753
0.009936949
0.025072284
-0.015948273
-0.009236013
-0.007716571
-0.015892163
0.007927449
-0.0033338368
-0.016982436
-0.0008870853
-0.0029926146
-0.022870969
0.03950828
2.1153031e-05
0.02025741
0.008782627
0.028170034
-0.0073179677
0.022601215
0.015710741
0.019087803
0.007933073
0.0073574833
-0.017547542
-0.029990455
-0.03717823
0.001036648
0.015504322
0.0116036795
0.01973052
0.002104879
0.0018244479
0.0020734828
0.022503376
0.036930934
0.0063693
0.016492892
-0.018189047
0.010031876
-0.016992984
-0.02499481
-0.0068043163
0.014338209
0.008505278
-0.0041637686
-0.0054114163
-0.05426986
-0.0049792854
-0.02214551
-0.013064389
-0.016056653
0.0032259463
-0.006050247
-0.020321097
0.018603094
0.010521025
-0.02813387
-0.0019962126
0.009126467
0.029043816
-0.00029725925
0.0022832267
0.0068446933
0.0032750228
0.0021731015
0.0061926655
0.010347755
-0.022998676
-0.021094996
0.021751994
0.013641141
-0.009216998
0.025914444
0.0028139027
0.0062897145
0.021581566
0.02959251
-0.0035148982
-0.0066000116
0.003344853
-0.016156701
0.004400949
-0.008115556
0.03335751
0.039551638
-0.02734425
-0.03714091
-0.006654578
0.014131899
-0.015985226
-0.01589711
-0.0018787821
0.014322028
-0.018526858
-0.008553915
0.025445977
0.028673703
0.011346135
-0.015430356
0.015022921
0.02125341
0.020354003
-0.032219555
0.00040869715
-0.017991606
0.0021685904
0.0043233056
0.0032443674
0.007856044
0.0027786046
0.022371907
0.028458912
0.012186975
0.014709966
-0.0022499256
-0.007151958
0.03457308
-0.01700843
-0.0046649575
0.006452065
0.033403065
-0.012820997
0.0016291277
0.032201745
0.014456283
0.0101351645
-0.014911279
0.00059339334
-0.008811489
-0.012380623
0.008389644
-0.018999133
-0.006574748
-0.004909053
0.019666156
-0.002038872
0.014401432
0.02093929
0.010432182
-0.0351704
0.007911419
-0.021931956
0.0153480265
0.016168118
0.04090208
-0.003117914
0.009559909
-0.021375649
-0.009624883
0.021724263
-0.022776283
0.021309217
-0.02925158
0.006715245
0.015490191
-0.0099242395
0.024663255
0.022295792
0.018664135
-0.008833368
0.017302778
-0.0013059914
-0.0289619
0.0043423055
0.00010758817
-0.012269901
-0.03353055
-0.017811766
0.0011559218
-0.0010846315
3.7353835e-05
0.031697966
-8.492066e-05
0.044214837
0.018124184
0.0014877357
0.008940611
-0.02770877
-0.0059885257
-0.016888242
-0.0048938845
-0.020868637
-0.009301979
0.018962143
0.026266536
-0.0024539242
-0.0020616816
-0.008849815
0.011330286
0.0005163861
-0.0017235351
0.018721145
-0.0051562954
0.01689568
0.0501505
-0.0019393679
-0.036515985
-0.003824919
-0.0046849456
0.021183833
0.019272463
0.022366447
0.019050317
-0.010089977
-0.004609201
0.043600757
0.011551465
0.018375995
-0.025566611
-0.0023440188
0.0037509087
-0.0065537887
0.03178514
-0.0016168586
-0.027799241
-0.0028694891
-0.006653693
0.015027306
0.024612863
-0.003835521
-0.01648262
-0.014960053
-0.018881919
0.007855763
0.031081669
0.014916654
-0.021897838
-0.010049141
0.03244719
0.0012499216
-0.012334876
0.034246054
-0.013516488
0.005252213
-0.009410229
0.052836914
0.035995428
-0.012888121
-0.022476822
0.00772215
0.019912915
0.0068286937
-0.0133569045
-0.013666478
-0.018529406
0.0076302933
0.007601505
0.010024101
0.011401049
-0.004460486
-0.026337683
0.006284461
0.015920954
-0.0288519
0.015572233
-0.018017244
-0.022561755
-0.013882801
-0.01838724
0.03650755
-0.007297387
-0.018756134
-0.017449962
0.0053583663
-0.0063485634
0.0036588577
0.0009992949
-0.024449877
0.0139932735
0.03495418
0.038500674
-0.009797354
0.013019118
-0.018381014
0.044067282
-0.0009306684
-0.0060571968
0.0077605513
0.029215524
0.011715082
0.00291269
0.008876776
0.0011904895
-0.017013961
-0.010401663
0.0011522582
-0.017039545
-0.0154262
-0.03354506
-0.022726092
0.016618727
-0.005647058
-0.041417625
-0.04237318
-0.018681312
0.01690352
-0.015811862
-0.016719323
0.0146839665
-0.0024411508
-0.0040247813
-0.016349625
-0.012666005
-0.020361258
0.022138711
0.032899532
0.021445291
-0.0044112173
-0.0060172263
-0.0110335415
-0.0022007232
-0.01718251
0.015692176
0.007599987
0.015494075
-0.014003702
-0.01882434
-0.00048480058
-0.007166062
0.004072305
0.006234041
-0.009811485
-0.0021263307
0.0027734607
0.022850672
-0.013496738
-0.01843366
-0.0030483347
-0.03182316
-0.013768971
-0.0013150569
0.006993316
-0.013141582
0.009684353
-0.01707145
0.0024764296
-0.03205642
0.0017767615
-0.0017988997
0.005074116
-0.0013643439
0.0332051
0.03320098
0.008536464
-0.020881213
-0.019908996
0.007715349
-0.012611594
0.004078112
-0.06528123
-0.009028475
-0.037878264
-0.036643088
-0.0072139436
-0.010340738
0.022901217
0.012805775
-0.0031742349
-0.05507064
-0.012252374
-0.0013146251
-0.018259905
0.026648007
0.0033138995
-0.011360684
-0.0009838504
-0.022817342
0.014923778
0.004241924
0.010035538
0.010324768
-0.049544945
0.024230175
-0.012986438
-0.02378777
-0.004587632
0.017091159
0.0041244416
0.009756768
-0.024845406
0.022086196
-0.0028852588
-0.026749335
-0.0247944
0.014090323
0.016559502
-0.009709544
-0.02114763
-0.0022387933
0.010686655
-0.004363081
-0.034231402
0.009205398
-0.022278292
-0.006219071
-0.033254128
0.022144206
-0.003088214
-0.02125369
-0.026581153
0.023406088
0.019093497
-0.022684544
-0.029960675
-0.02814116
0.021996431
-0.0059319977
0.02950739
0.005248887
-0.010009443
0.002949436
-0.0060069887
0.01173933
0.025838332
-0.0101362085
-0.0015733803
-0.008454648
0.0055216197
0.02818371
0.026608912
-0.016552972
0.042292513
-0.021230765
0.00942396
0.027086867
0.03431272
-0.018272249
0.009486135
-0.014333735
-0.026205193
-0.02156023
0.039888024
-0.024611432
-0.0026513
0.0027391075
0.018323926
0.006144002
-0.008512732
0.011975951
0.003903425
-0.02986131
-0.0019928203
0.033659045
0.01582402
-0.011595539
-0.019207988
-0.009851051
-0.042162955
0.016070548
-0.011268672
-0.036981396
-0.032517035
0.020719161
-0.00060121686
0.00026481244
-0.010994468
-0.05686485
-0.0068695513
-0.010025663
-0.0055773584
0.0033170904
-0.0044539417
-0.01135765
-0.00096981396
0.018003903
0.03937987
0.017279733
0.008477546
-0.0073135323
-0.01771312
-0.016303333
-0.045129504
-0.0009885387
-0.0057499134
0.047144346
-0.010811436
0.0038949659
0.02365802
-0.0128733395
0.027704395
-0.019529147
0.011478645
-0.03265758
0.010248446
-0.00089393544
0.01851732
0.013162078
0.0067393463
0.006868884
0.014952057
0.018981535
-0.03272689
0.01874628
0.007757321
0.0023744807
0.014751882
-0.0031009752
0.02128617
-0.008634072
-0.053725876
-0.032913283
0.0139683625
0.005207515
0.0025826297
-0.022131633
0.02904503
0.01723481
-0.010066025
0.02822518
-0.008808805
0.005577413
-0.010684173
-0.042783275
-0.027519954
-0.010984286
-0.012829034
0.03124442
0.010665312
-0.026689878
-0.02737876
-0.004806795
-0.006242162
-0.023839934
-0.006392081
-0.024702825
0.018742025
0.010006786
0.02572609
0.017929574
0.008228993
0.003753071
0.015627937
0.0011421705
-0.013172452
0.017943814
-0.017591655
-0.0034203716
-0.0077601103
-0.0027002376
-0.010891498
0.022698753
0.012684909
0.043362588
-0.0060938923
-0.019041253
0.006872357
-0.0048243264
-0.04720252
0.0020114474
-0.0037926754
0.008469269
-0.011380059
-0.010695077
-0.032548226
0.028423702
0.014903088
0.030816874
-0.030162575
-0.013080759
-0.030423092
-0.01059731
0.027295072
0.003537124
0.01954182
-0.0125717735
0.006037913
-0.0036888453
0.0012984091
0.017844666
0.0077220993
-0.030366842
0.0036191123
-0.0015276077
-0.0037200197
-0.003393973
0.03554175
0.019016556
0.03363156
0.02241581
-0.0050294227
0.005535296
0.024651434
0.023973262
-0.013129972
-0.023656785
0.022081954
-0.0223376
-0.00011335005
0.0003643926
-0.014514938
-0.028297376
-0.026013335
0.011417685
0.021882726
0.030902574
-0.014362136
-0.012091915
0.0016593351
-0.02540696
-0.03188642
-0.015929474
-0.04754215
0.025002195
0.007929974
0.00956832
0.02095955
-0.01747238
0.015154817
0.016578376
0.010603464
-0.021940837
-0.014463076
0.0012016093
0.0038772314
0.021386717
-0.003864223
-0.008898546
-0.018186022
-0.010100578
-0.0022478737
-0.0075794957
0.021841133
-0.02005664
-0.0025857165
-0.0018415449
-0.013025857
0.02278164
-0.00014046999
0.006193993
-0.0015744021
-0.016998826
0.01665097
0.0054912777
-0.022143768
-0.027323762
0.016250238
9.646479e-05
-0.0027606753
0.015920771
-0.0184908
0.035925653
0.028107287
-0.004982385
-0.01243261
0.019876355
0.012161912
-0.019955123
-0.01166674
-0.027763639
-0.010681907
-0.0020772072
-0.028859908
-0.00953103
-0.007350857
0.032828897
-0.0027003344
0.015509046
-0.035620186
0.023531832
-0.002172495
0.024847005
0.012191216
-0.004733809
0.01886389
0.05439257
-0.027437951
0.013334624
0.018572645
-0.013246741
-0.01600155
-0.011929003
0.025449408
-0.0029923748
0.024582274
0.02451935
0.009548817
-0.012661504
-0.008105775
-0.02452005
-0.028878214
-0.0141821485
0.005769376
0.014682894
0.038725298
-0.028170772
0.017745
-0.019483978
0.0025859484
0.010893073
0.012080003
-0.01955898
-0.01793722
-0.011455466
0.013907089
0.049395055
-0.016917277
0.025512585
-0.033618957
0.022158742
0.032973118
-0.0027792985
0.0081128925
-0.031789437
0.010505903
-0.003809755
-0.0002604096
-0.0174173
0.009339184
0.011104115
0.016613362
-0.0028705418
-0.023552652
0.012811949
0.037224784
0.0005322377
0.015195921
0.00044396243
0.042673834
-0.0050985604
0.0026845862
0.013437898
-0.02835384
-0.013857712
0.029812478
-0.0026618948
0.020220527
0.031898357
0.019400127
-0.025600972
-0.025765141
0.0074683214
-0.006014895
-0.03558578
0.018082846
0.005475868
0.01202003
0.0037876957
0.01987709
-0.00014264885
-0.0062843305
0.0062959795
-0.032951713
0.0054924595
0.04469045
0.011600814
0.004549417
0.009662565
0.019903647
-0.0038173862
0.002898381
0.038707126
-0.049929895
-0.015178884
-0.030698115
0.0135122975
-0.0014617505
-0.016443375
0.01854489
0.012846994
0.0278774
-0.021895865
-0.0029059877
0.030673854
0.019212024
0.001290585
0.026974691
0.02503555
-0.014420307
0.0067987363
-0.020224242
0.0062657325
0.01908318
-0.0152112385
0.0075937673
0.019981097
0.013056764
0.006009573
-0.02205539
-0.013226924
0.0076403944
0.02915436
-0.0008379608
0.0022112003
-0.014023687
0.0038111247
-0.03395702
0.020956073
-0.001689199
0.021859342
-0.00087492226
-0.014759219
-0.0048313513
0.032151334
0.049109768
0.0010584667
0.018558059
-2.6753954e-05
-0.0011482835
-9.708273e-05
0.010953329
-0.01860312
-0.012970135
-0.014035898
-0.008104251
-0.031521283
0.0024742642
0.02321349
0.015920255
0.030790849
-0.018531194
-0.015327182
-0.039502025
-0.039873682
0.01495865
-0.007171313
-0.00998523
0.018372273
-0.034265883
0.019764034
-0.009187154
0.017654255
-0.040483437
0.009161008
-0.016803
-0.027022766
-0.004262624
0.025652554
-0.025573293
0.05759776
0.012980045
0.010379778
0.006884752
-0.033250008
-0.00058713206
0.033456158
0.007716798
0.0049249507
0.0026231732
-0.020048374
-0.014048654
0.019212348
0.022135872
0.01878103
0.027606586
-0.015841905
-0.0046016187
0.014723145
0.032787643
-0.00080527377
-0.009024485
-0.00605658
-0.001197787
-0.006744053
-0.008966125
0.019914443
0.011903052
0.00083767105
0.046378177
0.017200164
0.040220574
0.029795157
0.003680079
-0.023710662
-0.0012774065
-0.013071998
0.0015324728
-0.013375204
-0.009980191
0.0300642
-0.018449267
-0.048570227
0.0015763713
-0.0018765373
-0.020764908
-0.01134481
-0.023430042
-0.033773597
-0.009742638
-0.009573152
-0.013389986
0.018136065
0.017501801
-0.018333716
-0.023990419
-0.011794751
0.014985289
0.041009445
0.012265171
-0.02952932
-0.013087585
0.017703487
-0.005411591
0.030060016
0.03456102
-0.020027386
0.024818655
-0.028506521
-0.0046840757
0.001961454
-0.0058879363
-0.03283532
0.014705679
-0.005131711
-0.006794245
-0.022397298
0.024819724
-0.032852944
0.020261487
-0.0038469683
-0.007131911
-0.04559095
0.00041369162
-0.023914495
0.0018167464
0.010820644
-0.004504546
-0.031201944
0.015168646
0.03839744
-0.014925519
-0.014133093
-0.014299309
0.021253137
-0.02065473
-0.0043997937
0.0010093907
-0.035377547
-0.02057333
-0.025968939
-0.0048153214
-0.015346371
0.04024765
0.007635309
-0.009597206
-0.029789975
-0.0063617555
0.015435113
-0.0033101835
0.0019080295
-0.0015180794
0.038394038
-0.024489062
-0.023479812
0.004393883
-0.018334543
0.029835882
0.015664764
0.013139568
-0.04532761
0.011187202
0.011474767
0.0005436262
-0.014045115
-0.033553846
-0.010256884
-0.012515221
0.02543163
-0.004979505
0.026218377
0.0029309532
0.031264126
-0.005685395
0.00706172
0.015693597
0.017050134
0.00069526536
0.004339902
-0.008553581
0.012225646
-0.027734792
-0.022364805
0.02731425
0.027646419
0.028184993
0.019010581
-0.0103726955
0.0031976535
0.025840074
0.035734653
0.011966748
-0.022489564
-0.025604546
0.0018488389
-0.017289953
0.01905271
-0.019320054
0.009217428
0.031654738
-0.0032366063
-0.03265271
-0.0063640755
0.014265356
0.014717686
0.041280016
0.026416475
0.024980651
-0.004335666
-0.03427979
0.0068316786
-0.010805641
0.017848907
0.0038383051
-0.015357325
-0.00784028
0.01784574
-0.03409177
0.04620566
-0.0036514201
-0.018910324
-0.017801417
-0.059149556
0.011038295
0.0068546413
0.0012490741
-0.02214479
0.0159884
0.013609303
0.026338372
0.05794432
0.016242992
0.022244839
-0.0019248411
-0.018130956
0.014048671
-0.019507816
0.01615024
0.022316314
0.025721235
-0.027047586
-0.0003451717
0.011495195
0.0027854803
0.02281501
0.0387609
0.016607188
-0.00736196
-0.0044371365
0.0056940774
-0.013706308
0.013521801
0.010094975
0.0100911185
-0.010756024
0.03823078
0.0062873196
0.018262897
0.008531084
-0.016049692
-0.007856852
0.003044277
-0.004406601
-0.009198829
0.010799959
-0.024634626
0.020681467
-0.002511278
-0.034881517
-0.016538333
0.007123904
0.027657228
0.019410767
0.009065468
-0.018803736
0.002738325
-0.0076173195
-0.039163467
-0.010639537
0.008676137
0.00027476225
-0.007173309
-0.014781107
-0.031981595
-0.0048765307
-0.00198961
-0.0061229644
0.0005208298
-0.004927469
0.003866208
-0.024639303
0.0043118815
0.0015108542
0.01031037
0.02421743
-0.017103324
0.024341736
-0.0060839197
0.0012536792
0.014076829
0.0023315223
0.019778354
0.034989715
-0.0025670691
0.030452639
0.041721478
0.019443821
-0.0023007449
0.014575537
-0.0281307
0.008904251
0.03093387
0.008972164
0.013146218
-0.0069982675
-0.009078164
0.006730538
-0.012715463
0.0019725047
-0.0018653909
0.0056040054
-0.00049149076
0.014194592
0.028212285
-0.016747108
-0.01923206
0.016943278
-0.018186165
0.019664891
-0.00040328238
-0.021132777
-0.0008796
-0.041797467
0.0146754645
0.001565284
0.020229658
0.016879955
-0.029636003
-0.00037572815
-0.040164657
-0.020783305
-0.02067869
0.011847933
0.0052721463
-0.0044483463
0.021117559
-0.030466652
0.008773948
-0.0070632147
-0.024222298
4.6465415e-05
-0.03627976
0.005785167
-0.057827335
-0.008062833
0.007691982
0.0014269775
-0.019151308
-0.023877561
0.006587725
0.026446309
-0.008343394
0.017026803
-0.0025180695
-0.016765948
0.02293167
-0.008730029
-0.029021358
-0.011215938
-0.0016026975
-0.013835222
0.012911589
-0.038824335
-0.055130843
0.007840135
-0.016764754
0.0019520748
0.01593531
0.027762985
-0.0076490813
-0.006161958
-0.021541024
0.025567211
0.015997056
-0.02972844
-0.008543042
0.017927276
-0.01793821
-0.041726165
0.031561997
0.026109789
-0.010783959
0.0008632379
-0.0058992226
0.038301535
-0.009782202
0.0023282354
0.024761362
-0.0017559363
-0.07200162
-0.02387713
0.00823711
-0.014004697
-0.016262036
-0.009708683
0.0007546446
0.006608548
-0.0065391744
0.054477997
0.018617585
0.0015684878
0.020776682
0.0028790429
0.008399585
-0.028704137
0.0061960225
0.022028927
0.028199783
-0.02001272
-0.0128052505
0.0006166643
0.007641006
0.015163662
-0.0013029539
-0.008707269
-0.044143658
-0.00560459
-0.019519005
0.00429077
0.00048025578
-0.005961022
0.00216005
0.011346508
0.029027915
-0.03825197
-0.002093984
0.01852199
0.033097863
0.03025028
0.03692844
-0.0063959924
-0.013389652
-0.014824632
-0.0067113903
0.030656116
0.010995045
0.015952721
-0.02531456
-0.005928272
-0.0118422825
0.026759319
-0.012855346
-0.044025663
-0.0030493452
-0.0036253403
0.024597347
-0.017530005
0.048455175
-0.031718235
-0.03023082
-0.0024620253
0.014856479
-0.012491513
-0.023519227
-0.003973683
-0.0025035418
-0.0056138686
0.00038413928
-0.012134837
-0.023435017
0.005427091
-0.027535435
0.03359102
-0.013258593
0.005831393
-0.013787701
0.006411642
-0.029241644
0.011906836
0.012612838
-0.02968412
0.041104987
-0.02457927
0.0043367143
0.0010670245
-0.007979618
-0.01971645
-0.0051671485
-0.028624477
-0.034876376
-0.046954256
-0.0017780454
0.008837241
0.032933243
-0.0005489564
0.020682432
-0.001944175
0.0038218652
0.008549689
-0.002459428
0.0054107597
-0.030396154
0.03750224
-5.6075845e-05
0.036496688
-0.0065015894
0.0051312125
-0.0075400965
-0.008985645
0.003402208
7.163542e-05
0.019792551
-0.0051505715
-0.011653981
-0.007767126
0.0037318605
-0.034862775
-0.017946409
0.014137334
-0.029456109
-0.0045182663
-0.02333094
-0.025896074
0.030058345
-0.0059548817
-0.02022523
0.017217772
-0.023710633
0.0050821137
-0.015781771
0.013360442
-0.0045697335
0.021232655
-0.027694987
-0.009155492
-0.005081768
-0.005801669
-0.034841083
-0.034702715
-0.012366954
0.0067866314
0.0018929192
0.0035986651
-0.00030361774
-0.06122379
-0.013125075
-0.0008949104
0.014566245
0.013566393
-0.012806464
0.018004445
-3.0272757e-05
-0.021005515
0.025680413
-0.015171862
-0.01572565
0.0049960227
0.007426473
0.010392282
-0.0027635426
0.0016188114
-0.028828379
-0.02884699
-0.018794771
0.0026548808
0.011424874
0.040555827
-0.0096451
0.012217923
-0.028814074
-0.0074978545
0.0046387585
-0.007856459
-0.031561922
-0.03643155
0.0126849385
-0.013026234
0.013084429
-0.010067707
0.028162278
0.0035087734
-0.0055268533
0.012051414
0.017975466
-0.009002956
0.0074868063
-0.03402053
0.019967034
-0.0049268478
0.022138335
-0.0035167711
-0.03167325
0.049827125
0.022834022
-0.0099289175
-0.009908143
0.010131105
0.0008375626
-0.00077607535
-0.01841374
-0.028705046
-0.039708883
-0.015446409
-0.03685873
0.028354445
-0.016971119
0.007962993
0.041299976
0.02951028
-0.030071475
-0.019369816
-0.00085627404
-0.017065166
-0.008379185
0.023886146
0.017705506
-0.0070694676
0.031395476
0.006066191
-0.026619669
-0.016981423
0.030546393
-0.019830665
-0.034430955
0.031206604
-0.01651747
0.04325088
0.0041767503
-0.037279997
-0.0005841486
0.0015323936
-0.045704473
0.011345042
0.052829236
-0.008906745
-0.0048040436
-0.0011129067
-0.013294821
-0.017139813
-0.028992519
-0.0021867843
-0.025228418
-0.011459319
-0.00048693872
-0.012154843
-0.008608158
0.007034917
-0.002356304
0.027631693
-0.006513569
0.003004239
0.0015849106
-0.0047034887
0.017400026
0.005042075
-0.025475165
-0.022261718
-0.02030573
-0.025653012
0.02163486
-0.031221494
-0.010843912
-0.005168664
-0.0015923383
-0.0021892749
0.015304644
-0.0024223952
0.0115323365
-0.004425678
-0.04545073
-0.0027569789
-0.008553385
0.00681733
-0.0013036672
0.004545601
-0.033551883
0.015110307
-0.023489423
0.006902048
0.00089903566
-0.018761309
0.010543288
0.013692602
0.012781869
0.007706768
-0.00038193274
0.013829153
0.011587275
0.009955561
-0.022445885
0.030766338
-0.006135876
0.030599255
0.0021813158
-0.017349005
-0.00057239283
-0.005017522
-0.03246259
0.008744678
-0.010908991
-0.02605063
-0.041291922
0.035580836
-0.007939745
-0.037385862
-0.015991062
-0.0066295606
-0.053248428
-0.01605644
-0.025676671
0.016090555
0.029416785
-0.022289643
-0.0338439
-0.00581313
0.0007645055
0.009411557
0.034668837
0.012663804
0.0026266747
-0.05410307
0.031466346
-0.0051248716
-0.0068304525
-0.046892818
-0.0047279126
-0.013187626
0.03205063
-0.0019072641
0.019193428
-0.0009798595
-0.026826791
0.009881775
0.023297476
-0.01302711
-0.011537745
-0.009951195
0.00239496
-0.015998496
0.015087296
0.026934525
-7.461244e-06
-0.02069539
0.03568403
0.013499033
0.03752374
0.0060288575
-0.011176778
-0.00418189
0.0020349652
-0.039472032
-0.0054393974
-0.0031984132
-0.017718343
0.004843212
-0.039081093
0.010973841
0.017148267
0.023381773
-0.021232123
-0.024362456
-0.014512504
0.004775235
0.013015544
-0.04450494
-0.0047442266
-0.03261444
0.0040494725
0.0268554
0.0060751825
-0.016268933
-0.005996019
0.030439688
0.013506332
0.005224126
0.054589666
-0.00010538847
-0.017412968
0.047489885
0.004371321
0.015304004
0.016260007
0.024616782
-0.0218448
-0.008121842
-0.033112902
0.012357705
-0.0068485467
0.00029916284
-0.015045303
-0.018384391
-0.015723705
-0.004819772
-0.008900979
0.013981437
0.016071972
-0.023407973
0.0040156934
-0.026120536
0.023699036
-0.0076397667
0.010117847
-0.011465589
0.021180358
-0.008703456
-0.006593794
0.015204336
-0.024514096
0.006967741
0.030337194
-0.017733369
0.00010694495
-0.03209811
-0.0041327225
0.011631777
0.0019336045
-0.015589945
0.0041032075
0.024268078
0.041188765
-0.040887516
-0.020440487
0.018222157
0.010586572
0.010659737
-0.00189375
-0.00038926458
-0.0008796177
0.035562582
-0.008037569
0.0059549958
-0.021481153
0.002549051
-0.007956849
0.010288683
-0.03402295
-0.017711716
0.017690895
-0.04539182
-0.025237419
-0.019348204
0.008045555
-0.0034346
-0.009925363
-0.02354521
-0.018966665
-0.016867336
-0.016950952
0.0062720254
-0.031084232
0.034397352
-0.0018343588
0.027017828
0.019210551
-0.001670207
-0.008084751
0.0031955752
0.02770621
-0.007760128
0.005805372
-0.02170458
-0.006613306
-0.031824972
-0.015877783
0.00057246396
0.02808734
0.0071232542
-7.7701945e-05
0.014956915
-0.004543994
0.0016340005
0.00755815
-0.02074717
0.01668918
0.027000027
0.011001595
0.0035899815
-0.0057456223
-0.0023072301
0.007373067
-0.017214624
-0.02319423
0.0058269952
0.017775957
-0.048961118
-0.0061693266
-0.018410148
-0.010901712
0.0051005427
0.007425626
-0.0056104055
-0.01667355
-0.028854202
-0.023578962
0.0038710402
0.01170529
0.026050586
-0.010514736
-0.01431521
0.008887061
-0.019303298
0.026011867
-0.022660464
0.0074820574
-0.019023817
-0.007083514
-0.040260237
-0.017166456
0.0044767973
0.021317419
0.022644056
0.010424405
-0.039280355
0.0021340833
-0.0010569576
0.054259345
-0.026580725
0.0055709914
-0.0038948527
0.028216578
-0.0129297925
0.017295523
0.0028343862
-0.006292025
0.00037638278
0.0040715043
-0.024535367
0.016896497
-0.034585327
0.005216775
-0.010974933
-0.0052100834
0.03564504
0.013547093
0.0363228
0.04356347
0.018750064
-0.027444849
-0.02816186
-0.0030471066
0.010398379
-0.010305734
0.0062919264
-0.0025874826
-0.0071098977
0.005206304
0.015077494
-0.01056437
0.002601807
0.0024685469
-0.023427447
-0.042064205
-0.012182105
0.016385784
-0.023151338
-0.035165552
0.061943635
-0.018141555
-0.004626349
0.027083116
-0.019504935
-0.0009627857
0.013768338
-0.032404955
0.0015723258
-0.010356573
-0.036698997
-0.008928519
0.025484605
-0.008817363
-0.03142881
-0.01148014
-0.0028499973
0.026763814
6.762799e-06
-0.015489154
0.0014726778
-0.011273184
-0.009041256
-0.0008384418
0.018832937
-0.0022190847
0.0152393365
-0.010442619
0.007250086
-0.003928731
0.022260785
0.027414544
0.0062123607
-0.03540314
0.0041205455
0.028630804
0.008625001
0.0082793115
-0.028638592
0.032967914
-0.022418533
-0.04234144
0.019623177
-0.009061271
-0.008383485
-0.020624861
-0.0025112918
0.027544873
-0.02168093
-0.013463022
-0.02824185
0.022294989
-0.009321075
-0.0095851505
0.0093795955
0.0012979895
0.02873232
0.0026336196
-0.025859429
0.011737443
-0.018762603
-0.0041118613
0.01373892
0.036278125
-0.017552374
0.004028173
-0.02351972
-0.020370908
-0.020738661
0.007272352
0.024181481
-0.0049289293
0.03628874
0.0053338907
-0.0160386
0.010404281
0.00910635
-0.046049185
-0.028388824
0.0038049973
-0.025356695
-0.017862303
-0.020917151
0.04743369
0.032634806
0.0185197
0.02476992
-0.014834721
-0.014403229
0.015817726
0.0200644
0.010174766
-0.012300867
0.02050845
0.019315943
0.004944534
0.0023249344
0.020121058
0.025966076
-0.044563655
-0.020397024
-0.019553712
-0.010855896
-0.0049780486
0.010468235
-0.01847511
-0.0217114
0.003015202
-0.011973103
-0.0228339
-0.005316941
0.025511453
0.005353949
-0.038670428
0.0061507192
-0.00949235
0.012023014
0.012171351
0.0071066446
0.030500628
-0.022146374
0.005873418
-0.022851996
-0.024429997
0.008006826
-0.007138214
0.029629659
-0.021126423
0.0124171525
0.0007711636
0.00473005
0.00081548345
-0.010881801
-0.0039026877
-0.0017620435
0.03189458
0.0004894334
-0.021445345
0.0043247063
-0.00026111116
0.019187732
-0.023968723
0.042050026
-0.030681776
-0.040881667
-0.038998105
-0.022870362
0.032458022
-0.0069454038
-0.04696089
0.046794843
0.007472926
0.023735296
-0.028121065
0.010164401
0.04465598
0.009144782
-0.03778971
0.018848535
-0.01110717
-0.010080649
-0.034010604
0.0043081376
0.026267657
0.007131959
-0.024671344
-0.009237914
-0.0054357564
0.013258279
0.017290415
0.031867
-0.006017692
0.019155394
0.0023068034
0.03168338
-0.026802741
0.0132302195
-0.006825169
0.017994594
-0.003193453
0.016252048
0.02539067
0.031546697
-0.007087682
0.004054707
-0.0109523125
-0.055800524
-0.00668461
0.00046947738
-0.025991598
0.010599598
-0.036292873
-0.03919254
0.047930732
0.014678014
-0.015375334
0.0089115705
-0.020492699
0.0058932817
0.017020864
-0.042585544
0.00493228
-0.017834082
-0.008324754
0.0071014958
-0.007282413
0.021015793
0.014416921
0.04131513
0.0074937046
0.038297057
0.005817605
0.01666981
-0.00716885
-0.006054284
-0.011179819
0.013549947
-0.0026966762
0.006947477
-0.0004851594
-0.030274754
0.00018315624
-0.00090035715
0.041785978
0.0010753754
0.02621725
0.022540623
0.015807418
0.01563542
0.029688649
-0.025637547
0.0004617468
-0.009024004
-0.011372448
-0.014407663
0.0076840823
-0.01198021
0.0016454498
-0.008734481
0.01667646
0.011556984
0.04240574
-0.032538157
0.02880008
-0.030098835
0.01775382
-0.018240213
0.030138187
-0.047654405
-0.026739644
0.0041066697
0.029020783
0.0012353575
0.008281443
0.008568904
0.03328345
-0.0028901303
0.004719001
0.022707397
-0.011468775
-0.012561362
-0.028662829
0.011482197
-0.02097107
0.018069021
0.0046006152
0.012261431
-0.024592126
-0.022356676
0.011581677
0.03669978
0.018237703
0.0012918207
-0.0005991223
0.01040461
-0.008444102
0.04303677
0.027507417
0.004252058
0.009096545
0.01577646
-0.015219821
-0.0007965335
0.012505303
0.016788092
0.0027390015
0.035589065
-0.018235367
-0.01843164
0.010352403
0.0071690916
-0.0084191235
0.007502567
0.030573845
0.019675644
0.03513247
-0.04693238
0.039750773
0.033545688
0.0032406487
0.011278528
-0.027645787
0.013841562
-0.0051103416
0.0061353454
0.001518932
-0.016554289
0.009892693
-0.008644129
-0.015528682
-0.006037734
-0.0039820177
0.023865372
-0.023811676
-0.018274957
-0.004229182
0.027697815
-0.0011478075
0.0278955
0.0174205
0.02641507
-0.018965341
0.0027246757
-0.009834058
-0.0056963926
-0.047447085
-0.010651303
-0.009940013
-0.020852124
-0.012984289
0.0044584107
0.016012525
-0.0010949502
-0.010747751
0.023693038
0.004674742
-0.029490236
-0.004695857
0.013442131
-0.027293732
-0.03147681
-0.029004263
-0.00655304
0.025098914
-0.0037833187
0.009889047
-0.04981699
0.030667828
0.024566116
0.009927348
0.010017505
-0.002819547
0.0062443637
0.01300909
-0.02152427
0.0060154838
-0.0019702527
0.0040287543
-0.021062333
0.0055967844
0.022260658
0.010524379
-0.017360598
0.015681433
0.0007185486
0.010369577
0.019260451
0.0043578143
0.027776718
-0.025680708
-0.0155677805
0.022083616
-0.025124151
0.009421885
-0.004157362
-0.010969486
-0.010145695
-0.028568747
-0.0034333586
-0.014961592
0.0010950915
0.014844857
0.01540684
-0.026746912
-0.015037005
-0.031586304
0.00065426744
0.020479107
0.0055742296
0.007469312
0.00039079727
0.018316193
0.010277426
-0.040196877
0.04467978
-0.015360952
0.0049850214
-0.02619353
0.013830449
-0.015628055
-0.020419478
-0.010623676
0.012055568
-0.0051224614
0.02947123
0.011576055
0.030198166
0.018294878
-0.01632963
-0.017881602
-0.010645756
-0.04347536
-0.0073711267
0.011259763
-0.011970628
0.0067371475
0.002000433
-0.0022022717
0.011133888
-0.03257129
-0.014217747
0.004762417
-0.013213848
-0.0126123605
-0.010217268
0.035079405
0.020415839
0.01801208
-0.045068167
-1.9928018e-05
0.0006219979
-0.025742484
-0.009681044
-0.017458932
-0.0114310905
0.013213631
-0.013255738
-0.017471781
-0.01106947
-0.027181339
0.030348485
0.009662684
-0.022050995
-0.0040927846
-0.010849601
0.019155381
-0.0098531265
0.028603038
-0.011132409
-0.008023215
-0.0030886265
0.009826944
-0.026603574
-0.009158739
0.011903517
0.03417856
0.02283328
-0.017956039
-0.02736844
0.030761443
-0.00058409653
-0.0049026967
0.0059619164
-0.014736231
0.024085708
-0.0015753609
0.0045339563
-0.023532875
-0.0005327993
-0.002970515
-0.0049474887
0.009503328
-0.00034083473
-0.017847857
0.020351248
0.036043666
-0.0096962005
-0.032446936
-0.00066320575
0.047249462
-0.023535354
0.0056753284
-0.04749893
0.0056138793
-0.027881293
-0.019891601
0.006788368
-0.019283928
-0.010595973
-0.01787791
0.026798286
-0.015455428
0.008313919
-0.007055609
-0.005255269
0.0003713239
0.02515347
0.0026617213
-0.0038639542
0.049077883
-0.019510193
-0.03388929
-0.0022498486
-0.016013632
-0.021455834
-0.007389022
-0.06028631
0.003362674
-0.012805458
0.020897126
-0.02722047
0.009570183
0.03162428
0.03256797
0.013440516
-0.017993027
-0.017052433
0.00061310973
0.03497782
0.017758664
0.022932447
0.017920943
0.0069167553
-0.019974174
0.010995684
-0.0089844335
0.010587273
0.058902808
-0.006886246
-0.01405793
0.011007884
0.027299294
0.056687396
0.013733904
-0.0028337648
0.020354258
0.0019464283
-0.028321356
-0.00965797
0.020282429
0.01335879
0.04744373
-0.026608562
0.03742712
0.025259973
-0.011219489
0.021431113
0.020384239
0.020256879
0.0026529473
0.008440761
0.005763375
-0.038412407
-0.014022653
0.009351271
-0.011569727
-0.007713635
-0.004304493
-0.00096416904
0.018031372
-0.043278623
0.0141534135
-0.0035391143
-0.02344389
-0.015414524
-0.020639107
-0.01347311
0.030081635
-0.0003247927
-0.014051004
0.011181518
0.00018526906
-0.011164067
0.0010447445
-0.027220242
-0.018615957
-0.015591552
-0.01383658
-0.040067457
-0.013864603
0.031537976
-0.0012642525
-0.00946242
-0.030238599
-0.009663331
-0.005746483
0.01682314
-0.015239712
-0.014981951
-0.020362781
-0.021327605
-0.020681616
-0.024209917
0.024502363
-0.033481434
-0.004619504
0.033715297
-0.008662109
0.008114673
0.019786293
-0.00812625
-0.018320935
0.028000839
0.008097779
-0.004684549
-0.0049656946
0.011268993
-0.018003471
0.031932592
-0.05561201
-0.0031444344
0.0077743107
0.03371026
-0.03527048
0.019662626
-0.037952535
0.031256232
0.0074968934
-0.027891837
-0.003719051
0.060195457
0.0066047544
0.024569137
-0.013760465
0.0126780085
-0.023976052
-0.0047517642
-0.003898871
0.0066039255
-0.006453399
-0.0053586373
0.009426102
-0.013363406
0.025893655
-0.020995645
-0.014524521
-0.03982135
-0.015637718
0.0037263935
-0.0022627306
0.000104508974
0.028919391
0.006031953
0.0008959952
-0.00097037415
0.006670429
-0.025159415
-0.035280988
-0.0354185
0.01580015
0.009828058
0.007585267
0.00042048632
-0.029197603
-0.03589121
-0.020204231
0.014473466
-0.01081959
-0.04624163
0.004699261
-0.008292412
0.042775873
0.00087875023
-0.0019677838
0.0056457985
0.006269074
0.031012475
0.010028877
0.0017146342
-0.018384539
-0.005696694
0.009579184
0.010311902
-0.005518232
-0.02355308
0.046915784
-0.003920907
0.01091545
0.0017393057
-0.0041708183
0.023893863
-0.035052296
0.042564068
0.007689996
0.0058622295
-0.023982253
-0.010657927
0.01737624
-0.026858531
0.007994945
-0.021657692
-0.016798891
0.0039019345
0.00022366244
0.0006868858
-0.0427139
-0.0037873702
-0.0010379095
-0.02531706
-0.005068438
-0.016988989
-0.024383452
-0.0012542882
-0.009301781
0.00087431795
0.021689478
0.018117458
-0.008637575
0.005044411
-0.021425959
-0.020477585
-0.020376462
0.026097434
-0.010557566
0.028380014
-0.017223166
-0.018450411
-0.006773346
0.0002711827
-0.010802901
0.04215833
-0.024493417
0.03441411
0.0062462334
-0.02735499
0.017881159
-0.03937557
0.0287839
-0.0047793943
0.0006006364
-0.035939995
-0.010065002
0.0064060865
-0.01570502
-0.009621811
-0.008030898
-0.006136876
0.053555556
0.006818431
0.01004856
0.009994993
-0.019498937
-0.034727357
0.017642988
-0.007429112
-0.00095053687
0.007964782
-0.045422487
-0.0047492753
0.007935324
0.011726988
-0.0023590513
-0.017883742
-0.0015486359
0.006926303
-0.022799306
-0.00024235954
-0.009632045
-0.014730613
-0.006012114
-0.0030368487
0.00677412
0.013267685
0.01328688
-0.0001873867
0.01890362
-0.009211716
-0.008441775
0.019823242
0.012113833
0.0051261354
0.0006562491
0.00019132628
0.003634392
0.022625962
0.011302267
0.0014818008
-0.035264023
-0.044640288
0.008764685
0.031133618
0.010759695
-0.01675032
-0.018315997
-0.042106695
0.017294226
-0.014264177
-0.015861176
-0.03400039
0.0005242276
0.003581791
0.012960588
-0.014955735
0.025989205
-0.013443743
0.0045285583
-0.020121016
0.030380363
0.014564118
0.02375964
-0.0006495562
-0.041248664
0.005292981
-0.016730167
0.008591917
0.016189042
-0.017556878
-0.017084202
-0.008476225
0.006673479
0.01181804
-0.028029826
0.04986033
-0.00892926
0.0074729803
-0.0012780621
0.01913957
-0.0058646635
-0.016476022
0.019201256
-0.008437093
-0.013756846
0.018253487
0.028750174
0.005744338
-0.015470137
0.024648327
0.02627115
-0.019467272
0.02035773
-0.011572137
-0.00471256
0.00230689
-0.045108072
-0.002859696
0.021255221
0.013268245
-0.023327582
-0.018643063
0.019588709
0.007967845
0.031168811
-0.022771284
-0.028774735
-0.003688187
-0.0085372925
0.020911956
-0.019371739
0.018925948
-0.039844055
0.0016825239
-0.019952567
0.008966741
0.0015839407
0.014414477
-0.032788515
0.03073173
-0.026517604
0.009624539
-0.03298735
-0.041915286
0.03133492
0.025685884
0.011109051
-0.009846532
0.008968101
0.008609605
-0.0016192318
0.010537055
0.03399538
0.0017625483
0.018604498
-0.017540915
-0.012778201
0.0019091086
-0.011565924
0.009389415
0.00787606
0.026058085
0.011303284
0.013823106
-0.017282682
-0.020085027
0.004757418
-0.0068105776
0.03405991
-0.0072337785
0.0043092403
-0.027311265
-0.029563397
-0.0068084095
0.026380684
0.04535475
0.005141167
-0.00036180284
-0.021516467
-0.01130271
-0.009238447
-0.023874938
0.013495709
-0.0083130365
0.01558797
0.00975032
-0.024873964
0.024509182
0.025101766
0.0030209518
-0.005740719
0.012937897
-0.019846529
0.05609906
-0.028980043
-0.0021111772
0.0045457063
-0.0045179077
0.011461233
-0.0027583549
0.0025632
0.01333595
-0.016833577
-0.026483862
0.0074666743
-0.05346436
-0.02004746
-0.024593817
0.012793701
-0.022467265
0.020046262
-0.011031017
0.0392475
0.009248769
0.0077872877
-0.018613465
0.0053145043
0.009991434
-0.01304939
-0.0066654524
0.021098478
-0.004288642
-0.015791165
0.004928478
-0.006988998
0.018886445
-2.8202518e-05
0.0219034
-0.019424915
0.008388615
-0.025266232
0.011765005
-0.021953594
0.0068855486
0.03727799
0.00983752
-0.0036241286
0.016530827
-0.025015475
0.03422468
-0.01617331
0.009269337
-0.00049068284
-0.03093126
-0.003784041
-0.0018457916
-0.040878557
0.022008555
-0.037444968
-0.024922026
0.01287051
-0.016419897
0.020917179
0.009844701
-0.0059250724
-0.0011968318
0.023683751
0.017936988
0.004335428
-0.020496478
0.006960299
-0.009861517
-0.031617187
-0.029516691
0.0151654435
-0.005597921
0.00028340454
0.0106452955
0.0045970865
0.008352503
0.004906152
-0.010073642
0.019634165
-0.012309737
-0.041725043
0.0063214903
0.005056483
0.01876089
-0.021538466
0.04819013
-0.009872596
0.004992812
0.007309518
-0.02269029
-0.00762785
-0.004384441
0.0316189
-0.0046924744
0.036730953
-0.00055831834
-0.007822502
-0.013487922
0.049448967
-0.011977747
0.011031798
0.02785855
0.0010778994
-0.0010476059
0.010380073
-0.031778324
-0.028214915
1.8492594e-05
0.0061713015
0.055020403
-0.0058655897
-0.007325431
0.01630625
-0.003795967
-0.013582597
0.017027909
0.00769369
0.004528482
0.03216536
-0.009176627
0.0044312915
0.04042227
-0.03368929
-0.0022357542
-0.02502309
0.028631832
-0.0072167013
0.0023663077
-0.026947895
-0.009725838
0.016574228
-0.015217887
0.00030249316
0.026239524
0.007307934
0.025946077
0.00023255833
-0.012749364
-0.0038628653
-0.019327564
-0.017293494
0.007020599
0.007086522
-0.023292843
0.0005148979
0.016485658
-0.011638236
-0.013643688
-0.010347303
0.0005119916
0.047872875
0.0052719885
0.012866452
0.0008302202
-0.00082837476
-0.01028247
0.036616556
-0.059942774
-0.0066776
0.01567107
0.044521306
-0.0025076307
-0.0025427907
0.011368564
0.02897893
-0.00045689812
-0.019249113
0.04902292
0.004324014
-0.01263599
0.000526115
0.0054218885
0.004182945
0.0010871419
0.026041351
0.007066833
0.037727408
0.007446592
0.030167863
0.00483697
-0.03968524
-0.012028439
0.0010899798
-0.007447037
-0.016542368
-0.010606094
-0.009421188
0.025769081
0.0074514397
0.009726884
0.003362206
0.022766346
0.006532033
0.02848663
0.008076469
-0.021998016
-0.0051113227
-0.0055071656
-0.003446047
-0.0071801823
0.014290427
-0.0145936115
-0.012990413
0.0074833026
0.011673102
-0.005212837
0.005112073
0.0324441
0.022424769
-0.0062415767
0.0044734706
0.0051561957
-0.02221283
0.018408967
0.018851588
-0.020458903
0.009609038
-0.00800971
-0.0029081115
0.0086987745
-0.005875375
0.031501748
-0.029263806
0.0125838565
0.010397537
-0.021705253
2.8290284e-05
-0.0043230685
-0.027130524
-0.0071554002
0.0044472017
0.002144369
0.025559675
-0.014158445
0.0071042506
-0.014649915
-0.011682755
-0.0057267863
0.025997235
0.021561699
-0.002256829
0.015617652
0.038370762
0.008646307
0.026370265
0.01003618
0.0055428534
0.013919501
0.01690495
0.014046288
-0.005269271
-0.026867058
0.020249657
0.021558158
0.0072245477
-0.020697737
0.014634926
0.016964534
-0.019771965
0.05412458
0.012213914
0.017350972
0.0010554646
0.010715729
0.007861564
0.02947341
0.002301408
-0.010840569
0.010524076
0.00712101
-0.02030619
0.013973685
-0.0071376935
0.01649049
-0.038884062
0.0066660293
-0.014475529
0.021566885
-0.0027808668
9.579602e-05
-0.0025863277
0.026771283
0.02288877
-0.026864566
-0.009607699
0.01154967
0.010353889
0.019186368
-0.0060482966
0.035062145
-0.01887353
0.0012559008
-0.007059027
0.002583485
-0.0061732987
-0.042743787
0.016428309
-0.013692827
-0.002546946
0.0013977828
0.010284037
-0.023642497
-0.010634445
-0.027583294
-0.03206668
-0.00061717414
0.046693146
-0.021757638
-0.027211508
-0.0024965298
-0.031851426
-0.00204409
0.040970545
-0.004888172
0.004577245
-0.007373204
0.028903686
-0.012191927
-0.0020670774
-0.004249274
0.019536186
0.011223759
-0.029940655
-0.019624464
-0.004278365
-0.004390418
-0.00072568556
0.013244278
0.0064701424
0.030318359
0.02739359
-0.016363297
0.02171103
0.01030889
0.016678123
-0.009222773
-0.019179642
-0.04609999
0.017384699
-0.005962049
-0.0031915472
0.005381931
-0.0067908634
-0.043522943
0.033909418
-0.012366535
0.008179433
-0.0022535936
-0.014123508
0.008000392
-0.013459872
0.012122701
-0.0028403616
0.0110853575
-0.025971653
-0.02087372
0.02525262
-0.03706753
0.018154785
0.0047831824
-0.017537205
-0.020582957
-0.026931202
0.00256593
0.022124264
0.019274145
-0.018444508
-0.012580451
0.032513555
-0.010582497
-0.0126156565
0.004944938
0.0060405484
-0.044604547
-0.007865225
-0.015271025
-0.0147852665
0.020584218
-0.0115873935
0.010664983
0.012737301
0.02537738
0.018161083
-0.000689639
0.014668173
-0.0002067593
-0.010342949
-0.012576401
-0.013812176
-0.02904416
0.038851693
9.134233e-05
-0.006518733
-0.0005213772
0.038145788
-0.03413963
0.00886492
0.034146477
0.0038687235
0.014854837
-0.007615963
0.0136169875
0.02430482
0.009713123
0.016890984
0.008975198
-0.008838118
0.021316087
-4.3768883e-05
-0.031796195
0.020419914
-0.043190107
0.0106914975
-0.012712195
-0.005619901
0.0068520396
0.00045507422
-0.0016603684
0.008584173
0.049597267
0.0087156175
-0.014689022
-0.013872203
0.002280932
0.017068611
-0.029437212
0.0057735923
0.0262457
0.009458666
-0.002852812
0.009868554
-0.026499268
-0.0042752917
0.034624096
-0.009773482
0.0032145916
-0.029426895
0.021309821
-0.028326726
-0.017897286
-0.0032673317
0.009863162
0.001851718
-0.012351684
-0.016579414
0.00319231
0.008676273
0.043942828
0.007247942
-0.0042276992
0.01473654
0.032095008
0.009315804
-0.022878822
0.03997027
-0.007516272
-0.003958683
0.0020034888
-0.0066255606
0.014820849
-0.00566689
-0.010384476
0.005388128
0.00076168415
-0.0167962
0.007285393
-0.017716682
-0.030874373
0.0078770025
-0.03176421
0.04072365
-0.02416157
-0.0046539963
0.0217066
0.018102765
-0.017405879
-0.013096295
-0.018293977
0.0020074688
0.026698764
-0.00893499
-0.024272421
0.008953945
0.008424842
-0.001542734
0.0076643326
0.013224762
-0.018743714
0.019329306
0.015545911
0.029435111
-0.0078115547
-0.00588005
0.013901093
-0.0038201238
0.018565403
0.031343758
-0.025386292
0.023181925
0.01256627
-0.039076086
-0.027390787
-0.030140903
-0.0032577883
-1.8736639e-05
0.020972162
-0.010332739
-0.020975484
0.041062728
-0.025607435
-0.03227157
-0.002707309
-0.0006325029
-0.045271263
0.029715385
-0.02474601
-0.00418526
-0.022642272
-0.022510972
0.031450614
-0.011510692
-0.024632718
0.005884373
0.00825741
-0.016678061
0.017278692
-0.015307684
0.019702885
0.004720433
0.005890898
0.0084851375
-0.011317787
0.009349915
-0.01377368
0.025467312
0.01139432
-0.019891094
0.022248745
-0.009571829
-0.004753682
-0.052307166
0.018156791
-0.024992451
-0.012766878
0.023788895
0.01903712
0.021214645
0.0056974683
0.004508465
-0.009393394
-0.008811297
0.005460373
0.02591868
0.014963795
-0.003555674
-0.004183126
0.022351129
0.017937377
0.013939872
0.011877366
-0.0016044497
-0.028070752
0.031468205
-0.012793917
-0.023925953
-0.012437114
0.03231071
0.008853151
-0.0051894104
-0.0020679398
-0.02529306
-0.018125683
0.022039035
-0.0023012944
0.006930774
0.06741781
0.010583648
-4.711268e-05
-0.026362054
-0.013122641
-0.007610551
-0.011238363
0.008597376
0.005290141
0.004705733
-0.0021368482
-0.00025427178
0.002502927
0.027095582
0.024087423
0.018431187
0.014443015
0.016127346
-0.030474514
0.017935773
-0.014649508
-0.026807252
0.010475018
0.014232617
0.021276696
0.023715965
0.009102582
0.024388896
-0.015180054
-0.00084807456
0.046355885
0.028028237
0.04065276
0.017045699
0.013984048
-0.009690477
-0.032680266
0.00956936
0.018303448
-0.006597409
0.016718902
-0.009543018
0.031134002
0.00072435715
0.010184696
0.0082097715
0.02418719
0.01936211
0.00019679032
0.009460549
-0.0008747961
0.021669293
0.009586536
0.00064097793
0.015277578
-0.025649616
0.0069363406
-0.021775827
0.031716276
0.01772395
-0.014006385
0.016414355
0.010979087
-0.05245042
0.0050061718
-0.029913496
-0.014319635
0.002056941
-0.027005298
0.004895393
-0.0016009394
-0.005604149
0.0014955652
0.0021632202
0.03307291
-0.0033603208
-0.010709079
0.0028868143
0.018144041
0.01658888
0.03349627
-0.039483033
0.03151444
0.002099153
0.025371298
-0.040264256
-0.022182848
-0.004114526
-0.018063834
-0.0063300002
-0.003341359
0.038494498
-0.039409947
0.017265461
0.00055756705
-0.01576734
0.003311251
-0.025014944
0.0060064835
0.027972613
-0.0073552825
0.015032965
0.0013523948
-0.009852313
0.04610282
0.04392337
-0.02604065
-0.020098398
0.007887708
0.03727087
-0.010277129
-0.032400686
-0.02322537
0.0024972218
-0.012559048
0.01384016
-0.0062229363
0.0015070362
0.0004482393
-0.0024420337
0.030147804
0.006881627
-0.0033817112
-0.013832379
-0.021298878
-0.0012790695
0.014511007
-0.01566173
0.0002244484
-0.020142946
-0.037837535
-0.0048697935
0.0025229275
0.009943578
-0.018253662
0.005201018
-0.037359774
-0.0014675593
-0.0401862
0.008698772
0.02073061
-0.026163332
-0.009187277
-0.008657158
0.023065517
0.02841007
-0.029076077
-0.0062390715
-0.03345931
-0.0062784487
-0.0063876286
0.010206559
-0.025113225
0.009884965
0.010403388
-0.0058173058
-0.016998552
-0.030418277
-0.0014248614
-0.019724524
0.017734956
-0.01689122
-0.012279971
-0.031579252
0.009407795
0.014000286
0.006059671
0.0475374
0.024538584
-0.029082717
0.0060367384
0.011908567
-0.017947609
1.4788423e-05
0.029788302
-0.021478035
0.020765144
-0.0006728957
0.006691061
0.0075858543
-0.007668028
-0.024003843
-0.011770385
0.019843373
0.02460849
-0.010595794
-0.0033958298
0.009829788
-0.013536338
0.031625494
0.00900877
-0.029224502
0.019714179
0.023154058
0.038477257
0.012867893
-0.004847426
0.009464722
0.041693248
0.05871317
0.054861415
-0.01010228
0.008102061
-0.017929096
0.009189872
0.02763637
0.026700348
0.00718016
0.025643935
-0.014960002
-0.0031917777
0.0117582055
0.024650915
-0.010665003
-0.019894432
0.0140018035
0.03243786
-0.009597391
0.014965951
0.0022114709
0.012718232
-0.004519255
-0.017198527
-0.0019518211
-0.00094516797
-0.013164811
0.04882396
0.027632399
-0.027040614
-0.0026535331
-0.0024144154
-0.006650532
0.008724882
0.017297028
-0.014324665
-0.016227288
0.030441107
0.025463592
0.0107789505
0.010256582
-0.042025723
-0.014468598
0.010844261
0.032554634
-0.002999883
0.026077911
-0.011047759
0.016186735
-0.005479797
-0.0112851905
0.012047817
-0.014851856
-0.016362919
0.000974358
-0.0256502
-0.00092730555
-0.0010078427
-0.015936341
-0.01905947
-0.018955112
0.01034621
0.0044250838
-0.00838527
-0.005212491
-0.011255696
0.01063228
-0.0035417054
0.00630319
0.0065506236
0.0011289323
0.017944597
-0.01946106
0.016358793
0.016783105
0.015512998
-0.0006458616
0.016246606
0.0047269366
-0.01615661
-0.0073174224
0.013629077
0.0113892695
-0.008209136
-0.0019909316
-0.029709674
0.017617889
0.0141407605
0.008399782
-0.021063715
0.023201415
0.006224595
-0.019309022
-0.017861906
-0.003936652
-0.017634306
0.005944104
-0.013435013
-0.026425015
0.009047697
0.0029210655
-0.017111538
0.022127189
0.014632082
-0.025247302
0.0075862478
-0.034128223
-0.028820656
0.0036652677
-0.014646421
0.0053882576
-0.024518423
-0.017049847
-0.01660077
0.02762638
0.024101447
0.022676865
-0.00937847
-0.01618616
-0.026032507
0.0009120884
0.060831837
-0.043715663
0.02151366
-0.03660158
0.013142502
-0.016534856
0.014596313
0.014354337
0.006193146
0.044302706
-0.006928746
0.016274346
0.044068355
-0.017902972
0.024861326
0.0022715318
-0.028663334
-0.012647397
0.004378738
-0.0051760213
-0.013934819
0.022040809
0.040113933
-0.034140803
0.01953193
0.01644805
0.030265639
0.019089269
0.026668033
0.032776173
-0.02050467
0.013173871
0.004195469
0.016080728
-0.0029816313
0.0169391
-0.014192812
0.004054868
-0.030638598
-0.019913718
0.0003784156
-0.00637027
-0.027975133
0.026431095
-0.033492804
-0.012618739
-0.0084297
-0.03183067
-0.014092166
0.007551717
-0.034606393
-0.007809891
-0.03414693
0.034243148
0.026491664
-0.0012034434
-0.0011545302
0.010664897
0.01240924
-0.006593419
0.013082694
-0.010529331
-0.02360991
0.002783962
-0.0019841865
-0.026091969
-0.041103214
0.031367827
-0.0122569185
0.01880011
-0.006625078
0.035196524
-0.035198294
-0.002713573
0.030952932
0.01808205
0.004530899
-0.03452599
-0.0042244243
-0.00044395088
0.028405463
-0.025978066
-0.006215358
0.010664024
-0.009781955
-0.025154235
0.03380381
0.0013715093
-0.013112873
0.014891109
0.019805152
0.016319755
0.027983164
-0.017839918
-0.0013978867
-0.0071924482
-0.0072534643
0.011328454
0.007965484
-0.02181525
-0.0031147243
-0.0011258875
0.022854775
0.0066426103
0.018524978
-0.002353091
0.004923775
-0.0033746255
0.03554104
0.0014231013
-0.025692292
-0.00426939
-0.011123923
0.0020994674
-0.02003143
-0.007860795
-0.012677744
0.038813736
-0.030006899
-0.006774174
0.015298875
-0.029632835
0.036834963
-0.003882909
-0.0018976151
-0.040437106
0.0166958
-0.0026568964
-0.027050871
-0.0026416287
0.004607644
0.013302414
-0.0040096696
-0.021355193
-0.00508851
-0.031898163
0.0042715655
-0.006041016
0.012303882
0.01722106
-0.009953054
-0.014269105
0.015268021
-0.018041527
-0.01016443
-0.0007166233
-0.016875444
-0.0016769146
0.020643294
0.0094705
0.0058347294
0.0027266617
-0.011229945
-0.008070909
-0.009787058
-0.0012538021
0.013020755
-0.02908594
-0.015390853
-0.015665853
0.01579575
0.03482936
0.0049309833
-0.020519886
-0.0046914197
0.03756755
0.029731447
-0.0020553826
0.010167207
0.00083766726
-4.1471925e-05
0.0061721546
-0.02862744
-0.004320947
0.0020863384
0.002182026
0.015416729
0.039805856
-0.001057479
-0.009147878
0.030065726
0.028957507
6.564946e-05
-0.008576685
-0.0063130343
0.009008241
-0.022205723
0.01880724
-0.05222123
-0.0032612632
0.03406222
-0.034386065
0.00441703
-0.002436063
-0.023544168
-0.00047570173
-0.004318485
0.006762069
-0.025234517
0.024299178
-0.02480702
0.042641357
0.046627503
-0.03142661
0.045208607
-0.0014368423
0.026158873
0.013556167
0.020409763
-0.01082248
-0.040100817
-0.0023475857
0.01687432
0.020782372
0.020594208
0.0050720237
0.00028269368
0.019799858
-0.0038927975
0.012343527
0.034055717
0.030676506
0.016466366
0.002013801
-0.004966125
-0.00036199132
-0.025361676
-0.038651995
0.0011501767
-0.0192584
0.0017024131
-0.0019131906
0.009977957
-0.012276468
0.01985538
-0.038969558
-0.015929483
0.016970443
-0.006210405
-5.190574e-05
0.0017591311
0.00048363316
-0.0072600273
-0.019646998
0.023168236
-0.0075436756
-0.004521823
0.0011582494
0.0018125543
0.030285446
-0.0243699
0.009902518
0.014530635
0.0328093
-0.006617527
-0.0065135513
-0.002048458
-0.011307222
-0.0018158228
-0.020621069
-0.006461896
0.0021211824
0.027863
0.019574242
-0.023279356
-0.003328526
-0.037741
-0.017559411
-0.04809319
-0.00065872236
0.0074492567
-0.011403068
0.0034473403
-0.02329055
-0.009363604
-0.010798486
-0.0013749102
0.0055638133
-0.008488483
-0.014621513
-0.011980236
-0.014780167
0.012440334
-0.005017093
-0.007978746
-0.003888961
-0.01398818
-0.011819032
-0.018354747
-0.02400886
0.012802862
-0.02357279
-0.0004164482
-0.03180386
-0.020180015
0.008624317
-0.0039946074
-0.0049697915
0.012422327
0.007944225
0.02543377
-0.0015974344
-0.01423519
-0.007998483
0.011213401
-0.03682276
0.011207049
0.0022051507
0.0018644434
0.054817174
-0.019997604
0.012083051
-0.017114747
-0.0131512
-0.00026675896
0.018331122
-0.01668041
0.024562454
-0.0016208796
-0.028616501
0.005667034
0.02831029
-0.029647026
2.4025012e-05
0.029114563
0.016673705
0.013386247
-0.026737303
-0.007274254
-0.009862201
-0.00042534454
-0.0149285
0.00724351
-0.007645236
-0.0038851744
0.013749342
-0.0060657985
0.017820068
0.0081176385
-0.010140262
0.005310164
0.015333434
-0.012391837
-0.017093383
-0.014501867
0.0017093805
-0.008987947
0.025360571
-0.012161409
0.009573999
-0.004555085
-0.012291655
-0.010770275
0.021931924
0.0090184165
-0.01820243
-0.008729777
0.024143614
0.0053497893
0.0029192516
0.013711199
0.014802547
0.022677915
-0.023353774
0.024911279
-0.012369621
0.027020577
-0.018292475
-0.0063295183
-0.031568814
0.009611779
0.011141179
0.01064087
-0.0043337964
-0.014086743
0.00065780804
0.04725763
0.009511311
0.0024444568
-0.014236187
0.013519792
0.0076773916
-0.018587831
-0.011107274
-0.004580172
0.00833864
-0.023398843
-0.015966231
0.00708423
-0.016805137
0.0019418546
-0.020541413
-0.028277239
-0.012370051
0.011760716
0.0108585125
0.0028348484
-0.018137855
-0.025552068
0.016396215
-0.023176763
0.008091696
0.011849116
0.025188224
0.0035918145
-0.009929267
0.0065121897
0.031133477
0.0031551947
-0.016015138
-0.028745169
-0.030868229
0.00498465
0.018379975
0.052082967
-0.011308075
0.008964224
0.0031775448
0.0033356594
0.0059598843
0.01565759
0.023587478
0.011444029
-0.008250269
0.0003423722
0.0067849504
-0.01112735
0.022794075
0.0001587758
-0.012345941
-0.026051406
0.014798475
-0.011338414
0.019247212
-0.044291157
0.016852792
-0.009683992
-0.0061713746
0.0333712
0.016236309
0.03513123
-0.016178865
0.021124465
-0.037023865
-0.034167696
-0.0099206865
0.010629122
0.015891252
0.007165599
-0.021630924
0.008063272
-0.018537194
0.01744175
-0.07452199
0.019887142
0.03040471
-0.023835322
-0.025740229
-0.032710806
-0.031810116
0.010775493
-0.0067998567
0.009520942
0.017225415
0.028136358
0.0146408435
-0.01528333
-0.013298751
-0.0010101637
-0.0035100803
-0.035646304
0.024453409
0.001445169
0.005314942
0.008945209
-0.023804812
-0.06847411
0.03727355
-0.0023767762
-0.025113553
-1.1078632e-05
0.0151076205
0.008917451
0.015439354
-0.02089497
-0.016408185
-0.03236349
0.0065204194
0.025327066
-0.04246302
-0.004999863
-0.0004225229
-0.0059702885
0.0016592582
-0.006226614
0.040292885
0.02146378
-0.034618255
0.03294574
0.017027557
0.014064936
0.013860305
0.011870193
-0.011454937
0.0070360014
-0.01675197
0.021665646
-0.0071716052
-0.0641532
-0.0007530835
0.016140848
0.011016932
0.0062924963
0.016858254
0.04265098
0.017109407
-0.010573397
0.022600304
0.02179827
-0.043357823
-0.0054402896
-0.013938322
-0.014400015
0.01155253
-0.0053767506
0.0052896026
-0.005711807
-0.02085744
0.004831015
-0.008019038
-0.034134466
0.02546612
0.014511362
0.002502962
0.019933017
0.018717756
-0.0072722267
-0.007265277
-0.013008275
-0.014696144
0.0061610956
0.0074057174
0.01210721
-0.0062368843
0.024753528
-0.012991604
0.00019239556
0.01843083
0.00460929
0.011891595
-0.0016608424
-0.010866205
-0.008043782
0.022172209
0.009660975
0.010926838
0.025674485
0.024183992
0.010200829
0.004623987
0.00995661
0.01590552
0.0029853897
0.00040557332
0.013637132
0.014481455
0.0070403246
-0.007804701
-0.017278774
0.019539215
0.02124544
0.0077534756
-0.010260787
0.0023010098
-0.020644164
0.030039262
-0.00071077276
0.0050514136
-0.011581563
-0.07051846
-0.025034728
-0.019140178
-0.0142764915
-0.004574658
0.0062245247
-0.020477613
0.009510058
-0.0016406034
-0.005233904
0.012972279
0.02920714
-0.0051748133
-0.02458823
0.016439456
0.017352803
0.035517298
-0.011027849
-0.02126519
-0.00361605
0.011510362
0.047143135
-0.0047129905
0.010721952
0.056728132
-0.017977484
0.018160854
0.030004203
0.002804814
-0.0060006916
0.04689139
-0.009949714
0.00260907
-0.0011561892
0.055280678
-0.007908078
-0.0036166974
-0.017547464
0.032758202
-0.002826971
0.03994948
-0.01849616
0.02760071
0.012134946
-0.0050136833
0.005383143
0.0025267047
-0.012616332
-0.017532578
0.01857988
-0.03210664
-0.0014265425
0.015528514
0.012890506
0.0037574167
-0.038930286
0.018025028
-0.0043827933
-0.0371673
0.007830317
0.009648614
-0.015644208
0.008121206
0.010536662
0.023104694
-0.0077635143
-0.036409028
-0.0078403475
0.019566705
-0.03394073
-0.001219265
0.0030631705
-0.010754768
-0.002807526
-0.0052974164
0.027421143
-0.03812065
0.024079274
0.021974454
-0.0082567455
0.004083804
0.008632547
-0.02011159
0.01710737
-0.00032368596
0.028115464
0.014095619
-0.0135143325
0.0028386044
-0.00881198
0.012433393
-0.025629882
-0.01204859
0.013299989
0.006539433
-0.016217593
0.0013658927
-0.012608053
0.0055170506
-0.028754257
-0.023322245
0.03855387
-0.031003129
-0.0053326087
0.04947821
0.016039446
0.020223793
-0.020108523
-0.020265471
-0.01714583
0.011019245
0.0074229506
-0.031454083
0.026981354
-0.023359954
-0.0061135516
0.018589824
0.013462882
0.014359177
-0.0007565629
-0.0071338587
-0.003989585
-0.018928658
-0.0013835224
-0.008610776
-0.01997573
0.008384033
0.014200745
-0.006815557
-0.023987042
-0.009986523
0.004047297
0.0095778955
-0.0054552243
0.03921693
0.0024511141
-0.0004037582
-0.004083681
0.01189906
-0.005947197
-0.016461011
-0.009968459
0.025806343
0.003929462
0.024139032
-0.0053171143
0.0037301495
-0.043877225
-0.04126597
0.010252192
-0.0010854688
0.0015118585
-0.0008636431
0.023241835
-0.020027649
0.020311723
-0.039125785
-0.02785471
-0.05791879
-0.017481893
0.010215584
0.020285143
0.02201481
-0.00072409166
0.016411105
-0.008821087
-0.01531492
-0.02699956
0.013504934
0.046521857
0.008857657
-0.0015843463
-0.011060529
-0.008237227
-0.011337444
-0.017631385
0.006533387
0.034408398
-0.01209939
-0.02829359
-0.015263508
0.018489318
0.023514625
0.0100893425
0.017486183
0.0037962145
0.02118919
0.0017039323
0.017318256
-0.012991678
-0.03168192
0.0014677746
0.008557113
0.01866843
-0.010963804
0.0065563135
0.032919098
-0.0065235593
0.012067179
-0.023588404
0.019056026
-0.00957918
-0.0020591645
-0.019914707
0.007468764
0.015936071
-0.039259076
0.0026816316
-0.03396835
-0.0029805724
-0.03281537
0.017518565
0.0141473
-0.022598637
0.02431823
0.0118154595
-0.0063995593
0.006261685
0.016241115
0.011519727
0.0016362704
0.0049423
0.002376673
-0.02687932
0.0044771917
-0.03585139
0.010657845
-0.008406683
-0.007895389
-0.0077859596
0.029371204
0.029177496
0.04571467
0.0024198736
0.008481169
0.015715329
0.012898886
-0.0064739008
-0.0072272234
-0.015429798
-0.006824943
0.026348375
0.014283552
-0.012749583
0.042361286
-0.0045493394
0.032318838
0.003258489
0.040721755
-0.011424356
-0.009645724
0.003776184
-0.008663818
0.027715163
0.012047679
0.011910342
-0.009059944
-0.014033164
0.0029735991
0.00751382
-0.029785099
-0.026785158
-0.0014700107
-0.030919766
-0.009976057
0.018257959
-0.0059276116
-0.0082968
0.025844852
-0.021440934
0.019289669
0.01105116
-0.016524844
0.004588211
0.049460515
-0.0018314595
-0.010077816
0.028173886
0.008901346
0.032001365
0.032624975
-0.020232022
-0.0046608876
0.0028380775
-0.04154145
-0.015346095
0.002844417
-0.02620233
0.008652321
0.047442306
-0.014845727
0.011024003
-0.038936246
-0.0034355556
-0.035204552
0.032965183
-0.020683793
-0.024214365
-0.014344118
-0.031619184
-0.0186867
0.016692404
0.02276507
0.033365387
0.005182369
0.012126528
-0.00019294678
0.015325664
0.0069735073
0.022749368
0.0010806561
-0.002104678
0.009441635
0.02336905
-0.007976623
-0.009060638
0.009870235
0.025545737
0.037776638
0.012528093
-0.009607681
-0.0024988733
0.0072861155
0.0038767254
0.0024645296
0.0503858
-0.002534421
-0.008926274
0.031468064
0.00027832665
-0.0004691683
-0.032866374
-0.037531056
0.020129334
-0.003928099
-0.014585577
-0.036217686
-0.016821563
0.008808547
-0.029951947
-0.037247058
-0.009014764
-0.011524797
-0.011587353
0.039275248
0.007640393
0.008638565
-0.03311135
-0.014563876
-0.0012469102
-0.012877086
-0.027472079
-0.023142783
0.005435205
-0.04223599
-0.011851255
-0.006951761
-0.02945905
-0.00046065656
0.046944965
0.010388372
0.005228665
-0.024126124
0.024297858
0.018881511
0.023352778
-0.033922713
-0.027967982
0.010340232
0.009543023
-0.005016108
0.0030374834
-0.005050558
0.018127883
-0.01691868
0.024052665
-0.013134825
-0.01855459
0.02676208
-0.011232376
0.011126302
-0.005875729
0.0028595205
-0.006002793
-0.032256298
0.015171245
0.006028548
0.014179986
-0.019031174
-0.010897326
0.02941568
0.020263214
0.0071284478
-0.020661077
-0.02353229
0.016310222
-0.019587934
-0.0010441111
-0.020111743
-0.028590739
-0.027700113
0.03363516
-0.024700198
-0.0153109515
-0.0006203505
0.006396165
0.0014293117
0.018849215
0.00065751176
-0.005504298
0.016993714
-0.009958261
-0.035044525
0.022931468
0.0031669075
0.0035973373
-0.019582719
-0.03228523
0.011651193
-0.025880072
-0.01692336
-0.036003143
0.009610032
-0.015551519
0.004888322
-0.030103067
0.035217218
-0.0051838723
0.0063933413
0.0037243157
0.009351984
-0.005421482
-0.019307232
0.0026073656
-0.02410075
-0.011039873
0.019123854
-0.0005123325
0.033573072
-0.008042128
0.026963253
-0.029925587
0.020373957
0.037930697
-0.026124934
0.012755917
0.02793949
-0.0016668304
-0.011973835
0.0056777345
-0.01700109
-0.0092533175
-0.033053182
0.00094466045
0.009630613
0.01980626
0.013089291
0.03318698
-0.055271804
-0.00075021427
-0.019457668
0.024036288
0.015231661
0.008157848
-0.010435896
0.023014843
-0.027284933
0.008381956
-0.025104184
-0.0075694523
-0.027910369
-0.016023401
-0.008736401
-0.00482744
-0.024854314
-0.003951361
0.011893696
0.04542985
-0.013681286
-0.017216036
0.010592762
-0.019614777
-0.00736401
-0.015204968
0.010261229
-0.0009637559
-0.005468183
-0.0022903958
0.011757775
-0.0023754279
0.004091562
0.01054344
0.00032183906
-0.02169913
-0.0056791985
0.022367558
0.005390245
-0.040374145
0.018252246
-0.019641573
0.03756041
0.009384563
-0.022930602
0.028555991
0.02071078
-0.013505851
0.052337293
-0.012498078
0.029117322
0.010581137
-0.0142343305
-0.03127326
0.016902152
0.005363893
-0.019512787
0.003955361
-0.022160403
0.006208056
0.012129707
0.010566398
-0.020596674
-0.0025395632
0.006139423
0.02257293
-0.0423278
0.01785278
0.0073830676
0.013857679
-0.012400197
-0.014454275
-0.015288856
-0.00052293204
-0.019583212
0.029961076
0.011949021
-0.00050303
-0.026279697
0.02950507
0.010338732
-0.024123779
-0.023395343
-0.028601691
0.01521369
0.011003699
0.009082615
0.015269059
-0.0032607436
-0.014968547
-0.03683753
-0.014505216
0.015555953
0.016181147
-0.004673841
-0.032828845
-0.016993012
-0.016125472
0.025962431
0.01325208
0.012334598
0.008233069
0.032556497
0.009300787
0.018560221
0.0037967856
-0.0007117676
-0.0044183983
5.7294754e-05
0.014676775
0.011250305
0.04801739
0.033055153
0.009790865
-0.033524435
0.0043703807
-0.01607093
0.054563083
0.028249077
0.025377862
0.013216658
-0.016721923
-0.02032227
-0.01707073
0.0065569966
0.025389383
-0.041206937
0.020933926
0.01198161
-0.025517575
-0.029519694
-0.000261397
0.013826865
0.037652034
0.004669956
0.007714847
0.033739336
0.011057124
0.016897285
-0.05144386
0.010608142
0.01639887
-0.005761404
0.026150584
0.013109498
0.0139801465
-0.026603736
0.005740252
-0.008444381
-0.0086019505
-0.027257523
-0.010829977
0.02200025
0.018702397
-0.029636567
-0.005059372
0.01769465
0.022448666
-0.019915614
0.0042561498
-0.029157847
-0.022532286
-0.03007661
0.015463604
-3.696857e-05
0.028588763
-0.033083677
0.0010879708
0.005867435
-0.039037306
-0.00488845
-0.008354459
0.012099943
0.01493664
0.02999082
0.0004206407
-0.0061133844
0.008897248
-0.008466721
-0.0021315755
0.004965267
0.012499654
-0.007578762
-0.017218392
-0.0064557097
0.023742389
0.021775875
0.01313571
0.020748211
-0.024651341
0.0047023073
0.004987514
-0.0064172233
-0.004335444
0.01899275
-0.039055806
0.035745174
-0.021104872
-0.025078846
-0.004284928
0.026337804
0.026560318
-0.024877645
0.017959112
-0.0319716
0.025419679
0.004020105
-0.007889962
0.00871367
0.026446858
0.015941564
-0.0022948305
0.0072166543
-0.028933017
-0.0076386277
0.022211842
-0.017525496
-0.0003689874
-0.00886113
0.033069864
0.017263439
-0.005270006
0.028145742
0.0019521373
-0.022938365
-0.015722265
-0.0064094006
0.03061418
0.0018334072
-0.022870097
-0.012791821
0.010934529
-0.0126196705
0.013165767
0.002681165
0.008766428
-0.010343713
0.0046778554
-0.032401703
0.03896497
-0.0168211
-0.0052938554
-0.0035255277
0.04142554
-0.033848554
-0.01173748
0.009083534
0.013568245
-0.0011436135
-0.024962256
0.013087385
0.03563387
0.011782452
0.019003833
-0.011079852
0.037366096
-0.007818817
0.023816649
0.000104384264
-0.021168018
-0.0031313505
0.027248971
0.015277248
0.025854537
-0.014461501
0.02295049
0.0025792327
0.0050979704
0.0069484888
0.025129698
-0.004433995
0.013228106
-0.014734008
0.031666096
0.004396004
-0.014075792
0.0026770073
0.0020099962
0.0119411815
-0.008736819
-0.030821258
0.042240795
0.043462675
0.03318245
0.0013327424
0.01608897
0.0012668924
-0.02027803
-0.0020417995
0.027677972
0.0015156697
0.0069483635
-0.013924935
0.0048300503
-0.022683794
-0.01327593
-0.008996888
-0.004253783
0.011169153
0.015669461
0.014598091
0.0065155616
0.028048662
-0.0005357121
0.0015720137
0.018398503
0.014862059
-0.025608877
0.007566791
0.027271153
0.045123655
-0.031971183
0.0053115427
-0.013698414
-0.034740098
0.03165579
0.0101767415
-0.025717432
0.009276062
0.01204046
-0.009943509
0.009844636
-0.03899887
-0.020651147
0.0085308505
0.018257527
-0.018531142
0.014109601
-0.011033322
-0.00037382435
0.02037565
0.022942655
-0.003408867
0.008864098
-0.027890665
0.025852634
-0.03972548
-0.004439016
-0.04235913
-0.010981349
-0.019356672
-0.0081309145
0.01924887
0.04672883
-0.0025818383
-0.02285161
0.0022812856
0.013201446
-0.018357327
-0.042108934
-0.017087579
-0.0387136
0.027025256
0.0073496904
-0.012526042
0.023053134
0.0012318313
0.02863502
-0.037595652
-0.05449091
0.0051225238
-0.00090099557
-0.01547376
0.041389175
0.00073891645
-0.003857462
-0.011210328
-0.035392456
0.010081879
0.039328303
-0.004363001
-0.017585615
-0.005646901
0.008931334
-0.004462436
-0.019497836
0.03126087
0.007307468
-0.01981948
0.010292347
-0.02174586
0.012115335
-0.01685536
-0.040001724
-0.0012199944
-0.015053576
-0.0046574716
-0.023624668
-0.0039160023
0.00869131
0.008732739
0.028099455
0.0051417626
0.014738322
-0.04438603
0.013161942
-0.0010106361
-0.021558482
-0.013223287
0.018810408
-0.03190077
0.04115396
-0.009173783
0.009494135
-0.021672752
0.02599178
0.01846438
-0.030129403
0.017415844
0.0038006557
-0.008579408
0.062647745
-0.023382861
0.020311905
0.017205905
-0.024297932
0.012584071
0.013703999
0.03258725
0.021736648
0.021188851
0.00026649248
0.008742652
0.007043976
-0.0045779133
0.01938643
0.0032999744
-0.007898495
0.048897054
0.014600082
0.015142424
0.011828878
-0.0033209997
0.01247358
-0.024186155
0.012753425
-0.029834332
-0.02187243
-0.023353007
0.01608942
0.00136951
-0.0050188964
-0.013807847
-0.04816817
-0.0030660005
0.013396955
-0.018336529
-0.031627234
-0.03648017
-0.001028902
0.021414239
-0.024093714
-0.039590903
-0.021038145
0.005515794
0.0023427615
-0.029596848
0.0071857464
-0.0025225915
-0.0287592
-0.020768344
-0.035785973
0.044021443
-0.00074348215
0.023108162
-0.017416928
-0.020441517
-0.003086004
0.0067694276
0.02127957
0.007229718
0.017736576
0.006067145
-0.012699763
0.021959756
0.014624029
0.00041396002
-0.01391084
0.008581389
-0.041172594
0.010579554
0.025762219
0.0045897933
-0.009585924
-0.0019050933
-0.021370884
-0.019499028
-0.01476181
-0.031673145
0.000692845
0.02459038
0.010091658
-0.024233537
-0.013084359
0.013070477
0.021628601
0.012841425
-0.014688134
-0.0016884615
0.0013731883
0.01505384
0.020969149
0.009595724
-0.019196132
0.029838456
0.0066772536
0.0049317246
-0.0029868856
-0.0070223818
-0.016858824
0.026126062
-0.040407915
0.018264476
-0.0013835765
-0.0066559324
0.0049994867
-0.005950345
-0.013878874
-0.011218566
0.005557233
0.01166847
0.0021085425
0.013984806
-0.0029904165
-0.006408049
0.009707761
-0.016568296
-0.029511983
-0.0054028267
-0.02752156
-0.018484008
0.0024641491
-0.013297683
0.02145048
0.020194853
-0.03501416
0.0011402656
-0.0035052681
0.02213937
-0.007171135
0.0020434475
-0.020836093
-0.048982628
-0.026445433
-0.006144997
0.01734615
0.0024588138
0.016532099
-0.0026378154
-0.01060109
-0.026359962
0.015358963
-0.0010551485
0.02072342
-0.057035968
0.03269591
0.02084092
0.015073412
0.030103212
0.0045992434
-0.017650971
0.024085829
-0.008725312
-0.01208503
0.021339199
0.009937512
0.023651063
0.0070763505
-0.013505273
-0.005622405
0.013939369
0.027405163
-0.008493369
-0.002560779
-0.010929393
-0.004875923
0.018822677
-0.009693546
-0.00062971225
0.005198069
-0.02430587
0.015180279
-0.009543622
-0.0043014456
0.021012207
0.025381995
0.0243298
-0.0027963212
-0.021200614
0.005588191
0.040382084
0.025433488
-0.0037631819
0.006381946
0.011170307
0.0069479817
0.02206097
-0.00049463176
-0.016849479
0.02085478
-0.023648402
-0.007090179
0.003514043
-0.010323589
0.025576927
0.0065722787
0.021900097
0.028570017
0.043334536
-0.032184754
0.0127290925
-0.015513604
0.0056971107
-0.0102695655
0.017038036
-0.013857762
0.00039752643
-0.018530326
-0.00485598
0.009611312
-0.02358047
0.0021332852
-0.02502285
0.00078562566
0.00055024767
-0.026460806
0.020588895
0.025513776
0.05440492
-0.0035075902
0.019318072
0.02622894
-0.00092673354
0.013052129
-0.016273446
0.0115068685
-0.024257006
-0.00028071678
-0.032236975
0.0065095243
0.004131617
0.008644131
0.015600652
-0.009397593
-0.01964902
-0.015631586
-0.016120931
0.0058266744
0.003940281
0.003109333
-0.0017714589
-0.0062616174
-0.010794467
-0.005118206
0.053039655
0.041336086
0.034273427
0.0131684495
0.022141077
-0.0009421745
-0.004713118
-0.005091559
-0.028443545
-0.035322685
-0.0088199545
-0.024556221
-0.0037850803
-0.03294164
-0.030336995
0.008711528
-0.015850548
-0.044446357
-0.020355482
0.019291235
-1.8632043e-05
0.01382449
0.0122016305
-0.019900007
-0.007099097
0.037486658
-0.0005483385
-0.051617406
-0.00939063
-0.011574192
0.007610587
-0.016533459
0.004592027
0.008076071
-0.00521928
0.00703442
-0.007370259
0.012630297
-0.02540829
-0.04318048
-0.0077507324
0.00030954537
-0.007433368
-0.021974556
-0.010445043
0.010831875
-0.004693185
-0.00519227
0.012317091
-0.0041319598
0.030596197
-0.052256007
0.017844655
-0.007562842
0.010915086
0.007880404
0.008090682
0.011708064
-0.021607263
0.045932803
-0.02606111
0.0041518435
-0.0111579485
-0.009236639
-0.007835781
0.04591234
-0.009497065
-0.0046212124
0.026980037
0.03424515
0.03560134
-0.0074633746
0.020421684
0.028363934
0.0005136908
0.008608133
0.0073302346
-0.036467742
0.01428904
0.036093827
-0.032917354
-0.009177182
-0.024943689
-0.00396816
-0.01871879
0.019326732
-0.0021560758
0.0004916257
-0.0210147
0.025622226
-0.007992794
-0.011325411
-0.007929953
0.014669632
0.024103919
0.021867907
-0.017844135
0.008666729
0.01860151
-0.003069917
-0.02833266
0.01519462
0.017281333
-0.029929496
0.022174327
-0.009185806
0.015345145
0.018028684
0.0130491145
-0.0014619823
-0.024941318
0.015904013
-0.0102146985
-0.008762231
-0.00797594
0.015710488
-0.013478284
-0.019388098
0.021267558
0.02621666
0.0055734348
-0.032594405
-0.020218281
0.015022394
0.033729702
0.035523456
0.04405935
-0.0016002785
-0.0068150256
0.005248076
-0.016466284
-0.009982861
-0.004261215
0.008050001
-0.016410979
-0.002676253
0.014354299
-0.008912473
0.007449328
-0.0135865975
-0.038996305
-0.013331465
-0.031131241
-0.0065025655
-0.011124704
0.020560749
-0.031966586
-0.0093237655
0.03335877
-0.025769906
-0.0029763472
-0.042032473
0.011225296
0.0074697547
0.01430682
0.005793843
-0.017364848
0.013894912
0.04303772
0.0274236
0.033044685
0.045108527
0.00043033095
0.0070224977
-0.0017703836
0.036202908
0.0029927955
-0.0036881182
0.009386741
-0.007833006
-0.028675873
0.019401964
-0.049673993
0.004343244
-0.0177726
0.026239311
0.0066139917
-0.005656133
-0.03162546
-0.0023597984
-0.00030695228
0.0033723207
0.0034822938
0.0025938738
-0.01539887
0.0065836227
-0.020371258
0.034026943
-0.0049129585
0.030380465
-0.037909344
0.0151349455
0.016549872
0.021052947
-0.00079177425
-0.016682701
0.009412886
-0.00092494104
0.01134458
-0.008879813
-0.023736265
0.040138476
-0.0077264067
-0.0062064067
0.011790437
-0.028024439
-0.027248727
0.007787151
-0.0044372515
0.019564306
-0.0016812593
-0.01782841
0.024148578
-0.002539342
0.013794593
0.012384913
0.024423942
-0.02671332
0.023632333
0.0021709544
-0.02221446
-0.023659514
-0.013447419
-0.00087846396
-0.02710946
0.031609517
0.0027398362
-0.027308881
-0.03167333
0.010589755
-0.0052409624
0.015313496
0.022591101
-0.016035596
-0.0052415775
-0.033202678
0.02081059
0.020795425
0.0017465821
-0.0051374184
0.024662124
0.023756692
-0.015624668
-0.03562154
0.008473529
0.009489244
0.018239714
-0.010754268
-0.002838429
0.014747383
-0.007093053
-0.0063652634
0.0063143787
0.023002572
-0.015031357
0.029678646
0.0015247791
-0.001539323
0.01079995
-0.025308426
-0.011904073
0.0051913285
-0.03972149
-0.008123329
-0.0036717122
0.022465177
0.043969706
0.008239675
-0.006205968
0.0077395206
-0.02630062
-0.025508126
0.01540855
-0.004770342
-0.02755429
-0.013802196
-0.017141191
-0.02732322
0.029911889
0.008211356
0.008612168
-0.016039068
-0.0018351134
-0.011436436
-0.01723629
0.03641836
0.0012799274
-0.035309985
0.0034524223
-0.019892586
0.026769323
0.012223393
-0.00077919196
-0.007867342
-0.00025957616
-0.013218328
0.00095706165
-0.007936157
0.014234021
0.0063093444
-0.016161416
0.037734423
0.010344655
-0.014778517
-0.021122966
0.01982018
0.037907034
0.021022348
-0.054245442
-0.015943807
-0.008875715
0.0021945504
0.0067416155
-0.03158696
-0.017696775
0.022680432
-0.017957551
0.030016473
-0.0022241308
0.001424704
0.0031331195
-0.026545478
-0.022245128
-0.016652925
0.0058425018
0.030833282
0.009450702
-0.014656153
-0.046368804
-0.020901602
0.014999293
-0.007828635
0.015199457
0.002109831
-0.0037432676
0.0060650236
0.02318713
0.006167053
-0.03382659
-0.011595407
0.004724094
-0.011597375
0.009387962
-0.0038703014
0.005838741
-0.007295696
0.0038287863
-0.014024286
0.004939884
0.016457787
0.014296187
-0.023807364
-0.011486234
0.014165433
0.01897338
-0.013149246
0.031149993
-0.011028086
-0.014097048
-0.011572694
-0.0034984055
0.023808666
-0.002869044
0.02164381
0.005335783
-0.013905476
0.032608148
0.00079227745
0.0028852855
0.040434964
-0.0061346376
0.010241849
-0.012903354
0.025950477
-0.012068736
-0.003920314
0.0061884224
-0.019911127
-0.016022328
-0.025937697
-0.021550028
-0.009114464
-0.005018665
-0.0038263013
0.031765793
0.018413307
-0.0029906991
0.007836893
-0.018705755
-0.045108635
-0.01472389
0.01815717
0.029664297
0.02287504
-0.0237285
-0.003146454
-0.023462368
0.031460494
-0.010224343
-0.022841329
-0.015398019
0.006450901
0.016070094
-0.053534497
0.004375927
-0.028979005
0.021723492
0.017557688
-0.000118986776
-0.012927729
0.005295615
-0.03698668
-0.003986494
-0.01580356
0.035493646
0.011420836
0.015018839
-0.008623364
0.022866054
0.0006225074
-0.019851416
0.007858472
-0.0033478807
-0.014868836
0.01375962
0.023066528
0.012248619
0.00897144
0.042476986
-0.0077887415
-0.042332385
-0.0038350397
0.0141396355
0.01849608
-0.014418743
0.0046696374
-0.0003314108
0.010853563
-0.0044461805
0.014074724
-0.009844828
0.01459694
0.019548947
-0.027080707
-0.03618851
0.0056798044
0.005782365
-0.0010547146
0.024273772
-0.0232084
0.03363925
-0.025549598
0.017987262
-0.014442382
0.011732048
-0.0023806037
-0.0026769484
-0.0015577798
0.010165147
-0.009398404
-0.014138271
-0.026976934
-0.008455074
0.013487451
-0.0031740314
0.038251866
0.032353375
0.010728775
-0.007276914
0.025018567
0.0069638332
-0.022248818
0.0042437334
-0.020206429
-0.031269137
0.004191346
0.024190571
-0.009751468
0.003102814
-0.00060356164
-0.03705484
0.0021735844
0.027411163
0.0051843706
0.02146018
-0.020710353
0.0050905948
0.03349099
-0.02242658
-0.015655376
0.007161198
-0.0051438496
0.035945322
-0.009680995
-0.0222813
0.030696234
-0.018310806
0.03217147
0.0053343377
-0.016767241
-0.038915887
-0.0010064434
0.006053186
-0.01957367
-0.024329437
-0.03381794
0.0026657158
-0.017417047
-0.0036744177
0.010122087
-0.023596937
-0.00060992077
-0.008638042
-0.0635701
0.014576939
0.022462554
0.049375705
-0.023879793
-0.00967127
-0.016766684
-0.033009395
-0.015094845
-0.017494597
0.0007816912
-0.026567986
0.012590422
-0.021271696
-0.0038757238
0.005871993
0.0076543284
0.0082955565
-0.0035538473
0.01617709
0.011926721
-0.021931412
0.03567726
-0.01860026
-0.0046875044
-0.0072147683
-0.016245633
0.0007673969
0.015723629
0.022101957
0.011133349
0.00791583
-0.0057791816
0.01194989
0.037027575
0.03372996
0.033425987
-0.024509162
-0.010048702
-0.028045574
0.0057665342
0.013019814
0.024072839
-0.009828661
0.030877283
-0.01576448
0.0054232646
-0.018450847
-0.022801982
0.0043295203
0.015935486
-0.02100748
-0.01166606
-0.0064516193
0.050510373
0.004818115
-0.00394924
0.035718508
-0.013324916
0.0033129656
-0.0036239214
-0.011370046
-0.010821682
0.0050900155
-0.008873953
-0.010469813
-0.022973096
-0.016442418
0.00085864495
0.0051498106
0.029790696
-0.016528724
-0.0048905644
-0.008401815
0.0032954323
-0.015260379
-0.027221624
-0.030883504
0.008895122
0.009157095
-0.00028002725
-0.02579893
-0.006265875
0.007116991
-0.010934416
0.00069964095
0.04396144
0.0023784912
0.018723078
0.012227932
-0.00021531455
0.017014047
0.0056084995
-0.0379043
0.011135183
-0.019258615
0.022086034
-0.008438303
-0.0090777995
-0.007977889
-0.0032752957
0.029399782
0.008616557
0.0208143
-0.0413706
0.006101182
0.001462803
0.024022851
0.013125543
-0.04353188
-0.0077153323
-0.01275674
-0.011637085
0.03394571
0.0059079514
0.024215367
-0.0071850857
-0.005392731
0.023246212
0.020475876
-0.011457018
-0.0049932357
0.012909592
0.007736536
0.010839982
-0.05845392
0.023486516
0.008646906
-0.041928165
-0.0010316939
0.01277986
0.0051797945
-0.0006849093
0.016608566
-0.017828804
0.014307317
0.021925177
-0.018043932
0.016553475
0.028226843
-0.01858307
-0.012000565
-0.0071765934
-0.0055509484
0.020646593
0.010226336
0.031852737
-0.029069116
-0.017611055
-0.007857508
0.00066277233
-0.037065744
-0.010932786
0.018352108
-0.017673016
0.0055722706
-0.0009913763
0.025969874
-0.018498385
-0.02159163
-0.0006042729
0.019769816
0.0089423675
0.023627384
-0.005961429
0.016613176
-0.02523718
0.020906989
0.025142215
-0.016460776
0.022469956
0.008576139
0.010950992
-0.017153962
-0.05371466
-0.0012312408
-0.004016772
0.015023867
-0.008336278
-0.0047459337
-0.003031825
-0.018829495
-0.0070757894
-0.0053382544
0.012953567
-0.031641558
-0.019133488
0.0028675424
0.026325738
-0.014557511
0.0031781709
0.0014908622
-0.015434939
0.0068178186
0.022454483
0.029025745
0.0016113551
-0.011636681
0.009140315
-0.004289549
0.0012680606
-0.0137910005
0.0038820612
0.0194111
-0.030311894
-0.024125302
0.020149162
-0.007674457
0.012602467
0.0016599218
0.03691583
0.054860562
0.01967646
0.008534408
0.0061614383
-0.011646377
-0.020921612
-0.0013260203
-0.05322564
0.015944378
-0.0056392234
0.0055152094
-0.020526009
-0.029786734
0.014602133
0.0060931277
0.017392779
0.021292873
-0.015520275
-0.0023163105
0.0065355157
0.0060980534
-0.008722792
-0.039849415
-0.034157336
-0.0048229466
-0.0058391043
-0.015953794
-0.019801995
0.014282484
0.005930709
0.022764685
0.029185733
-0.010766821
-0.0034943956
0.00564896
0.03433645
9.904539e-05
0.009753376
0.020262541
-0.012823119
0.019775365
0.011578096
-0.001097684
0.046182588
0.0024360018
0.011280087
-0.008771827
0.0029631087
0.036094137
-0.008144936
-0.020957308
-0.008289852
-0.028432522
-0.031758003
0.01162527
0.02139245
-0.021464242
0.031811662
0.008609173
0.0023567528
0.011602461
0.002812806
-0.004776778
-0.0028696093
-0.02508475
-0.015787335
-0.00082167954
-0.04018897
-0.023244364
0.02186736
0.017725293
0.03773745
-0.009056874
0.03539841
0.02036835
0.025873492
0.0036249785
-0.0233852
0.01679257
-0.016691167
-0.035931766
-0.022374434
0.02267143
-0.009248846
-0.006823694
-0.004475762
-0.019424511
0.01074505
-0.025312537
0.032787915
0.026158998
0.0275108
-0.04962327
-0.01610788
0.0056068944
-0.0070845583
0.0025898495
0.0019058941
0.033811994
0.041686643
0.018158589
0.021537388
-0.005641099
0.021340434
-0.004486533
0.012958889
-0.0046636746
0.008084252
0.0073883943
0.025616078
-0.007364172
-0.025687648
-0.037231747
0.0048211687
0.00555163
-0.0038214629
-0.017199267
-0.02371089
-0.001992938
-0.00021975154
-0.017988866
-0.013829866
-0.014067277
0.008783755
0.0058522783
0.01173773
0.029579269
-0.03000102
0.030551344
-0.031677883
0.010178725
-0.029066665
-0.02096166
-0.023374038
-0.037022676
0.010174258
0.035448223
-0.0035927352
0.019796668
0.0015197225
0.018342152
0.02558211
-0.0076219616
-0.0101957405
0.014480221
-0.008686493
0.031984814
0.018527478
-0.01699238
-0.005308024
0.026675848
-0.0009606311
0.0023929635
0.032654073
0.0022467014
-0.021919789
0.0026196574
-0.021384778
-0.01041507
0.030703178
-0.008392584
-0.027073521
-0.0060900035
0.014855759
-0.020851957
0.0060244827
0.008686111
-0.016082073
-0.0024406032
-0.00012844801
-0.00053624075
0.014746194
-0.009734039
-0.005181012
-0.015063831
-0.022735234
0.019183723
0.00056092977
0.0065883216
-0.0005201853
-0.025007717
0.0119465
-0.0115230875
0.004371025
-0.0325613
0.021327056
-0.027662344
-0.014717966
0.016270693
-0.007762739
-0.0091255065
-0.003777523
0.019032957
-0.020579752
0.002617286
-0.012692558
-0.058514588
0.0422405
0.025062904
0.027308058
0.015801042
0.0134836575
-0.00027448396
-0.0058843433
0.0035483544
-0.073564135
-0.0055988496
-0.010818562
-0.014253248
0.024920626
-0.013603995
0.00026773187
-0.027864508
-0.026914949
-0.0037712848
0.020469792
-0.005112323
-0.007645322
0.020289982
-0.034468796
0.0010192995
0.017757656
0.01762985
-0.0020703159
0.0052716834
0.0080501735
-0.016151892
-0.030296141
-0.0065293633
0.010169786
-0.017470866
-0.0411934
0.015698025
-0.016055545
-0.001125862
0.025023462
0.01385147
0.0058068573
0.014540166
-0.016821006
0.034737647
0.0041908086
0.027167032
0.03426058
-0.032364964
-0.036457773
0.0010370588
0.022163069
-0.036164757
-0.0037661253
-0.030982742
0.008782582
-0.017393272
-0.0057945685
-0.016637038
0.006551275
0.022999875
-0.017028414
-0.0047784764
-0.021328572
0.023488726
0.015556365
0.03351658
-0.014661671
0.010857521
0.016543506
0.039172314
0.008557863
-0.02611758
-0.007024745
-0.017563356
0.015247454
0.04120115
0.0006801556
0.04038249
0.039421763
-0.028974928
-0.03304018
0.0054202275
-0.0049026757
-0.031288784
0.00316774
0.030083507
-0.0144695435
0.0004300483
0.04456755
-0.031642467
-0.010533166
0.008685497
0.027704708
-0.010333513
0.017800117
-0.0012148661
-0.026598493
0.017297937
0.04332102
-0.011020725
-0.013774353
0.012975733
-0.023125509
0.009078658
-0.03308197
-0.015894119
0.035113182
0.015066735
-0.025940813
-0.019905474
-0.010114814
0.0123336185
-0.017602613
0.042259216
-0.008910362
-0.026331982
-0.0063525643
-0.011864591
0.047708083
0.0046102125
0.0054578087
0.026518103
-0.010994781
-0.026125465
-0.006517965
0.0037146737
0.035638846
-0.030407993
-0.008446904
-0.018274646
-0.008618521
0.033831228
-0.019919252
0.008502057
-0.01020045
0.009117003
-0.009607082
0.024432557
0.016042763
-0.014845005
-0.01077859
0.01699688
-0.0079615805
-0.012866374
-0.030989792
0.0006409696
0.009774321
0.02413544
-0.0027903991
-0.027669605
-0.042555507
0.0088075865
0.002429789
-0.029458707
-0.034832645
-0.01267647
-0.013207014
-0.016410595
0.006746555
-0.0026277357
-0.022216545
0.05396286
-0.012313855
0.03469155
-0.02081563
-0.012418713
0.0380904
-0.0044026817
0.020648967
0.015626991
-0.019125026
0.019744257
-0.012627688
0.0315513
-0.010082283
0.014296108
0.0034934666
-0.009374753
-0.008262466
0.0057881074
-0.01894742
0.00909474
0.013525043
0.00068503694
0.052173775
-0.010670842
0.015560487
-0.026921097
0.032684162
-0.015946215
-0.015595187
0.016354168
-0.019133696
0.02224007
0.019102907
-0.024006097
0.03344906
-0.010077218
0.023987593
0.021240927
0.001778514
0.0017482939
-0.004908903
0.0037752283
-0.037579797
0.0005370292
0.009291287
-0.006440996
-0.023442388
0.010949008
-0.013935934
-0.032334533
0.030863604
0.008596784
0.0053841453
-0.039470837
0.030622
0.008974529
0.013817554
0.005818165
-0.008609663
0.005290213
-0.0003549373
-0.0013547962
-0.035604976
0.003731492
0.0053260718
-0.015212975
0.020461714
0.0022328754
-0.019495908
-0.017000897
0.022406688
-0.025528409
0.033674367
-0.01232593
0.01705718
0.00081621466
0.0308248
-0.013556851
-0.0046541146
0.007319673
-0.0018294039
0.016147414
0.02131527
-0.06388115
0.015440879
-0.005718429
0.006664334
0.008624759
0.019689258
0.014771649
0.022932002
0.017451238
0.010051959
-0.031894963
0.007832785
-0.005874424
-0.011403371
-0.02146803
-0.011555728
0.021742875
-0.04047864
0.0076630297
-0.013798724
0.008975876
-0.020093441
-0.025905006
0.013022836
0.02371427
-0.044365834
-0.011907576
-0.023191234
0.0018554158
0.00974154
0.0034263914
0.006311485
-0.0017095737
0.015315707
0.0014277297
-0.009925655
-0.040370397
0.032624613
0.0075645405
0.026909756
-0.012015199
-0.022972142
0.006752332
0.02786974
-0.015750343
-0.018542463
0.014512047
-0.021338686
0.0040863175
-0.001579621
0.010753871
0.0059433663
-0.018722868
0.021945337
-0.026450219
0.01877611
-0.014727156
0.046815354
-0.011455525
-0.015015364
0.012231339
0.011391241
0.0036751418
0.012560508
-0.0013376649
0.06051181
-0.011951775
-0.0031223393
-0.03786281
-0.0037992005
0.005168585
-0.0006534156
0.0020882497
-0.035577286
-0.02735043
0.019921692
0.037014972
0.0016966348
-0.03581331
0.0373679
0.01962571
0.0002528496
-0.015523233
-0.01178653
0.03029616
-0.0058224103
-0.0114722205
-0.022995848
0.028438415
0.006140426
0.00015359346
-0.002138845
0.0022716299
-0.0046614297
0.00162124
-0.015624405
0.0014026095
0.0018434434
-0.024331767
0.024618907
0.011072572
-0.027165852
-0.002092764
0.027032852
0.013389056
-0.018861849
0.009112124
-0.02376082
0.018763946
-0.025252262
0.004502189
0.0025422296
0.04820312
-0.008304826
-0.0031858021
0.0033249897
-0.010979552
-0.02102681
0.021210922
-0.021913428
-0.012852346
0.001778599
0.005830325
-0.031884905
-0.021269238
0.024630576
-0.016045064
-0.008745245
0.024578108
0.024838418
0.010467807
0.014485904
0.014818922
-0.024591768
0.0052720434
0.003889246
-0.020592012
0.0063454583
-0.0017456017
-0.000603442
-0.008719623
-0.050616868
-0.024178727
-0.0026762101
0.00600034
0.020434963
-0.0021529968
-0.0073961373
-0.017136365
0.018886013
0.011193742
0.001361423
-0.003096587
0.0038347004
0.032855973
0.008920684
0.008837097
-0.015175523
-0.008882692
-0.004014915
0.031514943
0.028008379
-0.009582146
-0.015559887
-0.00892507
-0.005601883
0.0147690475
-0.013358305
-0.00053796126
0.021269057
-0.019961478
-0.0043706615
-0.0053051366
-0.017782234
-0.00960879
0.017133666
-0.00451615
0.015677422
0.01798688
-0.0108823525
0.029654905
0.015057089
-0.0041029435
0.038249455
-0.0032028502
-0.011372555
0.0009076498
-0.020949049
0.018931743
0.009585276
0.021471266
-0.03231535
0.009223627
-0.0106239235
-0.007348941
0.0075993263
-0.013505595
0.016400345
0.007908786
-0.049111087
0.012646566
0.030425295
0.020560777
0.0010787632
-0.017884947
-0.007790347
0.019667
0.0022180735
0.00023764452
0.021439793
0.015644917
0.011275557
0.02187883
0.04005496
0.01604532
-0.009558469
0.00030694954
0.015464551
-0.0013064484
-0.025456138
0.04685448
0.027123293
0.029400606
-0.021503074
-0.035018086
0.022896532
0.024730029
0.0154665075
-0.041859865
-0.0020562303
-0.018804682
-0.001557603
0.0118841
0.027764142
0.01178512
0.011085873
0.041847914
-0.0193895
-0.027359953
-0.027033107
0.008582849
-0.0010761339
-0.023435885
-0.020687005
0.013979793
0.019270133
0.026206719
-0.003994739
0.015272139
0.033161808
0.016702155
0.027829386
0.01593593
-0.022845065
0.026443992
0.01729737
-0.0024768524
-0.001567828
0.00018572083
0.010936173
-0.0253959
0.022711374
-0.037544787
0.013564598
0.028176533
-0.022393323
-0.021332987
0.017821005
-0.006583936
0.037916858
-0.007984735
-0.0028412493
0.008111716
-0.010871641
-0.01502222
0.009373301
-0.017952796
0.0042276606
0.026482977
0.011929395
-0.029704938
0.023999615
-0.00794091
-0.024741132
-0.011571523
0.025042633
-0.008061613
-0.024195423
-0.013143535
-0.022307383
-0.0051723495
0.010432262
-0.004475174
0.012133134
-0.0039159427
-0.01234297
-0.03345376
0.006652577
0.0038736586
-0.012804108
0.01673289
-0.010428441
-0.005610367
-0.013170872
0.013854938
0.016399523
0.02222138
0.024300499
-0.011679781
-0.0050915764
0.01153936
-0.0043443716
0.025115034
0.020746034
-0.015000916
-0.0033191978
0.018852735
-0.0049762903
-0.012449576
-0.010603577
0.02005328
0.026995301
0.042385884
0.016792836
0.021896817
-0.01720359
0.0052892705
0.0011250086
0.013301799
0.011532343
-0.006128765
0.003943412
0.068270445
0.0030335817
0.013610525
0.0020881249
-0.0036326542
-0.012949647
-0.0020674423
-0.0027046779
-0.015616688
-0.046211503
0.008296219
0.017723635
0.0041833855
-0.014196055
0.019887656
0.014536757
-0.00065490155
0.031432465
0.009193548
0.001604802
0.0004928841
-0.024182219
-0.00490611
-0.02523465
0.0040352703
0.024101608
-0.034691066
0.015403473
0.025442366
0.0222398
-4.525302e-05
-0.019780427
-0.018052064
-0.026435323
-0.019426746
0.0076665073
0.013365521
0.012498669
-0.029218938
-0.032772675
-0.008745752
-0.0056989705
-0.01093627
0.026486024
-0.013991085
0.0004405956
0.0101603065
0.011071526
-0.005121018
0.021232123
-0.03299045
-0.033319343
-0.018917214
0.004491429
-0.012691191
0.023646513
0.0034110993
-0.014250339
-0.013864835
0.008352547
-0.008563312
-0.03775614
0.0039968127
-0.01549189
0.0050416016
0.011640508
0.01531908
-0.0022516788
-0.021098584
0.0103448015
0.056962285
0.03287214
0.0040832674
-0.032803524
-0.0016017737
-0.011173053
0.03692051
-0.020308523
0.003853116
0.0026420073
0.012514785
0.021480942
-0.029747657
-0.0031844997
0.004565292
0.0035225993
0.022813806
0.014126924
0.026001373
0.026596695
-0.029298829
-0.006928693
0.0097856205
0.029508067
0.034200385
0.0030310403
0.0010637548
-0.030170156
-0.006561848
-0.006119852
-0.008936424
0.0027327454
-0.013341044
0.005500877
-0.014967754
0.00027759984
-0.0171023
0.022433154
-0.018048786
-0.02992229
0.0066293012
-0.0031221628
-0.03624719
0.00042375177
-0.00049874024
-0.030248065
-0.04634713
-0.0048524286
-0.01552724
0.0050664973
-0.0073663136
0.022908483
-0.018365191
0.022185814
-0.00091303635
0.03466998
-0.00937088
0.0067092776
0.039476898
-0.005372093
0.0040795067
-0.018375935
-0.018303491
-0.030465044
-0.009266738
0.0068725264
-0.0132870525
0.0015178358
0.0009285828
-0.01190539
-0.005254948
0.041393418
-0.017337276
-0.03586215
-0.013313625
0.006575132
-0.008986548
0.022099199
0.006833451
0.0012640019
-0.0030272002
-0.020348372
0.018525396
-0.0117648775
-0.042456847
-0.028843135
0.020985197
