# (65, 192)
0.008205414
0.0010861658
-0.008915985
0.02453179
0.005061563
0.006970297
0.0011177436
0.019907795
0.0019477492
-0.022718046
0.0030903253
0.012473368
-0.00037048562
0.01496124
0.015283316
0.0015999532
0.0069451607
-0.018367404
-0.014286107
0.0046758796
0.006835604
-0.008101416
-0.048510067
0.01527944
0.0278355
0.0043675033
0.00815391
-0.015890947
0.016769735
0.04222621
0.003432323
0.013765216
-0.01661642
0.0219098
0.006815662
0.012127249
0.013820308
0.030354358
0.015032443
0.030025393
-0.004622633
0.001896869
0.005059898
-0.00836446
0.00589702
0.00097029813
0.04596601
-0.010259582
0.017633982
-0.019123454
-0.00477366
0.018078888
0.017526269
0.023045193
-0.014033723
-0.009519839
-0.010016686
-0.018641556
0.020117952
0.027733184
-0.0011383285
0.012227171
-0.017758708
-0.0072017363
0.0024419033
-0.0076136934
0.03162592
0.007677258
-0.021562405
-0.0038760242
0.02129395
0.009556136
0.046785075
-0.031007329
-0.037012123
0.0260302
0.012699911
0.019776933
-0.035196494
-0.003345611
0.019571748
-0.01034377
0.060050525
-0.009759104
0.013522254
0.008655627
0.015762847
-0.004934082
-0.006990808
0.005663193
-0.021506697
-0.014801176
0.010122795
-0.028086025
0.050356645
-0.0046980004
-0.0029041634
-0.03524247
-0.036219314
0.007751476
0.0023281658
-0.018454123
0.015157803
0.03696886
-0.023290457
0.039031092
0.015917225
-0.015934853
-0.014694239
-0.0023784563
-0.0029133905
-0.042213187
0.004779944
-0.049132798
0.031796675
-0.015645001
-0.0013545232
-0.037006844
-0.012280907
-0.010782163
-0.010228626
0.013722591
-0.0008086736
0.0038138053
-0.012556798
0.029807495
0.00027346628
-0.0005005916
0.014843434
0.0047740457
-0.024152929
-0.0117800245
0.024952495
-0.018705854
-0.03133692
0.0022729186
-0.004516695
-0.015578779
-0.029827839
-0.012330265
-0.06770794
0.025069615
0.035994165
0.0023072066
-0.029993296
-0.0011636929
0.0033368084
-0.0032826622
-0.007836942
-0.04920873
0.012899482
-0.025278559
-0.013659737
0.0057958644
-0.0061145066
-0.051199656
0.0017955396
-0.01889036
-0.025799226
-0.005960198
-0.009936275
0.01679996
0.003710997
0.0009179681
0.017408026
-0.011471174
0.02927423
-0.0033449098
-0.030772254
0.02326629
-0.02196622
0.019609397
0.019264715
-7.894632e-05
0.03040938
-0.0073423795
-0.0013482444
-0.00078355265
0.005076769
-0.008074262
0.027048547
0.0036190553
-0.026416551
0.060772814
-0.0074305246
-0.019648736
-0.026998537
0.008027983
-0.012516249
-0.012939234
-0.049792845
0.04193585
-0.008983345
0.0029248856
-0.027959738
-0.005721518
-0.0039913063
-0.008428231
0.039228514
-0.00550884
0.024347002
0.0060714507
0.01319835
0.03742303
0.013566291
-0.01590062
0.022166861
0.0064042006
0.013964897
0.0056596957
-0.022305463
-0.032152798
0.0176511
-0.004960163
-0.019936642
0.034752246
-0.0035775767
-0.0047576055
-0.0068182563
-0.008531854
0.016891593
-0.010934603
0.018452747
-0.021365471
-0.007728701
0.015981523
0.0065040975
-0.0010954103
-0.006123626
-0.016413365
0.0016316226
-0.011093406
0.0057531637
0.0050429357
-0.00057446543
-0.009015513
0.0025563934
-0.003511521
0.029780358
-0.06355982
0.0013679091
-0.020945065
0.001990914
-0.0038511616
0.023625955
-0.02423063
-0.056002468
-0.00549571
0.004507508
-0.012095127
-0.033769686
-0.010210613
0.019905575
0.02320592
0.002572107
-0.02021224
-0.019329067
0.02522259
0.015620342
-0.0054730806
0.007264858
0.035722993
-0.0070572756
-0.0013084237
-0.0072620288
-0.014628129
-0.024166381
-0.0010630572
-0.012296185
0.0020777602
0.008452015
-0.0229147
0.0041665584
-0.0009319664
-0.0013091448
-0.0039147325
-0.0034494693
0.0013335166
0.018052518
-0.02464688
0.016494103
0.030623714
0.03621302
-0.008874471
0.032485936
0.021736814
-0.023810226
0.028402895
0.020969331
-0.021443456
0.03878785
-0.0063275574
-0.0062536653
0.014028056
0.0010457505
-0.01077796
-0.0017897169
4.205728e-06
-0.006007104
-0.048263974
-0.016083293
-0.026852243
-0.027539622
-0.006017901
0.03769706
0.0032533957
0.0033719053
0.018248219
-0.003944451
-0.009109826
0.010287131
0.019149477
-0.013137627
0.021203645
0.010699253
0.019738283
0.011865958
0.012061361
-0.025537644
0.00720553
0.04142244
0.0048973034
-0.04810109
-0.02410383
0.005100988
-0.018098537
-0.027141823
-0.00049862184
-0.0044722795
0.040030673
-0.002074199
0.007389504
-0.008923107
0.008901269
-0.014904612
-0.01418161
-0.006109362
0.00049834023
0.020684613
0.021907834
0.021214955
0.004061371
-0.010058739
-0.025267022
0.008276585
0.019679232
-0.019850109
-0.015753321
-0.008935214
-0.0066796755
0.019578338
0.041456185
0.026175383
0.0028152233
0.016029034
-0.032246385
0.020653738
-0.014716284
0.0050351066
0.013084929
-0.007301722
-0.024807364
0.021344716
0.0022489533
-0.035341647
0.02056918
0.00939602
0.011512651
-0.008087183
0.03661847
0.01070751
-0.009144571
-0.03713027
0.004296692
-0.0062203924
0.0029096028
0.015019643
-0.013948262
0.009831852
-0.02202965
-0.025834965
-0.014395381
-0.010012256
0.0074354564
0.022980183
-0.006704171
0.007536595
-0.009776303
0.0074483906
0.02980216
0.026554102
0.028283067
-0.052089155
0.014392878
-0.003979326
-0.0015079018
0.0058108377
-0.005829482
0.007858353
-0.0071705985
-0.017560443
-0.0062698266
0.004282087
0.05077201
0.008915809
-0.003481617
0.00253096
-0.0045889425
0.011250138
-0.034447666
-0.034190893
0.021245172
0.0036258295
-0.038329735
0.037767444
-0.0020803516
-0.022799117
0.017899001
-0.0126169175
0.010686829
-0.027387539
-0.03246779
-0.016915787
-0.0075057573
-0.008999757
0.0026121812
0.002446834
-0.011598875
0.025135644
-0.016541714
-0.029672856
0.003939833
0.0409152
0.01622013
-0.0032586055
0.004145194
0.016653923
0.010743998
0.016359968
-0.012569308
-0.03388976
-0.012653245
0.0030792328
-0.030045519
-0.00075428386
0.003071619
0.011021609
0.021047557
0.022573842
-0.01182008
-0.0052032946
-0.033839043
-0.011217473
0.012141262
-0.022206469
-0.013170804
0.007950375
0.011306079
-0.008708354
0.004268848
-0.00093926745
-0.023947878
-0.03380455
-0.041662186
0.0221011
0.0015488627
-0.024543306
0.0095690675
0.00041749427
0.026053293
0.016363056
-0.02714244
-0.017903358
0.009558863
0.0060619717
0.007972825
0.005352463
-0.024414947
0.012261727
0.007008319
-0.024419498
0.015434016
0.005344638
0.014477947
0.028138174
-0.044808514
-0.0589191
-0.010777517
-0.024082841
-0.012268033
0.022763042
-0.0065997113
-0.009091985
0.060383394
-0.013029736
0.03884074
-0.0031480384
-0.013431738
-0.03224501
-0.0038848724
-0.016311113
0.012379727
0.034734085
-0.018714381
-0.035815842
-0.009077627
0.0046481183
0.02879193
0.002902607
0.014256905
-0.011737152
0.0027958935
-0.06207126
0.0019873986
-0.008194204
0.019638197
0.02139009
-0.03815096
0.010397787
0.0019619593
-0.006738186
-0.022771219
-0.02124092
0.009722025
-0.016142316
0.020846294
0.014660142
0.01045399
0.009201385
-0.006596742
-0.007908459
-0.02319375
-0.0015345159
0.009324708
-0.012976921
-0.035863977
-0.00062208204
-0.040178247
-0.011048217
-0.008359179
0.030760238
0.0034121221
-0.016292734
0.014778441
0.021961205
0.010322878
0.009056173
0.015760431
0.0017194398
0.010335513
-0.0044753966
-0.029596426
0.0017671672
-0.006646479
-0.04100245
0.01503851
0.023570355
-0.048891053
-0.015910886
0.0058204285
-0.012795844
-0.039127324
-0.0062083844
0.004109492
0.0059641567
-0.026281929
0.0061327503
0.014687781
-0.0058855987
0.0009259477
-0.018620146
0.015494368
-0.018872315
-0.0036214676
0.029740935
0.013181228
-0.0029962005
-0.0075849732
-0.024517275
-0.024360223
-0.032360706
0.020175409
0.030776454
0.018620925
0.013391705
0.004757201
0.0076236324
-0.008176306
0.00464462
-0.010825571
0.034253214
8.313363e-05
0.010404942
0.015787708
0.021364901
0.0032916847
0.006053157
0.021379218
0.007924669
-0.01822263
0.013990518
0.003709932
0.004979611
0.013173794
-0.0058051283
-0.013481022
0.0066927928
-0.0097100735
0.0054225344
-0.014244729
0.0089168325
5.210205e-05
-0.015451044
-0.003738568
0.014972417
-0.015409167
-0.0015741999
0.014055833
-0.0015019136
-0.008160746
-0.010551969
0.010658832
0.027930077
-0.034698308
0.02794877
-0.014129352
0.014799078
0.006840522
-0.034136318
0.008839215
-0.0042925645
0.007723845
-0.031018585
-0.021335138
-0.007456771
-0.019152462
-0.011382098
0.012838718
-0.022034205
0.03382429
-0.031158779
-0.02046345
-0.021906188
0.02146655
0.005664953
0.035778854
0.021753656
0.0012538244
-0.011048261
0.012959537
-0.013299241
0.006777393
-0.017060151
-0.026808426
-0.018402686
0.0026310943
0.031925097
-0.017442565
0.01224246
0.020303447
0.019255651
0.0013066612
0.03402275
-0.01131762
-0.011575524
0.023627099
-0.010273879
0.005794658
-0.006147322
-0.00064490206
0.002672479
-0.0034718823
-0.019712657
-0.006884632
0.0043505714
0.0055172443
0.039470628
-0.012708852
-0.02379216
0.024205936
-0.0032380004
-0.03725303
-0.011350517
-0.010657776
-0.0292968
0.0053239316
-0.023027899
-0.0017463291
0.010844734
0.01657389
0.021838443
-0.007982079
0.004648564
-0.007813279
-0.018118644
-0.03192354
-0.025292205
-0.025235964
0.028864145
0.012267457
-0.039780166
0.03407295
-0.0035992297
-0.008187573
-0.0023444283
0.018859122
-0.03024318
-0.016304366
-0.019706631
-0.031544175
-0.00067546306
-0.04666775
0.013750281
0.009475292
-0.015723977
0.0015323287
0.01689213
-0.03503479
-0.00853879
-0.010130328
0.0051846793
0.024529034
-0.005511223
-0.0119173825
-0.030173179
-0.0077155447
0.002868743
0.019105472
-0.036495805
0.0035034334
0.010367906
0.01724192
-0.021765184
0.05621432
-0.008405542
-0.0051595992
0.023934504
0.0049100155
0.022586131
0.009072797
-0.013900022
-0.026871927
0.034964714
0.018847205
0.018774394
-0.022816567
-0.03358689
0.014368828
-0.037577953
-0.023054786
-0.026562465
0.023220038
0.004825456
-0.0018780418
-0.008794313
-0.0010002758
-0.0049840882
-0.040749133
0.023284879
0.001297447
-0.004005592
-0.0027990798
0.005971368
0.029864078
0.021422429
-0.021202816
0.0027414213
-0.067784786
0.0044944645
0.01605002
-0.0041511897
0.011805862
-0.010014727
0.01611001
0.0053281877
0.0019691952
-0.00517489
-0.012275691
0.0281714
0.022890713
0.019201376
-0.04127711
0.0107043
0.0077934647
-0.019094026
0.0046837856
-0.004419168
-0.0046641696
0.034272444
0.0097780265
0.012450473
0.033282086
0.0035155618
0.0042089797
-0.0053917407
-0.013920646
0.01987058
-0.029827837
0.028736236
-0.012820269
-0.009316259
-0.0059941136
-0.013637241
0.02909419
-0.02576015
-0.013481357
0.017655784
0.006254455
-0.0014552919
-0.0030406164
-0.020897826
0.006362081
0.0061621633
-0.0020387827
0.008161346
-0.014902673
-0.004381454
-0.014885702
0.0017205996
0.017314633
-0.019693851
0.007038677
0.023617875
0.015017826
0.00035758244
0.029607143
-0.030401668
-0.0065209237
-0.01763902
-0.01752907
0.013542455
0.017914155
-0.020836817
-0.014228203
-0.002548818
-0.019921241
0.024412083
0.037263572
-0.031095766
-0.029105395
0.034073308
-0.0021798178
-0.0017735263
0.0046508247
-0.027548011
-0.0058865934
0.019747607
0.022525389
-0.058546502
0.028712446
-0.0025242337
0.010824621
0.031344887
-0.024508283
-0.0059284596
-0.0059680687
-0.021322986
0.009159095
0.0040176804
0.02681041
0.049687747
0.023772772
0.020699628
0.02174386
0.0013816186
-0.0084338905
0.0025449207
-0.00011883769
0.02187055
-0.0068854857
-0.012730833
-0.0066570896
-0.017320683
0.012602032
-0.020779254
0.01529931
0.033529643
0.028639257
0.00036474346
-0.006473154
0.0006985877
-0.035084367
-0.0016017942
0.012635845
0.004262195
0.01633989
0.016943032
0.022499876
-0.0028925573
-0.004654999
0.006548173
-0.012852508
0.005402286
0.008490258
-0.00039897472
0.023105051
0.023658082
-0.03524244
-0.021756506
-0.002246025
0.010647719
-0.011894248
-0.0012759925
-0.00092282385
0.014144678
-0.03171158
0.018625328
0.00020900623
0.01530036
-0.0012824918
0.023060774
-0.01500277
0.0046570064
0.02808894
0.005224316
-0.002914494
-0.004792125
0.04969218
0.016336031
0.033048224
0.024869705
0.010430298
0.006615505
0.0034061277
0.01680782
-0.025473068
-0.008634987
-0.02516413
0.0014356391
0.03428027
-0.0034359442
-0.013178875
0.00800935
-0.018543757
0.032049105
-0.03244263
-0.011205054
-0.029630082
-0.012687362
-0.00061476254
0.016941274
-0.014723749
0.018754685
0.0045299176
-0.038181033
0.031033145
-0.0109440945
-0.00069022656
0.017369483
-0.00789219
0.013046984
-0.041151952
-0.0065559256
0.05299534
-0.004365514
0.010280164
-0.0019273653
-0.0035874632
-0.017579295
-0.006279362
0.001839383
-0.0003531435
0.0119666895
-0.019358637
0.0016088204
0.009497258
-0.0072316914
-0.010634488
0.00047672077
-0.028867211
0.01229667
-0.040952597
0.0018337201
0.03707778
-0.0030104378
-0.021937704
0.017068883
-0.0019929912
0.013383599
-0.0056441445
-0.0231101
0.024803327
-0.014355125
-0.0028962835
-0.02060866
-0.036123212
-0.02103649
-0.0110426815
-0.045195617
-0.004157568
0.024938483
-0.008173168
0.034677025
-0.028248234
0.026127886
0.022958977
0.0014025985
0.023014592
0.011514787
0.011744259
-0.013573269
-0.024906475
-0.00081250514
0.003079436
-0.025516935
-0.00037914544
0.02413095
-0.022960305
0.0068707913
-0.008051366
0.0030909204
0.006626678
-0.017737372
-0.0056180623
-0.0141384015
0.021840718
-0.011730247
-0.017088732
0.01518729
-0.025496582
0.025723776
-0.024598274
0.014796837
0.008664444
-0.010045977
0.008848692
0.023150835
-0.02351644
0.017124323
-0.02306745
-0.006471677
0.0070003234
0.015599323
-0.030611515
-0.017228222
-0.03136412
-0.0018354402
-0.012936188
-0.021167561
-0.007233031
0.00032764507
0.018851038
0.017971693
0.019164562
-0.0037664932
-0.00039598293
0.010037554
-0.00442603
0.0044064876
0.020398187
0.03391431
-0.004545098
-0.020603446
0.030407071
-0.004707201
-0.025653858
0.009793809
-0.002414484
-0.012315546
0.023428874
-0.013327729
-0.009623624
-0.006992326
0.0279516
-0.004456296
-0.013806842
-0.0077670044
0.008388964
-0.0055749947
-0.0072509055
0.0027989347
-0.003774246
-0.006810125
0.005014003
-0.013598046
0.007845399
0.001294042
0.0075532673
-0.0040808157
-0.031051295
0.0039868765
0.0039105467
0.046373885
-0.0103113875
-0.0011545692
0.03245066
-0.041534618
0.008182189
-0.0032570197
0.011348073
0.007932947
-0.020056386
-0.031819783
-0.013836415
-0.0037351465
0.00391687
0.0029980957
-0.044910293
-0.0078056357
0.002841099
0.008574739
0.057491433
-0.02749254
0.023427963
0.050615832
0.00076670747
-0.02735065
-0.007258974
-0.0037389563
-0.0115380725
-0.00527298
-0.029696604
0.015065026
0.006523673
-0.016948063
0.0016829739
0.023550402
-0.0010379171
-0.02561067
-0.0556101
0.008032149
0.01613336
-0.011100848
0.036265794
-0.027194526
0.0060378336
0.012366637
-0.0076092086
-0.00628963
-0.004000972
0.016545724
-0.0112365745
0.042620685
-0.0009862947
0.030767836
0.0040634624
0.0012846467
0.000296859
-0.0005022419
0.004040979
-0.019393343
0.025331387
0.023239335
0.005581963
-0.00513288
-0.0017292456
0.013009244
0.032350477
-0.010831671
-0.024883313
-0.0013295802
0.0006464605
-0.00019108133
-0.0017804336
0.057255797
0.018367989
0.0057297675
0.0024014155
0.008501143
-0.023251215
-0.003128038
-0.0013453871
-0.018851146
0.005201649
0.02690474
0.005860065
-0.011054784
-0.0051478213
0.03352577
-0.012203827
-0.047504015
0.04438315
0.02825224
-0.01516584
-0.012763626
-0.012449573
-0.0099763125
0.009504852
0.018830463
-0.013522099
-0.013323253
0.023748243
-0.002114083
0.015006868
0.010159147
-0.014799762
-0.032180376
-0.03432008
0.0084549645
-0.01809507
0.005983883
0.03381166
-0.005151674
-0.0035743979
-0.0183741
0.021238312
-0.000103258026
-0.0068317996
0.016896533
0.0017974899
0.01515407
0.011280253
0.012049554
0.002791052
-0.0052278554
0.034072176
-0.0030706283
0.018459124
-0.011196266
0.009232528
-0.004969111
-0.024649972
0.048169717
0.03951426
-0.024373252
0.030918853
-0.0077999597
-0.006326453
-0.00955493
-0.001979607
0.028240835
-0.004489634
0.017595913
0.010244855
-0.0035534948
-0.040719774
-0.02911984
-0.005210984
-0.0042808
5.9695732e-05
-0.0069813933
-0.02575694
-0.007101036
-0.014005262
-0.0033296798
-0.01905279
0.0051576756
0.00920129
0.03287352
0.014096452
0.033523187
0.022571564
0.011796936
0.01403572
-0.039969027
-0.01565048
-0.020703806
0.0039349706
-0.0081604635
0.016026022
0.011306596
0.02230934
-0.018407471
0.0046015545
0.0074586384
-0.03484152
-0.01659909
0.014022195
-0.022269156
-0.0195565
0.0144639155
0.008457833
-0.015846012
0.02721865
-0.004004435
0.03026765
0.030177107
-0.012114572
0.031114921
-0.007169313
0.037684705
0.014433065
0.010719232
0.01726161
0.009204725
0.00029971948
0.015015039
0.00029732758
-0.031792484
-0.0032650118
0.0041165887
-0.024598159
0.010451723
-0.010578872
-0.020775337
0.049976263
-0.00587416
-0.019697001
0.0077555245
-0.0324414
-0.053295407
-0.008932099
-0.011293782
0.0032486513
-0.017896848
-0.020065738
0.010393388
-0.025851285
-0.0047934847
-0.0007520127
-0.041661996
-0.00052522175
0.007420773
0.022048404
-0.019056771
0.02199829
-0.0091613
0.027457554
-0.0043522594
0.03950613
0.001955261
0.03578053
0.0041195224
-0.01778892
-0.03403569
-0.008365206
0.017697005
0.00494159
0.022069866
-0.005813589
0.030401941
-0.0015102488
0.015265432
0.015644517
0.0043311287
0.024427682
0.010127737
-0.010436645
-0.009010895
0.017437529
-0.06479624
0.007513358
0.010746741
0.019022252
0.017494861
-0.0019096865
-0.014121405
-0.022712218
-0.02945241
0.02458422
-0.012907132
0.014875364
-0.024278985
-0.015192511
-0.009901302
-0.017354177
-0.04630668
0.018782305
0.02400218
-0.013811942
0.028139574
0.004654866
0.011841902
0.015511619
-0.0014392266
0.0015549947
-0.024048746
-0.01979966
0.00013137351
0.019271158
0.0468013
-0.003887315
0.0010951419
0.011229134
-0.017727273
0.038598128
-0.016341796
0.0035340223
0.006274069
-0.005302615
-0.014509257
-0.0072038164
0.006236835
0.008557936
-0.0073667075
0.012607534
0.007418243
-0.0114251375
0.001681031
0.023878483
-0.007682314
0.019865831
-0.016213655
0.01300908
0.016830701
-0.0067050257
-0.0061261686
0.0042896746
0.0058086435
0.0075205695
-0.010738504
-0.0076292837
-0.011192473
0.022819119
0.036308665
-0.006588225
0.039012577
0.0068131783
0.0075628976
-0.004934485
-0.030037945
0.0011038905
0.024075124
0.026968129
0.021053843
0.05363918
0.008776362
0.019307906
0.0045978217
-0.015793173
-0.0027203585
0.016902748
0.0029220658
-0.0058976472
0.0049879267
-0.013939462
0.033724632
-0.029583449
-0.012714354
-0.033487625
0.051806506
0.024538118
0.010343875
0.051384926
0.001544446
0.013797364
0.035177093
-0.025558732
0.0017664571
-0.0004643314
-0.05770121
0.0051015303
-0.0019291114
-0.02952692
0.012921277
0.011891539
-0.0037449975
-0.034688856
0.014375156
0.00091494113
0.0030045852
0.027425982
0.009518376
-0.009670842
0.02178643
-0.01068004
-0.0003724369
-0.008643576
0.003549591
-0.011338402
0.004376593
0.022484846
0.00808985
0.0014662655
-0.03989555
-0.04588281
0.0053292844
-0.0020072318
-0.01776626
-0.012894801
0.026857631
-0.01613255
0.027935134
0.017205404
0.016950242
-0.0012807769
-0.025145184
-0.04021242
-0.001071743
-0.008977559
-0.009488216
-0.008827175
0.003915474
-0.022679515
-0.023141557
-0.0109474845
-0.008653043
0.021270657
-0.025858305
0.010693411
-0.010152932
-0.024698464
-0.0009377572
-0.0006863715
0.029939327
0.007689418
-0.007936228
0.0034899646
0.023487158
-0.021717416
0.03790932
0.027822427
-0.0055524386
-0.031201657
-0.0026853937
-0.04008714
0.02544641
0.030881288
0.024954353
-0.030343376
-0.019000739
-0.0010075411
0.015539097
-0.02608197
0.016769197
0.005003016
-0.009961551
0.016148167
-0.011142353
-0.015423396
0.0026948869
0.0121677825
-0.008630103
-0.0260911
0.004954054
0.021781214
0.018357333
-0.029435057
-0.006348434
0.044527955
-0.0051983222
-0.014146056
0.016150571
0.018021386
-0.0006914474
-0.00059983146
0.019193674
0.026568092
0.031721495
0.022501605
0.0059104892
-0.038801458
0.03299512
0.023866082
0.0052329474
0.020934898
0.010172781
-0.014431065
0.007789046
0.030955328
-0.016605195
0.009426074
-0.010813458
-0.013717227
0.005408604
-0.0036657029
-0.038350683
-0.01774016
0.00027827802
-0.024297154
-0.00814176
-0.0060440237
-0.0040813047
0.009332791
0.018540107
0.012272296
0.02236405
-0.011789137
0.0023075698
-0.010862187
-0.008717223
-0.023807732
-0.007721607
0.011659233
-0.027580095
-0.0042885495
0.01692559
-0.025232924
-0.009070703
-0.0029108992
-0.0244352
0.009080948
-0.0128946835
-0.0061122985
-0.009792619
-0.03702334
-0.024957469
-0.011585973
-0.04564832
-0.0009000323
-0.010749497
0.041380964
-0.0040479586
0.025030376
0.020872075
0.008991732
-0.00055575406
0.023583395
0.005225256
0.008893408
-0.0007076243
-0.04042472
-0.01815291
-0.011533652
0.0009552915
-0.009709709
0.009265718
-0.013132949
-0.03853603
-0.000915028
-0.0068964553
-0.002071892
0.020472188
0.008001285
-0.00993656
-0.016568815
-0.011169654
-0.024263777
-0.006447774
-0.0050446824
0.0026098099
0.0041974145
-0.031983886
0.0135817705
0.019823847
-0.0061418256
0.020697853
-0.017964732
0.0013179039
0.016980076
-0.017929893
0.015234339
0.015644917
0.04205094
0.02562305
0.0024215418
-0.0035995825
-0.0041289995
0.0045100236
0.029760242
-0.00812121
-0.016696291
-0.030457558
0.008442585
5.122779e-06
-0.002445825
0.015262877
-0.007936862
-0.0023740174
-0.027257582
-0.030165786
-0.0018855894
-0.011753774
-0.0005881958
0.03763971
0.022130296
0.05409613
-0.037794903
0.01257656
-0.014835009
0.006021723
-0.03251724
0.002307534
-0.022123186
-0.019607527
0.0075692073
-0.012527805
-0.0067651086
-0.0040218635
-0.0076986747
0.0063787703
-0.015242602
0.009020779
0.0031465627
0.0036258497
0.0044803456
-0.0096970815
0.028094012
0.026429866
0.02444212
0.041030645
-0.00018173327
0.0067881714
0.03094301
-0.024779234
-0.00037692173
0.040036354
-0.0006369758
-0.058924664
-0.019384142
-0.010862078
0.040503696
-0.012047112
-0.0068203607
-0.02202918
-0.021357026
0.007070272
0.0343249
0.00018231182
-0.028351221
-0.009151837
0.0027380015
-0.0004712351
-0.0011253408
-0.021355858
-0.029395899
0.0040624184
-0.01755811
-0.011999173
-0.02027663
-0.021763977
0.024580004
0.0072311247
0.0013710858
-0.025935479
0.004074864
-0.017438948
-0.03433778
0.025107607
0.033992257
0.0127203055
-0.0031841707
-0.020812664
0.0055376915
-0.013165543
-0.0063633868
-0.016156366
-0.0060445806
-0.022617122
-0.0043979483
0.029881176
-0.03169954
0.043754127
-0.0199129
-0.006216807
-0.022078833
0.045186438
-0.006286121
-0.041199006
-0.014391733
-0.034334693
-0.004765826
0.015628772
-0.01909514
-0.015518586
0.0267374
-0.03304371
-0.031085258
-0.02071372
-0.008908661
0.025910944
-0.0034387254
0.024633333
-0.021868534
-0.009469228
-0.0058211633
0.010093463
0.03312364
-0.02248231
-0.03031828
0.019681372
0.033186954
0.0007023749
-0.00034859072
0.0021101695
0.0038599777
-0.024958441
-0.010903317
-0.01671442
0.030458327
0.014248744
0.002218939
-0.034918867
-0.017268637
-0.015031658
0.014441269
0.0085594645
0.02372996
0.0025221626
-0.026287472
0.014310556
-0.007401245
0.0020943151
0.014042329
-0.033718366
-0.018758861
-0.010603666
0.054315433
-0.0061685424
0.0096909385
-0.009622904
0.0069552646
-0.028747968
0.02472698
-0.023686223
-0.024785241
0.018509803
0.0014086515
-0.018323796
0.04228998
-0.0038958706
-0.0013701236
-0.012561297
-0.0015983669
-0.020163607
-0.0048933397
0.01597458
-0.0013557083
-0.025477108
0.03390405
0.029918827
-0.014672927
0.005008687
0.012584369
-0.04014039
-0.039437827
0.023457495
0.015844567
0.004246539
0.03506303
-0.008565131
-0.00016160637
-0.041716225
0.0018013365
0.022620887
-0.025412468
-0.011789971
0.027057018
-0.028371235
-0.010697209
-0.0001526444
0.021669872
0.011263834
-0.014747105
-0.002673407
-0.043249536
-0.021736803
-0.0019130544
-0.012149202
-0.025962727
0.0117706405
0.0042262673
-0.010773867
0.0362029
-0.0031550038
-0.00072757265
0.0057547805
-0.02391636
0.0034729529
0.021618012
0.025067857
-0.016064743
0.008719018
0.014570243
0.0144937355
0.0023925388
0.008385871
0.006270463
-0.0048407167
0.033674587
-0.011798749
-0.009505416
-0.003466285
0.03803998
0.0036966465
0.0014945542
-0.016377773
-0.020771215
0.028142573
-0.0034059715
0.0051855473
-0.01177637
-0.0017701102
-0.005228468
-0.006824656
-0.027875349
0.01076677
-4.1337134e-05
-0.008969381
0.013389253
-0.0070118457
0.020199103
0.030206148
0.0025920249
-0.021514265
0.020173306
-0.023736522
0.016865358
-0.00763302
-0.02569337
-0.014888015
-0.0010177706
-0.03248983
0.032358963
-0.03445064
-0.003458039
-0.019200942
0.017326046
-0.0131026935
-0.0045809434
-0.008872076
-0.020968027
0.03216246
-0.005929424
0.024873037
0.013723404
-0.023124345
0.0038308694
-0.014881012
0.0065412414
-0.030287793
-0.0053487252
2.6100997e-05
0.041787036
-0.02589221
-0.035296194
-0.0107376035
-0.014615222
0.010586915
-0.02278357
0.0075164572
0.021209335
0.04334469
-0.030570986
-0.001885367
0.035650585
-0.0050977366
0.021321071
0.016000982
0.0088947015
-0.027593503
0.047207065
-0.035145335
-0.009214928
-0.004346692
-0.0006196315
0.026113154
0.04548653
0.003293666
-0.0038307598
-0.048794817
0.009588426
0.01276488
0.023950031
-0.063957386
0.011658282
0.022517674
0.0023940809
0.034007385
0.0042702924
0.009921514
-0.015293723
-0.00069668
-0.0010433601
-0.024428338
-0.009667916
-0.015109375
0.028289735
0.028969198
-0.020295471
0.029502751
-0.006533246
0.0051971814
0.033830564
-0.0160849
0.016490601
-0.0024124463
0.047717035
-0.02189191
0.03337006
0.0022182676
-0.010379498
0.052131962
-0.0008261089
0.026208514
0.019918747
-0.02212475
-0.007363298
-0.011111394
0.0038357975
0.033567302
-0.024552245
0.0047054016
-0.02957753
0.00039853866
-0.018295085
0.005162238
0.025309242
0.04027479
0.0052409214
0.013489766
0.024819275
0.022255007
0.007361175
0.006592917
0.021404048
-0.01872782
-4.7343106e-06
0.0051572565
0.032871757
0.0067753675
-0.0075912667
0.0025739702
0.016093595
0.015362106
-7.486177e-05
0.020812163
-0.00093990366
-0.018013483
0.037835542
-0.04173729
-0.00527543
-0.0042239437
-0.013974492
0.0018601066
0.016248602
0.015325546
0.02770842
0.018442184
0.016816735
-0.007378193
0.0011097628
0.011184201
0.023575634
-0.03511183
0.005417487
0.002449242
-0.028482433
0.002316497
-0.0073216204
-0.017392822
-0.008813747
0.029393801
0.017384145
0.013818668
0.025684992
0.020661172
-0.009041943
0.016825486
-0.006132877
-0.0006190495
0.00799723
0.009188145
0.014639881
-0.021934891
0.01367653
0.053211678
-0.009915924
0.0091091795
0.005398802
0.022148898
-0.021394704
0.0015613241
7.375618e-06
-0.014446779
0.009340927
0.025410024
0.03832761
-0.040432326
-0.004451959
-0.017669035
0.00561154
0.01065239
-0.009733392
0.01703016
0.022421466
0.009889069
-0.029975556
0.010374344
-0.017159522
-0.014382415
-0.027862826
0.024070853
0.0054781553
0.029838886
-0.019463819
0.028938452
-0.033285573
-0.052666534
0.027607307
0.01513193
-0.01586741
0.0140694175
0.019730028
-0.029831821
-0.00267065
-0.0025979637
0.042593222
-0.004939782
-0.053361148
-0.011392334
-0.006762597
-0.0047456897
0.0063703787
-0.021182276
-0.010953148
0.015441223
0.0326921
-0.03342257
0.023145415
0.008466057
0.03133441
-0.010284756
-0.009317298
-0.0035559225
0.014577546
-0.001320541
0.03715703
0.0011720642
0.006594605
0.0041630277
0.004950508
0.02733895
0.0026425882
-0.01942207
-0.024621883
-0.020098358
0.0208389
-0.009300178
0.011176957
-0.012161068
0.017378615
-0.0026068385
0.0022836043
0.024368988
-0.04105138
0.0020181935
-0.017835556
-0.00933572
-0.0053439825
-0.01138978
-0.037765604
-0.018641612
0.0012567498
0.011314765
0.019595733
-0.013465688
0.0038689151
0.006711626
0.044976052
-0.0035800454
0.0034783003
0.010541555
0.0059583806
0.012921947
0.024162143
0.007609276
-0.00046822362
0.012709696
0.024651194
-0.0037121703
0.021879155
-0.020514628
-0.002200974
0.010952081
-0.021412324
0.006996232
0.013415136
0.014154678
-0.03245106
0.025656696
0.009077346
0.019056957
-0.009825146
0.012953692
-0.022164993
-0.023587504
0.015267752
-0.038748186
-0.005557956
-0.00077444676
-0.004105379
-0.029341538
-0.0021906511
-0.017655931
0.015497996
0.03645834
0.005615788
-0.022929074
-0.05423436
-0.018896854
-0.032394182
-0.0388221
0.040851902
0.03576012
-0.0017030904
0.028472392
0.0012157373
0.0046842285
0.018644478
0.016157465
-0.0052605257
0.007813308
-0.008751108
-0.011030794
-0.011573827
0.011703649
0.00906417
0.014421775
-0.002694503
-0.0150953345
0.0068495176
0.005691231
-0.013439232
-0.007090769
-0.016505057
0.030497283
0.007961875
0.0012703751
-0.006495676
-0.013326351
-0.022256885
-0.00052159705
-0.029516969
-0.0018710728
0.001178662
-0.029711617
-0.016627086
0.017537154
0.0034148502
-0.014583751
0.0110233445
0.015971582
-4.3087337e-05
-0.02048415
-0.009837968
0.010511554
0.0147319995
-0.005115352
0.021304578
0.003778561
0.021588482
-0.02443463
-0.014246835
-0.01526028
-0.0019908452
0.0040744124
-0.01520936
0.020682633
0.0011168224
0.011635357
-0.02280133
-0.002116117
-0.036001917
0.017331861
-0.020102564
-0.002557411
-0.009381286
0.030105399
0.021117058
-0.024601564
-0.020164575
0.0032748645
0.01508821
0.029656347
-0.011717336
0.027462041
0.004581864
0.014815539
-0.029020812
-0.012075314
-0.024037076
-0.021603152
-0.0036602756
-0.014717068
0.022656972
0.009835576
0.026355915
-0.010961043
0.0038030248
-0.005229474
0.0062958514
-0.032158926
0.0070481943
-0.023586307
0.01708491
-0.025045464
-0.028109
-0.0043201684
0.017765231
-0.022576418
-0.022412904
0.047117412
0.0053111045
0.009047955
0.006260932
-0.009833236
-0.02060674
-0.011571922
-0.013764705
0.0054900795
0.0013915914
-0.0033787983
0.005826027
-0.012186117
0.019927997
-0.003286177
-0.0030237818
-0.02375048
-0.016494945
-0.02550952
0.028719535
-0.009202473
-0.004115812
-0.0034539166
-0.024088824
-0.011938711
-0.04465482
0.0039568534
0.032383423
0.018731467
-0.01165545
0.0035473811
-0.032474525
0.021049729
-0.0010832972
0.0063116066
0.036486592
-0.014947595
-0.020427518
0.0025232087
-0.017057363
0.00019523482
-0.02193274
0.032155782
0.027161853
0.014821034
-0.01933423
-0.023641778
0.0019961447
-0.0023212358
-0.0053815786
0.0029332652
0.01255032
0.0090264715
-0.008741338
-0.0015735591
-0.03611425
-0.0025507247
0.00954056
-0.007857539
0.02521601
0.046886854
-0.0045483205
0.016312871
-0.02299124
-0.0006497127
0.0007167714
-0.0085234
0.043643747
0.007200693
0.0063869176
0.0019703482
-0.019236872
0.0132126855
0.030265784
-0.020064194
0.0060862666
-0.004559769
0.0097942725
-0.0019648713
0.006729312
0.009642707
-0.0019535106
0.040269714
0.027644418
-0.018440615
-0.010090996
-0.002667211
0.013531336
-0.00054544205
-0.009727088
0.037605606
-0.0074514756
-0.0022774853
-0.022498328
-0.005202768
-0.012632763
0.007873545
0.025218634
0.023530893
-0.04130972
-0.0285087
-0.02262402
-0.029513907
0.025265187
0.009082685
0.027505644
0.0015593546
0.012455093
-0.00044497728
-0.009894903
-0.003082366
-0.005459106
-0.04242243
-0.020869033
-0.0319747
-0.01227267
0.012111344
-0.017942838
-0.052285485
-0.008680037
-0.0018595533
-0.012376961
0.003284769
0.017504483
-0.009677803
0.040394943
-0.00063940894
0.021869482
0.032501835
-0.009136546
0.01052788
-0.021055166
0.011656146
0.020918198
-0.0009121161
-0.0003321347
-0.008662338
0.030112822
-0.063375585
-0.019740036
-0.011136411
0.016555952
-0.046987027
0.0043110633
-0.032801446
0.045103814
0.023629967
0.0059506875
0.000606866
-0.0059004216
0.016204694
0.016835013
-0.01893545
0.025077602
-0.0050198566
0.019351082
-0.027566811
-0.0026196851
-0.004432296
0.0075151715
0.03436057
-0.007721942
0.0056625735
-0.025555365
-0.016366132
0.014611759
-0.0061806906
-0.0009304749
-0.0026419887
-0.0064045372
-0.009889365
-0.023250649
-0.027332895
0.040347513
0.0015989832
-0.021536078
-0.017284514
0.002504467
0.014988593
-0.027738266
0.004538797
-0.018666664
0.01226619
0.010741452
-0.012235571
-0.05618769
0.010366065
0.012528681
0.010928176
0.0032990612
-0.0070523648
0.008387735
0.008889592
0.009621099
-0.0025104298
-0.007166764
-0.030675778
0.0038640138
-0.024122695
0.024469111
-0.015638499
-0.014997979
-0.0053597027
-0.020942366
-0.040585898
-0.013670832
0.030446311
0.03689658
0.0219242
0.021529473
0.017907912
-0.010727316
0.0134200435
-0.010759678
-0.017954584
-0.008146137
0.007767011
0.0076982942
0.044975262
0.0029458697
-0.0089202365
0.023612645
0.0390176
0.029881334
-0.004041635
-0.004218854
0.004912138
0.0126424525
0.0062853717
-0.03511577
-0.031312764
0.020390343
-0.010515125
-0.0024949587
-0.0076977382
0.045803454
-0.0052558365
0.027216703
-0.003192973
-0.024495896
0.0066151004
0.008737106
0.008094078
0.028203674
0.033573415
0.0068345014
-0.00021333003
0.01717784
0.04200641
-0.010629997
0.02914241
0.034135073
0.025885396
0.0051663453
0.00040590076
-0.0048542027
-0.0017649326
-0.0125917345
0.010741059
0.027071334
0.01579844
0.0046114246
-0.011212797
-0.011542048
-0.003760515
0.011468057
0.009837014
0.0033652007
-0.026157431
-0.004952637
0.014086351
0.0065420186
0.018939508
0.0005615758
-0.009385518
0.016703425
0.027106857
-0.006744933
0.010720011
0.015040626
-0.02517473
0.024267005
-0.001228801
0.029673534
0.005144943
-0.012255495
0.013972549
0.009181053
-0.027229277
-0.00765496
-0.002003824
0.00097125565
0.04031686
-0.017606776
0.001399527
0.020022573
-0.0038716814
0.02692608
-0.018907886
-0.01045035
-0.0028398398
0.019360468
-0.070151076
-0.007808748
-0.0038851204
-0.012518999
0.0002768582
0.0055285096
0.049822096
0.0039327266
-0.0077929227
0.016191129
-0.016296983
0.003045439
0.019195743
0.012338656
0.0025435807
-0.0010280688
0.019582283
0.018101184
0.017383983
-0.002645131
0.031752583
-0.01396285
-0.013610371
-0.012345111
-0.02102693
0.008967428
-0.0027666502
0.0015247777
0.036860928
-0.006561593
0.021244153
0.02427655
0.0009462732
0.01128255
-0.008424353
-0.00025879493
-0.019436896
0.04932144
-0.012199963
-0.012106267
-0.01717072
-0.023012888
-0.033776086
0.03513542
0.019741874
-0.030279178
-0.001187797
0.023293966
-0.0020040353
-0.0010582865
0.0019013161
0.021931684
0.039966077
-0.047061305
0.0059924726
-0.011440603
0.012105074
-0.030330313
-0.017577996
-0.008118505
-0.007526269
-0.030440181
-0.011695708
0.026239278
-0.0022067102
0.019216992
-0.004869197
0.00962947
-0.0073830937
-0.027434178
-0.0033331006
0.0083169015
0.018166954
-0.024877481
-0.02569713
0.032487452
0.04250624
0.015185932
-0.008753934
-0.019091725
-0.039503623
0.0029752108
-0.0047142496
-0.022884157
0.01322117
-0.01540457
0.015886573
-0.012919703
0.00069335784
0.0015598728
-0.0030994404
0.018096108
-0.020508632
0.020996984
-0.011330665
-0.02603977
0.0049529853
-0.03136578
-0.014634579
-0.001556086
-0.014399142
-0.0425953
-0.02239779
0.0017961515
-0.040789507
0.043353982
0.050796445
0.027712833
0.000873285
0.016857993
0.0014513938
-0.006999245
0.022350328
-0.00883649
0.017468456
0.0069788354
-0.036995966
-0.027103612
-0.018173758
0.007886789
-0.0056679035
0.006850083
-0.014460331
-0.025121054
0.0025154273
-0.06745138
-0.037970513
0.013657666
0.0034894464
-0.009160941
-0.010337583
0.012263966
0.010909482
0.0020955321
-0.020478439
0.010994194
-0.02288701
-0.0058707357
0.025550924
0.033456936
0.005389144
-0.0107075935
0.0023898755
0.01162229
-0.0014560984
0.0031769096
0.012817779
0.016097238
-0.0021489903
0.025823576
0.009427531
-0.012097714
-0.015999988
0.02550003
0.0018003001
0.008113569
0.003136389
-0.052592747
0.00135481
0.030061862
0.021799233
-0.007827839
-0.049252395
-0.039982878
-0.018477237
0.04270569
-0.0034057181
-0.0032346798
0.0023457152
-0.030552091
-0.00015568935
-0.044219736
-0.00976224
0.01011175
-0.038138404
0.008548158
0.0030251795
0.035071976
-0.007041231
0.01748696
-0.0046400046
-0.0045316834
0.010561182
-0.006733135
0.00027479196
-0.00310696
0.0026277455
-0.017608527
-0.012295792
0.040143855
-0.0042152978
-0.009693665
-0.009598209
-0.018398434
-0.015342475
0.0042545185
-0.02480686
-0.014284928
-0.020600704
0.050418727
-0.008158747
0.00056568574
-0.036382977
0.025094299
0.029221127
-0.022751732
-0.032317266
-0.03148543
-0.012918547
0.0097511755
-0.0070809047
-0.015535347
0.0009980161
-0.0014025959
-0.026612172
0.0072118407
-0.0016377376
-0.011371928
-0.0032168655
-0.007000799
-0.010848077
0.027723117
-0.018938987
-0.03386238
0.036272798
0.00618143
0.022286996
-0.009481513
0.015732292
-0.008237097
-0.029780544
-0.043002415
0.01592232
0.0029685465
-0.012494779
0.007313119
-0.010767087
-0.0039510075
0.008445483
-0.0025473586
-0.0090631945
0.0037362294
-5.6861525e-05
-0.015128412
0.005499144
0.007916614
-0.00891493
-0.010623397
-0.00095321244
0.001585407
0.027346537
-0.022815691
0.028151609
0.015750932
-0.009253746
-0.014600676
0.03855178
0.029256567
0.02113031
-0.0044920775
-0.0546231
0.04141433
-0.021758046
0.045601852
-0.00787962
0.005187233
-0.00785846
0.011159208
0.049506564
0.009822955
0.004148257
0.019250153
0.024468577
-0.011272607
-0.0012922045
0.002874087
0.016209302
-0.029871974
-0.010637344
-0.007798794
-0.011588984
-0.0069407336
0.05437902
-0.014955108
-0.0024018122
-0.0073182588
0.023565765
0.002358094
0.00079268217
0.0058150203
-0.0025868153
0.012188626
-0.011629369
-0.022168554
-0.02413761
-0.005970461
0.012197991
-0.006476982
0.011541319
0.02853943
-0.011184703
0.027618686
0.017701143
0.032161456
0.0018628318
0.0026473957
0.02101723
0.010773856
-0.01910225
0.0071102474
0.004125759
-0.016278513
0.007219206
0.00022979797
-0.009700962
0.014525739
-0.025963282
0.0016179817
0.0011188316
-0.0018137149
0.023483787
-0.026613023
0.024679316
0.010368843
0.0030135198
0.016843067
0.015956677
0.015177886
-0.035714906
0.0070185685
9.030963e-05
-0.00790895
0.016752271
-0.024525378
0.012906749
0.024078628
-0.01747256
-0.0008458882
-0.017044522
0.01699507
-0.0180054
-0.0053779897
0.0034766975
0.019395538
0.0002928325
-0.02442113
-0.023980707
-0.006266654
0.016732479
-0.028488094
0.02269096
0.012007003
-0.01488966
0.024423096
-0.022180298
0.0122960005
-0.01819253
0.029682273
-0.028263532
-0.01838237
-0.0041049602
-0.009079387
-0.015656665
-0.031856764
0.040535368
-0.019731313
0.017782478
0.0051512145
-0.023238985
0.019271987
0.0134359775
0.009848858
0.0017755252
0.007682601
0.009992722
-0.015087095
0.022031
-0.023315536
0.007088162
0.0076598614
0.009800979
-0.01985591
-4.0390543e-05
-0.0024874753
0.028022682
-0.015408282
0.028971324
-0.0040360945
0.035356436
0.0014510554
0.034047414
0.023838272
0.007078375
8.335884e-06
0.011093659
-0.015551161
0.007354734
0.016053287
-0.0034226866
-0.012195903
-0.010674506
-0.019510183
-0.03327798
0.008675816
0.014389805
-0.01974499
-0.0034659596
-0.0011190417
-0.03106803
0.007845923
-0.03473946
-0.029389665
0.009871746
0.02949833
0.032582197
-0.004940671
0.009042238
-0.0043146
0.013081776
-0.0130420085
-0.011349635
0.028630545
-0.0042233206
-0.012646852
-0.001826607
0.010381096
0.0052263616
-0.00071292795
-0.028344676
0.02143243
0.011196151
-0.008666766
0.032225963
0.021561045
0.016773384
0.0012096592
-0.0051831855
-0.0084512215
0.017228944
0.0050456785
-0.016156852
0.008575568
-0.0048716087
-0.0015903956
0.004104395
-0.0016540892
-0.016787328
0.0038611114
-0.0008223273
0.024508758
-0.0052343626
-0.019985778
0.029411739
-0.0007060271
-0.011747552
0.0011941029
0.021447951
0.028354023
-0.021280563
-0.020505872
-0.0070163957
-0.01668053
0.0057714903
-0.022915002
-0.018880453
0.011623221
0.011717071
0.012679624
0.0045602606
0.010830182
-0.04829859
-0.00284604
-0.010330639
0.01280977
-0.012420174
-0.03390892
-0.009113398
0.0017848011
-0.005866177
0.0018245626
-0.017486507
-0.025467847
0.0009009861
0.017858608
0.0032960426
0.0006801091
-0.012707835
0.016998677
-0.01648913
0.03347757
0.02399222
-0.003586249
-0.019335844
0.040085696
0.023227556
-0.0021078642
-0.02142053
-0.0052170516
-0.014208841
0.0054230667
0.014509676
0.0010277063
0.040392388
-0.027916333
0.011233122
0.0079045
-0.02010081
-0.018010445
-0.011468414
0.0304264
0.027696075
-0.0063814255
-0.002517053
0.007169529
-0.009985133
-0.027212901
0.024366831
0.013923685
0.023795396
-0.025735505
0.013059245
0.010494794
0.0046081045
-0.026494097
-0.025064267
-0.003908771
-0.0056534098
-0.017149642
-0.00755759
-0.005656805
-0.011858665
0.024845345
-0.009657261
-0.007076583
-0.02544796
-0.020588554
-0.00843975
0.010497039
0.00070634094
-0.01795878
-0.013574211
0.004315048
-0.012905998
0.02891027
0.011181322
0.011736135
0.0047631655
8.0127975e-05
0.030272879
0.004879182
0.022089109
0.015245864
0.010652395
0.042431153
-0.008573367
0.02815964
-0.026067274
-0.012623303
0.009530125
-0.004716091
0.06292979
0.02065198
-0.0166532
0.016010558
-0.009903861
-0.013092903
-0.010438315
0.0056905854
-0.0058009424
0.019321205
0.015553219
0.026919471
-0.026852319
-0.011306793
-0.02600694
0.02651944
0.016099643
-0.00066147686
0.017090209
-0.016093792
0.036411818
-0.02999965
-0.015050962
-0.027904145
0.010925396
0.010979461
-0.021508757
0.04672056
-0.024787148
-0.019551247
-0.021515112
0.007827678
-0.04414104
-0.019535312
-0.0073002772
0.010855221
0.00055685075
0.00477785
-0.022576613
-0.019323943
-0.0010256169
0.013861193
0.02434619
0.021174459
-0.031196259
0.010395744
0.016568575
0.012682815
-0.010950648
0.010902171
0.014781173
0.029123692
-0.0068298266
-0.0006848163
-0.051897135
0.00031211533
-0.01447718
0.0042422814
-0.010642138
-0.006573765
0.0140202865
-0.004271618
0.027091963
0.013333299
0.0020670919
-0.020977113
0.0015580739
0.023639688
-0.0246237
-0.0011185646
-0.013066671
-0.033636425
-0.015924329
-0.01024864
-0.0041595483
0.023128843
-0.017803628
0.026642356
-0.024614682
-0.0017005433
0.030508818
0.008047869
0.012645725
0.011540533
-0.011294848
-0.04238716
-0.042460326
-0.011967294
0.03840787
-0.00798906
0.01661119
-0.014452762
-0.0033172742
-0.00018995523
0.019757258
-0.00013729002
-0.020971322
0.006051
-0.0018927197
-0.040838074
0.007206519
-0.008494853
0.0021857708
-0.0036349243
-0.0038884925
0.021756142
0.022341501
0.025700066
-0.020177474
-0.0030630168
0.059058566
0.03947127
-0.008616597
-0.009455433
-0.0040864283
0.015983908
0.0128251845
-0.025223615
0.004364732
-0.041548476
0.017173074
-0.05734129
-0.009279738
-0.011601525
-0.022452878
0.0057707685
0.026409158
-0.0010477181
0.02863666
-0.020794012
0.017506609
-0.016213182
-0.0057249796
-0.03003734
0.018215418
0.017073287
0.016127527
0.012289666
0.019084994
0.0060188705
0.017848516
-0.012690298
-0.008852893
0.00658917
0.027400838
-0.012401153
0.019809807
-0.017352618
0.007834958
-0.004741112
-0.0014266635
-0.05184598
-0.0046272487
0.010703998
0.0042972593
-0.04012261
0.036137346
0.0013325912
0.008338026
-0.01583683
-0.024686059
-0.0043061236
0.027306791
-0.014657834
0.009505502
-0.019427933
-0.008372119
-0.013411268
0.022865947
0.008768507
-0.006852812
0.009289421
0.018342774
0.002075234
0.012851604
-0.006259905
-0.008105941
0.022875901
0.0039919345
-0.013752027
-0.005299579
0.05040922
-0.00020230295
-0.012859571
-0.015754187
0.019428844
-0.007473184
0.0043695173
-0.052943096
-0.010535014
-0.016884508
-0.0334388
-0.030736843
0.019534465
0.026920047
0.021822497
-0.006130243
-0.021366894
0.0002791906
0.00082144956
-0.01249939
-0.0023876508
-0.0086093
-0.020236522
-0.010780469
-0.008682206
-0.015881628
0.01965079
-0.017007973
-0.008388943
0.004896976
-0.0010599241
-0.010582745
-0.019709717
0.032328527
-0.0040231105
-0.0037935432
-0.011795585
0.002133246
0.0030835315
-0.032190196
0.06981373
0.029421808
-0.00692106
-0.029471636
-0.015991597
0.024659209
-0.0021384782
-0.010551239
0.046381753
-0.013767166
0.007101613
-0.044942074
0.015686013
0.009565808
-0.010728738
-0.017947486
0.024707232
-0.00032485314
-0.006386611
0.002126059
0.0009373654
-0.00018988393
0.015406525
-0.0073580514
-0.018084014
-0.018354809
-0.012847354
-0.0063476656
0.00066438765
0.0012313289
-0.012407339
-0.008371586
-0.006888654
0.008784073
-0.0021912046
0.011736778
0.009657815
0.03227164
0.033258695
0.03600457
-0.016539069
-0.004160978
0.011976091
-0.022217138
-0.023448665
-0.013606169
-0.010798147
0.018172419
0.0024940944
0.0012337895
0.02338771
-0.03084355
0.004536653
0.009127046
-0.023967532
0.047326263
-0.03564344
-0.009391683
-0.0061059305
0.027346846
0.017601617
-0.012582256
0.0064267204
-0.030538525
-0.017401097
0.007733972
-0.0033327641
0.036337074
0.009072552
-0.032716036
0.031525005
-0.037220832
-0.011827688
-0.02873621
0.031873465
0.0071281022
-0.011002463
0.037476387
0.007775507
0.041016724
0.0023929435
-0.0439108
-0.014112573
-0.0076528224
0.01297477
0.014136076
-0.013541198
0.022360673
-0.0148360655
-0.021178117
0.0057457206
-0.007684087
0.01414279
-0.024191307
-0.009326758
-0.033942185
0.010153656
0.0055891876
0.006164342
0.004389024
-0.011876572
-0.008406233
-0.003202048
-0.0014216626
-0.026728442
0.01405647
0.0054015485
-0.01797825
-0.029954808
0.01497342
-0.009261859
0.015129134
-0.011505409
-0.03586377
0.0051373974
-0.005076128
0.011282365
0.031488784
-0.019924743
0.057693515
-0.0069287
0.0035525914
0.018284854
-0.05989334
-0.045509905
0.015009145
0.02350471
-0.0022213692
0.0413664
-0.0028842234
0.018208455
-0.03668898
0.022201214
0.0040661413
-0.021230154
-0.01624057
0.029054204
-0.017507201
0.012179154
0.026172362
0.04009174
0.026090108
0.0071693324
4.6533052e-05
0.011026469
0.009614212
-0.023824012
0.0013871246
-0.008153617
-0.010769656
-0.031175116
-0.0016645502
-0.012398654
-0.017460693
0.04994436
-0.008404204
0.011836922
0.005613974
0.027000379
-0.034065895
-0.023246247
-0.038658597
-0.003472128
0.007059375
-6.2350926e-05
-0.027890608
0.008186352
-0.0016989842
-0.026752181
0.011278374
0.02601863
0.0027184498
-0.0067543243
-0.015636994
-0.0050137797
-0.029646866
-0.030008024
-0.00038716863
-0.023864536
0.012546874
-0.0010321164
-0.03622715
-0.016807793
0.032365397
-0.011818738
-0.0029063362
0.011025669
0.029032659
0.011501412
0.035606842
0.019442001
-0.00450896
0.0042251307
-6.1265935e-05
0.0004650903
0.019216435
0.004822123
0.001985649
0.0035775553
-0.027569825
-0.005237686
-0.0032891869
0.00033519734
-0.0077695153
-0.0008097765
0.042010356
0.016433684
0.010880829
0.029915156
-0.050834462
0.0065069697
-0.037748285
-0.036430348
-0.0025058752
-0.0091764415
0.0124227125
0.004151947
-0.016226714
-0.041731086
-0.0036629878
-0.029471133
0.027418707
-0.009367292
0.005287484
-0.018518273
0.017171098
-0.0031731725
0.03601762
0.010777978
-0.029525997
-0.02574477
0.022044763
0.001966697
-0.0113747725
0.035454694
-0.011906144
-0.0051541827
-0.02870893
-0.0011651628
0.007004795
0.021333262
-0.0026189417
0.0054894835
0.012310996
0.023508502
0.010986426
-0.01079236
0.0013727524
0.021324404
0.029268157
-0.0066254907
-0.002969511
-0.0038968485
-0.007870827
-0.006695195
0.002777076
0.021619935
-0.0025912442
0.01109248
0.038984597
0.0019404587
0.02094676
-0.023763001
0.00053162815
-0.020234127
0.0015001672
-0.018828735
-0.019221991
-0.003510497
-0.017898193
-0.03109213
-0.0028022784
0.017495442
0.01637317
0.0066113556
-0.03234955
-0.0021680398
0.0024242792
0.010209777
-0.0026650303
-0.01660605
0.023612214
-0.02384053
-0.016203502
-0.025880467
0.033514347
-0.023399182
-0.032776006
0.007515129
0.023215182
-0.0059340512
-0.03536226
-0.0011111065
-0.014549896
0.013257633
-0.007455465
0.012001514
0.008277294
-0.0053115143
0.043605585
-0.0022130136
0.01398847
-0.005045608
0.0062188637
-0.025048772
-0.016309489
0.028177539
-0.0016852731
-0.015326092
0.03413439
0.016910488
-0.008817404
0.04899098
-0.013693475
-0.00815671
0.0059855795
0.0064837094
-0.008281218
0.026116408
-0.046350427
0.00017310906
0.025029732
0.032216012
-0.026624687
-0.015598559
-0.025874572
0.022713521
0.011216179
0.008363932
0.016361251
-0.018924069
0.0063412897
-0.018013544
-0.041305277
0.027119977
-0.0260387
0.020672435
-0.003818575
-0.034492128
-2.2241778e-05
-0.025308987
-0.011940781
-0.028323753
0.015863521
0.011767197
-0.0015714255
0.0012155585
-0.018141065
0.005585006
0.022135433
-0.009763223
0.034850426
0.038600393
0.013241031
0.025197664
-0.03517039
-0.007211085
0.015545982
-0.01940311
0.013166494
0.0050898627
-0.030928046
0.0020080241
-0.026762329
-0.017259061
0.021409675
-0.00967113
-0.017608088
0.034782495
0.008584406
-0.008293152
-0.010160204
-0.0067077335
0.011982119
-0.014241206
-0.018989336
-0.017720915
-0.009131325
-0.0015254129
0.022712061
0.019125063
-0.023646751
-0.016694553
0.022690585
-0.047409162
0.02695224
-0.02990927
0.01107872
-0.0030735023
0.0075933733
0.007852226
-0.010924437
0.015158092
0.016483983
0.020338785
-0.03549134
-0.0098391045
-0.033873506
0.003585838
0.00036924623
0.034166884
0.008823354
-0.015861493
-0.0030646124
0.009130686
0.020041287
-0.016246872
-0.041975077
-0.0066291234
0.010895947
-0.041448925
-0.015118291
0.03587876
-0.004021966
0.033987463
-0.008861893
-0.02618294
-0.0330957
0.002406281
-0.0063336627
0.009415165
-0.046388958
-0.0044468907
0.030790638
0.010569731
-0.033348866
0.0011600835
-0.031693798
0.011431214
-0.0118227275
-0.02208756
-1.1985503e-06
0.018768245
0.0018691851
-0.004035365
0.025411285
0.032430585
-0.016873496
-0.01691196
-0.015386121
-0.0048079723
0.005655645
-0.007354991
-0.012389541
-0.020714344
-0.006715914
-0.0069839945
0.0040548816
0.012023042
0.02384078
0.0028209025
-0.034082964
-0.0018748329
0.017775241
0.03291164
0.005676037
0.0013423351
0.023661496
0.03688097
-0.017938362
-0.0018389927
0.0050775227
0.015286467
-0.020690281
0.0015399847
0.01014762
-0.016314136
-0.03114805
-0.016813044
0.001892328
-0.039146833
0.014905057
-0.0080629885
0.022656964
0.015424197
0.0033367535
-0.015415466
0.0069039348
0.047794197
0.013965761
0.030100657
-0.016940048
-0.021299124
-0.0044839387
-0.024484731
-0.0152744185
0.0073939976
0.040823683
0.008716379
-0.021878388
-0.014933038
0.023924181
0.00028563876
-0.019309126
-0.015582711
0.008527285
-0.01222014
-0.011804838
0.00039650782
0.013386526
0.0075637684
-0.000108488966
-0.010286787
0.009898022
-0.010407999
0.0048464416
-0.021704616
-0.018901957
0.00360445
0.006887161
-0.018436171
0.038145542
0.017598873
0.0192709
0.0053643873
-0.011787675
0.01088162
-0.019601325
0.05479103
0.016641468
0.0154611785
0.0010833036
0.01564932
-0.03274815
-0.009933061
0.012848932
0.0074915295
-0.025300218
0.00738797
-0.030118471
0.020632261
0.02615077
0.008081637
-0.03665779
-0.021037424
0.021733228
-0.0037240153
0.013809313
-0.027728066
-0.015874399
0.011306372
-0.056080837
-0.0055862605
-0.009191408
0.041100007
0.0007702925
-0.015902229
0.034218892
0.0175871
-0.019346103
0.042198334
-0.041563056
-0.005221904
0.011712306
0.015116806
0.0032385765
-0.0016943951
0.03053778
0.03265298
0.06507604
0.00916538
-7.3596246e-05
-0.024959411
0.023817921
0.012147704
-0.024009554
-0.01570151
-0.004616671
-0.009473681
0.02145341
0.009156668
-0.037614107
0.011693572
-0.017041989
-0.02604008
0.023080343
-0.0069202636
0.003757489
-0.019082349
-0.025492867
0.014185063
-0.010018889
0.04865052
0.046438966
0.0068583
0.009781475
-0.0048402054
0.016861456
0.01991026
-0.014714596
-0.01332815
-0.0029290437
0.0018708592
-0.008747901
-0.026272494
-0.023866925
-0.019526333
-0.042542975
-0.013875476
-0.021618873
0.018618928
0.019188073
0.0047796154
0.028615259
0.012349122
0.014945947
-0.00052403286
-0.00800031
-0.013867043
-0.004809854
-0.0026574808
-0.024551962
0.026442062
-0.012734618
-0.008136509
0.017472828
0.016253473
-0.012813626
0.0062127523
0.011557265
0.029281732
-0.014510151
0.010167371
0.018163806
-0.007383042
0.00022309189
0.0010876595
0.022233387
0.016074479
0.011321376
-0.00023304329
-0.0068608127
0.010116615
0.023606906
0.019242095
0.009550141
-0.003155433
-0.019946303
-0.016366195
0.00034347342
-0.005324422
0.02911413
-0.023803568
-0.02718751
0.018382913
-0.05031472
-0.035531256
-0.02730805
0.012471634
0.015318015
-0.005100469
-0.00516604
0.0007040796
-0.04173769
0.015572868
0.01045656
0.027953133
-0.006295447
0.021292765
0.015477034
0.027811643
-0.00024317311
0.03166312
0.018056188
-0.011478258
-0.0020953314
-1.2175702e-05
0.019949533
-0.015085124
-0.021485137
-0.0028441122
0.0016033868
0.044529423
0.03133496
0.013608551
0.028451325
-0.008848534
-0.00036667543
-0.031102972
0.018565437
0.00080173416
0.017992508
0.022036457
0.008373814
-0.03492087
-0.035229176
-0.03822634
-0.011336429
-0.021245487
-0.021172507
-0.03359355
0.00021845674
0.005250211
0.039998043
0.026905457
-0.0148865
-0.006799958
-0.0062525515
-0.020374106
-0.02036289
-0.026081989
-0.0034514803
0.03383866
-0.02268295
-0.023011805
0.007097577
-0.02609546
0.020040192
-0.03246755
-0.02209323
-0.021545732
0.0044060745
-0.012071735
0.024513513
0.015432078
0.032922044
-0.024196066
-0.0075956592
-0.034521304
0.012737412
0.025467357
0.016302949
-0.0086196875
0.013435698
0.006953153
0.0026016738
0.008051548
0.002107427
0.011358001
-0.043186434
0.005475175
0.021409834
-0.030335138
-0.0338425
0.02711209
-0.01277176
-0.04988773
0.027976058
0.0072733774
0.020751445
-0.009633896
-0.011665596
0.0037757468
0.0012374783
0.030743608
-0.0072294846
0.0009323034
0.030806147
0.009845028
0.016506301
-0.019402612
-0.013905979
0.012191505
-0.0076326844
-0.003720003
-0.0007347566
-0.042120103
0.006764739
0.038821433
0.0034928338
-0.028230647
0.008782004
0.00041661764
-0.018702557
-0.009625106
-0.0035631033
0.028059423
0.022189392
-0.010893945
0.027774096
0.0037559732
0.0019775266
0.0057757855
-0.019366585
0.027978934
0.006014068
-0.029242365
-0.0089425985
0.009973462
-0.017874599
-0.020574598
0.00019563762
0.013477824
0.007759683
0.020782763
0.0049644792
-3.3088658e-05
-0.015215759
-0.004745406
0.027661046
0.022778133
-0.0065160384
-0.008755443
0.0018978922
0.020373838
0.017642178
0.0034793003
0.020760681
0.00082432746
-0.013682599
-0.004023221
0.005604483
-0.004889711
-0.01777952
-0.0114486115
-0.006360103
-0.014310262
-0.032986794
0.026447233
-0.01209689
-0.0050432286
-0.022327648
0.019094754
-0.013705467
-0.023422226
-0.007482465
0.0383502
0.016322581
-0.044205073
-0.006975522
-0.024609718
-5.909878e-06
0.012662339
0.01777202
0.034814395
0.022918612
-0.023616657
0.021692336
-0.024089815
0.012337263
-0.02247228
0.020063262
-0.021836825
0.0057035116
-0.00745465
-0.022346476
0.03740365
0.017489458
-0.038140755
0.0066502485
-0.00789615
-0.008543271
-0.011749008
-0.024093673
0.0037866763
-0.007448737
0.009290789
0.0035829858
0.021324035
0.004074521
0.018616041
0.027834296
-0.01941094
0.0021614847
-0.032651387
0.02795531
0.016555449
0.0046400055
0.010742137
0.0037832526
0.0059189945
-0.033483837
0.02954817
0.010011452
0.00044522094
0.01817907
0.019839155
-0.023152057
0.026057085
-0.032510314
-0.009852795
-0.023899013
-0.00037550848
-0.029877912
-0.02812587
0.008248523
0.013438371
0.00032907198
-0.014776869
0.021439007
0.0013399025
0.008701297
-0.023523886
-0.0063983747
-0.025463246
-0.002898953
0.0022683477
0.010447086
0.032958828
0.007866528
-0.0010186407
0.021122735
-0.014174166
-0.011644922
0.004548136
-0.022338605
0.00040346134
-0.032524064
0.024145579
-0.02200384
0.006369147
0.013297651
-0.014579584
0.024267012
-0.0071583143
-0.00060932914
0.0018868868
-0.025674898
-0.0056888917
-0.006028395
0.0130603835
0.008186853
0.03360755
0.018898787
-0.0014657119
0.001343707
0.01054976
-0.0011302348
0.0009208115
0.005379939
-0.01622371
0.008024754
-0.024595484
-0.0020700598
-0.011450896
0.015542751
-0.03796858
-0.019111985
0.019719621
-0.026525639
0.0121546965
0.032534182
-0.059723284
-0.010311383
-0.0043159043
-0.006506047
-0.0001322511
-0.02455331
-0.017222464
-0.0133943325
-0.019200455
0.04370184
0.016567439
0.03486836
-0.02463569
-0.03795065
0.05187108
-0.011815481
0.0027810272
-0.007738798
0.0052375803
-0.0025616481
-0.02186468
-0.0009949295
0.011739626
0.0019898438
0.018846504
0.014613136
-0.004754163
-0.019487489
0.04244476
0.018884929
0.016028553
-0.007568722
0.016522557
-0.0009169644
0.01062579
0.046017192
-0.022866849
-0.0030522996
-0.014269894
0.0055363527
0.01500665
0.01919694
0.025062844
0.017601714
0.0027378413
-0.0014463014
-0.0072066705
0.00031361773
-0.004673827
-0.023881832
-0.00066591654
0.004285372
0.01043752
0.03867083
-0.014593161
0.0070664072
-0.036281705
0.0032547533
0.042292036
-0.0055453894
0.030092828
-0.007991092
-0.00803924
-0.010342227
0.026742825
0.033524856
0.010495293
0.0073633334
0.008845776
-0.00085942954
0.021223342
0.02647069
0.012054177
0.025212375
0.0044359453
0.024547795
-0.036802538
0.0003407213
0.007604953
-0.005587008
0.0024334542
0.017155876
0.01372216
0.04188693
0.0419377
-0.003766234
0.010886328
-0.0028497817
0.01908863
0.010507035
0.02556303
0.013938037
0.027893838
0.022971524
0.02012298
0.010903215
-0.033313856
0.0045571527
0.028762879
-0.00219455
-0.014760163
-0.024775513
0.015388344
-0.02707099
0.0155455945
-0.0047457037
-0.0035314453
0.015811024
0.026556475
-0.015424869
0.011467789
-0.017290378
-0.011124967
-0.028351448
-0.04294379
-0.003696895
-0.024532283
0.023490151
-0.010739358
0.008293898
0.052202944
0.0044130967
-0.01181844
-0.02254435
0.030942164
-0.027018437
0.020417206
0.020227587
-0.0027611265
0.021665407
0.018162595
0.01612117
-0.008194974
0.0042038034
-0.0054959194
-0.014195742
0.004753125
0.004531916
0.011149715
0.0066423314
-0.013296018
-0.010846332
-0.025381893
0.0006286285
0.0005535431
-0.023400227
-0.024172692
-0.00094298087
0.005766196
-0.0038643319
-0.0027540133
0.021935966
-0.035422113
-0.0042758062
-0.018003073
-0.00044027824
0.027047953
-0.0112876445
0.028622486
-0.025689652
0.017241122
-0.014485419
0.03496014
0.026038297
-0.0073037734
0.030974189
0.0064622513
-0.026333146
-0.008019251
-0.050971273
1.9076238e-05
0.05045111
0.0064217704
-0.0049202857
-0.013849759
0.02554216
0.0024311603
-0.00010739081
-0.03513251
0.009772002
-0.0053141336
-0.008359994
-0.026695611
-0.02018174
-0.0017586007
0.024626026
-0.0018553793
-0.0051229256
0.003889492
0.011245024
-0.016408047
-0.007403749
0.0077647762
0.025343206
0.009260677
-0.0031594904
0.0014120884
0.0004553272
-0.022638414
0.0034911977
0.022019275
0.01886094
0.013264546
-0.024044923
-0.020425262
-0.013790787
-0.019025277
0.012621067
-0.01381727
0.0014247146
0.03706471
-0.0234089
-0.0018721847
0.023178296
-0.008105461
-0.003266337
-0.00027471644
0.011043329
0.012421463
-0.006551632
0.005841235
-0.017726839
-0.006937143
-0.015187856
-0.01613226
-0.005272236
0.012420476
0.011438848
0.0308728
-0.019415125
0.0014960128
-0.02501406
-0.010427514
-0.00035860436
0.027045863
0.016722154
0.017500835
0.016404103
0.017738996
-0.014971723
0.0017900766
-0.013155207
0.009791872
0.0011051653
-0.015661435
-0.0008761109
0.0139797
-0.011606142
-0.027627982
-0.035308085
0.039747737
-0.010980011
0.009527942
0.0021046125
0.009310223
0.033720274
0.04312441
0.024980234
-0.012279721
0.016206225
0.026338018
0.011101433
0.005384596
-0.012742539
-0.010653523
0.022893276
0.028551998
-0.007596896
-0.0054346034
-0.04615273
-0.008111844
0.013036159
-0.029491749
0.036434304
0.03544824
-0.012368487
-0.024887469
0.02678239
0.005137752
-0.022189915
0.008968873
0.029858643
-0.002869272
0.025273854
-0.024301039
0.0019249694
0.025067596
-0.012104334
0.010501757
-0.010782916
0.0020722055
0.017828666
-0.0034153473
0.020214127
-0.011503105
-0.015273354
-0.012405542
-0.016082494
0.0034020853
-0.008463908
-0.02568557
0.014580424
0.023788676
-0.025416944
-0.034617346
0.038191855
-0.043001946
0.021693902
-0.006610164
-0.0023266263
-0.031026298
0.025632031
0.009909789
0.027698
0.05611659
-0.0045802915
-0.007798123
0.032099485
-0.0067312513
-0.020279001
-0.0021730838
-6.74182e-05
-0.034690302
0.0100958655
-0.02484672
0.023033913
0.021059249
0.015840236
0.010744035
0.0122995805
-0.023693241
-0.009560954
-0.010237715
0.010974395
-0.0035826229
-6.0574293e-05
0.014716738
-0.0112691885
-0.010528195
-0.034835376
0.026343295
-0.0002010248
0.028604304
0.0025768497
0.010185391
-0.0130869765
-0.039338358
0.008473923
-0.0019885206
0.00048952707
0.0145786125
0.019920487
-0.020807708
-0.013209462
0.01210653
-0.0041973703
-0.025461776
-0.024791813
0.0036367476
-0.01786748
0.004847889
0.02588705
-0.018925918
-0.0011924993
0.002453475
-0.021899583
-0.023323212
-0.0153543465
0.015586845
0.014050805
-0.0013064663
-0.0150931645
0.0034946953
0.0005494402
0.017786253
0.028182073
-0.013898692
-0.0046699587
-0.00791756
0.014760324
-0.0048881145
-0.014033987
0.012100076
0.008290072
-0.0048533035
0.03839967
1.02650765e-05
-0.002796133
0.023275843
0.016536754
-0.0128896935
-0.009588727
-0.005445402
0.016361564
0.01575475
-0.009245179
0.022281472
0.0023812146
0.010448673
0.026941044
0.010457001
-0.034803275
0.013918059
-0.00031862903
0.018911144
0.029073283
0.010197203
0.008853896
-0.0034040092
0.020500619
0.0021078836
-0.0039059927
0.005324479
-0.010626333
-0.02748052
-0.046546474
0.006221712
-0.027462391
0.0033096143
0.030581495
0.017732253
0.03249691
0.009285642
-0.020059535
-0.00034776435
-0.029979493
0.005946164
0.022622589
0.0016581748
0.021098284
0.0067473827
0.00964
-0.02110462
0.009563906
-0.030532697
-0.036824398
-0.038785756
0.004646427
0.0033551126
-0.0043949275
-0.008154093
0.016187845
0.040248886
0.0058355522
-0.01260517
-0.012859056
0.026203437
0.020887952
0.004403138
0.031890053
0.017650042
-0.008105681
-0.021298498
0.00083158124
0.0023074644
0.038137928
0.03334961
0.007939855
-0.046158284
-0.0005644114
0.007823851
0.039789878
-0.028370747
-0.021312088
0.048512954
0.030572511
0.01465638
-0.006337398
-0.0082971575
-0.00016410676
-0.026553895
0.009049232
0.015923426
-0.01479206
0.018435488
-0.034368034
-0.0085555455
-0.038835
0.019255899
0.0020748354
0.027307011
-0.021882655
0.022636648
-0.013987816
-0.009816029
-0.015339868
-0.025048498
0.0010304588
-0.0016829981
0.0004280065
-0.007983427
-0.0017520766
-0.0017166893
0.016958933
-0.02456207
0.014236574
0.016135072
-0.0028587698
-0.0037036499
-0.050585467
-0.0099926675
0.009956544
0.044538908
-0.032238495
0.038658783
0.0101147825
0.0005860293
0.021622626
-0.039737254
0.017815463
-0.035643533
-0.02825647
-0.030244412
0.006343801
0.0073851906
0.0046140365
-0.004862714
-2.6938023e-05
-0.04248918
-0.023857793
0.015156031
0.0024050295
0.0007933487
-0.018721564
0.02385521
-0.021587176
0.008294569
-0.008485303
0.017153058
-0.0055640745
0.016456522
-0.008388272
-0.004521678
0.013641884
0.032025076
0.018037535
0.020223549
0.028317504
-0.014085968
-0.008394443
-0.010975916
0.035255075
-0.035714336
-0.018379064
-0.0014364658
-0.009171276
-0.00819332
0.0020172915
0.008549669
-0.030589232
0.029528227
0.029826568
0.014822399
0.010566888
-0.004900536
0.009273984
0.0052423296
-0.0008270454
0.016427666
0.04897552
0.0061326814
0.020237837
-0.0061886315
0.021056877
-0.012626725
0.015541832
-0.018909441
0.008549779
-0.02808423
-0.00095399254
0.007834037
-0.0034147596
0.015202728
-0.0014091509
0.0067099044
-0.012599056
0.027089877
-0.02613612
-0.010553749
0.02769259
0.00802172
-0.0020058877
-0.006960917
-0.017258376
-0.007486417
-0.004746455
-0.013250637
-0.04528226
-0.007579598
0.0021016845
0.0053629065
0.017285554
0.00041912062
-0.031539626
0.0017927332
0.011234543
-0.0228745
-0.030296147
0.017167278
-0.00021712497
0.003457896
0.016312419
-0.017453972
0.01910739
0.0040078866
0.012169157
-0.037561927
0.0040399013
0.033398267
0.024559183
-0.056365576
-0.013667718
-0.0040079714
-0.004530281
-0.012017512
-0.02807599
-0.005330622
0.021061782
0.014727232
0.0144030675
0.0020154698
-0.01781116
0.032035135
0.0014633752
-0.017214876
-0.018287096
-0.009134776
-0.038613003
0.00823155
0.006491689
-0.032952763
0.0029417505
0.047791794
-0.008228084
0.009705428
0.017500583
-0.021845095
-0.02364966
-0.008154401
0.015524288
-0.02072872
-0.007594669
0.018772654
-0.04735415
0.013611914
-0.005012625
0.0002774129
-0.027822187
0.010323373
-0.008642969
0.00075598917
-0.018723492
0.007548347
-0.0022248963
0.018512597
-0.021241037
-0.0056443233
-0.01493111
-0.02025069
0.015412284
0.0063750152
-0.045984115
0.003617837
0.012019671
0.0024137849
-0.0072907475
0.03210895
0.006409676
-0.016259959
-0.02299361
-0.013065219
0.019212982
-0.03625979
0.002198356
0.016160227
-0.020189919
-0.011899695
-0.046558246
-0.0055204183
0.007369907
-0.025817513
0.027785141
-0.040342297
0.027461106
-0.0021251582
0.014364597
0.028102562
-0.0014117308
-0.00366967
-0.057388928
0.02047611
-0.0062661055
0.020169491
-0.008183115
-0.008414449
-0.006204999
-0.0083077215
0.01504596
-0.009105458
-0.0107293995
-0.026375506
0.01987655
-0.018976452
0.028438551
-0.01791078
0.034210645
0.022862386
-0.004737979
0.02750041
-0.01649263
-0.029201988
-0.010642057
-0.013213283
0.019783856
0.022076583
0.006994325
-0.004034368
-0.023870984
-0.017591096
0.021035938
0.019459153
0.01727743
0.0027033137
0.0055292067
-0.010091422
-0.017930282
0.02124346
0.02666231
0.013183548
-0.01621159
-0.03986839
0.015871953
-0.0076483684
-0.019182177
0.011755888
-0.00895549
-0.018637555
0.012040412
0.03320196
-0.0056198984
0.00029832844
0.05019658
-0.00986034
-0.03844687
0.023938186
0.010766612
-0.010184246
-0.052150685
0.009293107
0.0047899815
-0.0060081203
-0.042634003
0.022605898
0.0122923
-0.012463661
0.0060495273
0.03733581
0.02607116
0.012536157
-0.0043721036
-0.01358905
0.0345656
0.0052407444
0.00953023
-0.010840566
-0.0050188582
0.00815807
0.023048181
-0.011702112
0.003596786
0.009191953
0.00410062
-0.03651224
-0.014008246
-0.06412523
-0.035597887
0.0066524385
-0.040432326
0.0014646065
-0.025583217
0.0029208513
-0.027021604
-0.0049133287
0.012306684
0.038715452
0.02301919
0.026772775
-0.008134995
0.00050473015
-0.037507914
0.03429444
0.008357737
0.029031208
-0.010296065
0.04691834
-0.02206411
-0.010850771
0.027259622
0.057076205
0.021096257
0.0024207474
0.008851862
-0.04198257
-0.011439313
-0.0016955278
0.021859003
-0.008199249
0.0014871798
-0.011524903
0.019998992
0.013728729
0.0068006697
-0.039912436
0.025687566
0.020138733
0.0018130643
0.02146106
0.021262145
0.007026666
-0.0055174357
-0.018884765
0.02625659
-0.014207966
0.008188492
0.000762438
0.009421592
-0.009801925
0.027028263
-0.0035725392
-0.00045672525
0.023081115
0.021651765
0.014235826
0.013394177
0.004859383
-0.0049817134
0.016089488
-0.0046153353
-0.036460582
0.005248982
-0.011817193
0.031008406
-0.047585543
-0.03684568
0.015826166
-0.008582296
-0.024935335
-0.015353349
0.008572187
0.032600787
-0.017812138
-0.0025099206
0.008182787
0.019548316
0.018405084
-0.011343006
-0.001472875
0.02995391
0.0075151674
0.01876073
0.013294762
-0.012470035
0.030581107
0.03227542
0.014818018
0.018555256
-0.011681839
-0.024216542
0.010322003
-0.040528636
-0.0066208146
0.016051441
-0.0024007973
0.0051876525
0.020258605
0.028712763
0.062187675
-0.019708183
0.008330572
0.029058093
-0.017864453
0.036789954
0.015565257
0.031500887
-0.021719558
0.01590063
0.008952902
0.019747019
0.004880312
0.011899185
-0.0077593657
-0.016384942
-0.033700336
-0.06392571
-0.04598905
0.014723624
-0.008478504
0.020739276
0.02924092
-0.0120741315
0.020836817
0.014568437
-0.008409
-0.012078188
0.033106487
-0.021788292
0.036186215
0.02458537
0.009526514
0.028035056
-0.0077340906
-0.017404271
0.01508365
0.026237857
-0.0156105375
-0.020250507
-0.015134234
-0.006001562
-0.008103704
-0.026717843
0.012973666
0.019868428
-0.03758634
-0.008447291
0.005857239
-0.0340719
0.012668994
0.0046393955
-0.026766533
-0.0020111369
-0.006938331
0.010433125
0.002297985
-0.020650698
0.024146898
0.019458417
0.03137261
0.0050452817
-0.027229847
-0.033337843
0.0075413566
0.011187628
-0.013210286
0.003785244
-0.012821944
-0.023642864
0.023269458
0.03773818
-0.009377361
-0.010503885
0.02255461
0.011500322
0.021580005
-0.019160168
-0.0042636534
0.0072716144
0.01848425
-0.010276715
0.025049051
0.037045978
-0.01816022
0.016673237
0.025041176
0.016259763
-0.0042015016
-0.019468315
-0.009352603
-0.019472808
0.00901208
-0.024727968
0.014466044
-0.016233474
-0.015025829
-0.012509876
-0.003715277
-0.013496735
0.0049322993
0.011044932
0.015326364
-0.010257586
0.02022834
0.02557725
-0.017941818
0.0135516105
0.048412066
-0.007635311
0.0067364583
-0.0043044863
-0.018634861
-0.0026055202
-0.00953873
0.014095972
0.0117904255
-0.007879572
0.031893417
0.014134757
-0.019354748
0.0037426394
0.036290422
0.045163322
0.012593717
0.0134423245
-0.041784834
0.03303955
0.004646649
-0.0123940855
-0.019261496
-0.0027321302
0.007355409
-0.01525936
-0.008031665
0.0032232467
0.013838978
0.04996389
0.038002703
-0.01661015
0.017567217
-0.005996334
-0.0007731973
-0.0015124498
-0.034878593
0.0076845554
0.032657843
0.02879625
0.011790377
-0.010312745
-0.04062426
-0.0032956474
-0.016196877
0.017356092
0.0034893116
-0.014291368
0.008111156
-0.006380208
0.03598211
0.01754021
-0.0070257103
0.0072355727
-0.034270648
-0.030771825
-0.005451654
5.6445075e-05
-0.00370868
-0.004070798
0.01877861
-0.00573391
-0.02005913
0.009793949
0.0105964
0.010230643
0.0049377326
-0.015361212
0.00030108253
-0.011588829
0.008391829
0.009973621
0.018987047
-0.014518431
0.025020322
-0.00017617244
-0.017725607
-0.028205825
-0.014025336
0.009924284
0.0026463158
-0.01700286
-0.010166591
0.003442022
-0.03037276
0.02890918
0.012872919
-0.02504176
-0.016555876
0.0029909753
0.017080128
0.0010478358
-0.034160078
0.0060402825
0.027839892
-0.013860968
-0.0031995864
-0.0047660586
0.019509342
0.014988595
-0.019417021
-0.0057668006
-0.001772672
-0.005446618
-0.04268859
0.009802724
0.0018677393
0.020661775
-0.027878813
-0.0011145107
0.0001439994
-0.004479642
0.030804805
0.028621651
-0.022802476
0.005655719
-0.0033090273
-0.012611536
0.012421255
0.032631576
0.022432592
0.0076347333
-0.0071965763
-0.031614896
0.009177385
-0.006407197
-0.016232587
0.006838812
0.0062877825
0.032092642
-0.052005634
-0.018671654
0.018851137
0.027720587
0.003115728
-0.010845646
-0.011689515
0.0062144175
0.021893732
-0.016746793
-0.0088755675
-0.0095558865
0.023108495
-0.008369801
0.0052704536
0.046017088
0.039287664
0.012190397
0.0070271078
0.008197251
0.026756879
0.0013877071
-0.015411663
0.0035768189
-0.004348382
0.0022707735
0.0038365663
0.017274784
-0.0051936284
-0.01878258
-0.017739156
-0.015742322
-0.007271195
-0.011217332
0.0070224986
-0.028305415
-0.016094174
-0.040712826
0.019036615
-0.0076237214
0.026650943
-0.025074944
-0.018662464
-0.0011677616
-0.0122918915
0.025534958
-0.0077640843
-0.0026850214
-0.0065109567
-0.026347816
-0.009213192
0.007236781
-0.013569529
0.033896573
0.01843714
0.0069124997
-0.023621518
0.007904616
0.014328587
-0.00030477822
-0.040922508
0.02053197
-0.020826833
0.0066830944
0.032041654
-0.0035980653
-0.005653726
-0.009792345
0.002503478
-0.008880001
-0.021256272
0.010856814
-0.010746417
0.019836897
-0.002585148
0.026384465
-0.0015147856
0.0071413987
0.0062717884
0.004352028
0.014281126
-0.008125047
0.005676802
0.0021215058
0.012055178
0.02715752
-0.0023489976
-0.009029724
0.026845923
0.00011144143
0.045605678
0.002220505
0.051249966
-0.04856227
-0.0035524732
-0.0074338443
-0.013686454
0.014420306
0.046675257
0.0094720675
0.029381406
-0.005613112
0.0025926705
0.028994536
0.010832656
-0.00884916
-0.0016311822
-0.036586482
-0.04587608
0.022952067
0.012661148
0.01038828
0.013439393
-0.0042981417
-0.024973575
-0.0032967343
0.012240708
0.011950616
-0.0020044423
0.012150613
0.021268921
0.009076521
-0.0049262447
-0.014823903
0.02461965
0.0010460287
0.034853708
0.0037639453
0.039584752
0.016287612
0.0061130812
-0.008296159
-0.021679496
0.020523116
0.00418681
0.006292954
-0.0027846317
-0.03427961
0.004250232
0.017258642
0.0075963805
-0.012354898
0.009900797
-0.030200861
-0.015602122
0.028070347
0.022604564
0.05727894
0.021018881
-0.0045848847
-0.010962703
0.017624479
-0.0046333135
0.020944385
0.0056857616
-0.005537889
0.016380409
-0.008544405
-0.012412727
-0.018570587
-0.011335028
-0.011826116
0.023367416
0.018257476
-0.011986232
0.024847912
0.029526357
-0.027511913
-0.0041040774
0.0026844046
-0.026964813
-0.024323026
-0.009972546
-0.01215744
-0.012036598
-0.0074528866
0.017846618
-0.016850045
0.011441903
-0.012760296
0.006036108
0.014225
-0.034148473
0.0075083445
0.0098680295
0.00764936
-0.031321745
0.019651338
0.016428113
-0.010858244
0.0018559915
0.036259554
0.011684661
-0.0055916635
0.038761683
-0.0077415737
0.007892525
-0.009874152
0.0061894697
-0.02251427
-0.017491437
-0.022363381
-0.03295327
-0.007947355
-0.007805498
0.007029832
-0.033086736
0.01895846
0.013640038
-0.004138802
-0.01875939
-0.031546976
-0.014740162
-0.01625433
0.019673754
-0.015051503
0.0063259336
-0.03116417
-0.006462157
-0.024316987
0.011839217
0.0339819
0.0021349879
0.029030573
-0.020807626
-0.011507715
-0.0039765835
-0.013816337
0.010045081
-0.010411162
-0.011597837
-0.038310084
-0.011365
-0.00019497362
0.0026935334
0.017760145
-0.017941711
0.031783003
-0.0024971184
-0.014921445
0.027950672
0.010019958
-0.038629122
0.02157722
0.0242856
0.020068316
-0.0058485535
0.0054231305
-0.039918635
0.007934789
0.02737266
-0.014374508
-0.027483068
-0.017255267
0.005922081
-0.012204347
0.011994933
0.010292334
0.032556966
-0.0005866708
-0.00778567
0.00772543
0.010820953
0.042184275
-0.0048493505
-0.005885393
0.03632611
0.03903763
-0.0015346206
0.014761525
-0.033158932
0.007977934
0.0052468507
-0.017651854
-0.007783946
-0.011057126
-0.022874784
-0.010299903
-0.002396087
-0.02589732
0.020364586
-0.020255705
-0.001347683
-0.01896514
0.022941662
0.009456696
0.029879166
0.02034661
0.0036450657
0.0029626628
-0.0115299625
-0.02128983
-0.00021417449
-0.003963488
-0.013721156
-0.024551708
0.04871789
0.007222042
0.027542472
0.013267455
0.011560309
0.018096792
0.00969266
-0.019045884
0.0053372104
0.03301501
0.006313099
0.017536473
-0.015550888
-0.006778227
0.014406904
0.007674677
-0.019537564
0.016616061
-0.010880281
-0.015631342
-0.011481666
-0.0022085293
0.03978721
-0.013456775
-0.029799223
0.006194877
0.009088969
0.04914494
-0.0077513787
0.031215237
-0.0158578
-0.01180156
0.020290274
-0.019944593
-0.0065051466
0.039794113
0.024215128
-0.026100032
-0.020900326
0.007096696
0.0013699145
0.0048265425
-0.01208879
0.001519416
-0.012529482
0.0034497306
-0.009495891
-0.0015917391
-0.018666582
0.0008568266
-0.00562376
-0.0042053475
0.028944768
0.006850813
-0.0012892775
0.041791294
-0.0032381406
-0.009871037
-0.0019744074
-0.018140234
0.0021968689
-0.0050684605
-0.0053911945
-0.023538949
0.016762454
0.03926006
-0.013323735
0.0023762078
-0.021946253
0.027763752
0.0097836405
-0.019181719
-0.0020288967
-0.021664338
-0.020544618
-0.029141327
0.029063711
0.054145016
-0.007855294
0.026368512
0.01983496
0.0063257134
-0.017502442
0.012419822
0.036985327
0.0025359117
-0.0012007012
0.0036806606
0.00692402
-0.017250702
-0.0070797824
0.034509998
-0.0050472687
0.019025767
0.016983937
-0.045488857
-0.015945422
0.0010922273
-0.028338732
-0.012697075
0.0052093295
-0.01627388
0.003459227
-0.03399996
-0.048074618
0.014107589
0.010901955
0.005074399
0.01888145
-0.010315347
-0.012402126
0.030952753
0.021298416
-0.011079778
-0.018079458
0.00467068
0.038274437
-0.023942787
-0.049685027
0.0030350506
0.036853194
0.0073170196
0.009015611
-0.018801114
-0.015640305
-0.018675612
-0.028023416
-0.046003666
0.025265746
0.004225651
0.034266315
-0.01912914
0.018634005
0.0013657912
-0.02551688
0.03367485
-0.0020484582
0.0048294296
-0.010026196
0.0064821374
-0.036733855
-0.009266012
-0.030667616
0.006677268
0.007688542
0.038260136
0.04079388
0.017125014
-0.0022209343
-0.01137031
0.031095892
-0.008899069
0.009581879
0.0073848343
0.005040938
-0.046621695
0.005099829
0.016352924
0.00085930515
0.02695123
0.049170494
0.009988791
-0.020806873
-0.03146527
0.013902307
-0.010166599
0.019265302
0.0075680795
-0.008955047
0.0044866065
0.01565469
-0.0018998908
-0.0014533057
-0.029281072
0.021056246
0.021077659
-0.008939858
0.018287586
0.0029643958
-0.014757659
-0.020647986
-0.04160299
-0.011534075
-0.014485304
-0.028516656
0.011420161
0.011718613
0.005313264
-0.01913265
-0.0010680205
0.017190052
0.0034082313
-0.0055925935
-0.018685969
-0.0136261135
-0.02906028
-0.026448168
-0.01638578
-0.0018509635
-0.040281296
0.004711955
-0.0077145807
0.013485131
0.024448879
0.015734375
-0.007474675
-0.0019464041
0.031934362
0.005302565
-0.01633367
-0.022525052
0.010731307
-0.0021586677
-0.005681143
-0.0035170673
0.0043787244
0.007891883
-0.009988756
-0.023040587
-0.028066134
0.020031333
0.027550112
-0.0009829731
0.021100214
-0.02349865
-0.010014833
0.0072152987
0.011895045
0.021836927
-0.009691909
0.032969754
0.029134449
0.032874975
0.0254275
-0.04401205
-0.014958541
0.009398963
0.0043882863
0.020709645
0.00064394204
0.021044122
0.004480262
0.018439217
-0.028028747
-0.036669552
-0.017355137
-0.021948092
0.015266578
0.00047500795
0.015318962
-0.04652785
-0.014459868
-0.010594299
-0.040348552
0.0032244145
-0.006021794
-0.004148206
0.050130945
-0.010679076
-0.014951482
-0.016360458
0.0122040305
0.00804732
-0.01888121
0.015782144
-0.050659776
-0.024280896
0.0050841672
0.025621688
-0.0012589091
0.027690226
-0.009424924
0.009704932
0.0067885197
-0.030020641
-0.016107809
-0.016005632
0.006154879
-0.002936089
0.009443368
0.023470571
0.033626255
0.022416458
0.0073922467
0.013234564
-0.004355715
0.020925354
-0.017001398
0.004182752
-0.032217294
0.0022140176
0.022564286
-0.009576124
-0.003811445
0.01960272
0.007218364
-0.05927541
0.010977198
-0.0057844208
-0.021537269
-0.018166417
0.016157346
-0.030342085
0.0066355215
-0.019725455
0.01702968
-0.012726718
0.028105617
0.025792839
0.021210734
0.025711462
0.0014477499
-0.004892464
0.004394827
-0.025299901
0.0350736
0.009770386
0.0067650625
0.034520198
-0.005517441
-0.03868356
-0.016977968
-0.034369025
-0.006054432
-0.025604807
0.0012083828
-0.01714471
-0.020657476
-0.023289248
-0.0013770645
0.0056739305
0.002964356
0.010273253
-0.019907163
-0.02934656
0.013367891
-0.038196195
0.002787119
-0.016623631
0.0035371329
-0.01938202
-0.013577109
0.025204482
-0.043165002
-0.062290214
0.0048955986
-0.048668258
-0.010342523
-0.004362554
0.00383453
-0.005464056
-0.003111016
0.006744167
0.007159529
-0.0003134937
0.0033335472
-0.004779041
0.020233998
0.011686687
-0.01643789
0.007173568
0.022059245
0.034080546
-0.00931353
-0.0063847476
-0.014727177
-0.009034059
-0.0023134989
0.0007223812
0.0015209748
0.0069429185
0.0024652584
-0.011125401
0.038256276
0.010996291
-0.015799245
0.006417341
-0.018842584
0.006278633
-0.00501426
0.012774038
-0.0077766827
0.023395393
-0.010563548
0.011133135
-0.014317206
0.025250388
0.011973504
0.02241434
0.027471535
0.019810174
-0.024562463
0.0347678
-0.008389246
0.011202675
0.02197501
-0.0048633134
-0.038327932
0.011827733
0.0053263865
0.0059236246
0.030359294
-0.030953705
-0.018584434
0.016141156
-0.0022378743
-0.013976711
-0.016808717
0.031996097
0.045798738
0.015778063
0.0002954961
0.04476497
-0.007759581
-0.014378781
0.033756346
0.019092115
0.039134108
0.0071211914
0.0068394886
0.0026820826
-0.0042723455
0.01980285
-0.00055787753
0.0024124521
-0.00821377
0.015248154
-0.021277387
0.016429989
0.005778301
0.013258505
0.0026192593
-0.008412889
-0.013177788
0.012146049
-0.0015884324
0.041896947
-0.025226647
-0.030017156
-0.01269963
0.040622573
-0.006347501
-0.00343158
-0.005126886
0.029742258
-0.017230403
-0.029827867
-0.010211391
0.011500674
0.00052371045
0.020456621
0.009252207
0.022573186
0.036153216
-0.0006698071
0.023153897
0.01976196
0.00997465
-0.00900906
-0.013901621
-0.0108540505
0.015812341
0.002317657
-0.0074397284
0.029306319
0.045220383
0.024080528
0.024571614
0.012852316
-0.01167592
0.011484785
-0.010724638
0.0023914645
0.00941321
-0.011008644
0.014909067
0.012827993
-0.009075618
-0.028640006
0.004641665
-0.021977572
-0.026961297
0.019263556
0.044639114
0.028947689
0.012231768
-0.007728515
-0.013778346
-0.008673121
-0.018016547
0.0004378486
0.006402467
-0.021223681
0.018336896
0.0059667802
0.0035808827
0.0004953709
0.013493652
-0.01402721
0.0047568013
0.018184735
0.04027223
0.022267796
-0.050296903
-0.011792617
0.011445396
-0.0037309006
-0.0054382053
-0.023189574
-0.0007958043
-0.04663082
-0.01229961
0.011636398
-0.018087057
0.024529302
0.0041166255
-0.042269237
-0.0050971406
-0.008605229
0.00056962756
0.012265755
-0.0045766085
0.003958259
0.00373228
-0.03161005
-0.011160446
0.021255247
-0.021396825
0.0040615397
-0.02039206
0.007193406
-0.008730016
0.028998973
-0.010793619
0.0016463128
-0.037914336
-0.011597682
-0.009379408
-0.010671445
0.020707244
0.008760026
0.025000896
0.0114771025
0.010614606
0.010118103
-0.023400817
0.04338032
-0.019354973
0.009564819
-0.02604525
-0.003994867
-0.0033626272
-0.0011836976
0.022910034
-0.022283074
5.447363e-05
-0.016865734
-0.022853225
0.011375706
-0.017040163
-0.042243965
-0.015195419
-0.042628907
0.041154698
-0.015875407
-0.00016190295
-0.014470894
0.011042575
0.054562226
0.008772502
-0.01540933
-0.0056605134
-0.0014969351
-0.011454548
-0.010540086
-0.007388414
0.01944722
-0.0801973
-0.015296087
-0.014504003
-0.011981164
0.002051298
-0.0027215537
-0.004489802
0.03448554
0.01658523
-0.009015628
-0.028313965
0.016271241
0.0056605223
-0.039150167
0.0035906949
0.030488687
-0.035321776
-0.019076368
-0.004146902
0.0061084395
-0.01698243
0.024272297
-0.014420848
0.0221798
-0.027284639
0.0048238686
0.008210412
0.012859878
-0.041736033
-0.014259374
-0.0072418773
0.004726067
0.017831128
0.029592417
0.0018038325
0.0048674205
-0.0012731957
0.01538216
0.016674167
0.0016408372
-0.0019785047
-0.008082995
0.040846083
0.03700263
0.025098804
0.0056767333
-0.002697076
0.008815142
0.005314294
-0.00015893979
-0.035585374
0.012839935
0.03149928
-0.0048685516
0.024521602
0.010534113
-0.024611903
0.0059751533
0.040327404
0.012480676
0.017220385
-0.009286973
-0.0077415435
0.02264894
0.0063426103
0.0048560337
0.03647056
-0.013576313
0.000887348
0.0038051498
0.007940682
-0.008022666
0.022642765
-0.011021181
0.0031717836
0.020154685
-0.019969502
-0.0326538
0.012054696
0.022732073
0.004870058
0.023237597
0.010343002
-0.0021151602
0.016339842
-0.05090803
0.0009749073
0.02904645
-0.01133798
0.012537779
0.014230572
-0.0039812694
0.021413606
-0.030702023
-0.00868142
0.0078761205
0.016423473
-0.024170274
-0.0014378458
0.005026388
-0.01861387
0.0039586974
-0.0027624806
0.01513297
0.009755041
-0.00012937468
0.017735252
-0.019461399
-0.011141581
-0.014736701
0.011730748
0.0067642555
-0.01672087
0.024233462
-0.007847863
-0.012216416
-0.0058553736
-0.005426529
0.008460896
-0.028356396
0.03745729
0.011762365
-0.006019858
-0.010514358
0.0049163667
-0.020625284
-0.006612781
-0.018421551
0.0012762897
0.0093004145
-0.011565677
-0.035226155
-0.0048316186
0.020533336
-0.010373968
-0.0302845
-0.011536675
-0.0008145952
0.011302703
-0.002552912
0.018918639
0.03661854
-0.020038676
0.006143983
-0.007478334
0.0028956162
0.013970777
0.005186852
1.2507695e-05
-0.023834748
-0.0049154437
-0.008060578
0.023715649
-0.009262383
-0.013003793
0.011330179
-0.0157255
-0.018472224
-0.0019376321
-0.011042965
0.027227396
-0.015518555
0.008628564
-0.014223993
-0.006334586
0.0015114039
0.015685244
-0.03438097
-0.01923395
-0.009677937
-0.0047076037
-0.0061723185
-0.0111450385
0.014743867
0.012940696
-0.0035246003
0.016165568
-0.016417634
0.03294535
0.013154777
-0.0012712675
-0.028049378
0.02133115
-0.01092656
-0.010862227
-0.02801032
-0.0008795619
-0.010879338
0.026218584
-0.011049581
-0.004873049
0.013982743
-0.0015080109
0.018857649
-0.0051589394
-0.005671966
0.016969854
0.0038401552
0.012925433
0.011412941
-0.01271224
0.0042533325
0.021341596
0.0023623218
-0.036182303
0.008963708
0.021932108
0.0031811323
0.012630435
0.0037086448
-0.012825059
0.0025628416
0.011899007
0.005256029
-0.026371714
-0.0059413915
0.0023709938
-0.010902601
-0.029823419
-0.015861236
-0.010479935
-0.022199921
-0.021025466
0.019281773
-0.037217155
0.021451354
0.006256544
0.019323004
-0.03472749
0.009242797
-0.011443033
0.024730887
-0.053123362
0.025775112
0.01415408
0.02947042
0.018003382
0.0009309336
0.02983614
0.0038730188
0.0014732075
-0.008744556
0.01990228
-0.0331118
0.00507042
-0.014652656
-0.012807097
-0.02131385
0.0135369385
0.032646313
-0.038598847
0.035013936
0.017879492
0.014049612
0.019377125
-0.01351707
-0.011584141
0.0036775675
0.00530421
-0.0013959036
0.030827519
-0.039079767
-0.008202254
0.006085141
-0.012380793
0.017878903
0.016201725
-0.0049567
0.030847227
0.018262506
-0.016129518
-0.05105578
-0.012907336
-0.0031349463
-0.014329438
-0.009706867
-0.006089835
0.007248139
-0.009247135
-0.007542425
-0.018652352
0.021049408
0.003072745
0.0038123508
0.0067355055
-0.0057905307
0.02675406
-0.0054923873
0.0024454324
-0.015658753
0.042503465
0.020359464
-0.012039516
-0.008910298
0.037833482
-0.0062231272
-0.018295038
-0.03475988
0.029728021
0.001396532
-0.008891053
-0.041555747
-0.010099843
0.013793968
0.029545357
-0.0403722
-0.01609783
-0.006353619
0.021908738
-0.005473514
-0.016529879
-0.012934056
-0.0066618216
0.004164051
0.025270114
0.021222498
0.016289338
0.009951026
-0.00026866753
-0.0050846925
-0.012263406
0.007356791
0.016598156
0.01743206
-0.040501583
-0.01999717
0.001171194
-0.008765807
0.03052147
-0.018790046
0.03148478
0.030354815
-0.0058288686
0.0054579615
0.012913874
-0.010546339
-0.009624706
-0.0044059916
0.0013794373
-0.005332768
0.0049151736
0.016927391
0.0043836297
-0.0013161594
0.0034032948
-0.05688569
-0.0054779164
0.043118376
-0.039768796
-0.0032452436
-0.01955944
0.015960362
-0.012511481
-0.009697193
-0.0057443446
-0.010928179
0.006683933
0.030679194
-0.017105445
-0.027566455
0.044481583
0.005989434
-0.019445736
0.027455892
0.011221316
0.043910168
0.000900263
0.035856448
0.010493297
0.045009084
-0.0014937044
-0.02972578
0.0026992238
-0.0498932
0.028580448
-0.015907107
-0.022950925
-0.0078975195
0.04378562
0.0052308505
0.005114249
0.047700755
-0.0006518578
-0.015510624
0.030830568
-0.009564829
0.02702575
0.016104596
0.019111546
0.010881305
0.027173785
-0.014149711
0.020015065
0.0016850313
-0.031042734
0.0005458048
0.0039831926
0.031627662
0.020449309
-0.014767477
-0.026057307
-0.016011028
0.009431695
-0.00426074
0.031703267
0.00028895526
-0.016692165
0.037993655
-0.0036302172
0.013782128
-0.015576325
0.04200352
-0.015255589
-0.00683508
-0.009667216
-0.0023162737
0.010709256
0.013484564
-0.019803485
-0.039979234
-0.026654424
0.012290118
-0.007883634
0.011053575
-0.016421871
0.0047224984
0.019573594
-0.032123264
-0.00825585
0.0063263504
-0.010839035
-0.013641023
-0.014425109
-0.038377542
-0.0035933992
0.01086493
-0.007646412
-0.019495666
0.020493044
0.00074361847
-0.022645526
-0.027519645
0.034017827
-0.018784614
-0.013050839
-0.0014833251
0.020942679
0.015862787
0.008040924
0.010657333
0.009994442
-0.012644215
-0.005811284
-0.0036421986
0.002235401
0.016500592
-0.026851598
0.037036683
0.0127969
-0.024453506
-0.01852969
0.031689174
-0.03218051
0.04528541
0.003985388
0.020509832
-0.057626605
-0.010031701
0.002223367
0.007991852
0.036358103
0.02671717
-0.0058179293
0.04031442
0.025782708
0.016502399
0.012678325
-0.011086536
-0.0039714924
0.026648512
0.026061514
0.020650268
0.028445538
-0.009305676
-0.023772165
0.023926303
-0.009475688
0.012089367
-0.00309291
-0.015711261
0.037994362
-0.015734006
0.0068863356
0.029366206
-0.012293299
-0.02224412
-0.00067381083
0.024218539
-0.008496103
0.02032875
-0.026655473
-0.008882382
0.015403637
0.016369658
0.010251637
0.019967888
-0.016769566
-0.005748915
0.0039610676
-0.005266063
0.03313509
0.021141233
0.027216014
0.018206803
-0.040239897
-0.00090609834
-0.0015099732
-0.0020946616
0.030648397
0.002151227
-0.02508226
0.025866346
-0.0049051354
0.011124576
-0.0076906425
-0.029953387
-0.0041336617
0.0038755138
-0.021063136
0.02599539
-0.011366365
0.038161837
-0.015887193
-0.015385536
-0.011993413
0.021357344
-0.0020880748
-0.013926295
0.023183636
-0.016232828
-0.0034883749
0.036742322
-0.0055296496
-0.002194974
0.0017061601
0.049714312
0.021935672
0.017197885
-0.031335864
-0.025794031
0.0017256866
-0.020951947
-0.03192444
0.00523077
-0.014442263
0.0012242997
-0.005320071
-0.026361283
0.018174578
-0.02179171
-0.0113030905
-0.0017536761
0.014433496
-0.0034671
0.018241208
-0.037384033
0.014231105
-0.0222602
0.024236491
-0.0043216073
-0.0008668744
0.012867035
-0.017772984
-0.030496832
-0.04076451
0.018495746
-0.013493474
-0.013984201
-0.033580564
0.015097747
-0.010998656
-0.030863563
0.0018841239
0.004938339
-0.00030802394
-0.03694112
0.003413594
-0.010346631
-0.010449245
0.008919476
0.054005936
0.01847024
0.0057006213
-0.025743514
0.0071377545
0.017813222
-0.020545801
0.002426628
-0.045956682
0.017147271
0.006255069
0.00044521183
-0.015650962
-0.0066139726
-0.015023504
-0.06828742
-0.008273027
0.0064980704
-0.04005886
-0.024359543
0.022238938
-0.0064101643
0.0076452238
-0.003477436
-0.015777132
-0.023834318
-0.022361543
-0.039322086
-0.03232034
-0.01989546
0.0027463972
-0.0030633851
0.017909095
-0.007727225
-0.03286282
-0.00044714622
0.016992882
-0.0006839586
0.012007917
0.051418018
-0.0040063653
0.005665971
0.016297195
-0.02370968
0.015246755
-0.008348956
0.007368465
-0.018509934
0.013838364
0.03444963
0.033812203
-0.024561564
0.0075751888
0.025367009
0.020182507
-0.018295053
0.009450644
-0.052216213
0.0026578647
0.0025128007
-0.033168424
0.008938362
-0.022311255
0.023040084
-0.012875759
0.0055974093
0.019375715
-0.018585578
0.017593425
-0.0019611276
-0.022353206
-0.0010512471
-0.058114942
0.0211838
-0.010577861
-0.013160043
-0.016326351
0.008613211
0.016876025
-0.00026294822
-0.010986422
0.015965141
-0.0043929857
-0.012720999
-0.015137373
0.0064648264
0.00054535316
0.01386617
0.012959957
-0.0053241653
0.015600439
-0.0051972717
0.008580349
-0.017223887
-0.006802615
0.00044733804
0.02776199
0.0034688702
0.0008246413
-0.035475906
-0.008971562
0.023971917
-0.00011004108
0.014927315
0.020247163
-0.0017743943
-0.013867278
-0.03368331
0.0033851294
0.011499402
-0.018331127
-0.0062921867
-0.017386075
0.030192653
0.028111335
-0.013469511
-0.00672855
0.046515584
-0.006246444
-0.0064837723
-0.016244918
-0.010793649
-0.010967297
-0.012757035
-0.009300104
-0.03757206
0.037482135
0.031521514
0.0041659027
-0.033869572
0.012942271
0.0016607894
0.012862868
-0.041281432
-0.010362521
0.010790319
-0.006249234
-0.021419127
-0.016855406
0.003437841
0.046943333
-0.011564627
0.0037784113
0.008955012
0.0018185561
-0.0067105386
-0.004252603
0.014498285
-0.031392336
0.003226272
-0.0088398615
-0.008201261
-0.0057168165
0.006846694
0.0040811147
-0.020008385
-0.008295663
-0.0063056136
-0.0056223897
-0.03482551
0.0021356521
-0.05314984
0.05051895
-0.04757272
-0.02730539
0.0037960191
-0.0056867064
-0.0154447425
-0.035500314
0.0005114114
0.030006027
-0.006690584
-0.0021614633
0.042808842
0.027981497
0.018258635
0.027791595
-0.030173773
-0.0031900601
-0.014262772
0.017054943
-0.018356247
-0.0063592717
0.039048467
-0.009143161
-0.018132899
-0.014468935
0.054150626
-0.01657295
-0.02360902
0.0014543928
0.039472964
-0.03368424
0.0022095032
0.016607575
0.01744617
-0.0004501859
-0.0064872974
-0.014808691
-0.015554216
-0.016012331
-0.0098884655
-6.8466106e-05
-0.050148103
0.0051891548
-0.02272333
-0.008891505
0.0052210484
-0.016913127
0.034293905
-0.021334147
0.010892678
-0.011693164
-0.015440007
-0.0020857481
0.018250508
-0.02500393
-0.010557574
0.009755085
-0.0122444
0.0052761436
-0.023640573
-0.0064332853
-0.019863546
0.039068703
0.0007099805
0.019011224
0.00743883
-0.0048451233
0.029009694
0.014231663
0.024978071
0.029263053
-0.016360851
0.0048958445
0.022296635
-0.0069583664
-0.009447036
0.018985104
-0.013231721
-0.0024607203
0.00917327
0.03036765
-0.0109540345
-0.006046912
-0.01403997
-0.023035742
0.024216592
-0.053846903
0.0049985084
-0.0015979048
-0.0115070995
0.008060353
0.051404204
0.03674165
-0.0075355917
-0.017129492
-0.0056847055
-0.005561936
-0.018246016
0.016399156
0.0142731285
-0.006157533
0.010866737
0.018888768
-0.017365903
0.013579292
-0.009592856
0.035424035
0.011902609
-0.020023415
-0.0033700678
0.016698103
-0.015767438
0.0022184728
-0.036241446
0.029223578
-0.026630897
0.0064110425
0.009164836
0.01125891
-0.007559666
0.009874275
-0.007042317
0.017965587
-0.013095128
-0.018949542
0.013541619
-0.0228714
-0.01046238
-0.00687152
0.025294304
-0.012240287
-0.016730122
0.017242702
0.026542336
0.011068299
-0.016903004
0.01306563
0.028857218
-0.014731265
0.002816242
0.014773999
-0.05196984
-0.0025658314
-0.0027664055
-0.024993453
0.0063526914
-0.037727874
-0.02060773
0.010144059
-0.029669384
0.026802741
0.023692816
0.012752049
-0.011724
0.035391342
-0.037334997
-0.030787172
0.026516587
0.0113127595
-0.021284284
-0.0023423012
0.032793935
-0.011021844
0.014395366
-0.010215296
0.01698979
-0.016962916
-0.018704265
-0.024255553
-0.0033698902
-0.014345154
0.046543095
0.01768732
0.04539907
-0.030265626
-0.03793196
-0.010975801
0.013559009
0.021448683
0.0028115415
0.021072987
-0.018573683
-0.009988891
-0.00872595
0.023335129
-0.017326707
0.0023814358
-0.029273314
0.011636369
-0.018103687
0.014765324
-0.0053412453
-0.027573504
0.009438647
0.01935227
0.028019192
-0.0083845435
-0.009077155
0.028085314
-0.019326426
-0.020331066
-0.042573884
0.013936068
-0.004912091
0.033819027
0.03351733
0.018520309
-0.011219152
0.02715236
0.021527473
-0.029716289
-0.011505904
-0.0137357805
0.030779839
0.018873578
-0.016095474
0.014167805
0.012184388
0.015473124
-0.0011035987
-0.044770647
-0.007347467
0.018282596
-0.04301162
-0.0074275034
0.0031320527
-0.009050682
0.009370702
-0.027505793
-0.007544293
-0.030660694
0.0121359695
0.025475072
0.03988496
0.008113785
-0.0027410274
0.022204308
0.019685626
-0.015458359
-0.009025299
-0.00032794083
0.009808613
-0.011535956
-0.0025753456
-0.043614592
0.004055275
-0.007391526
0.025889859
-0.00066566136
0.019480845
-0.002489572
0.020440025
-0.011810607
0.008195718
0.0032770282
-0.0003974067
-0.016683737
0.023267789
0.025602758
0.011799153
-0.029381303
0.023460545
0.04207786
0.02023354
0.017836655
-0.056027267
-0.016266506
-0.024674164
0.015215397
-0.00598737
0.011313196
-0.019726688
-0.00024040995
0.007144278
0.014680371
0.001629067
0.010959054
0.016243478
0.016556233
0.011889109
0.0041226083
-0.03671984
-0.023616152
-0.0055860006
-0.012291969
-0.013624266
0.013365551
0.0046114293
0.0019046138
0.023187505
-0.040085044
0.013178926
-0.02311988
0.012451495
0.027884843
-0.018959397
-0.003657744
0.016257284
0.032395948
0.033854898
-0.015311694
-0.043504022
-0.017492417
0.04008864
-0.015318608
0.018183695
0.022257412
0.022020204
0.010789896
-0.03049355
0.0051638787
0.008429152
-0.00858727
0.004400592
-0.013595152
0.012275779
-0.024212811
-0.018766219
-0.021718005
-0.0073511996
0.051033113
-0.008887308
0.0017709116
-0.000442531
-0.024245458
0.02605182
0.017817857
0.013892542
-0.0087754335
0.00080446224
0.008107177
-0.02001994
-0.013891213
0.040417124
0.004008578
-0.015145443
0.023619503
-0.005221269
-0.0054392694
0.02938291
-0.007549027
-0.027402882
-0.023607511
0.009847445
0.012074095
-0.008474857
0.008018108
0.007070909
-0.03281418
0.034959957
-0.0016993699
0.004780995
-0.0019760516
0.013631694
-0.0016462611
0.02252154
-0.01576453
0.005279315
-0.009590375
-0.010670301
-0.0067095957
0.028812498
0.0435141
-0.022126714
-0.03020284
-0.0288106
0.0023565432
-0.01446552
-0.038911395
0.0064678756
-0.012854263
0.009720363
-0.011376602
-0.0012256927
-0.0040019355
0.012925088
0.00816391
-0.0028013608
-0.01752082
0.022016622
-0.016082576
-0.027128512
-0.030483365
-0.012680128
0.03295123
-0.0031676956
0.009442736
0.038537912
0.0016884463
0.0036910523
0.010727707
0.004311779
-0.030474702
-0.03578592
-0.03180431
0.017894719
-0.015913324
-0.012321462
0.0006160177
0.00659151
0.0010390659
0.012726584
0.0055851806
0.01912685
-0.04511306
0.006662816
-0.027450703
0.009076986
-0.032787204
-0.006839025
0.016081687
-0.036646955
-0.01472467
0.008851482
-0.016649274
0.0012494498
5.714765e-05
-0.020499965
-0.02034507
0.016674342
-0.0045236796
0.011311388
0.0061473795
0.001963834
-0.0012655293
-0.015678853
0.021239905
-0.001971448
-0.019971754
-0.008887152
-0.0009079481
-0.008632847
0.0135669075
0.006877921
0.025533115
0.00958435
-0.0026883804
0.0052643917
0.0036572032
-0.008710094
-0.01255154
0.01376284
0.037591532
-0.008855676
0.007829774
-0.01667142
-0.053432617
0.0057507604
-0.009667543
0.022391211
0.01226028
0.0026741915
-0.0029868793
0.032368764
-0.032615107
-0.011192408
-0.0066171424
-0.007891897
0.007871254
0.0017118555
0.02097329
-0.012212583
0.0006208489
-0.010011262
-0.0076792347
0.022998536
-0.0023750353
-0.012283866
-0.022319764
0.0063375626
0.029951416
0.0029859927
-0.032300632
-0.0029405907
-0.020636069
0.018382551
-0.014349046
-0.012369493
-0.015407793
-0.0101192035
-0.0029105071
-0.03468856
0.025192384
-0.00029446516
0.011098064
0.022020714
0.060958747
-0.015073427
-0.004120289
0.0010369337
0.010846023
0.0029086454
-0.025643349
0.037280977
-0.007529599
0.0013414572
0.029947776
0.0154673355
0.0075920597
-0.002321593
-0.0017939692
0.00013440827
-0.013360501
0.014349747
-0.021462714
0.010104094
0.003208284
-0.01870129
0.016883379
-0.026118554
-0.011785024
0.011114159
-0.03400116
-0.0037252642
-0.0008018496
0.004279826
-0.013753657
-0.009597144
0.0017710718
-0.0127717
0.016803568
0.030680193
0.022155413
0.021653557
-0.005461168
-0.034139972
-0.020449333
0.003006098
-0.01862683
-0.013030998
-0.007693187
0.024626886
0.012403932
-0.025479278
0.036982875
0.02223371
0.0039034341
0.0015718623
0.04623771
-0.017572554
-0.018887235
0.02505616
0.009157091
-0.02206867
0.03571107
-0.041850284
-0.01132579
-0.024741456
-0.01199857
-0.004799467
6.959063e-05
-0.0137065025
-0.009665722
0.02350906
-0.0051603517
0.016372958
0.016890947
-0.009081233
0.016034262
-0.010782005
0.0076419394
-0.003346117
-0.028153496
0.0041665784
-0.011604718
0.039312698
0.011203397
0.016556025
-0.0065191244
0.031414904
0.0035860694
-0.021018598
0.021370329
0.0033654294
0.006358598
-0.01268417
0.010330483
-0.03958575
0.025981462
0.007105175
-0.03490309
-0.0076288274
-0.039401684
0.03649559
-0.013176651
0.01239574
-0.010542342
0.0032256485
-0.008590146
0.008121047
0.009867883
0.015022011
0.010594957
0.0023189273
0.008085975
-0.0036015203
0.035772648
-0.01493067
-0.024356281
0.02252247
0.014032924
-0.030856773
0.007379367
-0.038110763
0.0067509436
-0.021319168
0.03904285
0.037334874
0.049956784
-0.033231955
0.04451869
-0.01991756
-0.042854566
0.010474844
0.013524393
0.0039979997
-0.008763851
0.004774333
0.032358892
0.022713462
0.041030854
0.009749278
-0.024513314
-0.0006726613
-0.014680865
-0.01680475
-0.0036238828
-0.0072081946
0.011307403
-0.003620848
-0.04122442
0.01253467
0.019896299
-0.01904241
-0.005787778
0.025052669
-0.024617152
0.0010989521
0.008489938
0.0005136454
-0.010769143
-0.0035096197
0.006116801
0.0118444385
-0.013409106
0.02530622
-0.014961806
-0.010655332
0.0008197103
-0.0009439361
0.018957164
-0.024194779
0.0028579521
0.030305939
0.019747417
0.012259509
0.014074663
0.0040888074
0.018470298
-0.017427975
-0.035096236
-0.008407874
0.007065489
-0.010768475
-0.0030495604
-0.0075611835
0.007016032
-0.0053141867
0.0033940556
0.035436116
0.00059275125
-0.0060700593
0.009211237
0.001894579
0.0022968391
0.011369353
-0.0069163684
-0.0021558402
-0.02595591
-0.0075130025
0.024273869
0.017916456
-0.0170279
-0.014589942
0.013834488
0.002313078
0.011856302
0.034451447
-0.003823851
-0.011875767
-0.022944666
-0.013869269
-0.004805269
-0.007873914
0.028079191
0.0027087107
-0.013099177
0.021584231
-0.027498487
0.023563163
-0.013869948
0.018645955
-0.029093208
-0.0041155634
-0.0052128267
-0.045802154
-0.013733248
0.016132282
-0.0027434048
-0.008866771
-0.009036452
-0.004751586
0.018432787
0.0111558065
-0.005267969
0.009391882
-0.023162061
0.023409633
0.018881207
-0.003807442
0.037797872
-0.005470578
-0.017122233
0.010215887
0.00083454285
0.019573165
0.007876365
-0.0007397355
-0.017103467
-0.022206346
-0.003155565
0.010028629
-0.008387529
0.007933917
-0.021545324
0.0040423004
0.012279771
-0.021522807
0.028994152
-0.008040892
0.0038479217
0.010190312
0.0179096
0.0061205244
0.018918611
0.0004451419
-0.0018384779
0.011641021
0.006410572
-0.00068652455
-0.0072765555
0.018860502
-0.027338022
0.013851878
0.03113297
-0.022663476
-0.030469734
0.031680368
0.019215481
-0.017902197
0.017509615
0.0020467483
0.00013140352
0.01104311
0.0045096716
0.0009123964
0.020498816
0.021913191
0.0007973907
0.009625803
0.012272207
-0.0057568857
0.026191065
-0.01339161
0.01619154
-0.0014692243
0.01246632
0.009216998
0.043687154
-0.020091806
-0.015174607
-0.030256873
0.0037293213
0.025925457
0.0012241242
-0.020425962
0.028877331
0.017782975
0.015676685
0.010544646
-0.010218915
0.014925788
-0.016688602
0.010065765
-0.0024532997
0.047447875
-0.023656642
0.027174355
0.0013938542
-0.021593811
-0.0013855087
-0.019029405
-0.0020165718
0.014871374
0.013155084
0.016247327
0.00622398
0.004278152
0.011609933
-0.019872176
0.015363672
-0.015841495
-0.008236397
-0.0043767123
0.009708413
-0.008952951
0.021935305
0.005081092
-0.0026305418
-0.019036585
0.019381642
-0.007992829
-0.038103223
0.019802796
0.05557445
0.03543025
-0.0056823706
0.021129915
0.009643178
-0.018904613
0.006677587
0.0059765303
0.018381255
-0.0082873795
0.015367746
0.0008569272
-0.026293602
0.014359196
-0.034704916
0.035079375
0.021850564
-0.011354865
0.009040608
0.02945733
0.023082811
0.010243784
0.004699586
0.023287266
-0.0132426545
-0.0053019994
0.017364156
-0.043583278
-0.019273818
0.0213135
0.01417546
-0.010538034
0.0011115188
0.013523716
-0.001867654
0.015710589
-0.0061252634
0.011800246
0.005702306
-0.0106409155
-0.0028138028
-0.0006876652
-0.019128473
-0.030300876
0.014127698
0.009444315
0.013853512
-0.020151056
-0.011658277
-0.0025290004
-0.033471912
-0.019151624
-0.00026233782
-0.04098625
-0.018241715
-0.024396399
0.0027961966
0.006695192
-0.003693717
-0.013204063
0.0023397089
-0.0015656854
-0.012389717
0.006697506
0.012466273
-0.0336007
-0.018678883
-0.0071563236
0.016354708
0.014491315
-0.007434294
0.00383
-0.0060485676
-0.016082384
-0.00839915
-0.011558313
0.017883273
0.012920852
0.0030572605
0.037545048
0.028511213
0.013582981
-0.004706289
