# (768, 192)
0.045209292
-0.015357487
-0.010297581
-0.012135642
0.0031085752
0.014730914
-0.038283527
-0.0035530059
-0.0033333222
-0.022598006
-0.0020344295
-0.0073074093
0.008925405
-0.00963537
-0.0011320068
0.036103096
-0.0002729691
-0.03843703
-0.0075996234
-0.0039883195
0.026794858
-0.01349602
0.004524022
-0.016691305
0.017646018
0.029564917
-0.0085622715
-0.035831213
-0.013149185
-0.0043579563
0.01678574
-0.011483959
-0.015009772
0.012689707
-0.008836358
0.035243932
-0.016424773
0.031963695
0.0010947321
-0.0005515548
-0.021546822
0.010407543
-0.004764955
-0.014878314
0.009739441
0.020256741
-0.0015306048
-0.010292122
-0.003456626
0.014154752
0.005180908
0.02252685
0.027549557
-0.0041499054
0.0043835286
0.025224736
-0.008957402
-0.0020485264
0.0035721706
0.0071800165
-0.009782483
-0.007544453
-0.014185983
-0.005730266
0.0012568167
-0.004306122
-0.03006191
-0.0016657201
-0.0237009
0.00084588147
-0.022731394
0.0003113398
-0.010025103
0.009673442
0.025812251
0.008705143
-0.025074858
-7.416827e-05
0.0024895915
-0.0025368833
-0.035836585
0.019343486
-0.0154012805
-0.042316914
-0.00093286246
0.0060553746
0.024878845
-0.01958282
0.012361861
-0.01642266
-0.028403988
-0.017537024
-0.0028061308
0.017597416
-0.002421359
0.009513865
-0.02741137
0.0025178718
0.014762778
-0.005492603
-0.016606633
-0.026943302
0.035070337
-0.03673224
0.024099264
0.016618187
-0.004053449
0.0017892777
0.002554315
0.0030474963
0.0052295798
0.025716776
-0.03300161
-0.013035979
0.034848917
0.04467486
0.0027902205
0.017739289
0.0033525764
-0.019920452
-0.016811782
0.022938648
0.018577278
0.017620597
-0.0038099473
-0.0019445559
0.0024978772
-0.0006772523
0.03926723
0.007611003
-0.020419404
-0.0013819631
0.0027573942
-0.011431943
-0.0021061017
0.034530293
-0.029017385
-0.015135851
0.04472586
-0.014501103
0.0065652668
-0.0093238475
-4.885401e-05
-0.022434322
0.008462925
0.01966345
-0.028241357
-0.019141834
0.016385626
-0.037259746
0.042760465
0.0147406
0.0039231903
-0.03315853
0.008326424
-0.0068519223
-0.009139684
-0.004672795
-0.03851399
-0.01268383
-0.007670125
0.011213053
-0.012750354
-0.00023868025
0.007899133
-0.00993883
-0.01883578
-0.002397347
0.005929503
-0.033481818
0.0028169192
0.002616505
-0.03631622
0.003750552
0.027577527
0.015744103
-0.0063981083
0.012820927
-0.009699279
0.009185531
-0.02629187
-0.016564794
0.0153967235
-0.0094623035
0.006835467
0.007271893
0.003450765
0.014149334
-0.004728372
-0.0010268545
0.03134527
0.008759268
-0.00085739745
0.011301804
0.013674138
0.055229805
-0.005431033
0.008264805
-0.044684913
0.0075307405
0.0059093563
-0.0063311276
0.01605265
-0.033612054
-0.009474818
-0.024530899
0.004991477
0.0446366
-0.021789033
-0.042225756
-0.007451848
-0.018035889
0.017589118
-0.020366458
-0.035969928
0.0100218095
-0.0273192
0.02862299
0.0018852332
-0.001846082
-0.0021844525
-0.006987566
-0.046241093
-0.029407313
-0.008394187
0.008726782
0.036220007
0.037909962
0.016601665
0.03390954
-0.00088961783
0.018865965
0.026131889
0.019170323
0.029812744
0.01286323
-0.012506925
0.01687663
-0.003001436
-0.013943856
0.024059905
0.012485143
0.02163984
0.012444554
0.010087751
-0.012350424
0.020772876
-0.016403578
-0.027248992
-0.005675258
-0.0007617673
0.020896036
-0.03195524
0.027996175
-0.004538595
0.01707871
0.0059052333
-0.009074707
0.00950775
-0.040381566
0.00092341495
0.001531185
-0.015899828
0.016457694
-0.0071790293
0.010472074
-0.040299688
-0.011999846
0.04456083
0.046346918
0.010498142
0.017253654
-0.023233755
-0.027023306
0.025874581
-0.015288534
-0.003285319
0.019701596
0.019964801
-0.01355093
0.0017337007
0.022427797
0.019977564
-0.007161964
-0.030556777
-0.016177312
-0.031079728
-0.0006007629
0.025191957
-0.0032009357
0.033837333
-0.015041501
0.030411663
0.010213466
0.006672444
0.0013304232
0.017025197
-0.033381157
-0.035587918
0.0015895304
-0.016539002
-0.012036149
-0.0026754602
0.00081666035
-0.011107501
-0.027521206
0.01570111
-0.004650484
0.053408287
-0.0042219535
0.0013486583
0.0080135865
-0.017816877
0.016220972
-0.020232314
-0.026179774
-0.011192463
-0.0316087
-0.0019110803
0.018030697
-0.019567953
0.0056716953
0.005388281
-0.016997388
0.00072683196
-0.0010754255
0.013088005
0.03047652
0.0033342477
0.025744863
0.013441442
-0.018657736
-0.019639855
0.006737541
-0.013294365
0.021231934
0.012768115
-0.0004892939
-0.030607305
0.0050789444
0.02908225
-0.022542395
0.0070620487
-0.0059146476
-0.024728809
0.009279961
-0.0016381115
0.03500017
0.0067456434
0.0072253905
0.006164504
0.008003432
0.009322086
0.0047576535
0.041321054
0.011146935
-0.029684614
-0.008066304
-0.004220894
0.033049863
-0.004195424
-0.013480799
-0.012900632
0.013700928
-0.027294211
-0.005150138
0.0049907546
0.0070986524
-0.024101105
-0.024521917
-0.008684316
-0.025934333
-0.0021353166
0.011972066
-0.005373349
0.03685232
-0.009683921
-0.004195571
0.019394722
0.02130385
0.024530984
0.03895593
-0.029784486
-0.015237191
-0.0027926872
0.02098241
-0.006840793
-0.022366833
-0.00069641665
-0.009266337
-0.012728151
0.02529166
-0.020769266
-0.00023191613
-0.02292313
0.008513671
0.026412534
0.030758793
0.0249472
0.0014227098
0.006635181
-0.021700826
0.024238981
-0.025553694
0.020966392
0.0042339116
0.019811438
0.009984908
-0.01350631
-0.0027812656
-0.00830609
0.007245622
0.011330703
-0.02254636
-0.004143357
-0.029938249
0.002376941
0.050900083
0.011574156
-0.0064169187
0.0017621857
-0.027747266
-0.00012045549
0.00080296537
-0.013880902
0.027191538
0.030953003
0.02326448
0.00031807675
-0.031840228
-0.009020737
0.004426706
0.0035832047
-0.0011988961
-0.011916272
-0.01669406
-0.0032589207
0.010155756
0.02029191
0.010709589
0.015045051
0.0061662933
0.0032078938
0.0067260647
0.010802615
0.0077148355
0.019078983
-0.0267538
-0.003194012
0.014349078
0.013610202
0.04257807
0.009398871
0.007411281
0.021045243
-0.012836275
0.00028177848
0.027546136
-0.013437495
-0.01260929
0.005301339
0.0057445006
0.040132694
-0.006422539
0.008630117
-0.009605158
-0.00858769
3.1434207e-05
-0.0032776108
-0.021683194
-0.007303449
0.0033324042
-0.017521856
0.009535901
-0.002228239
0.013302408
0.008801149
-0.003059485
0.0051304917
0.0128136845
0.020136468
0.009990848
0.029232472
-0.027998146
0.003553301
0.0012930463
0.0163631
0.018419046
-0.0016365281
0.008539037
0.005232253
0.01992272
-0.020271357
0.005860857
-0.039206438
0.010125344
-0.014250745
0.012736725
0.0034212312
-0.0045746462
-0.017756965
-0.018188283
-0.009194618
-0.058351867
0.014984996
0.018743629
-0.025194211
-0.0017480627
-0.005341125
0.03274819
0.022704246
-0.036146164
0.00090288353
-0.017769273
0.011712376
-0.0049116258
0.0082107885
0.01791173
0.030333487
0.0069227116
0.017125968
-0.0021895657
-0.0066519026
0.021559844
0.0071240044
-0.0073806164
-0.0060093175
-0.007625454
0.045345537
-0.010074211
-0.023474284
0.026838833
-0.011464798
0.015343799
0.0029421821
-0.024075972
-0.04172325
-0.016520256
0.024082772
0.0004808469
0.003119222
0.00977213
-0.004256534
0.011114452
0.02169451
0.017533975
-0.033754576
0.016936684
0.021263454
0.02188926
-0.0038441038
-0.014417733
0.010857461
0.022653319
-0.024210848
0.028426437
0.013464698
-0.0057880376
-0.022528026
0.01444103
0.004005991
0.0058629047
0.021517238
0.011068507
-0.011865553
-0.017184218
-0.027506104
0.006266447
0.010238337
0.016877942
-0.004288043
0.02715874
0.0045629237
-0.00873201
-0.0015995716
0.02752972
0.004045255
0.00058342837
-0.021354573
0.008792398
0.021702189
-0.02790162
-0.010240591
0.0258246
-0.03387726
-0.010247577
-0.0059422627
-0.036041368
-0.020947553
0.009092793
0.001980692
0.016502565
-0.0340345
0.0006899155
-0.0017806363
0.042725384
-0.009599108
-0.015848022
-0.028523592
0.014437779
0.010525869
0.00022699058
-0.007863499
-0.015892435
0.014812385
-0.04774431
-0.0039047168
0.0082051335
-0.019059801
0.014711347
0.0051697134
0.0030192211
0.01565182
0.021139383
0.025712838
-0.02034466
0.0020496359
-0.0028771837
0.0035267018
-0.016695993
-0.004077411
-0.031309143
0.0010225128
-0.025274755
-0.025730304
0.0028115106
-0.0007486461
-0.0014922455
0.021597594
0.0101556415
0.02832389
0.0066744974
-0.0067563206
-0.020386722
-0.02491631
-0.013909025
0.014280692
-0.0037461568
-0.0038386814
-0.005775241
0.037235957
0.017744582
-0.008777999
-0.015520118
0.0081157405
-0.022114648
0.036547054
0.042325325
-0.0010376441
0.0012453398
-0.01673273
-0.0009320852
0.006848269
-0.001830957
-0.0028568124
0.0057795793
0.005723238
-0.026654033
-0.018331528
0.0026546917
0.02179221
-0.023076173
0.029246444
0.0097489655
0.01536304
-0.0023165792
-0.00013748942
-0.019771969
0.03235345
-0.014726796
0.0012930984
0.005484075
-0.0053939605
0.032227673
-0.0012117815
-0.018349363
0.013670496
0.03055071
-0.0050884336
0.023513284
0.0014719693
-0.011496756
0.021830196
-0.006434673
-0.014795129
-0.023599135
0.023572637
0.0122847315
-0.025062628
0.00084360054
-0.018929914
0.01524359
0.0029780506
-0.01656884
-0.019712847
0.017303415
-0.03089265
0.013807937
-0.012924766
0.011603781
0.020424888
0.027062409
-0.0041534947
-0.017312713
-0.008382459
0.017839113
-0.021147497
-0.03232199
0.024333922
-0.010765775
0.006468692
-0.017797565
-0.039599244
-0.0130261155
-0.017559733
0.00812781
0.0016386037
0.008723784
0.02659937
-0.04193265
-0.044530448
0.040548533
0.032271665
-0.00042690846
-0.0053906245
0.012786307
0.018324107
-0.006395859
0.0036628423
-0.008003992
0.035447717
0.009114814
0.009145374
-0.03065152
0.011671323
0.0251085
-0.016739715
-0.0015240867
0.0138897365
0.044731297
-0.010621004
-0.0034948413
0.00924633
0.0033786595
0.024002088
0.0043381765
0.03323909
0.017653078
0.008175443
0.0044051292
0.009444008
-0.0037753605
0.0046075275
0.004809219
-0.0018122421
0.034866586
-0.0024992467
0.0009020844
0.0034971207
0.0058702263
-0.03195342
-0.00097480585
-0.016309474
0.04412954
0.0072442796
-0.0024964798
0.039875284
-0.02132908
-0.012856318
-0.013277028
-0.008390618
-0.0010092701
0.00933853
0.029410146
-0.013878584
0.014926366
0.005258605
-0.025927743
-0.019334473
-0.030016832
0.026613552
0.0043016584
-0.010554925
-0.0040739286
-0.00686028
0.011911615
0.016724497
-0.011603799
0.0064052814
0.0077132178
0.029487746
0.0029737088
0.003861984
-0.00747533
0.011562213
0.013166114
-0.031191079
-0.04423931
-0.005943701
0.007375765
-0.027927885
0.0056183613
0.022757217
-0.005391285
0.017771032
0.025270114
0.012677649
0.010483665
0.0030845194
0.024169352
0.0018731215
0.0030537136
0.004974242
-0.002309458
0.027942644
-0.011424122
-0.025584422
0.029022299
0.012400715
0.0073893736
-0.017772261
0.0040109586
0.03615378
-0.010327195
0.009013372
0.012952243
0.0061808177
0.0053209215
0.025855016
0.019125756
-0.052923515
0.009798143
-0.006326037
0.0187257
-0.0075250445
0.024188664
-0.006229616
0.0068940413
-0.00070776633
0.0176968
-0.015138937
-0.02893036
0.023249166
0.013604412
0.0140581615
0.013942732
0.017099988
-0.024680682
0.003089907
0.008004435
-0.020658534
0.034002062
-0.008935875
-0.018706275
-0.0038619053
0.014796485
-0.0011025105
-0.050918996
0.022433732
-0.011274292
-0.0071494323
0.020717954
0.020077659
0.018308628
0.013650288
-0.022445448
-0.005546435
0.014652141
-0.008896973
0.002919866
0.02065911
0.0086481655
0.0025259843
-0.04190338
0.033306845
0.042477965
0.009714078
-0.002912697
0.031404912
-0.0021815104
0.011975937
-0.02398995
0.024761882
-0.002286827
0.00024130376
0.03419071
-0.012479297
0.014415665
-0.0069510923
-0.0014279023
-0.008038377
-0.016664414
-0.026889652
-0.0017794842
-0.013150554
0.025920175
-0.034461573
0.0032941008
-0.028263045
-0.025954742
0.04379591
0.02039072
-0.013110353
-0.0020857223
-0.0028495167
-0.009534804
-0.0054730326
0.041446164
0.0011635767
-0.026467996
0.011658564
-0.003356685
-0.0074413572
-0.0057331845
-0.0061535896
-0.02275753
0.0134459445
0.029869447
-0.017205628
-0.033600394
-0.010873388
0.0018543083
0.021301443
-0.030302133
-0.02085833
-0.0035177176
-0.005974076
0.0028653021
0.0009203211
0.01963589
-0.03717272
0.012838971
0.006870068
-0.019053526
0.032126028
-0.006383892
0.011907127
-0.009175973
0.00010253807
-0.016789814
-0.0042611626
0.0042949165
-0.010646599
-0.0015244308
0.0037841373
-0.031495858
-0.00942262
0.0049961777
0.011782355
0.018366251
0.022765458
-0.03555451
-0.03415799
0.012351739
0.008850035
0.027567228
-0.007334831
-0.0060097217
0.016016541
0.011374231
0.023200547
0.0031615598
0.0055880416
-0.013901077
-0.008595022
-0.06325209
-0.012350985
-0.026831537
0.022512602
-0.032092232
0.0008364163
0.022789523
0.0010689273
0.0034939025
0.006621023
-0.005690025
0.004714583
0.011126473
0.005970879
0.035708997
0.031729095
-0.03641358
-0.012419737
0.0017461303
-0.008258676
0.002337983
0.00029436158
-0.022833271
0.031205582
-0.028532175
-0.016947145
0.009098297
0.0096644545
-0.015805455
-0.0073295226
0.008127942
0.0054500243
-0.01483229
-0.027379854
0.0026664152
-0.0008584113
0.033950165
0.016266312
0.010736193
-0.0056219255
0.009147818
-0.0048429207
0.0038314196
-0.009578431
-0.009576957
0.01215565
0.025751278
0.005611444
0.01938202
-0.030510018
-0.011074854
0.014627318
-0.029885087
0.024914317
-0.0033793533
-0.026422285
0.017355952
0.019006724
0.011658226
0.033849183
-0.011378924
-0.049406122
-0.016786285
-0.011356571
-0.011050281
0.01232409
0.029718654
-0.010050822
-0.022417624
0.024772385
-0.015194704
-0.015766535
-0.0044013374
0.009322651
-0.0017588319
0.023106912
0.0026710713
-0.025763618
-0.01963072
0.013409295
-0.004315268
0.001362027
-0.00024266787
0.0088920025
-0.0030870333
0.03766462
0.006504532
0.010972372
0.03129363
0.011060077
0.0189503
-0.0312912
-0.0047268276
0.01929639
0.0041550067
0.007534892
0.0076386216
0.007618389
0.0110682985
-0.018718472
-0.005650709
0.033412892
-0.0042565623
-0.009176954
0.050140306
0.01752891
0.013575044
-0.02363158
0.007922347
0.024104606
-0.010283915
-0.009779291
-0.010718877
0.00019804889
-0.00914966
0.017397044
0.005403673
0.0060131727
0.008315564
-0.015501257
-0.00260922
0.016104352
-0.00944888
0.04594679
0.023508918
0.023540948
0.004965662
-0.012240959
-0.05094333
-0.0064469865
-0.029281594
0.003960272
0.006909137
0.018368741
0.010721222
0.0070489636
-0.015690232
4.0365256e-05
0.004363989
-0.019121293
-0.007237812
0.02210528
-0.008489582
-9.2575065e-06
-0.018409513
0.019627148
-0.022167308
0.01714099
0.015722714
-0.04696487
0.0006030022
0.037911955
-0.005226512
0.018049706
-0.008499172
-0.0073145847
0.002068145
0.009983963
-0.011383007
0.003817237
-0.042366203
0.01838226
-0.019999478
0.006803834
-0.018785324
0.016741397
-0.01769687
-0.033251427
0.02487128
-0.0048328233
0.018570347
-0.006277243
-0.01239781
0.009819593
-0.033825275
-0.020703956
0.035951857
-0.008402632
0.009637266
-0.007630061
0.026542878
-0.011789097
-0.05397434
0.020499535
-0.0037168502
0.03013042
-0.02924568
0.019285694
-0.006233029
0.009010528
0.020485468
0.0117126275
0.008130166
0.009362912
-0.017166412
0.0074139023
-0.013816478
-0.005578781
-0.014002753
-0.0056982236
0.016428167
0.0064200335
-0.022893364
-0.0176328
-0.006642102
0.02732817
0.009135872
0.013847782
-0.022677865
0.011601033
-0.037624262
0.0048724795
-0.021575179
-0.012094029
0.00090805884
0.022938484
0.009405602
-0.033892795
-0.019769087
0.018383274
-0.013202091
-0.012124926
-0.016679415
-0.026331684
-0.025030516
0.00013360265
0.002718556
0.02116294
0.0018219481
0.0039652307
-0.015677633
0.017005691
0.022117905
-0.000978102
0.024171567
-0.02091517
0.01826981
0.0038577141
-0.018085403
0.0027269402
0.0010743334
0.01675438
-0.005759997
0.009040611
0.026962906
-0.037738763
-0.0014875273
-0.012602062
-0.023693241
0.01957187
-0.007593101
-0.013242268
-0.010674853
-0.02266022
0.011112159
-0.019655721
-0.012793892
0.0321588
-0.021676565
-0.015973633
0.012530954
0.007883884
-0.034802385
0.0098623615
0.02438432
-0.02569387
-0.007775922
0.014261767
-0.0037735684
0.023723075
0.0033982773
0.0029048503
-0.012262983
-0.0063263047
0.0065342127
-0.030976119
-0.038957927
-0.0076941755
-0.013040254
-0.00021204658
-0.03828774
0.0004774666
0.040021274
-0.0013541644
0.009444655
-0.018917458
-0.03620104
0.00244814
-0.029171538
-0.0051320703
0.0072388593
0.011331015
0.02686185
0.023385473
-0.0059932903
0.030715236
-0.023202492
-0.025457941
0.008626295
-0.02270976
0.0045047523
-0.023582509
0.008450747
0.0043672416
0.027629027
0.0040509817
-0.0022935444
0.024257494
-0.008037193
-0.031098947
0.0013235201
-0.02406162
-0.0082243495
0.0047928304
-0.0013224335
-0.023963183
0.030724797
-0.014198831
0.013807182
-0.016586825
0.0039628157
0.004648486
-0.052198328
0.029544111
-0.009447673
-0.0027901663
-0.003934941
0.0037061542
-0.014722719
-0.0022089086
-0.002357354
-0.0097278105
0.00028012216
-0.0014297186
-0.0344986
0.012370871
0.011967068
-0.011158979
-0.0038215662
-0.010424606
-0.0010603992
-0.031128066
0.018445518
0.012904886
0.00039246416
0.0067741415
0.00430378
0.0074475505
0.0020794338
-0.009406031
-0.026922587
-0.010047027
-0.003477815
-0.0019565576
-0.008952847
-0.04245578
0.01379995
-0.010445181
-0.038349107
-0.008146005
0.032610852
0.0025214578
-0.011260141
-0.021817463
0.021483786
0.035403643
0.0064984313
-0.0042999345
0.004246987
-0.022469869
0.030553838
0.022803096
-0.01541782
-0.005779267
0.033347722
-0.0039565708
0.018345032
-0.008630862
-0.008337382
0.006245264
0.01359829
0.013617557
-0.020493025
-0.034119733
0.0035498398
-0.04490815
-0.0042809765
0.008096963
-0.021265533
-0.00554446
0.004251061
0.003209702
-0.013592175
-0.0016521332
0.01561799
-0.016666008
-0.00730092
-0.0026702802
-0.0028417483
0.01695585
-0.05388025
0.021582061
0.006464963
0.06798629
0.0011641544
-0.01320289
0.019866833
-0.027284581
0.0004082378
-0.004532249
0.01119646
-0.022487728
-0.005173272
-0.020385599
-0.024442567
0.013167314
0.031014038
-0.02226661
0.0016441548
0.019788753
-0.013279457
-0.025576126
-0.023873452
-0.0018616873
-0.027980322
-5.4629327e-05
-0.0012636919
0.022918927
0.012171034
0.009756468
0.011555512
0.02953833
0.006862493
0.020175654
0.039826028
-0.009480798
-0.023334343
-0.020015117
-0.008560996
-0.0054838494
0.017677594
0.032715086
-0.023088021
0.0055054375
0.009059143
0.022441387
-0.004167004
0.016358687
0.0062607634
0.031290695
0.01811728
0.0037826304
-0.0065038973
0.009982548
0.018094802
-0.018842556
0.02691423
0.014130673
-0.0097772395
0.023599558
0.03909164
0.010284579
0.020091396
-0.04356577
0.0072550504
-0.012052622
-0.0077853673
-0.026065651
0.011247129
0.006360669
0.004602751
0.015383482
-0.034883413
-0.0024253668
-0.019250339
0.0033564284
-0.007996028
0.02785319
0.00013072601
0.020613413
0.02211978
0.014399261
0.005345585
0.010936916
0.0073800837
0.017498037
0.018903615
0.0066690743
0.026422283
-0.014380738
-0.017613363
-0.0061496296
-0.010343858
0.01359933
-0.019398594
0.022025034
-0.021229958
0.010661078
-0.032526165
-0.0107979365
0.00088288373
0.020480359
0.01906501
-0.033489194
-0.03737453
0.0018192466
-0.04342327
-0.013298065
-0.030502312
0.0124418475
0.01898212
0.024570877
0.04689503
-0.019128256
0.007593687
0.0029139088
-0.005617103
-0.036449466
0.031620245
-0.006863838
0.0029543142
-0.055674914
-0.03522349
-0.001970749
-0.01309804
-0.030928776
-0.02859219
-0.021232257
-0.013610638
-0.014998214
0.002335433
-0.027549565
-0.0029957155
0.029814713
0.0037740294
-0.010701401
-0.033935465
0.005329043
-0.030123247
-0.01460256
0.0105503
-0.02907403
0.011241908
0.024131648
6.639537e-05
0.00886205
0.025543394
-0.008604279
-0.0030840351
-0.007124962
0.015186469
-0.026944736
-0.010287328
0.00324701
-0.012599586
-0.015480684
0.0013831287
0.012978209
-0.016708625
-0.024981126
-0.0035065245
-0.0024324625
-0.03277964
0.030475242
-0.00675524
-0.026918087
-0.0037353046
0.016099025
-0.009350346
-0.018310495
0.011423115
0.017177558
-0.056060486
0.01187252
-0.0034615872
-0.010937844
-0.04470373
-0.0052656317
0.029816186
0.023143932
0.00089177367
0.012758491
0.0132989185
0.045210417
0.022672044
0.013015661
0.02182304
-0.01419194
-0.015905134
-0.00027188627
-0.0067115906
-0.0033618694
-0.01904157
-0.04055887
-0.0021947392
-0.014521748
-0.009196003
-0.015159702
0.017665403
0.00071192853
0.009295157
0.0032893578
-0.03009062
0.016249945
0.0013091522
-0.0018296164
-0.009666391
-0.01277303
-0.011863326
-0.010914172
-0.0044187414
0.015047923
-0.0060066273
-0.04999509
0.04677075
0.016448624
0.0068838876
0.017271556
0.0145867355
-0.032567915
0.0048718033
-0.021975616
-0.0057067387
-0.0042894525
0.018069195
0.029241249
-0.012632678
0.0064128987
0.018119747
-0.012181717
-0.016179025
0.015114327
0.032289058
-0.008789025
-0.0040291804
-0.058377445
-0.011099792
0.03226642
0.014191888
-0.00090693875
0.004176355
0.0019198294
-0.0027843588
-0.0039447937
0.03643519
0.016012218
0.020106774
-0.006740176
0.015258115
-0.012666213
-0.016044067
0.026869282
0.009550085
-0.0073319986
0.0030740455
0.04367895
0.0048579806
0.012686877
-0.016283622
0.023197217
-0.026053147
-0.0061882976
0.018262325
0.022864798
-0.014319209
0.00013192053
0.00016404758
0.038538996
0.0013949001
0.017211061
0.0021526716
0.00023300601
-0.005854522
0.03729344
-0.012822345
0.01673566
-0.00028626606
0.0018399731
-0.025899027
-0.017368188
0.020375866
0.012915599
-0.0072616786
0.029980533
0.011058442
-0.0034203744
0.014622139
-0.017456919
-0.010500505
0.017506873
0.014946245
0.06411123
0.00010591705
0.040490463
-0.010529595
0.016340233
-0.043660406
-0.010112355
-0.013826338
0.031983446
-0.037949134
-0.006366205
-0.005021172
-0.015008113
0.015497864
0.019854767
-0.041381564
0.006408387
0.007974603
-0.017914847
-0.013171498
-0.0010550312
-0.009942624
-0.004369307
0.00799521
0.017383508
0.011486352
-0.0008918497
0.02106309
-0.020188475
0.009499619
0.007848537
-0.018327475
0.012576476
-0.0059462707
-0.012334647
-0.007543096
-0.043641828
-0.0063408213
0.004815133
0.031081144
-0.0051117274
-0.014621596
-0.0127148805
0.0009959207
0.0132363355
0.011444217
-0.014223981
0.0022303897
-0.0064082015
0.009034363
0.010611987
-0.015197727
-0.0003088855
0.025424441
-0.008615867
-0.009099407
-0.012980811
-0.023617454
-0.0055735246
0.032341197
-0.009643872
-0.030710438
-0.0066556535
0.018381238
0.011940579
0.008063718
-0.015538729
-0.010013245
-0.016280567
0.003289921
-0.0090093855
0.009303629
0.044450764
0.008866569
-0.021278154
-0.025718842
-0.0032448852
-0.0016221665
-0.0004994518
-0.028319787
0.0064215
0.030706715
-0.0084646065
-0.0225858
-0.0017384528
-0.00421155
0.008296115
0.008951457
-0.011015185
-0.020154476
0.033679806
0.0078148795
0.013319975
-0.032283384
-0.048952747
-0.046204146
-0.040683318
0.00337114
-0.037700575
-0.025063502
-0.009233096
0.018461252
-0.00641163
-0.009189679
0.010392508
0.009133177
0.02656578
-0.03250283
-0.019118877
0.040504817
0.014932107
0.03727868
0.054574642
0.016663743
0.025370605
0.0075396886
-0.035100784
-0.039843798
0.03774802
0.031249821
-0.017822398
-0.01021533
-0.032482997
0.012912422
-0.0016075517
-0.0029168257
-0.011374738
-0.0013211194
0.022211373
-0.0161064
0.061751164
-0.008792422
0.026830964
0.016232358
0.022116376
-0.0152851315
0.00408917
0.022008628
-0.018026045
-0.0024930781
0.01831206
0.018859807
-0.0024965876
-0.017197361
0.019478759
0.04217177
0.037590925
-0.014454325
-0.009701931
0.027332103
0.0095629655
-0.0005069663
0.009134699
-0.014991203
-0.008672399
-0.012258048
-0.010203932
-0.006450752
0.012639489
0.0054816566
0.044128727
0.009448292
-0.012772277
0.005636339
0.022543646
-0.02399183
-0.008779498
-0.034648187
-0.032600217
-0.03511059
0.039481394
0.018266605
-0.010230428
0.012534657
-0.010429387
-0.038775887
0.0014772608
0.0209726
0.018747946
-0.010908247
-0.0078062355
-0.015099379
-0.0014548835
0.0042903004
-0.023486167
-0.0008608298
-0.044961717
-0.04542468
-0.05311468
-0.02439229
-0.0347862
0.011215577
0.00081263593
-0.0036900516
0.006292028
0.014020409
0.0048883236
-0.018919468
0.040629834
0.007616202
-0.0025303175
0.010767364
0.008563482
0.011582222
-0.00853851
-0.011367802
-0.00637847
-0.02202832
0.010222006
0.0042364285
3.812607e-05
0.010569063
-0.024797171
-0.014192447
-0.0021908847
-0.01396911
0.023093276
0.004208365
0.015937796
-0.026964897
-0.019836012
0.011376965
0.007033781
-0.010366738
-0.005670269
-0.0009508309
0.028847963
0.025365613
-0.006174474
0.0119180735
0.0063185655
0.0045102364
0.0012645351
0.0008193979
-0.009843142
0.019188114
0.025205689
0.05185359
-0.0028158084
0.03270236
-0.003129712
0.017642532
-0.00086997345
-0.002663272
0.0027710178
0.011568335
0.022289105
0.034630448
0.023381565
0.002525809
0.001933925
-0.019486388
0.008573379
-0.018049387
0.0058619594
0.010739747
-0.0035515793
0.026460735
0.016143514
0.008915148
0.0359517
0.0051018894
-0.022178603
0.019572137
0.02941708
0.010346636
-0.012437825
0.023097262
-0.021706633
-0.0155185
-0.011694687
0.015562584
-0.026336716
-0.021867879
0.012525111
-0.01067731
-0.008825985
0.028080195
0.010861262
0.016701957
-0.043683153
-0.036486138
0.017423093
0.013780156
0.0021814697
0.01319946
-0.017888831
-0.04660345
-0.018325604
0.033768516
-0.022579458
-0.004107156
0.007686768
-0.028592948
-0.031626463
-0.021516828
-0.011815528
0.01538646
0.011327656
-0.025419187
0.03404381
0.026137728
0.0039630947
0.005783478
-0.010811786
0.008359612
0.01677086
0.019214872
-0.00609812
-0.013506212
-0.00590426
-0.0063950657
0.01991712
-0.005213867
0.029488103
0.0069178287
-0.022181427
0.021432344
-0.03269544
0.0031784235
0.029698282
0.009798851
0.0011621788
-0.020223375
-0.015917199
0.04111421
-0.015683305
0.017075513
-0.015218276
0.021468276
0.0066601853
0.032461073
-0.0029843962
-0.015669422
0.021888139
0.022864604
0.024589777
0.032812357
-0.01803732
-0.015833229
0.0068406644
0.0019048825
0.016649565
0.0015619253
0.04685309
-0.0036914584
-0.026328895
0.044067673
-0.0008893015
-0.044314165
0.016705094
0.0040232027
0.038141318
-0.017991817
0.011790341
-0.014276507
-0.0052619744
0.025017947
0.02104444
-0.02649102
-0.00045429615
-0.0065471046
-0.001392241
-0.024304409
0.018074043
0.008565847
-0.016786542
-0.0142074535
-0.009692453
0.035189033
-0.0062934924
-0.01536395
-0.0043160645
-0.0063695977
-0.0010077005
0.03895115
-0.029703623
0.021245994
-0.013298509
-0.04138651
0.058220275
-0.016588755
0.0118280705
-0.015805906
-0.015167596
0.012846809
0.027443403
0.02699038
0.0055136615
0.0208838
-0.017382603
-0.009684266
-0.066675805
-0.011231603
0.023847753
-0.015986208
-0.028431691
0.013569297
0.030347161
-0.0024517076
0.018189086
-0.0008320368
0.0077113593
0.006217516
0.0026096578
-0.014628953
0.004240679
0.020816738
-0.029494796
-0.017441876
-0.0078313155
0.02260131
0.014614981
-0.04992947
-0.011571373
0.007375701
0.028424745
0.037129838
-0.028955694
0.03142713
0.016166078
0.022797436
0.0075275237
-0.043669835
0.046356447
0.01989795
0.021276427
-0.021431757
0.0012991966
0.012077425
4.4395474e-05
-0.01792809
-0.019506522
0.027695343
0.009871782
-0.015853316
0.014286945
-0.007996429
-0.038235344
0.010632149
-0.00017775956
-0.011204567
0.015699474
0.030376682
-0.010359411
0.01609072
-0.010069452
0.026583903
0.036773536
-0.013537795
-0.020635158
0.019295977
-0.014266822
-0.012381668
-0.03233131
0.017839942
0.03827668
0.032098647
-0.016807893
0.00081300124
-0.0016653317
-0.008160235
-0.039184514
0.015484388
0.0034819397
0.04564238
0.0060512787
-0.010561594
0.01739498
-0.010659228
0.052655715
-0.034575842
0.009608962
0.033198394
-0.036690533
-0.0015194715
-0.010699347
0.01801931
0.0019976224
0.015471417
-0.0035146677
0.04146897
0.03250982
0.022815835
0.012723084
-0.032222323
0.010604361
0.0051194862
0.021630665
0.0127570545
-0.0015917256
0.016865682
0.012801721
0.012750902
0.009039721
0.03932537
-0.0053132544
-0.008292155
0.008542082
0.005971436
-0.0030103747
-0.008618771
0.011873396
0.029318234
0.0029067013
0.062491007
0.012708287
0.014712536
-0.017703287
0.008776279
-0.0002793682
0.0017434929
-0.010095621
-0.01722471
-0.003323448
0.00087609026
0.0017066279
-0.014998761
0.009016536
-0.010582367
-0.0033906656
0.0038745431
0.028731816
0.010398883
-0.019799547
-0.018519608
-0.020538729
-0.0037954827
-0.03311578
0.0023544761
-0.024977993
0.0027269116
-0.008667132
-0.006508276
-0.009559202
0.013174014
0.0059325695
-0.0012348096
0.008170621
0.021140268
0.018802594
-0.022226503
0.002252412
-0.01225962
0.0066533247
-0.008559015
-0.0013744658
0.031017987
-0.032968752
-0.025199264
-0.026647637
0.03722297
-0.015581252
0.0066456217
0.0039057678
0.004864866
-0.025632432
-0.008306174
-0.039757736
-0.021690594
-0.052513823
0.010881641
-0.015476969
-0.016238619
0.025246095
-0.0040175007
-0.006458666
-0.004399209
-0.009392823
-0.0061518615
-0.010803325
-0.03386368
0.0023244524
0.0054641278
0.006065459
-0.0030041873
-0.0053190887
0.027081609
-0.027490957
0.01081165
0.040011182
-0.01057647
0.00016475111
0.036125533
-0.01157888
-0.058035742
0.047287896
-0.014950493
0.0077145374
0.011440319
0.0034780903
0.013615213
-0.011673473
-0.0031746435
-0.0128093
-0.010205081
-0.012458521
0.0078012263
-0.015726889
-0.00024474243
0.009435889
0.0028703639
-0.051525757
0.00026842958
-0.01781438
0.025701977
-0.043422207
-0.015915388
-0.02344019
0.021756772
0.0020478757
-0.0059022545
-0.0019908107
-0.022632567
0.0018718493
0.028178465
-9.09733e-05
-0.016373094
-0.003907827
0.021809708
0.012885994
0.021917215
0.03274828
-0.01236796
-0.001276827
-0.023453092
-0.0025950836
-0.015864296
-0.043670136
-0.010572702
-0.0144433575
-0.0050026826
0.009577605
-0.0033918826
0.006984633
-0.013108411
0.015586583
-0.012974963
0.005277017
-0.03212393
0.009143034
0.0011229869
-0.020042771
0.030449962
0.013676243
-0.0031689266
0.01622645
-0.0048292535
0.011296195
-0.010653166
-0.0075894156
0.0052335225
0.009048662
-0.026052736
-0.030709147
-0.0023227697
0.0016933975
-0.010897605
0.007336939
0.027991394
-0.0022873005
-0.01591757
-0.016325608
0.00040757074
-0.030247478
-0.008749721
-0.043110855
0.019565374
0.026826348
0.018224888
-0.004385964
-0.041803017
-0.025000807
0.0005698711
0.008027344
0.019062536
-0.0044699768
-0.022770919
0.008174887
-0.02767104
0.0034458844
-0.015626123
-0.013443723
-0.021837203
-0.007082465
-0.006414553
-0.006163756
-0.010729735
-0.02174383
-0.037694477
-0.0032956605
-0.009167299
-0.014297517
-0.019544274
-0.009318422
0.0073328023
-0.0259618
0.00076715543
-5.172439e-05
0.032782834
0.01518205
0.008998603
0.0056083575
0.041336283
-0.004089205
0.022844063
-0.0020891065
-0.023985172
-0.03211815
0.0073172306
-0.025104787
0.012946819
-0.01300912
-0.002837421
-0.017206702
0.026609698
0.020663189
0.015987849
-0.012950706
0.0017619905
-0.0261478
0.012973956
0.032184634
0.0038915023
0.036302917
0.022109145
-0.016743466
-0.029892044
-0.010260886
-0.024699278
0.0152310915
-0.010746817
0.03320501
-0.03094742
-0.042927705
-0.009978743
-0.014813342
0.021517579
-0.008152813
-0.022706501
-0.0019601432
-0.022003617
0.017483639
-0.0067525227
-0.0028164047
0.02345955
-0.02963113
-0.0035887142
0.017320674
0.017128007
0.049052518
0.011067505
0.003234901
-0.015222215
-0.0027836582
0.025650442
-0.014807116
-0.0022424252
0.038440064
-0.003166648
-0.038581982
-0.013994479
0.0076501165
-0.00093913573
0.01625583
-0.038377307
0.011760712
-0.023604387
-0.01557612
-0.019265002
-0.0051049464
-0.04346455
-0.0029163323
0.026925081
-0.008522769
-0.0042963354
0.0072113597
-0.017648619
-0.022253294
0.005057203
0.017333644
-0.004698698
-0.050730877
0.039356437
-0.005429886
-0.009570553
-0.0058296924
0.034139324
-0.020916855
-0.011860248
-0.0019997198
0.042596564
0.018842809
-0.015255967
-0.0029416205
-0.029930668
0.014820402
0.0038325735
0.025959624
0.008642911
-0.015976537
0.010139488
0.020002577
-0.023881081
0.00096676697
-0.0042014644
-0.00079991284
0.009780175
-0.041800555
0.020138018
0.012682403
0.0084319785
-0.007568803
0.0032550716
-0.007427295
-0.008899275
-0.018837132
0.008429528
-0.024844903
-0.0060421973
0.0010683275
0.0088427365
-0.009722429
0.010275212
0.0037330384
0.012402985
0.018288312
-0.023109721
-0.014545165
-0.00431648
-0.003378701
-0.0010730855
-0.00052245165
-0.00047390274
-0.0077587687
-0.0067856503
-0.0070811254
-0.0113133425
0.0068847523
-0.0013071378
0.023097932
-0.027242193
-0.01402061
0.011578977
-0.046898533
0.0029691213
-0.0061386973
-0.001250748
0.019367686
0.015921414
0.033805974
0.01651149
-0.0068518594
-0.04169458
0.046969622
-0.006456915
0.016563952
0.022889948
-0.033873353
0.0068935202
-0.019788451
0.0074710334
-0.04649595
0.005736562
0.028502844
0.01006492
-0.025192112
-0.0009719687
-0.02433354
-0.0011425595
0.025037803
0.007510439
-0.003232261
-0.04374239
0.0043331627
0.0046673445
-0.020056648
-0.015170225
0.017036479
-0.012010153
0.0065800254
-0.009983429
-0.01473349
-0.010693026
0.04269308
0.0021246094
-0.0021174105
-0.034690592
0.0080199605
-0.0018735606
0.027306074
-0.012708204
-0.0075320504
0.010319105
-0.018690249
0.015983738
-0.0105027305
-0.011964632
0.012770956
-0.026591798
0.0287995
-0.008913393
0.0069578607
-0.007748541
0.067738034
0.021272773
0.018640261
0.0072732517
-0.015269126
0.00093616045
0.00384588
-0.007947556
-0.02541956
-0.008099609
0.023723453
0.03469208
-0.030381106
0.036288217
-0.0025778096
0.0052983332
0.008279165
0.01235084
-0.017813753
0.0065578753
0.00087475684
-0.010827069
0.016411666
-0.03234897
-0.01119752
-0.043759685
-0.0027788782
-0.009494006
-0.031829294
0.00051880785
-0.008312325
0.0079626795
-0.028226903
-0.021052377
0.022018129
-0.018426184
-0.043916006
0.031316012
-0.021556016
0.028225005
0.009430619
-0.018791739
0.018075788
0.03275164
-0.012854106
0.036346465
-0.019339079
-0.030525004
-0.043238733
0.036886726
-0.0313881
0.004297298
0.015252766
-0.011629997
0.029800536
0.010085285
-0.012668663
0.0020960912
0.026956558
0.0059174756
0.0354182
-0.049167912
-0.0034535127
-0.01303022
-0.0051238993
-0.01914192
-0.018978834
-0.0026550775
0.029126152
0.0056834933
-0.018618375
0.0072523826
0.012572659
-0.00930778
-0.013088563
-0.012589881
0.016325092
-0.0018286343
-0.00296623
-0.02516373
0.010440145
-0.014865218
0.034063336
-0.004075561
-0.009765335
0.024155267
-0.015563102
-0.030887589
-0.005696908
0.0064717284
-0.0032238944
-0.023248088
-0.003985302
-0.0057083876
-0.010255289
-0.02131361
0.0023325922
0.005990995
0.006636805
-0.0339441
-0.0050413907
0.017272633
0.0043139234
-0.02982706
0.014716005
0.005826769
0.027468514
-0.0016687668
-0.0030029316
0.011825953
-0.0028069722
-0.003133044
0.019956704
0.019719433
0.025967946
0.016593073
-0.0040690633
-0.0021693371
0.050214298
0.0034718923
0.019109044
0.006424213
-0.0020513309
0.021165652
0.016354904
-0.0069507677
0.0057368567
0.016371308
0.012395209
-0.028387208
-0.015849013
-0.004449472
0.047883995
0.014400118
-0.008419006
-0.0068828547
0.00035158425
-0.020383283
-0.0115643665
-0.031576894
0.019629247
-0.005965569
-0.008325538
-0.026364012
0.0004088564
0.013201948
0.013380107
-0.0008839138
-0.0034260675
-0.012430061
0.034153003
-0.019243525
0.021117903
0.004839274
0.017123554
0.0107825445
0.01799659
-0.00563418
0.029435562
0.006806924
-0.016281433
0.014786537
0.021892726
-0.010622089
0.007218046
-0.02452064
0.016399428
-0.02949039
0.004701853
0.009606352
-0.017554505
-0.013677739
-0.019075308
-0.028787037
0.007468216
-0.014954476
-0.023831572
-0.008447568
0.0023265965
0.020475408
-0.06655826
0.0023016098
-0.022122562
-0.024295868
-0.02460262
0.0378604
0.012865002
0.032077458
0.0030867357
-0.019603541
0.03773489
0.017643547
0.016708381
0.012168203
-0.0022835934
0.0050007734
-0.0165546
0.014258076
0.009818387
-0.04298005
0.004685457
0.0063995817
0.012390019
0.031735513
0.015128457
0.043736227
-0.006998488
-0.007429781
-0.011475797
-0.014802891
0.0019397127
-0.008345684
0.019519184
0.013974239
0.021403115
-0.016307706
-0.019099291
0.019283723
-0.023569286
-0.033190604
0.0004639625
0.025955018
0.010458116
-0.008938978
-0.013612288
0.023970718
-0.014481856
0.004110442
0.013327645
0.007975029
-0.018722314
0.004893143
0.009081283
-0.016283669
0.0096621085
-0.012272638
-0.03551358
-0.008731903
-0.020424863
0.0021226387
-0.023580937
0.01829866
0.006451852
0.012892998
0.046358943
0.024328683
0.018983448
0.01920811
-0.016831145
-0.020019766
0.0040670065
-0.02841575
-0.005412285
-0.0035094344
0.021372182
0.029463636
0.008023572
-0.0014981648
0.009995711
-0.0047601284
-0.018791322
0.0035482158
-0.0067396387
0.0019534216
-0.024942942
-0.004540774
0.044564832
0.03621053
-0.009313756
0.022989485
0.0043187276
0.0029613029
-0.018622966
-0.024211979
0.0020831318
-0.012918174
-0.034367364
0.0101153515
0.00092974957
0.014001412
0.047215834
0.0053714607
0.014938789
0.009440497
0.043271307
-0.0058103525
0.03680902
0.011819032
-0.014616631
0.0140886605
0.025197536
0.014420184
0.0037782546
0.020622266
0.0014499034
0.010251252
0.015710501
0.022806695
-0.005386276
-0.017276345
-0.006924192
-0.0069564157
0.017147701
0.014726748
0.012792374
0.010026139
0.019591877
0.0061433064
-0.018119335
0.027580177
-0.036496997
-0.008709507
-0.020091455
-0.014327783
-0.0046588853
-0.010367215
-0.0048226146
0.009504333
0.018618979
0.023332434
-0.013552632
-0.015782695
-0.016430983
0.028155431
-0.012468314
-0.0070593846
0.0531097
-0.010660793
0.0042848913
-0.009421575
0.016035734
0.004964837
-0.005713772
0.009072986
0.015741097
-0.029764576
-0.029754208
-0.032568254
-0.02780286
0.0010881616
-0.000591072
-0.00047636693
-0.014183473
0.03879822
0.010606774
0.015984682
0.00043115733
0.0022102732
0.024583356
-0.010669108
-0.030269582
0.055349376
-0.0063967095
-0.007785484
-0.031806655
-0.005695052
-0.0029586244
-0.0032064025
-0.024289705
-0.016962701
-0.01194962
0.018348528
0.0014592196
0.039042037
0.011703368
-0.005844113
0.045500014
-0.012635389
0.041267022
0.01861508
0.00405691
-0.0029208716
0.011182089
-0.011861839
-0.053341568
0.034059715
-0.019100334
-0.020750796
-0.00049045216
-0.028725311
0.036035385
0.015482405
-0.031726748
0.022459932
-0.006301589
-0.0036276602
0.03342342
0.0033324522
-0.0068730777
-0.0059552086
-0.004148833
-0.0335888
-0.00021787148
-0.011205769
0.0029627718
-0.020464446
-0.0120339105
-0.020918569
0.028435845
-0.0062648365
-0.0032097327
-0.009779992
0.015265526
0.009957934
-0.011085587
-0.021692438
0.04302391
0.020435655
0.0074713067
0.0058895447
0.010477735
-0.0037209457
-0.018127061
0.02080586
0.0124164615
-0.016232
-0.0021956894
0.007368482
-0.03155081
0.005152057
0.02400016
-0.009086853
0.0069979653
0.00085016474
0.037636466
-0.005521647
0.029464712
-0.040077236
0.021065705
-0.02356303
-0.0020277638
-0.001592579
0.01871653
-0.010404599
-0.0005150128
-0.001890372
-0.022897968
-0.010759468
0.035978768
0.03189199
0.029005973
-0.017229723
0.008634967
-0.004068434
-0.01262686
0.022121347
-0.009363312
0.015761783
0.020353742
0.007968454
-0.003736173
0.0019313762
0.017993318
-0.009623066
0.02104944
-0.042320438
0.0035820385
-0.004622442
-0.009858534
0.0026836833
-0.017201984
-0.014099949
0.03220089
0.044607084
-0.024966039
-0.011188537
0.03446819
0.017605135
0.020503452
0.02296065
-0.029757883
0.0008022786
-0.0074675893
0.00064976816
0.012017732
0.0017311452
-0.03402107
0.0014199322
0.011832337
0.007109199
0.013883518
-0.0055715493
-0.04135465
-0.0022175533
-0.0017451427
-0.023153193
-0.01905673
-0.0012074355
0.04425048
-0.00952675
0.0026458441
-0.0124113
-0.0018435133
0.035759773
0.0030747538
0.012388799
0.006887381
-0.023255259
-0.02588841
0.01598561
0.00913138
0.005147579
0.011024498
-0.0074446555
-0.0023197487
0.0053725047
0.014893124
-0.004666657
-0.0067402846
0.0043042814
0.0068970607
0.016089289
-0.008991245
0.03188936
-0.0190246
-0.01554302
0.021307778
0.03921999
-0.017956678
0.003066571
-0.012504358
0.008865373
-0.004297886
-0.019778274
-0.006029875
-0.0077922004
-0.0109387
-0.00875383
-0.014237793
0.012658529
-0.01950556
-0.021439895
-0.03197958
-0.043028574
0.0012332463
0.02661004
0.0045566414
-0.009883763
0.01202101
-0.029197067
0.015679536
-0.00870204
-0.006777256
0.03137682
0.014043793
0.023719378
0.017780963
-0.011481325
-0.020725667
0.013286775
0.011775414
0.010595621
0.014867614
-0.014741303
-0.005837135
0.011210599
0.014067686
0.0065391934
0.0133224195
0.043532394
0.008458802
0.002579502
-0.007161986
0.018745111
-0.012742541
-0.019974802
0.027073633
-0.018050404
-0.007970723
0.017796526
-0.009609708
-0.02139723
0.005429168
0.011411154
0.017802676
0.01098107
0.001698387
0.004407786
-0.013111896
-0.00061722257
-0.020572199
0.041848987
0.016974585
-0.0060091536
0.031766593
-0.0075987135
0.041740857
0.008628726
0.018984899
0.014197999
0.016092451
0.00782445
0.018782033
-0.0002682843
-0.017529387
0.0072242925
0.0020522054
0.010866662
0.009893997
0.013272384
0.009585565
-0.0045642825
-0.026339687
-0.015495309
-0.026058251
-0.0024422912
0.008172796
-0.0020873356
-0.0171692
0.017162267
0.031816326
0.01682317
-0.010260314
0.004588221
0.028321458
-0.006066613
0.004156858
0.026432808
-0.0071782744
0.017094834
-0.008264707
-0.024390293
0.00201867
-0.021546755
-0.034835912
0.024764866
0.0109660365
0.01684635
0.008052427
0.0067664324
-0.0063513564
-0.025273222
-0.028734982
-0.040936217
0.013376226
-0.007380897
-0.00199191
-0.001848551
0.0359802
0.03442365
0.0058155674
-0.002029115
0.010420546
-0.0022582654
0.0076347697
-0.004370309
-0.007406191
-0.010167223
-0.0040642046
-0.021244228
0.0018891154
-0.0049103606
0.03571873
0.006746146
0.02025601
-0.036707845
-0.0026926678
0.00990189
0.0014038589
0.0068698144
0.0029918575
0.015954541
-0.004557603
-0.020926721
-0.011297609
0.0030783503
-0.040007845
6.189538e-05
0.014778122
0.018223226
0.008969293
0.061336458
0.048506934
-0.008838715
0.016640706
-0.01454118
0.0043982174
-0.00083008205
0.024430932
-0.00059756305
0.02477046
-0.03955444
-0.007719823
-0.008446937
0.0105061075
-0.03342137
-0.027554959
-0.006546796
0.015061843
0.015588536
-0.028309211
-0.015376242
0.007971477
-0.0044242814
0.004866105
-0.023951983
-0.031902224
-0.008499401
-0.03574498
0.020982992
-0.042135272
0.0310742
0.0057183723
-0.006683534
0.057345126
-0.029887669
-0.03173184
-0.008706242
0.016202027
0.031824432
-1.5944737e-05
0.0122079095
-0.010620639
0.021953143
0.024251062
-0.0005586783
0.017308636
0.008106383
0.0109335445
0.0059173796
-0.0030827015
0.0077323853
0.026797794
0.003000238
0.0047749486
-0.00093738345
-0.018437956
-0.010316059
0.00089342345
0.023135154
-0.004662794
0.020681104
0.018621188
0.012588577
0.01666057
-0.00031303652
0.007598809
-0.01990797
-0.0030768889
-0.0010519992
-0.0134653
0.010546894
0.022909688
-0.025667446
0.03872904
-0.04810151
0.0062390147
-0.010803555
0.0028086673
0.002937991
-0.014535867
-0.02506406
-0.007813117
-0.009792699
0.0022098043
0.013551633
-0.016247177
0.016811794
-0.02208983
0.012164731
-0.0021908286
0.009071689
-0.030194355
-0.00823488
-0.022888388
0.021024082
0.013767127
0.0031152412
-0.036593404
-0.026096372
0.0115727335
-0.037138537
0.012063179
0.008767552
-0.033597212
0.0077669895
-0.019619964
0.028711578
0.04164321
0.0071640746
0.047950402
-0.01691137
-0.0043196417
0.0038914531
0.017275507
0.002514872
-0.0066756946
0.019872343
-0.0023245504
0.00094991765
-0.0037601485
0.007541133
0.014671205
0.017930161
0.011703779
-0.025195897
0.006476839
-0.01634266
-0.0103383185
0.027578957
0.0046277996
-0.028714027
0.01396953
-0.0041336697
0.00032754714
0.014423203
0.028993106
-0.0056947162
-0.029096445
0.03667614
0.005488254
-0.0093797995
-0.036916066
-0.026580099
-0.0035252087
-0.014102189
0.009283442
-0.022649193
-0.010024425
0.0066882167
-0.009892292
0.012485795
-0.0058555324
-0.010012662
0.020786477
-0.02571004
-0.009892756
-0.013040389
0.0042191963
0.00927378
-0.010281197
0.025721839
0.011724341
0.020108448
0.032692075
-0.028999269
-0.031235864
0.0025954114
-0.022375433
-0.013343213
0.026913969
-0.0034764723
0.01988671
0.013541096
0.052468702
0.005330812
0.00029508912
-0.021036947
-0.014365571
-0.047821242
-0.022273647
-0.013362517
-0.0007245637
0.007400658
0.0008260774
0.026992988
-0.009083616
0.021597423
0.027846193
0.040693503
-0.01721562
0.025171708
0.012952033
0.042339075
0.0031384372
-0.0010283228
-0.03302734
0.0032171984
0.009360475
0.018771334
-0.011490686
-0.0033872374
-0.021808863
-0.0066273534
0.0113242585
-0.02839822
-0.013016638
0.016411291
0.0039358097
-0.009129787
0.009547057
0.01509765
-0.0064312457
-0.032336026
0.02957957
0.020256013
-0.020261383
0.00811334
0.017665796
0.04543334
0.007283694
-0.012291428
-0.020824652
-0.0022438203
-0.012692175
0.037168834
-0.019861812
0.03677114
0.013431946
0.030523593
0.03192962
0.004413181
0.0019120215
0.0253865
-0.032781243
0.013050148
-0.004921701
-0.008853954
-0.028260045
0.0020462386
-0.009902538
0.0017489778
-0.027273582
0.032010164
0.010910664
-0.054351084
-0.0020306488
-0.0053143296
0.0024453278
-0.024238836
-0.013747051
-0.02627371
-0.036672447
0.00065258105
0.032031607
-0.017446594
-0.0054137264
-0.030082813
0.02267033
-0.01411218
0.021110108
0.0104106665
-0.03579078
-0.041542005
0.018301647
0.05024665
0.0069457665
-0.01269757
-0.011131542
0.006317146
-0.0021916607
0.027377047
0.00411999
-0.014141017
0.028500592
-0.011442229
0.018153038
0.029423136
-0.047048595
0.0021161393
0.005965645
-0.024508143
0.039841678
-0.03164081
-0.013200108
-0.0050723613
-0.050724104
0.029071417
-0.016228035
-0.023297174
0.033636406
0.007110084
0.021349065
-0.005330608
0.0147568
0.0051879375
0.01559283
-0.002887844
0.026220046
0.0067508835
-0.0040525496
-0.009494531
0.0100670885
0.0013254882
0.005354309
-0.0004208505
0.008011146
-0.0063221655
-0.0008140966
-0.0017367251
-0.0045734597
0.00038470572
0.011005582
0.011098345
-0.0029046517
0.011947708
0.054733124
-0.045236282
-0.034197222
-0.0009724994
-0.004486335
0.023381846
-0.016419316
0.023745302
-0.0023583116
0.0068364316
-0.015246383
-0.006898995
-0.013958736
-0.017204765
0.014587015
-0.014147623
0.009483665
-0.0011525722
0.0199875
0.02097114
0.046743006
0.021840993
0.0065597133
0.014266129
0.035080343
0.016305916
-0.004560362
0.022233667
0.012691428
0.025409034
-0.018599339
0.0063622748
0.042319715
0.0027984178
0.012236469
-0.015559135
0.030002438
0.0036822897
-0.0036353269
0.015209318
-0.007797896
-0.0033066159
0.023426155
-0.022892509
-0.03641166
-0.009607812
-0.004009553
-0.007947027
0.00017701648
0.027504548
-0.00066150766
-0.011986153
-0.0075152884
-0.0057341736
-0.0051870053
-0.013433168
-0.011933469
0.022959966
0.008620204
-0.016686674
0.015069138
0.010795224
0.01048602
-0.01613082
-0.014655615
-0.024194572
-0.011495919
-0.02478018
-0.0009775043
-0.005560222
0.013266683
0.018702734
-0.011253323
0.01077259
-0.00392331
-0.014038175
-0.013899635
0.023755047
0.0050306027
-0.027087504
0.015196614
0.009169365
0.0004944869
-0.033722505
-0.017768232
-0.012953428
0.02142365
0.021623187
-0.016474472
-0.0031180878
0.008566097
0.02270169
0.0039778147
-0.0026918012
0.013981847
-0.024175942
-0.02802942
-0.026106931
0.0022420122
-0.012948256
0.022508085
0.0032932195
0.006615703
-0.0093020415
-0.0023572084
0.0117089385
-0.022729754
-0.00753767
-0.033565417
-0.014410027
-0.0049382905
0.008883463
0.013652876
-0.017185299
0.022689896
-0.022333318
0.011669828
-0.009918443
-0.042188432
-0.03393622
-0.018404877
0.013145205
-0.0031439608
-0.0047004987
-0.0017203388
-0.03869164
-0.0070307297
0.042238645
-0.0015880957
0.025241844
0.012217343
0.00045972358
-0.019519698
0.029605543
0.013986095
0.013865868
0.037874117
0.0042771976
-0.009656482
0.02707796
0.009490492
-0.016967166
-0.037623562
-0.02791527
0.0022153864
-0.011465998
-0.012120121
0.006169206
-0.008010534
-0.006765801
0.01710144
-0.028624903
0.006100989
0.017190237
0.029233849
-0.026208678
0.003325072
-0.014861169
0.054675214
0.004526855
-0.002265357
0.007575636
0.043522496
0.007289627
0.0023010771
-0.048071485
-0.012361
0.028287841
0.03023336
-0.017350271
0.0026768213
0.018645197
-0.0036957504
-0.009932495
0.0032948588
-0.026789086
0.0076366896
-0.019124402
-0.013001285
0.0042482894
-0.019614292
0.018099565
-0.013584995
-0.0033579567
-0.01685047
0.016986215
0.045082487
0.0019856389
0.018746985
-0.012662778
0.0013240416
0.023694111
-0.011343552
0.01623073
0.027144996
0.016341388
-0.010235115
-0.010177894
-0.007495978
-0.026051397
-0.018681109
0.0054790387
0.035563115
-0.014714094
0.0077323145
0.029230393
-0.0064968616
0.008880054
0.0060622743
0.0050983517
-0.011571073
-0.009677652
0.017442094
-0.009565084
0.008341286
0.014969287
0.026931353
-0.003601508
0.036346003
0.01964193
-0.03778281
-0.019448176
-0.03068406
0.00982616
0.0022567231
0.030519132
-0.023746634
0.0076521384
0.015220317
0.01544406
0.014716736
0.0163804
0.015842246
-0.035114985
-0.0030585038
0.033788227
-0.013629907
0.023045866
-0.0043592746
-0.01933644
0.023184247
0.00937909
-0.007974497
0.0065463353
-0.0022304356
0.023293085
0.055251837
0.03367578
0.00222318
0.0019289491
0.022988575
0.001096752
-0.007918066
0.021635696
0.019278742
-0.0024360646
-0.011852179
-0.019719353
0.013788338
0.004656441
-0.012350765
0.018310672
0.00499721
0.018344896
0.013100775
0.0057495553
0.010891839
0.001842185
0.03000543
-0.026284896
-0.013143465
0.008986772
-0.016617885
0.022065273
-0.018665966
0.020199608
0.0113479085
-0.044094566
-0.021522583
-0.018057613
0.010954587
-0.018027058
-0.00096433173
0.020007547
0.023641
0.016346674
-0.032299817
-0.014564826
0.030641088
-0.010219341
-0.016288161
-0.0067126593
-0.007610946
-0.0030706888
0.0031321766
-0.02426191
-0.00503968
-0.024959559
0.012893499
-0.0036799225
0.033407524
0.024425818
-0.0008142083
-0.015628641
-0.027301533
0.00904502
-0.0025327655
0.012075281
-0.009565704
-0.012993591
0.02245756
-0.011408305
-0.030724084
-0.01702537
-0.027474092
-0.0022593678
0.01598599
0.0025822746
0.023952326
-0.009951073
-0.022265084
0.011867747
-0.009040883
-0.002392497
-0.0027654283
0.02116585
-0.0032419662
0.0017505166
-0.005238714
0.0007446715
-0.014737868
0.009578292
0.01852438
0.012291966
-0.023996025
0.002967893
-0.00909448
-0.010369637
0.00497279
-0.011525347
-0.01237637
8.803285e-05
0.030795518
-0.023808742
0.043790296
-0.011683034
-0.018251693
0.00975387
-0.0030303474
-0.0014352353
-0.04055814
0.014683011
-0.028145596
-0.0153672565
0.027507765
-0.0006939799
0.0042199637
0.025566556
0.011966373
0.0134739885
0.001219341
-0.014824174
0.0075315144
-0.0036794462
-0.006580298
0.0065899515
-0.0043818476
0.017695663
0.011201565
0.012324313
0.036757853
0.005528863
-0.010799428
-0.03171654
-0.011374462
0.02607959
0.006075187
0.0053514168
-0.020369496
0.006790147
-8.336941e-05
0.037774008
0.032595973
0.0064384695
0.0071596303
0.008273874
0.0039210534
-0.0062728473
0.03499495
0.018621068
0.0030173073
-0.005416835
-0.003409503
0.0059655146
0.011185591
0.018060459
0.005476903
0.0019801948
0.009949505
0.0008042341
0.022347147
-0.00856315
-0.018260917
0.031907137
0.0054407343
0.010193217
-0.01488762
0.02652098
0.0029290165
-0.038669996
0.0175727
-0.0035854601
0.016890975
0.008179781
0.019139655
-0.0066887266
0.024291063
0.004057978
-0.022081124
-0.02082501
0.021607943
-0.00967599
-0.02065066
-0.004751135
0.012185098
-0.038934864
0.010540938
-0.006476567
-0.012945859
-0.0060505653
0.016040495
0.021932203
0.0045906915
-0.021332223
0.03910529
0.036226824
0.017062774
0.039954264
-0.025482513
-0.020774614
0.016582005
-0.011188857
0.010956657
-0.0054385858
0.034836523
-0.03183382
0.01147014
0.021579225
0.033874836
0.013038926
0.02029682
-0.017140903
0.011338306
0.006759702
0.0052876603
0.0196274
0.0011281166
0.014976937
0.01670558
0.017400255
-0.033928424
-0.00258688
0.014788914
0.018133087
0.02233691
0.007971681
-0.0043454254
0.0130593395
0.0054050824
-0.001839331
-0.017221253
0.00037092628
-0.0012788142
-0.028021686
-0.004983586
0.01991438
-0.04722288
-0.0012935351
0.010805671
-0.0025043509
-0.015641134
0.009278908
0.0035779844
-0.011123331
-0.0146200145
-0.020154784
0.019076843
-0.0044089905
-0.007952484
0.009070787
0.012938999
-0.032616433
-0.018632166
-0.009264216
0.014739439
0.016043155
-0.00558385
-0.03772507
0.00531596
0.01382508
0.00028808377
-0.0098011345
-0.012510189
0.0065239766
0.005380644
-0.007869107
-0.023473782
-0.035893228
0.021880262
0.037591327
-0.012130444
0.0067519075
0.007575385
-0.038400702
0.01935888
-0.016917225
-0.00014557446
0.0030539786
-0.0043399353
-0.0013541181
-0.032672
0.015401415
0.006801834
0.031557847
0.008423355
-0.0013599856
-0.021537788
-0.0411052
-0.016606204
0.024951272
0.036049645
0.009318149
0.002370643
0.0018458619
-0.0076016537
0.022556275
-0.026733037
-0.02705313
0.04661111
-0.026957907
-0.0012385702
-0.065566674
0.037460875
-0.015630342
-0.008317333
-0.031397853
-0.040458255
0.016630547
0.038790014
-0.024584508
0.0043244245
-0.011810946
-0.007499627
-0.017595481
0.04055129
-0.037584364
-0.0077431677
-0.019306382
0.011273093
0.049232475
0.00040343407
0.05949899
0.02233401
0.022905745
-0.020793252
-0.045254093
-0.0054965913
-0.0030500987
-0.014524705
0.0006084261
-0.008103296
0.0024092682
0.018652147
-0.008202059
0.0081126
0.01958775
0.009524854
0.01808862
-0.0046694977
-0.022565316
0.021971298
0.011851726
-0.019128386
0.008300427
-0.018100506
0.013461896
-0.0028246252
0.0038863732
-0.0036188464
0.026430659
0.008063628
-0.010094972
0.016114322
-0.03553119
0.003994701
-0.004251187
-0.0062774736
0.004748029
-0.0127793
0.02604528
0.0004278514
-0.021378806
0.005576658
-0.032302514
-0.015174199
0.0038996753
-0.030532973
-0.0014966445
-0.016473252
-0.00025706124
0.051591538
0.011176807
0.0038100816
0.011232381
-0.030054655
-0.015140098
0.006122769
-0.0104234405
0.058708284
0.00015881361
0.051911253
-0.027254175
-0.027163994
-0.024761235
0.0049499148
0.0026996457
-0.031002475
0.0156015465
-0.037257217
-0.013987374
-0.012275325
-0.018232256
0.0031045123
0.018453723
-0.02478985
-0.03501471
-0.008373108
-0.013450006
-0.0052061034
-0.02523549
0.036044717
-0.005164337
-0.015697883
8.2042796e-05
-0.007875701
-8.205604e-05
0.011583666
-0.02342909
0.012099968
0.01242386
0.0015919454
-0.015505029
0.010107189
-0.008936561
0.007828876
-0.0018282599
0.020581134
0.029162582
-0.008644849
-0.015177485
0.015990011
-0.0045136255
-0.0045873336
-0.040192954
0.018727452
-0.008109524
-0.009558766
-0.011967639
-0.004196231
0.0095229745
-0.023994982
-0.0019485793
0.008185192
-0.02484112
0.018201355
0.0037756073
0.019366266
0.002955616
0.0065946984
0.011421955
-0.0018549429
0.013780897
0.023284521
-0.027760467
-0.05251887
0.013823701
-0.011643923
-0.042225905
-0.010640652
-0.02618994
0.018576851
-0.018788839
-0.017676968
-0.010699797
0.00068591646
-0.02667334
-0.002216507
0.0092584845
-0.028430495
-0.010793746
-0.0043891543
0.0006199054
0.007651509
0.022296568
-0.018132228
0.019212512
-0.0104102455
0.004146077
-0.030190388
0.0017519994
-0.0116777755
-0.022053337
-0.010362812
-0.010072994
-0.033403784
0.038473435
-0.023035664
0.010059214
-0.043170504
0.012534071
0.010468342
-0.030993478
0.013524822
0.012846881
0.002785962
0.041547745
-0.0058647413
0.012917281
-0.017361373
0.0002468958
-0.02337042
-0.0012651169
-0.002120835
-0.011702327
0.028828377
-0.015588783
-0.025669584
-0.030102657
0.011664299
0.016259797
0.011759922
-0.002855534
-0.02435878
0.03563013
0.009014378
-0.00861297
-0.003803045
-0.001450119
0.042109124
-0.009542744
0.019602567
0.023541003
-0.0077846525
0.010355371
0.0111950915
0.025651792
0.028043717
0.014440176
0.016234763
-0.007919754
-0.0027394935
-0.0041208225
-0.015050022
0.035866924
0.014484921
-0.00557028
-0.029816944
-0.022351889
-0.032783974
-0.01486345
-0.0208619
-0.02440828
0.031837735
-0.013201703
0.018560937
0.04162556
-0.0041030315
0.019378848
0.0095118405
0.04146673
0.0050867316
-0.0129936375
0.02508124
0.013226209
-0.016826823
-0.053795166
0.0013457139
0.011066489
-0.019399738
0.04758141
0.022267384
0.0074331914
0.0027140607
0.003277854
0.018538406
0.01641637
-0.01666678
0.0058413516
-0.05574605
-0.00091246236
0.022266358
0.019224308
0.0024329408
-0.020604186
-0.006254308
0.0023588117
0.04149166
0.019255528
-0.02000801
-0.0045857257
0.015255379
0.007471677
0.027866252
0.006671803
0.008091028
0.015860556
0.034399815
-0.001190235
-0.002013656
0.03386911
-0.019444793
0.001419722
0.005315322
-0.0048267404
-0.031752415
-0.02529256
0.0061553805
0.011381543
-0.0031802568
0.002920438
0.007047596
0.010125932
0.05842911
-0.0053599696
-0.0047210017
-0.012148666
0.039482024
-0.0265954
-0.019355038
0.010881992
0.01533135
0.019718008
0.0046541817
-0.016247561
0.01741056
0.0046211504
-0.0161605
0.020945653
0.04924952
-0.009492832
-0.0034761594
-0.004332142
0.012417425
-0.04052278
-0.016897364
0.018678812
-0.038586803
0.0065015447
0.01977505
-0.010618548
0.015288928
-0.03876095
-0.016044078
0.03139851
0.0017115282
-0.0004290492
0.013344024
0.017885868
-6.9248636e-05
-0.017666895
-0.0045612766
0.038744688
-0.027285066
-0.0030297067
0.041757606
-0.031148378
0.00423996
0.0044053853
-0.018131105
-0.013981531
0.016248684
-0.036238056
-0.01604394
-0.020511825
-0.017180432
0.003745937
0.0032889508
-0.027355198
-0.023714723
-0.002650302
-0.01661582
0.0024814797
-0.018465996
-0.006101015
0.0026942473
-0.013713811
0.015403882
-0.01916174
-0.00042200193
-0.020198917
-0.009846317
-0.01621044
-0.014300074
0.013296456
0.0025463845
0.006287164
0.01846923
-0.009672637
0.028626392
0.03045433
0.009963552
-0.0036417302
0.0036780569
-0.011042279
-0.00048649203
-0.0046791774
0.0054643485
0.009347757
0.0072225067
0.023620704
-0.0104826195
0.006204618
0.0013488235
-0.00052421883
-0.006483471
0.0031881207
0.0012391465
0.0020991557
0.015055006
-0.009087249
-0.00072575256
0.01372128
-0.011196686
0.0013638824
-0.014333722
0.026134366
0.017094566
0.0034214784
0.027198348
-0.03140503
0.031973924
0.024835732
-0.0028216925
-0.05442587
-0.011775307
-0.0013785389
-0.035974313
-0.005876374
0.029138654
-0.0058384947
-0.010500448
0.023123514
0.01741838
0.046309132
-0.012729326
-0.021177124
0.020475576
0.02953957
-0.013729884
-0.004026608
-0.022708928
0.049323805
0.02090351
0.01765856
0.016448535
0.032690004
-0.0056080124
-0.009207853
0.028412243
-0.012562558
-0.009455625
-0.010769431
0.020075824
0.008821595
0.0058862236
0.010176248
-0.0020303999
0.026972568
0.018189073
-0.0023390963
0.0014820459
0.0050881905
0.008254803
-0.009043534
-0.0073512523
0.012241568
-0.031658445
-0.04354338
0.005836159
-0.018887559
0.0027274748
0.015899915
-0.045051917
0.0115385605
-0.006366302
0.029199822
0.018117188
0.02776978
0.028616956
0.008656927
0.008558958
-0.025580406
-0.034068402
-0.03001732
0.0010769354
0.0030443894
0.023110773
0.01842468
0.0091646295
0.0172643
0.019753166
-0.03309552
-0.008951101
0.01107265
-0.02610342
-0.007365953
-0.006768863
-0.00040417444
-0.015167769
0.032198515
-0.002149318
-0.0021167514
-0.003755069
-0.008274862
-0.0032511305
-0.028255709
-0.013522659
0.035501536
0.020740457
0.0047926777
-0.016937766
0.016721688
-0.020710282
-0.0004793376
-0.02692719
0.0071375207
-0.020185694
0.00085366465
-0.031070894
0.05073917
0.032544024
-0.014875674
-0.014765416
-0.012091188
-0.0066473973
-0.00251969
0.013706166
0.0099106785
0.0043444256
-0.01675813
-0.019112194
0.0021450943
-0.022462863
0.03180243
-0.005950705
-0.0076485965
-0.02134641
-0.010487361
-0.025830852
0.015854603
0.016718803
-0.0016511088
-0.034475658
-0.0033659574
-0.03368947
-0.0029848868
0.008429821
0.03622505
0.0019336249
0.0063429056
-0.015540547
-0.0025691404
-0.011374721
0.040737085
0.026953412
0.0020366884
-0.026779031
-0.027316712
0.011604289
0.05588483
-0.030869097
-0.0048334203
0.033665553
-0.039345864
0.02554595
0.009999928
-0.00905502
-0.014997475
0.01028714
0.021998689
-0.00017079937
0.0041334736
0.019084632
-0.00047452218
-0.021723887
-0.0044861147
0.015917903
0.020017268
-0.021727879
0.013002798
0.037677392
0.004062176
-0.0066403532
-0.015432237
0.0377057
-0.014478239
-0.031488366
0.040168267
-0.030330097
0.010162097
0.03674971
0.024451204
-0.040470887
-0.013282101
-0.006391826
0.023827957
0.0057036565
0.0120922765
0.014585135
0.016172824
0.01639441
0.028333854
-0.0053347377
-0.037048213
-0.0028299375
0.0045682406
-0.014176931
0.00271936
-0.019454043
-0.0032874125
-0.038750064
0.015376272
0.034070536
-0.015214779
0.025410417
0.018193504
0.05033965
0.028776571
0.005085918
-0.01404337
0.023144793
-0.009625299
-0.017636988
-0.0123314485
0.00736507
0.030711858
-0.04029801
-0.005776708
0.0028915564
0.008882132
-0.017072681
0.006736769
0.005300673
0.011678578
0.0014115163
0.0081040235
-0.007766273
0.012856294
0.0072902534
-0.009242176
0.016512467
-0.00088001025
0.011212631
0.0015978081
-0.023786869
-0.00425705
-0.009093621
-0.0057138153
-0.017214995
-0.025522407
-0.00021803308
0.007501192
-0.05268915
0.010034212
-0.011386715
-0.017020417
-0.018149907
0.04284072
-0.008972744
0.02195454
0.0073495954
0.026834833
-0.03859185
-0.010321639
0.012896915
0.021506764
0.00030217174
0.018684404
0.0030932366
-0.020664576
0.06152325
-0.01871579
0.021849092
-0.026043855
-0.024969125
-0.016741782
0.006540723
-0.0044806884
0.0014850893
0.04293047
-0.009120846
0.033860654
0.023881327
0.013515441
0.00015924957
-0.035062823
0.0073895245
0.008844641
0.020618105
0.02522813
0.025175063
-0.03128422
0.008179266
0.049678154
0.015350987
0.014352618
0.0010450967
0.031159531
-0.018754285
0.029771091
-0.025663756
0.0038911256
0.005469601
-0.012715706
-0.024827788
0.028673183
-0.00488183
-0.016390473
0.0022255825
0.021772355
0.01198361
-0.044656616
0.019715108
0.024991103
0.028363409
0.007565075
-0.0003467253
-0.03343381
-0.024280142
-0.0122415675
-0.021467855
0.031213349
0.008162034
0.012230495
0.025534648
0.00814336
-0.028943636
-0.018140884
-0.017613601
-0.01544426
-0.004234975
-0.0072936737
0.017940229
0.023617627
-0.0027163948
-0.0042014034
-0.029126879
-0.0043447814
-0.013177358
0.00484109
0.010547506
-0.0020764642
0.033915773
-0.008466827
0.011858064
-0.013654676
-0.039294645
0.0043863417
0.0012276088
0.00955478
-0.014612224
0.024252137
0.0043240148
-0.01734922
-0.011632506
-0.018639054
-0.009342915
0.038780257
0.004184261
-0.017803386
0.007977551
-0.031507727
0.024886008
0.0011204651
-0.018601878
-0.020885196
0.0172087
0.007199788
0.010045266
-0.015460868
-0.005430016
0.011060419
0.033889256
0.023282113
-0.0003314024
-0.053463496
0.029008279
-0.02064166
-0.0086217625
0.0047036633
0.025276152
-0.014361443
0.03686066
0.014115562
0.019424468
0.042977042
-0.019813279
-0.013909817
0.019344846
0.015373098
-0.0083974665
0.015358604
0.038736664
0.041165367
0.0059898864
0.014720406
-0.0017797933
-0.017735176
-0.037796665
-0.012573842
0.0034972285
-0.037141133
0.008698717
-0.03565919
0.029468779
0.039312836
-0.005650757
0.026457824
-0.008285993
0.030737167
0.006354133
-0.02927454
-0.027413813
-0.040775035
-0.0014988197
-0.017409997
-0.019213866
0.019922791
0.00192322
-0.008541635
-0.014751873
0.0147856455
-0.011314227
0.0017495358
0.012453697
-0.0052441168
0.028697204
0.031155402
-0.07575743
0.007908831
-0.0065800888
0.021118078
-0.05106565
0.005961381
0.013497439
-0.002708044
-0.00948794
-0.004586709
0.011992021
-0.0029033779
-0.00701683
-0.0039216075
-0.02857958
-0.008927627
0.014388124
0.03930949
-0.003654745
0.021480229
0.010653527
0.004153297
0.006050313
0.014043282
-0.0031937473
0.015342793
-0.012201532
0.008664231
0.0065245586
-0.041143034
0.020908313
0.02218995
0.0025658468
0.010530379
0.036001544
0.00839119
-0.0073757484
-0.030524427
-0.004413928
-0.014212211
-0.01106749
0.01833615
-0.027162928
-0.0058470834
0.0075662574
0.008120884
0.012154274
0.016871609
0.027197735
0.010346984
-0.0021962703
-0.015682597
-0.02160799
-0.0039232825
0.0017150207
-0.008448955
-0.0049951854
0.008623203
-0.0012780797
0.010596114
-0.0026919513
-0.008949524
-0.023282435
-0.022748629
-0.037070725
0.0010115509
-0.00014743693
0.020441119
-0.0062100696
-0.0030858126
-0.0008335388
-0.018241774
0.009044331
0.014582256
0.013963256
-0.043267004
-0.032203283
-0.00020156609
0.017774325
0.06922841
0.0010443117
-0.007682365
0.03459401
0.002732476
0.041171182
-0.006316152
0.014733027
0.018118761
0.0022365544
-0.006189457
-0.0054788277
-0.0028175083
0.0233639
-0.00073476596
0.0006135276
-0.027018124
-0.010791511
-0.007157522
-0.0058010668
-0.026626607
-0.01838359
-0.009625897
0.019025467
0.017868292
0.006958401
0.0015469475
0.0040762513
-0.006260702
-0.02098086
-0.045931038
-0.014743418
0.023450479
-0.008725768
-0.002202991
0.013164291
-0.0012223352
0.013536945
0.0027299826
0.030019023
0.045323808
-0.0035165602
0.018666077
-0.0003029146
-0.012642
-0.00023118363
-0.00054517365
-0.013732068
-0.03917339
-0.0070274193
-0.018044751
-0.014838944
-0.011125226
-0.018875752
0.0068892315
-0.00551254
0.027199162
0.009800315
-0.018720528
-0.044535436
0.009301622
-0.031236636
0.01460681
-0.013114259
-0.042886976
0.004521708
-0.0349306
-0.02571203
-0.00917208
0.020043187
0.006004445
-0.039151337
-0.033218656
-0.015734738
-0.010420392
-0.01934241
0.08196279
-0.0065100053
0.019259954
0.031181276
0.019496687
-0.0013663308
-0.026318822
0.026342897
-0.008000958
0.009989272
0.0020552124
-0.022238202
-0.0040006284
-0.033551935
0.017971354
0.022244794
0.009705362
-0.0124549195
0.022411741
-0.025877794
-0.02907437
0.016779654
0.0024294318
0.06991122
-0.00049382576
-0.025979657
0.0034969451
0.026395295
-0.017791668
-0.0010258415
0.02624579
0.026875734
-0.0057726107
-0.010805689
0.001722203
-0.0250419
0.01471439
-0.0038277702
0.0014737586
-0.003279827
-0.004842519
0.00037995438
-0.030405223
0.031645853
-0.044585012
-0.028815167
0.015815776
-0.023885993
0.0021785682
0.007861271
-0.015788471
-0.013352249
-0.001306111
-0.014462072
-0.031920437
0.0148508465
-0.007554016
0.035514217
-0.010388095
0.00914596
-0.0138720935
-0.0076635825
0.011544877
0.02587676
0.016475111
-0.014383475
-0.013034856
0.022786373
-0.0009767077
-0.020186147
-0.0011240281
0.0065732985
-0.0003101894
0.025372442
-0.018200919
-0.0003070791
-0.022670249
0.020184452
0.0040690354
0.022562753
0.029700613
-0.036541313
-0.0340934
-0.008373158
-0.024333011
-0.006836494
-0.0033354564
0.014413536
0.019197196
-0.020109786
-0.017450118
-0.005474782
0.010635453
0.0072979685
0.05259938
-0.0043512867
-0.017860604
0.021154065
0.014870411
0.007832275
-0.006538039
0.01915336
-0.0589577
0.007031952
-0.024942452
0.007291232
-0.03848061
-0.0038461424
0.020395666
-0.012433744
0.010926926
-0.024957735
-0.0033751822
0.0149948485
-0.017246637
-0.009073834
-0.029964186
-0.0015333028
-0.011656576
0.03489103
-0.0004963565
0.006378145
0.0019233405
-0.025337534
-0.028653555
-0.03232638
0.001083702
0.03132569
0.024931917
0.009871966
-0.023870718
-0.008188773
0.030739427
0.024755377
0.01707244
-0.001107012
0.014003528
0.009625209
-0.005586871
0.024488691
-0.018912544
-0.0056494055
-0.018096065
-0.0040965267
0.0035940995
0.010479161
-0.0017659384
-0.0022479345
-0.009277677
0.044552732
-0.024723057
-0.0005560647
-0.0097933225
0.025851961
0.008108408
0.009437626
-0.007103612
0.023019206
0.008340582
0.00347696
-0.013405995
0.0075551127
-0.013550483
0.0020781395
-0.010936535
0.009778088
-0.06310641
0.0022149088
-0.03157763
-0.01103682
0.010269748
0.01961271
-0.007647508
-0.013749416
-0.0008679915
0.011434502
-0.021742368
0.001488131
0.016161485
0.041577976
-0.024923837
0.016029028
-0.008739398
-0.019006096
-0.019714197
0.040338874
0.026805924
-0.046877835
0.0127471695
-0.0120699275
-0.014947074
-0.015708463
-0.023313574
0.016466098
0.011678661
-0.04928399
-0.013289627
0.0070116483
0.014665268
-0.009318618
-0.019182315
-0.007532369
-0.0014927118
-0.013943598
-0.006275233
-0.0130659295
-0.0005422006
-0.011934382
-0.004883497
0.017949142
-0.006897967
0.012784797
0.003667113
-0.014836935
0.03237403
0.016663529
-0.002461955
-0.022612495
-0.035236884
-0.041183718
-0.0074509224
-0.023869824
-0.007182111
0.004999568
-0.0006786914
0.00369254
-0.009403664
-0.010141697
0.017331582
-0.015239874
-0.0062937215
0.026515625
-0.0051010423
0.035433218
0.050502285
-0.0058442876
-0.012378012
0.020963106
-0.0031840706
0.030358119
0.039703596
0.0019486818
-0.00203674
-0.009146296
-0.03046585
0.0041461256
-0.0029220353
-0.026224056
-0.012527813
-0.0028789195
0.017550217
0.010918137
0.028254496
-0.032832958
-0.0056694155
-0.013064103
0.03313899
0.0013730015
-0.036948763
-0.011450133
-0.014686379
0.02416282
-0.027747625
0.0040511843
0.0034720898
-0.01380613
-0.015355097
-0.014441765
-0.004818908
0.0022241564
-0.01694482
0.010009723
-0.015179179
-0.030910688
-0.030011708
0.030824894
0.021357285
-0.018943066
0.04960272
-0.02251688
0.017307423
0.013000084
-0.013283662
-0.0028201665
0.0106100645
-0.011651986
-0.023523698
0.018514756
-0.0004182984
0.009511534
-0.005718988
0.021562262
-0.0024635931
-0.004113053
-0.0043474464
-0.02821713
0.009810047
0.0020081257
-0.014962251
-0.0059934645
-0.021511624
0.03574997
-0.014244022
-0.015984757
-0.02370886
-0.010198135
-0.024022805
0.022859033
-0.01955286
-0.015396817
-0.0063765994
0.017440097
-0.0010599035
-0.008040851
0.02296419
0.029351668
-0.01398007
0.0057974076
-0.015969697
-0.024094345
-0.024581747
-0.04516457
-0.008514523
0.008043881
-0.014284451
-0.0025336072
0.03441359
-0.0125066675
0.017567266
-0.008635856
-0.0033224507
0.019331867
-0.002433361
0.008709622
0.010251381
0.033318434
-0.032241203
-0.026753286
-0.029507918
0.0049226717
-0.027105615
0.026610173
0.013713305
-0.019174444
0.020798998
-0.0068714013
0.003688803
-0.007776042
-0.0061201463
-0.0241945
-0.00983055
0.012510574
0.0005920508
-0.029616097
0.018552316
0.018489243
-0.00863505
-0.0045590536
0.015170337
-0.031090237
0.048435386
-0.0053084134
0.024007516
0.011229306
-0.019329067
0.0049270154
0.011103732
-0.034690235
-0.0004327489
-0.019928183
-0.014537352
-0.013579758
-0.015461467
0.0015073844
0.02214879
-0.003174242
-0.031190207
0.020388931
0.021773487
-0.017818866
0.036627132
0.019309426
0.007010791
0.0068704626
-0.035601098
0.017832331
-0.023044398
-0.0017010391
-0.011197066
-0.01724962
0.003543734
-0.01620238
-0.01727798
0.031432796
0.0048197936
0.022532756
-0.0056000436
0.016492795
-0.02667166
0.011690546
-0.03978237
0.008441829
0.022078507
0.02049042
-0.015458822
0.010879802
0.026092606
0.010087453
-0.025054371
-0.025032423
-0.02594823
-0.0060011637
-0.014876686
-0.00777645
0.035304602
-0.0027911507
0.00151916
0.00805601
0.019191219
-0.018655436
0.0058298605
0.0044106687
0.019044487
0.015569126
0.026415067
-0.0023179373
-0.020679235
-0.020619342
0.0133425975
-0.01949432
-0.006402203
0.008909257
0.041280244
0.029813914
0.009220743
0.005881932
0.0034519583
-0.010695066
0.008612805
-0.039404128
0.0035972777
0.0066158203
0.002345468
-0.026435941
0.005569988
0.0022084818
-0.038532212
-0.029838096
-0.008618853
-0.004591964
-0.046653036
0.0017938534
0.0243744
-0.03173778
0.0111031085
-0.019748284
-0.024041036
0.010620178
-0.016966902
-0.011496528
0.012774336
-0.01737067
0.01878801
-0.031786527
-0.005793715
-0.005490935
-0.0018674786
-0.021103315
-0.0001981142
-0.03725575
-0.012208742
0.031965777
-0.02485595
0.029287936
0.00674508
-0.0045913393
-0.016841102
-0.013613058
-0.007585166
-0.04065596
-0.020799141
0.026577782
0.0050531263
-0.011050011
-0.00583421
-0.013152784
0.014305709
0.023239821
0.01454056
-0.0048605287
-0.014675951
-0.017820507
-0.0308612
-0.009167368
-0.019513147
0.016979402
0.010651197
0.039703425
0.010240128
-0.014092737
-0.0020387545
-0.016240941
-0.0005692087
0.027432889
-0.019637933
0.008474509
-0.015064091
0.009758862
0.025650632
-0.028170818
-0.02240888
0.0148186
0.032982834
-0.001665768
-0.009746493
-0.010620893
0.012808689
0.0031497942
-0.0005938424
0.009666344
-0.0071582124
-0.0046511376
-0.009915129
0.024874175
-0.03006162
-0.005941628
-0.020039277
0.03209825
-0.0027982541
-0.008959268
-0.044200085
0.03268929
-0.010563846
0.008591136
-0.0163374
0.019536411
0.0042467024
0.034829844
-0.028390834
-0.024882633
0.013821721
-0.003130338
-0.009631558
0.0098642595
0.0050439737
0.00455023
0.007521898
0.0064583933
-0.013293651
0.017901164
-0.0028030204
-0.014047707
0.0014735811
0.008475127
-0.015582083
-0.069135256
-0.0018819998
-0.019889263
-0.022353984
-0.008057726
-0.008083889
-0.021911634
-0.0023003898
0.017240208
-0.016051536
-0.0062650093
-0.030050118
0.013753845
-0.0019430908
0.011922268
0.00028671804
-0.0044249366
-0.04363777
0.0031372365
-0.019072311
0.00097531703
-0.015209865
-0.030043952
0.016432261
0.0499104
-0.009041513
-0.0017301419
0.015481641
-0.015302895
-0.0037913348
0.0066440618
0.021040391
0.021999853
0.02671983
-0.013215457
0.004652021
-0.017035374
0.009525691
-0.017168684
-0.03305496
-0.024389956
0.010716553
-0.00938299
0.015156218
-0.0076829675
0.001875545
0.024616634
0.0194365
0.005498459
-0.014306079
0.014614889
0.0027090306
0.030632595
0.0017269065
-0.020226616
0.0020901754
0.017421935
-0.001903346
-0.011820333
0.015694836
0.022231314
-0.0046717934
-0.0067965435
0.0017795681
-0.01552458
0.016990798
0.008571475
0.04978483
-0.01959099
0.0026032615
0.006783437
0.010556941
-0.0034959097
-0.031891506
-0.013710457
-0.06653323
-0.010411744
-0.015898556
0.020223465
-0.011801324
0.011120043
0.018421378
-0.03440695
7.3735406e-05
0.010658034
0.056345943
0.016576914
0.011381444
-0.019831005
0.0036651792
0.0459242
0.006152431
-0.023413142
0.04264249
-0.04415393
0.01597808
0.040590562
-0.0082582
0.011823944
-0.026603667
0.0074246167
-0.020855758
0.0072800913
-0.013381829
0.010353782
0.0231873
0.013038479
0.00072416366
0.028447619
-0.00029968822
0.02610299
0.0062627145
-0.020979319
0.016694112
0.0121547235
-0.028429467
-0.020078944
0.02270321
-0.03123762
-0.021120286
-0.0049043256
0.0117471935
0.0059093283
0.012063714
0.0026368266
-0.012989985
0.008998666
0.049218416
0.009339392
-0.03910436
0.016151857
-0.016150111
0.013010789
-0.0058049103
-0.013093476
0.0102799
-0.0100604
-0.03646965
0.0040323455
-0.0017260325
0.020347191
-0.024048531
-0.0431469
-0.017367495
-0.011048732
-0.0049405643
0.006922375
0.018110314
0.0017095054
0.0107689435
0.0035667594
0.019013628
-0.061687507
-0.0016505658
0.012576346
0.0044804825
-0.017247735
0.009715466
-0.014177713
0.011401911
-0.012398413
-0.012559501
0.0312018
0.029433714
0.021169981
-0.0125178965
0.043275047
0.008513032
-0.0035502992
-0.0007026394
0.023314342
-0.012151643
-0.023081219
0.0053946204
0.010802108
-0.017525999
0.012674047
-0.0066778786
-0.031965047
-0.045951586
-0.0079560615
0.030693073
0.0019865972
0.015367165
0.0065330826
0.019140678
0.021166498
0.028522952
-0.012585939
-0.019449953
-0.037828818
-0.04111781
0.023191378
-0.02380448
-0.0033104508
0.034935452
-0.0067465655
-0.02914556
0.0011391367
0.0063126916
0.003410661
0.045633134
0.011267311
0.0072474545
-0.007608681
-0.062282823
-0.019909091
-0.009777552
-0.004028835
0.018646883
-0.031501457
0.0018290933
0.016313616
-0.013412803
-5.0957646e-05
-0.026994143
0.0060221097
0.033187315
0.031055545
0.013370562
-0.01768103
-0.011379403
0.0118744895
-0.0081269955
0.0030078273
-0.029511249
0.03389701
-0.014202532
0.0155566735
-0.017454933
-0.007270803
-0.013107434
-0.0080216825
-0.041175798
0.035480153
0.0039930227
-0.010734716
0.02430385
-0.0069845733
-0.029883424
-0.0030628943
-0.014663188
-0.0025647976
-0.008070673
0.0048328466
-0.0033212965
-0.021327546
0.025943931
-0.0039904113
-0.0025414035
0.0039129127
0.055126175
-0.010062137
0.059266064
-0.017042888
0.012441633
-0.029351167
0.029405616
0.013815412
0.03426605
0.034819506
0.042234972
-0.0033901287
0.0044843596
0.015685229
-0.0027510005
0.037067764
-0.04582693
-0.036403824
0.0075885677
0.008563097
-0.014832308
-0.018466676
0.024074866
-0.006643634
0.019938463
0.00035248484
-0.029172659
-0.0052488605
0.008744903
-0.005152669
-0.023316065
-0.008507769
0.005965369
-0.0010640852
0.020797065
-0.0014059338
0.00030486987
-0.03839848
-0.027814416
0.00381866
0.024475897
0.011609927
0.005821654
0.006479506
-0.0046845204
-0.023477046
0.019751146
0.04685336
-0.005640466
0.0110754
0.0122968685
-0.008229072
0.026254624
-0.02520162
0.010432899
-0.033960484
-0.016595928
0.014063288
-0.023286534
0.005485861
-0.0026793173
0.022941224
0.024753204
-0.015289807
0.013420526
-0.01981036
0.017091937
-0.006634675
0.012182895
-0.008350614
-0.0055813864
-0.027556915
-0.020493135
-0.054332823
0.024333889
-0.014301736
-0.018724335
0.019373484
-0.020084662
0.012514949
0.033584736
-0.01634023
-0.006024842
-0.00076402177
0.026845792
-0.018353296
0.018041551
0.0024967927
-0.0055858945
-0.016726637
0.0052084373
-0.00028871748
0.029092954
-0.03540935
0.0012435728
0.0046130177
-0.009576777
0.02264876
-0.032091293
0.023679776
-0.044180788
-0.018702546
-0.009658565
0.0023182328
0.003277274
-0.012867789
-0.025955286
-0.0011780153
0.0015304649
0.020419912
-0.008077449
-0.0058760173
0.0033439605
0.01078227
0.013397789
-0.0005795329
0.010363486
0.057080567
-0.021575596
-0.0030741456
-0.023763523
0.040057905
-0.022677185
0.043314338
-0.0030387992
0.018796738
0.0072584962
-0.0052162823
-0.010552349
-0.04307025
-0.033307698
0.0012350891
-0.024552371
0.03415778
-0.018366812
0.0179988
0.013277114
0.0045152497
0.023859926
-0.009461133
0.008803299
-0.027030395
0.014666153
0.028645925
-0.030688774
0.0056940624
-0.008653375
0.014759492
-0.01718388
-0.004996341
-0.020189771
0.009432452
-0.017133618
0.016589684
0.015192422
-0.0012691832
0.013682465
0.019137058
-0.016161818
0.036118634
-0.021431731
-0.02252504
-0.02469068
0.013717503
0.019733245
0.0015273384
0.0092580505
0.06207604
-0.014596084
-0.01699636
-0.026685094
0.015395375
0.0052562347
0.004440992
-0.03733931
0.00027523385
0.0045238063
0.028495397
-0.031037953
-0.00973182
0.010756812
0.0020245272
0.0016700189
-0.028163366
0.019510861
0.021420516
0.028065218
0.021867696
-0.00014934575
-0.023916133
0.023704378
-0.0011089992
0.017803688
0.0002343697
0.0016286671
0.0026458262
-0.044477087
-0.0039838776
-0.034764525
0.013141627
0.0044777915
-0.016100168
-0.004185918
0.013869277
-0.041275755
-0.025016379
0.011216156
0.029897967
-0.0072662714
-0.025566794
-0.017535985
-0.021254953
-0.0072580413
0.025068194
0.005943039
-0.01637227
-0.01963503
0.022599263
-0.01679208
0.011070311
-0.012300164
-0.015344732
-0.0020270539
-0.01345426
0.00031545985
-0.029264817
0.008007873
0.0009872302
0.0047241617
0.00038289756
0.0058138454
-0.011960085
-0.019744715
0.0020990574
-0.02466958
0.020720158
0.008870686
-0.005537875
0.029344589
0.0009360308
-0.0062884665
-0.014698578
-0.0038834093
0.02081001
-0.001072401
0.011399968
0.0061912974
0.0042344355
-0.025617054
0.01943148
-0.024917051
0.006636214
0.005285615
-0.015058647
-0.051931046
0.019538071
0.014139174
0.016654104
-0.0032227742
0.010639757
-0.012836922
-0.022652311
-0.05274312
-0.012843517
-0.0050385473
0.06078303
-0.0030609488
-0.0073291683
-0.0037951951
-0.0019670369
0.052793264
-0.007382209
-0.004594211
-0.018696547
0.012250812
-0.0039200834
-0.003246324
0.026549194
-0.0032806892
0.03985317
-0.024269568
-0.0055591003
0.0096547175
-0.042228475
-0.04673035
-0.0020584234
-0.02300641
0.006335328
0.0023869367
0.020579433
0.020595882
0.0076872394
-0.015950011
-0.0019602904
-0.011208858
0.0069147074
0.046335377
0.0010353712
0.011250185
0.022165762
-0.014677233
-0.006652054
0.012192875
0.043462552
-0.0029732669
-0.0034162132
-0.03329805
0.0057464945
-0.0008933965
-0.019197736
0.013244005
-0.010891484
0.005890577
-0.044966
0.0071772393
0.011726786
-0.0075777047
-0.008396221
0.008414183
0.010841234
-0.005409222
-0.01475011
-0.023476698
0.011916606
0.012779769
-0.01140497
0.017840907
0.012836743
0.018738214
0.0015066506
0.015597682
-0.0032191225
0.034357972
-0.025475828
0.015132257
0.002692425
0.0031954937
0.01939598
-0.021376694
-0.03692963
0.027980642
0.041341286
-0.019045984
-0.025784781
0.024849365
0.011463278
-0.030136503
-0.023217518
-0.01689673
-0.02999328
-0.017260091
0.009877555
0.013489004
-0.0044482755
-0.038017474
0.020089902
0.014660233
0.024492765
0.026836865
-0.05072272
-0.02116042
-0.0026934084
0.04749163
-0.020833867
0.024503201
-0.019439397
0.006441605
0.015546226
-0.020646797
0.012630895
0.0022586673
-0.006018452
-0.010283143
-0.024884168
-0.009648762
0.0054957536
0.011411804
0.001513983
0.013738768
0.01247958
-0.020907816
0.046496842
0.0035845367
-0.003231662
-0.007232385
-0.004379025
0.016727163
-0.022379458
0.0024346788
0.01942407
0.022712309
0.0058963303
-0.011181517
0.002813399
-0.03891804
0.015709693
-0.022481253
-0.05768734
-0.013725309
-0.023848526
-0.022825573
0.007853922
0.018457633
0.004417069
0.013326209
0.0210995
0.0023370595
0.03003215
0.022406727
0.009890429
0.009787738
0.0029213747
0.029995015
0.003722132
-0.006219821
0.0013868822
-0.018839624
-0.015613532
0.0037510954
0.070126206
0.027358115
0.02359565
-0.008210911
0.009598716
0.041266616
0.02577809
0.0048667444
0.04300991
-0.02507091
-0.012514971
0.021170625
0.02121018
-0.037362687
-0.005558202
-0.003671286
0.004313701
-0.004501022
0.007992297
-0.026414271
0.007646433
-0.00075299613
0.0013605426
0.026428198
0.0045106825
0.014198932
0.0033825515
-0.0058484655
-0.045269232
0.017737942
0.026109964
0.00029990534
0.027778186
-0.03200674
-0.007902286
0.005903785
-0.007252875
0.0034387254
0.01698233
-0.019315584
-0.0076316493
0.027621705
0.015785463
0.0008578099
0.032777525
-0.01644732
-0.048568167
0.012407227
0.039817754
-0.0026945088
0.023651559
-0.010387058
-0.037844967
-0.0010855343
-0.01018753
-0.00030756262
0.020696532
-0.017623939
0.006477955
0.0047481037
0.02369986
-0.018845871
-0.011201773
-0.012994204
-0.001798436
-0.016066806
0.031243522
-0.00420026
-0.0018605011
0.004015011
0.002401092
-0.006565439
0.0016348682
0.004739019
-0.012215585
-0.011500232
-0.022489252
-0.0023455017
0.016700238
-0.015663471
0.009737959
0.014244637
-0.03375342
-0.025170872
0.018728347
-0.0025761046
0.024085244
0.0022806062
-0.017342795
-0.0010312045
-0.001469347
-0.0061990516
0.0028300574
0.010257586
-0.013797025
0.022177538
0.01465311
-0.02762781
-0.011820327
0.03655798
-0.015508991
0.011252746
-0.01068246
0.0033120548
0.015600759
0.025425343
0.010862535
0.0016509952
0.016697882
-0.040692654
0.01810517
0.01576032
0.008277827
0.0033489938
-0.038791947
0.026360761
0.0063461554
-0.01160892
-0.0026773682
-0.04304721
-0.003813231
0.010333641
0.011746385
0.0017593002
0.011541446
-0.020288479
0.013511965
-0.0061228457
-0.022577448
0.010562649
-0.010535889
-0.023689955
-0.019346928
0.024218824
-0.008237257
-0.010345774
0.009802012
-0.010823306
0.019163882
0.01091419
0.03702793
0.011301756
-0.0055743074
-0.014401479
0.0014632622
0.011979487
0.02966507
0.035535034
0.014086555
-0.008270375
0.0064139524
0.006317651
-0.031024925
0.017042913
0.009341708
-0.016591748
0.014914459
-0.008644763
0.02444746
0.03200108
-0.017017346
0.0026744257
0.052752566
0.028101185
-0.010335102
0.029407954
0.008671492
-0.039436083
0.00541943
-0.022595264
0.002697826
-0.019506138
0.013277588
-0.011776032
-0.011267495
0.02876889
0.016443761
-0.009789274
-0.0029159428
-0.001133813
0.002162231
-0.024649242
-0.011803594
0.024730973
-0.0009459649
-0.018931435
0.011726452
0.011922569
-0.012908954
-0.010667078
0.007954752
-0.0144180935
-0.0036489782
0.030473882
0.013884973
0.0110440515
0.024121849
0.008815085
-0.0032810871
-0.010734635
0.033633754
-0.0007749588
-0.016413616
0.005351767
0.007186275
0.0076797507
0.015142481
-0.023956044
0.030360201
-0.030744331
0.05960838
-0.042207234
-0.015634391
0.0053061605
-0.017995829
-0.014098893
0.026798857
0.00350098
0.03860344
0.019277174
-0.03853954
-0.02651032
0.011010998
-0.003184494
0.037885893
-0.0039660437
-0.014194727
0.0055993693
-0.012359587
0.011575056
0.022429537
-0.01510859
-0.0031302157
-0.009184163
-0.0015689951
0.014642851
0.017548198
0.026810613
-0.0070493505
-0.0029869813
0.004463346
0.005021668
-0.011598802
0.00986241
-0.007155328
0.011669459
0.030488595
0.017296406
-0.017073965
0.014470936
-0.007957003
0.011459402
-0.018831959
0.006492686
0.00026793935
-0.020996757
0.02335648
-0.0121287415
0.040304624
-0.0077276733
0.009477216
-0.004781939
0.021166531
0.032406915
-0.0011386992
0.0038970637
0.017692544
0.016516548
-0.030152095
0.054115213
-0.0074493717
-0.023826448
0.018170483
0.01686575
0.012075863
0.004648525
0.019933019
-0.05237295
0.0048302175
0.02164003
-0.0033535282
0.029807061
-0.003466751
0.003210049
0.0073931557
-0.014116219
0.0025172248
0.0026228887
-0.019815505
-0.005488356
0.0027420651
-0.03190427
0.0015129932
0.0063863685
0.020352788
-0.018569695
-0.009367489
0.03320577
0.009014942
-0.0053505907
-0.008227873
0.0027082767
0.020497017
0.01121468
0.037148587
-0.0017899192
0.008764978
-0.04905507
-0.0057897572
-0.028188208
0.008355205
0.04240226
0.018342119
-0.016144836
-0.021445852
-0.023718063
0.0072186687
0.025853014
0.021468367
-0.0036245333
0.01666768
-0.001925789
-0.0007310106
0.0015755114
-0.029813292
-0.020148214
0.00662237
0.009291766
-0.017399019
-0.019590063
0.020867238
-0.015132912
-0.039098103
-0.0033552444
-0.0050204783
0.018091155
0.018917803
-0.021003017
-0.024584932
0.022174755
-0.026883908
-0.0056394725
-0.010084865
0.027180824
0.0146528
0.026012441
0.010479854
0.007766579
-0.003783503
-0.0030583942
-0.03756894
-0.012931395
-0.005957199
-0.060826726
0.014391586
-0.00055965915
0.019768339
-0.0036100014
0.014698843
0.0127190035
0.018130327
-0.0072233556
0.017603396
0.008444572
0.042721227
-0.010085866
0.0050240583
-0.012144444
0.01799963
0.002629784
0.023153564
-0.0049495283
-0.017971287
-0.018285135
0.015052761
0.010791333
-0.010907201
-0.011430144
0.02472847
-0.029553756
-0.005824155
-0.0036348768
0.017957807
-0.03594041
0.035592563
-0.0063661505
0.025606794
-0.01652182
-0.011715331
-0.0027730737
0.010310622
-0.007152392
0.026523309
-0.015954694
-0.011549933
0.0047988673
0.01672569
0.013878148
-0.0304928
0.031515054
-0.00980197
-0.034838915
-0.006059076
0.026923139
-0.033593643
-0.0125409
0.007351906
-0.0072794794
0.0028835973
-0.017012198
0.031328067
-0.002512397
-0.037078805
0.004406315
0.012743385
0.021456104
-0.002076216
0.001450081
0.013189827
-0.002638137
0.04111406
0.00507593
0.008201919
-0.0016014108
-0.011447445
-0.014185069
0.006716787
-0.013022486
0.037157204
-0.008071986
-0.026152717
-0.0026834428
-0.036671933
-0.029019948
-0.024110047
0.012928721
-0.022712281
0.026099166
0.008196134
-0.033135656
-0.012009053
0.030295083
-0.009314179
-0.019226177
-0.02005814
0.00041489626
-0.00857395
-0.013686702
-0.0039070672
-0.013063271
-0.004869207
0.0034609588
-0.010637747
0.010633477
0.010736866
-0.014719313
-0.018611837
-0.016827187
-0.027884295
-0.0018926588
-0.0023847152
0.02274648
0.0006581365
0.013636633
0.013916162
0.036214128
0.004274716
0.0061483174
0.008565709
-0.0069859284
-0.012192497
0.013653692
0.018448476
-0.021342529
-0.04527336
-0.0077380496
-0.0047183675
0.00955271
0.014928816
0.003491011
-0.015262329
-0.0120338285
0.03966397
-0.018251896
-0.03662834
0.0047544544
-0.015296519
-0.0043500434
-0.0038814738
0.02611801
-0.013268368
-0.0031253162
0.0110288
0.007093343
-0.023284854
-0.008423692
-0.006284385
0.021217164
0.013211033
-0.004939748
-0.00066860445
0.0072160778
-0.015794605
-0.019247213
-0.014716866
-0.005151338
0.034018457
-0.0023900638
-0.011059297
-0.019205723
0.016800372
-0.01869707
-0.00092509884
0.011055978
-0.0090845525
0.002445918
0.026990823
0.018756837
0.012338025
-0.033269655
-0.007538351
0.03096657
-0.024107313
-0.018824395
0.02550507
-0.0061589614
0.009905549
-0.026726069
0.0201498
0.019952403
-0.0012068506
0.023145745
0.0019784998
-0.029128555
-0.0061512874
0.0034203234
-0.018886374
0.007786289
0.011981926
0.022563666
0.000989272
0.01337854
0.016133253
0.0035320183
-0.0044653327
0.005613898
0.023201773
-0.023889413
0.013702091
-0.01507837
0.007343397
0.009389516
-0.040217526
0.0026407342
-0.0026388383
0.020125007
-0.0017364116
0.014305134
-0.011143681
0.010044303
-0.026281392
0.008219969
-0.009575322
-0.0068614874
-0.011470306
-0.0033491324
0.027992377
-0.008438087
-0.016927
-0.032401398
-0.028159518
0.02141246
0.019499324
0.009524348
-0.0396045
0.025988013
0.008352366
0.0038945442
0.009581853
0.015198075
0.012731943
0.008253285
0.028914325
0.038872346
-0.017066965
-0.023293752
-0.014148576
-0.017740622
0.0135503495
-0.016114626
-0.0021534984
-0.0056498316
0.016858
0.009798126
0.005676331
0.038025975
-0.049278583
-0.0016152583
0.024566995
0.0006161674
0.021083178
0.013597285
0.009554575
0.0037520765
-0.02125055
-0.02481985
0.029903773
-0.0057947896
-0.011310872
0.01038268
-0.0043423804
-0.009557541
0.012042971
-0.038023718
-0.017430976
0.0029642435
0.020694762
0.0005611965
0.02631549
-0.014347809
0.006354116
-0.0056884554
-0.0032075536
0.019063402
0.013821423
0.0029029308
0.0151289
-0.014223981
-0.009766964
0.028850108
-0.02853373
-0.00037462224
-0.022334602
0.012434649
-0.010927355
0.028279679
0.0008720307
-0.02767545
-0.006438767
0.03733068
-0.016074724
-0.012861694
0.0034370148
0.048925765
0.0107006235
0.017397838
0.0016576019
0.022064898
-0.03417096
-0.034031924
-0.018587561
0.0023578731
-0.00862245
-0.03463308
0.00782862
-0.009870721
0.004609393
0.020384196
-0.01496393
0.024141628
0.0004276342
0.008637586
-0.04055212
-0.015160154
-0.005121649
0.022066927
-0.006699808
-0.011568641
0.020037306
-0.009443676
-0.009037588
-0.018432459
-0.00034466735
-0.01129905
-0.005990502
-0.0349145
0.005332877
-0.031005623
0.025133928
0.009013041
-0.04563753
-0.024383204
-0.01567912
-4.3230986e-05
0.011044304
-0.006562217
0.008579793
0.035247896
0.016464682
-0.024135288
0.006144478
-0.045680344
0.023123486
-0.03801803
0.006827855
-0.024178874
0.0145799825
-0.01047596
-0.035457864
0.010721449
0.02146862
-0.017176364
0.041407194
-0.019635517
-0.02246414
0.0020703448
0.024015026
0.0051227855
0.018101892
0.0015451945
-0.00028105985
0.019403309
0.018443419
0.019282268
-0.027377386
-0.025030822
0.009771875
-0.019438947
-0.016359868
-0.038485005
-0.017337797
-0.024274692
-0.0069953203
-0.023501838
-0.020464066
-0.010942489
0.022918126
0.013232279
-0.032647703
0.023063134
0.013134148
0.0038525355
-0.02068289
0.010608679
0.009617868
0.011373214
0.013801457
0.014346459
0.013936235
0.004829963
-0.0048541212
-0.016976815
-0.03392225
-0.0036843698
-0.011503354
0.029736489
-0.0036826944
0.010703415
0.028674101
0.041049507
0.012076593
0.0088659255
0.00637145
-0.025955254
0.017730651
0.017927153
-0.01633635
-0.046357766
0.0019982457
0.0065877223
0.039889324
-0.017109852
0.012540734
-0.023780169
0.025082521
0.0015574773
-0.022838838
-0.0145396525
0.018203298
0.007555633
-0.026034666
0.0029671108
0.008782902
0.02656289
-0.0035306793
-0.025871005
-0.016871907
-0.014171693
-0.0034014543
-0.008939792
0.008936793
0.004670854
-0.01709637
0.024735836
0.0130338045
-0.0046719112
-0.009131434
0.012811184
-0.011913414
0.0020702146
-0.038068064
0.012817121
-0.0014747741
0.0146555705
-0.0014230955
0.01681758
0.011911943
0.003444854
0.029852461
0.031357337
-0.019285353
0.03918812
-0.021249443
0.016565187
-0.016104715
0.0023190165
0.016334187
-0.004595452
0.026560044
0.013297611
0.029486017
0.0031840606
0.026423933
0.046003375
0.022873046
-0.012815642
-0.005817935
0.0067220447
0.019151341
-0.0024746011
-0.042650197
-0.006483097
-0.00059011485
-0.0003664936
0.0040504225
-0.005400326
0.030453758
0.017345697
-0.004395058
-0.004869947
-0.01514463
-0.026984513
-0.02390385
0.0040341783
0.016612004
0.011060289
0.015895026
0.025686016
-0.01912953
-0.014620193
-0.022662992
0.0063715363
-0.0054582153
-0.02123588
0.0053120977
-0.013776449
-0.016598096
0.029613156
-0.02125204
-0.0008348647
0.01357764
0.030195622
-0.023494963
-0.0028804105
-0.005139298
0.008235914
-0.0067442916
-0.005616191
0.010599875
0.00469825
0.029291311
0.012144796
-0.0017752692
0.020553503
0.0072231567
-0.010149419
-0.024323909
0.034126893
0.015112515
9.898394e-05
-0.017346937
-0.0004763356
-0.000812385
-0.017310215
0.0005652966
0.023273611
-0.00071861525
-0.02512803
-0.008092797
-0.013488501
0.0015433093
0.017307498
-0.01723282
0.03702921
-0.007903574
0.029583706
-0.0060139894
-0.0028719043
-0.0031478645
0.006262747
0.027402468
0.026670072
-0.029060164
0.0043204236
0.004478609
-0.0074653607
-0.0017925596
-0.015761834
-0.03577319
-0.023242095
-0.019574616
0.021501219
0.024556097
0.008137666
-0.0064279353
-0.023881167
-0.030185483
-0.007528583
0.025468871
0.02851264
0.0020212918
-0.007026846
-0.0010952005
-0.017912878
-0.022775229
-0.009325542
0.022550706
-0.009938859
0.029554665
-0.016743965
0.0012895372
0.030741021
-0.017881785
0.012865181
0.02864421
0.016381156
-0.012781208
-0.03012085
0.0068117166
-0.0133690545
0.0035253176
-0.0051027713
-0.020292081
0.005878393
-0.010028726
0.004666342
0.0017323887
-0.0060495534
0.000976161
-0.003529994
0.012365526
0.0129014645
0.0043215635
0.0042380616
0.036759045
0.026178356
0.018141614
-0.027207231
0.024163937
-0.0137746595
0.030203214
0.022920832
0.012056212
0.017960776
-0.010628726
-0.02068938
0.0033501668
-0.010099574
-0.04399917
-6.340263e-05
-0.0012359698
-0.02421645
0.0024831428
-0.032528084
0.02104973
-0.03167782
0.009573717
0.03041564
0.02509255
-0.016519612
-0.013219373
0.008116083
0.011791276
-0.0056967638
-0.024056919
0.006463219
-0.028884424
-0.009593099
-0.017829789
-0.01330348
-0.008342311
0.004464726
-0.03720102
0.007065695
-0.0031490086
0.023643686
0.006045216
0.02722675
0.0013303317
-0.004897618
-0.0061009517
-0.024640111
-0.00043040837
-0.025593303
0.01335395
-0.0049544116
-0.034124684
-0.027007954
0.0003089046
-0.0314864
0.006003772
0.01958893
-0.03447133
-0.0048701284
0.022802439
0.00045410046
-0.025948567
-0.014275949
0.031511158
-0.017430373
0.0026958801
-0.020486996
0.011649675
-0.013915805
-0.044324484
0.003605548
0.011565945
0.012118081
-0.02073679
-0.00068290957
0.020386986
-0.0008819288
-0.012652455
-0.024722466
-0.019360395
0.038128816
0.03768402
0.0027728966
-0.04990434
-0.016723601
-0.010503928
-0.008873225
-0.012138589
0.0125390515
-0.024091724
-0.03430672
0.004136747
0.0018375408
-0.027374156
0.005903406
0.014181331
0.0453761
0.020369206
0.0019387422
-0.03547832
-0.009434074
0.027199995
0.010962325
-0.02584721
0.0011983151
0.015308934
0.0033407235
0.011024293
0.012854781
0.005917043
-0.00082886376
-0.018886924
-0.0063872472
0.004218949
-0.014530652
0.0054222015
-0.018248292
-0.026273925
-0.041870087
-0.016209897
-0.0052378285
0.0052125333
-0.0062924796
0.039631777
-0.019225005
-0.012303157
-0.016858196
-0.0036684456
6.848009e-05
0.01014652
-0.015175812
-0.0046309456
-0.01606491
-0.0073728873
-0.014362397
0.01128607
-0.037982557
-0.00355086
0.0069199996
-0.012941827
0.0067510465
-0.031149883
0.006002199
0.035680376
-0.03340188
0.015988937
-0.0006592822
0.012951344
-0.016355194
0.02748652
0.013235098
-5.029826e-06
0.0007523447
0.025036125
-0.0026598242
0.029292442
-0.012493513
-0.020537151
-0.035319675
0.0035827586
-0.0074136327
0.0028945582
0.011227471
-0.035147186
0.020993916
0.018066099
0.010995794
0.009867672
-0.024544945
-0.008877322
-0.012136534
0.017986823
0.008366926
0.01732687
-0.017594736
-0.0034811662
0.0011576839
0.019805353
-0.0031904273
-0.025594344
0.007569288
0.0072588716
0.010597625
0.00713649
-0.0024071275
0.0022165347
0.0015358464
0.02062289
-0.0054275715
0.038636856
-0.033035353
0.0164789
0.004618766
0.028247437
-0.0026894184
0.009759274
-0.028131714
-0.015350225
0.012556171
0.02584761
0.012503136
-0.0012559972
-0.0035216261
-0.0015505679
-0.026508152
-0.007227609
0.027461233
-0.0021697038
0.0027370725
-0.017906396
-0.0067591863
0.019981408
-0.0004090346
-0.009119945
0.018330496
0.0017947695
-0.0063752043
0.021480368
-0.03772724
0.023623979
-0.0704038
-0.011295633
-0.01498841
0.0072794924
-0.023273055
-0.014006058
-0.005392891
0.0043064724
-0.007659105
-0.015796004
-0.0014278718
-0.0036850318
-0.00796679
-0.015965719
-0.009909908
-0.007828408
-0.015258765
0.011794205
-0.0058728205
-0.02941934
0.01990855
0.020261886
-0.031641793
0.031181268
0.012743413
-0.018063078
-0.017344298
0.0178459
-0.011263195
0.016036866
0.0310996
0.031071298
-0.008409159
0.009398028
-0.036140446
-0.037165545
0.008377867
0.031340074
-0.0033987626
0.012025352
0.0111050075
-0.045006733
0.01709476
-0.005666416
0.009057751
0.007299037
-0.010184742
0.0033426362
0.013709057
-0.017564807
-0.010298861
-0.022851182
0.021867098
0.0036528762
0.0019605828
-0.01435334
-0.0072761266
-0.019770361
-0.03292093
0.009889077
-0.0322533
0.0044643814
-0.01017659
-0.00452061
-0.027117841
-0.004418045
-3.238165e-05
0.011394263
0.01181602
0.0034400038
0.026571974
-0.003880183
-0.007905251
0.012923583
0.001565621
-0.0040021366
0.016312812
-0.01879185
0.015086877
-0.0037567802
-0.03093689
0.016159723
0.009839422
0.015844071
0.008911019
-0.055911798
-0.0011638246
0.021764096
0.007122803
-0.030844359
-0.016192503
0.0063541112
-0.017229235
-0.0085444795
-0.011352039
-0.027237117
-0.03574228
0.01267601
-0.040532313
-0.01780976
0.007889268
-0.020484349
-0.026074054
0.02850256
-0.009436322
-0.012762964
0.016865056
-0.0030631896
-0.040818166
-0.016370071
0.023855763
0.042791016
-0.0058977325
-0.0024196282
-0.015993552
0.021282587
-0.028868781
-0.004317153
-0.0017061305
0.027937042
-0.02642251
-0.028076155
-0.02700004
0.02145317
0.046040896
-0.009921757
-0.00018987575
-0.03622215
0.00058905274
-0.02163836
0.0638881
-0.005963506
0.019139005
-0.0040499326
0.002261654
0.0016764846
-0.0030396
0.0016855913
-0.02831619
-0.0061176247
-0.0095200455
-0.034701873
-0.032969993
0.008174304
0.003283894
-0.0033300146
0.0065996796
0.0032583836
0.004231894
0.052987173
0.008412978
-0.017428668
-0.042715125
0.0029705851
0.027486505
-0.0074631805
0.015789049
-0.0123458095
0.009401319
0.0042483527
-0.006290517
0.0018519062
-0.029640064
-0.0137524735
-0.022384813
-0.018844355
0.03447468
-0.0056309537
0.01213911
0.01919869
-0.025643587
-0.011591802
0.0049256873
0.007964978
-0.003101331
0.047902524
0.058340516
-0.023441173
-0.014269167
-0.011284126
0.033189975
0.022385428
-0.0048074536
-0.013068054
-0.016312124
-0.0038723408
0.008231143
-0.0015995234
-0.014009273
-0.023745844
-0.016426133
-0.011960793
-0.011902197
0.02605171
-0.043464873
-0.0073645203
0.007311453
-0.06329972
-0.02168448
0.017242951
0.0062958226
0.012373744
0.009595336
-0.0035204317
0.0010697047
-0.0034187406
0.014500445
0.008163118
-0.018361725
-0.0048352024
0.012724515
0.04635803
0.026669191
-0.013636427
0.019262604
0.0071540247
0.0009986276
-0.0058514928
0.010198519
-0.014912014
-0.0047605745
0.035203073
0.025319759
0.007122517
-0.0075042835
0.029700968
-0.00414445
0.011593902
-0.0037808924
0.008407937
-0.032313544
0.0034652601
0.015264479
0.019706232
-0.010535152
-0.0037595155
0.0034204053
-0.025938345
0.03893185
0.010812581
0.0143489735
0.0046060304
-0.014742581
0.006030057
-0.01071047
-0.0052463217
-0.008904433
-0.00709778
-0.021049123
0.02713173
0.021132933
-0.02531188
0.009549685
-0.006082905
0.019949531
0.016399134
-0.011234841
-0.0076500275
-0.0358234
-0.0015970652
-0.022274656
0.017915307
-0.01759942
-0.028657822
0.029875314
-0.024476998
-0.023211258
0.022151966
0.017714549
-0.02853586
-0.027890984
-0.0052528405
0.022985512
-0.014373798
-0.0077887485
-0.009270418
0.033014916
0.025087973
0.02594352
0.0074558556
0.0046255174
-0.004621817
0.015386333
-0.016871355
0.0047200597
0.02367332
-0.009404265
0.022272935
0.001408078
-0.029181352
-0.0035249977
0.016460333
-0.014845717
-0.009882288
0.017327236
0.012062175
0.015481929
-0.018981364
-0.01605299
-0.014714233
0.017956726
-0.02103575
-0.025107764
-0.017944437
-0.024594383
-0.0201602
0.017890522
-0.026522823
0.025124433
-0.0016414461
-0.003094745
-0.0540544
0.0073912633
0.035944723
-0.0029219782
-0.0073185805
-0.00905553
-0.03224028
-0.011147571
0.005767021
-0.016195294
-0.004275483
-0.0030883655
0.0033345222
-0.018112255
-0.04027585
0.029877443
0.015879052
-0.0098897
0.00333847
-0.04651918
-0.023992069
0.01258563
0.00013424008
0.020186748
-0.016800478
0.00728184
0.0016633647
-0.0006649755
-0.020438632
0.024493892
-0.037397515
-0.044781286
-0.011047411
0.013269058
0.017022325
0.012104322
0.021324694
0.007366457
0.003595305
-0.03173989
0.00054620765
0.0304251
0.018888574
-0.0038084495
-0.031052753
0.024602251
-0.015917184
-0.004879681
-0.012955759
-0.020655934
0.010895041
0.02011325
0.0057427315
0.01740545
-0.012921648
-0.017022103
-0.017312748
0.020146193
0.018844532
0.0058505745
0.0038871937
-0.026200296
-0.008771046
-0.018671252
-0.0014207984
0.0019341008
0.038905688
-0.031034958
0.01039019
-0.008277229
-0.009284143
-0.010628654
-0.015060059
-0.036127437
-0.017795889
-0.0035175493
-0.0040164264
0.016223159
-0.031394146
-0.011841061
0.020378873
0.015379876
-0.00090099697
0.010327023
0.005085522
-0.01000894
0.020369437
-0.024415387
0.0005715829
0.022255467
-0.015993
0.01861619
0.027212271
-0.034639478
0.013736248
0.03615959
-0.021858616
0.001991787
0.0221169
0.013674055
0.029311597
-0.018800395
-0.019408306
0.01617704
-0.0006130246
-8.203004e-05
0.015702702
-0.0025994843
0.017705891
0.044515755
0.001978694
0.015292538
-0.024569346
-0.039638713
-0.017012626
0.03378639
-0.013318217
0.012335558
0.02109074
0.00576182
-0.012334464
-0.019430669
-0.007616748
0.012003292
0.0045305113
-0.018607406
0.018937502
-0.006091858
0.005522261
-0.023229016
0.0062990813
-0.009420849
-0.014294723
0.01335534
0.048157163
0.013658891
-0.024188748
0.0035671073
0.021781001
0.021811614
0.0022140054
0.011063244
0.040862132
-7.108814e-05
0.007323815
0.006930703
-0.061350856
0.0047945506
0.017328266
-0.0108958455
0.0025464895
-0.008698264
0.019751446
0.010137709
0.015846966
-0.023371605
-0.00026728798
-0.0038508927
0.00037071618
-0.044670694
-0.022535557
0.007213944
0.005455113
-0.006636095
-0.033081453
-0.0069186985
-0.0015701805
0.013733456
0.00015395
-0.0037880351
-0.03222593
-0.003466085
-0.025381474
-0.0065542352
0.032745343
-0.01048022
0.0050614523
-0.006782191
-0.0050345054
-0.008561666
