# (192, 192)
0.00047532938
0.014104042
-0.003841726
-0.02427975
-0.008898051
0.010698106
0.0012984117
0.006139255
-0.003731334
0.0105471825
-0.008033273
-0.0024883314
-0.0006197794
0.017904934
0.009522969
-0.014446107
0.0045352047
0.0089966925
0.011756865
-0.018033646
-0.00017599987
-0.02868686
0.013105973
0.013169297
-0.0039181216
-0.01944738
-0.008036282
-0.002947747
5.7546324e-05
0.0012682332
0.02047651
-0.012214922
-0.0030131435
0.0021368307
8.998234e-05
0.008112272
-0.005014294
0.006424315
-0.012913012
-0.008482277
-0.0075705065
0.0057305465
0.009143397
-0.0041156556
0.006874607
0.011938321
0.008267588
0.0011795873
-0.012094947
0.006688548
-0.0052062315
0.0071121925
0.0034437543
-0.0062549105
-0.008266266
0.0018911221
-0.010863947
0.012872475
-0.00089615624
-0.014137643
-0.0053073303
-0.0048664124
0.0023502137
-0.0071661556
-0.007858767
-0.0067611854
0.0073057613
-0.015903592
-0.009253361
-0.004705397
0.002923014
-0.0067811524
-0.00020967354
0.032592
0.013729004
0.0043852692
-0.0018628001
0.007925728
0.0075196517
0.011376502
0.006134062
0.0038082653
0.009110232
0.0075481096
0.008812251
0.005627378
0.0020503853
-0.004715884
0.003293842
-0.008759779
0.00579221
-0.0071427203
-0.00901355
-0.0023786286
0.0064866897
0.0035708603
0.015495411
0.0018657234
-0.024126481
-0.0058283918
-0.014052987
-0.009902123
0.010569688
-0.018300079
-0.001744647
-0.004430597
-0.0006271218
-0.014974955
-0.004593649
-0.0028962686
0.0033765254
-0.008264321
-0.014590229
0.0056695216
-0.011148882
0.020224188
0.01986132
-0.021925246
-0.015484482
0.015892493
-0.0004996094
-0.007055613
0.012071527
0.004747291
0.0029059162
0.003917466
-0.014236464
-0.014149387
-0.0034074725
0.0023259344
0.020020375
-0.0074444865
0.009791336
-0.004500525
0.0046910206
-0.004443802
-0.024213566
-0.0044227075
0.0014174759
0.0028407099
0.00035793748
0.00016819473
0.0031440577
0.010346031
-0.0029559925
-0.0081571005
-0.00831963
-0.011067448
-0.00057132886
0.007998684
-0.0029953518
-0.008955878
-0.0022863913
0.017648144
0.0006842275
-0.008411349
-0.013771862
0.0028452666
-0.007754031
0.009249715
0.016034247
-0.012322848
0.013556124
-0.018933592
0.005851929
-0.00063937134
-0.0031348513
-0.0014347152
-0.0035914879
-0.019209858
0.016958257
-0.0086989505
0.0026078813
-0.0022206635
0.004753602
-0.0029508045
0.010233455
7.02523e-05
0.0038508896
0.016504683
0.008583894
-0.0134817595
-0.018253407
0.012628948
0.013333117
0.00015379545
-0.00306009
0.006137362
0.0019075297
0.014900739
0.010831796
0.0074583804
3.1455387e-05
-0.008380761
-0.005140889
-0.0005153814
0.011875682
0.009041995
0.0029643923
-0.004525011
0.005827827
0.006340694
0.0011147598
-0.0047978284
-0.007758855
0.010927418
0.0031720179
-0.0021895503
0.0062779044
0.033355687
-0.0047838558
-0.014868784
-0.0040197936
0.0026928026
0.00125181
0.0075672106
0.0009801091
-0.018961573
-0.007687076
-0.008573056
0.008081917
0.0009158062
0.003784087
-0.01108925
0.0018801524
-0.0010092598
-5.820114e-05
0.023360759
-0.005620572
-0.0102728475
-0.0027594843
0.0015551583
-0.0039208382
0.0005035559
0.0008710347
0.0011066098
-0.018042827
-0.0030706476
0.005412257
-0.016699135
0.0051037325
0.0047741933
0.012413306
-0.022240607
-0.003999746
0.005445083
0.0064123445
0.00089057774
-0.009142722
-0.0058343643
0.0015105894
0.005180397
-0.0016905987
-0.013306082
-0.0042419066
0.0076825568
0.0027252685
-0.014771026
0.0044984994
-0.011453723
-0.01257861
-0.010413694
0.0140913725
0.0012459691
0.0007403522
0.003602867
0.0034630175
0.0042528
0.0034449967
0.004574399
-0.022788644
0.015026966
0.0018855747
0.004313658
-0.0069621042
-0.023236686
0.01284573
-0.010525965
-0.009212309
-0.0019401166
0.007232973
0.006107068
0.007182131
-0.0036172597
-0.009114975
0.0023930059
0.003409537
0.0012831417
0.0057013845
-0.002011752
0.016546346
0.0070740497
0.0009350676
-0.019555623
0.02156768
-0.0030460756
0.0070750997
0.013338336
-0.02843245
0.0060100458
0.024453104
-0.018099409
0.0020337326
-0.00470722
-0.002953687
-0.0073537016
0.018626839
-0.0024925463
-1.9857645e-05
-0.0012161487
0.011366764
0.0029290046
-0.010449249
-0.004621227
-0.015057519
-0.0050331536
-0.008909853
-0.018718034
-0.0051593417
0.02365079
0.00039211573
-0.002944884
0.01659912
-0.014384126
0.004835627
0.0013054563
-0.015019184
-0.0050715464
-0.026427502
0.0099078715
-0.009744122
0.01416607
-0.0010677323
-0.007721706
-0.010438587
0.0065121627
0.00934138
0.0034855613
-0.0019165125
-0.002443761
-0.0030902382
-0.004050579
-0.007684568
0.00952243
0.0010772565
-0.007849663
-0.014152114
0.009931669
0.008619738
-0.008433999
-0.0011056542
0.0046048528
-0.00596831
-0.0016852845
0.01861223
0.0038198086
0.010957962
0.0060510896
0.0082601765
-0.008311295
0.004465848
-0.0056694495
-0.010364751
0.0022017998
0.0026996348
-0.0028761104
0.006636811
-0.017382251
-0.0067245197
0.01375654
-0.0025583585
0.002674751
0.0024339943
0.015624836
-0.0039429003
-0.0011207267
0.008934493
0.00014304824
0.0024535784
-0.0043527796
0.009769193
0.007036893
-0.005083674
-0.005796435
0.018968407
-0.0046873135
0.011633401
-0.00865549
0.0048644715
0.0006249918
0.0039763646
-0.007936304
0.0062691444
-0.013167643
0.017966283
0.00434909
0.014104904
0.003957403
0.018849863
0.014674775
-0.002261474
-0.020883346
-0.013975238
0.0029102108
0.010311481
0.021836318
-0.0040627173
0.0047602244
0.0019202232
0.02394776
0.020060536
-0.004093498
0.009848558
0.003078285
0.011575013
-0.0062543675
0.013032323
0.005676719
0.0028280402
0.008273542
-0.0018891044
0.0005999245
-0.0027346432
-0.0030462237
-0.013749253
-0.0029515082
-0.004479759
-0.0073011457
-0.0040062256
0.02212828
0.014640932
0.008538002
-0.006066853
-0.0077118413
0.0043557314
0.0033194732
0.0002762136
0.02383897
-0.01735202
-0.01815608
0.012506852
-0.0027958523
0.0061575603
-0.0066665444
0.016234873
-0.010918187
-0.003994806
-0.0024780114
0.005049012
0.002637479
-0.0019110164
-0.0022003923
0.0008141502
0.014193969
-0.009189897
0.00891686
-0.025475444
0.0010327914
0.011187865
-0.01595479
-0.004993522
-0.0045375004
-0.0024490615
0.004207962
0.006452414
-0.0024488166
0.0072555626
-9.579375e-05
-0.0072145113
-0.0035165797
0.0005118091
0.0118769575
-0.00036780362
-0.0031712046
-0.03123937
-0.0054915063
-0.007795675
-0.007989973
-0.008718616
-0.0036106568
-0.0006353453
-0.0050993864
-0.0047595277
-0.0011249144
0.0043711294
-0.012399602
0.00450749
0.001120757
-0.0060084495
0.00121541
0.0057778475
0.0032424803
-0.009959483
-0.009283512
0.014934896
0.02379255
-0.0036627236
0.0030685882
0.004086135
0.0111232465
-0.0007452311
-0.016955616
-0.009994738
0.017257882
0.002228309
-0.009288542
0.0047430797
-0.02130077
-0.003062755
-0.02301024
0.016909141
-0.023528146
0.0042523923
-0.010174718
-0.010327029
0.00046949714
-0.0035915684
0.00174291
0.014280184
0.0037262584
-0.004173697
0.002839608
-0.00908546
-0.003401764
0.003954432
0.0055546034
0.024478367
0.010673681
0.0043249493
0.0037111642
-0.0017582125
0.00026939716
0.0038116055
0.0016309052
-0.008387323
-0.004333041
0.026544558
-0.01409131
-0.0061722533
-0.0030488472
0.023817206
0.004071692
-0.0066621224
-0.00776649
0.019624773
0.0009661989
-0.007960743
0.005608502
-0.0018688914
0.002894786
0.007188497
-0.00027316637
-0.006381316
0.0057117622
0.0010254676
0.006488879
-0.006104014
0.0050423113
-0.015844239
-0.022836143
0.0013968783
0.012505419
0.0064038127
0.0038567546
0.006915109
-0.0013296638
0.009850729
0.01090391
-0.0022044152
-0.0012534889
0.0020889086
-0.010890661
0.00849379
-0.0030879371
-0.008207881
0.007798713
-0.010530684
-0.0068386286
0.00081299804
-0.002775843
0.0039182873
-0.0030364227
0.0020317442
-0.01587121
0.006055274
-0.007166765
0.0033910167
0.012405805
0.021526927
0.0049181497
-0.0062077376
-0.0010734873
-0.03501768
-0.012420704
-0.021249585
-0.013698508
0.020300297
-0.0068116155
-0.0068304297
-0.004087656
-0.0069368016
-0.0025422021
-0.018393792
0.0028543668
0.010718461
0.010837432
-0.007375745
-0.011699091
-0.00015098759
-0.00641983
-0.0055393623
0.0014229392
-0.00093496696
-0.0071489415
0.022617284
-0.026379196
0.0028617205
0.0071272147
-0.0029244316
0.009798026
0.0075009116
-0.009464417
-0.00024725735
-0.02834564
0.0053559802
-0.014043754
0.020019075
0.0012551245
-0.0062746163
0.013985311
0.00026812637
0.002615221
0.008468406
-0.008822008
-0.0032951508
-0.0037787976
-0.010780407
0.012882732
0.00906467
-0.031495664
-0.008252074
-0.0023905474
-0.02137127
0.011490049
-0.007978297
-0.020957887
0.029105878
0.0017300169
0.003928585
0.0011911612
-0.0031477457
0.0024241908
-0.00013460752
-0.0029326044
-0.024728632
0.0063371966
-0.0031774037
0.0060926275
0.004395842
-0.0050642197
-0.015486807
0.014380933
-0.00538135
0.013503054
-0.0012153642
-0.004851755
-0.0040348577
-0.00955522
0.0008868996
0.0030928482
0.011147848
-0.007860068
-0.009061936
0.0002550661
0.0028323769
-0.007745999
0.0058690617
-0.0029600905
-0.0035981317
-0.0046743993
-0.0001479954
0.028528418
-0.030305004
-0.012441418
0.0007661206
0.0015079866
0.002151835
0.011496678
0.018839028
0.011955215
0.0008933358
-0.009865312
0.004925225
-0.011096163
0.0033505112
0.0029810201
-0.009496999
0.006942226
0.008806198
0.014170001
0.007801082
-0.011710846
-0.0018175964
-0.013158271
-0.006040821
0.0002168105
-0.0020515418
0.0034580731
0.011374558
-0.0066386764
0.0032600819
-0.007536131
-0.0027709682
0.0024819872
-0.0033968198
0.019059379
0.00906773
0.002077885
0.005548469
0.0061639785
0.0020106675
0.0043676393
0.010410652
-0.0016206785
-0.024542341
-0.002709426
-0.00534577
0.019956185
0.017432433
-0.0040786895
-0.0010206494
-0.0027500533
0.014415062
-0.0033409053
0.018751267
0.01369623
0.00041818887
-0.014490157
0.015597698
0.0026358624
0.008391463
-0.024228727
0.03571716
0.0010319161
-0.014066212
4.225011e-05
-0.010173785
0.0030672566
-0.0007303018
0.00021619786
0.0035749187
-0.0072347387
0.018663358
0.0033531128
0.00074532424
-0.005259414
-0.0005601017
-0.0059428127
0.012535579
-0.0049644997
0.007570421
0.019325072
0.01565925
-0.0012992116
-0.0029305592
0.008448007
0.008942378
0.007212757
-0.0065705236
0.0030593448
0.004773772
-0.021770367
0.015841097
0.0008226691
0.02184134
-0.003315909
-0.00017305027
-0.0060922853
0.0049347086
-0.012574329
-0.01142879
-0.014790444
0.016288204
-0.02790504
0.012577238
-0.00061490864
-0.0076963413
0.002874832
0.0033794104
0.02395973
-0.0028512587
0.01023247
0.00016367678
-0.008905816
-0.0023528738
-0.0071911826
-0.0029019883
0.008887866
-0.0063316277
-0.017052418
0.0040481095
0.019763587
0.036837984
-0.008213728
-8.766687e-05
-0.002441383
-0.0033192555
-0.01144282
-0.0074747857
-0.0024212413
-0.012757465
-0.010906937
0.0056413733
0.005239253
0.008451598
-0.009707574
0.0077003604
-0.020184852
-0.000814708
0.009643844
0.0002718083
0.014801543
-0.008122619
-0.0051012514
0.007982751
0.0048672864
0.008297445
0.014949571
0.0025756576
-0.0042139157
0.012734707
-0.012107564
0.009010669
0.0055393795
-0.011933459
0.0072782054
-0.022183402
0.00028093852
0.0133719705
0.004232519
-0.007693566
-0.0028232336
-0.0070815515
-0.009551472
-0.003979988
0.007926365
0.0008275273
0.009343885
0.021842953
0.003901314
0.0019630976
-0.000749049
0.01512244
-0.0025428634
0.0033473766
-0.021783898
0.0066278633
-0.012064155
-0.015358953
-0.0008472202
0.00025110124
0.011334266
0.01419314
-0.004756443
-0.0040255976
-0.0042905435
-0.00615864
-0.0056721787
0.013905883
0.002122478
0.0008629129
-0.00058403646
0.0051208404
-0.0022962943
-0.0033310005
0.009241644
-0.005522656
0.004212907
0.0011050354
-0.023328025
-0.004015109
-0.0110775335
0.012550185
0.0074793044
-0.0153827965
0.0119912885
-0.008185531
0.007776753
0.0047468115
0.004627272
0.0003927255
-0.0037053847
-0.0013218843
0.003143544
-0.011363242
-0.005869412
0.0068440875
-0.010447187
0.01418707
-0.0031571402
0.019592699
0.0017622355
0.02008022
0.00085307576
0.0034751056
-0.007332896
-0.013241725
0.02085602
-0.00016310219
-4.9819188e-05
0.019507064
0.017670877
-0.00617892
0.014988712
0.015120612
0.0010842872
-0.0010970221
0.0019340467
0.0052791648
-0.0045703445
-0.011337226
-0.008579094
-0.013462723
0.014125255
-0.011668045
-0.013499227
-0.0031572946
-0.018233871
-0.0074787424
0.006742191
0.010108741
-0.020079428
-0.001585333
0.00038092403
-0.003187402
0.0070868977
-0.0008069548
-0.0024185495
-0.0033430515
-0.0026181038
-0.023260001
0.003258465
-1.36161325e-05
0.005336812
0.0034495066
-0.01710096
-0.007685905
0.0035132223
-0.010674734
0.014681912
-0.0010613033
-0.016704228
0.010671181
-0.0036923124
0.009373439
-0.0072944853
-0.0004650192
0.0010832738
-0.01219606
-0.012417408
-0.005427938
0.0015990373
0.024202688
-0.0067648683
-0.002571296
0.014262958
-0.011106901
-0.006836141
0.0122836195
-0.017533358
0.0031196773
-0.0076666307
0.01755957
-0.008432494
0.004295211
0.017664708
0.006873468
0.018927077
-0.0028701557
0.004114455
-0.0048020864
0.009772507
0.017295688
0.021557739
-0.00090565626
-0.004714207
-0.012560476
-0.008788814
0.008050246
0.0014368509
0.0030932159
-0.01101614
0.0014946494
0.023061968
0.0035969622
0.0029187119
-0.0026041265
0.005628095
-0.012405268
0.004034318
0.007950223
0.00195672
0.00040761035
0.006390772
-0.0008780047
-0.002248169
-0.00045581663
-0.010384153
0.029205061
-0.006244986
-0.00208987
-0.005370664
0.00849617
0.0060036737
-0.0051149884
0.0015706883
-0.014817891
-0.0032085371
-0.009561157
0.009883356
0.015240517
-0.013451522
0.005884816
-0.004136309
-0.00019266596
-0.010893719
0.0029727626
-0.018441603
0.013749275
-0.017318219
-0.0034923223
0.0045289844
0.023118619
0.011169748
0.0025739144
-0.01936861
-0.0006592197
-0.013637085
-0.006691826
-0.014273339
0.006748796
-0.0007004129
0.0015417603
0.0019144784
-0.014531766
-0.00323079
0.022639293
-0.003117927
0.014878994
0.0077866465
0.017567467
0.0021535503
0.010999756
0.005946743
-0.01165953
0.009312919
-0.0041174446
0.0005009068
-0.010981732
-0.013510203
-0.012172592
0.0041396143
-0.0142767355
-0.008353364
-0.005993944
-0.0030232514
0.0029715663
0.005071762
-0.009514237
0.0028211265
0.024771655
0.007974276
0.014470305
-0.010823842
-0.014658945
-0.010153801
0.01432444
-0.0014450377
-0.008872223
-0.006830221
0.005533519
-0.0012420567
0.009784594
-0.0031792133
-0.004519437
-0.0055238036
0.0009903718
-0.009743935
0.009835955
0.013071224
-0.0038522007
0.0080026155
-0.004946673
0.0015693395
-0.0146419685
0.016147856
-0.002743625
-0.015673291
-0.002614841
0.005627725
0.0012745433
-0.007116524
0.009852449
0.008799911
-0.0030996394
-0.000833284
0.0011549047
0.0017146381
0.017011743
0.0020896946
0.014224698
-0.00869889
0.0048739477
0.014721145
0.02417665
0.0019414017
-0.004735542
0.013880645
0.00035806146
0.02183326
0.0035953212
0.0036908558
0.005763544
0.014292436
-0.008817563
-0.0011965184
0.01189278
0.0017304176
0.010571757
0.009196386
-0.014666409
-0.008741701
0.0087788105
-0.0140732275
0.012750968
0.009099054
0.012421553
-0.02036008
0.0012285223
0.0029293853
-0.012139676
0.006624904
-0.0012073898
0.00079442665
0.0077230334
0.014207321
0.0003884814
0.020127077
0.0042977436
-0.009934932
0.005942822
0.014353545
-0.0044607846
-0.0039385813
-0.028729059
-0.014269069
-0.0060187457
-0.025597446
-0.011750483
-0.008243706
0.014315671
-0.01437249
0.0011644745
0.008246973
0.008743669
0.0023840228
0.018648863
-0.014218848
0.013731727
0.00843011
-0.0041098744
-0.0087091625
-0.015950711
0.00074815226
-0.0021809863
-0.017578721
0.005677128
0.021931283
-0.0016450696
-0.00037226258
-0.0068132817
-0.010390368
0.005945738
-0.0045956788
-0.0005579203
-0.003212097
-0.008486931
-0.0069780955
-0.004592079
0.0043647666
0.023817828
-0.0045322045
0.001211494
-0.01519868
-0.014195128
-0.019456975
0.009590936
0.014293822
0.011055974
-0.010258901
-0.011945652
-0.0062705087
-0.008552405
-0.006306006
0.0016635519
-0.006457
0.003913226
-0.005257439
-0.017697014
-0.012351036
-0.00913064
0.010810296
0.0039421013
0.0018620624
0.011706026
-0.003920963
0.0059551178
0.0041046822
-0.011587064
0.0021211142
-0.0034155117
0.013364213
-0.0013752513
-0.0025517803
0.008410857
0.0058583026
-0.014286936
-0.008404319
-0.0018925694
0.013915715
-0.005341685
0.0024381557
0.004635514
0.003212015
-0.0017737161
-0.025496555
0.004895843
0.0036480704
-0.015293296
0.012309606
0.006550864
4.373614e-05
-0.006318449
-0.0024868425
-0.00061975
-0.012345254
0.00428407
0.008132236
-0.0054741115
-0.0062966887
0.015349254
0.00830606
0.0026429894
0.0025184986
0.017613292
-0.016899714
-0.0023997792
-0.0023458204
0.0026573087
0.017621843
-0.004334774
-0.002176217
-0.005743265
0.011459369
-0.011978973
-0.004670905
-0.0047847596
-0.004105871
0.010485487
0.0024521125
0.002140364
-0.0032605287
0.007605368
0.013022066
-0.008961223
-0.003808089
-0.005555737
-0.0070181
0.0027587044
-0.017102076
0.0042223083
0.02132468
-0.0025390105
-0.008709663
0.0063957833
-0.016437603
-0.0024800976
-0.0014174812
-0.011518821
0.012610601
0.013352346
-0.00019189005
0.0014902083
-0.0208735
-0.0074886563
-0.00403789
-0.008769281
-0.001483702
0.007486844
-0.00684494
0.004431112
0.0009252717
0.0069389874
-0.006809881
-0.012727104
0.000737178
-0.004336544
-0.0057367007
0.0031760877
-0.0030365877
0.004746282
0.015239057
0.0058275936
-0.0037745978
-0.002705435
0.014139778
0.008971571
0.0072738044
0.007201843
-0.030165914
0.00015914632
0.0016889769
-0.007378875
0.004132536
0.0037312317
-0.007849478
0.0073030745
-0.0043989224
0.0014251105
0.009728904
0.011275802
-0.0090735955
-0.0097299125
-0.0121595645
-0.008435181
0.01967912
-0.005736683
-0.011170575
0.009888647
0.000125051
-0.009467381
-0.008858179
0.014642061
0.028949728
-0.008748739
-0.0024155844
0.0061186817
-0.021753145
0.0027932154
-0.0016171144
0.009110276
-0.0010360562
-0.00032507748
0.006945864
0.012090496
-0.005121255
-0.0055736313
-0.0030561904
0.008051913
-0.012959072
-0.017869575
-0.0026006892
-0.004148382
-0.0018645695
-0.008239466
-0.02031495
-0.002362945
-0.012596927
-0.0039568795
0.010063531
-0.0029592146
-0.009885696
0.0030993896
0.014861223
0.010461421
0.014376658
0.012949944
-0.00039105935
-0.013052828
0.0010462482
-0.004254165
-0.015405115
-4.9694743e-05
0.016719637
-0.0075985626
-0.009407948
-0.004908052
-0.0020477176
0.0005375886
0.01115481
-0.0017012204
0.013319962
-0.0016849012
-0.008229997
-0.0041836346
0.0013368585
-0.0056506735
-0.00044017346
-0.00011262255
0.000100241145
0.0066974103
0.0019352298
-0.008747998
0.012157718
-0.0012462101
-0.0029062843
-0.02114079
-0.006366713
0.0132246
0.001286462
-0.017641492
0.0011115329
-0.0030721226
0.018469393
0.02239901
0.0033536234
-0.0113861775
0.015604165
-0.0037953225
-0.001169504
0.003551245
-0.0015831976
-0.0038955605
-0.0015486133
0.0034052222
-0.009108709
0.0070622265
-0.0015516484
-0.00429026
0.0038992604
0.0056276196
0.012446494
-0.014377337
-0.001652062
-0.0053506535
0.010940519
-0.00085954287
0.0028178494
0.008007252
0.0016180722
-0.011961457
0.0030433014
0.017216656
0.024595672
0.008303766
0.007290306
0.007800258
-0.0052350527
-0.003104945
0.006041849
0.0006316735
-0.009065748
-0.0068800515
-0.011543092
0.001939216
0.020181851
0.0070105093
-0.0007918476
-0.007907991
0.016777445
0.013829746
-0.018713536
0.0060114423
-0.0072828196
-0.007066419
-0.029578807
-0.011576923
-0.013606937
0.011530582
0.012590925
-0.009379499
-0.0038010483
-0.016378162
0.0027151066
-0.014186052
-0.006457294
0.00090565044
-0.010221816
0.01864644
0.0010704175
0.017474795
-0.018310143
0.00786617
-0.011953682
-0.00963486
0.014806173
-0.010820931
0.0037905846
-0.007501343
-0.0046236776
-0.013505189
0.008812205
0.0014121394
-0.017401604
0.0012479235
0.006703879
0.020590272
-0.008518893
0.0027324478
-0.009971788
-0.0015661123
-0.004875912
-0.0047889156
-0.0034102865
-0.0025849661
-0.017978791
-0.0014770756
-0.0024010201
-0.004396983
-0.013920792
-0.002532017
-0.00047481435
-0.010284915
0.016913798
0.010296367
-0.0013737098
0.018268043
-0.005263161
-0.012241105
-0.0047188555
-0.0027423915
0.015096239
0.012712376
0.016654536
-0.007765164
0.0031748225
-0.014941375
-0.008822959
0.020391509
0.008390561
-0.0028397564
0.010481096
0.008595997
-0.0050940523
-0.012251851
0.014531998
-0.004274783
0.015075588
-0.017598417
-0.012254887
0.010632459
0.005224401
-0.009539108
0.010760392
0.007815596
0.012735953
-0.003775727
0.0075762854
0.0090853395
-0.004196152
-9.850885e-05
0.006887066
0.0061784107
0.000977985
-0.015101958
-0.012260174
0.013615073
0.012376917
-0.0054697637
-0.0139812315
0.0018368086
0.004887899
-0.0032486152
0.016164452
-0.0048909197
0.010302877
-0.016051605
-0.011134139
0.011569468
0.010420529
-0.0143881235
-0.0032428412
-0.00673404
0.014580043
-0.012540466
0.0037120357
0.007992995
0.0032662961
-0.00535183
-0.034079134
0.014192809
0.027665364
0.010461986
-0.0168014
0.0062513594
-0.0016957107
-0.00865665
-0.012904603
-0.024046032
-0.009764285
-0.003233842
-0.0032243743
-0.006295089
0.0011108504
0.01713467
0.005213918
0.016664715
0.013222406
0.0030207655
0.004565974
-0.0010016231
-0.01574561
-0.0013731414
0.016267244
0.005633903
0.0146054495
-0.012866009
0.011127248
0.002352174
0.003053247
0.015017088
-0.003244069
-0.007981901
-0.012790481
-0.013629218
0.011510259
-0.008063809
-0.011716737
1.7658229e-05
-0.0029249669
0.0015605326
-0.008297696
0.0037852668
-0.0009361248
-0.0037783128
0.006103208
-0.0053997845
-0.0030660278
0.0041028834
0.0015665862
-0.012743192
0.008127268
0.010714648
0.022898767
-0.0025045746
0.012452972
0.0013976969
-0.007480007
-0.007995904
-0.005988739
-0.013592593
0.0042960327
0.01841804
0.004786901
0.005381779
-0.0054357946
0.01727767
-0.0043237377
-0.0073048496
-0.0011956553
-0.004216248
0.0056313532
0.0030710597
0.0053257346
0.0033335858
-0.0021519016
0.0029457316
-0.023894003
0.009576549
0.024346268
0.0088263955
-0.0076662204
0.017266417
-0.004732289
0.001102766
-0.0003020293
-0.011856356
0.0062544583
0.0006384623
-0.003225047
-0.0027039822
-0.001116103
-0.016897459
0.00022897463
-0.0040760953
0.005254478
0.011117608
-0.0026959374
-0.0044895187
-0.012503554
0.015907252
-0.0044979416
-0.0059239417
0.002633457
0.001715954
0.007584539
0.002246707
-0.0014357498
0.011030283
-0.018370543
0.0065237945
-0.0006844162
0.009864789
0.01808994
-0.006282827
-0.004742819
0.025015404
0.004338383
0.010130832
-0.0077988463
-0.00604332
-0.014166506
0.00024344889
-0.019848494
0.01794195
0.016660562
0.014872292
0.01637691
0.029023878
0.014992985
-0.00030165003
0.0141918
-0.009075049
-0.0051420485
-0.0021139544
-0.0132509535
-0.010663875
-0.008076567
0.0035062074
-0.013109427
-0.002801333
0.014157059
0.003979445
0.009709216
-0.007819277
0.0065658074
0.0118764825
0.0010774635
-0.0105302455
-0.009019828
-0.013363801
-0.026895348
0.012435188
0.005440646
-0.0013993771
0.007956556
0.026624674
0.011535537
-0.019054802
-0.00606543
0.010929032
0.021165293
0.005433943
0.016415296
-0.010561219
0.0065495903
0.011488464
0.0074552554
-0.005153872
0.00027971156
-0.02593422
-0.01566737
0.005087946
0.021815384
-0.02009712
-0.021992045
-0.0054243933
-0.01554556
-0.004784933
0.0049524168
-0.01018485
0.011518782
-0.014527458
0.0022524174
-0.0040963697
0.0024539696
-0.009737821
0.010303484
0.019982904
0.0012472682
0.0010540056
-0.008847964
-0.011612577
-0.009226499
-0.0041029206
0.013559665
-0.0049127447
0.0013976268
-0.02045299
-0.020106489
0.008191715
-0.0044134078
0.004892419
0.009471084
0.0043565286
0.00296954
0.00044375926
-0.009831933
-0.0020472403
-0.004661932
0.013116875
0.009662832
0.018212222
0.0011148618
-0.0065574422
0.013448963
-0.004061801
-0.0064535122
-0.005009021
-0.007767683
0.0030945868
-0.0012547852
-0.006991763
0.0008170036
0.005577286
0.001999314
-0.011075126
-0.00013052244
0.0051360256
0.00826072
-0.003008598
-0.0058315415
-0.0029772716
-0.0061804564
0.002329931
0.0012503203
0.009169291
-0.001244537
0.007201114
-0.008945315
-0.010215696
-0.027073873
-0.02372128
-0.019275082
0.0009878092
-0.0065511875
-0.006821642
-0.010648136
0.007636628
-0.00064113294
0.002697092
0.002414125
-0.014943226
0.00014345234
-0.014587562
0.00758492
-0.0011935735
-0.001646952
0.013293119
0.019362258
-0.00634332
-0.02077673
0.0023188272
-0.010564935
0.0040519447
-0.006703335
-0.011863982
0.01687318
-0.025375314
0.013033135
-0.010305601
-0.0011953327
0.0056614857
0.0071092234
0.0062575536
0.013435839
0.014819567
-0.0082475515
0.0005887019
0.010265964
0.01306203
-0.017131487
0.001992738
-0.006505702
-0.0027670455
0.008728245
0.017246125
0.012192286
0.008322519
-0.004210467
-0.0062705744
-0.0035738521
0.00886195
-0.0055718725
-0.0036097234
-0.009676499
0.00710329
0.003052961
0.0024823085
0.0004567403
-0.0025978368
0.01103933
0.0008633973
0.012113269
-0.0034201427
0.009128626
0.013076417
-0.0048710466
0.007158463
-0.003079947
0.003957145
0.009797444
-0.009227647
0.015558713
-0.004701489
0.00013468148
-0.016214125
-0.0013731725
-0.011875452
0.014065804
-0.017015444
-0.00039680544
-0.011633695
-0.0033454015
0.0076720486
0.005693666
0.021831132
0.00049081724
0.00058743625
0.00054126536
0.005411862
-0.0016933223
0.011656738
0.0029594463
0.00909194
0.012557201
-0.0007548228
-0.0023392641
-0.008736811
0.003930649
0.010194989
0.0018207773
0.0044349683
0.0036184343
0.0054127662
0.0019929851
0.01145519
0.014957783
-0.01377894
0.015580182
0.006360255
0.0018157195
-0.0021591864
-0.012605379
-0.0061306506
-0.0013996057
0.00842134
-0.00458627
-0.009256863
0.009525462
0.0017413222
0.0077605397
0.007033473
-0.0047682202
0.009515457
0.007753083
0.012378745
-0.0013539351
0.0030333553
0.010675939
-0.016278705
0.02102805
0.010583342
-0.0031814186
0.0046025724
0.00779285
0.0010305896
-0.0021693052
-0.011485003
-0.019108508
0.022924194
-0.008273941
-0.011894912
0.012550318
0.00033517648
-0.011486479
0.01716186
0.0076037287
0.015776677
0.007944149
0.0036805915
0.0158962
-0.009065875
-0.0033894847
-0.0038230019
0.009351323
-0.012181835
0.0136793535
-0.004646016
0.010832884
-0.004023754
0.0044724313
0.020444948
0.01024282
0.0065615634
-0.008166096
0.0024693618
-0.016907897
0.002982074
0.00757645
0.002021857
0.0007918105
0.014731544
-0.008344724
0.0012791902
-0.007923494
-0.0046998663
0.013468628
-0.008088453
0.02435224
-0.004690848
0.012024683
-0.005972601
-0.017194763
0.00085606956
-0.013260238
-0.022802135
-0.011044504
-0.007943193
-0.005935604
-0.018090736
0.007250474
0.008335052
-0.0019618145
0.009120124
0.004800126
0.019373251
0.004287253
0.0028560646
0.017245261
0.0010069198
0.02215603
-0.0021992533
0.009735519
0.004029145
-0.002197464
-0.004717608
-0.0034042543
-0.002200818
-0.0018851265
0.01356363
-0.001244273
0.0027462705
0.006113809
-0.0041324343
0.01541582
0.024259705
-0.011111632
-0.014483622
0.011272661
-0.0098081045
0.004748159
0.013269804
-0.0038598378
0.003339529
-0.010711297
0.009484571
0.0052653276
-0.013161815
0.0052539697
4.629036e-06
-0.009407706
-0.0030224738
0.005034186
0.014677424
0.0004848777
-0.0081373295
0.00013224408
0.005595564
0.004032132
-0.0042634965
-0.0020089447
-0.013551666
-0.004877794
-0.008674468
-0.0016662277
0.008571534
0.015443233
-0.006983488
0.009606146
0.014742354
-0.006543179
0.013059154
-0.018374426
0.018181108
-0.008064853
0.01949353
0.00086939795
-0.0049853763
-0.008332218
-0.008848935
-0.006550432
-0.0070092506
0.00051582913
0.0015534738
0.0015480759
0.018167282
0.0050107334
-0.0177917
0.0025104517
-0.0009604303
-0.008871044
0.0027190687
0.0055530537
-0.007700727
0.007979649
0.0011915185
0.0075537106
-0.00088543724
-0.01705217
0.014432886
-0.0048330417
-0.0002061563
0.0126143135
0.013725864
0.0041740164
-0.0045386585
-0.0045523355
0.0017778934
-0.014706235
0.009744884
0.0020322823
0.004341302
-0.00030866923
0.00036580255
-0.0033292887
0.00033063136
-0.0027572385
-0.01188413
-0.0071329996
0.01062516
0.009201482
0.0008490977
0.03148709
-0.010586778
0.027772898
-0.0030589649
-0.01184398
0.0012344279
-0.006175292
-0.009084695
-0.011878075
0.007808945
0.016621266
-0.015613331
0.0016771487
-0.013743282
0.015363549
-0.0042855362
-0.014655182
-0.00035447112
0.010139957
0.00428289
-0.018960679
0.011589683
0.009219272
0.012850145
0.0033277543
-0.0024064363
0.0036528304
-0.022093982
0.0070670345
-0.01519035
-0.004953808
0.007826968
-0.0037480209
-0.0053504175
0.004593954
0.006453195
0.023371264
-0.0052016517
-0.004120021
-0.018531647
-0.011246641
0.0019977405
0.010380197
-0.010445877
-0.0146100875
0.0026857983
0.008140801
-0.0037863702
-0.009106404
-0.0049038273
0.0059748236
0.0033266058
0.008269654
0.012854937
-0.009982777
0.0026573467
0.0066523296
-0.00017836942
-0.020028269
0.0034426206
-0.0051843384
0.006767603
-0.003200761
0.010892495
0.016379679
0.0098361205
0.012467055
-0.008477315
-0.007009723
-0.0036781218
0.0019457334
0.0010227084
0.011899559
0.0018926471
-0.0185832
0.0070600687
-0.007430488
-0.023444816
-0.0027131543
-0.011119495
0.0016169844
0.0058419365
0.007618334
-0.0169753
0.0057782093
-0.002819056
-0.018172322
-0.0010972667
0.015580457
-0.019496521
-0.00269912
-0.001838285
0.0017748392
0.0062711868
0.009411677
0.0023718623
-0.010960622
0.014366736
0.0014398965
-0.0011186375
-0.016313666
0.007574877
0.0068843225
-0.014606276
0.019176759
0.0046202103
0.010621139
0.021957653
-0.0013124978
0.011792192
-0.0052985186
-0.0020223425
0.018251605
0.0067395773
0.0024596804
-0.0150746405
0.004301036
0.0013180663
-0.0047186282
-0.008188567
-0.00016255725
-0.006717523
0.008132278
0.004974163
-0.0072086374
-0.00882946
0.013718662
0.010206908
-0.007505321
-0.0015389858
0.009528181
0.016015558
-0.00065360003
0.0073346905
0.005149706
0.0021061257
0.018255174
0.0004768379
0.0034960597
0.007219826
-0.010843362
-0.012319907
0.00022599183
0.0026848423
-0.002146033
-0.0005274796
0.013996522
0.0075938297
0.007795777
0.0077952687
0.0016468032
0.01325741
0.008280534
0.011577161
0.008009252
-0.020430624
-0.0034575749
-0.008609169
0.009818483
-0.018142
0.005965433
-0.006880661
-0.010677429
-0.013017467
-0.0019072521
0.007948293
0.01624323
0.0051563852
0.0062179468
-0.00421889
0.013075032
-0.0053135217
0.017760206
0.009742937
0.024103599
0.015413049
0.0025427714
-0.004202928
0.01849785
-0.00041658286
-0.018341618
0.0040665967
0.000915236
0.0042419224
0.017440505
0.0005504507
-0.002085394
0.0014269963
-0.008025105
-0.014171254
0.011392421
0.0037501839
0.00329079
0.0017900639
-0.023628015
-0.0016252411
0.006030019
0.0024184533
-0.00042701306
-0.0054770974
-0.010959708
0.0014630366
0.00924338
-0.00015853271
-0.011792896
0.015936334
0.016554777
-0.020267451
0.009359319
0.020097438
0.009507886
0.012235491
0.015675593
0.015004592
-0.0010691778
-0.011277256
-0.009394213
0.008532151
-0.004235774
-0.008153959
0.0042219735
0.015608021
-0.0007745042
-0.011102012
-0.007262669
0.012246818
-0.0040722615
0.009972706
0.0006983344
0.0097119445
0.0019958671
0.0055472446
0.0041741435
-0.007909578
0.0041964776
-0.009321861
-0.0053915265
-0.010895585
0.014025968
-0.00257623
-0.0012981937
-0.026704691
0.00083474105
0.01157415
0.002687056
0.00095329044
-0.008552319
-0.015019813
-0.0071205026
0.0057935994
0.008273559
-0.0021680715
-0.0018107041
0.00489527
-0.021680808
0.006222746
0.011276473
-0.0049440563
-0.00614634
0.0061532944
-0.0052049668
-0.006034707
0.012359803
-0.00013582518
-0.0072307833
-0.0049883355
0.01998507
-0.003019976
-0.009034088
-0.0056397677
-0.001326874
-0.0051393174
-0.00724741
0.015111327
0.00400915
0.018716956
-0.0018213408
0.0027715613
-0.0017322355
-0.010786721
-0.01503517
0.009539313
0.023183601
-0.022682095
-0.011086708
-0.010780705
0.014559375
-0.0011676287
-0.0013721223
0.0037931856
-0.008708177
0.008444301
0.0010570673
0.006344549
0.0013381968
-0.011096893
-0.006239739
0.013737024
0.008971708
0.0018432569
0.029863622
-0.018260978
-0.0036703595
-0.011869342
0.027604207
0.0033629148
0.016343411
0.014014412
-0.015272965
-0.0038288422
-0.004170452
0.008081102
-0.022168955
-0.0074941437
-0.0012559876
-0.007201438
0.007846391
-0.010448064
0.0026051158
-0.005136492
0.008818547
0.0026026547
-0.0022564507
-0.007581633
-0.0029322144
-0.0040300186
0.004642655
-0.010812972
-0.012665429
0.0052565867
-0.0014229049
-0.0036880402
-0.012663225
-0.017226484
-0.0046251696
-0.005202503
0.0022979467
0.014557984
-0.006864055
-0.016243448
0.0045690034
0.0037723768
-0.005240601
0.005625728
0.01629448
-0.007246934
-0.0043429905
0.0037765251
0.00976397
0.0026087803
0.006657793
-0.0037474127
0.017762523
0.027656568
0.0007698307
-0.0031674644
0.00897744
0.009247711
-0.010858613
-0.0053088004
0.0007800733
-0.010462392
0.00355959
0.0070064347
-0.012065378
0.011016873
-0.008021754
0.0063483655
-0.023439517
-0.009760899
-0.00011449081
-0.0037988676
-0.014895653
-0.003698652
0.02011786
0.0074273823
0.0044778395
0.01043338
-0.008643749
-0.00037953947
0.010006356
-0.008929693
0.02040755
0.00406719
-0.019831993
-0.015787067
0.0012463395
-0.0047212075
-0.011580179
0.0029334787
-0.0027718537
0.01760477
0.0033031192
6.36539e-05
-0.01327981
0.012179451
0.002963096
0.0012270185
0.00030754594
0.0074278275
-0.006623494
-0.0069423746
-0.0009800496
0.002309476
-0.014487311
-0.012765333
0.0016469904
0.02385979
0.013315409
0.007877375
-0.0074800793
-0.011024749
0.0073466655
0.0074811177
-0.020189673
0.003312334
-0.016272854
0.012281483
0.001686673
0.003035966
-0.0060210656
-0.0037916468
0.014382933
0.01441014
-0.018145172
0.007886515
0.009016072
0.00089912367
0.0074156905
-0.009400494
0.0051038093
-0.014999867
-0.0029558062
0.0033105228
0.0040170667
-0.0067825452
0.02008372
-0.0010608447
-0.001375853
-0.012771216
0.014717969
0.011662718
-0.0048165685
0.0053272103
0.00074814097
0.0047953427
-0.017608745
0.0049900245
-0.0009790345
0.007602788
0.0017568643
-0.00049617846
0.008839582
0.016785502
-0.0013928277
-0.0009365566
0.00095208234
0.0020336653
-0.0021796424
0.019497115
0.00073381775
-0.0026041165
-0.0053728116
0.013684443
2.9488865e-05
0.014468202
0.0128685925
0.0043772724
-0.0074190735
0.008669638
0.00509342
0.008937698
0.0055383295
-0.002448677
0.0012795642
0.0076827435
-0.009273844
0.0012483937
0.014192092
-0.013245872
0.0014682658
-0.0037292363
-0.0071976106
-0.0136275925
0.0044596493
0.007934018
-0.00015332714
-0.015698696
0.023126308
0.016083091
0.008189428
-0.01015985
0.009812078
-0.0026650664
-3.0693805e-05
0.005618454
-0.0003990981
0.0025839172
0.0024379485
-0.0149928685
0.0042898264
-0.012395829
-0.0044295983
-0.0017856
-0.013487574
-0.014344959
-0.0036748392
-0.021623181
-0.0065540955
0.0067890147
-0.0021170194
-0.01165305
-0.005952188
-0.0177889
0.015072442
0.010996072
0.021995172
0.0068444726
-0.006669797
0.0097625945
-0.0029338698
0.007394547
-0.0029552483
-0.0017650112
0.008359812
-0.017916163
-0.0044488306
0.009461839
0.009953847
-0.010079517
-0.005461295
-0.002524375
-0.0019738707
-0.011731684
0.001941416
0.009387415
0.010977146
-0.008892512
0.01393423
-0.0112877535
0.005417693
0.0026664792
-0.005031137
0.0005420469
-0.00019199649
-0.01738867
0.0023296443
0.0047576986
0.007261194
-0.008422867
0.0024870671
-0.008756676
-0.019471264
-0.010516902
0.0027095987
-0.0028757164
0.00021114782
0.00068525225
-0.0013319682
0.007256934
0.004841237
-0.0013593413
-0.011339582
-0.00369196
-0.010841423
-0.033847436
-0.0020432055
0.0011936455
0.009071841
-0.0047997064
-0.0039925426
0.0008525149
0.005278152
0.0038604168
0.0007694194
0.014846644
0.0017366261
-0.002580792
0.0004539169
0.016786592
-0.008571414
0.00597927
0.0013908186
0.005814576
-0.003211717
0.0009426695
-0.009440949
0.002307923
-0.0070936764
-0.018786209
0.0028914036
0.0027402898
-0.007044711
-0.011585871
-0.007361928
0.002244977
-0.014550115
-0.0051291552
0.015846333
-0.01206719
0.0073350533
-0.010565376
0.0012080893
-0.008852146
-0.012041156
0.004118933
-0.010240619
0.017390264
0.0048870924
-0.00643157
0.0062130103
0.010104699
0.015316917
0.0071882987
-0.00089443586
0.011907235
0.002588122
-0.008035955
0.008207293
0.011828256
0.0009638734
-0.0025208509
-0.019384064
-0.016964495
-0.012336997
0.024119424
-0.009558965
-0.0061888252
0.0014773001
-0.0019991966
-0.01497997
0.0016764256
-0.014499862
-0.020545201
0.010635828
-0.016253872
-0.005612127
-0.0067988657
0.01718278
0.006915232
0.008409101
-0.0031942322
0.011783674
0.008311068
0.004443886
-0.0076132873
-0.009024379
-0.0014635558
0.007732134
0.00028381517
-0.0052217804
-0.0074063404
-0.012552263
0.0003925987
0.005802608
-0.008035691
0.0025661604
0.0032468375
0.005477159
-0.00884826
-0.0056571052
-0.0016811308
0.011409652
0.006428314
0.0018513309
0.0012941686
0.010046032
0.0036389066
-0.008008054
0.019821702
0.0006662361
-0.00084524666
-0.0027189949
-0.022557879
0.00025452577
0.00037988223
0.016524248
-0.007828263
-0.013451007
-0.011752986
-0.004759069
0.010303756
0.022835944
-0.004833495
-0.010685803
0.0074325567
0.0048213205
-0.0010316168
0.013383416
0.0024407378
0.016404655
0.0037663493
-0.020332916
-0.0007257149
0.011805532
-0.0031241018
0.009071439
-0.010020869
0.0026165831
-0.004155676
-0.004642107
0.004391953
0.016410373
-0.0024931596
-0.0014744612
-0.004296774
-0.008636336
0.01838521
0.00659171
-0.0018903716
0.0007392729
-0.01765524
-0.014876444
-0.00812336
-0.0022747219
0.013763403
-0.003899867
-0.0030127217
-0.009915449
0.002421453
0.006296425
0.016160337
-0.010550277
-0.0009954036
-0.005497578
-0.009160534
-0.01528926
-9.003902e-05
-0.010938194
0.00021709118
0.0035784028
0.0033987444
0.0015202846
0.008359602
-0.0051588085
-0.0028591822
-0.0040290533
-0.008169393
-0.002519234
-0.00082136906
-0.0011767026
0.00901949
0.0022642312
0.013007828
-0.008556544
0.008539331
-0.01751359
-0.015676528
-0.00076161034
0.0021498837
-0.012137872
-0.0024410405
0.01616797
0.008371164
-0.008895389
0.0032040086
-0.007151919
0.0032376524
0.00329694
0.0044400003
-0.0060840254
0.013677205
0.018316915
0.024056682
0.015607393
0.0028350998
0.00077145826
0.004394698
0.0020146884
0.00058003806
0.003338749
-0.0103908
0.0019116324
0.008052801
0.006428976
-0.00607639
0.006790819
0.0063073537
-0.004807989
-0.0066173566
-0.016697148
-0.00041768633
-0.007299869
-0.0017906114
0.0150947375
0.010767163
0.014215968
0.01806952
-0.009286844
0.012838862
0.004306342
0.0070690396
0.008386699
0.01108336
-0.003272171
-0.009192715
-0.005163764
0.008784477
0.00709985
0.008409232
0.018255536
0.009818795
0.012719591
-0.018819481
0.0063421777
0.01532843
0.012281909
0.011893751
-0.0063280365
0.012814233
0.004356681
0.00022100372
-0.00035469985
-0.008101711
-0.013658687
0.0043473137
0.00035245813
0.0013077095
0.023881583
0.011731527
0.0039723213
0.018030299
0.0018019949
-0.0021637294
-0.010569295
0.009821251
-0.0031343484
0.0062764045
0.010142135
-0.0030075132
0.012028085
-0.003922572
-0.01451004
0.009881137
-0.0010183486
-0.012715823
-0.009811643
0.0050985184
0.00892368
0.016988184
-0.0009564912
0.008714036
0.009156637
-0.00087419135
-0.0025207417
0.017005205
-0.0025941783
-0.005727579
-0.013690927
-0.005831644
0.0045246477
0.0071400907
-0.011773294
-0.0061016195
-0.018268887
-0.002900722
-0.005504552
-0.0018237804
-0.005316534
-0.0043951697
-0.0011474703
0.009218127
-0.007882254
0.0101854885
0.0046039084
0.0052423393
0.018135004
0.006839304
0.010997723
0.0012050832
-0.005272838
0.021222105
-0.008883807
0.004913255
0.015257743
-0.012272437
-0.010656712
-0.005112039
-0.010755847
-0.004250958
-0.0025665364
-0.00018358843
0.012070715
0.004035382
-0.0017883359
-0.0020619056
-0.0021281685
0.006975613
-0.021060389
-0.003998732
-0.003062237
-0.0072373245
0.0015904823
-0.012670911
0.005073399
-0.00021975573
0.005430709
0.010879465
-0.0021571168
-0.011337354
0.0090572545
0.002219036
0.0032894223
-0.018445684
0.000274322
-0.018436044
0.007391417
-0.0043529216
0.006612316
-0.013873518
-0.0034493564
-0.0017606862
0.0043589314
-0.019617472
-0.004933783
0.0050494256
0.019098967
0.015667303
0.0023681927
-0.004143392
0.0035482687
-0.0031441683
-0.0031564112
0.00071956485
-0.023290277
0.003264909
-0.013061474
0.0073069804
0.012780894
-0.006287163
-0.006481188
-1.3468377e-05
-0.0059312494
-0.020123243
-0.006895886
-0.008683526
0.0046948832
-0.00030212934
0.0018472379
-0.00916789
0.0075279544
-0.004320549
0.009069981
-0.00725868
-0.0029815459
0.01034594
0.002932097
0.010323078
0.0008836237
-0.00052913994
0.015620995
0.018756064
0.003975184
-0.011418904
0.012077427
0.014326119
0.015724713
-0.0005382935
-0.0024689822
0.006107111
0.01580004
0.008662038
-0.015325964
-0.00448892
-0.014473704
0.007719491
-0.00026371222
0.02579027
0.011036684
-0.024135124
0.0004001956
0.018345727
0.00871063
0.011913717
0.008905139
0.0066729197
0.00026305267
0.009271717
0.0008978975
0.002118619
-0.0046580518
0.009655414
-0.005588707
0.0037471803
0.011158536
-0.019335419
0.006883022
0.0129809845
-0.0008053619
-0.018375909
0.0017847607
0.0051540867
-0.009342644
0.003216642
0.0029334088
-0.016385706
0.0049866033
0.014630068
0.020508753
0.010094598
0.0058507733
-0.0072199306
0.0013152357
0.022569096
-0.00019924738
-0.013130048
0.0071717678
-0.001936479
0.006961397
0.007346549
0.00965514
-0.0016001374
-0.008156208
0.0052302107
-0.0150591545
-0.0030783787
-0.028713493
0.010092244
-0.0026373174
0.0019290657
0.006110907
0.006886872
-0.0024493495
-0.0034349028
-0.0068331347
0.0006618387
-0.014523508
-0.014526716
-0.0009285447
0.0016588385
0.019691922
0.008251575
-0.009952518
0.0064246994
-0.0041016433
0.0019717475
-0.013638212
0.003889577
-0.013995951
-0.0028860213
0.00048134418
-0.013816618
0.023578586
-0.0017538215
0.0043875226
0.00153141
0.008218382
1.5775548e-05
-0.007944646
-0.021804292
-0.013275604
-0.003050389
0.012513008
-0.006533209
0.0142457215
0.016103765
-0.006884003
0.0063625285
-0.009456644
0.021561012
0.011620046
-0.0064597456
0.00046263955
0.007931488
-0.0027450412
0.000902407
0.018223776
0.001432923
-0.003398474
0.00058569753
0.002867945
-0.015146231
-0.000694072
-0.006720462
0.0023954264
0.013009197
0.0043283077
-0.0084592365
0.015504037
-0.0018038295
0.0046813576
-0.0017018007
-0.0023416376
0.009881366
-0.019371748
0.0011885953
-0.0021752638
0.00061174826
0.011312856
0.0059552235
-0.0043790326
0.0060201725
-0.0028479162
-0.0017017383
-0.011887465
-0.008071372
-0.014591971
-0.01113194
-0.005996358
0.022774382
-0.017129755
-0.004883438
-0.0025514844
-0.0069980905
-0.012579101
0.024658382
-0.0005393715
0.005751743
0.0024872709
0.0072043827
0.0057385853
0.0010203394
-0.0060810624
-0.007030165
-0.0045686513
0.00663063
-0.0038272345
0.0039176955
0.0013631337
-0.009504295
-0.010978873
0.0026331854
-0.011575377
-0.0040795174
0.0014751019
-0.0007773891
-0.0134558035
0.003340854
-0.0055423127
2.6483996e-05
-0.015037308
0.00547382
-0.0056908773
-0.004769914
0.012418595
0.0035768687
-0.0016096603
-0.007433156
0.008168221
0.0022305371
0.0014113483
0.010634628
0.009238407
-0.009317622
-0.011370016
0.009239319
-0.008600098
0.003064057
-0.018668162
-0.016741194
0.005212623
0.009173597
0.00825208
-0.0038599612
0.018570522
-0.0013353622
-0.004407575
0.00831842
0.0053800093
-0.015493629
-0.0018910354
0.008680781
-0.0017858847
-0.009167427
-0.01438345
-0.001655349
-0.0007446376
0.005354898
-0.00034189443
-0.0026494833
-0.006759638
0.00029488202
0.009990332
-0.0022060755
0.0013814432
-0.020117966
0.0032062086
0.0027818137
0.002595812
0.014084621
0.015938763
-0.015138792
-0.011056057
-0.014146556
-0.00576317
-0.0064557777
-0.00068073295
0.019869715
0.0027709936
0.012579271
0.0032766052
-0.008111074
-0.0020848487
0.003422127
0.0028328262
0.015462829
-0.009359803
-0.027371656
-0.0072780987
-0.0035001982
0.010359386
-0.016521603
0.004059731
-0.0017718229
-0.0021995956
0.00472893
-0.007367408
-0.014715444
-0.0029014882
0.0020631475
0.01107635
-0.007366809
-0.0051389
-0.010053852
0.0020174228
0.0004337985
-0.0053283004
-0.017154144
0.0081084445
0.014005954
-0.0082605565
-0.00011705755
-0.0020933747
-0.003988398
-0.0051102876
-0.0013444852
0.0025569557
-0.0012848723
-0.0065435963
0.0024978647
-0.009251737
0.0055851084
0.00017359025
0.0066357353
-0.018501336
0.0068854736
0.0030062192
0.00033812242
-0.0075688674
0.016728144
-0.0036303084
0.013613002
0.004572831
-0.017501993
0.0057101194
0.010435808
-0.00951797
0.0026428353
-0.008071249
0.0020971226
-0.0029087653
-0.014307472
-0.0062607704
-0.004445549
-0.0014186901
-0.019863786
-0.0056758695
-0.014482869
0.0021535188
-0.011607869
-0.008609444
0.022861097
0.013135716
-0.0017557832
0.0008105032
-0.001784475
0.0009059023
-0.0063177585
0.007355358
-0.0033832109
0.013660287
-0.014002949
0.0029590519
-0.007391836
0.0144410115
-0.0004458195
-0.0024743713
0.002889892
-0.0042033005
0.013063066
0.0033133386
0.0051390184
-0.008564081
0.0029343301
0.00763804
0.0019705498
-0.0011432972
0.0145823825
0.0028252234
0.012390016
-0.0054499786
0.00027362743
-0.0046491283
-0.007094107
0.003362463
-0.018221803
-0.0033818155
0.017341668
-0.0022569818
-0.020309458
-0.011574085
-0.0084260525
-0.021687407
0.008652323
-0.017906137
0.010743118
0.01132989
0.008175964
-0.008701469
-0.007171679
0.0020330097
-0.005011482
-0.0035779213
-0.0053035105
0.020568108
0.0024222077
-0.011617019
0.023662362
-0.011491104
-0.0046725376
-0.0045221713
0.008444671
0.012311755
0.0114124
0.0123266885
0.00091517164
0.0028227116
-0.007522635
0.0014397328
0.0005672897
0.0077339965
0.006402908
0.0009861389
0.01669706
0.00060188636
0.0007505325
-0.0013444978
-0.0058061597
-0.00035540335
-0.0049926518
-0.0094078025
0.007096091
-0.0071016583
0.00042260071
-0.008114148
0.0046277586
0.005463087
-0.0027812382
0.010725306
-0.004615855
-0.0005318475
-0.015295089
-0.007739719
0.005631484
-0.004572708
-0.008016481
0.030296853
0.0035754594
-0.012303894
-0.0015869122
0.0074254135
-0.0123708565
-0.0017247036
-0.014732104
-0.010232564
-0.006387108
0.018270843
-0.013195152
-0.020878302
0.00939553
-0.0070761573
-0.013487052
-0.010096179
-0.021922585
0.008889808
0.005748293
0.0038373077
-0.0019746637
4.7144047e-05
-0.011137042
0.009332249
-0.0044345967
0.0068041575
-0.009690094
0.011424109
8.2304705e-06
0.002074949
-0.0044579036
-0.0069705304
-0.014171307
0.0061197123
-0.0028811574
-0.015286495
0.016526626
-0.009694371
-0.0058717867
0.009957752
0.005696418
-0.0056176083
-0.011892396
0.006591214
-0.014246204
0.0058737746
0.020810148
-0.0022816695
-0.014945068
-0.01070936
0.0034392194
-0.0029539894
0.0034417796
-0.014173581
0.0110075595
0.0133839175
0.009478402
-0.0002602877
-0.007387228
-0.012265789
-0.0005227711
0.0035998342
0.005814749
-0.013316099
-0.0029131717
0.01484438
-0.0051536667
-0.0003797113
-0.005013043
-0.008165961
0.014198787
0.013532333
-0.0024358325
0.0006727425
-0.005385921
-0.013929658
-0.0025937776
-0.01961841
0.01934212
0.0061033242
0.021363722
0.021953858
0.012799016
-0.0051464317
0.010970611
-0.00399214
0.013389281
0.026035892
-0.0009287948
0.00777823
0.0006295567
-0.0094012
0.009585511
-0.0008105979
0.012411982
-0.0015394075
0.003597356
0.0029683465
-0.012408239
0.016683292
0.012792384
-0.018516619
0.004368778
0.004014566
-0.020254152
0.0023921707
0.005501269
-0.015926925
-0.0016418245
-0.0007738543
0.018257238
0.0043444303
0.0058710924
0.003962759
0.010912899
-0.0016413874
0.0045262296
0.005793055
-0.014991119
0.0005929511
0.0074653807
-0.00586754
-0.010815692
-0.0061077327
0.0020532554
-0.014954188
0.0051330957
0.0061452463
-0.0029080126
-0.004059695
0.010081189
-0.011775402
0.005705462
0.0008870565
0.0045536114
0.00011610526
0.0004754503
5.1856656e-05
0.018105209
-0.01709776
-0.0036788478
-0.001040716
-0.01250918
-0.008306658
0.0032033178
-0.009384703
-0.0071292208
0.011975299
0.010422486
-0.011265225
-0.009636085
0.008853595
-0.0043683997
-0.009757559
0.015264507
-0.0029472013
-0.0033837755
0.0012493877
0.006506429
0.009972028
0.007445287
-0.015390397
-0.0048013763
0.012678592
0.002473852
-0.006003388
0.011716429
-1.6417403e-05
0.0083250245
0.011657862
-0.0020425178
0.012644629
-0.0053981
0.017364262
0.004968951
0.0058621913
0.005487429
0.004211807
-0.009329655
-0.012760201
-0.002871244
0.009219653
0.004824947
-0.007933373
-0.022655034
-0.0023968793
-0.007992589
0.009547894
0.014759788
0.007565214
-0.0013087218
-0.008311018
-0.007192894
-0.007836425
-0.00511373
-0.00077998516
-0.004331972
-0.002739135
-0.009071425
-0.0006930972
-0.012200028
-0.004978076
0.005562218
-0.0022040205
-0.0056272647
0.00040555806
0.015946528
-0.012056235
0.0034867045
0.009788888
-0.009270983
0.006806607
0.005042753
-0.017168205
-0.010365882
-0.005085229
0.0071495934
-0.0029303406
0.016056204
0.002702382
-0.012378983
-0.0034370283
-0.0039141793
0.02773625
-0.003698428
-0.013385809
-0.0051715933
-0.005674804
0.004320755
0.009934681
-0.009388974
0.015678836
-0.0060614124
-0.027392158
0.0065521216
0.005029674
0.0012220786
-0.009247771
-0.0058790655
0.0027583498
0.010093052
0.006762791
-0.02560512
-0.0069258595
0.0119510805
0.0026225166
0.0038547884
0.014977134
0.0065089986
-0.0037783217
0.008693507
-0.020598717
-0.005124609
-0.0032671818
0.0040566693
-0.015834855
0.0035344034
-0.008021057
0.010077413
0.017592287
0.00056634925
-0.011882628
0.008065521
-0.0033805445
-0.00652027
-0.0014738712
0.0061957613
-0.01184297
-0.02100099
-0.0036980866
-0.004789613
-0.0024366989
-0.006374052
-0.00022801493
-0.0030617411
0.00034565854
-0.0019587732
-0.001888385
-0.0074274777
0.012381675
-0.01584557
0.013774184
-0.007450819
0.01585831
-0.0031396283
-0.0035710356
0.0024162163
0.0008293172
0.002850372
0.0010002737
-0.0065041557
-0.010910569
-0.0063214046
0.0012903184
-0.008088349
-0.0018075434
0.003112572
0.0060847066
0.0043534413
-0.003911
-0.0006546589
0.0022105612
0.00068025227
0.0065101623
0.01318029
-0.0005352362
0.02517541
0.0062439367
-0.014823601
0.0027386665
-0.015202623
0.0045614513
0.010585474
-0.0054230657
-0.0055367392
0.0024508515
-0.00697071
-0.005213327
0.014537062
0.0059794383
0.005574017
0.007081652
-0.004230679
0.01170434
0.01631444
-0.0047177225
0.008709916
0.013466236
-0.0073162173
0.005177641
0.0066334987
0.0041912463
-0.003872071
0.0063387654
0.010477189
-0.005286075
-0.014375617
0.011019251
-0.011073164
0.005444068
-0.0012041334
-0.00045632673
0.013677718
0.0009570149
0.0034424688
0.00016079075
0.0035706249
-0.019352883
0.012158748
0.009607858
-0.00708654
0.0050804424
-0.026785526
-0.0062044878
-0.011138496
-0.006744813
0.018728994
-0.006507323
0.0010985661
0.017033622
-0.0030947279
-0.005497739
-0.001684024
-0.013249534
-0.0009852431
-0.0009022955
-0.011208183
0.010145605
0.0035406267
-0.010019576
0.00084356917
-0.008952297
-0.0046635014
-0.0073995464
-0.009715485
-0.013061343
0.004070208
-0.0017003855
0.0033024135
-0.012621243
0.005756508
-0.0067228917
-0.0030141692
0.0023191692
-0.023196148
0.0075205746
0.017587448
0.01820318
-0.0030650788
0.0046082316
0.02622257
0.010791533
-0.0052077505
-0.007182593
0.013035617
-0.008706829
0.014312499
-0.010479226
0.0084089665
-0.0015142304
0.011962771
-0.0015115223
0.0015608504
0.0021387448
0.012930114
0.003129659
0.014652642
-0.0049881455
0.0018821064
-0.007456142
-0.005253952
-0.001861191
0.0067015653
0.013519719
0.012738386
0.009776115
-0.011153333
0.0053840266
-0.0111818705
0.003375459
-0.008093273
0.0015207165
0.003445117
0.024272794
0.007197519
0.00020221676
0.013374181
-0.018511107
0.019366454
0.013183349
0.011450815
-0.0022721582
0.002481787
-0.014551219
0.0066392007
-0.0057133934
-0.0050867763
0.005955328
0.003435094
0.0052690497
-0.0059688706
-0.030550499
-0.0017627275
-0.0004663774
-0.0035347594
-0.0062361755
0.003823845
0.0008710171
-0.0096223075
0.00059268944
-0.02365008
-0.0041475487
-0.012273619
-0.023186719
0.0066149244
-0.0033542716
-0.0015581037
-0.009554317
-0.007985779
-0.003351429
0.016796112
-0.001774702
-0.0047052465
0.006219243
-0.008141726
-0.0014619903
-0.008356026
-0.008063198
-0.009963205
-0.0053383047
0.014045843
-0.0035368602
0.017202193
-0.004119223
0.0057312334
-0.011028775
0.00416276
-0.0001921698
-0.013574074
-0.0054835975
-0.0019120326
-0.010371369
0.0118673425
0.00050778367
0.016121728
-0.0134251295
-0.015402536
-0.003218004
-0.015587007
0.0072153956
-0.0022113116
-0.0033614028
-0.013519927
-0.00010444014
0.007809889
0.007828408
0.016899679
-0.002676219
0.02277095
-0.009082258
-0.018756414
-0.029970815
-0.0072211777
-0.018603584
0.004082391
-0.0102814855
-0.00038119027
0.00500795
-0.011891958
-0.0017612936
0.007426127
-0.020789415
-0.009418192
0.017760757
0.0077803973
-0.012582342
0.003593591
0.0005557135
-0.0089601
0.0059227464
0.01824343
-0.011223571
-0.014993694
-0.016866906
0.009003833
-0.00094764685
-0.009317191
-0.0014451757
0.0031204831
0.0053955996
-0.00051487825
-0.0061091213
0.00976875
-0.0041394625
0.0030259693
0.00017343066
0.0076930514
0.004965794
0.0063416623
-0.0036051874
0.0019138469
0.002439282
0.0015331529
-0.010042642
0.007887703
0.009665567
0.013603841
0.00082199153
-0.008654493
-0.005441907
0.0008510006
-0.0031758468
-0.008497218
-0.011353169
-0.007118509
0.008834145
0.0034011796
-0.010456698
0.0046130037
-0.008803644
-0.0050428836
-0.003439973
-0.017825987
-0.00083010324
-0.018148549
-0.00024928793
-0.009781834
-0.015467672
0.016017808
0.0050332835
0.0032350337
0.009447753
-0.008522236
-0.02384106
-0.021362402
0.009744385
-0.005265156
0.018122664
0.03270348
0.0047235712
0.007728593
-9.3796756e-05
0.0015236663
-0.021197462
-0.003377439
0.005131979
-0.0038314648
0.003699291
0.0130250845
0.020558339
0.0118846
-0.002934734
-0.010822187
0.0117007
0.003678756
0.0030058743
0.019520815
-0.0050534382
0.019352518
-0.00047053126
-0.009145314
0.011001789
-0.012772232
-0.014649472
-0.010566662
-0.018126978
-0.015595906
-0.008226343
-0.011461777
0.013029505
0.002506494
0.0046919757
0.0022308608
-0.0068406807
-0.005856674
0.0093963845
-0.016315488
0.003937321
-0.00054696616
0.0176454
-0.000116813164
-0.0010885596
0.0013631487
0.012906766
-0.0020920676
-0.012188005
-0.010298576
-0.006588162
-0.0042969002
-0.0035100728
0.011266382
0.009730364
-0.0026906189
-0.008993838
-0.010826777
0.0034186705
0.007717972
-0.0035297982
0.015569696
-0.0005207433
0.0011226783
-0.0039914474
0.0065100538
-0.002293145
-0.002826957
-0.00038293342
0.010187641
0.0099154115
-0.017788673
-0.016393451
0.0050800624
0.01229367
0.035696562
0.0015248845
-0.0071897074
-0.00016826732
0.0027219898
-0.013949655
-0.015488655
0.016514692
-0.005633066
-0.017208342
0.00976019
0.016749436
-0.0033363726
0.0147903105
0.011141225
-0.01728189
-0.00062490226
0.0035615861
0.0048170867
-0.00546386
-0.008301642
0.018361462
0.021273486
-0.023971135
0.0006577507
-0.0058412342
0.023057481
0.000986522
0.009163185
-0.01057757
0.0010332239
-0.0034325423
-0.006723956
0.0022777133
0.00020095882
0.012506808
-0.011219378
0.0064654895
0.0036705243
0.0001302733
0.021012753
0.006586461
0.023949508
0.015188543
-0.013882071
-0.021188796
0.011742647
0.0190189
0.005889511
-0.0010603986
0.005403145
0.0057582436
-0.0066976976
0.005106053
0.008854332
0.018012127
-0.0073781977
-0.0016615008
-0.005935308
0.002608537
-0.0066825333
-0.0022584365
-0.008124105
0.012148319
0.008071097
0.0068762805
-0.025445037
-0.016921485
0.015680602
-8.9141606e-05
-0.01480416
0.0073460243
0.011236221
-0.0048249085
0.0007715498
0.0059127854
-0.0035281049
0.014716567
0.005685066
-0.007957546
0.0058001773
-0.003252643
0.016265228
0.012443693
0.009808997
0.021422492
0.0034579718
0.0064494233
0.0072685
0.010071927
0.013574218
0.0063206544
0.00078277226
-0.014462996
0.0022573457
-0.0075481245
0.011035749
0.0035207393
-0.00068932876
-0.00960925
-0.007287925
-0.001982178
-0.018178292
-0.0043552313
-0.030584075
-0.017344877
0.007704718
-0.020644827
0.0026101314
-0.011175659
0.0016108187
-0.0030416888
0.0005179517
-0.0017469543
0.0025832956
-0.0034581267
0.0010767247
0.01588538
0.016754363
0.0076951543
-0.0129460655
0.012047538
0.013562715
-0.0017836768
0.0089441305
-0.0048545166
-0.0016173673
-0.014802744
-0.0030080557
-0.01714109
0.0037698022
-0.006167738
-0.00965078
0.0075323954
-0.006731161
-0.025426622
-0.0018075855
-0.012183174
0.00025648563
0.008833086
0.0010193277
-0.00853122
-0.006799299
-0.0074998075
0.0027838822
-0.008989208
-0.017668588
-0.021323318
-0.0016637219
-0.0036753789
0.011032066
-0.013704718
0.009925747
-0.010830123
-0.0041281385
0.0017954558
0.0033672096
-0.0069878255
0.003340499
-0.014015182
-0.011677198
-0.011892527
-0.011734307
-0.004700656
0.0033674622
-0.008205703
-0.008961842
-0.032609913
0.0007980081
0.005379056
0.003964658
0.010696743
-0.016631048
0.01190728
0.01516376
0.0071418528
0.011760437
0.009759462
-0.021393491
0.00035611074
0.0010046907
0.010602915
0.008676544
0.0004167423
-0.0027119915
-0.00035851562
0.021442454
0.008197164
-0.016839273
-0.019521184
-0.009291298
0.010060953
-0.0013789079
-0.008203604
-0.0011196637
0.0016103927
-0.006061808
0.02788556
-0.0031260836
0.0072056353
-0.004309499
0.010436527
0.0073838285
0.006778428
0.001929886
-0.010099011
0.006372855
-0.009165804
-0.011650513
0.012913289
0.0043186513
-0.025097039
-0.0077023474
0.0066925213
0.011148359
0.008412527
-0.0085472185
0.0146458335
0.007814081
-0.010328383
-0.0029511873
0.0058299024
0.002487111
-0.019077754
0.008262456
0.0002871748
0.007872909
0.0090330355
0.0035989168
-0.01435474
0.004163084
-0.00041640023
-0.0057002716
-0.008292013
-0.00464733
0.014250257
0.014165049
-0.012348656
-0.0028140815
0.015508939
0.011921321
-0.005396467
0.003981216
0.022175435
-0.014411835
0.010001209
0.006337956
0.021362584
-0.026404433
-0.0072639524
0.0124312565
-0.015950222
-0.020687802
-0.002893989
-0.0083118575
-0.007314091
-0.016100097
0.0020919493
-0.0012569014
0.017430374
0.011434044
0.0029301436
0.005328074
0.0025614882
0.012859141
0.0014088891
0.004707668
0.0028826979
-0.012351885
0.0011300347
-0.015615145
0.006683091
-0.002742756
-0.00071064103
-0.0016555416
0.008677199
0.01134558
-0.009823031
0.004953432
0.0041127843
-0.022017993
-4.304988e-05
0.0014344582
0.014310512
0.00673541
-0.01078722
0.005086459
-0.015320834
0.013496345
-0.0036820997
-0.020660212
0.007284177
-0.009857192
0.015513038
-0.007387436
0.012141866
0.012333749
0.0051371423
-0.02122792
0.008347748
0.0051705167
-0.011818583
-0.019120296
0.009099553
0.0038730633
-0.0087139
-0.012142249
0.0051792488
0.0026841604
0.00397746
0.0048584733
0.012968585
0.00030759687
0.008533358
0.015985712
0.0028114193
-0.007280171
-0.0041020988
0.013871517
0.0047000865
-0.007771679
0.011042633
0.01025517
-0.010158138
0.01950102
0.004361441
-0.01570691
-0.0013911204
-0.0025215992
-0.0009939967
0.014002959
0.002593692
-0.011927773
0.0036548588
0.006868007
0.014386068
0.0036967199
0.013041464
-0.013359909
0.007869592
0.014475261
-0.00082425796
-0.012808532
0.014213538
-0.03620067
-0.0017616011
0.021228075
0.0022166988
-0.00900683
-0.009782296
0.018187119
0.006321171
-0.0032941713
0.0031747061
-0.0020755546
-0.0054580844
0.0029334377
0.020088105
-0.0061382144
0.006314721
0.03095142
0.0029099563
0.01284974
0.020330662
-0.007709773
0.0067730877
-3.296825e-05
0.0050374595
-0.014459252
-0.00275092
0.0015477341
0.0009954241
-0.01854923
-0.0035662423
0.011136057
-0.008778127
0.0129471645
-0.006228494
-0.018606983
0.009916471
-0.007870683
-0.0040573943
-0.007233595
-0.005391045
-0.0031489606
0.0028969222
-0.027325813
-0.007196142
0.008247748
0.02340999
-0.0044742767
-0.0018001328
-0.00812809
0.029555827
-0.010056325
0.020017184
-0.026074443
0.0030517366
0.0032813814
-0.012164986
0.00337118
0.015308612
0.019497886
0.011355715
-0.0117285615
-0.008197724
-0.013256969
-0.002269092
0.0024747285
-0.005115801
-0.016064767
0.006732435
-0.0008150696
0.01680765
0.008478925
-0.004165543
0.010186242
0.00938352
0.016324485
-0.010516103
0.0026845094
0.0024259728
0.019361675
0.0037610542
0.0019154935
0.0020554396
0.013446076
-0.012577923
0.0042078653
-0.009197262
-0.0053775967
-0.013710295
-0.0036640957
-0.0031237537
-0.0046073194
-0.0026015155
-0.0047895196
0.0089362515
-0.0039845463
0.002676194
-0.015099211
-0.0042031216
-0.013106863
0.012084073
-0.0049369633
0.01342463
0.0052741515
0.0020667445
-0.008887864
0.0038924075
6.965305e-05
-0.011534683
0.01762379
-0.0013465966
-0.011395093
-0.004670479
0.019396598
-0.009441509
0.0099223275
0.01813515
0.0030063118
0.00036995058
-0.010325457
0.012273972
-0.008961663
-0.012006211
0.0095749255
0.0053942343
0.008910855
0.006656811
-0.0066043045
0.012850467
-0.024622666
0.014041747
0.0036592686
0.008014868
0.0071420805
0.0017611115
-0.009165138
-0.004383272
0.006001244
0.0019970157
0.0028750496
-0.015052787
-0.005970055
0.013171363
0.020229768
0.008487418
-0.008048563
-0.007983346
-0.016408509
0.003948598
-0.0016334597
-0.010140245
0.004462707
-0.013629693
0.0040845694
0.00565713
-0.008375451
0.0027302995
0.0029954412
0.0023418753
-0.010937659
0.00010012967
0.0032595987
0.013167783
-0.0044439505
-0.009434394
-0.01767349
0.012270186
-0.003562988
-0.009968125
0.004479787
0.014540746
0.0009629752
-0.023871548
0.010401006
0.018551467
0.009192093
0.0100758355
0.0051600626
0.01613473
0.007394832
-0.0019792083
0.006830405
-0.012852074
-0.01231356
0.004599737
-0.010185806
0.002166722
0.0075306473
-0.001765444
0.014805322
0.01093434
0.01264951
0.002734735
-0.015090585
0.009349888
-0.0012967862
0.0025315627
-0.0058144457
-0.005410971
-0.0066584037
-0.0059111402
-0.015643528
-0.010650117
0.002498768
-0.002654282
0.0024978777
0.0007810833
0.008060774
0.013602538
-0.0018164824
-0.006094777
-1.6060087e-05
-0.008658716
-0.0069898535
0.0045262724
-0.0017250027
-0.009625146
0.004248928
0.004350924
-0.010554207
-0.0008858771
0.00662369
0.014397249
-0.016481949
-0.02149905
0.0062697222
-0.0030569173
0.0049712965
-0.00963471
-0.012318815
-0.00517207
-0.0054537067
0.0011174679
-0.00038693353
0.010239835
-0.018751413
-0.021934556
-0.015042084
0.008804196
0.012588464
-0.0057668164
-0.012976379
-0.011910865
0.001622034
-0.004275233
-0.0049421117
0.0031379093
0.0042308397
-0.0023809746
0.00750142
-0.010949971
-0.006201415
-0.015317481
-0.014160873
0.0074308496
-0.010357769
-0.008875525
-0.008806175
0.0042685196
-0.0012706784
0.013638378
0.0033876481
0.003125342
0.0076812934
0.00823989
0.01320665
0.009385066
-0.003841629
-0.0011701115
-0.027611993
0.011626304
0.0032590025
0.00041806826
0.0025997567
-0.002167373
-0.009547607
0.0020689378
-0.015627211
-0.003986897
-0.0030169757
-0.0003013941
0.0073765456
0.00321784
-0.004404881
-0.0063868253
0.010114709
-0.0020463213
-0.0045244247
-0.013144175
0.008879719
0.0018137196
-0.0040231897
0.012147198
0.014169968
0.017684782
0.006757732
-0.01140507
0.009904571
0.010650364
-0.020691182
-0.015709195
0.0023876354
0.0132025285
-0.003416499
-0.011377675
-0.00664722
-0.0038468884
0.009170157
0.020321224
-0.003343925
0.019016506
-0.0029542174
-0.0065173423
-0.00023246903
-0.006332853
0.003732924
-0.012836768
-0.0005786349
0.0049293265
0.0044690724
0.011241721
0.0049289498
-0.0028884294
-0.0002904308
0.006218824
-0.00642942
0.01739494
0.006707441
-0.0037744641
0.0065115797
0.006880906
-0.0074755177
-0.014657294
-0.0061954483
-0.0015664485
-0.007528346
0.013757666
-0.01978639
-0.004569509
0.007815082
0.020854346
-0.013066656
-0.010163573
0.012783035
-0.0048228083
-0.027503064
0.001632781
-0.011720523
-0.0047455835
0.02668843
-0.009986255
0.0007216375
-0.023526706
0.010158883
0.0025877692
0.026650269
-0.0094607705
0.009682951
-0.0033094864
0.007236713
0.002397264
-0.0016104343
0.015109958
-0.014188457
0.015742643
0.006074016
0.0016655837
0.010098075
-0.0051208097
0.009133163
0.0026828414
0.0029282072
0.018377911
0.0055896305
0.012522179
0.011871108
-0.012327927
0.009807126
-0.007931237
-0.005663321
0.00487928
0.0032711446
0.005249922
-0.007333839
-0.012141347
0.012806535
-0.013716849
0.0034938478
-0.011379256
-0.019903852
-0.013653555
-0.004080188
0.007888781
-0.008205948
-0.00872819
-0.0026238605
-0.00751459
-0.013990591
-0.006920392
-0.009257797
0.004133138
-0.0074742544
0.01124963
0.018020812
-0.016892547
-0.008158485
-0.015252837
0.0036179489
-0.01160541
0.016508514
-0.012314726
-0.0023901472
0.007720067
0.0043894844
-0.004182809
0.004194999
-0.0069574285
-0.01021623
-0.01275142
-0.0044546635
-0.0022022058
0.007922419
-0.010205742
0.0068662087
-0.0192705
0.000773383
-0.005674367
-0.0046086116
-0.0023080036
0.018371552
0.0058706556
0.013111944
0.0062686047
0.0058684894
0.011328647
-0.011454216
-0.0016474993
0.0067711067
0.008205373
0.00043981508
0.008711622
0.0005823202
-0.0028376242
-0.010177749
-0.013657601
0.0039497367
0.0048541566
0.016873697
-0.003123113
0.0022459805
-0.014595127
0.016617125
0.0018186278
-0.025107354
0.009891733
0.009168196
0.00847135
-0.0028016535
-0.010994444
-0.008239476
0.02283157
0.0031820254
0.015435098
0.0031746053
-0.009935745
-0.0018526035
-0.0029081919
-0.0076234494
0.0052698413
-0.011446678
-0.0059316084
-0.0064383284
0.009596714
-0.004862997
0.0034266422
-0.0022474793
0.00716763
-0.003975572
-0.0040199123
0.0004053762
-0.021090332
0.012034593
-0.00083711435
-0.008062812
-0.0029146054
-0.002143601
0.0005812138
-0.008813478
0.0004202794
0.003978667
0.003621823
-0.012071811
-0.0019026713
-0.005975077
0.009804428
0.0060077547
0.0057421443
0.0033890398
-0.00905449
-0.0025037422
-0.009880815
0.0075246464
0.010192704
-0.0027185057
0.0062021147
-0.007141786
0.0082248
0.016234534
0.008501073
0.016104091
0.024214225
-7.385088e-05
-0.0068243477
-0.0027825877
-0.01668103
0.011973241
-0.019892784
-0.0053153047
-0.007910183
0.017035067
0.0020724107
-0.002244315
0.0010219914
-0.0003899894
-0.0030026527
0.009835336
0.013105565
0.0015516533
-0.011929277
-0.009402561
-0.0060648355
0.0136609245
0.003019509
-0.0005503838
0.02365307
0.009269902
-0.0042539975
0.0010378256
0.0089262
-0.006314549
-0.0144562945
0.010203473
-0.023480222
0.016125983
-0.008443843
-0.0018998345
0.002650852
-0.011849072
0.011760531
0.005127931
-0.010717214
-0.0059164152
0.0016830649
-0.0033449242
-0.0024974414
0.011046291
-0.011073212
-0.0114895115
-0.022208849
0.0146968
-0.0013040943
0.016330997
0.0114677185
0.008468361
-0.016388668
-0.0010551497
0.00090135133
0.012205437
0.0010410086
0.010479548
-0.0030193436
0.010265133
0.0060734292
0.0054627936
-0.0047258916
0.0032650062
-0.00018774474
0.0031507781
-0.012692363
-0.0033950487
-0.0030085202
0.009310941
0.0013885713
0.019453509
0.011667586
0.008124851
-0.0019898813
-0.008459484
0.0062701963
-0.009708727
0.010052789
0.0034279039
0.014285824
0.020177154
-0.0070506805
0.009529075
-0.009488137
0.010783891
-0.006865668
0.01743905
0.012475895
0.0067918287
0.0013019183
3.351585e-05
0.0142399045
-0.0063019404
0.0066810166
0.0046639205
-0.00097158353
-0.0034244503
-0.013683078
-0.009352935
0.016509809
-0.0015830323
0.014694515
0.01076546
-0.00041949996
-0.016767804
0.003573546
0.0020746826
-0.013121064
-0.001320293
0.0072905514
0.0070605366
0.0065165674
0.00024639396
0.015958257
-0.010017273
-0.005765102
0.007331898
-0.0017723795
0.0012876828
-0.01337554
-0.003201654
-0.013492654
0.009550712
-0.011361492
-0.006348687
0.007094782
0.0033984045
-0.0032346868
-0.0028158918
0.011605234
-0.007529368
-0.004984735
-0.0034642655
0.010741231
-0.013028594
0.003096308
-0.0025784841
0.0032733774
0.0046309605
-0.005063049
-0.008300855
0.017387196
-0.007205034
0.0014007263
-0.011252471
0.0004810941
0.00085556693
-0.0077292905
-0.0028364854
-0.014832323
-0.0062191347
0.007249505
0.011504587
0.015666783
-0.011010285
0.0009932399
-0.0183035
-0.009973574
-0.0055798134
0.0034858894
0.00078909076
0.0040320996
-0.013573408
0.01506288
-0.0013384969
-0.006102312
0.0052443845
-0.015050443
-0.0071137697
0.012413565
0.0016687247
-0.0053803725
0.005771949
-0.009004772
0.0052520535
0.0013292783
-0.01341664
0.011545676
-0.009004642
-0.002301114
-0.008655765
-0.002438526
-0.009388355
0.00059633754
-0.0006121654
-0.007706409
-0.0018827253
0.0023877316
0.00046725612
0.0068992693
-0.021466296
-0.013314031
-0.01176071
0.004869982
-0.0010936576
0.0026139112
-0.0055728126
-0.004344885
0.00044492062
0.0059643365
-0.0073586563
-0.01630952
0.0018016754
0.008458801
-0.0045323414
0.011676068
0.0064659636
-0.0043966435
-0.0055335932
-0.0028311093
0.01306959
-0.011718756
0.008159467
0.001163349
0.0055616
0.008644323
-0.012045463
0.00036010108
-0.01588224
0.011683044
-0.00275211
-1.06286825e-05
0.010010691
-0.01395069
-0.0040741647
-0.00626146
0.0015534402
0.0035667347
0.014996323
0.004123693
-0.0091159595
0.006817133
0.0068451664
-0.011934741
0.004629616
0.01680345
0.013243613
0.007676997
0.00494403
0.004347467
0.007945794
-0.0019477258
0.017084172
-0.0017927333
-0.005033213
-0.006001654
-0.016596997
0.010094707
-0.00601853
0.0025815754
-0.007624539
0.011122835
0.0044635544
-0.011201003
-0.003474394
-0.00039993256
-0.0062109637
0.0053165075
-0.007932461
-0.02123127
-0.0043019434
-0.0134488605
0.006891327
0.02274481
-0.0037970708
-0.010791476
-0.01676368
-0.005850978
0.008498534
-0.00059004046
0.012401988
-0.014606403
0.0069618034
-0.0014376561
-0.0076410547
0.008433793
0.012618986
0.0032855938
-0.009956423
0.0072773974
0.0010523103
-0.00054719404
-0.0035753434
0.0016551551
-0.0049431776
0.013015649
-0.015254196
-0.01670788
-0.008910722
0.01478758
-0.0011966948
-0.0010275495
-0.02716447
-0.013023365
-0.006069435
0.0075599602
-0.00901135
-0.008477446
-0.005396402
-0.0050585847
-0.019516625
-0.0058695767
0.011363823
0.016874984
-0.0109907985
0.0032902893
0.010432788
0.00903973
0.0075476556
-0.00092702813
0.022859478
-0.01459668
0.026342949
-0.0014543089
-0.00072160683
0.0044680457
0.005833201
-0.005543924
-0.01953706
0.0002774499
-5.1559586e-05
0.010838953
-0.024167642
-0.016788635
-0.027473088
0.0016290346
-0.00086044334
-0.016289411
0.000570591
0.0076490194
-0.001579619
0.005693973
0.006114037
-0.0015731759
0.0062089674
0.014354325
-0.027374782
0.006560067
-0.0028535672
0.00012156502
-0.0050721024
0.0056456644
-0.023277769
0.001279307
-0.019452728
-0.0038410975
0.0016551039
0.00027941717
0.013339686
0.0096968645
0.016633682
0.0011295464
0.007682365
-0.014432995
-0.003229376
0.004718664
0.0075725
0.0011856534
0.0033767298
0.00982272
-0.0037019236
0.01942366
-0.0036789658
-0.006767394
-0.008403606
-0.00044346607
0.010367118
-0.013431375
0.007507987
0.005815775
0.001988508
-0.022197045
-0.01775173
0.013653161
0.00559746
0.00089555717
0.0062594265
0.020384466
0.020815145
0.0063340846
-0.0115647735
-0.00048579532
0.005828657
-0.020442845
-0.0037096953
0.021865167
0.000978593
-0.011957965
-0.007095299
-0.0018225223
-0.0013693499
-0.00950832
-0.0030400562
-0.0026406825
0.0001068537
0.010672026
0.0039646802
-0.010392859
0.0010111121
0.0038866499
-0.020111162
0.0005306196
-0.002053062
0.00020331923
0.00068850414
0.017835999
0.009219799
0.009726832
0.029943509
6.9348076e-05
0.011514866
-0.01017623
0.008940946
0.0038062795
0.0074629723
0.012284004
-0.0061106384
0.012814628
0.0075336318
-0.00926999
-0.012895907
0.011197329
-0.002575779
0.008088669
0.0037326815
-0.0025617185
0.001596408
0.010395008
-0.004851943
-0.0005247813
0.004114817
-0.02151135
-0.019006517
0.008913006
0.0028546145
-0.0027086462
-0.00036791916
0.016927404
0.021744149
-0.025199758
-0.0031753173
0.022002673
0.013888254
-0.0069779735
-0.0021850269
-0.0059666494
-0.015393611
-0.024537219
-0.0067213327
-0.011986074
-0.008884557
-0.0127960285
-0.01041337
0.008822579
0.008724885
0.0035253773
-0.0056034606
-0.0015793254
-0.009589003
0.0051336996
0.0035000711
0.0031046271
0.004059337
0.012595747
-0.009753529
0.0068324017
-0.0068655573
-0.005794562
-0.009202002
-0.001087298
0.007529745
0.01335295
-0.0044385605
0.013431688
-0.0042720265
-0.0051592174
-0.006448915
0.0070929504
0.0051339404
-0.006608462
-0.005032831
0.000883468
0.006113704
-0.0010929626
-0.002566137
-0.001975974
0.005524049
0.0085070245
0.026819386
-0.001828335
0.010117956
0.009716444
-0.007930876
0.016357748
-0.01313247
-0.019557698
-0.018149627
0.005017302
-0.0053536617
0.006078001
0.017404748
-0.015801443
-0.0010614579
0.0186347
-0.0015224835
0.0005975074
0.0021896476
-0.022818075
0.0028929126
-0.008327837
-0.0068460945
0.001478112
0.012329146
0.0037546519
0.011612365
-0.002925657
-0.005069241
-0.019073118
-0.014611846
-0.01469856
-0.0070034256
-0.01141906
0.013969284
-0.01702447
0.0048164106
0.009244293
0.0011473474
-0.024155786
-0.004489873
-0.006724143
0.0034296175
-0.003922372
0.004445707
-0.005112919
-0.009680012
0.025076715
-0.0040631145
0.010057531
0.011329372
0.00100537
-0.021140264
-6.981899e-05
0.016023146
-0.0065046945
0.0017795021
-0.008493749
-0.008026176
-0.0035848112
0.004965092
0.00018227403
0.015471778
-0.0030653072
0.0076151197
-0.013573537
0.008766036
0.011863675
-0.02111606
-0.007968092
0.0012736749
0.0056373607
0.009845225
-0.009947688
-0.0082549825
-1.541337e-05
0.007434633
0.010045866
-0.004019305
0.00672839
0.0044036955
0.004423772
-0.0056540356
-0.004507165
-0.005746989
-0.005561882
-0.0065481854
-0.004336148
-0.03526841
-0.0048224106
-0.010426807
0.0029738434
-0.010163281
0.010201575
0.0038514414
0.002160174
0.009209646
-0.006120189
0.0056421766
0.0032506315
-0.020054443
0.00527175
0.011268016
0.0029345516
-0.008705626
-0.004137653
0.006618171
-0.0032616784
-0.0050654737
-0.0064119534
0.011454839
-0.0068836394
-0.0044629914
-0.0032044528
0.0055970834
-0.015299522
0.016956255
0.010424814
-0.0066885524
0.0057353657
-0.0017158656
0.00046625806
0.00018837219
0.020934336
-1.3703005e-06
-0.01759881
0.0015886626
-0.007866747
-0.0055959034
-0.0012939702
-0.000954468
-0.012071333
0.0019461901
0.00018678521
0.0052590687
-0.009143176
0.005428238
-0.012703521
0.007871825
-0.0077957157
0.0028876646
0.000683591
-0.0041203694
0.0074947015
0.004310777
0.010769876
-0.004923484
-0.009857536
-0.002894981
-0.00830059
-0.014902299
-0.0091310935
0.0153009435
-0.0049975975
-0.0010772245
-0.0034952636
-0.004058344
-0.008619633
-0.009997085
0.011062791
-0.005190847
0.019199245
0.008853509
-0.013861995
-0.0120423315
-0.00532536
0.004541783
-4.18126e-06
0.0011289492
-0.017086266
-0.0038754588
0.0106614325
-0.0075479085
0.0056234067
0.0033072883
-0.00044131058
-0.0006151962
-0.017133273
-0.005256694
-0.0037999074
0.00068029057
0.008752135
-0.0102654705
-0.0028719802
0.012574004
0.008969649
0.0075432956
-0.0064045433
0.0030406788
-0.025096053
0.027774941
0.028282043
-0.023179319
-0.0082332855
-0.008841634
0.014373656
-0.011038601
-0.012155754
-0.005237308
0.0032539773
-0.008841723
0.0013347885
-0.0119244885
-0.009322349
-0.005599248
0.019179503
-0.012747492
0.00089321606
-0.0005025641
0.0021639827
0.023626449
-0.0008609182
0.006141866
-0.004838491
-0.0017154219
-0.010336886
0.005405275
0.00023030027
0.017796732
-0.010912722
0.0022884286
0.026991388
-0.012195017
0.0030508596
-0.008845961
0.00051685044
0.00064262893
0.0106192995
-0.014656009
0.005598972
0.006602009
-0.0015250699
0.020187927
0.012104277
-0.004752866
0.008745766
0.010634967
0.010481525
-0.005208084
0.00049883145
-0.0023689005
-0.010981758
-0.0074845855
0.0060988534
0.009188856
0.0004332894
-0.0038411196
4.2223845e-05
-0.0107059665
0.019448066
-0.02359034
0.00016452442
0.0010421925
-0.001167626
-0.0049116653
-0.0062648575
-0.008734146
-0.024525993
0.010513639
-0.0066466383
0.0016933773
0.01900243
0.007460853
-0.002865665
-0.004240762
0.0044888556
-0.0029860102
-0.008346333
0.0023771892
-0.019911362
0.002265563
0.0039686593
0.012533931
0.007183359
0.007735499
-0.009887727
0.0014553401
0.010025031
0.011232326
0.0034548237
-0.0068273917
-0.0002561547
-0.0038163527
-0.01733218
-0.0093950825
-0.026374463
-0.0050641857
-0.00852692
-0.0012787454
-0.009566252
-0.0020616045
0.0052046394
0.007337004
0.002717538
0.013816997
-0.009589552
-0.008900727
0.01108469
-0.009762002
0.00051301374
0.004352086
0.0059284405
0.0052187974
-0.00069604866
-0.017325388
-0.0029290542
0.0064952224
-0.0019136566
-0.008559641
-0.0005105984
-0.0012574499
0.0042706747
0.011692516
0.005454098
0.0059778914
-0.02673856
-0.011870994
0.02102874
-0.0050924015
0.006715431
0.0055257617
0.00713701
0.0037694853
0.0031783788
0.0066175438
-0.0006938151
0.0029912228
-0.0022648864
0.010803646
-0.01547917
-0.0039012905
0.0024389736
-0.021335311
-0.0021370857
-0.009829583
-0.014261608
-0.008285686
-0.007946849
0.00035285504
0.002797073
-0.0035150023
-0.016179867
0.00497712
0.0066307243
-0.0057504755
0.015987236
-0.0030902128
-0.014593567
0.011625168
0.0057594017
0.0043340395
-3.5324436e-05
0.011451484
-0.005255574
-0.0023036466
-0.009661448
0.018820263
0.025116947
0.0015544436
-0.015775336
-0.0003262469
-0.0033606936
0.013865361
-0.015898472
0.0062873
0.0011731699
-0.0040528756
-0.005060657
0.019007713
0.00016191538
0.003220747
0.015117577
0.0015582637
0.006132311
0.012197074
0.0020953435
-0.003409119
-0.014318391
-0.0066922326
-0.014596332
-0.0043157674
0.009090615
0.0019992953
-0.0076583736
0.015400314
-0.008983003
0.007567265
0.012386574
0.016228607
0.00246853
-0.005676856
0.005012214
-0.019636218
-0.009088668
-0.005252998
0.009328035
-0.00353563
0.009757265
-0.0059950245
-0.0047401814
-0.008009744
0.013846799
-0.0051845596
-0.007784227
-0.0026139584
-0.0013489544
-0.0044269976
-0.007144366
-0.012164871
0.0063279085
0.0022875248
-0.011152104
-0.0012657681
0.0050596213
0.0041057155
-0.0011721987
0.0054947245
-0.006776015
-0.0039260704
0.010014874
-0.012612265
0.00536815
0.0049162777
-0.00025148966
0.008778819
0.010748546
0.0045254393
0.0055396776
0.006453169
0.004841995
0.0031351713
0.010327755
8.987093e-05
-0.017524825
-0.019390162
0.0038630206
0.009979638
-0.0038170281
-0.0012623165
0.0016981167
-0.0053180275
0.013710428
-0.010613657
-0.0030910757
0.027386129
-0.014481694
0.0030378918
0.004275461
0.010872053
-0.0009638969
0.024650604
-0.0055600614
-0.0015046439
-0.01133209
-0.0043256804
-0.0070181643
-0.0014972639
0.016421853
-0.015187132
0.0220476
-0.00091352855
0.012826161
-0.012481314
-0.0050912756
-0.0044399956
0.0088553
0.004552027
-0.014581584
-0.0066368436
-0.006716509
-0.020647649
0.01811664
-0.0064385403
0.011736376
-0.0060411613
-0.0029878083
-0.0055185864
-9.9665405e-05
-0.00016779416
0.01878279
-0.01635083
0.008578717
-0.010899923
-0.010772758
-0.009239375
-0.009005352
0.014443359
-0.0030613916
0.018998796
0.0064218896
0.014861696
0.002498848
-0.0015275164
-0.015156594
-0.0018679001
0.016822245
-0.018083146
-0.00749101
0.004014507
0.006900458
-0.010816359
-0.012026323
-0.002106245
0.012821011
-0.011914434
-0.0018867677
-0.01934179
0.019257477
0.0042721326
-0.0004891061
0.015943343
-0.013702189
-0.0045758197
-0.00044454745
0.0046550855
-0.012087295
-0.004581551
0.007440608
0.019488735
-0.00024693692
-0.010768116
-0.01567603
0.0020126698
0.011674896
-0.002248583
0.0024902504
0.005272731
-0.00059128914
0.0006156753
-0.01728679
-0.0012158554
-0.001156442
0.004599269
-0.0004424227
0.001391768
-0.016989313
-0.00996025
0.020976646
0.0066020987
-0.0060194475
-0.00703589
-0.004826296
0.003650687
0.010544995
0.00081646617
0.011761195
0.0068511674
-0.00031093459
0.0027981796
-0.018761775
-0.012778987
0.004246256
-0.010928309
0.009700557
-0.016848989
-0.0119034685
-0.005027293
0.0054191053
-0.0037397428
-0.015827907
-0.0037937998
0.010491741
-0.014787278
0.010786105
0.0017011988
0.007341318
-0.016302263
0.0054605473
-3.5903307e-05
0.016533468
0.004372947
-8.8103356e-05
-0.012302697
-0.011850021
0.012422129
-0.006689762
-0.002626727
0.00627002
-0.0006629676
0.010197269
0.0076888083
0.011919545
-0.0043406743
-0.010806069
0.012599422
0.018086288
-0.018392082
0.022225382
-0.0021490788
0.00062716537
-0.01421253
-0.00852094
-0.009045309
-0.0116958795
0.005368755
-0.0082377745
0.009604464
0.00707345
0.013170977
0.00055163505
0.007297346
0.012617803
0.010308635
0.0120821055
-0.0007872607
-0.014592852
-0.012346
0.0014728103
-0.010567902
-0.013010831
0.0010675396
0.013738928
-0.00026874192
0.0029264763
-0.008171441
0.008524917
0.0014789384
0.011687759
0.0025728222
0.019211445
0.00058929244
0.018621508
-0.010317644
-0.020557249
-0.0041489676
0.006694125
0.006445915
-0.01304283
-0.0024369205
0.014056385
-0.011310505
-0.0031879134
0.022155063
-0.0061448007
-0.0040037436
0.015741086
0.008241719
0.0030067314
0.0074716797
0.0010163189
0.017257677
-0.010721134
0.021494087
0.004804377
0.0034322669
-0.005283135
-0.0014546412
-0.009933984
0.003291921
-0.025636531
0.0038177927
-0.0067729526
-0.00445257
-0.0041359216
-0.010534001
-6.9815105e-06
0.008059768
0.0053713596
-0.0027788032
-0.0029773319
-0.016112424
0.0071911924
-0.0014919944
-0.0015689278
0.019459423
0.007295255
0.0038645698
-0.0019485888
-0.011034731
0.007586138
-0.0031579023
0.003696444
-0.010492346
-0.0042737355
0.0046824506
-0.004203912
0.020041363
0.00664345
-0.006166375
0.011242066
-6.62634e-05
-0.009566464
0.011725405
0.004403626
-0.0060736113
0.008894134
-0.001154932
-0.018780721
0.003598458
0.015803162
-0.0007827296
-0.0009121717
-0.001831166
0.011990597
0.015744621
-0.0072608385
-0.008835172
0.0004141339
-0.014739383
-0.015972644
-0.0070824353
-0.001417835
-0.00019016216
-0.01893527
0.011203029
-0.0123641845
-0.0023893442
-0.015523201
-4.2261316e-05
-0.019598328
-0.006363513
0.0021974072
0.004445672
-0.00015724795
-0.013788123
0.0005432116
-0.007718057
0.0019600706
0.004831623
0.008320326
0.0012002463
-0.0076264935
-0.003564437
0.010837041
-0.0067522954
0.0031188529
-0.015368187
-0.0076661804
-0.011362467
0.001558506
0.007841814
0.0007113176
-0.004442446
-0.006836014
0.0040822183
0.0014330191
0.009909443
0.0076652924
-0.0050839344
-0.0022943355
-0.0114241475
0.013488306
0.0048869583
0.010855186
0.0187966
0.0012486397
-0.0083268685
0.003580789
-0.018167768
0.012123123
-0.009281188
-0.015342212
0.019548135
0.0011105271
-0.016926229
0.019676074
-0.0074847704
0.015434864
-0.011476781
-0.0024667114
-0.01751064
0.005837592
0.012032042
0.015129129
0.023703609
-0.005695799
0.001653798
-0.0015127036
0.0006869446
-0.0015416284
-0.034312546
0.011634641
0.0028364968
-0.009129463
-0.0047977674
-0.015330291
0.002418469
0.00043858352
0.0032951736
0.0171527
-0.0056611085
-0.010347681
-0.0003845103
0.021454126
0.00032058771
0.0002387617
-0.0010507561
0.008412666
0.0052219974
0.007694383
-0.0133096585
-0.00036755967
0.017356353
0.0017723931
-0.0017439588
-0.015115735
-0.006884518
-0.003371242
-0.00986692
0.0040192925
0.0031992015
-0.0047397367
0.015257254
0.00020430471
-0.005741452
0.0036428294
-0.0022092422
-0.0016088997
-0.011537426
-0.016477086
0.00031954786
0.00074197096
0.009048081
0.0065548387
0.0057824
-0.00043204858
0.011813611
0.0048296163
0.010224321
-0.0029108366
-0.008415677
-0.0031916949
-0.0029608405
0.018142194
0.006207254
0.0021569515
0.008966567
-0.00031333024
0.005904967
-0.007900293
-0.015021013
0.0005950362
-0.0109168785
-0.018753326
-0.0020234531
0.006698649
-0.0021116582
-0.013608169
-0.0037384785
0.0006142907
-0.0015662079
-0.0064415154
-0.00707007
0.010176481
0.0029077923
0.026820866
-0.015342582
0.0072628036
0.010975389
0.007513437
-0.008774655
0.004192082
0.015937494
0.003629607
-0.0029912856
0.007151683
-0.004810129
0.0011185884
-0.007564439
0.005978696
0.0022667912
0.0042487094
-0.0021020237
0.0007770157
0.0059048664
-0.010032766
-0.002798389
0.012972027
0.008016542
-0.00018166672
0.0014978222
-0.0076304963
0.011139368
-0.002767665
-0.013663103
-0.0057901004
0.002212532
-0.011568071
0.009683861
0.0042944085
-0.0077485875
0.0042236582
-0.014370948
0.008325038
0.017846156
0.0075188098
0.00576424
0.028223358
0.014618262
-0.014239616
0.019994117
0.012942549
-0.0043875608
-0.00060390204
-0.0042897705
0.0024614688
-0.0020619128
0.006625386
0.008812138
0.002965142
-0.006995178
0.01265792
-0.0042109056
0.013084863
0.0034601046
0.019024346
-0.007187936
-0.010110136
-0.0045214323
-0.012942468
0.009149995
0.014304169
-0.007254627
-0.002502508
0.014658197
-0.008866165
0.004060644
-8.5800966e-05
-0.006167253
0.0102900835
-0.01109106
-0.0029345076
0.00900017
-0.00818883
-0.016523343
-0.00987808
0.0060080164
0.0060413806
-0.01110214
-0.013613557
0.01628655
-0.01308343
0.0130418055
0.0047051376
0.00276686
0.0031727871
-0.0027277314
0.009930753
0.021414656
-8.3687744e-05
-0.0067533194
-0.0150128035
-0.00034962682
-0.012451829
-0.004542621
0.013753161
-8.648863e-05
-0.006209225
0.0067674606
-0.0135119315
-0.0184334
-0.002285613
-0.0010679318
0.0023075577
-0.00044097038
-0.0033605571
-0.0010264596
-0.014557671
-0.0070824116
0.016488152
-0.0038196833
-0.011836439
0.012497285
-0.0041392613
0.013614477
-0.0061428184
-0.003276936
0.01237682
0.00793083
-0.0035690602
0.0012217363
0.0018615433
-1.8848874e-05
0.011577176
0.0071685156
0.0011140767
-4.0564486e-05
-0.016525837
0.00015899583
0.017459093
-0.022447193
0.013996962
-0.019716134
0.009638432
-0.010423933
0.007474542
0.0032944924
0.0030708455
0.017596772
0.00064044533
-6.752408e-05
-0.023915524
0.012368883
0.009780698
0.011279474
0.01725344
-0.0010891168
0.008886137
-0.0138126705
0.012738441
-0.014638574
0.0003743043
0.00050125294
0.005674601
0.0072302395
0.0009815671
-0.004668244
0.004152427
-0.0038852536
0.016262226
0.0035535858
-0.004562178
0.007166976
-0.0048104227
-0.004101468
0.0027839213
-0.007724544
0.006270773
-0.022448778
0.004781233
0.005200935
-0.0029134136
-0.004040425
0.0041008675
-0.004875143
0.0060737757
0.009125807
-0.008198439
-0.008388555
0.008971614
0.0028691594
0.014125147
0.0017070412
-0.0012641408
0.011314232
0.0012682081
-0.011187595
0.009689386
0.0012703034
0.004689628
-0.0033833357
0.015116317
-0.005898382
0.003680254
-0.000796203
-0.0068781343
-0.0042168284
0.016335165
-0.015354231
-0.012506983
-0.008182329
0.008273773
-0.0041137263
0.00026076532
0.022099735
-0.017442757
-0.013379124
-0.014684634
-0.01923849
-0.0023196042
-0.0051842188
0.0028927862
0.0029862146
-0.01429075
0.00058025774
0.0038768149
0.015904572
0.00061333587
0.01466951
-0.007948569
-0.0026319628
-0.003590307
0.020382103
-0.019535331
-0.0028770019
0.006802015
0.012023088
0.0007566782
0.0031017975
0.0023026972
0.003495851
0.0018079407
-0.0197606
0.004755973
0.00020789605
-0.011012886
-0.0015031203
-0.021952987
-0.0043483255
-0.006940061
-0.007429748
-0.010621102
0.0028460103
-0.00055192795
0.007887791
0.0010833092
-0.0037578216
0.0023919716
0.0049459864
0.0026307392
-0.002850682
0.011417086
-0.0042922273
0.002519434
0.0073964386
0.001779973
-0.0015201055
-0.007980475
-0.0021006966
0.0028679848
0.0013826647
0.010175463
0.0006118772
-0.009921213
-0.022905184
-0.007225291
-0.012839887
-0.0127874585
0.012311667
-0.0005562595
0.0112774735
-0.0029316668
-0.0047799586
-0.010910709
-0.015946474
-0.006010095
-0.0026993281
0.0033750152
-0.0011479083
-0.008602455
-0.013420814
-0.004347078
-0.010533681
-0.012336625
-0.00088099646
-0.001631506
-0.008053322
0.0009913119
-0.012800963
-0.0127353305
0.009721025
0.009063137
0.0051943944
-0.010931558
0.0023631384
0.012788381
-0.0028232026
0.0037196274
-0.002935746
-0.0010145255
0.009863416
0.007357639
-0.004913425
-0.0036485104
0.0062505715
-0.01703428
-0.001731662
-0.007855794
-0.005693958
-0.00614595
-0.003368183
-0.010477311
-0.003451239
-0.007152217
-0.006126951
0.0148870945
-0.00019280026
-0.005636324
0.0130961705
0.0028997362
0.014674594
0.008158413
-0.008763886
-0.005034354
-0.006623584
0.0068948907
-0.007305638
-0.013257323
-0.002615267
-0.013475895
-0.004017384
-0.010447506
0.017320713
-0.017379738
0.0029785323
0.012201874
0.0025231242
0.01806315
0.0056557218
-0.0046416186
-0.0026908284
-0.0019158998
-0.009364911
-0.004390131
0.016127994
0.025153784
-0.0003138541
0.005343816
-0.006936105
0.0028197328
-0.006207032
0.0029886998
0.0068439743
-0.003772899
0.011725146
-0.0122478735
0.008509363
-0.018607523
0.018382534
0.005841049
0.005582299
0.0030875115
-0.007848991
-0.00812367
-0.016342942
-0.0067803734
-0.004892101
-0.007024119
0.013317898
-0.009578442
2.6396612e-05
0.004920494
-0.0053955526
0.003736986
0.0088525545
-0.016776284
0.0067371204
0.0069847074
0.018534854
-0.008972865
0.0070303646
-0.0064930776
-0.008310459
-0.0019313648
-0.013795149
0.01919071
-0.01042524
0.023506634
0.0020868836
-0.01242493
0.011052787
0.00864745
-0.00924451
-0.0018540662
-2.0658883e-05
0.007118755
0.0073387483
-0.0038509895
-0.0021225011
0.0053022066
-0.0031710342
0.006523667
0.0026855767
0.0025168702
0.02255699
0.003775301
-0.008085836
0.0034147666
-0.0031628124
0.0013357428
0.015846075
0.0074968026
-0.001686968
0.0024070414
0.009706197
-0.0032425516
0.0005710595
0.023611188
-0.021006282
-0.0023346823
0.0074605034
0.015611907
-0.0023660148
-0.0027307281
0.0032603254
0.009299993
-0.010633164
0.0031090288
-0.002575118
-0.012210055
0.007850287
0.03317953
-7.103851e-05
-0.0022223976
-0.0019230462
-0.007143308
0.021729572
-0.006817829
0.0056159445
-0.003075992
-0.030914932
0.012716257
-0.0012487869
0.00863821
-0.030964224
0.0006749461
0.0063432734
-0.01456814
0.009864142
0.0074677127
0.009226052
0.0070015476
-0.0041948073
0.006026177
0.01493047
-0.0031931673
0.014497443
0.0152078075
0.011429617
-0.009222478
-0.0033612277
-0.014586514
-0.023778463
-0.011262541
-0.00802218
0.010780822
0.007572296
-0.0034234612
-0.0028663585
-0.00029581637
0.019303193
-0.019425623
0.002737073
0.0015028452
-0.01962284
0.0049444744
0.0032677443
-0.0065586898
-0.005755184
0.0056113163
0.00434856
-0.0053623496
-0.0018123529
0.0016639463
-0.0051488075
0.006317079
0.0022112331
0.004730171
0.012785746
-0.008272967
0.005070487
-0.0034908296
-0.003097706
0.0046156403
0.014472626
-0.0038711983
-0.009895637
0.0017617756
-0.013672171
0.0062289396
0.0012939987
0.010522238
0.0060923565
0.0023025323
0.00080371514
-0.0030758348
0.004894412
0.014418703
0.006619957
-0.01214828
-0.008741643
-0.006652663
0.0042411196
0.009474269
0.022383783
0.0120711215
0.0017157567
-0.011430595
0.0013978811
-0.0042535416
-0.016129939
-0.0052858354
0.0010044156
0.0037671032
0.008440347
-0.00355657
0.004864729
-0.014862751
-0.01247634
-0.0063063568
-0.006584592
-0.001633849
-0.0018346342
-0.00024027519
0.00952532
0.00071820855
-0.002829603
0.006865534
-0.0046766847
0.0035588979
0.010958991
0.0059547005
-0.008660005
-8.248599e-05
0.0026863804
-0.017730253
-0.020469012
0.01194366
0.0027323472
-0.0014123041
0.0058267782
0.0031894445
0.0053859716
0.0035760058
-0.005604835
0.015523189
0.016391126
-0.0054660174
-0.0020713448
-0.0042539
-0.003955874
-0.00094406074
0.008599593
0.0074368194
0.0013326172
-0.013818069
0.0014921208
-0.007724065
-0.027372269
0.0014038236
-0.009531106
0.0076177237
0.011528764
0.030002471
0.0026000983
-0.011264201
-0.007846859
0.0022640273
0.008077252
0.010618517
0.004592008
-0.0035820128
-0.024162497
0.006440766
0.00047447244
-0.0043847496
-0.019132813
0.015447981
-0.0055910028
-0.00049785257
0.0029152397
-0.01774804
-0.005649341
-9.359437e-05
0.0032919843
0.015355703
-0.0013059854
-0.0065793297
-0.0045799254
0.022204349
0.0064975163
-0.008792081
0.020007858
0.004076789
-0.015647095
-0.0054092193
-0.005786486
0.008682776
0.004467886
-0.0014134861
-0.0019459657
0.0048353286
-0.025166329
-0.0023265458
0.0011279678
-0.0020733601
-0.015289207
-0.0065466384
-0.0097111855
-0.010745657
0.007498657
-0.0013076987
-0.019927168
-0.012646978
0.019341802
-0.0035004476
0.00353532
0.005577262
-0.00145711
0.007984015
-0.0034493448
-0.0051852656
0.0016488776
0.017382072
0.007030509
-0.0011536179
-0.0043423506
-0.0117907785
-0.022410631
-0.010605691
-0.008012698
0.015375683
-0.0029474054
0.0041082776
0.004316457
0.0026280198
-0.016778827
-0.00546317
0.01325441
-0.00043106
-5.6894238e-05
-0.017236585
0.0066724056
-0.0029445388
0.0071250745
0.003055616
-0.00058605504
-0.0054160077
0.012031853
-0.005492181
-0.008313926
0.0037326657
-0.006186675
0.0022180888
-0.022123072
0.011655216
0.01299674
0.009501638
-0.0008132613
0.002226289
-0.004522495
0.012367227
0.010377845
0.0009703487
0.020164423
-0.010185576
-0.011950984
-0.011805521
-0.0071136532
0.007185577
-0.025581999
0.011354582
0.019161394
0.002115703
0.004813427
0.017472537
0.009960874
0.00034596765
0.0061956206
0.0044410746
0.0036116866
-0.0094347345
-0.006352067
0.0014868017
0.0026082643
-0.013264734
-0.007167927
-0.009938497
0.0044690073
0.0014771936
-0.00621331
0.0041904156
0.0020084567
-0.0018522901
-0.017795037
-0.011816374
0.012542763
0.025673278
0.0006774866
0.0018439614
0.0058181565
0.0037916575
0.0025676063
-0.005020291
-0.009518902
0.0050976635
0.00094323896
0.00849625
0.010637373
-0.01631613
0.0050810347
0.007267138
0.015151693
-0.0072352253
-0.012427877
-0.0130179785
0.01723484
-0.013254009
0.002226881
0.0014415547
0.010936435
0.0114374645
-0.0030235
-0.020696644
0.009502661
0.0019549578
0.012675428
0.010495452
0.005153396
-0.008420472
0.0020340346
-0.0014411898
-0.006564749
-0.01415079
-0.008917167
-0.025672367
-0.02765543
-0.016319
0.008657931
0.004820175
0.017225532
0.0065772184
0.0071448735
-0.005515314
0.007860818
0.007943622
-0.005294668
-0.0030577448
-0.012376317
-0.011637066
0.0002274721
-0.0005823897
0.0016770487
0.0016349057
-0.009373819
0.017270837
-0.012568482
-0.013864713
-0.0006296125
-0.005658971
0.0024953517
-0.0013032955
0.010320614
0.00982344
-0.0081655
0.0014572539
0.015484296
-0.009144757
-0.0074286535
-0.013996906
-0.025999798
0.015310149
-0.0075501427
0.006807422
0.014329695
0.0024098693
-0.00017004633
0.009001425
0.013660752
0.0031094705
0.0004143246
-0.0026612724
-0.021221086
-0.014665783
6.60759e-06
0.009692756
-0.008112271
-0.004720645
0.012899467
0.008922627
0.009280102
-0.010940592
0.02565381
-0.0048768404
-0.008617363
0.009197771
0.00765384
-0.009893382
0.0065633645
0.0005881917
0.012152627
-0.008134503
0.0071708923
-0.010890548
0.0018812835
0.005538679
-0.007556027
0.019522004
0.011642817
0.0020736188
-0.003761316
0.005949498
0.0025758205
-0.016697126
0.0038074523
0.007870353
-0.010465528
-0.004713922
-0.00048515634
0.010865516
-0.023171373
0.0015466652
-0.018360192
-0.0035666756
0.004435052
0.0008276466
-0.021942612
-0.0039837435
-0.0037750956
0.010637902
-0.009897282
-0.013914497
0.004136435
-0.005441771
0.026328662
-0.011313968
0.015049557
0.0062455283
-0.01483668
-0.0048996094
0.019840717
-0.018231088
0.0048387265
0.0015841671
0.0043386826
0.0076277405
-0.0022973993
0.0015543593
0.016330462
0.007177337
0.011000946
-0.0020636036
0.002885067
0.015400191
0.0036912966
0.0024936197
-0.003156144
0.0056161643
0.015894739
-0.006257556
0.013018042
0.012094185
-0.0012198624
0.010149293
0.011140469
0.006343451
0.024215885
0.0022296915
-0.027316703
-0.011063812
-0.009865244
-0.0032544085
0.024479743
-0.0029372617
0.016806005
0.00015653574
-0.01670258
0.0007809787
0.0022320847
-0.0012191271
-0.003371884
-0.0073324526
0.007257862
0.010017088
0.0014736
-0.0138938315
-0.0018257106
0.024791192
0.0046276394
-0.0015458015
-0.021243284
0.003957929
0.010569555
0.0016542317
-0.00026209824
0.002527385
0.006844856
0.00037862844
-0.0077016656
0.018984247
0.007995056
-0.0080724675
-0.025333669
-0.008179743
-0.010268927
0.012751034
-0.016705818
-0.014447081
-0.0039380235
-0.0066352366
0.003186052
-0.011896679
-0.008060972
-0.007870242
-0.007133733
-0.013908509
-0.009344411
0.019396147
-0.0031238054
0.0022271182
0.0061692107
-0.0013149058
0.011325095
0.0023466917
0.015506106
-0.0019605632
-0.0036137647
-0.005634859
0.013793832
0.010314792
0.0073757945
-0.00025089542
-0.010062405
-0.0013216395
0.0076796827
0.0084914025
0.016709434
-0.0011792097
0.022521116
0.012520017
0.0056365333
0.01211673
-0.00096971466
-0.0014453835
0.011135992
0.008754708
0.004184141
0.004207906
0.0027511376
-0.0036625918
-0.02438544
-0.008166272
0.01305163
0.0008352975
-0.005859099
0.0013172453
-0.0007487849
0.003975412
-0.009103905
0.00705053
0.011812156
0.0025427854
0.0020166154
-0.0002481054
-0.0047870115
0.011151445
-0.0076877973
0.01693912
0.006918705
-0.014245734
-0.011736361
-0.0067043635
0.013094811
-0.0112871835
0.006740713
-0.0018609217
0.0030169736
0.005865893
-0.0014440023
-0.007818119
0.00017041722
0.014192422
-0.0062680845
0.0077846716
-0.003410562
-0.008639571
-0.007378624
0.008604145
0.033634413
0.003987853
-0.018312955
0.0039118333
-0.008111645
-0.0049327733
-0.012464635
-0.017783655
-0.0070116073
0.0024992435
-0.016599447
-0.0044309716
0.00423705
0.0032699332
-5.5701923e-05
0.0053910213
-0.017411334
0.003959987
-0.0013742686
-0.014568689
0.012491802
0.0062447726
0.0038563726
0.0007368427
-0.00485893
0.003860406
0.0041422523
0.0015435629
-0.0014297919
0.00055121625
-0.016535584
-0.0018345873
-0.003014281
-0.017759694
-0.004346664
0.002402991
-0.0012641947
-0.0015469135
-0.014252096
0.0065426296
0.010638528
-0.0042186636
0.020119311
0.0034274652
0.004149616
0.0074204216
-0.015612284
0.002064847
0.0034094788
-0.009916294
0.008594075
-0.009065433
0.0055723344
0.010589255
0.0014386796
0.0017387465
-0.02570191
0.0069651655
-0.008393026
-0.009959762
0.00256809
0.0026227604
0.0040069507
-0.0065510916
0.002405274
0.0020663352
0.0006146918
-0.0014958745
0.017285895
-0.014460892
0.00078136293
0.004457869
0.001229589
-0.0035334257
0.014965502
-0.0013651343
-0.01143161
-0.007823178
0.016997783
-0.010821129
0.0010888436
-0.0026001679
0.0009440639
-0.012328577
-0.0083719315
0.0045305295
-0.0068427906
0.0052263224
0.0010199738
-0.004139104
0.004584207
-0.008460267
-0.015761968
-0.01004955
-0.011106245
0.0073398766
-0.002443499
-0.013560101
-0.013400187
-0.00017484033
0.0032012558
0.0102715455
0.017355038
-0.003044743
0.012371469
-0.007726427
0.0092319315
-0.0073102554
0.00761152
-0.0020344057
-0.0032212778
0.012669525
0.0059346035
-0.023119144
0.005346052
0.00544914
0.001965157
-0.00046113707
0.007312011
0.0035605994
0.0052433615
-0.007739313
-0.009663673
0.007005424
-0.004247582
0.0084761605
-0.0116315745
-0.012059107
0.0010770521
-0.0034576294
0.013895146
0.0029279706
0.004116627
-0.01422126
-0.015621574
0.009892398
0.009210118
-0.0037835953
0.008789321
0.017524868
0.009744579
0.0053907186
0.016746419
-0.009722952
-0.023708973
0.006967252
-0.014492235
0.015562305
-0.001077076
-0.0152297085
-0.0060825376
0.0029991567
-0.0009359061
-0.0052311006
0.0014151052
-0.0037307998
-0.008647776
-0.0016112728
-0.0022698229
-0.0077209705
-0.0031014052
-0.006242589
0.006502935
-0.0026045241
-0.0021567494
-0.0066113244
0.017701723
0.011619736
-0.0022785093
0.0025043127
-0.011895865
-0.009768889
-0.020398483
0.00815708
-0.0074550114
-0.008774459
0.0024917552
-0.010094903
-0.0008296046
-0.0026784018
0.0028665096
-0.01354368
0.0074630473
0.021703217
-0.018007264
-0.0059730667
0.0064572874
-0.009618297
0.008327076
0.0019934755
0.004927565
0.018331213
-0.019618416
0.0066304635
0.006670619
0.01330771
-0.015488212
-0.00020995885
0.015556331
-0.0011788073
-0.00066778203
-0.003772178
-0.010253081
0.007394794
0.0013197178
-0.003124367
0.024414388
0.0018041348
0.0074457256
-0.003400572
-0.012864915
0.022314202
-0.0013974295
-0.002033622
-0.00033600125
-0.0007618795
-0.0056331395
-0.006796638
-0.00063024566
0.008796189
0.0051764445
0.008923451
-0.0049682907
0.013322516
-0.0036046784
0.0019545527
0.00034928537
0.012122229
-0.0013438885
-0.012695153
-0.0054900865
0.0049909586
-0.0006342185
0.0082359435
0.019682033
-0.010633283
-0.010952972
0.0071195737
0.005980969
0.004242815
-0.007819771
0.0017204435
0.00818943
0.00072958705
-0.00296695
-0.00037628534
-0.0009905829
-0.0012279969
0.0077474443
0.012409068
-0.0013744959
0.0069596157
-0.013239261
0.0063749575
0.00821352
0.006272861
-0.01000097
0.0016406053
0.0022195075
0.0020200938
0.0111519825
0.001575998
-0.0045916964
0.01902725
-0.003231051
-0.021763762
0.017893137
-0.001570404
-0.0020296741
-0.002753655
-0.0074895727
0.01628883
-0.0029556784
-0.0125673255
0.01092462
0.011100268
-0.0068501467
-0.020347126
0.01986689
-0.011905696
0.0067342347
-0.0068470123
0.0026514328
-0.00022380489
0.019092219
0.0011947424
0.0029597129
0.0076636528
-0.0035616066
-0.016796978
-0.013160366
-0.015153992
0.015104073
0.018294929
0.0076692724
0.0017085054
-0.004263871
0.007958194
-0.00037745465
-0.012257043
-0.0032917606
-0.0026134
-0.017026555
0.013890391
0.009054414
0.003135158
0.00038890715
-0.010490363
0.0025267666
-0.011168835
0.0070574665
0.012208943
0.013097075
0.0032152762
-0.009203304
0.003823441
0.0051816786
-0.0015466055
-0.0018412952
0.0026070527
-0.008051495
0.008891189
0.009615476
-0.007219347
-0.010193374
-0.003205802
-0.013907707
-0.0007880511
-0.020684283
0.005870146
0.0006429612
-0.008092514
-0.012459791
0.005364302
-0.0015843636
0.0072953217
0.00041054175
-0.0065371995
-0.0051431176
-0.0033718639
0.00980358
0.00720624
-0.017957684
0.011593557
-0.001331207
-0.007997146
0.02221008
0.001944216
-0.0001583679
-0.0018125869
-0.0058821053
-0.00076565257
0.0012823994
0.0031648388
-0.008385167
-0.010968629
-0.005586282
-0.004737773
-0.009907993
-0.003006747
0.012929901
0.013606546
-0.0042942204
0.0075032
-0.0034528438
-0.010505819
0.008515128
0.020020673
0.005332864
-0.007963961
-0.017613165
0.0012020464
0.019553201
-0.0016097875
0.0019448447
-0.011259993
-0.009947479
0.008702934
-0.010533802
0.013992804
-0.018567663
0.0027002872
0.0010902805
-0.005188451
0.010678135
-0.0024517572
-0.00057024014
-0.004705493
-0.00469182
-0.002362689
-0.01359143
-0.0144877145
0.0034310068
0.013822215
0.0020008085
0.008249114
0.001265194
0.012694808
-0.011719956
0.008367637
0.019739771
-0.0045063216
0.0040156576
-0.0051629297
-0.00013166796
-0.009994478
0.01831963
0.009972132
-0.0022281613
-0.018431297
-0.008871423
0.00044381208
0.007286517
-0.0128517505
-0.024129225
-0.008947088
0.0025267727
-0.0070637935
-0.0018399225
-0.010561983
-0.011092485
0.007140287
-0.0042774603
0.0071526025
-0.02676335
0.00037686384
0.0042678895
0.0060157953
0.0010807202
-0.019176645
0.006547326
-0.004011297
0.0035140337
-0.01397257
-0.0066969874
0.007700893
0.0054083783
0.0048292894
0.0043131057
-0.010075367
0.0091514345
0.019241598
0.018113712
