# (192, 768)
0.0008249174
-0.0022237557
0.010285625
-0.0043951916
0.005391732
-0.0058323434
0.012702324
0.0011465906
-0.0023302685
0.009834411
-0.014987763
0.014565615
-0.00341074
-0.006306346
-6.37355e-05
-0.014241361
-0.022003809
-0.011369371
-0.008140922
-0.009057826
-0.0015831513
0.0052348296
0.0034666182
-0.00048777345
-0.009267049
-0.004495085
0.0036596034
0.0033632978
-0.013673789
0.01029561
-0.0016076794
0.0031384218
-0.00084962207
-0.005370002
-0.0062128976
0.015955953
-0.021495733
0.015731094
-0.0040777484
-0.007746597
0.010955032
0.0015033867
-0.009182685
-0.0013031496
0.009057257
0.016035713
0.0077646663
-0.0037460397
0.011351368
-0.011793792
0.03796763
-0.0006125357
-0.0010798781
0.003296571
-0.004474725
0.002483386
0.0012816134
-0.005177799
-0.009505972
0.0007204622
-0.0006394927
-0.0029592635
-0.0010558448
0.009391564
0.009399407
0.0054009394
-0.011875486
-0.0014787313
0.015345944
0.002968727
0.0059879157
-0.004332587
0.0023725997
-0.009986513
-0.00061427976
0.008659732
0.009384874
-0.028968224
-0.0020036136
0.024519222
0.0015158881
0.0050675604
-0.009340586
0.015331981
0.00020541371
-0.002497235
0.0043769814
0.014158655
0.0027188088
0.0032228837
0.007813301
0.02596553
-0.0032104512
0.003621692
-0.008931315
-0.0005095476
-0.005763438
-0.008096605
0.0021021245
0.011649496
0.0068746516
-0.0009055305
-0.003770321
0.0044368845
0.003272048
0.003987491
0.010031947
0.0029002214
0.013046588
-0.0042868
0.0075496235
-0.009247618
0.0037382431
0.006537138
0.016221134
0.024687812
-0.013393058
-0.0021574737
-0.010978888
-0.0057747946
-0.0047901776
0.025165703
0.005778269
-0.0020313342
0.017783532
-0.011941184
-5.945705e-05
-0.005451986
0.006439152
-0.0047475067
0.010718568
-0.002934338
0.0009834679
-0.0048289234
-0.004898765
-0.017214417
0.010467079
0.0012272872
0.011380026
0.008407041
0.0031973307
0.013041718
-0.012566347
-0.009695309
0.0066101127
-0.016347408
0.00060276233
-0.0072831246
-0.010114777
0.0069169407
-0.010324121
-0.031823423
0.006837792
-0.0058584413
0.013993687
0.006331565
-0.002778757
0.013896316
0.00035554028
0.0048109596
-0.005591133
-0.004294896
-0.00819666
-0.011550875
0.0044816956
-0.013710848
-0.007317209
-0.0050457893
0.0030548905
0.00063568057
0.010257803
0.0039010686
-0.018952902
0.00034299318
0.01184502
0.006773717
0.011393055
0.012547601
-0.0019844216
0.008391399
-0.011536582
-0.00032184107
-0.002679139
-0.0014060732
0.0021325685
0.0005938722
0.02035847
-0.015297551
0.013720092
0.01642509
0.013760334
0.015230666
0.007827457
0.016358031
0.023775578
-0.0016903582
0.01782182
-0.004201045
0.0058401437
0.008102472
-0.0011217654
-0.012196124
-0.011448764
-0.014671258
-0.005152283
0.013283286
0.008879457
-0.012616334
-0.010915787
-0.0025430815
0.0076599717
0.010559931
0.0032122992
0.020388627
0.002271848
0.00081051514
0.004684149
-0.0019855127
-0.0033780623
-0.017020067
0.010229106
-0.004071994
0.015815623
0.011723952
-0.005991459
0.013234658
-0.0052249264
0.0025332728
-0.00790431
-0.01508838
-0.013103737
0.0075053982
-0.00114655
0.0113348
0.024073824
0.011298337
0.01664378
-0.010766283
0.015873687
-0.0199665
-0.0059343255
-0.016912086
-0.004988883
-0.02113544
0.00451342
0.003025615
0.00031378242
0.017298082
-0.0067836056
-0.008506941
-0.0033672305
0.012072343
-0.01397285
0.014500241
0.009099853
0.010384985
-0.00016442355
-0.00909099
0.008538576
-0.005546055
-0.01394902
-0.024378728
-8.069367e-05
-0.0033562004
-0.011347244
0.0035275938
-0.00050594524
0.012988725
0.020347774
0.018467858
-0.0049657268
-0.0017862108
0.0049099666
0.010815277
-0.024909126
0.0078208605
-0.000938984
-0.009625324
-0.0043853493
0.012129691
-0.0065442077
0.0059102247
0.021227807
-0.00392142
-0.00037982143
-0.005107318
0.007816219
-0.00032523437
0.017547168
0.02153799
-0.0048683826
6.840363e-06
-0.015794022
-0.009393196
0.011473472
0.0076079317
0.0243252
0.0006913836
0.019161781
-0.008909972
-0.0090025095
0.001752391
-0.0048067
0.0034750872
0.010339156
-0.0022480607
0.024643607
-0.014295405
0.0060346336
-0.007488854
0.013846271
-0.010149117
0.00393329
-0.0038980516
-0.0022420941
-0.02327868
-0.007957937
-0.018166482
0.014056674
-0.0025201666
-0.015935203
-0.0027328979
0.008024773
0.0049279905
-0.013463647
0.005011673
0.0047593103
0.006783724
-0.005279101
0.0047952435
-0.015585369
0.020985374
0.005093396
0.024932588
-0.025902221
0.015944032
-0.008095249
-0.009373388
-0.021294195
-0.0036224683
0.003985874
0.0059622503
-0.007082084
0.020707404
0.011259786
0.00035062685
-0.01825918
-0.0018514976
0.015850104
0.01008779
0.0016422597
0.002152303
0.011042491
0.0011633441
-0.013712708
0.006132442
0.0017376872
0.021045906
0.0028282318
-0.0011965358
0.016529487
-0.009001992
0.0071408655
0.0047439355
-0.0037538654
-0.0037234991
-0.0017540848
-0.008697914
-0.0023712083
-0.005765963
-0.0050615715
-0.0152856605
0.006204921
-0.008449045
-0.0015129804
0.008282729
-0.0013089307
4.2628737e-05
0.004373413
0.007433834
0.013906966
0.0145626
-0.0058665415
0.023796776
0.0019781073
-0.010620085
0.01742505
0.0051315497
0.00032514575
0.0061903517
-0.003379355
-0.00052377954
-0.005735909
-0.012895981
0.0014386651
0.0064205313
-0.008829681
0.020371288
0.015404727
-0.0008933481
0.010126447
0.015553208
0.004222779
-0.007943359
0.006441901
0.0041534286
0.006096951
0.0052763824
-0.019412177
0.0013108602
0.0043533174
0.0030401924
-0.010953146
0.0005781375
0.004042961
0.01289931
-0.009099866
-0.0054809833
0.0050275377
0.002935352
0.0049915416
-0.0074575776
0.009703788
0.016857924
-0.0040745614
0.0015576087
-0.00045238688
0.0028634677
0.007865453
0.015533147
0.00071642286
0.011611185
0.0070516295
-0.001846239
0.015117714
-0.01342805
0.0180029
0.00615518
0.0029003217
-0.0057757115
-0.009765474
0.0036436585
0.0026272377
-0.010377378
-0.0033732227
-0.006904875
-0.020600978
0.00843678
-0.0006348342
-0.0058974563
0.0089089535
0.0034526214
0.0073362566
-0.0006278941
-0.011333906
0.0100340685
0.001050357
-0.011346706
-0.0035897892
0.00080226955
0.001159768
0.0053311787
0.004239046
-0.008861388
-0.0051852623
0.0041468735
0.0010856285
-0.005537006
-0.01252313
0.0324277
0.00081028644
-0.0052111787
0.0075133494
-0.001253656
-0.0070649874
-0.009010869
0.0042873467
0.0076325973
0.012575725
0.009734934
-0.0009473764
0.018731616
0.0059862807
-0.0028915063
-0.012387417
0.003773564
-0.0013524742
-0.0020498675
-0.0028000167
-0.0021389422
-0.011148893
0.007175735
0.0014184257
-0.007895306
-0.0013451348
-0.01989145
-0.003923012
0.010175547
0.005495448
-0.008628676
-0.001607935
-0.003449266
0.015520456
-0.0037034485
0.02088014
-0.0009947588
0.008942218
0.010112462
0.0053037615
0.0043277345
0.0012381842
0.00042603104
0.00036677605
-0.0036786008
-0.004473918
0.0063259862
-0.0025517838
0.017018845
0.008397339
0.012537779
0.00965601
-0.010352501
-0.0153552815
-0.004542576
-0.028060509
0.00974204
0.00020864794
0.0029804646
0.0024842967
-0.0005386485
-0.0027277612
0.0030606443
0.0023192177
0.013432165
-0.0007163191
-0.0063927094
-0.011833717
0.0029696086
0.0070779272
0.00025490273
-0.004549005
-0.020598738
-0.0011156239
0.013627727
0.0002666429
-0.011008086
-0.012133789
-0.005323408
0.002091314
0.00037554203
0.007595829
0.010383664
0.0030508856
-0.016820146
0.020654494
0.00064193696
0.0070567685
-0.0022908016
-0.0019563898
0.004214323
-0.015381884
-0.0024589358
-0.0091527905
-0.0009182046
0.022554899
0.0046721143
-0.0066786157
0.005825547
0.0013220581
-0.0018084983
0.006475421
-0.008346253
2.4285044e-05
-0.012771914
0.014822578
0.0041543455
0.013657128
-0.0012846967
-0.0149211
0.0041850745
0.0075981757
0.007645986
-0.015278161
-0.009957461
-0.0001073669
-0.014746352
0.0066079255
0.008955304
0.00075033755
0.0076096943
0.005046493
-0.0037834016
-0.0004196988
-0.008844598
-0.014566492
0.00973626
0.023237765
0.022394601
0.0052972524
0.005336849
-0.012608517
0.008575866
0.002279961
0.007941857
-0.0047635157
-0.012660257
0.0151315015
-0.009249836
-0.013893826
-0.00087048404
-0.008592933
-0.011277688
-0.012810995
-0.008022016
0.009242354
-0.0068906164
-0.012168587
0.0018025065
0.011173146
0.014623954
0.0017251906
0.0051835743
-0.008919334
-0.006249745
0.00566755
-0.0042995615
-0.00469191
-0.0013404628
-0.0054358603
-0.0026758327
-0.007006794
-0.019119928
0.009779111
0.005420007
0.016387973
-0.017754046
-0.00980825
0.01295853
-0.0020905188
-0.011052074
-0.0054391692
-0.00218272
-0.004967652
-0.009580325
-0.006555574
0.0014749713
0.0130227655
-0.0060514924
0.012620003
-0.0017650474
-0.0020584764
-0.008713833
-0.01164464
-0.0056955484
0.01760078
-0.0028475618
-0.013493346
0.0072432193
0.0061981874
0.012543846
-0.0115068555
0.011092244
-0.013561438
-0.010512784
0.009331411
0.01460483
-0.006237493
0.007446347
0.0029628936
-0.0071725114
-0.0046418933
-0.022568174
0.0019182293
0.00961184
0.0016524023
0.0030097824
0.010450443
-0.0006110525
0.019687716
-0.0029726177
0.0035904555
-0.0052537313
0.017669605
0.0053977626
-0.009022359
-0.018992268
-0.015027806
0.008153263
0.0018186274
0.0036833775
0.016062796
-0.0050094756
0.0013449244
-0.016026428
0.008164802
-0.0018884669
-0.0062549114
-0.008029341
0.01095922
0.009761557
0.010416156
0.0040351534
0.0013861398
0.0055668196
-0.0026095076
0.0018899658
0.01573357
-0.00031605907
-0.012811909
-0.009735707
-0.0040417556
-0.012977856
0.0012337635
0.0108648
0.0027514219
0.004517239
-0.003583576
-0.0008960282
-0.019638387
-0.0102980705
-0.0012301184
-0.00948416
0.004559461
-0.0022331607
-0.0048202467
0.0041150847
-0.005618343
-0.015545126
-0.011363336
0.0039404477
0.0023944294
-0.008741228
0.00036222773
-0.0023156807
0.022116724
-0.001397751
-0.0066464506
-0.01936356
-0.019287
0.0028341776
-0.009313613
0.0068634823
-0.0014231286
0.0064599356
-0.0013099257
-0.013877526
-0.005912054
0.0066771326
0.015085216
-0.011047799
0.014921635
0.0013727617
-0.0075526945
-0.00929719
0.0044617183
-0.0060804733
-0.004429645
-0.0038277328
-0.017456822
-0.025297735
-0.015984809
-0.0060554477
-0.016555551
0.011379105
-0.020333989
-0.008634566
-0.0050093285
-0.0015080912
0.009628558
0.007016349
-0.005059583
-8.235975e-05
0.00049751543
-0.006835315
-0.010084565
0.018150855
-0.014423587
0.0013652225
0.009239118
-0.005181713
0.00563912
-0.009232983
-0.0010682178
-0.004060394
0.021545231
-0.010753436
0.0020977359
0.0063033244
-0.0014667964
-0.015261235
0.0043897084
-0.01140529
-0.0033236938
0.00047046997
-0.0019580836
0.006533057
0.004840077
0.019105548
-0.0006757679
-0.008567325
-0.004432363
0.024011279
-3.690714e-05
0.0037197273
-0.005871216
0.0086736865
0.004987287
0.014185702
0.0014340755
0.014849561
-0.016503232
0.008345357
0.0018049994
-0.013165642
-0.025702463
-0.0049006334
-0.016269002
-0.0049387473
-0.017540984
-0.012627537
-0.0061139725
0.0075092074
0.005225844
-0.007585309
0.015155435
-0.003281525
0.0043692556
0.015795263
0.01633736
-0.004079039
-0.001239659
0.0026988613
-0.011165003
0.001978157
-0.006919237
-0.008094902
0.011897463
0.0032117371
0.0057409173
-0.010900335
0.014540226
0.012336965
-2.835537e-05
0.0034780249
0.005405939
-0.007882743
-0.003091763
0.0027988192
-0.011013804
0.01970412
-0.014044013
0.002223559
0.0013529254
-0.0023946764
-0.007208131
-0.0019368218
0.0066964244
0.00049669
-0.007902028
-0.0045120385
0.0056146383
0.010076269
0.0062437416
-0.0013195011
0.0124088265
0.012839076
-0.0025222956
0.010943495
-0.0062213084
0.0010336216
0.01795259
-0.007853847
0.0069046915
0.00585994
0.0044402555
0.013651474
0.003903748
0.0017347173
0.006519695
-0.0061762747
0.00048957416
-0.00066497305
-0.008759903
-0.0140301995
0.010428412
0.019877417
0.0058280337
0.014894602
-0.004616337
0.020832963
-0.0018675908
0.022205008
0.011884961
-0.003960563
-0.009750764
-0.007928593
0.0055061225
-0.007379089
0.013027004
-0.02980413
0.0109465895
0.008080012
0.009192379
0.006503717
-0.014589614
-0.0037974669
0.0024054842
0.002389761
-0.0043649026
-0.0014144712
0.006238867
0.0075220894
-0.0033028142
-0.008069464
0.0021478857
-0.0029376745
0.0005379951
0.016986405
0.0034459617
-0.0016988468
-0.008580592
-0.01539919
0.0034837096
-0.00596345
-0.004422995
0.014335185
-0.01690383
-0.0028398484
-0.006945353
0.0063111745
-0.02161432
0.009265056
0.01893437
-0.012075199
0.003404795
-0.003625969
0.0018359808
-0.007127337
-0.01373014
-0.0027254547
-0.013921574
0.023157278
-0.0056647216
0.00622134
-0.019823382
0.0010247073
0.0012819248
0.017764615
0.005122004
0.009751961
-0.02534243
0.005061417
0.015775105
0.002179688
-0.009299544
0.006893352
-0.0059898943
0.0064263986
0.004185556
0.021652862
0.022000603
0.019393323
0.004102629
0.012137754
0.009131533
0.002776601
-0.0046963086
0.007346776
-0.001664427
0.0132404165
0.009168663
-0.003134249
-0.014751458
0.0022718145
0.008254218
-0.0007517972
0.01764682
0.010735931
0.010428324
0.0026553364
0.003626527
0.0067207124
0.0024310832
0.0044634743
0.0047072726
-0.0076228776
0.011729225
0.010024855
-0.0009335764
0.010192204
0.009126728
-0.0027181203
0.0072814273
0.0027675405
0.00261938
0.0040962803
0.007824002
0.00869114
0.015258655
0.004978693
-0.016097782
0.0014560805
0.002099771
-0.0069940924
0.0015757491
-0.004998425
-0.0032654642
-0.007879102
0.0020608224
0.0023653577
0.0047868616
0.009514636
0.016187971
0.0008842449
-0.009981413
0.0039849053
-0.006361915
-0.0008957539
-0.0043192357
-0.018923681
-0.01113242
-0.0026256463
-0.0053108353
-0.014907208
-0.0030362892
0.013326572
-0.0048019504
0.010634746
-0.007353292
-0.00032487037
0.025347054
0.0006276719
0.012797169
-0.032342028
-0.0003083934
0.0075773303
0.011868868
-0.019726688
0.0056507043
-0.008371122
0.00458324
0.015503434
-0.0010472868
-0.009603466
0.004426507
-0.023049459
-0.015631093
0.006169258
-0.015428212
-0.0053230063
-0.00791987
-0.006100746
-0.0041207136
0.00057122635
0.00022554558
0.004956575
0.013642473
0.0003888521
0.0071109575
0.01985862
-0.005492334
-0.018400297
0.012532822
-0.0023435794
-0.0055484697
0.012466596
0.0076106074
-0.0035048279
0.0011400626
0.0054826313
0.009617976
-0.012404264
-0.0022913602
0.0027408185
0.008705377
0.0147077935
-0.02703614
-3.758937e-05
0.011364376
0.015492778
-0.0023065635
-0.0042020027
0.009349098
-0.00939109
-0.011455358
0.005118168
-0.013063358
0.012072739
-0.004670657
-0.007136177
0.008328518
0.006120192
-0.0071141846
-0.010491846
-0.0029099542
-0.0041286377
-0.013650831
0.0063249744
0.0014521949
0.005250591
0.0061089196
0.004335826
-0.008006888
-0.013540632
0.004820803
-0.0029859748
0.0144101735
0.0015362651
0.0012583686
0.009267
0.013246219
0.009611066
0.0029095202
0.015208169
0.0086708
0.0005179003
0.019762656
-0.010990042
0.005025777
-0.01293122
0.007754503
-0.0022874773
0.000113787035
0.004266429
0.009808383
0.010551153
-0.008050924
-0.01399057
0.007323313
0.0018313759
-0.0058804387
0.0034177846
-0.0029958298
-0.005194635
-0.00085687294
-0.012449619
-0.0048947153
0.004604925
-0.014607943
-0.015445163
-0.0036442548
-0.005542992
0.026795909
0.0075557358
0.014575925
-0.011350806
0.005264826
-0.01635989
-0.0035197716
-0.0051856423
-0.016027292
0.008883981
0.009030468
-0.00039394587
-0.0062770597
0.0034509592
-0.0060050236
0.006955056
0.0071981507
0.009684616
0.00019875684
0.00704604
0.009652825
-0.002971842
-0.005202262
0.010726096
-0.0047359257
0.0022723188
-0.0027390372
-0.004314792
0.009010797
-0.010447141
-0.011243466
-0.016197072
-0.008557572
-0.0055187684
0.006069804
0.0071197557
0.0008548619
-0.008979878
-0.00016277077
0.0037198346
-0.0033550102
-0.009499311
0.017770525
-0.017267967
-0.008658731
-0.00029490015
-0.005988091
0.010107694
0.003976519
-0.015576274
-0.0028220343
-0.0038907442
0.013080487
-0.012788062
0.00025307786
0.02010431
-0.0023445901
-0.010310467
0.0068848096
-0.008096744
-0.0040711025
-0.0063688913
0.008860501
0.0042618955
-0.010651279
-0.009523504
0.0029687004
0.0005528232
0.014360552
0.0068527786
0.007186997
-0.0016875988
-0.016462523
0.011279573
0.0056281704
0.012358726
0.013369182
0.0035050272
0.0023179871
0.0010055684
0.006486332
0.00023993778
0.0009661007
-0.0044712485
-0.012635506
-0.012668512
-0.01718821
-0.003924157
0.016254501
0.00070395326
0.018139133
-0.015652852
0.005998821
0.017585611
0.020657964
0.004937538
-0.008844017
-0.008227323
0.016007185
0.008645432
-0.007904901
-0.009923026
0.007560435
-0.017726215
-0.0061654383
0.0043119807
-0.0019331852
-0.002122318
-0.011758758
0.014516829
-0.008094031
-0.0071600806
-0.005149406
-0.010081725
0.01073306
-0.0064218407
-0.009155254
0.00028859932
-0.02193
-0.002255193
0.0065920632
-0.013810755
0.0005706015
-0.0056021893
0.008478545
-0.0049613956
-0.0004931792
-0.009494285
0.00677801
0.009787666
0.015312353
-0.015424081
0.006328173
-0.007953209
0.00406215
0.009230122
-0.0033848532
0.009327986
-0.00247703
-0.00039079087
-0.01795866
-0.0020249225
0.0142723
0.009258896
-0.018563626
-0.004464276
0.007069241
-0.0050227856
-0.007716236
-0.0013465993
-0.006255634
0.008784626
-0.0076627913
0.00038590914
0.0014832414
-0.013816696
0.0002411932
0.0022554547
0.0025046864
-0.0035411587
-0.002459176
-0.001659364
0.0018590846
0.002158738
0.015340103
-0.008118898
-0.001816446
-0.00604981
0.003909151
0.010704668
-0.004553813
0.0043848814
-0.007255327
0.00875924
-0.012233935
0.0018250667
-0.002175063
0.008848797
0.008060288
-0.0031391024
0.011203266
0.0022641772
0.008717592
-0.0011084598
-0.0041044406
0.0038243262
0.0032164254
-0.0032281536
0.01765261
0.0061771465
-0.008710285
-0.0032290993
-0.0051597496
0.010231849
-0.0027101364
0.02095796
0.009963435
-0.01899844
-0.01974788
0.0048877904
0.019448543
0.012566213
-0.0016123477
-0.001657237
-0.01666206
-0.0026989467
-0.011395716
-0.0018388664
0.0034042036
0.0032091427
0.00552398
0.0013975338
0.0015343871
0.018860802
-0.0047615636
0.0009912293
0.000905384
-0.016955702
0.016334452
-0.0053698258
0.0036416426
-0.0072721634
-0.0217238
-0.001507072
0.0028205414
-0.0011102372
-0.002441239
-0.0022972256
-0.002166502
0.0011537276
-0.0065771686
0.00046782612
0.012566848
-0.022476217
-0.004714845
0.0016048386
-0.007224094
-0.012341983
0.0075535583
0.0041331314
0.0091119055
-0.0034602259
0.020869255
-0.0051527177
-0.01407677
0.009288622
-0.001048452
-0.0027432754
-0.002525385
-0.0019078905
-0.0065718954
-0.0051652812
-0.036608353
-0.0057391217
0.0065354076
-0.0067984764
-0.010380608
0.00023532407
-0.0031744689
0.0004201283
-0.0031124344
0.013360633
-0.0136453165
-0.0053128875
0.008038598
-0.010816851
0.020495279
0.008659737
0.014670349
-0.002253306
-0.0037239972
0.0005805331
0.002829373
-0.005422904
0.014583917
-0.0018878448
0.0146684265
-0.022602983
-0.019403916
-0.004148038
-0.004764311
0.004009585
-0.019599084
-0.0055370396
0.0014064867
-0.0029644961
0.0008755813
0.0009764468
-0.0027092495
-0.016789487
-0.0010651211
0.009615315
0.003926574
0.002279763
-0.0090245195
-0.016732138
0.0070249443
-0.006939609
0.0054405653
0.0026312964
0.0024413653
0.007009871
-0.011115392
0.013533507
0.0035674043
0.0019338594
5.1129242e-05
0.00537921
0.008555991
-0.00031998073
0.006741907
-0.000936212
-0.008894048
-0.011832954
0.005961868
-0.004114359
-0.00903995
-0.03178655
0.0070943567
-0.009919124
-0.011909778
0.010236609
-0.013548401
0.0054395623
-0.008587604
0.005980942
0.006131331
0.010348606
-0.008233294
-0.00043687632
0.02233237
0.009737521
-0.00999797
0.0033101605
0.014207858
-0.012144379
-0.006673956
0.0069241542
-0.0071691093
-0.011503557
-0.00561001
-0.011023692
0.004575247
0.01884715
0.0032975667
0.022173455
-0.012422534
0.0003960625
-0.0027685403
-0.010590278
0.012085422
-0.0028602441
0.015056126
-0.00680873
-0.0055759163
0.0051514762
0.0067059123
0.0063241995
0.003094502
0.006411168
0.00022814497
-0.008628506
0.0074361726
-0.010705203
-0.001928845
0.007854118
-0.006145269
0.0006552778
-0.0030420925
0.0015529889
0.004074144
-0.013744347
-0.0030907402
0.0038247218
-0.013929818
-0.00025492426
-0.00089345244
-0.018768195
-5.8808888e-05
0.007034643
0.014571208
0.015374057
0.0031637545
0.0020617645
0.0012659489
-0.018508328
0.00013115467
-0.0098911235
0.0061482303
-0.0025260535
-0.008805787
-0.003029919
0.009670077
-0.010386929
-0.0068970826
-0.0006926189
-0.008232248
0.018909866
-0.019304173
-0.009360153
0.00958041
-0.0050315647
0.03020589
0.016057363
0.0032227354
0.00033854993
-0.012723948
0.003515214
-0.007745958
0.0034606524
-0.004662701
0.008682357
-0.0051886216
-0.00027296133
-0.020606624
-0.0056358227
0.006296898
-0.008422035
0.0030187194
-0.0057057743
0.011907216
-0.011891074
0.014355462
0.005300991
-0.0104095405
0.030361112
-0.0016674956
0.012000967
0.023403956
0.020366585
0.0016458271
0.0066620093
-0.0067214496
0.017937224
-0.015420072
-0.009274947
0.006693422
-0.015202588
-0.0075961677
-0.012142284
0.0067220074
0.010567978
0.0035761818
-0.012122039
0.0072514103
0.0021171623
-0.013053163
-0.014353241
-0.007282455
-0.0110590905
0.008582025
-0.0076789455
-0.006783016
0.008540351
0.0022373004
-0.017910773
0.0017411256
0.011626086
0.022561964
-0.0037550393
-0.020055387
0.0037631604
0.008246988
0.0153219635
-0.0044868267
0.011999507
-0.00593096
-0.0031269228
-0.01465818
0.0010189068
0.0047978694
-0.015691204
-0.0017142744
0.008464339
0.010822411
0.0029188308
0.001429578
0.01021945
0.012155193
0.005944701
0.0026963367
0.008479432
-0.013932792
-0.0067961686
0.005825773
-0.0014722251
0.00625137
0.011927427
-0.0015252448
-0.008111969
-0.0053351447
-0.0025897354
0.0017294688
0.0046129534
0.009421861
0.0016345222
-0.003014218
0.007571785
-0.007077292
0.011303455
0.0030589309
-0.006179553
0.0014145656
0.0011749379
0.005384741
0.00070233346
0.0017959484
-0.005022246
-0.005131184
-0.008629259
-0.005824436
-0.006252885
-0.0046358774
-0.01690871
0.01587947
-0.0009417539
-0.0124482
0.015784644
-0.0026098737
-0.009063817
-0.0110644875
-0.0062603857
0.0023330925
-0.0023190363
0.00229858
-0.0040953904
0.0020084467
-0.011569518
0.006002626
-0.021877617
-0.01784775
0.006277561
0.00036163977
-0.002296915
0.0012108821
-0.012727139
-0.0053414963
-0.00078646396
0.0081724245
0.012074893
0.007521953
-0.0029570076
-0.007415599
0.010916067
0.007443641
-0.014044034
-0.014788147
-0.006439556
0.008953429
-0.009132116
0.0074802325
-0.003318524
-0.011868969
-0.0058343443
0.004273415
0.0011495623
0.022417443
0.0017935354
0.004493927
-0.017060746
-0.00076908496
0.019199798
-0.024643645
-0.009790139
0.018720469
0.016541807
0.013892248
-0.0055239014
-0.011206582
0.008898042
0.008886374
0.0044874004
-0.0016464024
0.00021134691
-0.0034727072
0.007910709
-0.011694635
-0.0013861241
0.011004665
0.007997043
0.0066533256
-0.023911009
-0.0011532522
-0.012057152
0.0032682812
-0.017693378
0.0038334911
-0.010314018
-0.0063346345
-0.0073658773
0.013418909
-0.005130239
-0.0051645315
-0.012208045
-0.024088087
0.007353706
-0.0073267506
0.002235667
-0.007754574
-0.029105349
-0.004141308
-0.0022466993
-0.012910175
-0.011181539
-0.01509331
-0.0009013431
-0.007851437
-0.012516925
-0.0001837107
0.002565932
0.0028173216
9.399508e-05
-0.00536838
0.0027505942
0.0010726721
0.003418313
0.0012681063
0.0025507875
-0.00056945474
0.004112185
0.005760292
-0.0052819164
0.013083382
0.017339282
0.005654135
-0.00038842965
-0.01371216
0.010590265
1.7122304e-05
-0.006614111
0.0009396711
-0.0020259165
0.0022932754
-0.011716012
-0.016146835
-0.0088168355
-0.0035791781
-0.0002104867
-0.0054122005
0.025503188
0.008538403
-0.006437751
-0.0006364753
-0.017152628
-0.0029347166
0.009679573
-0.0008556431
-0.0052478802
-0.020705193
0.0251819
0.008394514
0.0061506033
-0.009643608
0.0012279201
0.002725574
-0.020924415
-0.006266393
-0.0014433755
0.007676268
0.0100654205
0.0035428205
-0.010823673
-0.0072208378
-0.00681888
-0.0019749273
0.011743075
-0.005474387
-0.012068969
-0.0066168956
-0.017864311
0.006583842
-0.00042649146
-0.013724894
0.0160917
-4.719883e-05
0.00012767401
0.007429502
0.0097337365
-0.01049164
-0.012600968
-0.0033610256
0.0003496014
-0.0011633618
0.0015087962
0.001863853
-0.009956871
-0.006284387
0.002587452
-0.016500851
-0.00269529
0.006399709
-0.002375633
-0.0057525733
-0.009521513
0.0093539655
0.0096340515
0.004733493
-0.005820277
0.00810455
-0.0036108084
0.017177666
0.0047988854
0.015662707
0.0013242385
0.0100981
-0.014177041
0.006637454
-0.004591759
0.014726767
-0.0019440923
0.0049782447
0.006776182
0.0095523605
0.007825491
0.0047970875
-0.0052059297
-0.016007788
0.0055550295
0.02807166
-0.0031906804
-0.004251185
0.0040957187
0.001592393
-0.015116378
-0.0021941357
0.01830387
-0.016142912
0.018730888
-0.011991764
-0.010620434
-0.0077476394
-0.010250766
0.0031333708
-0.003401885
0.010789876
0.005578778
0.011893206
0.0022078
-0.0062896814
-0.015489273
-0.023125574
0.0012065737
-0.0056922445
0.0018000033
0.0035316285
0.0018434804
-0.005637437
-0.0016253388
-0.003920542
-0.015243926
0.0034497334
0.006134489
0.0022925413
0.0017400956
-0.0021048805
-0.0058351695
0.009030778
-0.004998939
-0.007585464
-0.0019240106
0.009224229
0.020444863
-0.008860043
0.0067622596
-0.0093101915
-0.013046036
0.005914751
0.010344716
-0.013862053
-0.003962375
0.0016708572
0.011772314
-0.0019700155
0.00806125
-0.0037208803
-0.018148413
0.011450981
-0.023827774
-0.004960278
-0.006489458
-0.0040863873
0.013349409
0.012085527
-0.009906773
0.009299874
-0.008679766
0.007637759
-0.00090362754
-0.01762571
0.0064843707
-0.0077216276
0.0075425724
0.006854271
0.012613411
0.0036270716
-0.012903445
-0.0022810756
0.002805641
0.02195394
0.002579045
0.0037063374
0.003335317
0.0019834184
-0.0036701928
0.007986654
0.004148311
-0.013273737
0.019339092
-0.0061698505
0.0024935268
0.010520709
-0.015956815
-0.021036737
0.0039754454
-0.011841081
-0.00026661193
0.008698664
-0.005884843
-0.00699495
-0.0042768437
-0.0019891316
0.0002498161
-0.007539064
0.013703899
0.0071485126
0.024482584
-0.006622253
-0.0027740821
-0.008963053
0.0052679144
0.0017333416
-0.0022155514
-0.013471476
-0.0037074382
0.007711667
-0.014541752
-0.010463588
-0.0021908698
0.0027005258
-0.0011735585
0.003854984
-0.014664924
-0.0021073753
0.0007117872
0.0003560791
-0.015414196
-0.0076400386
-0.0018547451
0.010976746
-0.0008559319
0.005042954
0.0056677186
-0.006560377
-0.0051052226
-0.015943756
0.010136944
-0.0007637494
0.0020222596
-0.0010123699
-0.0049161273
0.011014419
-0.0006381454
-0.0058591804
-0.008372165
-0.020069104
5.079465e-05
0.0066280067
-0.0062142867
0.0071638743
0.00485967
-0.015198135
-0.024726974
0.005578288
-0.0072003617
0.0020996772
0.011660054
-0.015019196
0.00011435425
0.009747971
0.01727765
-0.004597538
0.0062128613
0.0075896797
-0.0040215263
0.0074343476
0.011418769
-0.013083569
0.001562378
-0.0065507907
0.011965268
-0.0036291408
-0.009252803
0.00045185952
0.00019449767
0.00013655346
-0.0041487203
-0.0008471587
0.0060834074
-0.011724651
0.005827447
0.0007715713
0.0008899914
0.0064527523
-0.016090423
0.005819343
-0.020787623
0.0069062845
0.0016384402
-0.008624445
0.008212915
-0.00080253795
-0.015378084
-0.00517608
0.009720278
0.0282869
0.0031630273
0.0025340747
-0.0036874588
-0.014127809
0.0065739076
0.0066821324
0.013368259
0.02250536
0.00066647335
0.00088744704
-0.012247031
-0.008091222
0.0007487515
-0.0018078362
-0.0005889878
0.01925334
-0.0037729095
-0.01873094
0.003300969
0.008598412
-0.0138896685
0.005493165
-0.0054294816
-0.029060237
-0.006973886
0.0077295904
-0.013478739
-0.001340215
0.0029065146
-0.014355145
-0.0059037446
0.009222827
0.011182551
-0.0073924772
-0.011603397
-0.010425533
0.0012446215
0.022877181
-0.004652047
0.0013902509
-0.00819877
-0.0076119634
0.0033721596
0.0039923894
0.0071072755
-0.011414434
0.0021021885
0.0011831913
-0.01833194
0.005887988
-0.0114510255
0.011029967
-0.0067737103
-0.017286919
0.015026
0.0010505616
0.016733982
-0.004209401
0.0095097115
0.010511493
0.0037149086
0.001134543
0.016239418
0.010070894
0.013572242
0.0098394025
-0.00838009
-0.015208283
0.0036089998
-0.0067799794
0.016929297
0.009259052
-0.0021138142
-0.0112654455
-0.016220333
-0.0055967993
0.0010521477
0.0010179474
-0.018376179
0.002839149
-0.007721621
-0.01242207
0.0023445173
0.0011416082
0.0077636125
-0.0047393106
0.0077486956
-0.002760987
0.0068984376
-0.0018581233
0.015593323
-0.015635187
0.0012899515
0.0037172865
-0.004893676
0.0017853704
0.016772987
0.009453977
0.0047784424
0.007162822
-0.006279358
0.003185146
7.157971e-05
-0.008883432
-0.0130682485
-0.018902326
-0.00028604036
0.004569115
-0.00512287
0.009851123
-0.010637348
0.008646905
-0.0028491372
-0.023771528
0.016983658
0.013578074
0.0012026645
-0.0063835904
0.008400705
0.0139357895
0.0020329345
-0.017581308
0.0019044274
0.0137108965
0.0003674995
-0.008073045
0.0032608674
-0.0005909881
0.008346093
0.0049815327
0.016829982
-0.006624394
0.00038792685
0.0005970779
-0.002022959
0.009736532
-0.014810291
0.00011044536
0.01151415
0.00053738256
-0.018852288
-0.0044821375
0.004593683
0.021704052
-0.0068792263
0.008816499
-0.009003293
0.0037794022
0.003990173
0.015397605
-0.0105672395
0.011485011
0.0054707876
-0.012386599
-0.0067281374
0.0049328716
0.016846161
-0.012318609
0.009350048
0.011539896
-0.01217643
-0.017687924
0.0044968873
-0.0012558304
-0.0027388567
-0.00867964
0.0072289756
0.020914702
-0.006814764
0.036921166
0.019384978
-3.7206693e-05
0.01158866
0.0030944445
0.0029719353
0.0009531315
-0.022390077
-0.006924847
-0.0034636285
0.004732365
0.014350076
-0.004580204
0.018585205
0.013458502
-0.015168711
0.0071885968
-0.013241608
-0.0017756043
0.006953138
-0.002981285
-0.015089488
0.0012886495
0.008921282
-0.0037571373
-0.005491975
0.015831335
0.0027260035
0.014282785
0.0017957793
0.007940416
-0.002966678
-0.014192502
0.010656018
-0.004060129
-0.011037237
-0.008990047
1.2883327e-05
-0.005044179
0.0036801405
-0.002671729
-0.0026750644
0.0059112636
0.006273129
0.0035087685
0.010190161
0.01757853
-0.013304963
-0.017374337
0.017129151
-0.016078318
-0.005134775
-0.00082875084
-0.0042960634
-0.006712275
-0.0063300626
0.008679235
0.013867286
0.010455716
-0.0067697293
-0.015770435
0.019106098
-0.005945912
0.018103734
-0.00661893
-0.0023859658
0.006516632
0.022830453
0.0016425375
-0.007886725
-0.0103530595
0.0026742734
0.002907463
-0.0050561693
0.0004021636
0.0030440774
-0.0046851337
0.012195223
-0.0053556245
-0.019794362
0.0019996043
-0.004409908
0.009729534
-0.0031270802
-0.0072649936
-0.005558313
0.003204171
-0.012510965
-0.017166033
0.011512978
0.01067281
0.0053350967
0.0060555236
-0.0037869536
-0.012710608
0.013064117
-0.016396878
0.005910244
0.00027459458
0.00653996
0.0026856726
-0.015904792
-0.00015480087
0.00019456388
-0.004654883
-0.009519393
-0.0025245538
0.0010116851
0.004762919
0.013573387
0.0015017041
0.0004909913
-0.016811825
0.003716084
0.004198201
-0.0054949503
-0.005062257
-0.02128535
-0.0065585
0.019845685
-0.012669303
-0.00447514
-0.013396327
-0.0075077913
0.0038195753
-0.0068834294
-0.0045300093
0.005161381
0.0009093852
-0.0070955246
-0.005242504
0.016309584
0.0035199889
-0.0062040463
-0.009253529
-0.003804574
-0.004614666
0.0017799912
-0.016970394
-0.00082247495
-0.0015196854
0.0012519208
0.009368227
-0.011049621
-0.00035834959
-0.010240887
-0.0047403784
0.009064392
-0.001593506
-0.005094239
0.010019442
0.01337605
-0.012490985
0.007819718
-0.015087515
-0.019176623
0.007480511
-0.014738238
0.0025959546
0.0006541464
-0.00932736
0.0020739732
0.01715247
0.02206922
-0.0069624064
0.0023062008
0.010747545
-0.008889976
-0.012958646
-0.010057719
0.0027226084
-0.004425897
-0.0053719506
-0.0013128306
0.0051552067
-0.0016379458
0.0016875362
-0.00022410718
0.0010328592
0.016809803
0.0062322807
0.005720473
0.009392806
-0.006233419
-0.023892667
-0.004208623
-0.014427846
-0.013110188
-0.0107174935
0.0016293837
0.0009656089
0.010647379
0.012276489
-0.011570238
-0.010301013
0.014603361
-0.017872822
-0.010952259
-0.011535514
0.011234658
-0.0123476125
0.0020094074
0.005887881
-0.0031509933
0.013600035
-0.005118336
-0.0065826518
-0.016121626
-0.00816607
0.004468941
0.00815936
-0.013518573
-0.002247664
0.003980834
0.0018357099
-0.0116642285
-0.010695879
0.0056202603
0.014679319
0.020207979
-0.0018348158
0.016360456
-0.022571435
0.035950087
-0.014060851
-0.018091237
0.0038686614
0.012376787
0.005508019
0.0003420256
-0.0044777873
-0.00445996
0.009043181
-0.0073263245
-0.011043323
0.014820823
0.010935192
-0.02247364
-0.0049973223
0.007172425
0.0029320933
-0.0045288634
0.017121522
-0.00047876468
0.0061599836
-0.0037059837
-0.0032641164
0.008714761
0.010585557
0.0009266037
-0.009756196
0.017099708
-0.0117475875
0.018863054
-0.00217494
0.016354587
0.008608637
0.021490075
0.010720802
0.00943506
0.0013602922
-0.0012816226
-0.021709392
-0.0073186373
0.004900298
-0.00015813492
0.0073851543
-0.0075200098
-0.000120585224
-0.016951252
-0.0022844442
0.020152852
0.004852434
-0.018091954
0.010188421
0.0053346446
-0.0059156925
-0.0023529748
0.00040832194
0.00062425504
0.013961998
0.00025328397
-0.0034112337
-0.027416255
-0.00069835864
0.0021097388
-0.0129964445
0.002388967
-0.0017644191
-0.0013938674
-0.01034826
0.0057502096
0.0022476413
-0.0038463643
0.0054018325
0.0002705337
-0.011862872
-0.013558235
-0.0072289985
0.021766474
0.009744445
0.0047678608
0.0012756775
0.004510655
0.009019849
0.0011529818
0.00601949
0.03111832
-0.0027387023
0.0029091006
-0.0013586421
0.005224184
0.00749678
0.00639212
-0.0065073166
0.0025399383
0.0033780064
-0.00093512004
0.01827314
-0.014318251
-0.01085803
0.013998057
0.0003790908
0.014668362
0.002665665
-0.010845974
0.009285178
-0.0049190396
-0.009868807
0.0007864844
-0.0053329472
-0.017697344
-0.008501437
-9.739046e-05
-0.009140911
0.016452936
-0.00055122667
-0.018621389
-0.00341635
0.0111557115
-0.02293381
0.003364158
-0.016053522
0.003983757
-0.00079340476
0.015639953
0.00054536987
-0.0058305794
5.2904976e-05
-0.0044074603
-0.0020296103
0.002922189
0.008714385
-0.007843023
0.004098216
-0.006943931
0.00055533985
0.003950547
0.0065049967
2.630891e-06
0.0059590284
-0.021167751
0.023810577
0.0015676913
0.0097345775
0.00929667
-0.0002717045
0.0034662895
-0.006472856
0.007726574
-0.006317791
-0.0021114757
0.0037647968
-0.017783023
-0.0017663813
-0.0020396623
0.0067901034
-0.008405168
0.0060906955
-0.001910102
-0.00016881041
0.006690067
0.021841716
-0.0124368565
0.011497634
0.008650245
0.00076989736
-0.006654789
0.004501982
0.0027801762
0.00018008407
-0.0007464805
-0.00581752
0.0090868715
0.0051009553
0.0010191641
-0.0059202677
-0.009745404
0.005200416
0.010089067
0.026568923
-0.004857485
-0.003519326
-0.018090544
0.012421899
-0.007649958
-0.012311822
-0.020454373
-0.012919584
-0.014889113
-0.015189597
-0.0012895165
-0.011816551
0.0051115537
0.0054171435
-0.005062493
-0.018779974
0.012094252
-0.0029609345
0.016456865
0.0010564337
0.014706647
0.016389562
0.013239493
0.011785148
0.007269619
0.0059138173
-0.004241869
-0.0037126776
0.015200237
-0.010504597
0.003504345
-0.0074594324
0.0202774
0.0068391548
0.007962632
-0.025086114
0.003617554
0.003435715
0.019707236
-0.0045526554
-0.016174044
0.0016270505
-0.0020031976
-0.016451584
-0.0019938897
0.001629613
-0.012950796
0.0058221905
-0.018528167
-0.022895755
-0.010864135
-0.011177277
0.0042427354
-0.0065291086
-0.006841423
-0.0030739242
0.016679456
0.004500005
-0.0049716234
-0.009081374
0.015334182
-0.0054315934
0.0059940647
0.00010202201
0.009579339
-0.0036235296
-0.016162163
-0.013088111
0.0059777815
0.0007632502
0.007939881
0.0008805879
0.012488267
-0.00840049
0.008905451
0.0052967314
-0.009970239
-0.024665443
0.00015053179
0.001753991
-0.009508088
-0.00019733129
-0.004398612
0.007359923
0.008605042
0.0129337795
-0.006010015
0.0048176902
0.0058400356
-0.0012030791
0.008636424
-0.012438716
-0.015663598
-0.00030025904
0.0044096396
-0.0012552397
0.0099577475
0.003957351
-0.014244205
-0.010588962
0.017059634
0.002767955
0.005521979
0.005308144
0.0025193405
-0.012463291
-0.0007480162
0.01227868
0.0027937836
-0.0050659264
-0.0014875922
0.011770493
0.007023872
0.010195887
0.010489487
0.019260945
-0.005701429
0.018716559
0.0007215657
-0.00616069
0.011743345
0.005634947
0.0141891325
0.004719864
0.008893517
-0.009975837
0.0055333194
0.016001891
-0.00678832
-0.0017035761
-0.011373051
-0.009766806
0.0009667188
-0.00047192752
-0.0020952371
0.0025828362
0.0009533997
0.005276532
0.024252672
0.0060705976
0.0071573346
0.0128905075
0.011840527
-0.007859896
-0.0070267105
-0.00854279
0.0013657965
-0.002981612
-0.004250117
0.006095699
0.0016281158
-0.0032739723
0.0060869628
-0.009853754
0.0025430757
-0.010437388
-0.007855285
0.008648545
0.010037207
-0.012147539
0.0049649794
0.0066433004
-0.010816877
-0.017699892
0.014497359
-0.006704518
-0.005997628
0.006249071
-0.0038417247
0.009722983
0.005559764
0.0013917285
0.0023901402
0.008145622
-0.0033442555
0.00010209339
-0.005255346
-0.00442446
-0.0028763604
-0.004144749
0.011858856
0.0042172302
0.019136049
-0.0006293269
-0.004495896
0.0051902044
-0.010636552
-0.0037693344
-0.0030098285
0.0017348184
0.014331837
0.010121364
-0.0062478054
-0.002083043
0.0032292376
-0.012056262
0.0056536854
0.0019898375
-0.0065273065
-0.00079902937
-0.00728306
0.01144944
0.00022069027
-0.011842151
-0.0075479196
0.0038548436
0.000672241
-0.004180257
0.0027067468
-0.017028194
0.014222081
0.0026054916
-0.0002837338
-0.017977085
0.009262754
-0.0015465049
-0.005493777
0.0012145182
-0.0021346002
0.0043423898
-0.0069703674
-0.00012680056
0.0019921085
0.014694401
-0.016932478
0.008727809
0.013411514
0.003812821
0.032214317
0.0062850653
0.022612967
-0.00999232
0.005023419
0.0065582003
-0.00876557
-0.005935071
-0.00736022
-0.004235888
0.0025640249
-0.0029166127
0.010351701
0.004641162
-0.0022370806
-0.020982642
0.0007444524
-0.005782866
-0.015180738
-0.0049598175
-0.006701676
-0.023623018
-0.0056915837
0.00072269165
-0.013331364
-0.006843683
-0.017139489
0.013602862
-0.014959784
0.008998641
0.012672625
-0.019011337
0.009265042
0.00015877545
-0.019267386
0.0033127
-0.0073867673
-0.00394423
-0.008230727
-0.004688123
0.0009881484
0.0063343267
-0.0061386423
-0.004774473
-0.0025949385
0.002260308
0.009938037
-0.009127459
-0.013689562
-0.015400181
-0.0029793018
-0.018189507
0.022887863
-0.017123789
-0.013644155
0.017424872
-0.017943699
0.013345484
-0.0036694305
-0.0013532755
0.0020632718
0.0067787427
-0.0016812673
0.00046191426
0.00014609065
-0.009418204
-0.013703154
-0.009042494
-0.0014696377
-0.004194297
-0.01008102
-0.01416022
0.012636343
0.010115812
-0.0060560624
-0.03041321
-0.0033786173
0.0058960244
-0.0074813133
0.0009111596
-0.00702445
-0.0065124333
-0.002173534
-0.010976295
0.009521322
-0.0009498539
0.016340183
-0.00023298754
0.017235838
0.006172949
0.01287841
-0.019995932
0.00381395
-0.014790235
-0.0009519636
0.006089375
0.0046553183
0.020466976
-0.000684714
-0.0034461655
0.012039667
-0.0036153719
0.0076559107
-0.0013495281
0.0021992973
0.007744921
0.019316245
-0.0023886766
-0.008870254
0.00751744
-0.012915735
0.0028211295
0.0058512865
0.0024307403
0.00012253232
-0.006739358
-0.0028525463
0.0030870005
-0.015680743
0.010723928
-0.012732203
0.007168364
0.023819076
-0.0074630543
0.014632192
0.00063907064
0.009402262
0.011833702
0.005653007
-0.009923036
-2.6005255e-05
-0.0075786277
0.0046297535
0.008182817
0.012782992
0.0074733477
-0.009283339
0.000623834
-0.0014563814
0.0068308404
0.0035387517
-0.009044729
-0.004279495
0.015597865
0.016225789
0.018193206
0.009545571
-0.009135542
-0.0105926925
0.014889585
-0.010325483
-0.0111043425
-0.0055967825
0.0012009575
-0.023480503
0.004228703
-0.0016178826
-0.00865659
0.009940517
-0.009865171
-0.008326297
-0.023317391
-0.0011410875
-0.014269627
-0.010584091
-0.00800314
0.0059693814
-0.013303755
0.008858302
0.022642191
-0.012832468
-0.015942283
-0.007387734
0.0028047073
0.008617452
-0.0033135721
-0.00263443
0.010564077
0.010331155
-0.0049685077
-0.002239725
0.0073908153
-0.005861793
-0.013064544
-0.006800542
0.0051406855
-0.0032668363
-0.01620141
0.006402434
-0.010116143
-0.0056570754
0.0063608
-0.00020612543
-0.007423454
-0.00022329598
-0.006028383
0.010051452
0.00858377
-0.0066784597
-0.007367957
-0.0072815693
-0.016188093
0.00013278658
-0.0057466347
-0.017578937
0.0015096117
-0.015591478
-0.008837328
0.009903935
0.010961947
0.0020457448
-0.0055842726
-0.0022067523
-0.0036656505
-0.0033072818
0.005852797
0.0077772043
0.016891414
-0.015592035
0.009716813
0.013534581
0.0019432836
0.0066892193
0.005505619
0.0006804002
-0.0006400442
-0.013004111
-0.022913301
0.0058272127
9.725922e-05
-0.004332922
-0.002948797
-0.015959606
0.00590466
-0.0028952193
-0.0070466027
-0.011051805
0.004362075
-0.0038443988
0.0033883767
0.01619254
0.007507042
0.011885956
-0.0059149107
0.011507346
-0.01283633
0.009939268
0.016872907
-0.011211367
0.0013303517
-0.0013691812
-0.01369814
-0.013838121
-0.0005009661
0.0048898193
-0.0081736045
0.008616151
-0.0011216692
-0.011346842
-0.002670966
0.0021749237
0.0054287347
-0.009801484
-0.004591382
-0.0099658435
-0.0020243158
-0.012521056
-0.004615048
-0.00036069538
0.018590434
0.0028157677
0.0011753024
-0.02345839
0.0018047146
0.0043572704
-0.0062664608
0.0031508608
0.012996326
0.0004826336
-0.0027753299
-0.014020601
-0.005148135
-0.016639562
-0.0060966173
-0.007970427
-0.009020428
0.0041601737
0.0038991587
0.0119899595
0.0010287829
0.004620486
0.010131331
0.0032316172
0.015732726
-0.0032998808
-0.002626137
0.010159489
0.0052155517
0.010463788
-0.013187334
-0.007879841
0.009156623
-0.0020878576
0.00361137
-0.002761376
-0.0030317192
0.0011497582
-0.009873522
0.010725585
-0.010596531
0.012063537
0.001619264
-0.011651568
-0.0041351668
-0.02011897
-0.0040338887
0.0018087203
0.016795866
0.010506575
0.012932422
-0.014165978
0.007439358
0.0053468747
0.0047227642
0.013422899
0.0011752746
0.008057887
-0.0005830305
0.003857304
-0.008153173
-0.0038386108
-0.01091094
0.0010741716
0.0023680807
-0.001557354
0.0016155847
0.012648523
0.0015526256
-0.0069848415
-0.007433992
-0.020796686
0.0035535975
0.001668301
0.004082007
0.0028399075
0.004869952
-0.0018632641
-0.0021461227
0.012364025
-0.011876545
-0.0066173743
0.011319111
-0.0065906327
0.002298943
0.007952553
0.016284933
-0.0130584
0.0051763826
0.0076002204
-0.026864983
0.004999548
0.002158714
0.018350583
0.0038905584
-0.011400958
-0.0063045165
-0.007134761
-0.01637764
-0.015871363
-0.002561295
-0.007052185
0.009432499
6.8528374e-05
-0.0060778046
-0.0015901056
-0.024189731
0.0073438017
0.01833884
0.0065115904
-0.006229157
0.00092953845
-0.00938474
-0.0034827401
0.005764023
-0.015473184
0.0012859965
0.009781293
-0.0040556
0.008040873
-0.01842451
-0.004504489
-0.000774638
-0.015546599
0.023088746
0.009027737
0.004400024
0.0020496526
0.0032623266
-0.0025376594
-0.021535685
-0.010201605
0.007292697
0.0057834587
-0.0012891574
-9.82379e-05
0.001165565
0.020840459
-0.015423762
-0.0046754437
-0.00017627995
-0.007701494
0.0017321489
-0.006506415
-0.009177402
0.0067890305
-0.017633151
-0.0044168467
0.019061482
-0.0033092487
0.0040671737
-0.011339714
0.004899546
0.0054819766
-0.004795283
-0.009235757
0.016786145
-0.0152808
0.014262355
0.012479022
0.013805109
0.008896883
0.0035843723
0.008024898
-0.0033776546
-0.009448254
0.0052453596
0.0077370605
0.006975418
6.498742e-05
0.008017891
0.006498889
-0.001072979
-0.006249069
-0.016683148
0.0068326876
0.0010478336
0.012379606
-0.012842957
0.009614193
-0.010353455
-0.0015819626
0.01190016
0.0009048221
0.0017683818
0.0048795925
0.0180535
-0.015979374
0.007954954
-0.019607706
-0.006671199
0.011172869
0.008758794
0.005024713
-0.007885243
0.010936874
0.008835317
0.026161766
-0.008147226
-0.024510369
-0.03499315
0.015603825
-0.012096934
0.006462525
0.0032843598
0.011057113
-0.0059223664
0.0015801751
0.007031437
0.017796544
-0.0008219105
-0.009892035
0.008940495
0.015852138
0.018005233
0.013778582
0.0071923975
-0.0026453799
0.0072060865
0.014798459
-0.01493338
0.004961788
0.00616186
-0.0010983791
0.002752994
-0.004581773
0.0025296332
-0.0077974675
0.010901111
0.003172997
-0.0060431743
-0.008446939
0.0020099778
-0.018798588
-0.009271474
-0.0074717198
-0.021808572
-0.008684553
-0.008395283
0.0030118893
-0.008437339
-0.008864568
0.016953703
-0.0018447239
-0.0060384558
-0.0013378818
0.004336622
-0.006802745
-0.00591947
0.0047696237
0.001507003
0.0039371653
0.0067568445
0.01529839
0.01564309
0.014166082
0.0046014423
-0.0056119054
-0.002813641
-0.008295111
-0.0058245882
-0.0058187917
0.0009814911
0.0005093953
0.00081647903
0.0055194884
-0.004979214
-0.0016502012
0.004380182
-0.0082508065
0.0019816712
-0.008613099
-0.017721303
-0.0020063005
0.002956565
0.0002499575
-0.0024362258
0.008021093
-0.005170205
0.0010026227
0.0043128543
-0.0005835367
0.008366125
-0.008433436
-0.011347516
0.018955408
0.009538646
-0.009989269
0.008405378
0.015593037
-0.0033427435
-0.00026549824
-0.014888798
2.789173e-05
0.0015546508
-0.017394705
0.006510916
-0.01402316
0.0037051274
-0.00046322375
-0.0055823564
-0.01025275
-0.0022004524
-0.0039484967
0.02800773
0.007825878
0.0009888932
0.0067354674
0.0042916634
-0.014583478
-0.008010066
-0.006175389
0.0005717244
0.012939578
-0.00035525873
-0.00053234753
-0.00042761854
0.014674804
-0.009114367
-0.004878382
0.019724153
0.0032192809
-0.004877299
-0.008586451
0.0021591634
0.015855154
0.0005867709
0.0011610569
-0.0007853323
-0.002885862
-0.00433538
0.018402405
0.0023311835
0.01222502
0.009839705
-0.013818643
0.004537131
-0.0065913987
-0.006286196
-0.0037485696
-0.011605822
-0.0030468493
-0.010829312
-0.008805594
0.017576663
-0.0020735045
-0.0036165465
-0.0009387279
-0.0005399603
0.0001489195
0.0019057369
0.001195778
-0.016400024
0.006137301
-0.019783154
0.0017736672
0.013808089
0.012449146
0.025683353
-0.01614649
-0.0019037104
-0.007612418
0.0035883735
0.009800414
-0.014377673
-0.003448382
0.0013993935
0.0049687135
-0.0074266414
0.0101706935
-0.016253384
-0.008278835
0.010154338
0.017058618
-0.0034846643
-0.0037807452
-0.017321931
-0.014181437
0.017917905
-0.0042001815
0.007971647
0.00040974468
-0.012198892
-0.0058428845
0.003154195
-0.016902937
-0.009591205
0.01366689
0.007527422
-0.0012841683
6.557331e-05
-0.009088984
0.024681797
0.010395069
0.0009589312
-0.007989448
-0.019953309
-0.0044095893
0.0024645834
0.0083637815
-0.0034138125
-0.0057348968
-0.0017920054
-0.007967963
0.003949612
-0.0024676442
0.00023713392
-0.0036644642
0.0075335535
0.008199609
-0.009713826
-0.0019433436
-0.0049793366
-0.004596503
0.018403186
0.0040930007
-0.009317068
0.003870659
0.0050353883
-0.0085229
-0.0028926115
-0.006503565
-0.0016442044
0.01499413
0.0031242864
0.0043545957
-0.0033895366
0.01712927
0.013887496
0.0036774622
-0.011407786
0.00855945
-0.0059150145
-0.0027123052
0.020955252
0.00810462
0.02331785
-0.015397238
0.005759427
0.005241789
-0.0017536512
0.020956699
0.009759432
-0.009345681
0.013596647
0.0033451011
0.016204467
0.009631881
0.009272387
-0.012280875
0.0025618302
0.001792018
0.01471364
-0.0014522211
-0.007585896
-0.00830368
0.0007699093
0.013652653
-0.0041406658
0.0028991343
0.010712935
-0.008676572
0.012163767
0.004099171
0.0005400336
-0.0071413657
0.013253874
-0.00022703919
0.005089433
0.010011885
0.0026352778
-0.0020549127
-0.020260971
-0.017896282
0.0064456235
0.007834647
-0.0021477386
0.00525846
0.0047641476
-0.010285106
0.0040696105
0.0011201157
0.016838627
-0.0015084376
0.014082704
-0.008866382
-0.001449641
-0.020596981
-0.011302775
-0.0053039757
-0.0031421413
-0.0028458952
0.006405048
-0.0050890236
-8.648964e-05
-0.014852155
0.010340909
-0.005918409
-0.012458122
0.0013425307
-0.006880403
-0.011589085
0.009315299
0.014241033
0.0054493127
-0.0046983394
0.00125739
-0.0121316835
0.0013562345
0.00650331
0.0057400526
0.0018375758
-0.034401298
0.008334937
-0.0007521413
0.0070320647
0.0016147521
0.005753413
0.0089827115
0.0011821256
-0.012386702
0.0049867826
-0.0026256004
-0.0009842814
-0.00774629
0.013211089
0.003002418
-0.006933639
-0.008632694
0.0017712081
0.0032743602
0.01470821
-0.006317505
-0.010848996
-0.020169359
-0.006986284
0.0023705335
0.007487426
0.008620907
0.004868677
-0.007371963
-0.0074565453
0.00010420575
0.0012007284
-0.010476155
-0.0053440123
0.004917179
0.010840406
0.0056401626
0.0010513054
0.00019060369
-0.01105155
-1.4712437e-05
-0.01280758
-0.002260826
-0.020797508
-0.014659308
0.0015917694
0.0052212505
0.0059114126
-0.0039795833
0.0022844207
-0.0082824
-0.006093191
0.0026993086
0.009225932
-0.017003981
0.0011174268
0.0020659096
0.005883572
0.0024512168
0.0037431915
-0.0046632024
-0.012306841
-0.004124155
0.0011962953
0.026583502
0.013204048
-0.0031568694
-0.008495686
0.0017254956
0.012114832
0.005937983
-0.00998259
0.0063183852
0.0073016803
-0.0053901956
0.0039951545
0.009094436
-0.016435063
-0.0052715633
0.0041622017
-0.006460665
-0.0017070957
0.0042417888
-0.0033538511
-0.0035127637
0.0023274547
-0.0093138935
0.010764724
0.006821244
0.01582235
0.011263109
-0.0055252644
-0.0073153838
0.0058524213
0.0009899659
-0.003972604
0.0011409723
-0.0022799005
0.020634258
-0.003074533
-0.0125458455
-0.0005694943
-0.0061112973
-0.009664415
-0.007718945
0.015197213
0.0027084523
-0.008288843
-0.009492949
-0.008176919
-0.003857355
0.006901213
-0.00067743164
-6.8502115e-05
-0.015670754
-0.011884838
-0.0018493243
-0.013144445
0.0003117192
0.0070216227
0.0022563399
-0.0014732302
0.008461981
-0.006344421
-0.0028250732
0.007360595
-0.022853963
0.009609461
0.00056917506
-0.0041790544
0.0048360704
0.020509014
-0.004282883
-0.0051674424
0.012409415
0.01797833
0.0020841898
0.005282509
-0.0065920013
-0.012660663
-0.0076487362
0.0050548445
0.0023219292
-0.0002776623
0.012667436
-0.0054401234
-0.010522776
-0.0033287632
-0.015053532
-0.003476205
0.020823773
-0.012442909
0.0013558811
-0.0055506127
-0.009325204
-0.0048928875
-0.004502966
-0.011513142
0.016660647
-0.008618634
0.006597511
0.0152381975
-0.0016484077
-0.001136701
-0.0059647285
0.012230615
0.0063401186
0.0066563585
0.0053451345
0.0005295484
-0.003810056
0.012054431
0.01001563
0.01096767
-0.0055895383
-0.006273483
0.006651443
-0.012473767
-0.005606035
-0.0041552517
0.007223268
0.0024664067
0.016925558
0.004590239
-0.0075929277
-0.0011387054
-0.007386908
0.011415321
-0.003139125
0.0030707936
0.014986035
-0.0068767164
-0.0004981356
0.00515232
-0.010917773
-0.00079410593
-0.0168176
0.010543939
-0.0098247565
-0.01187036
0.009310107
0.010538356
-0.0044609373
0.0074297264
-0.008424491
-0.0055917115
0.008851411
0.0028919813
-0.0007035449
0.006030331
0.008663293
0.00042944634
-0.005144331
-0.0016264246
0.0052819555
-0.017741082
0.0078101233
-0.00823403
-0.008438867
-0.010496689
0.011041765
-0.0037482225
0.018126013
-0.009309173
-0.0067753517
0.0039219526
0.013822075
0.0014572266
-0.0136588
-0.00467297
0.01556124
0.007887729
-0.008580182
-0.0019000976
0.0033687167
0.0060783573
-0.0008031654
0.00816535
-0.001678603
-0.0033960615
-0.0013735966
-0.010850304
0.007837602
0.01306918
0.021308336
-0.0063382876
0.008929334
0.00082659523
0.0085947085
0.00039959906
0.0009249425
-0.01220496
0.0018064292
0.000894515
-0.0058424533
-0.001187055
0.014580749
0.003084907
0.00024159561
-0.014348116
-0.00093988806
-0.021717524
-0.00502685
0.00426197
0.016092028
0.019147476
0.0065447786
0.010873987
-0.002131506
0.0072837076
-0.001101395
-0.007783607
0.023806086
0.00669966
0.0030709947
0.0037591127
0.00442137
-0.023249933
0.0042577456
0.0072089355
0.0017079214
-0.0060755466
0.010226005
0.0017000253
-0.0048873494
0.015693812
0.0045541637
-0.0015410894
-0.019043816
-0.013633732
-0.009804466
0.009323321
0.0016393459
0.0074207364
0.004971536
0.0134086115
0.005225785
-0.008263873
-0.007988535
-0.0013705441
-0.0042519714
-0.01199329
-0.0072064996
-0.023348818
-0.0055214083
0.012928031
0.011732964
-3.0541752e-05
0.01260294
-0.0015989685
-0.0009261815
-0.0012346852
0.0043954006
0.012171803
0.0026357914
-0.010411374
0.0028961815
-0.0018907877
-0.0009636215
-0.0032286083
-0.010270445
0.009807864
-0.0017102415
-0.014166962
-0.003938087
0.010372192
0.0002356932
0.0052073086
-0.010774621
-0.013429048
0.0056329807
-0.0015816141
0.0018876638
-0.009241009
-0.008355502
0.0018989551
0.011189367
0.0014037999
0.025432825
-0.00370188
-0.003091301
-0.008742235
0.0034190991
0.0039972574
-0.0065835486
-0.0052824137
0.010253771
-0.0012735634
-0.009400057
0.006114978
0.0037520765
0.0020389042
0.0028217966
-0.0011326186
0.009211017
-0.0005871179
0.012824715
-0.0023649053
-0.0077494117
0.016053975
-0.003961946
0.007631452
-0.009319661
0.0038891085
-0.014551514
0.012864229
-0.017026842
-0.0033656731
0.01268134
0.0045661735
-0.0037799692
0.023454804
-0.00055639877
-0.0060852305
0.0038039174
0.01058568
-0.0071928366
-0.011313347
0.00014082462
-0.007248437
0.007975559
-0.018120786
-0.015291493
-0.007111588
0.0024129031
0.0070870654
-0.01567102
0.008310033
0.0044240844
0.0104209585
-0.021630483
-0.00060521666
0.015494991
-0.006779347
0.0028419527
0.00048941746
0.004602926
0.014146772
0.0009092736
-0.011919177
0.004986799
-0.00028012926
8.4678286e-05
0.004267271
0.010461468
-0.017691461
-0.0022813973
0.020167815
0.015301499
0.01960639
0.00909018
-0.01270563
0.00019653364
0.004159627
-0.011253468
-0.015158356
-0.009184869
0.00047890222
-0.00045826836
0.011120462
0.0071599083
-0.0005255047
-0.013877924
0.00999324
0.0025641988
0.009745391
-0.005407847
-0.0040404834
-9.041203e-05
-0.011977912
0.012748296
0.0016162695
-0.008651808
0.01816468
-0.008924819
0.009144291
-0.002038269
-0.0012275523
-0.008285131
0.009248546
0.0049341517
0.0074830125
0.010216088
-0.0069108508
-0.023090987
0.0022652782
0.004869627
0.010432631
-0.009029056
0.00549662
-0.0034762858
-0.0010911882
0.01673672
0.0034004028
-0.00022153075
0.007159732
0.008401734
0.0008757933
-0.007968253
-0.018561509
-0.011612535
0.014606657
-0.003965069
-0.00031745248
-0.018819269
-0.0029432764
0.00018105902
-0.00073315745
-0.0017665672
0.0059329104
-0.0045773163
-0.0038452267
0.0048497487
0.0012569706
0.0058005564
-0.0037434967
-0.012778103
0.013033341
0.00042597752
0.0021010886
-0.008155666
-0.006931161
0.017801853
-0.008716406
-0.0018333555
0.006286742
-0.0009308979
0.0031650322
0.005800999
-0.008933281
0.009830069
-0.0152192945
-0.00024430917
0.008803087
0.013369225
-0.0040393285
-0.008196442
-0.0025158133
-0.007354632
0.0019202612
-0.0031271367
-0.0062131383
-0.0044669774
0.0047115437
-0.0021497565
0.009652878
0.0013592961
0.009306984
0.0030881201
0.008487655
-0.0010356714
-0.01903825
-0.0009806481
0.015008431
-0.0012719372
-0.010929868
0.0090706535
-0.0076715425
0.006767622
0.00090546254
-0.0035105508
-0.00021364281
-0.0023335228
-0.016099775
-0.014991577
0.010179645
-0.0016948564
-0.0070927986
-0.0011261583
0.010938059
0.004273968
0.012190594
0.001758899
0.015604274
0.005037036
-0.0008462476
-0.0031501667
-0.010619833
-0.008167026
-0.01436364
0.010058729
0.014468032
0.00080203026
-0.0050513637
0.00047485335
-0.009060791
0.0039047794
-0.001980196
-0.010144453
-0.012395254
0.001855661
0.008002366
0.0032757935
-0.00010410187
-0.0027776354
0.010466207
5.9157603e-05
-0.016569635
0.0030056115
-0.004685864
-0.0077035734
-0.0063292286
0.015757147
0.012295154
0.0055538127
0.0051678633
-0.00899217
0.017099261
-0.0066759954
0.017065594
-0.009124817
-0.01609635
0.005609696
-0.003498476
-0.012219311
-0.0023106197
-0.007076059
0.006637095
0.027873972
0.011281388
0.01619565
0.0066896915
-0.003284764
0.0041489983
0.008733398
0.0058115264
0.010797654
-0.019535508
0.0027924194
-0.018943034
-0.0046013524
0.0016535795
0.01003524
-0.0045745024
-0.0017539827
-0.0029732077
-0.0008535232
-0.016279375
-0.005891795
-0.0067715542
-0.006932814
0.008615906
-0.009396021
-0.0028097942
0.01770464
-0.0021059387
0.003163623
-0.0056660706
-0.0067871623
0.0060748383
0.012357909
-0.0005428234
-0.020697143
0.003415634
-0.014181908
0.00033287378
0.013169873
0.023330526
-0.0032060437
-0.0012745274
-0.0033752497
-0.0038069019
0.002198808
0.020220386
-0.0009992217
0.00836703
-0.010240573
0.008511683
0.0067779995
0.0010154557
-0.011521356
0.0041722762
0.012422385
-0.013321247
-0.0055151125
-0.0039807474
-0.020853302
0.00923835
-0.0075524533
0.005881979
0.0030459643
-0.0029286996
0.001093643
0.016815921
0.0047441963
-0.003821799
-0.001753069
0.004530039
0.009997593
0.0060434476
-0.001694744
-0.016730044
-0.00041352943
-0.004542505
0.0010824908
-0.0042833462
0.0024757157
0.015898656
0.004681826
0.024454368
0.0006440857
0.009860557
0.00481211
-0.007362026
-0.014692916
-0.0033495992
-0.009053285
-0.009545749
0.0070692073
-0.0019112959
-0.023787541
0.009012581
-0.009894503
-0.0073207426
0.011255138
0.010791436
-0.00686998
-0.011975731
-0.015963208
-0.00809064
-0.0033453314
-0.020382885
0.0013603349
-0.009976649
-0.020967077
0.0022544889
0.0010185371
-0.0043746307
-0.008403892
-0.0022328894
0.004238692
0.0060789115
-0.0057324716
-0.0013182242
0.0060441885
0.00053853646
0.010237396
0.02434345
0.0035061245
0.0008569379
0.009985621
0.0037161005
-0.0018176027
-0.013432211
0.0052693477
0.009889645
-0.0026828805
0.0008770363
0.010288021
0.012515611
-0.008469958
-0.0074476483
-0.022115625
0.0010617884
-0.003616952
0.008594451
0.0014841572
0.0038635405
-0.003058075
-0.02854085
0.0062755677
-0.0013206574
0.01245543
-0.023491254
0.0075481045
0.003446239
0.0031607312
0.008081449
-0.015516373
-0.016075239
4.2149903e-05
-0.024795858
-0.0045002457
-0.004638186
0.00037539063
-0.0052934447
-0.008394571
0.017230513
0.007157097
0.002720582
-0.0034476034
-0.01201256
-0.00957364
0.014067452
0.025910787
0.00076212495
-0.017455934
0.0025132457
-0.0054394226
0.002537648
-0.0015021791
0.011775924
-0.00018635002
0.018798351
0.031017177
-0.019117989
-0.025567962
-0.0136868665
0.00017535816
0.02098648
-0.0005968225
-0.01694485
-0.0031705576
0.0048838113
-0.004924237
0.0011487963
-0.01968368
-0.0048885676
-0.00023456888
0.017227665
0.015402221
-0.008891418
-0.0050977203
0.006544655
0.0038588147
-0.006724014
0.017640797
0.006263668
0.0015700571
0.0033203745
0.010089381
-0.0126499515
0.0009783597
-0.016342228
-0.00016261275
-0.009550299
-0.013434634
-0.012249131
-0.010592266
-0.021062527
0.008701437
0.009492815
-0.002234101
0.011167409
0.0017521441
0.011074093
0.007752743
0.005298393
-0.0021964826
-0.011061883
-0.0009919052
0.0021479933
0.004354052
-0.0051843743
-0.0027009568
0.016591867
-0.009822029
0.01855608
-0.016800197
-0.00043077287
0.028996633
0.0013044463
0.00035961252
0.009613223
0.008483236
-0.0020993412
-0.0038925777
-0.00043224345
-0.008652159
-0.01521501
0.0074853823
0.011194154
0.0044421027
-0.000345743
-0.014869264
0.0047616335
-0.010759945
-0.00813264
-0.0057023214
-0.014341352
0.0059442744
0.010354899
0.0042975806
-0.017502489
0.016965894
0.017523551
-0.01417396
0.008473532
0.0064557265
-0.004392893
-0.009737889
0.0052222866
-0.0040939897
-0.0041468055
-0.0005729142
-0.009513465
0.003935509
0.0049738274
0.0052790837
0.009161001
-0.0035033058
-0.008128454
-0.01710834
0.005505699
-0.0062043616
0.00795432
0.0061635473
-0.011787879
-0.005516747
-0.010945973
0.0065311408
-0.0025945555
0.0049508484
-0.004595158
-0.021291655
0.0010719238
-0.005224216
-0.0026134541
0.014027119
-0.0005652472
-0.018081257
-0.0025861554
0.0089603495
-0.0062150448
-0.0113852685
0.006949097
0.01280189
-0.013758649
-0.0037443207
-0.018835392
-0.009048891
0.004827463
-0.014523035
-0.0034756511
0.0018246672
0.0021538052
0.015615503
0.011352191
-0.012134343
-0.0052759326
0.0041235983
0.0019016098
-0.0022442767
0.00920748
0.02368773
0.0078223925
-0.0028162892
0.0049003195
0.0045903134
0.020604448
-0.0050150985
-0.003725095
-0.007172588
0.0076159253
-0.0016911487
-0.0069440496
0.0011890545
-0.00066560396
0.00992026
-0.0073335394
-0.0025882737
0.005075016
-0.0032935834
-0.0022579234
-0.0033272335
0.008096338
0.0016002884
-0.0029234195
0.015882256
-0.00595705
0.010887322
-0.0030144872
-0.013447139
-0.0027397163
0.014033442
0.004487556
0.0036466252
0.0045572156
-0.007645031
-0.008651894
0.019203726
-0.009662821
-0.009646311
-0.0022303055
-0.00044220127
0.0046124575
-0.0038332012
-0.0090479
-0.013551798
0.0016215912
-0.0030592564
-0.016783144
0.0062255
0.0020803267
0.00867935
0.020906944
-0.003638291
0.011888695
0.00065389124
0.00082533417
-0.0021925543
-0.002017771
-0.008980367
0.014478714
-0.0065608015
-0.0027914199
-0.016518857
-0.013804851
-0.0094603
0.0026204449
-0.0071016955
0.013145346
0.014874617
-0.00559881
0.009651424
-0.013416182
-0.0035436696
0.002083156
-0.0017685322
-0.008525301
-0.0027508645
-0.005704401
0.008989216
0.0058691585
0.019135062
-0.007353321
0.0005246712
-0.00433018
0.00815753
0.0052255453
-0.0046063866
0.013082128
0.019558435
-0.012886969
-0.004642496
0.0029020791
0.016861996
-0.00442035
0.008109026
-0.0075132316
0.0058635543
0.005431697
0.0022933749
-0.006271029
-0.017553205
-0.0015735943
0.0058654803
-0.011741943
-0.012776619
-0.012277145
0.026379978
0.0007840669
0.018454684
0.0033230362
-0.028956473
-0.006440389
0.0013778275
-0.0043571224
-0.0024024758
0.0091532
-0.0074012075
-0.0073019913
-0.011966519
0.009573079
-0.0017145216
-0.0008359594
0.0030565693
0.0021214532
-0.013195766
-0.0044852053
-0.0003156571
-0.0030179464
0.01652001
0.008955555
-0.0101553975
-0.010449176
0.01771624
-0.008894153
-0.0025611427
-0.003079896
-0.0006754782
0.010830848
-0.0037222507
-0.00335716
0.009734417
-0.0055764266
0.0013077317
-0.0077681015
0.01455607
-0.014176038
0.010575841
-0.018274227
0.003114175
0.011107998
0.005156061
0.009641771
-0.005090335
0.008818448
-0.0073056603
-0.003971936
-0.0071850824
0.0035714817
-0.0009052029
-0.00021691201
0.004024238
0.0022971495
0.009291059
0.0054757027
-0.012186372
0.0002955305
-0.012535118
-0.0042353184
-0.0068672113
0.0028498368
-0.004654893
0.009361706
-0.008387723
-0.015043267
0.002566841
0.008732621
-0.0038586943
0.0046283957
-0.00325121
-0.01373369
0.018739216
0.0022126215
0.015200009
-0.012525096
0.0049949754
0.001115438
0.0005810843
0.01376176
-0.0036361304
-0.0032755702
0.004914558
0.0040438925
0.0063917404
-0.013393359
0.0021311736
0.0028801754
-0.018150175
0.011179703
0.0066395598
-0.0019392899
-0.004263678
-0.0056455736
0.01699245
0.0063371724
0.0019958217
0.008784449
-0.01717353
0.0142574655
-0.013722289
0.0017608969
-0.018186918
-0.015181195
-0.012035426
0.0070565497
0.0021929778
0.005445935
0.019128276
-0.022385767
-0.012909053
0.0083180675
0.005682317
-0.014398329
-0.013107268
-0.013418009
0.0014835851
0.0042076753
0.01958551
0.0025811219
0.004449494
-0.00045177282
-0.0080960225
0.014231294
-0.008105772
0.014172624
-0.0005907709
0.0022394897
0.006382055
-0.001902022
0.000916963
0.00013156632
-0.0118697835
0.00035703904
-0.0018124523
0.0010836712
0.006344319
0.00089588953
-0.009987105
0.008661142
-0.0015696208
-0.0043168203
-0.033659723
-0.01004808
0.012256173
0.0013410328
-0.0064506284
0.00047702694
-0.013934676
0.0007979133
-0.0014683622
0.0021252478
-0.016862707
0.0019702273
-0.0099821985
-0.005914814
0.020560548
-0.008698127
-0.005881154
0.0050055906
-0.010161397
-0.0040352046
-0.0064127585
-0.019374633
0.008976417
0.0025489728
-0.0044482346
0.006477408
-0.012754774
0.016331133
0.0045003616
0.0060360073
-0.008317924
0.008585265
-0.013452357
-0.014733959
0.012723119
0.0075332457
-0.027770648
-0.004766593
-0.0005516684
-0.0050224205
0.0012799944
-0.0030176633
-0.0023648804
0.00012904737
0.0037470036
0.0063784113
0.0021652097
-0.021478476
0.006233103
0.007933448
-0.0030127289
-0.0050266106
-0.016131017
0.01707
-0.013503487
-0.0061936625
0.00011818583
-0.005938997
-0.0033239725
-0.0012558954
0.004981024
-0.0015693256
-0.017153699
0.011528668
0.0036112166
-0.004642855
-0.0025978491
0.011237457
-0.004008379
0.018923935
0.016595585
-0.006251796
-0.018783543
0.0052261483
-0.00929909
0.0058808955
0.007635007
0.018823452
0.016532956
-0.007880219
0.0061636204
-0.017448306
-0.0068547325
-0.0048520407
-0.0141015565
-0.0007170347
0.00095616636
-0.0021274264
0.0008267671
-0.0041099684
-0.0017088093
0.0021209891
0.0011364736
-0.005680181
-0.00990858
-0.0011188638
0.0008765099
0.0012203691
0.009420348
0.00829851
0.013356681
-0.005615674
0.008069411
-0.023212876
0.009638685
-0.021988379
-0.0002868309
0.011124311
-0.0131415
0.008102366
-0.011977188
-0.00046426564
-1.0633655e-05
-0.012599127
0.020022303
0.0014948017
0.0063073137
-0.00026966905
-0.0066884225
-0.005611134
0.008022404
0.00087526394
0.006333155
-0.011776467
0.016211912
-0.0053267847
0.0026741668
0.0033111514
0.00040835002
0.011006671
-0.011461634
0.006547033
0.008721476
0.0076214387
0.02205058
-0.0026696958
0.01564213
0.0015140452
0.005529849
-0.014812501
0.012202625
-0.017763227
0.0026999968
-0.00053860986
-0.0051416927
0.021265754
-0.01520331
0.010462792
0.008581079
0.012445713
0.004552332
-0.0032709881
0.0039417464
-0.01626574
-0.00080236373
-0.005846333
0.0053993664
0.0031373003
0.010923263
-0.009437378
0.0015346056
0.008235178
0.011768339
0.0071077645
0.0099937
0.008836089
-0.011775482
-0.016069412
0.0017880459
0.009422655
-0.023547603
0.018423617
0.004986052
-0.010305696
-0.015021252
-0.0028707192
-0.0063136467
-0.00713103
-0.023049448
-0.0052485853
-0.013655991
-0.0054975175
-0.0083937
-0.00944744
0.0067253313
-0.013005208
0.0104886275
0.012033771
0.0045028212
0.005497513
-0.020236142
0.011397553
-0.0069548683
-0.0054484583
0.004203348
-0.022762302
-0.0061669294
0.016462205
-0.0022816712
0.01909911
-0.0052197203
-0.005422723
-0.008896988
0.010500284
-0.00076268986
-0.0064373575
-0.012249931
-0.01661953
0.0059051076
0.0049228035
0.010920045
0.00051533745
0.0017739142
0.00511363
0.009531153
0.006004344
0.00023264166
-0.0145357335
0.0035690905
0.011143839
-0.0033716455
0.008036432
-0.008508737
-0.010492329
0.0027685196
-0.0058536828
0.0001435814
0.007788418
-0.006523756
0.002664776
0.001051116
0.0024119522
-0.0073226443
0.006811055
0.0272604
0.0075347577
0.0036335986
-0.00865548
0.0068315533
-0.0053352234
-0.002887945
-0.0066209976
-0.016603503
0.0059347413
-0.0027102446
0.0074718236
0.015877442
0.020937013
-0.011956652
-0.0064008483
0.0025479468
-0.0017223834
0.010151756
-0.0010253653
0.0056547467
0.00021058657
-0.013833515
0.011551577
-0.009759856
-0.020008652
-0.017380206
0.009005598
0.011253495
0.0026261327
-0.00014686341
0.010774589
-0.005220582
-0.011476496
0.0035845293
0.008893557
-0.002429209
-0.0035727078
0.0012687006
-0.0024814224
0.0015541104
0.009155541
0.010176515
-0.025590252
0.008376179
0.0006610078
-0.00075299304
0.0057322104
-0.0024278024
0.021345865
0.015992595
-0.0031455283
-0.016364042
-0.010458108
0.0044942605
0.004550594
0.0059925863
0.0038866273
0.00206652
-0.005464481
-0.012626906
-0.008396683
0.005401222
0.0065047983
0.025366137
0.02001371
-0.00068899646
-0.0036845084
0.013640711
-0.029721273
-0.0023896503
0.004485365
0.009437162
-0.0073360815
0.0047534406
0.0048233005
0.02125704
0.00023345079
-0.004313658
0.0026961013
-0.0069578267
-0.011569134
-0.0042535407
-0.0010253472
-0.0031018048
-0.0022702573
-0.0031338723
-0.0056490223
-0.012988844
-0.014796977
0.006791175
-0.018520724
-0.0020929265
0.002658178
-0.015018227
-0.0018949581
0.005343167
0.0030208023
-0.00445507
0.0112336725
0.011682384
0.008110055
0.011560218
-0.010083212
-0.007803179
-0.009943812
0.0051195472
-0.0021839377
-0.0029000798
-0.0025733446
-0.0026528656
0.00535356
-0.014409828
0.011531374
-0.0012491915
-0.0147354575
-0.0021070654
0.008053937
0.00023918613
0.0015211038
-0.017104002
-0.016465489
-0.0011767396
0.005225616
-0.0043288385
-0.0058178096
-0.013924595
0.0002461862
-0.0038041114
0.0027081068
0.005915183
-0.011683403
0.00034449194
0.0013971933
0.017665533
0.016028399
0.0015607977
0.0005837162
-0.024866015
-0.0045941398
0.0040565864
0.00862159
-0.009051842
-0.016011626
-0.0077067898
-0.0021798157
0.005403483
-0.0019072826
0.0023919542
0.012993743
-0.001920495
-0.0012617462
-0.004846904
0.0025815824
-0.020900957
-0.02269252
-0.01328477
-0.012949023
-0.0011724818
-0.005252229
-0.0010455231
0.011812395
-0.0047438643
0.019552626
-0.004976071
-0.0052867373
0.009186539
0.005275786
0.009161455
0.0015007915
-0.008705516
-0.008827998
-0.010338946
-0.013489531
0.017949073
0.013100416
-4.200366e-05
0.009035916
0.00015920596
-0.0021451246
-0.007569159
-0.0046853037
-0.0095923245
0.018314395
0.006486706
-0.026014075
-0.011355481
0.0061779916
0.00063296006
0.003581383
-0.003768541
-0.008281919
0.01903074
-0.01820927
0.006560471
0.007640825
-0.0079896655
-0.007644603
0.0037099288
0.011095307
-0.019047668
-0.016552338
0.020894518
-0.00032735235
0.014365314
-0.02142213
0.006047389
0.00029770366
0.017936671
-0.00910624
0.0048657283
-0.0010881427
-0.0026260412
0.0036980843
-0.007820585
0.0027740472
-0.005356598
0.0069393273
0.010578495
0.005389691
-0.020324668
-0.00054491893
-0.0049203346
-0.005173428
0.0007879365
0.022251004
0.011409136
0.01867406
0.0031968658
0.013204562
-0.0055436194
-0.0042360476
-0.002424562
-0.0027988695
0.00068897556
0.010019041
0.00944613
0.0077227876
0.0028841307
0.009097108
0.012638922
-0.009771059
0.0050225565
-0.010608822
-0.010627125
-0.008826338
-0.0019790842
-0.005647964
0.00660196
-0.016216418
0.007588465
0.0032928006
0.0067201327
0.022382926
-0.0061706104
-0.0041525583
-0.0073481053
0.012620146
0.0077308193
0.011945878
0.011525237
-0.0069394186
-0.015077773
-0.00095667597
0.0008446758
0.014389435
0.016712107
-0.008081085
0.0035017037
-0.0036902581
-0.009993336
-0.0067091202
-0.004333187
-0.0062510776
0.0012398325
-0.008999922
-0.0007952188
-0.0029625397
-0.003808006
-0.015868135
0.0056975833
0.004565578
0.01598284
0.013734551
0.009016624
-0.006444266
0.01140302
0.0032662419
-0.0026655027
0.0001974321
-0.004233898
-0.023217654
0.0016711379
0.001421558
-0.0064577316
0.007605538
-0.0048398064
-0.0043856665
-0.011214045
-0.009635452
0.005559667
0.00962252
0.01878137
-0.013239133
-0.009437417
-0.008049796
0.024563882
0.014814365
0.019292243
0.012050269
0.010357693
0.005159819
0.012490847
0.0016907066
0.0016651193
0.0068478254
-0.011633259
0.0062457924
-0.0047502476
0.0056849853
0.0103270775
0.009589478
0.017615011
0.003432142
-0.012031567
0.0061496464
0.0015967195
0.0014441375
-0.0039331634
0.0027657081
0.0062021264
-0.014386096
0.008790093
-0.023369247
-0.010172678
-0.01413567
-0.00015155392
-0.004445021
0.0017011679
0.010099365
-0.008437453
-0.0002634303
-0.0016876443
-0.009224195
0.018905098
0.006134342
-0.013319307
0.0022282125
0.0032986393
0.0031185704
0.010987194
-0.0022992336
0.01028224
-0.002011621
-0.0043960554
0.0010929469
-0.0024288704
0.015009672
0.002209278
-0.007890104
-0.015151735
0.009202386
-0.01605611
0.0018958478
-0.0116967745
-0.00026414194
0.0073753945
0.0040505803
-0.009967657
0.0050694286
0.009641498
-0.005450002
0.022194194
0.008042935
0.0099339355
-0.0030295656
0.004794765
0.0069951587
-0.008375945
-0.011232789
0.0073938104
-0.0112414025
0.013354818
0.0062115816
0.0014751221
0.009654908
-0.005353313
0.0012223829
-0.010210286
0.019002749
-0.004398664
0.011338457
-0.018161688
0.013139818
-0.003966103
0.014726336
-0.002573904
0.0062244153
0.004255814
-0.009680248
-0.010126531
-0.008270998
0.0076137492
0.0044002254
0.0067938427
-0.0016326536
-0.00568579
-0.013113811
0.0005603813
-0.015777541
-0.0026484223
0.0043495307
0.0076858574
0.007880364
-0.015486792
0.017410683
-0.011745827
-0.010455732
0.018051565
-0.01461145
-0.0007472015
0.0016118613
-0.013922909
-0.0035260725
-0.0026243385
-0.0036980282
0.0053344667
0.004004361
-0.006021617
-0.0123673165
0.00061579124
-0.011626448
0.0058138636
-0.0057414533
0.014752426
-0.001969972
0.0008180284
0.018581474
0.0038398902
-0.008911389
-0.00078153104
0.0011674416
-0.004483785
-0.0017368323
0.0045009996
-0.0018580037
0.006145833
0.004121501
-0.008966095
0.0052922526
0.0052084657
0.0099913925
-0.015845325
-0.0004896629
-0.005900745
0.013850116
0.013239628
0.0027856475
0.0063307933
0.012625335
-0.002794857
-0.011424875
0.0037064701
0.0035933885
0.011066033
0.004759718
0.021144418
-0.00067928236
0.003964211
0.0050212103
-0.0019624003
-0.0051648403
-0.0032171132
-0.00056562317
-0.008064243
-0.01588528
0.013911416
0.015247982
0.0158443
0.0019025552
0.008459857
-0.009731172
-0.008160544
0.012310763
0.010729028
-0.005546687
0.0030247285
0.008301218
0.0021219829
-0.015456941
-0.013417404
-0.00569091
0.012950521
-0.011823528
0.02183677
-0.002672063
-0.004431324
0.015822021
-0.0012082963
-0.00069227465
0.0034350294
0.0014374951
-0.00213235
5.962981e-05
0.0073478245
-0.0059975064
-0.0037404783
-0.012406945
0.0068270946
-0.016939245
0.0024405343
0.0036008968
0.008938889
-0.019384589
0.0017877372
0.0039354707
0.01190137
-0.010569007
-0.0022330873
0.019284396
0.008601059
0.0062594987
0.006264612
-0.015204997
-0.0040568635
-0.024339272
0.0034011921
-0.006246887
0.021680746
0.014132668
-0.006015448
-0.0070425323
-0.0064501273
0.009473996
0.0074208514
-0.014057628
-0.0006638531
-0.0002672502
0.0026898526
0.0018848727
-0.0067471606
0.01432211
0.010847471
0.008627021
-0.00034192193
0.0054310434
0.0027353617
-0.002363605
-0.014872502
-0.0024079732
-0.00077831326
-0.006539448
-0.010881289
0.005329878
-0.0061968076
0.024802595
-0.023795065
0.0022822586
-0.014230316
0.010368649
-0.0076930565
0.008278691
-0.005507201
-0.014343487
-0.0009095271
-0.004481607
0.0068108076
0.013216957
-0.016165022
0.0064070905
0.008278874
-0.0018889938
-0.01524047
0.008134067
-0.003378498
0.011627396
-0.0013093652
0.0012754684
-0.0063428227
0.023764346
0.0040517235
-0.0008313301
0.0068507856
0.0029667066
0.00015608947
0.009808632
-0.0042160917
0.00694326
-0.00042784392
-0.0017998758
-0.007028805
-0.019715253
0.002028216
-0.0016396897
0.0022913702
0.00013238429
0.025757955
-0.014468417
0.009923213
0.0029511838
0.01668986
0.0036616584
-0.0052093696
-0.015203622
-0.002900562
0.0094404435
0.012663009
0.015046436
0.008923922
0.0103463335
-0.010052574
0.0021993436
-0.005899277
-0.021635149
0.010432691
-0.0035582983
0.014491783
-0.0060633854
-0.0072313743
0.016231805
-0.0032008453
-0.017474676
-0.0024789819
0.011434885
-0.0013474795
0.006997411
0.00066956703
-0.006497148
0.01451139
-0.0029063257
-0.0154646225
0.011785562
0.0013581754
0.0072746375
-0.008016547
0.0155358035
0.012775571
0.008535674
0.010784926
0.013872827
0.014239493
-0.0017553982
-0.0018620206
0.0007408305
-0.006230664
-0.0006232622
-0.0057795392
-0.008373497
-0.0060065985
-0.0206043
-0.0026830446
0.009659899
-0.012776749
-0.0015376287
-0.007244911
-0.0048707346
-0.0034653917
0.0023926082
-0.0019468659
0.0077636084
-0.0085703395
0.00043073576
-0.004342298
-0.010195279
-0.01572373
0.012634202
-0.005084552
0.02114402
-0.012797134
0.014325332
0.0045216023
0.005377831
0.011429305
0.00026633902
0.0031057042
0.016221853
0.011895205
0.0061009466
0.00019978856
0.01370833
-0.0075328127
-0.010358178
0.008870382
0.0028505241
-0.004234354
-0.00013675669
0.0036812834
0.004195894
-0.015654176
-0.0057134633
0.009601216
-0.009116298
0.010369694
0.010307735
-0.0016551544
0.0052311057
-0.008120812
0.012575816
-0.00359455
-0.001848477
0.00027836274
-0.005739612
0.012156329
-0.004378195
-0.0008841785
-0.0025430652
0.0019398265
0.006221208
0.014674225
0.004510041
-0.008909624
-0.017846396
0.016198652
-0.0012093973
0.0132927
0.00068763667
-0.006386145
-0.0002160787
0.0104302075
-0.0081349285
-0.0128655955
-0.0025160871
-0.011923143
0.018769795
0.004537023
-0.006721678
0.0079697585
0.004686161
0.006910163
0.008779453
-0.008755505
0.01187956
-0.00094745005
0.0021322307
0.012776671
0.016731448
-0.017976109
-0.0052612782
0.001042311
-0.00893547
-0.008917727
-0.01403552
-0.009851777
-0.009803327
-0.010294358
-0.0073535456
-0.00420293
0.0043490264
0.01095435
0.015789378
-0.006925822
0.025175817
0.01988096
0.007197331
-0.007397692
0.0011793707
-0.010510199
0.009770452
-0.00066980085
0.0056978944
0.0093575865
-0.003605979
0.007111484
0.004893203
0.0069580385
0.004255582
-0.004213296
-0.003248057
-0.004613111
0.004048309
-0.007415983
-0.0076117567
0.005362115
-0.0034429505
-0.0017840458
0.0026083183
0.005922826
0.013771301
0.013319153
-0.021448268
-0.011676205
0.0043872744
-0.0029662221
0.00343133
-0.010963829
0.014949229
0.007885733
0.019061437
0.0033936219
-0.008735054
-0.0069559473
0.010173925
0.0043486673
0.011383615
0.0059803575
0.01314242
-0.0026737477
-0.0149202915
-0.002444261
0.013597766
0.03463143
0.013619112
0.0063724983
-0.004702459
-0.0070012133
-0.005330335
-0.013042096
0.008516482
-0.0076023787
-0.0010905945
0.003434882
0.008842634
0.018695232
0.0013388451
-0.00508361
-0.0066915248
-0.0037250954
-0.003071198
0.006724464
0.008803669
-0.015590252
0.02003631
-5.8039674e-05
0.017098092
-0.0010904071
-0.006358865
-0.0039231796
0.0061756917
0.004352251
0.008116877
-0.0034439065
-0.0016589452
-0.011489366
0.0004947076
-0.004964178
0.0065787444
-0.009032635
-0.025509238
-0.0036800755
0.005143433
0.0011471799
-0.00056021055
0.0017580882
0.007766877
-0.00517068
-0.023071654
0.004004464
-0.0057062106
0.02494028
-0.004540569
0.0001527388
-0.008780837
0.011589328
-0.005691039
-0.0036734561
0.008202393
-0.015861036
0.0036632286
-0.014045535
0.0043629413
-0.014254118
0.014731465
0.015024501
-0.001766548
-0.008729432
-0.014498269
-0.011282313
-0.003221069
-0.011001354
-0.008714631
-0.012002836
-0.000663331
0.0031420605
-0.0005491046
0.005158631
-0.006308686
-0.00071258907
0.0038729596
-0.0238335
-0.0079519935
0.0005834358
0.00042892102
0.007957514
0.013563331
0.013082317
0.00020345734
-0.014296736
0.0140066845
0.0034199709
0.009826498
-0.0016915346
0.0068035475
0.018288309
0.0052712113
0.006554229
3.4850174e-05
-0.00607737
-0.00976311
-0.0022585767
-0.0006317839
0.0016814147
0.0072646225
-0.016270662
-0.01751392
0.006192927
0.008393347
-0.0012161337
-0.0059722206
0.015047001
0.01762868
-0.00165603
0.0072236303
-0.018780163
-0.0031781371
-0.003645792
0.01971009
-0.009716783
-0.0010634928
-0.010981079
0.0129531
0.007835956
0.010347691
0.0053875176
0.0069914246
0.002782866
0.002600211
-0.0011037876
0.006177533
0.022641549
0.013848382
0.0012532548
0.009184577
-0.011466976
-0.0024986586
0.0005651342
0.015570002
0.021139374
-0.009707141
-0.009841521
-0.0018535089
0.0064008525
0.0008064194
0.0002275107
-0.0039805993
-0.0022814688
0.008345974
-0.019394305
-0.009343547
0.009716941
-0.008576502
0.008918047
-0.010673231
0.0036679467
-0.01674582
0.0069960942
0.007066806
0.007859528
-0.009262928
0.013317174
-0.008315025
-0.002749323
0.00060949824
-9.2457994e-05
0.0014642641
-0.00949182
0.007854489
0.009444337
-0.0040634666
-0.0027218808
-0.009484236
0.002414567
0.0013385726
-0.013893415
0.0064346525
-0.011922769
-0.005025981
-0.0021553398
-0.00073385244
0.0005322205
0.010388678
-0.012050881
0.012378718
-0.012939344
-0.008173201
-0.023120547
0.0037521329
-0.010355584
0.009439618
-0.0029743665
0.017629065
3.0656694e-05
-0.0065482818
0.012045579
0.011641855
-0.008271403
0.005555657
-0.0092104
-0.004430318
0.0058772927
-0.0070800525
-0.004987134
-0.0054807845
-0.014620632
-0.014930877
-0.008313602
-0.008857802
-0.010439976
-0.006406933
0.0064459234
-0.018665366
0.00568058
-0.0064857677
0.0046947943
-0.011759911
0.008193041
-0.018130032
0.008071012
0.018741779
0.004939699
-0.0023737273
-0.0077228025
0.011089556
-0.009034026
0.011026397
-0.0057604183
0.0012476941
-0.0072683636
0.0024536613
-0.0057479516
0.0054581696
0.0025659471
-0.00517735
0.00952884
-0.005486614
-0.022532178
0.0006697585
-0.003634879
-0.021012051
0.0013965366
-0.007418199
0.016997574
-0.0030581227
0.005256065
0.0043658293
-0.00014163474
-0.0035903903
0.004868472
-0.002092215
-0.0106274625
0.010976792
0.009276925
-0.0021462133
-0.028897729
0.018278053
-0.0035063673
0.006839451
0.0034748975
-0.009263903
0.00037675913
0.017566709
0.009567085
0.0010429989
0.020247562
0.0044366503
-0.008611507
-0.0070430585
-0.006668901
0.010128549
0.00079419446
0.00079482433
0.004884861
0.0067315525
0.012859151
-0.007478954
0.0034662127
-0.02726939
0.0042131282
-0.009467832
0.0009720244
-0.005684949
0.019145241
0.0077352533
-0.007883468
0.004787618
0.0016410601
-0.007973402
-0.007932495
0.020618804
0.0049923346
-0.0028460699
0.0074302554
0.01652993
-0.0022401859
0.005669419
-0.020992639
0.0016388177
-0.0051936787
-0.013962991
0.0017471741
0.0027906885
-0.010141487
0.0031434111
0.0026095803
0.00032939317
-0.0059371614
-0.0027838661
0.0053227902
-0.0034049537
0.0071148947
0.0077613746
-0.014790511
0.028317047
0.0032902611
0.0017234583
0.020170324
0.0070732078
0.002112869
-0.0077388887
0.00070403155
0.0023981389
0.018752106
-0.0050407094
-0.0114057325
-0.0129601825
0.025995435
0.0030044578
-0.013847134
-0.0037591113
-0.0033878123
0.00842914
-0.004731076
-0.0027919682
0.009331021
0.0046124877
-0.01284215
-0.0064695682
9.65334e-05
0.007755404
-0.010403135
0.02008095
-0.0027272275
0.002413466
-0.011423553
-0.021163732
-0.0028680381
0.011810491
-0.011506832
0.0038665205
0.00805397
-0.010057055
-0.0030766402
-0.0042578736
-0.0047999187
-0.013852311
0.0068890015
-0.0021199896
0.008434072
0.00026366764
-0.010177591
-0.00021370852
0.007217563
-0.00067600794
-0.030836247
-0.017927386
-0.012354587
-0.008204568
0.006496936
-0.0066047255
-0.011814901
0.0018923859
-0.008759613
0.0006423809
-0.02169766
-0.0030422576
0.0054486874
0.013784041
0.0014361774
-4.9512622e-05
0.0002960412
0.0023232554
0.00267759
-0.0062124776
0.013949047
-0.0009856548
-0.012213502
0.0048301453
-0.007999175
-0.0092695635
-0.017405925
0.01089703
0.0062638232
0.0022123246
-0.0028725355
0.012727196
0.013599013
-0.011837125
0.017081533
-0.012338515
-0.0009991402
0.0041068
-0.0025629848
0.0034738102
6.78638e-05
-0.025140159
-0.009927638
0.01682965
-0.009065672
0.006608044
0.01784333
0.008638767
0.00858023
-0.0004242403
-0.012448566
-0.00013169997
-0.0038928478
0.0037257867
0.005766895
-0.0034084579
-0.009221769
-0.0017732137
0.0003801239
0.01293012
-0.007833388
-0.009998313
-0.004105804
-0.0016461547
0.010944796
-0.009360739
0.005867739
-0.0038841679
0.016353535
-0.0026751463
-0.0020937375
0.008895531
-0.026037345
0.0025104426
0.0134563465
0.009760867
0.000603704
0.010891533
-0.014448321
-0.014861922
-0.010544296
0.0034857246
-0.015157327
0.0025797286
0.004454802
-0.0015538885
-0.0029713684
0.009747093
0.002232602
-0.007383371
-0.012638056
-0.011642829
0.013298299
0.014020793
-0.014732255
0.0010240538
0.0016689056
-0.0068152654
0.004085426
0.009505966
0.00042242013
0.0119169485
-0.0068647885
0.000107556865
-0.0013345964
-0.0037599197
-0.002913343
-0.00023897695
-0.005874721
-0.006744569
-0.003034811
0.008004765
-0.0129323155
-0.0017147498
-0.0044070077
-0.010335667
0.0002858184
0.0098550385
0.0066250158
0.023702038
0.013887748
0.00027028014
0.0017281044
-0.018950397
0.003979639
0.0016742612
-0.0012695059
-0.002835532
-0.004718812
0.011858893
0.011553813
-0.00026704167
-0.006362863
-0.008477211
0.0049139215
-0.012691392
0.0063709477
-0.0020407294
0.007859578
-0.019387623
-0.010456175
-0.006623236
-0.0023850282
-0.004077246
0.011498804
-0.008287014
0.013150958
-0.009042884
0.0029309923
-0.0010479703
0.006359949
-0.011755643
-0.0052344115
0.010680254
0.0035794298
0.0020128572
-0.013103519
-0.002300916
0.0024867444
-0.009113178
-0.0024902988
0.005289265
-0.011368488
-0.016599018
0.013598029
-0.0044293613
-0.01912674
-0.0054432848
-0.010905698
0.012968819
-0.016938793
0.017480815
0.006185175
-0.0033636233
0.0076919356
0.0027816289
0.0039780955
-0.011615086
-0.00961058
0.023817115
0.013115596
-0.004379839
0.016851941
5.2661904e-05
-0.0069612917
-0.013835665
0.0010616507
0.0075615332
-0.00968419
0.022264438
-0.0160677
0.019049026
0.0006129662
0.013436735
0.010361895
0.008221088
-0.009115088
-0.016322691
0.00624442
-0.008093572
-0.012652095
-0.0172816
0.010245406
-0.005868235
0.012317084
0.0033191256
0.0072549293
0.000759852
0.017644804
0.0029336677
0.004033873
-0.008846751
-0.0076080253
-0.0063397926
0.00029436863
-0.0008187776
0.0008656412
0.01683438
-0.007641374
0.013458361
-0.0118939625
-0.0070042047
-0.0018311398
-0.017828414
-0.0010771457
-0.017176362
0.012440228
-0.0044100853
0.011093553
0.008652221
0.009803591
0.006335703
-0.003932789
-0.01257352
0.0045338436
-0.0070546297
-0.006804769
0.007867001
-0.006064006
0.008172468
-0.0067794556
0.00038838584
0.002233528
0.011797128
-0.0010426932
-0.021773621
-0.002539912
0.020814082
-0.003138964
0.0013093114
0.004789153
0.006044064
-0.01778465
0.0013398824
-0.023414366
-0.008792973
-0.00433069
-0.012915803
-7.2272705e-05
0.014307314
-0.018777464
-0.0058225924
0.025015747
-0.017987723
0.011337826
-0.023451932
-0.0090243425
0.009864707
0.0018257702
-0.0040646344
-0.015899632
0.009571554
-0.011795765
0.014200098
-0.008089523
0.024877243
-4.1531253e-05
-0.00830309
0.012829659
0.0018347832
-0.017825684
-0.02458953
0.01073538
0.0024135686
-0.021436812
-0.005285972
-0.0088834055
-0.006538742
0.001202289
0.018024236
0.004765208
-0.012382003
0.0006004298
-0.007959131
-0.004193835
-0.012764858
-0.00919447
0.007434309
-0.014089952
0.006491591
0.0065222
-0.0017435091
0.0037560256
0.0070306747
-0.01011872
-0.018892322
0.0027913337
-0.003219231
-0.008128243
0.018515555
-0.009885851
0.0073606144
-0.005288439
-0.0024497346
-0.007846924
-0.0064126835
0.0066343714
-0.025287136
0.011812786
0.0069942777
-0.001852157
0.025631351
0.0096939225
0.00676784
0.0123331435
-0.008942775
-0.0135253025
0.0003820947
0.005419221
-0.0030378562
-0.0010571941
0.008099279
0.007135262
-0.014351902
-0.0028138675
-0.003679248
0.006764033
-0.005597039
-0.008723072
0.0014121574
-0.0019394187
-0.0130293025
-0.0054969606
0.004472885
-0.009583734
-0.01075777
-0.003955415
-0.019891866
0.0017951089
-0.019587815
-0.012954041
0.0024156729
0.0004956195
0.0026509624
-0.004377934
-0.021833079
0.015756192
0.0043771924
0.002335997
-0.018981274
-0.0038400881
-0.0043731444
0.00081264944
0.0057946304
0.0067810393
0.0013215421
-0.006372331
0.0012435988
0.009620801
-0.0014994423
0.005927431
-0.0067815227
-0.010196439
-0.0046469662
0.0122059025
-0.00014591278
-0.0038859516
0.0012872176
0.008013742
0.015021387
0.0021667422
-0.011370859
0.0074969092
0.012941154
-0.0066099283
0.011146923
-0.020891573
0.0020602695
-0.008333816
-0.0052256226
-0.0055939886
0.016859926
0.005256215
0.0052520297
-0.016074797
0.005749812
0.007249625
-0.011389181
-0.00222286
0.0068082446
-0.0013761347
-0.010950719
-0.003504711
0.025015315
0.0022051951
-0.005324858
0.014121041
-0.0023923712
0.012059135
-0.005030434
0.013678131
-0.006086722
-0.008443427
-0.003555698
0.009491045
0.0069699828
-0.01316768
0.019533262
0.006041385
-0.005970983
-0.0019423352
-0.013432669
0.006371365
-0.011180322
-0.00510573
-0.004378651
0.009077817
0.01589285
0.001958293
0.027563969
0.0034606257
-0.018138349
0.018035507
-0.007460359
0.00035291887
-0.018424952
0.009304732
-0.0016558213
-0.019171765
-0.009163314
-0.003626184
-0.0012108953
-3.167196e-05
-0.00069663965
5.713217e-05
-0.01800412
-0.00071560714
0.0127966115
-0.027692096
0.0031226894
-0.02525466
0.0028970216
-0.007789581
-0.009610062
-0.0011106107
-0.02498596
-0.009537682
0.0028068072
0.009133102
-0.00428923
0.0048499117
0.008815986
-0.0032741767
0.004437286
-0.00095809065
0.0030450479
-0.002998151
0.007318474
0.016545365
0.0031989457
-0.0030895516
0.0034007446
0.004752688
-0.007366767
0.006049336
-0.01149792
-0.008601612
0.0052495524
0.006335294
-0.005931814
0.012280305
-0.018481318
0.012346447
0.0053182147
0.013942478
0.004915723
0.007547834
-0.0045685177
0.006124363
0.013154985
0.0040007504
0.0033611713
-0.021622295
0.0039958754
-0.009546378
-0.00451016
-0.0009195246
-0.0014134765
0.013104074
0.0018827284
-0.010140089
-0.008288755
-0.000824334
0.030578427
0.004603717
0.0012332175
-0.0071251993
0.016046343
0.004042178
-0.0028534404
-0.0067753643
-0.0019166103
0.0048572463
0.0009569993
0.007351708
-0.009590223
-0.0027684334
-0.005101072
-0.0013147008
0.003380164
-0.012530699
-0.0034654166
-0.0011206015
-0.023157677
0.0026803373
-0.0036535747
0.016621368
0.009719
0.00091908645
-0.012890713
-0.012385608
-0.00773685
0.0016245082
-0.014651203
-0.016806925
-0.0029181393
0.00071467925
0.022785442
-0.0050530243
0.005770827
-0.008647464
-0.01605061
-0.008539459
-0.00321539
0.0033991626
0.012756445
-0.0025195228
-0.02135246
0.010683817
0.021851039
0.0063694143
-0.0028805349
0.007959404
0.0048980946
-0.005889344
0.012086175
-0.0029060335
0.0028930688
0.00782703
-0.0058949124
0.0026384944
-0.0038303353
-0.028625451
-0.01774376
0.013943759
0.0017938068
0.0018003839
0.012701697
-0.00069917453
0.0146855675
0.0119218705
-0.0037017267
-0.008573877
-0.01243153
-0.0012752658
-0.020763595
0.0031349482
-0.02374335
0.006967156
0.0015364492
0.0039673913
-0.003754182
-0.01101359
-0.010003516
0.00983368
0.016144885
0.01585296
-0.0018833934
-0.0023686634
0.003702693
0.014255513
-0.011799048
0.0012207411
0.0036465456
-0.004994471
0.00492853
-0.013491325
0.009035136
0.0030119072
-0.011450708
0.014005929
-0.002068823
0.007096681
-0.0027879055
0.01256716
-0.0010966082
0.006494495
-0.004861613
-0.0108469995
-0.0048109223
-0.007226229
0.0075565926
-0.0006864401
-0.0054046586
-0.0038546543
-0.0050240443
-0.006472505
-0.022990689
0.0028523575
-0.017840445
-0.00848323
-0.008876969
0.0123450775
-0.0070482157
-0.0040848427
0.006794067
-0.0041481867
0.0068695894
-0.019255055
-0.022999218
0.006102062
0.008882459
-0.008255823
-0.009721817
-0.007883715
-0.004832934
-0.0068380525
0.0055886526
-0.010073955
0.019382965
-0.0020315598
-0.013102754
0.0074773985
0.013923382
-0.0051605534
-0.01426739
0.012576109
-0.0045436257
-0.0042471574
0.0075321635
0.0009974794
0.00042059663
-0.020655043
0.011473861
-0.0019570924
0.002841091
0.00043670306
0.0010927037
0.019835835
-0.0008267494
0.008394411
0.0007082168
-0.00883804
-0.00016939403
-3.858106e-05
9.729301e-05
0.00082417106
-0.0066819764
-0.0122845275
0.006508127
0.00061951723
0.007786485
0.0068881917
-0.00020645357
0.010693573
0.00753466
0.017432224
-0.012492951
0.008207073
-0.0007589396
-0.017145578
-0.012721169
-0.006762833
0.011934195
-0.011805683
0.015975546
0.003938463
-0.0029195559
-0.0016672725
0.017426148
-0.0023102951
-6.131956e-05
0.0060471455
0.010564766
-0.005205502
0.005147413
-0.0054117185
0.017453972
0.010426926
-0.013301186
-0.0072252587
0.00095160585
-0.020325739
0.007943488
-0.0059018815
-0.009153542
-0.015783183
0.017039921
-0.007709743
0.004766413
-0.009891188
0.02989711
-0.015415149
-0.0031762253
0.009028339
0.0012811578
-0.00033315487
-0.005666395
0.00089521986
-0.007934565
0.0020155762
-0.0054058433
-0.0023117687
-0.01702229
0.003149899
0.0009746677
-0.011334455
0.00019319078
0.0031341722
-0.015757851
-0.0039982786
-0.0033017846
-0.0075764093
0.015064245
0.016462807
-0.012607158
-0.010349267
0.0045843376
0.013211429
-0.014823074
0.0072727124
0.0143873915
0.0067179073
-0.005712832
-0.008139774
-0.0031825902
0.0022604924
-0.004323817
0.011693226
-0.005819445
-0.0028184399
-0.014777358
0.009579556
-0.014019858
0.012741873
-0.010256453
0.0019261028
0.0013542952
-0.0051359935
-0.008202242
-0.0009021276
0.0222805
0.0129658
0.0061081084
0.008482956
-0.007163726
-0.00015057457
0.013673062
0.012879369
0.0068724337
-0.0090051405
0.0014755568
0.016319113
-0.007032708
0.014464508
0.0041694785
-0.021060036
0.0013529091
0.007870704
0.0271457
-0.0022750231
0.007858718
-0.019906819
-0.0047702873
0.0024589892
-0.0023399468
-0.0062906593
0.027566066
0.0023850086
0.013978087
0.008559603
-0.0015532279
0.005993246
0.0017042346
0.0068190587
0.006583352
-0.008006915
-0.0012690623
0.0067715906
-0.0040029422
-0.0050416193
-0.0061075287
-0.016893426
0.0022338403
-0.004870134
0.0067596077
-0.01900472
0.0042426744
0.011568195
-0.001509713
0.0040834267
-0.00639529
0.018291954
0.016084285
0.002525253
-0.01016779
-0.0043907566
-0.0020064402
0.004902948
-0.006350527
0.005714151
0.0033035716
0.0041283425
0.008217629
0.008008464
-0.014942706
0.0050187814
0.013114717
0.007622281
0.003168667
-0.0020330737
-0.00797028
-0.011044081
-0.0048505086
-0.013673375
-0.0052026636
0.0017011112
-0.003868395
0.0019118856
-0.0059831357
-0.0045482023
0.0042676763
0.015760152
-0.0047626905
-0.010144368
-0.0025786536
-0.007259791
-0.006091953
0.008438483
0.008153355
-0.0023129457
0.0045624473
-0.013355282
-0.018492661
0.009680069
0.0092964005
-0.0006454079
0.0066422257
0.003027158
0.015691381
-0.00051205896
0.0029711502
-0.000746238
0.0064661577
0.017221412
0.016980886
0.011210478
0.010540132
0.0012908749
-0.0009487297
-0.01746302
0.006653149
-0.0062534898
0.009039909
0.0040321285
0.0018025729
0.01242165
-0.0004908337
0.0057330946
0.0030300447
0.009827501
0.010328452
-0.0028420584
0.011886958
-0.01211803
-0.0022039474
-0.0023323926
0.0074387845
0.014498104
-0.007583776
-0.009900483
-0.010406221
0.007161448
-0.0069386163
-0.0037544616
-0.0024491893
-0.006810962
-0.0062622586
0.00026670974
0.0055227326
-0.0007938583
0.012666166
0.0031971398
0.00030762627
-0.012975078
0.0010328529
-0.011406779
0.017297713
0.0037804097
0.0030669197
-0.010285649
0.002976784
-0.030675096
-0.002846467
-0.02604169
-0.0008830569
-0.0066353856
-0.0016035079
0.0070011877
-0.0013533564
-0.004122873
-0.00090058066
0.008203408
0.007985339
0.009980467
-0.0009096775
0.009678272
-0.00019916626
0.00020141475
-0.0052388245
-0.006024299
0.008681237
-0.005844614
0.00434021
0.0011176536
-0.00571331
-0.0028275575
-0.023397993
0.0015916982
-0.006988669
-0.0030181548
0.007240409
-0.0051876595
-0.008151229
0.012314295
-0.007952928
0.014091334
0.014572281
-0.011002807
0.0034778747
0.004795599
-0.0051447684
0.002354013
-0.002684748
-0.00557721
-0.013663224
0.009529233
-0.004333632
0.00383777
-0.020616777
-0.020441737
0.012958338
0.009462822
0.0037096653
0.009769751
-0.0031236245
-0.015298367
0.0022912463
-0.0075875786
0.0069451686
0.00083742547
-0.014953597
0.0042302725
-0.003530614
0.022696754
-0.0014649417
-0.023161206
0.0005173695
0.004303188
-0.01785333
0.0136580365
-0.022983918
0.004554862
0.004713555
-0.026004864
-0.0017931986
0.0051897103
-0.010228274
-0.017725077
0.014639813
-0.0011667117
-0.00949748
-0.0012625247
-0.00015749093
0.009865556
0.0029273154
-0.0022117938
-0.0022288116
0.006593155
-0.0022686527
-0.0073264763
-0.0023836766
-0.0022475661
-0.01612422
0.0087340325
0.016621238
0.018681528
0.010324341
0.0124960225
0.0054288753
-0.011334494
0.008607747
-0.012442134
-0.005164689
0.0005440695
0.006602106
0.0015613528
-0.01277983
-0.001476009
-0.019825615
0.002280461
-0.01342774
0.0040180413
-0.0042737736
0.0025478762
-0.00047350567
-0.007873045
0.0092972815
-0.00609658
0.0008307211
-0.017409673
-0.010727284
0.009236146
0.012294412
-0.0017393127
-0.010930975
0.008656614
0.002609097
-0.0013691331
0.003407112
-0.009908483
-0.0065539205
-0.017078126
-0.012300721
0.008497092
0.0064037526
-0.010416683
-0.015242507
0.0074350415
-0.006398131
-0.015198995
-0.004526464
0.006833016
-0.0037177869
-0.0132738445
0.012017248
-0.0073096524
0.0038303977
0.0018677233
-0.0012548727
0.0053181965
0.0056128493
0.0021989106
0.0008390302
-0.0112980055
-0.025639215
-0.0091770245
0.0018484424
0.010972962
0.0031402581
0.013454442
0.010078708
-0.00044002317
-0.007789784
-0.0063300794
-0.008628511
0.010743744
0.013864524
-0.007974073
-0.0067398124
0.013697169
-0.001031002
-0.014237885
-0.010346855
0.01018892
0.0014403273
0.026643094
0.020599296
-0.012003269
0.011401159
-0.018876273
0.015838925
-0.013837468
-0.03799701
-0.0010281242
-0.0065959063
-0.014402956
-0.0026858523
-0.014137681
-0.013069904
-0.01531668
0.0009517643
-0.004572995
-0.0041885357
-0.016545532
0.0023938587
0.01097718
0.004647505
-0.010676699
0.007503827
-0.0058995937
-0.0013502224
0.0028425166
-0.004559725
0.0053413045
-0.014945166
0.0033218227
-0.0052457904
0.011472199
0.0005877851
-0.00010505332
0.014823421
-0.0052232346
-0.007403122
-0.02552601
0.0070762555
-0.001075808
0.003190924
0.004513066
-0.003012703
0.018587593
-0.013066259
0.012234158
0.006108612
0.0040889825
0.022017458
0.0030376976
0.014199633
0.004824366
0.007925011
-0.003274092
0.011590916
-0.0023353794
-0.005151488
0.013817229
0.0068318914
-0.009975565
0.012579206
0.009698705
-0.020202827
0.007746165
-0.0089084795
-0.0058134845
0.0057688216
-0.0042952434
-0.0019785108
0.022882571
-0.0024775828
-0.0093080755
-0.0023418495
0.007349283
-0.0054601976
-0.0061493176
0.014081164
-0.0020956923
0.0040457887
-0.0002278557
-0.0037888954
-0.0019693412
-0.023697415
0.01413876
-0.010146022
0.006471792
0.0037118548
0.018401567
0.022246158
-0.01523877
-0.005846839
0.018603057
-1.9178742e-05
-0.0044522225
0.012871662
0.0108847
-0.0017517789
-0.005332967
-0.0038590638
-0.0035859698
-0.0072758943
0.00074831635
-0.004037253
0.0026898347
0.0042875577
-0.010999268
0.004720427
0.0028170766
-0.0013950118
-0.014536348
0.012059494
0.03310448
-0.008680175
0.0015724073
0.00032444778
0.00019665538
-0.0095402
0.009130181
-0.001963728
-0.012621658
0.014564883
0.0071505434
0.008754718
-0.0015216226
-0.012222944
-0.0003895081
0.0019379649
0.012396848
-0.00956416
-0.0017323502
0.0059314203
-0.0028404063
0.01822771
0.0001912103
0.007914484
0.011518876
-0.0033521347
0.007775944
0.0038663882
-0.0049209967
-0.0034253781
0.014302384
-0.0035734945
-0.011494024
0.012125442
0.028773343
0.002803445
0.0004971198
-0.01148815
-0.004148072
-0.0064735445
0.005507881
-0.00481382
0.0024395175
-0.00027482255
-0.007804624
0.0020589544
-0.010362724
0.00040122692
0.0013367573
0.0072681564
0.0019347467
-0.00015360332
-0.0033193354
-0.003138264
0.013606695
0.017320564
-7.385295e-05
0.008071963
-0.008306021
0.008648351
-0.002228276
-0.0112721035
-0.014477389
0.0008424324
0.0016394947
-0.009234789
-0.0016510424
0.007383911
-0.012665399
0.0006726698
0.017701404
0.008150776
-0.009093812
-0.012762338
0.011131366
-0.0031043508
0.0015381944
0.0029301904
-0.0121915
0.005768459
0.010760657
0.018864546
-0.0055439514
0.019573463
0.01146902
0.016237382
-0.016847588
-0.0019500917
0.017973043
0.006972598
-0.0042751036
0.0037588344
0.004448744
0.0038836955
-0.01313911
0.02916034
-0.005380224
-0.008009305
0.005826475
-0.0073531508
-0.0014068574
-0.008569201
-0.0027008932
0.006856843
-0.0035178398
0.018272828
0.012903144
0.01236022
0.011334817
0.006620517
0.008633366
-0.0112573225
0.019990792
0.0063196993
0.014020529
0.0071890526
0.0001944678
-0.010245989
0.017486954
0.0026735656
-0.007863483
-0.002526259
0.0044012954
-0.011425492
0.019128565
0.016233368
-0.002145682
0.006436108
0.0005692237
0.008188102
0.013133236
0.0009941802
-0.007864474
-0.00076066353
-0.0014405453
0.010291351
0.0029128005
0.015464442
-0.0016612879
-0.0189529
0.0048407135
-0.0036722487
-0.012368215
0.0003014833
-0.00054801774
-0.0017573814
0.002184666
0.0056959274
0.002541043
0.009284108
0.0051685604
0.0023385985
0.015065083
-0.0011502401
-0.0019066127
-0.008378944
0.003746791
0.032831788
-0.009045054
0.013243101
0.0059478963
0.009780356
-0.0023584783
0.0028192457
0.0029486439
0.0023424497
0.0030064331
-0.002471491
-0.015873162
-0.006952129
-0.002830912
-0.007863396
0.021775292
0.0024464466
0.009783851
-0.008936463
-0.00044278786
0.0059468434
-0.008800117
-0.006700691
0.017941298
0.0015359231
0.0068593053
-0.0021963245
0.012925723
-0.0039479462
0.022441847
-0.0061366344
0.021171642
-0.0019146848
-0.0023197213
0.0065756785
0.003204224
0.00025700673
-0.0065529207
-0.008817829
-0.017036112
0.0077616707
-0.0008411464
-4.088631e-05
0.020718781
-0.008990413
0.003259978
-0.015665555
-0.0064254794
-0.0034875444
0.0017317036
-0.01676345
0.012303565
0.0039383858
-0.0031012045
-0.0029441004
0.0011522853
-0.00019170526
-0.008047543
-0.0034618457
-0.0039265347
0.009527527
0.0040746736
0.0042779427
0.0028959136
-0.0013179295
-0.016818646
-0.0062793987
-0.006810008
0.0018015158
-0.012494518
-0.0027941768
-0.0020455865
0.004648498
-0.010667449
-0.0118445195
0.014894782
0.012802531
0.00037115105
0.0008385015
-0.0042699096
0.0061273174
0.00020316608
0.012223836
-0.0002770934
0.010097623
-0.0018165894
-0.0024876643
0.008335157
0.0008135612
-0.015507852
-0.001148555
0.006257531
-0.0016977633
0.0061528077
-0.018984841
0.0077421856
-0.01532341
0.016351623
0.009854455
0.011082981
-0.004639825
0.0076711816
0.018828869
0.003093605
0.0070320866
0.0060902685
-0.0066538393
-0.006929102
-0.0055624587
0.002864679
0.009602325
0.0038918003
0.0071795057
-0.009552906
-0.012540147
0.006905854
-0.0007003786
0.005492564
0.010862874
-0.018685741
-0.017326213
-0.006409135
-0.009359507
-0.006738904
-0.012035348
-0.0016587703
-0.009420568
-0.005447531
-0.022779385
0.0045688464
-0.011055809
0.00084384624
0.009246309
-0.01249142
-0.0012518234
-0.01811865
0.006875126
-0.0045772498
0.025630653
-0.013717406
-0.0094829155
0.014455371
-0.018183848
-0.010349925
0.037728958
-0.013287741
-0.015708756
-0.011838672
-0.0023985836
0.01352568
0.0040584314
0.004295328
0.007051026
0.008918287
-0.017559204
-0.008010975
0.00027305871
-0.0047460846
-0.004316155
-1.3308315e-05
0.00020999444
0.016042344
0.0037642762
-0.0154294735
-0.003966005
-0.009948146
-0.0014190936
-0.0012838565
-0.0057223127
0.010805796
-0.010727878
-0.0022169552
0.004585424
0.0049841353
0.013501875
-0.00608627
-0.0043159453
-0.0010180369
0.018761093
0.0059718257
-0.017762277
-0.015303136
-0.0056050215
0.0094589265
-0.009497708
-0.009569596
-0.009641603
0.008047248
-0.007921032
-0.014195958
0.015667185
0.010282423
0.019964268
-0.014980612
-0.011062432
-0.008670433
-0.002162165
-0.00852202
0.0067588673
0.009537212
-0.00023032373
0.003159548
0.009180092
0.017807981
0.0052280957
0.008310909
-0.0011857719
0.0031344073
0.013291437
-0.0052434616
0.012825715
-0.0008252311
-0.011383225
0.0049231444
0.009386444
-0.013858342
0.016678674
-0.021366684
0.0016084606
-0.0070107374
-0.009854271
-0.0013849048
-0.011067902
0.0060541728
-0.01425194
0.0028611862
-0.007940528
