# (576, 192)
0.00043099173
-0.008950133
0.0131225
0.0033952754
-0.0012915699
-0.012878402
0.0042144745
0.0038664336
-0.0016010026
-0.036381077
-0.033186488
0.022205045
-0.024152027
-0.006089402
0.016916133
0.012753265
0.004693318
0.013466687
-0.02522392
0.023075497
-0.008134773
0.027291097
-0.012441769
-0.0046605086
-0.0023526042
-0.017121946
0.015299857
-0.012601739
-0.019613538
-0.023961417
0.026275842
-0.017000267
-0.033499878
0.0089287525
-0.0096710455
0.003966826
-0.025385655
0.021944834
0.047933415
0.009542012
0.00208575
-0.010971599
0.0076500443
-0.007849652
-0.02728837
0.02529876
-0.0155784255
0.0032397164
0.018381692
-0.006563256
-0.02364469
0.008867696
0.0055604936
0.015940899
-0.003102359
-0.039250553
0.023365123
0.02824441
-0.008821218
0.010676613
0.007230896
0.016712192
-0.016074862
-0.008869769
-0.0002958166
0.005477804
-0.009897119
-0.013246303
0.0010673731
-0.009928135
-0.022054821
0.00862616
-0.009426495
-0.0098113
0.031226989
-0.00845203
0.024775319
-0.0050910907
0.011299934
0.010943136
0.009730037
-0.03337956
0.012756861
-0.009639297
0.0005495848
-0.00057182094
0.002815773
-0.024598751
0.024101952
-0.023983892
0.0038838005
0.032201696
0.0013603409
0.023155805
0.0036292274
0.027340485
0.047219753
-0.03137833
-0.014137667
-0.015396767
-0.025454002
0.015487666
-0.013394367
0.012088481
-0.02017108
0.002644536
0.012187239
0.014805868
-0.007303866
-0.010189848
-0.013319726
-0.0072247065
0.03710538
0.006480553
-0.008206795
-0.0085341325
-0.007748435
0.013858617
0.015689798
-0.0104524465
0.040314358
-0.002675109
0.015573898
-0.021273345
0.017862463
0.01950627
0.022421172
0.030945396
-0.0002467173
5.1304996e-05
-0.011773704
0.0004046651
0.02502922
-0.0013144219
-0.00744999
-0.0044754846
-0.016761161
0.005410354
-0.0016791592
-0.023722712
-0.020573141
0.015236343
0.027442463
0.0009791508
0.00029995083
0.017310372
-0.016920332
-0.0057167923
-0.024256745
-0.036259923
0.026642717
-0.042867966
0.0084436685
0.00094496406
0.024190726
-0.00028731077
0.043562263
-0.00945405
0.017493175
-0.013908603
-0.018451687
0.0052682227
0.010964
0.016489292
0.045738008
0.024875853
-0.026947035
-0.03711639
-0.008324028
0.00046686485
0.022750076
-0.0143353045
0.0030130409
-0.0076153525
0.0029218483
0.010435939
0.008098525
-0.04596642
-0.01238911
0.022190012
0.028462445
0.018884387
-0.0237648
0.0049892366
-0.0052927798
-0.0076788175
0.0054129134
0.019257456
-0.008255152
-0.012309019
-0.051147442
-0.013537089
-0.0059755933
0.023521127
0.009864172
0.016296145
-0.022794582
0.01988864
0.00855286
0.0007280778
0.035882156
0.0015782439
-0.029652068
0.029979596
0.0018479154
-0.017466018
0.025061896
0.0076655946
-0.060525745
-0.0019202703
0.013454995
-0.043161295
-0.0048180465
0.0011812262
0.013923505
-0.0043285424
-0.0010019895
-0.036057204
0.0054052267
0.02109359
-0.011889021
-0.035793636
-0.022530016
-0.016706994
0.0023201047
-0.0238751
-0.020006372
-0.020317173
-0.027433041
-0.02764079
0.009525503
-0.014095417
-0.004589264
0.012758722
-0.029365702
-0.0068470375
-0.0027832612
0.02756177
-0.011858757
-0.006713324
-0.024969928
0.021061165
-0.00060975767
-0.0026192241
-0.009395595
-0.011601983
0.017725905
0.041380845
-0.003268824
0.014787068
0.002714851
0.015731478
-0.016646566
-0.039172538
0.010699895
-0.015856285
-0.028668338
0.019029828
0.011103149
0.029039903
0.011894507
0.045245577
-0.00022247648
-0.028060531
-0.01313847
-0.0064511374
-0.028893735
-0.057265833
-0.006156443
0.01168355
0.00057835795
-0.005877543
0.02337379
0.016167164
0.012441236
0.007439874
-0.003600741
-0.026800193
0.026560264
-0.023794493
0.0019154017
-0.023707258
-0.03027363
-0.019452821
0.019857926
0.03200765
0.043768395
0.015811324
0.018358873
0.0036263668
-0.019166108
-0.03201471
-0.017159171
0.0027492114
-0.0055534677
-0.011603849
0.021574216
-0.022573926
0.034500286
0.03649864
-0.01303264
0.008283596
-0.003451588
-0.025566475
-0.010481746
-0.016576685
-0.022197682
-0.0012771828
0.008941313
-0.027296279
0.00021235751
-0.009057458
0.0024962444
0.011385187
0.0017274099
0.0304049
-0.0026173799
-0.011468867
-0.0054401667
-0.025946014
0.006524191
-0.004161265
-0.009367417
-0.03162137
-0.005257403
-0.004591738
-0.0102681685
-0.006454491
0.026123978
0.0112021165
-0.024487562
-0.008401975
0.015280955
-0.0006050932
-0.01645919
0.0246869
-0.023004409
0.025284939
-0.029052269
-0.007884787
0.028942615
-0.021169279
0.02600252
-0.031230062
0.004066515
-0.03939051
-0.011385331
-0.00431101
-0.007699035
0.02452322
0.0025399062
-0.00897669
0.029904908
0.00072718126
0.0018950982
-0.04291385
-0.029877376
0.009443893
0.0005346076
0.017833313
0.00839005
-0.03083432
0.02643518
0.0016216967
-0.009684049
0.011249516
0.022486346
-0.004798647
-0.009832757
0.0055981907
-0.024423923
-0.00990592
-0.014406393
-0.008409782
0.018009376
0.010113111
-0.0072589978
-0.0038581921
-0.009742257
0.0147077255
0.016915297
0.02483357
0.0019635833
-0.044753503
0.008986391
-0.03252063
-0.022529656
0.022867901
-0.010601066
-0.007241351
-0.03827282
-0.036727928
-0.012303205
0.000700613
-0.0002169631
0.026695192
0.0043419045
0.018645776
0.009124588
0.009321625
0.008679791
0.0454683
0.034690555
-0.026384894
-0.024104336
-0.0011111287
0.00031053383
0.013903692
0.008522815
-0.01209374
0.0007838671
0.0033672305
0.020984966
-6.0789996e-05
-0.025866091
0.009756662
-0.032937452
0.0034601986
-0.024623675
-0.021911139
0.0024970176
0.00040928242
-0.021584265
0.003128811
-0.022016695
-0.010186051
-0.010717261
-5.1657153e-05
-0.011011398
0.008694876
-0.008861154
0.01080215
0.0019654494
-0.033173166
0.030748954
-0.005493296
0.0036009422
-0.041577276
0.021507468
-0.006379867
0.032005157
0.017643305
-0.0076875053
-0.0021873324
0.017024934
-0.03183552
0.02872563
0.029287972
-0.013622932
-0.0033165254
0.003645697
0.019452583
-0.0019580552
0.004035788
0.0052770213
0.025775418
-0.024987506
0.018696235
0.015712805
-0.0029873098
0.029512508
0.012685802
-0.03953243
-0.0024601778
0.0048920563
0.040758464
-0.0029880553
0.03436261
0.0044477084
0.010196535
0.021561878
-0.008907791
-0.02699737
-0.036761
-0.009242494
-0.01225986
0.026335208
0.007959334
0.0049203527
0.014448443
0.039087765
-0.007040566
-0.007227097
-0.020282075
-0.0347253
0.044087928
0.049450982
0.011893712
-0.019584721
0.030967545
0.007809178
0.006270152
-0.028623004
-0.022559255
0.021006422
0.009328648
0.011026822
0.0085838195
-0.009464259
-0.013121713
-0.008468551
0.024050018
-0.022330552
0.009459444
0.045910142
-0.045127925
0.009990204
0.00019173393
-0.014800434
-0.007384982
0.0127714
0.031725697
-0.03042634
-0.0003473928
-0.0056078457
-0.02018015
-0.02011243
-0.024021551
0.012970241
-0.015135916
-0.013181935
0.034678057
-0.023841774
0.0042584646
-0.025469715
0.013002101
-0.0037074082
-0.0008958182
-0.0027948332
-0.04995717
0.02314556
0.011295856
-9.619288e-05
-0.0004834867
-0.01608596
0.0007130413
-0.00092652946
-0.019180788
0.03430221
0.016731044
0.009590807
0.008610625
0.0071050483
0.034897354
0.0025289548
-0.02932755
-0.0067187697
-0.024571897
-0.011556503
0.0071638166
-0.017100064
0.013769435
-0.01893282
-0.024486104
0.011327703
0.046990737
0.0046131536
0.0086181825
0.026837964
0.0073275804
0.0008858436
-0.00336071
0.020133125
-0.0063451063
0.016831756
0.003882552
-0.006017044
0.01990864
-0.03174
-0.023033783
-0.004996139
0.013007374
0.007327178
-0.0021774187
0.02635234
-0.025719263
-0.0034404865
-0.0054016327
0.015686482
0.030095385
-0.01026771
-0.023724156
-0.016339164
-0.026572289
-0.032066885
-0.008016394
-0.004770235
-0.014925052
0.052557938
0.019175418
0.022808654
-0.013304238
-0.03117257
0.0027986178
0.020803949
0.0110496925
-0.019694367
-0.026698701
0.0015707721
-0.020755865
0.037851755
-0.0086993305
-0.01309105
0.0050919233
0.015808852
-0.02377891
-0.014533014
-0.0045974785
0.0036428296
-0.045451157
-0.011086355
0.016715435
-0.005004311
0.014710015
0.011434768
0.03085081
0.021939626
0.0133452425
0.029578341
-0.010476631
0.025216352
0.024406275
0.027296478
0.0050305263
0.005655534
0.032371666
-0.0075055044
0.021773485
0.004885942
-0.011774802
0.01870827
-0.003538277
0.0041258875
0.017293073
-0.016582115
0.0146299265
0.0020910571
0.041503515
0.0069080195
-0.01009265
0.007833738
0.00048150241
-0.03048194
0.021628039
-0.008242017
0.018185355
-0.029675819
-0.008323495
-0.0019437922
-0.0155517
-0.03291582
-0.026756186
0.0029034128
0.0065232543
-0.043196157
0.018750636
0.0059953276
-0.021949628
0.01949826
-0.012562748
0.033062696
0.028620997
0.0020438018
-0.029579312
-0.012725826
-0.013461127
0.00710741
-0.014923357
-0.011707043
0.015011507
0.025523249
0.011947812
-0.030622678
0.017436571
-0.010691724
-0.0020459504
-0.064536065
-0.0009452233
-0.026241653
-0.011621178
-0.02798915
-0.009872926
0.031362507
0.011904508
0.0133041795
-0.017292384
-0.0022347716
-0.007754492
0.012643663
0.016852448
0.009689232
0.013237208
-0.01932381
0.022515725
0.0037682028
-0.00057170755
-0.0075603104
-0.023762092
-0.0139408205
-0.014159484
0.020690981
0.028821848
-0.024041085
0.011869917
-0.022945845
-0.008290842
0.017221302
-0.021295525
0.034857955
0.023088254
0.017791646
-0.01347116
0.028650183
-0.005083983
0.00012002065
-0.016624985
-0.002812576
0.007516937
-0.016046094
-0.027536323
0.03264364
0.016519498
0.044107728
0.038651288
-0.015068468
-0.008576122
-0.010622188
0.009497407
0.00048202864
-0.028044919
-0.02172088
-0.02427429
-0.032367937
-0.007858123
-0.0054987487
-0.008233378
0.010525563
0.0051728664
0.0013151148
0.010529438
-0.023228977
0.024749564
0.0404132
-0.0035247533
-0.02437637
0.0050057545
0.020674491
-0.024788143
-0.0314953
-0.0064260694
0.01709291
-0.030069858
0.040375
-0.06837581
0.0049480502
0.03444716
-0.0038563432
-0.012886343
-0.015290484
0.006422993
-0.001538611
-0.023677047
-0.008509698
-0.014424509
-0.0067068455
-0.0040630694
0.010323005
-0.019793492
-0.015941393
0.008498541
-0.02752734
-0.01781116
-0.0017645764
0.007958034
0.018125411
0.017451063
0.0023256945
0.0007124559
0.040189944
0.017597381
-0.021059738
-0.034280676
0.012090561
0.013518252
0.036279745
0.0070883897
0.0076053706
0.026641915
-0.018100915
-0.023440748
0.013714081
-0.0029202153
0.020043071
-0.0054112244
-0.012877247
0.0033630687
0.0010732429
-0.01351755
0.020906765
-0.0033209093
0.023032648
-0.021751553
-0.032071386
0.011038254
0.003702741
0.04079638
-0.003368335
0.007623959
0.0014181244
0.027508847
-0.0078845145
-0.019167697
-0.011494999
0.02962706
-0.016964955
-0.009942349
-0.029874012
-0.00010845577
-0.012767743
0.0043030796
-0.027022332
0.040135525
-0.025259001
0.031906534
-0.011463152
-0.007949192
-0.004745192
-0.0071742176
0.019943174
0.007178863
0.032093737
0.01847001
0.02372723
0.044151206
-0.019275712
-0.008552248
0.020101829
-0.008394217
0.022786617
-0.019218981
-0.012256861
0.02538664
0.0113956155
0.012793976
-0.027096728
-0.025567727
-0.013893927
0.012308031
-0.027178712
-0.027536836
-0.015720814
-0.019920612
-0.0045127664
0.02008131
-0.016110871
-0.007797275
0.008814583
0.0029668105
0.009412301
-0.018616451
0.053102802
-0.003027959
-0.022280583
-0.0040351534
0.0066879666
-0.015013257
-0.010076059
0.012361987
0.039252967
-0.0122794015
-0.0035239074
0.0044186753
0.007858343
0.010903728
0.017666245
-0.0019330091
-0.0026004913
-0.009646467
0.012052026
0.057031546
0.0051484816
0.016964562
0.011954271
0.008564273
0.0003110793
-0.02552336
0.030003278
0.027938306
0.008793662
-0.0025543605
0.020017022
0.011686769
0.035693347
0.000591699
-0.037923045
-0.036155254
0.019313524
-0.0068080095
0.012013335
-0.010772633
-0.03067033
0.0063814064
0.024522979
-0.016425716
-0.028508067
0.038891785
-0.00886348
0.0066874414
0.00423216
-0.00639172
-0.005397259
0.008207413
0.016917598
-0.015324385
0.028816318
0.0153043885
-0.0046496917
-0.001937149
-0.0044932086
-0.015346479
-0.016330764
-0.014531729
-0.027205553
0.019979531
0.005719313
-0.0011042877
0.038588997
0.04482695
0.011711644
0.0029706475
0.019403193
0.018022744
0.043683074
0.0036790648
0.0058609727
0.016743725
0.024184711
0.028400544
0.05322457
-0.0015892097
-0.050665863
-0.02773305
0.026189227
-0.028448569
-0.0076384703
0.025024405
0.020085527
-0.009642291
0.026088547
-0.0025724804
-0.024232082
0.025526099
-0.0019308648
-0.005122113
-0.011189554
0.020142812
0.03736606
-0.03877848
0.0059326324
0.020423269
-0.011955156
-0.005420113
-0.0065890667
-0.022963924
-0.0031709364
-0.018433042
-0.00021343652
0.030280285
-0.014369477
-0.0072040376
0.0135247605
0.0046240846
9.51192e-05
-0.015234084
0.003500878
0.0021693113
0.007937269
-0.011529935
-0.025134625
0.008390253
0.011169046
0.01635034
0.007989283
-0.0029951674
-0.0024763967
0.003865606
0.010387592
-0.028358106
0.010951427
0.02477585
0.003547916
0.014336271
0.023365581
0.007785975
-0.0026777668
0.0069556492
0.008740619
0.004481679
0.0035957363
-0.009074757
0.032761928
-0.006393934
-0.013593121
-0.030852372
-0.040854186
0.011112856
0.022902798
-0.0005934651
-0.0101478025
-0.0076137423
0.0326862
-0.0058583985
0.02542995
0.005948319
-0.029003358
-0.023853933
-0.00675888
0.016814647
0.0172915
0.006391643
0.0021237007
0.020564992
-0.010037071
0.026154585
0.004203526
0.0015513609
0.008124024
-0.022121496
0.017208435
-0.021882828
0.017472913
0.0035255512
0.028938089
-0.019141288
-0.019834172
0.002422778
0.0011913279
-0.0345354
-0.015432488
-0.0037620245
-0.018644886
-0.022110859
0.020055575
0.016539048
-0.013420417
-0.010996525
0.019562306
0.019241389
0.0064066546
-0.02544785
-0.03808373
0.011501833
-0.002295886
0.014594247
-0.022951556
-0.0052757813
0.0028504196
0.01973556
0.011604233
-0.01024544
-0.005706796
0.017221076
0.0014511503
0.010591589
0.0026310973
0.01001522
-0.02151004
-0.004713267
0.005523614
0.0043943627
0.0263048
-0.005261068
0.0049326033
-0.00070430286
0.031194763
0.020777006
-0.0122544
0.0010524762
0.010446463
0.0145173585
0.010920776
0.018272026
-0.0033686238
0.011035899
0.017754072
0.004438009
-0.010930789
0.008042256
-0.0010638273
-0.007018258
-0.037980776
0.04238428
-0.005378113
-0.0051847445
-0.012989181
-0.0027214224
-0.0016487272
0.0053856717
0.010158494
0.014752172
0.023512928
-0.015853964
-0.011986988
0.022122396
-0.011266181
0.018390242
-0.0060809315
0.019481694
-0.0073477817
-0.010203181
0.009863538
0.002024253
-0.0178138
0.013039242
-0.015625594
-0.04754333
0.0034709831
-0.009449231
-0.029091422
-0.0050680363
0.013964642
0.005372769
-0.0018116466
-0.0022681584
0.011792127
-0.028657457
0.011634989
-0.0035586974
-0.012806123
0.022992723
0.0021244334
-0.0037750308
-0.0060736816
-0.00014563103
-0.018037839
0.01464907
0.028040856
0.01096026
0.013250122
0.017737499
-0.009797647
-0.016100056
0.005987054
-0.014369524
0.0005793976
0.023210641
-0.0033025977
0.045821927
-0.0033859105
-0.008019081
0.030970749
0.012662504
0.041912645
0.019114941
0.011258565
0.01608113
-0.02385721
-0.016677996
-0.03509712
0.030649962
-0.018230524
-0.053733144
0.02152052
0.004486468
-0.03199184
0.011421687
-0.004521104
0.00013523058
0.020375345
-0.030812087
0.019280463
0.011613264
-0.05997918
0.021680672
-0.010096951
-0.006712795
-0.024987957
-0.02018387
0.030924171
-0.010732842
0.0016920654
0.020031469
-0.018484
-0.033068966
-0.0014339183
0.044310134
-0.046936084
-0.025435878
-0.0110017
0.019900752
0.029263644
-0.011139095
-0.014117052
0.0123327905
0.008118718
-0.010521872
-0.0106508015
-0.0008178465
0.015449832
0.02339383
0.011389396
0.018914334
-0.016919214
-0.0025261252
0.010839664
-0.004464787
-0.03840491
-0.012260658
0.016723892
0.053703535
0.0029238572
0.021916267
0.03607248
-0.01579912
0.015741346
0.029189527
-0.008440183
-0.022633003
0.028482491
0.0014845652
0.016656088
0.01813478
0.019257005
-0.024078107
-0.011502364
0.0010057962
0.0020540252
0.024672853
-0.016635915
-0.01708209
-0.005939992
-0.013534256
-0.020099439
0.014355252
0.0045971465
-0.009948309
0.018449051
0.022236938
-0.02711741
-0.008977926
-0.01468158
-0.00844602
-0.017448734
-0.0005043199
0.010210072
0.030711332
0.014986864
0.010733367
0.027488811
0.002439153
-0.0057342146
0.03581434
-0.025633577
0.025259988
0.0073644565
-0.025459565
0.011819376
0.015500633
0.018948529
0.022533894
-0.007883729
-0.00394259
0.012560675
0.0002680482
0.01589721
0.013355542
-0.024391837
0.014387371
-0.021699302
0.015735848
0.031108176
0.0041252244
-0.012660103
0.0010291229
0.012845964
0.018957075
-0.029795283
-0.00461648
0.0020001233
0.0033705432
-0.011443059
0.012229455
0.008316175
0.030309126
-0.016024096
0.0048801783
-0.019236432
0.03727334
-0.00094803306
-0.014527379
0.014764385
0.03205631
0.019667555
-0.00095702306
0.028907154
0.031141575
-0.0029589916
0.015181717
4.2361266e-05
-0.030415015
-0.02349862
0.02318083
0.0033522903
-0.014819016
-0.0031034856
-0.063090704
0.01750186
-0.013975336
-0.009277085
0.0032306174
0.013841174
-0.008060094
0.031367037
0.003137699
-0.0074161747
0.0042331843
0.0012917434
-0.022724573
0.0074576414
0.02384839
0.0018841824
-0.0134698665
-0.019982636
-0.01752798
-0.011230552
0.014930465
0.00923727
0.021912614
0.019675758
0.012039829
-0.002269497
-0.0078036576
-0.016792666
-0.0023974462
-0.016961781
-0.034182083
0.0046761353
0.008463261
0.039806668
-0.012722691
0.02370529
0.007105421
-0.010202365
0.010969111
0.02875524
-0.020014143
0.02719992
-0.01317533
0.033496827
-0.037334654
0.011417543
-0.014791086
0.015161677
-0.012867503
0.018312661
-0.02799154
0.018642481
0.030412389
0.01483268
0.0065649278
0.024883244
-0.020305814
0.009630339
0.04211161
0.034690093
-0.001170894
0.0025262716
0.02582282
0.031978633
0.010710445
-0.035116114
0.005803067
0.03863175
-0.03427623
-0.025827343
-0.031771146
-0.004090633
0.008011451
-0.0041018464
0.015169686
-0.021251831
-0.016184883
-0.05789345
0.022543486
0.016874248
0.03517972
-0.013792361
0.024594689
-0.035433
-0.0109689655
0.02127804
-0.011786884
0.016134439
0.037085835
0.05400284
-0.023098553
-0.044084363
-0.03246097
0.015956044
0.026598122
-0.020770567
-0.0026120394
-0.00024405603
0.06342288
-0.020950487
-0.02336051
-0.03668313
0.0020245423
-0.008934496
-0.054140043
-0.0061267857
0.0304267
0.008557271
0.0498278
-0.020662948
-0.041287106
0.0067875944
-0.021975026
-0.008096599
-0.01444349
-0.0042947456
0.012927285
0.015096348
-0.009366659
0.005894159
-0.009875902
-0.026655676
-0.015443356
-0.0127785355
0.019097611
0.0006609937
0.013043412
0.011557325
-0.03309938
-0.009253537
0.0002874327
-0.0032895086
0.013852789
-0.010115058
-0.015923921
-0.003517244
0.0092537515
0.011777554
0.031461444
-0.0142282415
-0.0023163992
-0.009028199
-0.01381559
0.015804835
-0.008313828
0.006780625
-0.008119001
0.014820065
0.02447207
-0.030812336
0.020013759
-0.01221685
0.035688475
0.0071021896
-0.0055804243
-0.0005583547
-0.021382647
0.004363996
-0.0060457205
0.022854041
-0.011807673
-0.037083574
0.019428564
-0.019890372
0.001135199
-0.04080684
0.013721892
-0.038053494
-0.0043876423
0.014353848
-0.0011036895
-0.003852228
-0.029889785
-0.0162394
-0.0080284
0.010348478
-0.005605197
-0.004052962
-0.010990808
-0.012063695
-0.01721399
-0.004605712
-0.025873274
-0.027104964
0.009653022
0.012134157
0.0515908
0.0074740276
0.017659416
-0.025727037
0.041940358
0.0077432916
0.0054198997
0.037043076
-0.009046142
0.042562336
-0.0045436276
0.006492198
0.0073577994
0.0039052626
-0.008662388
-0.064055964
0.022609882
0.00039746924
0.043017473
-0.009426332
-0.021753289
0.033802476
0.023288695
0.057818975
-0.003417302
0.005187719
0.017289434
0.01616869
0.012764368
-0.013441375
0.025287408
0.012412162
-0.02024763
-0.013153706
-0.010320578
-0.02136385
-0.0024024828
-0.038406704
0.0031302692
-0.004119881
-0.041295696
0.0038655712
-0.013887534
-0.019673461
0.0035957498
0.005777279
-0.043077946
0.027518533
-0.017076734
-0.013796743
-0.024492655
0.017530976
0.023660446
0.032667123
0.019947698
-0.028730338
-0.008329382
-0.0123371845
0.006406387
-0.013827469
0.012566386
-0.00041338673
0.0007134379
0.0042788675
-0.0054913363
-0.013548127
-0.0009788224
0.027510472
-0.033775304
0.006147402
0.012044916
-0.035419434
0.02313649
0.014688539
-0.0071356897
-0.012297283
0.024052799
0.033359848
-0.011225773
0.016078353
0.012112722
0.009987765
-0.020455943
0.0020498068
0.0069183526
0.005021154
0.035284124
0.029392356
-0.0026886286
0.023888374
0.0073245345
0.02006216
0.01184937
0.00097648293
0.035632778
-0.015769875
-0.006764429
0.011861447
0.038497474
0.025157768
-0.010708435
-0.0026442038
-0.023424074
0.03577731
-0.01598093
0.007831648
0.0025676456
0.032819282
0.018544313
0.0037104327
-0.010919352
-0.02582282
0.0028230606
0.0038589586
0.0009786299
0.006118949
0.0008550216
-0.020912096
0.027017146
0.002813281
0.009539307
-0.018447008
-0.010870676
-0.059697893
0.013737565
0.016595094
0.017628415
-0.0012920619
-0.01657746
-0.02041981
0.027240144
-0.0019291474
0.020837303
-0.015342961
-0.007523733
0.024445202
-0.03170994
0.0026793228
0.014714471
0.00811909
-0.009615394
-0.02059402
0.019924013
-0.028500048
-0.02286611
-0.023247814
-0.007414214
0.03856594
-0.0011690756
-0.0014222915
0.016644161
-0.008047535
-0.018959941
0.012220302
0.007951011
0.01892124
0.0084507
0.023806412
-0.012137436
-0.02671735
-0.01706844
-0.008233774
-0.0095460005
0.018561313
-0.00023172048
-0.0053486866
0.010854939
0.017018467
-0.031212574
-0.0063252137
-0.012113503
0.017746866
-0.0024016497
-0.025272962
0.015295527
-0.040622216
-0.017282767
-0.0093222065
-0.009151205
-0.0057871128
-0.02094552
0.030028012
-0.011379876
0.01030919
0.021084126
-0.008870452
0.01023123
0.0013927956
0.016855704
0.005646206
0.009599085
0.006429093
-0.0011043436
-0.01038141
0.0057457215
0.04428953
0.005115168
-0.022883127
-0.008742718
0.01522365
-0.015560475
0.0032253063
0.049511723
0.014517146
-0.024269156
0.03560001
0.002811085
0.008434104
0.03518871
-0.002470392
-0.005356433
0.03939126
0.04391374
-0.0011882379
-0.029400105
0.0017310253
-0.00061404373
-0.011784309
-0.013164548
0.010489574
-0.0038558724
-0.016417956
0.01010968
0.003238362
-0.024684832
-0.037677854
0.0005237592
0.012611301
-0.013257722
0.017589675
-0.03169352
-0.0058188164
-0.008217664
-0.027848672
-0.02005795
0.037140798
0.027859349
0.009524861
-0.0047603045
0.01857022
0.020548355
-0.0006138609
-0.032140773
-0.016640078
0.0049052057
0.002437458
0.010737837
-0.0029374375
-0.01891057
-0.029034091
0.028632695
-0.010111236
0.010985925
0.006298922
-0.019192673
0.009694051
0.032533508
-0.005238205
-0.021975946
-0.019414792
0.037962902
0.009434382
-0.004114098
-0.020634422
0.010400748
0.008202956
-0.010906824
-0.017645294
-0.0053790016
-0.029046467
-0.017685242
0.020418882
0.016922206
0.023275962
0.015612778
0.018571781
-0.01801355
-0.035729144
-0.005585167
-0.025270438
-0.014810505
0.01750834
0.022439623
0.0011771931
0.030907435
0.009401409
-0.011891426
-0.021380989
0.024911566
0.020819496
0.017847784
-0.0069011822
0.017757779
-0.014003691
0.0077672824
0.0016338514
0.024161477
-0.0016299067
0.014885435
0.0067988527
0.027724458
-0.018269466
0.018476503
-0.027245242
0.023622867
-0.015808737
0.01558765
-0.0018210881
0.014890184
0.03542744
-0.042697217
0.012786675
-0.020290859
0.013425982
0.00580226
-0.010479259
0.004380157
4.4507346e-05
-0.0091311475
-0.038461056
0.0057412586
-0.021781854
-0.0051975227
0.011043706
-0.035497032
-0.01330928
0.004484912
0.011438799
0.012686144
-0.024712173
-0.011444454
0.018034749
0.02519613
0.013213891
-0.035298057
0.009171648
0.036354404
-0.019488046
-0.021257607
-0.009157858
0.007991248
-0.008635425
-0.03734087
-0.005973263
0.002819481
-0.027708866
-0.005545067
0.027617391
-0.015716309
0.018884556
0.020572308
0.044004302
0.029168138
0.005818783
-0.005343448
0.0023368164
0.0025577133
-0.0144603485
0.0012856744
0.014325257
0.024121711
0.046653185
0.0038705969
0.03153442
0.007515167
0.028557032
0.025942931
0.007249322
0.010929527
0.014793022
0.035777405
0.038725965
0.025936266
0.02065545
-0.0149299735
0.04855756
0.0027488687
0.0024196776
-0.0071321023
0.0048065353
0.013913981
-0.029110918
0.0035069576
-0.00077814586
0.0036061264
-0.016369889
-0.010420545
-0.0076620863
0.007119326
0.0133442255
-0.00522129
0.0027305486
-0.012199312
0.014212943
-0.035098672
0.011903507
0.018603433
0.020969603
0.0059355297
-0.0022325367
0.038959604
-0.013583657
-0.00024107345
-0.011229734
-0.02294692
-0.0096567795
0.010274448
0.0014832796
0.017609524
-0.0033378275
0.0003994267
0.02849018
-0.014686297
0.009501287
-0.019337786
-0.020226983
0.053059332
-0.0027046627
0.0040273005
-0.0069132177
0.001731874
-0.0062571336
0.01661504
0.004967067
0.011081315
0.00838318
-0.039492894
0.026362864
0.008139487
-0.06497623
0.005815606
-0.005561331
0.0034170218
0.02221824
-0.010997049
-0.005960469
-0.023893198
-0.003954585
0.035467934
-0.016665258
0.001759953
0.016347522
-0.028547682
0.0031327584
0.045673184
0.027858514
-0.0019061187
-0.024472853
-0.012785538
0.0016464394
-0.023154065
-0.018259801
0.025902798
0.004198051
0.0073833712
0.032858387
-0.0033218823
0.011369479
-0.010323784
-0.025673578
0.0002686048
-0.0013592734
-0.01262627
-0.0058402154
-0.006413026
0.022140257
0.017252082
0.028467616
0.012016283
-0.010275804
-0.016127907
0.0149629
0.012006687
-0.018938694
-0.008757149
-0.020882038
-0.021787781
0.0014752481
-0.0049228435
0.017279409
-0.0068517784
0.0019196487
-0.024161555
0.014071339
-0.007846603
-0.0053981785
0.0056096795
-0.0061794436
-0.021752352
-0.015265879
0.028524892
0.032501422
0.011552445
-0.025108432
-0.00087485847
0.026367806
-0.023054633
0.0028908935
0.021001853
0.0043522054
-0.0027203832
0.0002970527
0.028261192
-0.035676494
0.021284029
0.01649998
0.0020867698
-0.009816783
0.016398031
0.040295564
-0.01237424
-0.028089177
0.007806125
-0.0138743445
-0.0009774026
0.012747591
-0.009864652
0.03743331
0.015357594
0.016732074
0.02011261
0.0110399
-0.030712873
0.023475086
-0.0489224
0.00016596587
-0.02049319
0.03792145
-0.003855168
-0.016228266
-0.0115957195
-0.0067555923
-0.012174079
0.007860026
-0.037248634
-0.0124601135
-0.021497782
-0.020811886
-0.008743525
0.009172609
-0.00048763937
-0.021602916
-0.023163754
0.01727711
0.002063246
0.014386733
0.0229026
0.034386557
0.009513506
0.026381396
0.03338035
-0.015484372
-0.015981348
0.006571438
-0.0051703174
-0.020574909
-0.02700014
0.012960537
-0.011790256
-0.02824624
0.018909978
-0.025229925
0.008124332
-0.0046852357
-0.0020064218
-0.03113347
-0.017122222
-0.002642734
0.017586788
-0.019207684
0.012671335
-0.042094886
0.012149224
0.0055022202
-0.028053958
-0.011167254
-0.010567483
0.020367146
0.016607504
-0.019694583
-0.025184087
0.0029286135
0.007828335
-0.033983372
0.037923064
-0.011289294
-0.0046858
0.007189378
-0.033705197
-0.0114533175
-0.051483054
0.00095378223
-0.027005218
0.0032548883
-0.024116337
0.015716162
-0.01444121
0.011394373
0.026241997
-0.015587457
0.022776762
-0.0032982465
-0.019654637
0.015395294
0.003339047
-0.019843306
0.04452059
0.013297752
-0.007671958
0.024670796
0.005445604
-0.025904233
-0.026624722
0.048536804
-0.006965061
0.022240285
-0.0035915454
-0.016867744
-0.00575122
0.006236552
0.018237207
-0.0009075976
0.017273542
-0.0040384675
-0.04689624
-0.0032511642
-0.02140401
-0.022172758
-0.025044164
-0.016029917
-0.028296309
0.007798344
-0.011981466
0.01441756
-0.011399401
0.028717965
-0.0057651484
0.013189751
0.010187746
-0.010496984
-0.00189519
0.006350218
-0.003412972
0.015658604
0.0042068553
-0.0035899053
0.005292853
0.0077392915
-0.030447043
0.0154700205
-0.0027444577
0.021114293
-0.008998924
0.008089296
-0.012164618
0.02295809
-0.024327785
-0.0201887
-0.010227703
0.02919453
-0.008486588
-0.029574236
0.021634333
-0.004542205
0.0076995865
-0.0031146593
-0.015920615
-0.019614816
-0.0028290509
0.009181855
0.010684709
0.028377002
-0.0038339412
0.005962734
-0.0082798675
-0.020760145
0.02224911
0.0021114917
-0.0024349408
0.029021984
0.003925432
0.0097835185
-0.03702888
0.038040034
-0.0062931566
-2.5951898e-05
0.009174621
-0.009604883
0.021380153
-0.028911645
-0.012814734
0.029375546
0.003339886
0.011681459
0.025820067
0.017324379
-0.0023786647
-0.0072497576
-0.05414744
0.0022269418
6.684976e-05
-0.017810745
-0.060667284
0.0066165063
-0.006385587
-0.017424421
0.026891867
0.00012760461
-0.023964265
0.02915592
0.0011825067
0.005012228
0.021515993
0.0101660555
0.009828571
0.038803574
0.020065589
0.008067605
0.020844748
0.008081365
0.0057536704
-0.015492527
0.0092206495
0.018164225
0.036138117
-0.015443525
0.010985512
-0.013954172
0.0009558422
0.0043504024
-0.010879861
0.032822106
0.0073214965
0.021400524
0.025933355
-0.001042303
-0.020174133
0.045526173
0.012191434
-0.00025895788
0.005246585
0.00015652084
0.0045912513
0.012124191
0.015185486
-0.017257456
0.0044702617
-0.0062089986
0.00015030947
0.012279198
-0.0046617826
-0.0014940529
0.009830242
-0.0025028335
-0.0121723125
-0.0002880844
-0.009282336
-0.00874831
0.0054302234
-0.019039335
0.0072364393
-0.0015794914
-0.0019785487
0.023527155
0.011480278
-0.038675435
0.006794919
-0.016043598
-0.019787043
0.017224938
0.028905664
-0.01016219
0.0044737905
0.014049672
-0.031555925
0.029584674
0.016857537
0.0023393289
0.014130693
0.0019900608
-0.038463507
0.009063615
0.016852375
-0.016588543
-0.0067256396
-0.016982274
-0.013341878
-0.018732961
0.014261822
-0.016921608
-0.035687223
-0.009202978
-0.014665829
-0.010912263
-0.006871813
-0.022150703
-0.029735403
0.0124810515
-0.0057388255
0.026108436
0.0005997022
0.007837897
-0.011705803
0.011842184
0.028323252
0.010271064
-0.021710217
-0.012552906
0.016968781
-0.032648962
-0.032518044
0.015625436
0.007917479
-0.052287467
0.006024065
-0.044622947
0.02812268
-0.0036557263
-0.046980094
-0.022660112
0.025269086
-0.04058695
0.00058465
-0.03339459
0.04606304
-0.010133663
0.03690292
-0.009438407
0.034339752
0.019056268
0.009685314
-0.0041878647
0.018702468
0.03726877
-0.009203689
0.0074731763
0.020889377
0.013057765
-0.008949744
-0.015619733
-0.02264322
-0.005899655
0.002537698
-0.010013943
0.011825648
-0.015178016
-0.024327204
-0.0064933086
-0.040569205
-0.010338108
0.018625189
0.02915506
0.01077999
-0.012047632
-0.017120117
-0.0028689057
-0.0111814095
-0.003062554
-0.022455744
-0.010395333
0.010996986
-0.014303991
-0.015983598
-0.038922533
-0.0138210105
0.03124289
-0.007857604
0.0049520475
-0.0055567236
0.02147555
0.015210728
1.6932334e-05
0.01161196
-0.029121926
-0.017324777
-0.006665898
0.06929807
0.019571258
0.0035001044
-0.0010849636
-0.0264885
0.007250154
0.004136389
-0.007383091
-0.019138051
-0.019819899
0.034779496
-0.026288912
-0.026250869
0.005136016
-0.01095611
0.006055264
-0.013906095
-0.0029022854
-0.022217115
-0.003927538
0.0031068882
0.03057448
-0.012262138
0.009338509
-0.00032687074
-0.037995372
-0.000644761
-0.0041979766
-0.020608334
-0.0043526683
0.0143774375
0.005583838
-0.005042392
-0.010773536
-0.013166604
-0.013179602
0.009418752
0.027397765
-0.03749464
-0.023218378
0.017204573
-0.014065364
-0.026766218
0.007780442
-0.0037542272
0.016203765
0.04295663
-0.004512436
0.03257
-0.011610488
0.012996878
-0.0052683377
0.009031503
0.00037660621
0.013120559
0.006413705
0.036347244
-0.01468375
0.0062659318
-0.008954211
0.01275542
0.014600814
0.019471338
-0.015332664
-0.009906994
-0.0055579776
-0.058651004
-0.029823538
-0.029722784
-0.0025523293
-0.0034262878
-0.005956961
0.021709966
-0.0050251535
-0.011400539
0.013072516
0.022690449
0.0091765765
0.028540751
0.00982022
-0.01179673
-0.0093036555
-0.0079756705
-0.011399037
-0.0029757128
0.019839494
-0.011573921
-0.02486986
-0.014244919
0.015810216
-0.0078067384
-0.0007779963
-0.0159615
-0.0044441274
-0.0039675413
-0.036081947
-0.0037262675
0.045331717
0.0031308683
-0.028852407
0.008886967
0.02306722
-0.009447717
0.02119784
-0.022695178
0.003260086
0.0114215445
0.0051129423
-0.026538594
0.028109832
-0.023256859
-0.0399635
0.022642529
-0.016369585
-0.009216062
-0.022384457
-0.005275055
-0.035258364
-0.015575995
-0.0028356286
0.022933094
-0.00790789
-0.031352412
0.025976125
0.014824863
-0.009373141
-0.053082757
0.041703813
0.034512553
-0.0039012812
0.0067308038
0.030978506
-0.01193675
0.007413202
-0.029601237
-0.007183104
-0.010064698
-0.0108205145
0.02469988
-0.0014114018
-0.0065712524
0.007162873
-0.020315584
-0.0149770705
0.005643494
0.011724581
-0.024190595
0.0011220718
0.011940066
-0.0035139665
5.449259e-05
0.0056879185
0.014392019
-0.02710035
0.0045848424
0.0132598495
-0.006740989
-0.0376401
0.017168893
-0.0060984436
-0.016458893
0.008355209
-0.015429093
0.0063765007
0.004960642
-0.009573464
0.0025007452
-0.006689538
0.009802968
0.023168439
-0.005281174
-0.017063562
0.0108149145
-0.025995605
0.0023027302
0.014956608
-0.021891482
0.016364247
-0.012239077
-0.009873081
-0.00089455664
-0.0011973479
-0.023621073
-0.007218398
-0.004951659
0.0027549507
0.004806234
0.012310761
-0.00047765704
0.014182272
-0.008681536
0.04657639
0.013111805
-0.016148442
0.00077818934
0.033225488
-0.012634314
-0.01919004
-0.018061424
-0.0013346184
0.026975181
0.02639445
-0.008166909
0.014301816
-0.0015521625
0.019438189
0.006780267
-0.021526974
-0.008467104
-0.011609347
0.015180505
0.03181171
-0.007667601
0.008576425
0.006355539
0.0030977803
0.0079440605
-0.0059296787
0.023183694
0.0023859139
-0.023921877
0.002028711
0.020012405
-0.009926289
-0.0056894803
-0.017671082
0.00118088
0.023159489
-0.010363716
0.03400447
0.005449329
0.015827334
0.009135117
0.024180695
0.012451309
0.006576635
0.03376317
0.008254876
-0.006101943
0.0177693
0.023553954
0.0023525234
0.011598036
0.00042193162
0.023029022
-0.010164241
-0.010039174
0.026449455
0.024291642
-0.01768852
-0.02495479
0.041414347
0.010053721
-0.008548113
0.024871113
-0.014877322
0.0049875127
-0.043315805
-0.011203592
0.016376613
0.0071946955
0.02465057
-0.0012989973
-0.018366864
0.02805081
0.004146609
0.0022876784
-0.012961719
0.016572023
0.01875483
0.024119692
-0.04388295
0.016280862
-0.0074202125
0.023098085
0.015764944
0.017062701
-0.0048300163
0.01515151
-0.034823116
-0.002689991
0.02386679
-0.013746506
-0.018576056
-0.010657491
-0.024315631
0.022418983
-0.009065662
0.023794942
-0.034323715
-0.030995158
0.023134924
-0.038046617
-0.004427682
0.022019291
0.018671311
0.0070198756
0.024339467
0.020443376
-0.03898799
0.009540068
-0.02821347
0.007611331
0.018132946
0.028892951
0.041208956
0.03565518
-0.010904777
0.06387148
0.006174321
-0.0073929173
-0.008139013
0.013645152
-0.029765056
-0.0012881276
-0.011176718
-0.0015142852
-0.0252686
0.06061344
0.03314886
0.013603669
-0.0052420907
-0.00584221
0.0028694582
0.009289547
-0.006361481
-0.03555772
-0.004160425
0.0048286975
0.026014425
-0.013751984
-0.011011223
-0.015361155
-0.00088732404
-0.010003891
-0.025924379
0.016918099
-0.019900147
0.049019232
0.010875889
0.0118069155
0.017138038
-0.012835172
-0.018584488
0.0189555
0.018502928
-0.021035418
-0.007612994
0.024345554
-0.024981046
0.008057515
0.0025502054
-0.03031049
-0.007750463
0.018075626
0.0047554853
0.023915287
0.04242422
0.027960846
-0.040247414
0.0011095856
0.008599601
-0.001176545
0.020476999
-0.0036288118
-0.010687297
-0.021419628
0.006086277
-0.012880888
0.00451782
-0.017516509
0.0016426238
-0.012046759
0.02490601
-0.030205641
0.005082384
0.0027550596
-0.003584029
-0.008244241
-0.014948877
-0.020674419
-0.025294095
-0.027668785
-0.0072214645
0.0037807885
0.03870957
-7.053997e-05
0.015074462
-0.004669151
-0.025917795
-0.015989415
-0.013242394
0.0074595152
0.0006280074
0.0026941183
-0.028184036
-0.024785314
-0.008269546
-0.0032341017
-0.009225351
0.0017352556
0.016733313
0.029833073
-0.03391914
-0.009751188
-0.028098619
-0.010321003
-0.008098738
-0.015454577
-0.015976937
0.020261448
-0.050901998
0.044196375
0.019512473
-0.00030262806
-0.0102607915
-0.01304509
0.018020947
-0.037406478
0.01827981
-0.012855315
-0.012020117
-0.050504368
-0.027916824
0.023821304
-0.019976037
-0.008847626
-0.03750491
0.037916627
-0.019585613
-0.0092632305
-0.032695096
-0.0057150107
0.016898256
-0.006202866
0.006874507
0.019351149
-0.017657908
0.021887986
-0.011905476
-0.01131633
0.014049398
-0.004029537
0.0061023985
-0.026604904
-0.0017576389
-0.014369641
0.014621928
0.028476195
-0.024008552
0.021386355
-0.021865172
-0.016867287
-0.051504653
-0.01961132
0.0037113966
0.045008406
0.026652204
0.015843842
-0.017087582
-0.027497135
0.005331866
-0.021606538
0.033741534
-0.007601883
-0.005214461
0.018532038
0.04511359
0.016009692
-0.017162038
0.022951258
0.028391868
-0.038025092
-0.019193184
0.014112698
-0.01522975
0.04030404
-0.025117232
0.0025001063
0.001941298
-0.018645909
-0.025582697
0.012234076
0.0032666565
0.0011008055
0.0047016894
-0.002903396
0.026655855
-0.011965986
-0.012860708
-4.1002826e-05
-0.0138547
-0.0046408707
0.0008606481
-0.025272587
0.025584828
-0.007626647
0.016902281
-0.009880671
0.00094322755
0.015279404
0.031657126
0.0072099236
-0.016224833
-0.0144595755
0.02041864
-0.026525192
0.011929859
0.009855784
0.02305557
0.017194258
0.003471458
-0.006238591
0.0058437507
0.0020503227
-0.0061452487
0.06355827
-0.0172689
0.0052492255
0.021679463
0.014001801
-0.002395009
0.02450495
0.012426487
-0.011976255
0.01813124
-0.03890248
0.013069087
0.0055420375
-0.010865719
0.013672754
-0.018979037
-0.013409854
0.016801221
0.017984198
0.0314612
-0.05181311
0.038755737
-0.008779874
-0.0014019808
-0.014545992
0.014708579
-0.017959643
-0.037842877
0.036395505
0.012018452
0.024419567
0.022156274
-0.039212734
-0.0024446428
0.010713179
-0.01164667
-0.0146881705
-0.024409847
0.032096915
-0.008689877
0.0031045452
0.006289594
-0.001672505
0.031940315
-0.005747228
0.016165001
-0.0002515035
0.014411398
0.01378471
0.007110845
0.018492758
0.02340583
-0.012225518
-0.004779298
-0.004933531
-0.03557919
-0.027888495
-0.00917807
-0.0024303666
-0.008012321
0.0018803146
0.009670774
-0.0063315276
-0.01615541
0.021243162
-0.03365742
-0.0005899932
0.00074490136
0.019725902
-0.0040654102
0.0036927394
0.020721726
-0.016898377
0.020192554
-0.030685658
0.005257896
0.012074292
-0.010057897
0.01474898
-0.007955277
-0.00478651
-0.010441475
0.018020147
-0.010928026
0.0035909787
-0.004789002
0.04266809
0.007973095
-0.012303312
0.027960062
0.046073515
0.023608092
0.0075050783
0.016972056
-0.017648973
-0.019503923
-0.050101504
0.0066253617
0.021522576
0.037174683
0.0021808692
0.027824631
0.00040771413
-0.015800457
0.02769088
0.020622935
0.01039893
0.02615176
0.0070948103
-0.02768967
0.025418494
0.00790122
0.009234203
0.018833624
-0.008019363
0.017651994
0.034669116
-0.05208465
-0.020396575
-0.0233731
-0.007477088
-0.023010029
0.013892733
-0.015546494
-0.008624506
-0.01641566
0.008043685
-0.0050756386
0.054896303
-0.0026489587
-0.009660686
-0.009719418
0.027418785
-0.026587753
0.029529806
0.03298414
0.026154622
0.030993054
0.03677482
0.013142473
-0.02328025
0.012584376
0.037173357
0.023708437
-0.01569765
-0.007394335
-0.026524838
0.011292792
-0.03285994
0.009155816
0.009841377
0.017473586
0.027947316
-0.007653958
0.0027056686
-0.014313274
-0.004212403
0.027652197
0.02086888
-0.0038877495
0.008073816
-0.012778159
-0.037746154
0.008303843
-0.01979706
-0.023727024
0.028400881
-0.017183138
-0.016156115
-2.212519e-05
0.014324888
0.0051780264
0.051116936
0.0341585
-0.008731203
0.00812821
0.004324022
-0.003671216
-0.004230866
0.0028442107
-0.018558826
-0.0011293622
-0.02502109
-0.00944188
0.0115094455
-0.007472683
-0.01102105
-0.007362033
-0.037745673
-0.012615863
0.031664625
-0.027055323
-0.008268177
-0.0031673918
-0.022336666
0.005849758
-0.018365001
-0.0045987284
0.012555379
0.019309442
-0.014954557
0.025007421
-0.0044334773
-0.000794113
-0.026771672
-0.007869133
0.01105895
0.007028667
0.0034444742
-0.0018459393
0.024389703
0.02738815
0.029115748
0.031754885
-0.038291916
-0.010366653
0.006967308
-0.029849777
0.034716293
0.008638471
0.003823862
0.012248594
0.026674874
0.015561451
-0.003789575
-0.042166557
0.012963731
0.02621696
-0.009764758
-0.016314007
-0.008877026
-0.030606147
0.007214109
-0.01682815
0.018651254
0.011239075
1.5131807e-05
-0.006907641
0.010124602
0.014818648
0.0021616393
0.017059382
5.851974e-05
0.0018671965
-0.010083879
-0.010154632
-0.0008686694
0.020267706
-0.010434598
-0.00045312455
0.011857477
0.015687369
0.02082745
0.024588946
0.02824918
0.010498508
-0.013822437
-0.0093207
0.013473998
0.009148881
0.029160544
0.00050310645
-0.0011440698
-0.0045627607
0.006336879
0.0140801165
0.011511968
-0.0015899696
-0.01185373
-0.031102465
-0.008001657
0.027700577
-0.008823438
-0.041312836
-0.014898403
-0.022806602
-0.018866237
0.018157369
0.009598823
0.008263378
0.006679233
0.0008447004
-0.021769878
0.029960861
-0.009698513
-0.008277083
0.0115048895
0.038357645
-0.005621421
-0.024566373
-0.00813759
-0.02161573
-0.012894334
-0.014420564
0.0037724036
-0.022241754
-0.0062283915
-0.004325683
0.018841013
-0.007880594
0.011245664
0.029847505
0.0039840136
0.03260349
0.030251645
0.038681906
0.026838461
-0.03360352
0.00035432924
0.0028798594
0.0051981136
0.018785344
0.0075828927
0.0035047075
0.009455659
0.011252196
0.023410741
-0.006601235
-0.013196641
-0.020921478
0.011852859
0.013389455
-0.0435185
-0.0022230875
-0.0065625515
0.0005582068
0.012883072
-0.015684344
-0.01019825
-0.0013693265
0.028604476
4.8854276e-05
-0.01787751
-0.05840063
-0.03557643
0.0131552005
0.06703424
-0.0214473
0.005327744
-0.023529824
0.0021149411
-0.009342058
-0.0275162
-0.028377363
0.026541721
-0.033132575
0.020232549
0.015630795
-0.0006498493
0.03699265
0.021802878
-0.015811678
0.027259877
0.028882839
-0.0015970743
-0.002595908
-0.005117905
0.010198372
0.012179017
-0.002748283
0.0017264214
0.0133956885
-0.0019251392
0.018113935
0.004223889
0.0039885105
0.016395403
-0.015289727
-0.0025896444
0.0380807
-0.024316644
-0.030385412
0.01230248
-0.030143842
0.00746112
-0.0384463
0.006627744
-0.011648915
0.018783811
0.022735726
0.011691231
0.01971009
-0.012472162
-0.021072783
-0.008084448
0.0005389687
-0.011272035
-0.013995315
-0.042000216
0.007260072
-0.016071029
-0.0072172787
-0.028000789
-0.0030575134
-0.007880841
0.043659776
0.0070250053
0.015715823
-0.018305521
-0.029720327
0.029246187
0.0105246045
0.023431242
0.0003149782
0.0075329803
-0.0087107625
0.021582097
-0.004257714
0.022419753
0.007273436
0.019711142
0.007700377
-0.0020345245
-0.013409006
0.0059314105
-0.018404368
-0.024556246
-0.024630668
-0.018790785
-0.00074191584
0.0037510665
-0.01926322
0.0019295807
0.03941884
-0.005820763
-0.00508946
-0.000753936
-0.032280657
0.028902808
-0.00013593321
-0.005260176
0.02803067
-0.010531557
-0.03364817
-0.032314442
0.006240076
-0.0342497
-0.044224758
-0.0025874453
-0.002705124
0.023065193
0.0061575663
0.00017674474
-0.031833608
-0.0071099997
-0.042480458
-0.012349897
0.0033028487
0.008428928
-0.0073237703
-0.0019324858
-0.0075125345
0.0103173675
0.012888718
-0.0070895734
-0.0077866367
-0.0053026346
-0.03292946
0.01066686
0.0061317156
0.00264483
-0.03780099
-0.0013099802
0.015082949
-0.01901172
-0.00039658038
0.021252856
-0.030488484
-0.018206079
0.024071882
-0.046681527
-0.01907813
0.013359506
0.002788266
-0.04065636
-0.014773946
0.024068577
-0.008006436
0.013954296
0.012180449
-0.055825252
0.036480997
0.00015744653
-0.0055265203
-0.015889844
-0.03356395
0.011318013
-0.0058540516
0.028020112
0.03796241
0.020170093
0.024573814
0.0058159004
0.02287646
0.018881194
-0.04039514
0.0022440203
-0.03132879
0.010948152
0.013077056
-0.02242372
0.023093803
0.010863361
0.013601409
-0.025716778
-0.00067201245
-0.023991115
-0.015062649
-0.025873592
0.012729015
-0.0103260325
-0.014826323
0.00821911
-0.0022637257
-0.02504044
0.0129415905
0.015846066
-0.026182787
0.016254816
-0.031693775
0.012825362
-0.028172467
0.011012263
-0.002819037
-0.00065114594
0.010313545
0.019056393
0.012006647
0.01036497
0.016336415
0.009315701
-0.021245103
0.0271074
-0.002540792
0.0058953655
0.029866572
-0.021299867
-0.0097656185
0.013373781
0.0058594174
-0.002597342
0.0060067144
-0.020918466
0.0118175745
0.005708544
0.033457946
0.016728345
0.023225227
0.010353559
0.012993238
-0.00086378783
-0.04131845
0.021529363
-0.002122514
0.03470725
0.012632587
-0.024955966
0.055797037
0.0011611084
0.0071179876
-0.013879235
-0.05378966
0.009319356
-0.011149419
-0.012463546
0.02598307
0.014544911
0.0073159537
-0.034361206
0.002761265
-0.015184694
-0.009434855
-0.019444939
-0.019689871
-0.0064520654
0.049478162
-0.0009016566
-0.008649098
-0.0035249903
-0.0014214718
0.020417618
0.029549336
-0.015007276
-0.03495465
0.0032063622
0.013504441
0.017497908
0.021030225
-0.03317868
-0.0017401127
0.015171785
-0.0060510957
-0.01681851
-0.029112091
0.022191476
0.023755856
-0.016395686
0.019891785
-0.0010124702
0.01359031
-0.011950904
-0.012500733
-0.021945596
0.0058885366
0.030334124
-0.00901024
0.0030863127
-0.0136839785
0.012382352
0.006505992
0.015999401
-0.014285046
0.032530423
0.016655546
-0.023939364
-0.019516952
-0.012816896
0.023394836
0.027250456
0.0045524836
-0.03318632
0.00087922864
-0.010679557
0.020685805
-0.0152130425
-0.01385872
-0.0052737957
0.006586441
-0.017693037
0.01872046
0.029746592
-0.0049749534
-0.013587722
0.014928024
0.017171744
0.0031784847
0.0031817667
0.0077324156
-0.017761813
-0.011789471
0.048316557
0.0005709776
0.011221603
-0.011523214
0.008473651
-0.009077444
0.010471163
0.03371891
0.0046332064
-0.024320113
0.058718257
-0.0031682067
-0.0069673806
0.02221652
0.0008284059
-0.020414747
-0.029401585
-0.033948448
0.010928959
0.031213779
-0.0042787003
0.030779472
-0.001671358
-0.02947551
-0.020676017
0.03813713
-0.012393508
-0.03828207
-0.012082843
0.017539624
0.0015847693
0.040984
0.016506225
0.03157799
0.017442577
-0.012196431
-0.042086538
0.0033455594
-0.0033199927
-0.011427166
-0.03861057
0.02623973
-0.053159706
-0.015799189
-0.0037324666
-0.0030641453
-0.0015420963
-0.011254716
0.009458669
0.013746636
0.01085916
0.016065357
0.01140237
-0.024863565
0.009657283
-0.0033829762
-0.010007994
-0.004981801
0.00606665
-7.309476e-05
0.013733009
-0.018066065
0.004363531
-0.00894078
-0.022246849
0.013570399
0.006402736
0.013713307
-0.0105899535
-0.038601723
-0.014100645
0.010017402
0.025064835
-0.009521467
0.020363862
-0.012080893
0.01817996
0.014599141
0.027253916
-0.021861523
-0.015886167
-0.005184319
-0.0076406966
-0.008383199
-0.0074084233
0.03197857
-0.0244451
-0.0072215013
0.0001214793
0.026509304
0.025223598
-0.0056272275
-0.040217657
0.0058398
-0.0035088179
-0.034868322
0.021779865
-0.0069024498
0.0060270447
-0.007364774
0.003078163
0.014338779
-0.014050234
-0.045722775
-0.0013720319
0.009355062
-0.021000106
0.007340961
0.015143698
-0.003052785
-0.025089003
-0.015627166
0.008468528
-0.012662438
-0.022532297
0.0021719995
0.012922199
0.003954947
0.038236346
0.029380133
-0.03254835
0.018274672
0.011008575
-0.011593451
-0.015790205
-0.010548961
0.0067005036
-0.0047981897
-0.0048474926
-0.020656615
0.03432571
-0.013219931
-0.003243901
-0.019004514
-0.007981547
-0.013839677
-0.022362353
-0.011271466
0.008536664
0.025100907
0.01462895
0.027412297
0.01628369
-0.008989654
-0.03009821
-0.015848812
-0.00807747
0.011920664
-0.0073131006
-0.020122604
0.020121993
-0.021423029
-0.019326728
0.02995956
0.008474588
0.0035737993
-0.020026714
-0.0025396282
-0.037477814
0.010746087
0.027507411
0.013799506
0.022001311
-0.019543499
0.01661977
-0.010901013
0.007550309
-0.00031527397
-0.033990465
0.011592122
-0.0028590425
0.01155056
0.01530156
-0.038964298
0.017159447
-0.00886006
-0.0026504535
0.0260415
0.019868484
-0.0016842113
0.015609503
-0.017866323
0.006002284
0.014880891
0.033972595
0.018961078
0.005667895
0.00061710563
-0.0052548153
-0.005217285
0.014524738
0.0001513904
-0.03370731
0.019493572
-0.00044101628
-0.013004786
0.0050897105
-0.0455525
0.013646398
-0.028980834
-0.0050140694
-0.011748983
-0.006377261
-0.009204958
0.012525464
-0.008800345
0.014753355
-0.012722693
0.026804645
0.014938321
0.0066396366
0.007709774
-0.011262095
-0.031948857
-0.019628376
-0.016108958
-0.006322089
-0.018446807
0.029651532
0.039376784
0.031731773
0.015076992
0.009879127
-0.05156596
0.01197892
-0.038910933
-0.034198657
0.010652774
0.032929383
-0.0327139
-0.014094136
-0.01594092
-0.0031462016
0.015678499
-0.012706648
0.0021560339
0.02117159
-0.0039892364
0.037295785
-0.0114825405
0.016662227
0.01820867
-0.008693201
-0.008184894
-0.009071325
-0.0070741205
0.011389434
0.019463155
0.014304815
0.0446914
0.010992989
-0.023986435
0.0031823798
-0.025679385
-0.0035112558
0.031543937
-0.015679091
-0.013716617
-0.014079549
0.021985369
-0.014061547
0.034378823
-0.045872964
-0.03383239
0.025680952
0.012402808
-0.027718442
0.02176085
-0.052767873
-0.009820452
-0.0044993493
-0.0111379605
0.005096419
0.012544076
0.03733033
0.032572795
0.00020839914
-0.006798632
-0.005150995
-0.008142863
0.03535242
0.0133244265
0.032901973
-0.0015678927
0.05740246
-0.0022943676
-0.0046131695
0.025677048
0.009365677
0.01201292
-0.000717451
0.016797943
0.028564133
-0.022006413
0.018061137
0.032730937
0.02398851
-0.02421095
-0.0107659865
0.017062733
0.013006306
0.02639211
0.01807132
0.0057809562
-0.018319217
0.022154547
-0.016519774
-0.015278394
-0.02561702
-0.007927708
0.014840039
-0.0061117806
-0.004334204
0.022441234
-0.018271767
-0.010901768
0.021013213
-0.02006334
-0.016962996
-0.0037313472
0.0008400531
0.014463521
0.020215686
0.011333811
-0.0040506483
0.0017893959
0.018472785
0.017747913
0.0005163333
-0.014599268
0.012888993
-0.017174559
-0.0004033421
0.015009254
-0.007734168
-0.01999734
0.011883658
-0.026332371
0.0006078572
0.012367278
0.0056739766
0.003569851
-0.044950943
-0.019072065
8.70002e-05
-0.010004141
0.009886605
0.005272272
-0.0019863334
0.040296644
-0.011016356
0.01859401
0.002715661
-0.017901523
0.0025974726
0.047056846
0.0050602737
-0.043278966
0.035080552
-0.033424027
0.021907913
0.07182762
0.013339398
0.0049888496
-0.03854261
-0.018915217
0.03153627
0.007650006
-0.019819576
-0.0021991164
0.0019588433
-0.00731953
0.0136249345
0.0037802933
-0.023962831
-0.010863816
0.030887382
0.015098572
0.017514631
-0.012445621
-0.014166538
-0.03002384
-0.01718998
0.023738243
-0.0064915586
0.0075320625
-0.010715099
0.0102857705
0.026399741
-0.0026704646
0.025492685
-0.023722924
-0.012554129
-0.007985088
0.022212142
0.0231675
-0.008707483
-0.01339278
0.049521394
-0.012225002
0.008486521
-0.0019726108
0.010252213
0.01043738
0.0042514442
-0.033128392
-0.036386512
-0.030206325
0.007463397
0.01836829
-0.006575664
0.016793488
0.0053023947
0.035922904
5.1164527e-05
-0.006336917
-0.013615251
0.013417037
-0.004305822
-0.025493454
0.010878959
-0.028220786
-0.01712401
-0.011603002
0.024440335
0.0025871652
0.046725247
0.0137214465
-0.011124911
0.0016944009
-0.026882946
0.022699088
0.01169937
-0.011571655
-0.02025598
0.013389981
0.020163914
-0.00667912
-0.028843466
0.0044262395
0.010701776
-0.023464147
-0.011972759
0.02277945
-0.016148962
0.0009864835
-0.010256159
0.018352227
-0.031882968
0.021045694
0.016271606
0.008553466
-0.01328231
-0.0064910357
0.035362747
-0.012072931
-0.003013901
0.018891368
0.008559282
0.00082500314
-0.00018932228
-0.021473767
-0.00218488
0.01974744
0.0008861666
-0.01979425
0.045628894
0.0541308
-0.008805313
0.0347372
-0.01838028
-0.003954366
0.025771005
0.029334178
0.017225986
0.007419389
-0.03791744
0.0015281045
0.0010275266
0.023446415
-0.003435909
-0.023042485
-0.044205237
0.016570453
-0.0050240383
-0.016527273
0.027572202
0.02104929
0.0064597907
0.011708223
-0.037721194
-0.01806259
0.019101944
-0.029396823
0.017326888
0.016456254
-0.049415182
0.03803408
-0.034111775
0.029294495
0.015904944
0.005205804
-0.0015735562
-0.030533498
-0.00431736
0.0035885642
-0.05340258
-0.004046329
0.022533689
-0.015736165
-0.0051922384
0.01225048
0.011893508
0.018973975
0.008256643
0.025854385
-0.018708099
0.025474882
0.0003867672
-0.010392334
-0.01768714
-0.005500264
-0.037466496
-0.007890745
0.01763922
-0.026416011
0.035232283
0.051450416
-0.011194753
0.0029660994
0.023975087
-0.020685904
-0.0058181738
0.023469342
-0.0030948955
0.0053323484
-0.04695675
-0.003209277
-0.021418648
-0.0015687947
0.017814709
0.004373846
0.0016650247
-0.0042271907
-0.011767934
0.012531158
-0.023133315
0.037932344
-0.06552422
-0.026245844
-0.0121578295
-0.013198785
-0.007023386
0.0020006362
0.011025469
0.026130116
0.020207401
-0.008717365
0.0003849326
-0.041585196
-0.0053996104
0.014000075
0.009684614
0.022960568
0.023203911
0.020101046
-0.006272129
0.004311357
-0.03671406
-0.021777198
0.013388873
0.0025762708
0.013061613
-0.028382286
-0.014792051
-0.026596105
-0.028573422
-0.011526408
0.0056713396
-0.01041919
0.012325156
-0.008052435
-0.014659351
0.026029093
-0.047641054
0.024762465
-0.01676642
-0.01637395
-0.026392248
0.028218059
0.016962474
0.021339102
0.008297025
-0.023174841
-0.010285719
0.00084758154
0.01185024
0.004239425
-0.0390678
0.017314486
-0.024200587
-0.01153365
-0.0052240873
0.030966898
-0.052827198
0.024390893
0.016970601
-0.021449305
0.0061487365
0.00400147
0.0038370534
-0.026407443
0.009589809
-0.013238111
-0.03643925
-0.020268936
-0.07497167
-0.011429944
0.016819663
0.017965619
-0.0698377
-0.01133407
-0.021811461
0.008113386
-0.047477707
-0.018499786
-0.01347252
-0.0022632326
-0.008309891
-0.003101202
-0.013772907
-0.0044713914
-0.021700332
-0.021535425
0.008783278
0.004127949
0.00617428
0.041684784
-0.004846924
-0.030010896
-0.016931903
0.022845944
-0.017715577
-0.007853487
0.0050741397
0.023953656
0.03458746
-0.01274401
0.0020735622
-0.001085234
-0.022182314
-0.0077812728
0.020422323
-0.016773986
-0.004163871
-0.021028904
0.028065175
-0.010179623
-0.0045490516
-0.00040039394
0.006500389
-0.01780309
0.022697153
-0.0034491925
-0.017523523
0.024041107
-0.0028316637
0.023506293
0.0033892184
-0.027856784
-0.0109553095
-0.026108142
0.059729442
-0.010128898
0.01040577
-0.021233078
0.02680915
-0.039514694
-0.011965118
0.00362357
0.015139891
-0.02895526
0.010790309
0.018939476
-0.0218001
-0.06265448
-0.016465766
0.023581306
0.021334613
-0.0038072716
0.015329252
0.020323304
-0.014417296
0.004166365
-0.02078747
-0.0020089322
0.02876804
-0.0018193425
0.00437306
0.0030559248
0.03131169
0.007968786
0.028163413
0.018575046
0.023978516
0.011437826
0.017285597
0.046752308
0.02284004
0.021407323
0.007830749
-0.0034093114
0.03141473
-0.016874028
-0.004460113
-0.010140336
0.012268182
-0.008798865
0.044164475
-0.017394057
0.032844532
0.031841632
0.02378331
-0.027311798
0.004341897
-0.00849868
0.009787364
-0.025722507
-0.0028957236
0.018559631
-0.0053829663
-0.02154351
-0.020456731
-0.030352103
-0.016595384
-0.028782537
-0.020924103
0.020302689
-0.0016943966
-0.032689657
0.007271453
-0.0041868226
0.010994551
-0.020142376
-0.03605738
0.017795349
-0.0007998429
0.013946717
0.01852646
-0.011729564
-0.011976398
0.00123048
-0.004395723
0.010100203
0.008943435
0.0050665443
0.005842339
-0.020732097
-0.006050079
0.018142678
-0.021653993
-0.046846874
0.016103478
0.023886118
0.039419837
0.030926587
-0.008496926
-0.009323462
0.0086501185
-0.021471221
-0.0047983034
-0.018839294
0.010714624
0.0029695972
0.0049537197
0.02337472
0.012475742
-0.0019982273
0.0025086622
-0.015879136
0.007913361
-0.019450165
-0.0008718383
0.030775895
0.018037628
-0.03879679
-0.005178013
0.022268703
-0.009123476
0.015173372
-0.0048778905
0.0031764081
-0.020936644
-0.010139812
-0.010450104
-0.0005042826
0.0021747632
0.014024481
-0.011328024
0.026892113
-0.006525854
-0.015994055
0.011227878
0.004443409
0.009184101
0.003950861
-0.008525637
-0.028278228
-0.022654451
-0.012327084
-0.0034005227
-0.003408261
-0.04571479
-0.010165487
-0.01726275
-0.0010763815
-0.024221925
-5.6489913e-05
-0.010683359
0.008278746
-0.007556411
-0.0048550894
0.023676882
0.0026113496
-0.0036924868
-0.0072790007
-0.042112406
0.025801446
0.018771844
-0.031753078
0.028866705
-0.006459586
0.026249751
0.024089824
0.0010007797
-0.030993393
0.002310289
0.00569313
-0.030082926
-0.024076004
-0.022065312
0.02381142
-0.014039604
-0.0077405004
-0.0063097337
-0.013545996
0.009680391
0.0065405625
-0.030899888
-0.002809441
-0.023873108
0.014249682
-0.008075958
0.0061421464
-0.0072747795
-0.01718287
-0.032167904
-0.003149421
0.0017384602
-0.018012932
-0.006567754
-0.015981711
0.0011932099
-0.0026704334
-0.021349296
-0.01599017
-0.016038796
0.009801913
0.031777244
0.023659842
-0.00969153
-0.00012679872
0.032840274
0.015610214
0.05269771
0.005629534
-0.002504106
-0.025596742
0.037381444
0.01652929
0.026511947
0.031691197
-0.00064876763
0.0077153444
0.012271487
0.024844276
0.03687287
0.008170911
0.014749025
-0.0048207566
0.016363436
0.0022849438
-0.01653953
-0.023000149
-0.0071742265
0.0019641272
0.038939368
0.017989837
-0.005700802
-0.03059254
0.010448804
0.022820724
-0.0030112027
0.025356038
0.0051161936
-0.01678912
-0.018569326
-0.003617653
0.009651373
0.011635614
-0.016252175
-0.073372416
0.00042168278
-0.00076570857
-0.011579927
0.05242916
0.017535985
-0.0089810435
0.021110002
0.0125528285
-0.029423736
-0.0022897054
0.011905563
-0.016144583
0.02153912
0.0037960703
0.02131987
-0.0069963066
-0.024320295
0.0058800676
-0.01148765
0.06804943
-0.02420401
0.0027936958
-0.044645395
0.018290726
-0.0033102024
-0.0073999763
-0.01987631
-0.00677854
-0.023429466
0.012536095
-0.015354946
0.045211423
0.023194961
-0.002113784
-0.025533266
0.02394667
-2.9703802e-05
0.043408494
0.006553246
-0.012630327
0.0135747045
0.018761683
0.021031987
0.017954221
-0.022995174
0.016334679
0.011425211
-0.054245967
0.008722337
0.023309307
0.002081841
-0.022441499
0.0017679092
0.024562025
0.022178499
0.030677976
-0.03922252
0.011949931
-0.025179645
0.008573807
-0.0082386
-0.0075596273
0.0074744974
-0.004894489
0.02276251
-0.0036692445
0.002979379
-0.005959628
0.012357288
-0.04331567
0.00018927548
0.0037497224
0.0016602171
0.048797566
0.007887
-0.002172153
0.014221205
-0.008419644
-0.02790372
0.008746349
0.02306804
-0.008247419
0.0041347
-0.027860131
-0.017469708
0.0031088945
0.0021733777
0.015228405
0.0044176443
0.014888591
-0.0128087215
-0.020828336
-0.013024554
-0.057157177
-0.00786763
-6.9382186e-05
0.0054191733
0.0033816812
-0.010220214
-0.00029469238
-0.020184057
-0.0027961489
-0.010287265
-0.014647097
-0.019565111
0.0040562195
0.009454009
0.0049450193
-0.006522134
0.010262749
-0.010505085
-0.012936804
0.008092805
-0.023914302
-0.020893153
-0.0054513514
0.01742654
0.0068787467
0.015994493
-0.004827428
0.007237128
0.011298205
0.02062572
0.037526917
0.016432118
0.013993559
-0.01623605
-0.024709422
0.010844292
0.0047883643
0.013305609
0.010471719
-0.005243588
-0.0044328705
-0.0027917263
0.03336152
-0.017170887
-0.02365658
0.031391762
-0.02042888
0.014579471
-0.022675594
-0.015248326
-0.011617639
-0.007872461
0.02124083
-0.01260408
-0.00067018793
-0.038242754
0.048809227
0.009048499
-0.025760233
-0.009033061
-0.0034367228
-0.0027516882
0.0022966038
0.022009594
0.0069437334
0.017268158
-0.0023066907
-0.018361779
-0.003087976
-0.011156523
0.005614518
-0.009928139
-0.016141884
-0.02203402
0.011110638
0.0087295165
-0.017094124
-0.003371224
-0.007213995
0.014047152
0.013011598
-0.014537132
0.02225997
-0.008337819
0.022907164
0.009763048
-0.008283214
-0.019409584
-0.0054493407
0.0006196474
0.021873297
-0.023123844
0.022155194
-0.014304835
-0.0208957
-0.016145088
0.021239864
-0.001243508
0.0152577385
-0.020817308
0.02804883
0.00247106
0.028131427
0.028029522
0.04311848
0.0123005435
0.032893855
-0.0011254075
0.0014216634
0.008174031
0.0107397325
-0.00010162694
0.012599235
-0.03332632
0.017877556
-0.011356403
0.018217439
-0.008500415
0.013942498
0.013888503
-0.017903198
0.010675437
-0.006205331
-0.040510647
-0.043716744
0.048186276
-0.020404594
-0.018413737
0.0013304882
-0.0016172301
-0.01030755
-0.017859267
0.0015690798
0.04374017
0.0047461228
0.0036276309
-0.0062936153
-0.02966662
0.042692397
0.00414271
-0.03470527
-0.016393237
-0.03639897
-0.00428303
-0.049374778
-0.0057943175
-0.012145385
-0.016458264
0.0030367984
0.031288482
0.0064535267
0.021894054
0.0373512
-0.013413941
-0.0022733773
0.0033359113
0.024112705
0.025166597
0.0061899307
0.02190047
0.0133885695
-0.007038977
-0.019719247
-0.005876607
-0.003829719
-0.021867612
-0.009958823
-0.012571095
0.008480213
0.0032768883
0.02197876
0.0016462523
0.02109077
-0.0046189884
0.021356642
0.010978222
0.00964104
-0.0098537095
0.033111528
-0.0049610273
0.01250514
0.005556988
-0.007427589
-0.011026945
-0.029787427
-0.0069118636
-0.0022198546
-0.015487211
0.011420452
-0.0045676273
0.013839787
0.0014502899
-0.00745535
-0.0100829145
-0.029875692
0.025455322
0.048489954
0.012885717
-0.023024837
-0.02744334
-0.032126755
-0.025393864
-0.009136372
-0.017740048
-0.0057261935
0.0042816517
0.002942985
-0.0118039595
-0.02434292
0.041958712
-0.01098902
0.0034013267
-0.03801452
0.009290221
-0.029068248
-0.04265474
0.030947994
-0.025965683
0.011224675
0.027224265
-0.0045856037
0.03085675
0.020998823
-0.0058255577
0.0043712873
-0.008273673
0.005285781
0.02606626
0.0036997246
-0.017310098
-0.008924915
-0.052861575
0.00034335046
0.014945435
-0.0020530173
-0.0056210863
0.0026491862
-0.029188922
0.0123385545
-0.015282744
-0.0071647023
0.022716394
0.023653017
0.009752861
0.02438429
-0.02795911
0.016671326
-0.0046758787
0.014286737
0.008648252
0.036938343
-0.003694661
0.017974718
-0.017369796
-0.006874524
-0.010749073
-0.0049855537
-0.0065094004
0.01900967
-0.0088148415
-0.028609151
-0.0059035704
0.010198668
0.035091132
0.034457263
-0.004201148
0.041992854
-0.022433897
0.026672266
-0.026060592
0.01343752
-0.012318991
-0.020711847
-0.003473908
-0.014221517
-0.009281597
0.0042915163
-0.020348584
0.004698739
0.018883167
0.012650828
0.00591964
-0.052792087
-0.058077123
-0.0255416
0.018455641
-0.019415736
-0.024198111
0.00016995652
0.0003598001
-0.0055954424
0.01710662
0.022897001
0.032525267
-0.00993255
-0.025486728
-0.0032579922
-0.037417863
-0.024204547
-0.020324493
-0.014012955
-0.015853329
0.003570841
0.03064429
-0.006629268
-0.010060294
0.0032680903
0.005718199
-0.029928999
0.022658145
-0.018264387
0.018663015
-0.011204488
-0.03932201
0.01695047
0.00609955
0.024645967
0.0024271081
-0.012743705
-0.014200389
-0.02724161
-0.008119944
0.0031363582
-0.026786016
0.007024982
-0.028356953
-0.026178585
-0.02325413
-0.024025805
0.012464043
0.012553715
-0.021184422
-0.0072654393
0.007246801
0.031060545
-0.021782083
-0.027270397
-0.031443503
-0.017163325
0.014879416
0.029399076
-0.023819577
-0.0010125993
0.0014114956
0.0064328634
0.028901884
0.034381296
0.00010432905
-0.03877599
0.014217926
0.0057324735
-0.032709554
-0.013711534
-0.0297492
0.0040925727
-0.008705909
0.013432368
0.04371728
-0.0049178447
-0.011441861
0.015759736
-0.0021873675
-0.0034073764
-0.021614578
0.0050882343
-0.0048169526
0.0049922583
-0.016563006
0.012149487
-0.007831821
0.025831647
0.01119786
0.005194968
0.021232307
-0.017799748
-0.0024218946
-0.024768777
-0.030995326
-0.00011442572
-0.019868989
0.001227221
-0.011189665
0.025367033
0.007660477
0.018591475
0.005368224
0.003808669
0.011033869
-0.0011692968
0.00986603
-0.0051203296
-0.017865991
0.005459315
-0.0073347096
0.0123631805
0.017863655
-0.0038057773
-0.0059124725
0.010537055
0.0028118952
-0.0060437312
-0.027955452
-0.026811918
-0.015402667
-0.006638653
-0.015827952
0.0017611685
-0.015312284
0.0215777
-0.009625965
0.00046569036
0.032686274
0.016324608
-0.0139104435
-0.013095667
0.006470281
-0.008162347
-0.009304615
0.030404687
-0.032796293
-0.0012862934
0.006849278
-0.0042233826
-0.004307981
-0.013247482
0.021282878
0.01781371
0.011442264
-0.012421024
-0.010046189
-0.028303513
-0.023056304
-0.013581226
0.02486934
0.010712053
0.01713097
0.012787505
0.026575157
0.014641952
-0.013157955
0.031282343
0.0054117637
-0.0059839496
0.019923598
-0.014405886
0.030232197
-0.035812993
-0.044507433
-0.00049783464
-0.00084704184
0.00805859
-0.005892689
-0.02203077
-0.01011313
0.015897572
0.012628033
0.018562825
-0.03817321
0.017383672
0.0313637
-0.013246219
0.001201503
-0.0109149795
-0.027973637
-0.014019197
-0.011124798
-0.03723839
-0.038270522
-0.016635854
-0.0052878135
0.017596006
0.025982287
-0.02055516
0.0062310523
-0.0086117955
-0.010656209
-0.03386903
-0.013484925
-0.015116917
-0.028973497
-0.0023831106
-0.012956147
0.006848677
0.009464047
-0.0017272965
-0.010650278
-0.004153143
-0.039365392
-0.021799967
0.023901463
0.0055304966
-0.020099772
0.026365958
-0.0031662758
0.00064014416
-0.0033608573
-0.014304434
-0.018618276
0.013963916
0.004488629
0.0231004
-0.012671661
-0.02032013
0.034290034
0.0023934036
0.0024827137
-0.0019529134
0.011860028
0.0062334486
-0.0038465916
0.0019560552
0.017361159
0.00074479025
-0.027282385
0.006406275
0.041986264
-0.011615312
-0.03974457
0.023556165
0.0038300809
0.021118464
-0.04301783
-0.0018726152
0.0019422469
-0.034853403
0.002790714
-0.013479361
0.0020668963
0.011184279
-0.011702244
-0.0023712718
-0.010527281
-0.019289272
-0.02872704
-0.027156057
0.0056098043
0.00057230424
-0.013762253
-0.0018204121
-0.025620865
-0.008326228
-0.002332639
-0.046691682
0.020020504
-0.026136613
-0.035147045
-0.023877501
0.040229224
-0.0086326655
0.028956745
-9.573681e-05
0.013546343
0.019143466
-0.011603722
-0.010097854
0.0076990514
0.00032752956
0.029232966
-0.025466047
-0.020246992
0.013050947
-0.005531809
0.030767733
-0.04048114
0.0370211
0.010336129
-0.037633732
0.024488613
0.005615686
-0.014280973
-0.008067956
0.030691812
-0.025960786
0.03049042
0.0018893861
0.01575143
-0.02599894
0.008871056
-0.016481483
0.02832325
-0.034211226
0.010234539
0.008327048
-0.0050948164
-0.027346589
0.02290587
0.00014054023
-0.008814042
0.04179695
0.023544712
0.013402349
0.010372244
0.0209143
0.02185764
-0.010296609
-0.03501646
0.0018558156
0.0008491699
-0.006520804
-0.008922225
-0.005373896
-0.00933645
-0.020600379
-0.0028286683
0.0038691324
-0.02936113
-0.023365753
-0.027268335
0.04492602
0.02187035
0.024659181
0.00771218
-0.009000091
0.022954524
-0.0035622467
-0.004698253
0.030281765
0.061216097
0.014378988
0.030846538
-0.003709197
-0.016727442
0.021899594
0.02871677
0.01212592
-0.022776091
0.0129205175
0.026116159
0.020245623
0.015691178
0.034752693
-0.016425027
0.008491796
0.0057042395
-0.017684715
-0.022337249
0.03260859
0.0188322
0.011429473
9.0602625e-06
0.008971592
0.011715495
-0.008173957
-0.0031042178
0.0546637
-0.012126915
0.003962051
-0.0136618065
0.016759885
-0.02036142
-0.020616118
0.030706111
0.0029007876
-5.813941e-05
0.024712251
-0.0306159
-0.004819293
0.002822541
-0.010629199
0.012773395
0.02428658
0.011469826
0.028429693
-0.02004673
-0.042118106
-0.046067636
-0.034516938
-0.0024507777
-0.007730087
0.019767048
-0.020900898
-0.0031901214
0.017240228
0.0049136854
-0.021403085
-0.010746364
-0.0134752225
-0.028902201
0.008416635
0.005573543
0.0050194585
-0.0250796
-0.0009645139
-0.0036679134
-0.0071145585
-0.0083051585
0.003669326
-0.005996124
-0.010181212
-0.0013529338
0.009220612
-0.021467524
0.024985028
-0.0032992135
-0.046999443
-0.012114811
0.044789486
-0.0003035614
0.0047828523
0.006740449
0.006371053
-0.009103558
0.048070747
-0.008788532
-0.009215278
-0.0032541193
-0.032453492
0.02295421
-0.0106496895
0.028605824
-0.013926919
0.03219203
0.013839632
-0.0345269
-0.039526086
0.05427214
-0.0014505362
-0.0011548384
0.006264856
0.0015061984
-0.015645774
-4.811052e-05
-0.006507191
-0.02659768
-0.025551438
-0.014919962
0.0025653034
0.034872327
-0.0017122218
-0.030807866
-0.021518404
-0.0006226114
0.026151292
0.015340077
-0.020063967
0.011006013
-0.0073374235
-0.058176115
-0.006762818
-0.0026558782
-0.015311729
-0.005503861
-0.016843325
0.015588004
-0.010242216
-0.012642607
-0.018787
0.028035518
0.007554117
-0.012754475
-0.013934432
-0.012325252
-0.02146421
-0.0005512099
-0.032962885
-0.015828375
0.0017050403
-0.0015278291
-0.035623357
0.005419587
0.0012321558
0.0066206497
-0.02518791
0.031366732
0.016030751
-0.0116347475
0.0068606245
-0.038085714
-0.0030299162
0.007329879
-0.019111527
-0.013083909
0.027573034
0.004592211
0.0022915609
0.013612727
-0.0140107125
0.045537055
0.0042689666
0.009740831
0.03384711
0.0022682066
-0.019361606
0.024281817
-0.008627749
0.0041787694
-0.04677093
0.019249162
0.0035537386
-0.008547917
0.0032596167
-0.019881511
-0.019896558
-0.0073812446
-0.017353134
0.026758395
-0.0021376666
-0.005765813
-0.0058723125
0.001526443
0.021607954
0.006943149
0.017865216
0.0054815565
0.024613308
-0.03590093
0.025521886
-0.04393389
-0.008050749
0.01246503
0.00047504762
-0.0010547481
0.015896896
0.021194773
0.02067743
0.019994983
0.020939669
-0.0010616885
0.021762865
-0.030779677
0.027484367
-0.005613992
-0.03163606
-0.013002083
-0.034012366
0.009049704
-0.014010031
-0.014037275
0.012607523
0.0039330604
-0.017060233
-0.0042652786
0.02975535
0.024922958
-0.015019648
0.026966356
0.0010960194
-0.0095764175
0.0039342633
-0.0071405643
-0.03765342
-0.00091102725
-0.034038473
-0.0101209795
0.022369852
-0.0020818987
-0.0026014121
-0.05574233
-0.022209618
0.032442536
-0.005689318
-0.00030191487
0.029091623
-0.002224707
-0.018338436
-0.009558976
-0.008173684
-0.016770188
0.004534428
0.024760325
0.020944366
-0.025860516
0.03673585
-0.014299117
-0.036340173
-0.016090332
-0.015482691
0.021678092
0.034714784
-0.023583548
0.014469032
0.022260478
0.013404128
0.0079101445
-0.017385477
0.004488551
0.04524185
0.022415966
-0.0034848067
0.004598218
0.0068649896
-0.00034666067
0.014102281
-0.033762783
0.018436696
0.019545631
-0.016592877
-0.0071086343
0.037517406
0.00860536
-0.0035967035
-0.0012305537
-0.0059697293
0.014614955
-0.008625652
-0.031550728
-0.0022371053
-0.006258525
-0.005876455
-0.014103707
-0.009426575
0.007971829
-0.0112433415
-0.01848039
-0.021252004
-0.004053721
0.025171837
0.0026424157
0.018722862
-0.015932972
-0.030827336
0.013786964
0.042893875
-0.0041148183
0.007284657
0.00055721076
0.011150009
0.02636324
0.03407295
-0.011715068
0.014966433
0.013957506
0.008478707
-0.030526314
-0.016367167
-0.011744852
-0.016754726
-0.005243504
-0.01673579
0.019568812
-0.025453793
-0.013692475
-0.028122699
0.00025018788
0.009912591
-0.0019319531
0.01755395
0.04614369
0.012388294
-0.012889049
0.020346386
-0.015880805
0.009212575
-0.01666784
0.02843062
0.024864027
-0.016651992
0.0067537795
-0.013225645
0.0025152722
-0.054215144
0.049099192
-0.0027662455
0.014269856
0.010916315
-0.0007871935
0.012554371
-0.0136633525
0.026565325
0.005388363
0.003703196
0.0222687
0.019667892
-0.021067755
0.03227712
0.031346515
-0.029331153
-0.008463563
0.050078556
0.002774806
0.016294496
-0.0018220316
-0.002112221
-0.0031557179
-0.008391798
0.001047118
-0.015857073
-0.019373054
0.007815111
-0.009514705
-0.01633951
-0.031834923
0.005290983
0.014375606
0.025297496
-0.035184022
0.006343397
0.025221398
-0.038395643
-0.027144173
0.02153401
0.00077032915
-0.023800274
-0.022597058
0.00040082008
0.032368124
-0.011163859
-0.008095658
-0.00718455
0.0076794443
-0.02874671
-0.016826121
0.0094713215
0.009422114
-0.01805002
-0.0025147428
-0.015692681
-0.009704207
0.013100741
0.021267733
-0.0071635484
-0.009604731
0.012515746
8.829362e-05
0.0019008411
-0.0027118137
0.0071056834
0.019302458
0.004240845
0.035009578
0.027649231
0.00974275
-0.013238994
-0.022160683
-0.0007246052
-0.011981364
-0.01922449
-0.030421387
-0.0028780496
-0.039099373
-0.0040309783
-0.017998625
-0.01564116
-0.008641343
-0.0014446318
0.0078681605
0.017707467
0.033952557
-0.007945928
-0.0047922325
0.0022165088
0.036627017
0.018003944
0.04337572
-0.019056017
-0.02363196
0.0021692342
-0.008800355
0.026792668
0.033778146
-0.0010435564
-0.024492482
0.0024831314
0.00055966724
-0.025415199
0.042280473
-0.021376878
0.03266872
0.017877134
0.009954943
-0.00859624
0.0131322965
0.0120178545
0.02801133
0.007777912
-0.0036657013
0.028542327
0.012515726
-0.007738233
0.021694243
0.022913039
-0.007264855
0.010741389
0.011787023
0.012072628
0.0019176219
0.0039408323
-0.009966178
0.03634008
-0.01721699
0.004793075
0.0055492264
0.0028038025
-0.010017068
-0.024283906
-0.015098404
0.016262803
-0.019142488
-0.023104493
0.0037374476
-0.007879198
-0.020839605
0.035469882
0.029321551
0.002209224
0.012498265
0.011410834
0.00967649
0.0072653983
-0.016339462
-0.03658596
-0.016047888
-0.009708105
-0.0074013365
0.032147277
0.024340212
-0.0015506968
-0.011430826
0.053611595
-0.007929449
0.014326256
0.013871923
-0.009989853
0.0023086614
0.0075982288
-0.009602683
0.0029215743
0.014099459
-0.018282764
4.3530166e-05
-0.017390288
0.03123683
0.010094842
-0.017595531
0.011138747
0.0031923621
0.0074995426
-0.028927404
-0.009196295
-0.024156615
-0.034395173
-0.04033869
-0.008452765
0.016612208
-0.00042796248
-3.6004e-05
0.0030511534
-8.2020044e-05
0.005277319
0.03255669
-0.01326634
-0.0021372112
0.0031480629
0.015265946
-0.019196551
0.018842194
0.028661782
-0.009804219
-0.024325458
0.032617178
0.00440728
-0.026045352
0.010781392
0.04276894
0.017861126
0.02538736
-0.0035090216
-0.0021417742
-0.00025811026
0.0019115808
0.0039740107
0.02453753
-0.005414304
-0.019654077
0.00586414
0.010218498
-0.01614806
0.0144411335
0.025666645
0.010953433
0.018151227
-0.027723867
0.009275045
-0.031641964
-0.0056115985
-0.02501779
0.0041106497
-0.028940279
-0.016684929
-0.01731746
-0.014327367
-0.017457074
0.023272548
0.01328998
0.020004539
0.042175043
-0.014437941
0.00044966265
0.018235803
-0.0028352619
0.010885366
0.0045966683
0.01449125
0.0033886097
-0.017958803
0.030302707
0.0010104228
0.013623718
-0.031227507
-0.043524582
0.0154860625
0.012688294
0.0147617785
-0.020265996
0.018091377
0.0026839408
-0.025564162
0.0040243147
-0.0005694453
-0.01393678
-0.004402977
-0.047743294
0.015838329
-0.025273757
-0.0038461152
0.03052579
0.036440562
0.026412658
-0.025521265
0.004941205
0.037614815
0.029185867
-0.029830987
0.032238517
-0.016555922
0.0015054763
0.006743129
0.017327508
-0.005627914
-0.017254729
0.025893332
-0.014717911
0.0060588466
-0.001460913
0.0006474374
-0.01729324
-0.0020286106
-0.008662469
0.00052156835
0.043274514
0.035574112
-0.0010682677
0.008811638
-0.019580754
-0.01795194
-0.01839301
0.022424575
-0.029284047
-0.032960925
-0.011794616
0.02040773
0.016939074
0.011711176
0.0048290635
0.027784744
-0.0389778
0.018220948
-0.016803587
-0.0021473337
0.009189954
0.0046118796
0.010105959
-0.027937185
-0.010936657
-0.032260783
-0.029773554
0.010442418
-0.007339003
0.0022469296
-0.019735442
0.028403193
-0.010926766
-0.046741508
0.019927923
0.04495233
0.003978948
-0.022787213
0.00426122
0.016846636
0.019959118
0.011021127
-0.011806188
0.0037185191
0.05939369
0.026761647
-0.0051762573
-0.00888364
0.027801044
-0.003499803
-0.0055783307
-0.0028451052
-0.002774047
-0.049608253
-0.04180558
-0.03748681
-0.013359007
0.023338174
-0.0022805687
-0.012237257
-0.028189182
-0.004177627
-0.005513249
-0.016242161
-0.023385562
-0.009054443
-0.04317301
0.00058124587
0.016839731
0.002745103
0.014030897
-0.015003585
0.032030333
-0.024858551
0.015987102
0.022765953
0.002691444
0.0042412803
-0.019426785
-0.026123364
-0.018685723
-0.02653345
-0.015629862
0.035711065
-0.009061507
0.013633771
-0.0025693811
-0.017873462
-0.028372835
0.001342393
0.024483556
0.008729611
-0.024390377
-0.00043968073
-0.0404147
-0.008226836
0.012685594
-0.00082194706
0.016706243
0.024118984
0.015514206
-0.031974614
-0.02288181
-0.009612456
0.0056936434
0.017955013
-0.0097988695
-0.022752633
0.016617822
-0.009581025
0.006191088
0.015852874
0.00030417726
0.013778395
0.02778542
0.04061588
0.007842174
0.013015406
0.020445058
-0.0069144717
-0.018842313
0.021208597
0.009314827
-0.027503666
-0.0033811687
0.0308103
-0.0025256714
-0.01792827
0.0070609245
0.0001227251
-0.0073959455
-0.03358408
0.026493933
0.03557181
-0.019017756
-0.00843632
0.030217886
0.008266783
0.014285228
-0.0104095675
0.008005135
-0.025717016
-0.029945562
-0.0054040104
0.0011516038
0.03308474
-0.021183189
0.0032892998
0.026389327
0.009528756
-0.005497098
0.010520869
0.012227188
0.011396819
-0.022936666
-0.028833546
-0.022999058
0.022399163
-0.0015569819
0.00638858
0.0033829194
-0.006139907
-0.006756029
-0.0056032166
-0.018846778
-0.01231926
0.004147303
0.012615627
-0.0070014056
0.059383284
-0.012256288
0.034075383
0.009219661
-0.011993781
-0.01733295
0.0012238558
-0.0070336293
-0.012181731
-0.003433695
0.027996503
-0.022781193
0.004065093
0.0026811953
-0.011553276
-0.021073278
-0.011924042
-0.007712643
0.0022983933
-0.009304506
0.0014748778
-0.028886423
-0.01469365
-0.019373635
-0.004453813
-0.03938289
-0.008957037
0.012360936
-0.031552546
-0.0077738976
0.037800565
0.025703875
-0.018413961
0.0018211377
-0.011975853
0.019063821
0.0075156544
0.008798461
-0.010492395
0.02025242
0.017264534
-0.023485472
-0.020758538
0.019556435
-0.0007676881
-0.023436205
-0.012529861
-0.001813276
-0.03980823
-0.006559916
-0.0026727736
0.012362451
0.014659639
-0.0004984829
-0.027356936
-0.016588219
-0.024013987
-0.012637119
-0.0006627567
0.008170235
-0.018606436
0.001168227
-0.025379805
-0.01559311
0.003739286
-0.054625396
0.022870392
-0.03446629
0.036035247
0.020537976
0.006508274
-0.015408875
0.010979333
-0.011887713
-0.016641723
0.005688535
0.035613135
0.022313
-0.0036780287
0.015707938
-0.0013098889
0.0026185778
0.013231701
-0.03336447
0.0039690677
-0.065849386
0.0069842306
-0.009077397
-0.02809614
-0.019108979
0.0072660586
-0.013973172
-0.0010904592
-0.027683092
0.009186136
0.01815376
0.015277055
-0.02261304
-0.0056142933
0.0041367114
0.020203333
-0.01192458
-0.024279246
-0.00070412416
-0.0053421482
0.0056591122
0.02980763
0.008142465
0.03825823
0.0071315723
-0.038312607
-0.015154198
-0.016520288
-0.020719605
0.011176293
0.020939212
-0.022587487
0.027152779
0.020907344
-0.009888595
0.036655635
0.04273159
-0.0032305717
0.025351899
0.014715886
0.0058629834
-0.0032852592
-0.0024586723
0.02674873
0.037642263
0.010366329
0.018321218
0.001743661
0.035666138
-0.0033369963
-0.029630426
-0.0061255414
0.025709368
-0.017911632
-0.0009350344
0.00083689427
0.009613618
0.0040936684
0.0071284613
0.008467324
0.036457825
0.0127455555
0.0008817314
-0.022467041
-0.009997729
-0.008485996
0.018699978
-0.012821098
0.006538425
-0.009646934
0.033160843
-0.021506764
-0.017677775
0.012272055
-0.006620691
-0.012939213
0.011983541
-0.03109129
-0.018660942
-0.0012497377
-0.011076231
0.028367488
0.00032241814
0.009665382
0.0214976
0.022770537
-0.035615876
0.008331253
-0.041750643
0.0045769457
-0.00011536629
0.028383365
0.0070548994
0.0068922723
0.0027862927
-0.012367752
-0.0092583615
-0.018395755
-0.003898231
-0.031927712
-0.014477411
0.029181933
-0.01572367
-0.013700219
0.015238716
0.019566478
-0.006399078
0.020318495
0.020416433
-0.0031190333
0.0018525347
-0.018148847
0.010855842
-0.005262004
-0.022098174
-0.021537432
-0.016764307
-0.020235952
0.028703095
0.014305214
-0.0011269886
0.030101089
-0.005231696
0.045585398
0.01017531
-0.02763528
-0.002371142
0.014110517
-0.0011682764
0.027952222
0.0031279423
0.02845333
0.023373486
-0.002490432
-0.007894903
0.00011467592
-0.00011036537
0.03220995
-0.0029358943
-0.034399725
-0.008834511
0.0010927995
0.0044535887
0.0091227
0.025272198
-0.0034254377
-0.007328381
0.0072670905
0.0012629399
0.002821531
0.010152574
0.0027837579
0.010082734
0.010155627
-0.011371188
0.033607688
0.038461123
0.006720821
-0.03819158
0.013633941
-0.02576327
0.02483226
-0.025800629
0.010571492
-0.026417468
0.0137008475
0.0042608636
-0.0050372425
0.0030180763
-0.0038650602
0.026622962
0.022087462
0.015132651
0.024692938
0.028736299
0.012262419
0.037079476
-0.030328268
-0.027516702
-0.01600154
0.015760642
0.011335502
-0.031105923
-0.008476247
-0.013880105
0.017033137
-0.0109836515
0.022403197
-0.026399093
-0.007882139
0.005768683
-0.032582853
-0.009256478
-0.0036765735
-0.015762886
-0.001395019
0.021361284
0.0036085497
-0.0029808271
0.009778711
0.030866941
-0.022227837
-0.01572539
0.010308604
0.050865024
-0.021625774
0.03208852
0.0063188123
0.02600166
0.0095373625
-0.041115716
0.015363625
-0.0063719307
0.0061957953
0.0036668847
-0.022968065
-0.014099386
0.039789166
0.009849386
-0.016207073
-0.0018390829
0.0005894255
-0.011797433
-0.008716755
-0.0030189445
0.019739084
0.007410384
0.0014169874
-0.038734656
0.0073386845
-0.022237804
-0.0014779909
-0.024013419
0.002979524
0.047287457
-0.036223445
-0.010421893
0.008934467
0.00039300055
0.022065643
-0.015569368
0.00069026166
-0.0038678148
0.017188521
-0.012337222
0.04635189
-0.0005597086
0.019432817
-0.01159672
-0.042631168
-0.009270763
0.046347693
0.007776359
0.0035266967
-0.020914344
0.011300406
0.022681672
0.0008179736
0.009900608
-0.016467232
0.008155372
0.01704378
0.018829457
0.016483722
0.01645006
0.014154898
-0.012006281
-0.016512403
0.016969768
0.007269788
0.012902667
0.024484595
0.022916922
0.03010044
0.013306258
-0.045304608
0.008048271
0.012097428
-0.026265895
-0.01660845
0.008988546
-0.0021097288
-0.01284146
-0.0071027926
-0.02297131
-0.021174535
0.008120319
0.012868187
0.04105684
0.013222151
-0.036556136
-0.008294913
0.011618586
0.015474884
-0.028358124
-0.019062907
0.018341715
0.012137383
-0.0151166795
0.009804295
0.014446359
0.00041016677
0.010925166
0.002613532
0.017562883
-0.005405145
-0.022513824
-0.0073825335
-0.0041270913
-0.027283637
0.0043610553
-0.013948669
-0.053428385
-0.028825227
-0.00416579
-0.0007955531
-0.019839734
0.017474083
-0.005599468
-0.011217497
0.020500321
0.02806094
-0.014008498
-0.0064267972
-0.029558966
-0.007605545
0.009634411
-0.004176007
0.008238964
-0.030303478
-0.0069368933
-0.018242279
0.00073619105
-0.0037653607
-0.008459991
0.017941613
0.0013063273
0.0054405597
0.015221147
0.00681412
-0.022521516
-0.004206243
0.00947643
0.0058785193
-0.0046956115
-0.04201442
0.020175729
-0.0224199
0.032366436
-0.014435544
-0.01619701
-0.013796317
0.030027406
0.013008476
-0.019490683
0.027818047
0.009440508
0.0058257757
0.007540214
0.030505948
-0.004053415
0.011504046
0.015281308
0.037626434
0.005896435
0.0479104
-0.027851507
-0.014665314
0.010663647
0.018700687
0.003687379
0.017390937
-0.028270368
0.024377355
-0.009380322
-0.006929215
0.014158596
0.021435767
0.02018085
0.026673883
-0.01579545
-0.0064175674
0.0063549182
-0.004887153
0.013090279
0.024751319
-0.014965834
-0.012928973
-0.0008553856
-0.012154564
-0.0030822465
0.04058419
-0.018959176
0.02884534
0.012583691
-0.0029433821
-0.010875936
0.00040587614
0.0075342897
-0.0070970966
-0.037732407
0.017828593
0.044529557
0.010833436
0.018236011
0.028750507
-0.02888473
-0.024896758
-0.035475574
0.009515242
0.007820165
-0.012344733
0.02977602
-0.021242678
0.015522767
-0.03135273
0.0010183725
0.013988857
-0.009041465
0.030145332
-0.022681594
0.010362852
0.012739157
0.045408797
-0.015078046
0.008045009
0.01221157
0.013023475
-0.0012019065
0.032170758
0.012191025
0.033613604
-0.02967517
-0.0038035323
0.00030230457
0.021819081
0.030746264
0.007768797
0.013426695
0.039424233
-0.0018942844
0.02386594
-0.017148066
-0.007949204
0.01022227
0.004702599
0.027772496
-0.031533167
-0.010579362
0.017252846
-0.021408396
0.015636312
-0.023383813
-0.023887126
-0.012841034
-0.031081269
0.00767855
7.259974e-05
0.008697353
-0.0002415348
-0.01942322
0.012134037
-0.00060989085
0.0025282016
-0.0056817685
0.01160628
-0.023728296
-0.050994933
0.013859639
0.026092734
0.012641705
0.03798624
-0.0032856066
0.026696973
-0.036045197
-0.011992817
0.021155344
-0.00071645936
0.016447213
0.02398765
-0.025244746
-0.012448419
0.037785392
0.024990963
0.003138253
0.004435815
0.008537944
-0.011443843
-0.008848492
0.032582685
-0.02235663
-0.009674466
-0.0071924576
0.014430774
-0.004788832
0.015831988
0.013121607
-0.010941742
-0.004489407
0.013620939
0.05058141
-0.023801187
-0.012183156
-0.008075895
0.006886794
0.008637904
0.01911368
0.015305085
0.022623423
0.023265237
-0.026483651
-0.02905439
0.028617969
-0.014080023
0.029178316
0.0063617323
0.016327392
0.028263604
0.0022383768
0.038615435
-0.010277736
-0.014579702
-0.0056571416
-0.012118625
-0.0063706613
-0.020700429
0.0014004831
0.009706022
-0.010998357
-0.020109948
-0.0036443423
-0.003375953
-0.034352094
0.02620592
-0.004770492
0.02473912
0.03996154
0.018593464
0.02028335
0.01816211
0.010865578
-0.04679439
0.005755878
0.033732276
-0.009092053
0.016009454
0.00079742563
-0.016559655
0.016141083
0.0054879165
-0.020296833
-0.012974697
-0.035995703
-0.02787087
-0.040779162
-0.023602027
-0.016296076
0.010712625
-0.023623712
-0.0144904135
-0.029077608
0.0026786085
0.016358498
0.005014835
-0.0060605905
-0.010250136
0.025656935
0.00837469
-0.016421078
-0.01569377
-0.0069426456
0.0026209024
0.010347607
0.0030897458
-0.031472895
0.004625258
0.016363064
-0.028333642
0.018387524
-0.021073863
-0.02706378
0.013420373
0.0062949434
0.014196099
0.0056927884
0.0168109
0.031212835
-0.014864217
-0.009709545
-0.0029418415
-0.021581607
0.039280117
0.03270105
0.012517949
0.01856468
0.008863468
0.012208587
-0.024562832
0.042820692
-0.014522572
0.009907867
-0.058201246
0.007946313
0.027154855
-0.018999577
-0.022709506
0.0127129955
-0.0023200754
-0.003751981
-0.0074536516
-0.029094007
-0.020535585
-0.007223305
0.035404924
0.012843662
-0.00996429
0.014591913
0.0016498071
0.03596118
0.006924998
0.0388687
-0.00062733627
0.010880623
-0.013659188
0.022748245
-0.024110245
-0.011848609
0.014255622
-0.029270751
-0.013214914
0.00979408
-0.025702553
0.013170316
-0.03265454
0.012884626
0.027180938
0.026642837
-0.07046803
-0.035091646
0.009512905
0.0005984881
-0.007896477
0.0118547045
0.013834725
0.0059956065
-0.017990049
-0.027658062
-0.002328275
-0.008065618
0.020388324
-0.0016276613
0.019638985
0.015665723
-0.01726177
-0.004191107
-0.0007544084
-0.0035211183
0.00438623
0.0048251455
-0.0074224845
-0.008589391
-0.028164621
-0.014728216
0.013356845
0.0019135572
-0.0025710033
-0.021275625
-0.009113096
-0.029352538
0.022823218
-0.009202575
-0.035910897
-0.013999596
-0.02094795
0.03680793
-0.012754316
0.012508577
-0.002455018
-0.011157774
-0.010647246
0.008957198
-0.0038357559
-0.036033217
0.008772907
-0.035794035
-0.0010360087
0.014658741
0.0029326582
0.0026964804
0.0009967801
0.02330831
-0.01503486
0.00022117441
0.015361442
-0.023525072
0.003108198
0.015083123
0.005211905
-0.019576779
-0.030167148
-0.0033175354
0.007858384
0.014871591
-0.01288841
0.0028485456
-0.029767847
-0.010456328
-0.026437359
-0.00012669722
0.012060184
0.0010278823
-0.007947294
0.013649081
0.013807
0.021965636
-0.0021065834
-0.001929505
-0.013644731
-0.015007769
-0.02011242
0.014035166
0.012754216
-0.012416524
-0.0041706287
0.008421347
0.012017422
0.0141393
0.00929326
0.033595555
0.032564178
-0.012213581
-0.0077683576
0.007953522
-0.011030553
0.00895875
-0.009664593
-0.033053685
-0.0193047
-0.021883382
-0.012187284
0.007521957
-0.035888728
-0.020940935
0.007111982
0.0063719004
-0.017882602
-0.0034908755
0.03603671
0.012696956
0.0067783687
0.025463797
0.0082062865
-0.017091846
0.004524879
0.026697969
-0.0048095104
0.039636493
-0.016906882
0.038195636
-0.005457736
0.009271209
-0.008733734
0.002011387
-0.023191063
0.016414901
0.027493887
0.008306045
0.028304461
0.031213261
0.020057589
0.02351869
-0.0028687697
0.0049754526
-0.020227134
-0.002310938
-0.004797968
-0.008961459
-0.002450814
0.003567355
-0.008054755
0.019457543
0.004929203
0.026101785
-0.030438561
0.0020922536
-0.008084226
0.039093487
-0.010985783
-0.0019349159
-0.0057436666
-0.0060354713
0.009624363
0.013817729
0.010711132
-0.03758945
0.019334257
0.0072685066
0.002151895
0.0046911533
0.030814376
0.014451593
0.033913992
0.044815864
0.004311878
0.01052552
0.035377324
0.0052120555
-0.015097265
0.013799119
-0.039556246
-0.017620001
-0.015502716
-0.017107977
0.0071963156
0.008353012
0.023352189
0.034042135
0.019746216
0.0132354805
-0.016871894
0.023794977
-0.0010022866
-0.005533876
-0.022501277
0.003950537
-0.022776231
0.009114206
0.023130096
0.010742261
0.01720049
0.0086589055
-0.002097158
0.00046863197
-0.0043786434
0.009143173
0.018512564
-0.0052223443
0.022353798
-0.0033058547
-0.00847536
-0.0021908637
0.005529451
0.004026006
-0.008036132
-0.0122290235
0.017355397
-0.019100493
-0.01663629
-0.007873418
0.00032035995
0.014409493
0.017612468
-0.012979401
0.0024575575
-0.02443932
-0.02719834
0.011942267
0.003794298
0.0022824972
-0.0008854903
-0.011079416
-0.025519319
0.023261048
0.018049022
0.022885362
0.0062674102
-0.0051215515
0.002874816
0.008683259
0.007893619
-0.017690415
0.009145482
0.032297254
-0.0017768615
-0.0048650587
0.00023159939
-0.037797697
-0.012990902
0.008475056
-0.023717994
-0.00031246003
-0.00430072
-0.0072097895
-0.019155754
-0.006651395
5.2113854e-05
0.0075314767
0.004977617
0.0043066787
0.022203857
0.016099669
0.0014498803
0.0019229255
0.01439176
-0.014769521
0.012421349
-0.019156005
-0.012244795
0.0007491711
-0.011323359
-0.034691144
-0.0102256425
-0.030073557
-0.03702273
0.009096184
-0.028642591
-0.01844286
-0.021589365
0.019968057
0.012153668
-0.0019505827
-0.007376227
0.017696498
0.00095735677
0.024145024
0.0056396234
0.033124983
-0.033610333
-0.00068639044
-0.016292116
-0.025179403
0.0043425425
0.019355563
-0.003138788
0.021635843
0.038718976
-0.009434842
-0.0073109227
0.0012100379
-0.004218986
-0.021804545
0.028062198
0.012147001
-0.043189175
-0.042672064
-0.027917115
-0.0008535748
0.001620544
0.0029611536
-0.010511995
0.00812293
-0.018229796
0.004150744
-0.013592809
-0.0026343998
0.008064967
0.013049985
-0.010336835
-0.013935623
-0.029294789
-0.057994675
-0.00941196
-0.024136936
-0.024049548
0.009208805
0.0059711817
-0.0035014832
0.009174884
0.03196582
0.013272886
0.0020160663
-0.01607298
0.044476226
0.04198247
0.016389271
0.03556081
0.019798117
-0.004055964
0.0134834545
-0.040905785
-0.011999567
-0.02881154
-0.01219256
-0.006856811
-0.02305711
0.008231564
-0.018751362
0.024396839
-0.012362268
0.011606741
-0.0149229
-0.009541866
-0.021130178
0.03379592
0.013243695
0.0319265
0.0006533095
-0.01649959
0.018016042
-0.0008917675
-0.011367617
-0.030401383
-0.051808707
-0.007784324
0.008915987
0.013265814
-0.022701705
0.017654072
0.0125394
0.018278496
0.03755241
-0.009885886
-0.002537637
-0.0025316179
0.01163152
0.023119383
-0.017520044
-0.025220355
-0.01058412
0.010764234
-0.010562641
-0.01617125
-0.01325581
0.0069222343
0.023543686
-0.00335936
0.007546314
0.030518774
-0.014574988
-0.017411117
0.0018835361
-0.007492966
-0.008364305
0.020170769
0.027892997
-0.00913156
0.006266685
-0.056492254
-0.02006593
-0.0017665785
-0.0018195006
-0.0071107405
0.01412741
-0.0053050667
-0.030705605
-0.0010769804
-0.033576135
0.004983557
0.018277189
-0.011920703
-0.038301058
0.00585713
-0.0152978115
0.019078666
-0.00050310977
-0.016594639
-0.012309621
0.0021007294
0.007443494
-0.006286024
-0.0028827032
0.00083091337
0.033813164
-0.02495093
-0.019073077
0.007898698
-0.017469244
-0.019726723
0.03141839
-0.019232117
0.019735478
-0.0005830516
0.0006559292
0.010016689
0.024670755
-0.01152482
0.019355062
-0.0694903
-0.0007020699
0.077305466
0.023996841
-0.002609046
0.019953825
-0.031683866
0.0017960883
-0.011572702
0.035300817
-0.014845997
-0.028993865
-0.0019446032
0.023694247
-0.030707046
-0.013536119
0.008413574
0.00638985
0.034203734
-0.0035747536
0.012810867
0.012062339
0.036436744
-0.04787084
0.046886742
-0.01951258
0.006623024
0.017246168
-0.013256781
0.0055112955
-0.0060913414
0.004200296
0.009509142
-0.0049108444
-0.008873085
-0.014231496
0.0060113184
0.023718381
0.04508703
-0.033112872
-0.007249918
-0.034474857
-0.018980714
-0.003030032
-0.013135456
0.0073903725
-0.011603858
0.017727504
0.017352005
-0.020736715
0.016347477
-0.02477768
0.017670048
-0.01795669
-0.005461673
0.0029517817
0.004275034
0.030605454
-0.031136135
-0.028619504
0.020423226
0.0066575324
-0.026376138
-0.0058554844
-0.0027680604
-0.0029280623
0.008601018
0.01747191
-0.026752824
0.016085245
0.0050309002
0.0065220096
0.01714315
0.03236056
0.00549901
0.0011501464
0.0008241204
0.0027153771
-0.012127371
-0.009492067
0.008260388
-0.035605546
-0.029064288
0.0005035735
0.033450287
0.011183767
0.026800279
0.00983891
0.0002530561
-0.019360686
-0.028771248
0.017169
-0.013334453
0.0020819334
-0.030898554
0.009045154
-0.0009785002
0.034363355
-0.035922747
0.011478475
0.0006593157
-0.020582613
0.014965748
-0.007268937
-0.017518857
-0.0033105265
-0.021307487
-0.0016407368
0.043296684
0.020030364
-0.0037912775
0.023084147
0.0034236785
-3.413181e-05
-0.020855524
0.012438148
0.056337133
0.0065243137
0.008139846
0.019567568
0.0020271984
-0.031841796
-0.015827648
-0.007721197
-0.0016224916
0.0031886052
0.00207982
0.015022364
0.032082275
-0.00017670769
-0.0114699695
-0.022334255
0.028468303
-0.006391324
-0.017245641
-0.05051044
0.013262908
-0.016283726
-0.010523023
0.009732763
0.019552123
-0.04185989
0.014464472
0.0008636806
0.014927743
0.00476289
-0.0104939295
0.029663606
0.015910255
0.0053599314
0.00023176221
-0.0070276186
-0.004441443
-0.026487514
0.008795485
0.006485606
-0.0104090525
-0.019933907
-0.0031232783
-0.009854648
0.014442119
-0.005687825
-0.010878096
0.0012298513
0.0143007515
-0.02915582
-0.011624454
0.00103389
0.019987723
0.018800415
0.0073267953
0.030573785
-0.040189996
0.020691995
0.034975845
0.030946027
-0.006484792
0.01991974
-0.029209012
-0.0027777734
-0.010362235
-0.0136239445
-0.01751645
0.037273202
-0.012974588
0.02130087
0.033271216
-0.014294493
-0.025538769
-0.020530488
-0.01492371
0.012644369
-0.012621928
-0.036104262
-0.0079037035
-0.033544373
0.015214982
-0.014458184
-0.018994974
0.030362941
-0.009761316
0.0012306406
-0.0033602302
0.008371994
0.015614342
0.034218743
0.0004774613
-0.00043030048
-0.021448595
-0.0187203
-0.014083347
-0.03805083
-0.02094928
0.015685892
-0.028253773
0.013400774
0.012276489
-0.026662486
-0.0082062045
-0.009040794
0.00056587014
0.022945838
0.0019772598
-0.012786966
0.011641022
-0.02541697
-0.003746004
0.0067725317
0.029749276
0.0018636794
-0.052721117
-0.015181801
0.007915561
0.04215454
0.03009005
0.033603065
0.016500084
0.03495232
-0.027287256
-0.020767327
0.026949527
0.005721933
-0.0071778055
0.018348971
-0.013603572
0.01723428
0.0076022297
-0.009205849
-0.014850957
0.0053854887
-0.0021683348
-0.02466857
0.0008997884
-0.011356228
-0.011610866
-0.010852437
0.010932162
-0.03881475
0.0034708031
-0.0061562243
0.0035939564
-0.03765381
-0.0096473815
0.011782085
-0.0038606056
-0.00044425938
0.00665504
0.042315736
-0.005354192
-0.010767525
0.010036583
-0.017875344
0.03419854
-0.0063014417
0.0025699057
-0.005664583
-0.00577981
0.020295331
0.012751776
0.005536255
0.03488791
-0.017896632
0.013207296
-0.044678032
-0.03572333
-0.028565954
-0.02892722
0.022806875
0.018493325
-0.024280556
0.03201975
0.033403404
0.028446674
0.015403221
-0.005382647
0.04779365
0.019570095
-0.0019135744
0.01246949
-0.0062591615
0.0075428733
-0.024167577
0.0003290328
0.0044907746
0.010211402
0.0097822
-0.003808989
-0.033121526
-0.013274093
-0.002133892
0.018997498
0.011721474
-0.02745383
-0.0029250144
-0.038891256
0.01204851
-0.021472408
0.010782829
0.0282587
0.044097017
0.037818927
-0.0047537955
0.0127854915
0.04385077
0.0006237362
0.022173017
0.030424753
0.0004449337
0.0147662
0.02471276
0.0053286133
0.0026090806
0.016424954
-0.013345685
-0.0052358615
-0.021994056
0.02155374
0.0052044345
-0.012616851
0.04125066
-0.019255832
-0.017062409
-0.02659374
-0.021315966
-0.037500978
0.016566003
-0.021572398
0.014450161
-0.016536923
0.028229829
-0.013961726
-0.0040523694
-0.00030960515
0.009713024
-0.027895361
-0.011510419
0.001008096
-0.0025733637
0.0055841315
-0.008384174
0.0077516786
0.019718654
0.04532655
-0.019696446
-0.016857725
-0.02961651
0.0075029815
0.003397944
-0.034529533
-0.020788781
0.025035769
0.019875143
-0.018228449
0.008342861
0.033083335
0.018663213
0.0007139455
-0.03586113
0.015242969
0.030054038
-0.021093175
-0.004628074
0.008666518
0.013421315
-0.008725951
0.025212815
-0.054714832
-0.005243806
-0.012797808
0.011283194
0.017838929
0.01062417
0.065911464
0.0054683224
-0.022284763
0.004965706
-0.016099984
-0.0033856232
-0.026441371
-0.012083198
-0.014750706
0.033261348
-0.019391445
-0.030917594
-0.0070086345
0.010446125
0.0034067037
0.013242178
-0.0039118836
-0.039813984
-0.002904125
0.0037918314
-0.008307672
0.004647769
0.033156537
-0.0020905833
0.0169432
-0.027195567
-0.008039566
-0.002925756
0.0043677166
-0.0393403
-0.0071564554
0.0044739223
-0.013688971
0.016805397
0.03193762
-0.034647644
0.017083352
0.01441065
-0.006343915
-0.018167026
-0.023946302
-0.024158003
-0.02305073
-0.01488744
0.01474527
0.009307301
0.0062167263
0.033450235
-0.001231731
0.025237326
-0.0041855015
-0.035538632
0.0105832685
-0.013064072
-0.021720922
0.0064446465
0.008132942
-0.01786856
-0.02445779
-0.04982881
-0.0010886447
-0.020151827
0.0063510407
-0.008097371
0.017386304
-0.019142147
-0.024170497
-0.009701347
0.022583684
-0.0010051188
0.01050639
0.036746256
-0.0032657096
0.00047803618
0.004315124
0.018836686
-0.041687984
0.021033764
-0.014656992
0.021483684
0.020271659
-0.024472926
-0.014111621
-0.034861743
0.0003634817
0.011958865
0.0045497045
0.012178085
-0.0025509514
0.020632138
-0.023348978
-0.014134229
0.0049085147
-0.05031947
0.00028893285
0.0021165148
-0.007270963
0.009143887
-0.027125482
-0.0063423
-0.024758438
0.024106625
-0.022787735
-0.019100077
-0.009976859
0.054406393
0.0024956341
0.029189464
-0.036309727
-0.019905325
-0.000981211
0.0060147406
-0.0051014875
-0.0012343621
-0.009327746
0.022185013
0.020839121
-0.006670609
0.035432804
-0.009607143
0.007866289
0.023778502
0.0014542952
0.0028983988
-0.0017314742
0.030871663
0.016898176
0.004824359
-0.013586232
-0.00020692819
-0.01060932
-0.014382709
-0.030994901
0.013349329
-0.035792172
0.003178651
0.015238619
0.0055933855
-0.028900377
-5.0546943e-05
-0.030724293
0.023661627
-0.0119471345
0.003323056
-0.004245044
-0.009310339
0.018445631
-0.00955851
-0.0007247574
-0.01784061
-0.008448542
-0.04001102
0.00084423326
0.017578175
0.037652023
-0.020793805
4.8239024e-05
0.016930753
-0.02270811
0.011055071
-0.02505969
0.0065308893
0.018750718
0.006101968
-0.010069029
0.034287903
0.006448301
0.016388452
0.020879697
-0.00031331714
-0.03966057
0.0017316412
-0.01682611
-0.025120888
0.03895321
0.015969297
0.0022838807
-0.012946783
-0.0005015762
-0.018727465
0.0067932084
-0.024273919
0.014954948
-0.013197211
-0.009175347
-0.004917548
-0.009521132
-0.007343615
0.01920575
0.010668265
0.0027599025
0.011681365
-0.02519583
-0.017936166
-0.0133492835
-0.00089950097
0.03979167
-0.008338672
-0.0066704927
-0.0056544757
-0.005550438
-0.023660447
0.0011601883
-0.0003979221
-0.009424925
0.008139526
-0.009066893
-0.050239723
-0.002732727
-0.013332107
-0.002076674
-0.015786096
-0.003152793
0.009769826
0.0085729845
-0.007284461
0.014855962
-0.030500654
0.060662635
-0.00845169
-0.0009753285
0.025201874
0.026149882
0.012449437
0.003556355
0.033025358
0.013315163
-0.011612613
-0.004677593
-0.0064074225
0.00702088
0.012685595
-0.011373851
-0.03060739
0.01856686
0.01352118
-0.01945085
-0.010248712
-0.00052567053
-0.023788292
0.0057179937
-0.009791743
0.01154824
0.009454604
-0.007237704
0.013773135
-0.024229284
0.012686657
0.001336316
0.009642372
-0.0030554244
0.0054908106
-0.010594687
0.0113563575
-0.020109901
0.012473325
0.028985951
-0.028821385
-0.02771518
-0.005704565
-0.014946827
-0.007826286
-0.00071020535
0.0005038124
-0.029280663
-0.018283503
-0.03679735
-0.0065900087
-0.01439285
-0.013731016
-0.023609111
0.03981694
-0.015152434
-0.021876236
0.0015501322
0.02394214
0.038045816
0.0076863864
0.0032377231
0.023263434
0.024594145
0.020183804
0.018397965
0.0003936452
-0.007087442
-0.030057304
-0.026809113
0.0009886047
0.021265484
-0.016386067
-0.008477345
-0.019586688
0.006053931
-0.002177645
0.028091954
-0.024575548
-0.0125054335
0.028487632
0.009410674
-0.021384673
0.026789734
0.0021947527
-0.006031395
-0.016140012
-0.041297417
-0.041068964
0.015303779
0.016997768
0.0038405764
0.016860742
-0.033555746
0.014610091
-0.04280886
0.016664207
0.027850358
0.0031721296
-0.026410038
0.010450849
2.970046e-05
-0.0026497063
0.008339558
0.028377073
0.017639628
-0.007760391
0.012417858
-0.015061029
0.011920453
-0.038268022
-0.009682367
0.015756989
-0.013394187
-0.006403572
-0.01823982
-6.0085116e-05
-0.0027681347
-0.025186535
0.0056533357
0.016388098
-0.010237651
-0.0033099398
-0.011802571
-0.011855006
-0.013723562
-0.018861536
0.0062885005
0.016566517
-0.0070280586
-0.008793622
0.012291654
0.032686416
-0.008817852
0.018457867
0.007860449
0.01614022
0.00072545715
0.014027103
0.0086831
0.028235637
0.009837038
-0.025749618
-0.03549274
-0.010398508
0.008333489
-0.019391345
0.03796963
-0.040412307
-0.023878148
0.007854921
-0.015210135
0.020279009
-0.0071447734
0.0002523453
-0.017575199
0.011362384
-0.001485474
-0.01978942
0.025746638
0.0115311025
-0.006101688
0.008877099
-0.008078747
-0.06065366
0.003165476
0.016600726
0.016654002
-0.011607124
0.0054750512
-0.017968412
-0.015204247
0.0020196643
0.037526987
0.018579016
-0.015531332
0.007616158
0.0016227722
-0.0071155606
-0.016126145
-0.0017831816
0.014864643
-0.0005690559
-0.023959147
0.03932562
0.041799355
-0.028619515
0.01914244
-0.023707164
0.013327401
0.00091083325
-0.029328424
-0.021711802
-0.0047736294
-0.011901963
-0.02210871
0.03953521
-0.006293171
-0.0014711453
-0.012972441
0.012829884
0.032090604
0.01986648
-0.0022882149
-0.020548917
0.031379122
0.025996406
0.0057197213
-0.0059593366
-0.002558045
-0.010608796
-0.009469673
-0.041120347
-0.002155137
0.0061884616
-0.010782518
0.02133144
0.01690516
0.013444432
-0.01802784
-0.0067603877
-0.008228502
0.016773056
-0.013037447
-0.010996957
-0.024585513
0.0018230508
0.048633
-0.013435842
-0.025041593
0.012061638
0.020014297
-0.008547124
-0.021959929
-0.022704858
-0.007960652
-0.007019808
-0.004303783
-0.005425605
0.0023651486
0.0057397923
-0.014141113
0.0146399755
-0.036225647
