# (768, 192)
-0.3226679
0.4921124
0.2814556
-0.108080626
0.082178995
-0.019862032
-0.11478845
0.10794101
0.28165287
-0.29687592
-0.010221062
-0.019430501
0.044434138
0.32154536
0.21468902
-0.14673966
0.0073307934
-0.021054862
0.018819707
0.24084595
0.42603317
0.52916306
-0.14099455
0.0687724
0.023007672
0.23767033
0.035960272
0.016444225
-0.1693255
-0.03706248
0.026723837
0.10373149
0.2180479
-0.24024276
0.035441708
0.022872886
-0.008882026
0.20617786
0.24617957
0.06394347
0.038838048
-0.07752586
0.20116282
-0.14002408
0.2837712
-0.25346178
-0.004677827
0.27058777
0.1549643
0.071934946
0.06905197
0.02837802
0.029695679
-0.24418068
-0.018292552
0.06546844
-0.114225045
-0.037518837
0.12109728
0.03283518
0.10109341
0.20489936
-0.16070862
0.10453137
-0.22198741
-0.3964314
0.3924254
-0.17770235
0.1618072
-0.21126215
0.22428925
-0.071412586
-0.16326936
0.033345856
-0.13661633
-0.43451977
-0.042143945
0.11189603
0.34647307
-0.28218323
-0.032281477
0.26940772
-0.18840453
-0.0004368793
-0.41615486
-0.39873025
0.30317533
0.08381159
-0.42929026
0.12528183
0.10058766
0.022652844
0.073738515
-0.20737362
-0.096864484
0.16020997
0.3181718
-0.057511788
0.03545162
-0.07877329
0.16526933
0.19608599
-0.15540764
0.04998351
-0.19307564
0.034429677
-0.1747862
0.058036484
0.17624207
-0.1093359
-0.11320895
0.067170575
-0.10920445
-0.19965336
-0.15411207
-0.102579735
0.3874361
0.15736277
0.0096967425
-0.036009368
0.017286357
-0.16332956
-0.14712875
0.05074653
-0.046237484
0.2541017
0.14525588
-0.15047741
-0.23425226
0.03606124
0.3052207
-0.27621633
-0.08967555
-0.009800536
-0.1442241
0.16391753
0.39766943
-0.33837327
-0.4147346
-0.070486985
-0.077695966
-0.24955857
0.05332901
-0.01303443
-0.035744336
0.4215332
0.53187996
-0.20893827
-0.1984384
-0.0662952
-0.05372805
-0.057290222
0.104101695
-0.17873262
0.27332073
0.14808355
0.22069745
-0.1670939
0.14385067
0.08191381
-0.21070807
0.14684911
-0.09582988
0.317495
0.016206516
0.0117607815
0.06902636
0.32069406
0.2801869
-0.13639498
0.34510574
-0.28645435
0.23642397
0.5232512
0.2980722
-0.044163544
-0.05475078
0.2516668
-0.038671527
-0.19027399
0.30277535
0.11954786
0.11342831
-0.14221554
0.15800734
-0.076135725
-0.027113391
0.060531467
0.03089336
0.03536856
-0.089083314
-0.14216723
-0.10502862
-0.3335375
-0.32281637
-0.011747695
0.070981555
-0.3324413
0.1777737
0.4124641
0.13319787
-0.060474712
0.1343157
0.050393727
-0.24212198
-0.14546059
-0.10178312
-0.083066545
0.28775418
-0.013727508
-0.07215118
-0.071249895
-0.06720544
0.085098915
0.4542608
0.04453376
-0.24552153
0.056347925
0.35182354
0.12325628
0.061919082
0.04471328
-0.17470233
-0.08969542
-0.07307632
0.07047154
-0.3329947
0.018734656
0.07558536
0.14988531
-0.16311358
0.26952896
0.20793155
0.4455819
0.15255706
-0.17713855
-0.2700254
-0.07361151
0.06710306
-0.30401745
0.18916343
-0.2542806
0.18077658
-0.1020019
-0.003773866
0.3880966
0.0029816756
-0.21533827
0.07462203
0.2403641
0.14096084
0.23316136
-0.237849
0.19102274
-0.065937534
-0.3614198
0.0045316904
-0.24433532
0.060447287
-0.051225062
0.09441723
-0.014940216
0.33961296
-0.15336387
-6.155778e-05
0.12856577
-0.1231359
0.29549116
0.01348225
-0.05759197
-0.117863014
0.31427273
-0.23440745
0.29870567
0.009664249
-0.103576675
-0.15044658
-0.36474305
-0.0634475
-0.009921246
-0.19214049
0.3048651
0.055137653
0.28304017
0.43200216
-0.077681094
-0.17270888
-0.28836676
-0.19959196
0.09343462
0.12272357
-0.06641169
0.3757068
0.110212624
0.11570237
-0.2806439
0.36160523
0.05027323
0.24600938
-0.16280988
-0.50735873
0.12531005
-0.10854323
-0.2575213
-0.40547606
0.14511172
-0.20662124
0.04853816
-0.130715
0.124387346
-0.2553248
-0.026667828
-0.016687963
-0.025941892
0.24887764
0.0115110045
-0.14439416
-0.29971403
0.24750438
-0.24891761
-0.40100583
-0.08581025
0.17874698
0.25314417
-0.29960904
-0.23716436
0.3295286
-0.13258472
-0.19307092
-0.16879606
0.21023487
-0.04899787
0.080827
-0.11423792
-0.20109601
0.091605596
-0.09793537
0.013415078
0.1411335
-0.2718049
0.29368195
0.051909667
-0.51095384
0.0351897
-0.12462162
0.093152694
-0.15776554
0.20931049
0.119454525
-0.15604785
0.06826049
-0.29614735
0.1656615
-0.05217972
-0.10130586
0.09043128
-0.029704774
0.25521672
0.09017321
0.08530647
0.122940294
-0.09521456
-0.12411528
-0.21302347
0.2059737
0.1284677
-0.033545814
-0.22830465
-0.04665845
-0.51951903
0.11826831
0.123903036
0.40949795
0.05563591
-0.24109674
-0.16964883
-0.036689233
0.15929712
-0.033525452
-0.34918588
-0.040576167
0.10563163
-0.0857793
0.11764293
-0.031760883
0.25746116
-0.23675905
-0.044904973
0.11122485
0.08781353
0.22007416
-0.061884295
-0.15010075
0.3511459
0.014064415
0.120337486
-0.04970119
0.19075893
0.17151256
-0.07740139
0.118415736
0.22760843
-0.14553742
-0.094301745
-0.208511
-0.13418438
0.17099695
-0.24245587
0.1001509
0.0811013
0.17626071
-0.22823218
0.32090035
0.21845804
-0.37036055
0.18612102
0.159034
0.22278626
-0.1437649
0.10862476
-0.109914385
-0.07176386
0.047682505
0.056644984
-0.21541055
0.044015
0.04574298
0.08919077
-0.024334915
0.04375653
0.3709863
0.11070144
0.015315617
0.23385249
-0.06310203
-0.05519668
-0.38507935
-0.18440449
0.33499268
0.32755008
0.09006629
-0.042451423
0.09839808
0.2298332
0.013607104
0.34349805
-0.10674025
-0.19503146
0.06421224
0.07643252
0.2018634
-0.30165216
-0.034903105
-0.26781955
-0.26111946
-0.09263134
-0.040411234
0.16563337
0.04792983
-0.08199835
0.012591146
-0.06441252
0.4929939
0.33790383
-0.015648065
0.3055019
-0.09547106
-0.22944771
-0.085868
-0.006855383
0.28742796
0.059100833
0.0011199368
-0.4161205
-0.08967409
-0.20002949
-0.1820826
-0.043745305
0.012512659
-0.40763482
0.20978613
-0.31517693
0.054411184
-0.26363555
0.15079477
0.10013701
0.1889209
0.098007135
0.13948292
-0.08079648
-0.033523966
-0.036765285
-0.13549979
-0.08373829
0.11445427
-0.005792219
-0.43402454
0.0726762
-0.19789486
0.019075548
-0.502436
-0.13999014
0.034220226
0.21418193
-0.097248055
0.043868106
0.016941478
0.033021238
-0.38416144
0.39314267
0.07908122
0.14946859
-0.14971776
-0.23121837
0.17260365
0.035738885
-0.07022145
-0.21167052
0.15424268
0.033067714
0.05496902
0.2828816
-0.20344758
-0.4444315
-0.092761286
-0.08334569
0.09565318
-0.05319595
-0.25143126
0.40047905
0.09886813
-0.08450844
-0.14985192
0.078490265
0.24748805
-0.37516508
-0.29764724
0.17214315
-0.34262103
-0.21943097
-0.38741532
0.27557185
-0.04203811
-0.40501046
0.047630675
-0.020085119
0.012380974
0.3915468
0.009443311
0.005280835
0.13786264
0.20441817
0.05266418
0.008406776
0.037020173
-0.48944893
-0.06934114
0.0065928088
-0.0025239408
-0.28540993
-0.030670112
-0.08436267
-0.121836245
0.04528461
-0.32458502
0.017969152
0.18290935
-0.16642474
0.21606278
-0.16761321
0.096228436
-0.41996765
-0.15340172
-0.17657368
-0.09754825
-0.13278632
0.30723888
-0.12238435
-0.3436539
-0.009383968
0.27685577
0.012749541
0.29222164
-0.007923846
-0.2405607
-0.056895353
0.011331131
-0.2887565
-0.13105342
-0.10541477
-0.156785
-0.062556475
-0.2832254
0.10038205
-0.48886356
-0.10853213
0.13199028
0.2530452
0.058764786
0.03708503
0.085855916
-0.22882293
0.050192922
-0.12778623
-0.01292602
0.3486411
0.21689709
0.03259815
-0.061187435
-0.25903958
-0.109594785
-0.14410506
0.038143788
-0.22342257
0.13971709
0.0243162
-0.2685872
0.07458255
0.058851477
-0.34039053
0.0010932105
-0.10883867
0.04563687
0.3316207
0.044493526
-0.09617303
-0.14352402
-0.15330932
0.39792824
0.15382524
-0.12682042
0.2728432
0.4050345
-0.12718986
0.004560457
0.09267206
0.09411836
-0.020281408
0.4121514
0.04513597
-0.19789977
-0.18163732
-0.253093
-0.0012312753
0.021912284
0.044561613
0.27971396
0.080240175
0.10664362
-0.31107637
-0.27195695
0.103629805
-0.34926087
0.00688605
0.13393347
0.05927183
-0.16767086
-0.031913586
-0.3120217
0.079148315
0.1462743
0.03259876
0.03638461
0.31158093
-0.22659138
-0.20270343
0.13935934
0.37087137
-0.1170181
-0.01630117
-0.10180247
-0.15231891
-0.17672229
-0.051092096
-0.26391718
0.38619277
-0.12688069
0.10013851
0.16065927
-0.26956397
-0.015576951
-0.10626457
-0.21981998
-0.02813739
-0.039901394
-0.2788217
0.029990172
0.087802075
-0.051948626
0.10638934
0.4106227
-0.36334747
0.36836204
-0.62335247
0.13655244
0.22610262
0.002702994
-0.1279644
0.236323
0.27259716
-0.3295229
0.09490792
-0.20148471
0.19925205
-0.10958656
-0.08044836
-0.029546866
-0.22137932
0.124899186
-0.47101203
-0.12332656
0.023394622
0.33156642
0.08139273
0.10557177
-0.28653225
-0.17001216
-0.008176383
0.017831046
-0.05006799
-0.2699245
-0.23629013
-0.25292894
-0.10727467
0.11694844
-0.45108786
0.05810828
-0.06852341
-0.091280684
0.10642872
-0.19212547
0.22573411
-0.009548178
0.041669484
0.042191125
0.25247863
-0.19043148
-0.03567032
-0.31867233
-0.21044533
-0.26711255
-0.3149254
-0.06847895
0.07869804
0.18062288
-0.08346209
0.32116818
-0.046131916
-0.34969917
-0.028816298
0.25947276
-0.08801248
-0.09132453
-0.4060514
-0.24049304
0.15547381
0.28076673
0.10543746
0.326622
-0.18807912
0.26482776
-0.007256926
0.011901528
0.137077
0.15915729
0.06340135
-0.040401578
0.14718637
0.32797873
0.15365621
-0.16098045
0.078185536
-0.5007369
0.25692815
-0.25468713
-0.012633036
-0.10733322
-0.19327217
-0.06452021
-0.29797542
-0.13186179
-0.30892032
-0.610217
-0.20132175
0.060944766
-0.15538295
0.130357
0.08236244
-0.065139614
0.35866085
0.0049048145
-0.002977797
-0.23235433
-0.12846476
0.07311411
0.08279058
-0.0037112352
0.25747097
0.16611409
0.485946
0.2764952
-0.08514252
-0.023073647
-0.16518459
-0.02472643
0.0265557
0.22697453
-0.23706643
0.3325609
-0.021036308
0.23936823
0.22614627
-0.35663676
-0.17357558
-0.035161253
-0.303328
-0.3417084
0.059106987
0.04612397
-0.27963465
-0.0075624064
-0.009569692
0.23026466
0.04461452
0.06383321
0.00024464828
-0.0016773486
0.08172709
0.3266568
0.28721973
-0.21521881
0.08537307
-0.23639958
0.33279243
0.070585795
0.36135086
-0.083772056
0.33102104
0.041234158
0.10154065
0.3810012
-0.07557461
0.35333994
0.06890956
-0.03234462
0.051119518
0.103381276
0.2516951
-0.2017963
0.025039151
0.053722035
-0.30121478
-0.40767738
0.13999894
-0.2560943
-0.5420892
-0.020441325
0.06480305
0.19522625
-0.08382713
-0.012982182
-0.18019643
0.50489336
0.013939679
-0.22614579
0.0004914409
-0.17255835
0.13850012
-0.101468466
0.34047356
0.10069773
-0.30979136
-0.2965528
0.084748164
-0.10137117
-0.02197863
-0.06400841
0.19363168
0.053982377
-0.17238739
-0.093509
0.13746195
0.30118722
0.21335252
0.17618746
0.26656857
-0.102352336
0.017613413
-0.065829605
-0.20084314
0.3920731
-0.28088436
-0.32597217
0.15360616
-0.32238066
-0.285193
-0.34393132
-0.009157713
-0.33093885
-0.044853896
0.050194036
0.1449418
0.048084624
-0.17844476
-0.19321555
0.22313987
0.019375771
-0.1916557
0.29753372
-0.29579005
-0.42537522
-0.11702354
0.14991254
-0.12559287
0.38025117
0.0012075126
0.239361
0.0755191
0.19029376
0.24644673
0.28966725
0.16571662
0.039233115
0.37357372
-0.27769434
-0.06997215
-0.2331072
-0.37562898
-0.18025959
-0.103355825
0.30549416
-0.20814107
-0.035740603
-0.029004982
-0.2773957
0.087472655
0.066613704
0.04038931
-0.27565852
0.31735173
0.40199596
0.52261144
-0.027211282
0.054924723
-0.1726736
-0.042610995
0.029350264
0.09540438
0.10023333
-0.034582067
-0.23908214
-0.061297964
-0.4584568
0.36258084
0.043325037
-0.33098254
-0.23390107
0.21580914
0.1129627
0.029325673
-0.013913608
0.09316375
-0.102137685
0.18903984
0.029804913
0.2993649
0.18669933
0.07004058
0.22542217
0.20654605
0.23624277
0.22571675
-0.026869237
-0.45898995
0.051104344
-0.06497062
-0.14824791
-0.009257695
-0.23502167
-0.08565397
-0.09181907
0.11990507
0.0038129054
0.05712363
-0.28503332
-0.2063493
0.36407822
-0.20747828
-0.064552926
0.15458688
0.0013853144
-0.2164762
-0.068780005
-0.014814421
0.11331016
-0.10760637
0.05756385
-0.39245299
0.022108253
0.19002996
0.15668999
0.135971
0.36423883
-0.0034370713
0.060953755
-0.014715171
-0.013630705
-0.21073008
0.3387638
0.19418181
-0.33734086
0.15080534
-0.08405108
-0.23984163
0.075727984
0.0027550182
0.2444706
-0.21085107
-0.13316773
-0.23115008
-0.1275233
-0.43164203
-0.08231755
0.26879662
-0.32492813
-0.1586622
-0.19250022
0.38404515
0.035996027
0.06857586
0.15669459
-0.10256372
-0.16241877
0.29290938
-0.09350025
0.071510755
-0.074831724
0.06920135
-0.34412363
-0.0077117644
0.038730226
0.18341063
-0.19919436
-0.20141678
-0.33098114
0.06956433
0.093727306
-0.13352184
0.039020013
-0.18963808
0.099995576
0.12544826
0.30432928
0.36990675
0.124176934
-0.13350876
0.22088908
0.24657169
-0.015208632
0.24710682
0.27809098
-0.3525728
-0.12504981
-0.02844127
0.015722122
-0.14002296
-0.36536252
-0.13464518
0.05926775
-0.06432718
-0.27647212
-0.004114317
-0.32588455
0.03702245
-0.2428581
0.27015945
0.21500432
-0.47575507
0.16352203
0.25741157
-0.2861434
0.0876221
-0.322264
-0.087144636
-0.21550325
0.20032333
0.073859565
-0.002804998
-0.10103158
0.33120865
-0.0046700733
-0.088572994
-0.068444185
-0.08287672
0.04977114
-0.22059341
-0.032056704
-0.10240276
0.069097646
-0.06157388
-0.02436507
-0.1650307
-0.53901947
-0.3333141
-0.2763052
-0.12366106
-0.10718924
-0.34874144
0.14026108
0.21525495
-0.18046819
-0.2437363
-0.33485147
-0.39766714
-0.12872575
0.0054282905
0.024005936
0.11303723
-0.116445
-0.24788344
-0.051772416
-0.07265561
-0.18705091
0.10714822
0.10222504
0.03711017
0.37640148
0.15108763
-0.19262604
0.15049575
-0.07500676
-0.21182473
0.09521128
0.31422353
-0.020317815
0.15167329
0.20251933
0.05460933
0.31851193
0.030092983
0.01638843
0.16701983
-0.1958284
0.30842003
-0.012335523
-0.20429769
0.14639805
0.12146318
0.098079436
0.240575
0.024841955
-0.17799412
-0.11225041
0.25813448
-0.18380879
0.47986975
-0.39989078
-0.23830958
0.16056274
-0.18880376
0.056926783
-0.11381912
-0.011175364
0.034604903
-0.043835085
0.0429857
0.044712514
0.17913453
-0.5855563
-0.2386014
0.07964591
-0.18474321
0.13171525
-0.43241897
-0.15364897
0.15363437
0.07943869
0.21700731
0.12123966
0.18071778
-0.18793397
-0.14276825
0.10067965
0.28060225
-0.08929118
0.40418276
0.19068035
0.111618735
-0.06786538
-0.30653566
-0.0049843052
0.13129713
0.24774985
0.15745091
0.052693557
-0.18328987
0.28865036
-0.1302596
-0.25252476
0.22557263
0.15916178
-0.21040587
-0.1632858
0.3473272
0.49381492
0.004471965
0.4096345
0.12249154
-0.24140596
0.09186202
-0.14487097
0.13815556
0.21072786
0.08692291
0.16980775
0.000832212
-0.17492543
0.068557866
-0.13774343
-0.27269202
-0.16555934
0.120822154
-0.07920691
0.40687713
0.01220285
0.06415428
0.6992276
0.4963754
0.17771591
-0.31405506
0.021906592
-0.14441814
0.08040055
0.18544579
-0.0007601766
-0.20347583
-0.036047947
-0.15648933
-0.053435583
-0.12336693
0.20179854
0.110829785
0.02914094
0.27434254
0.024826722
0.22088838
0.10327005
0.06090501
0.17054407
0.19903158
-0.1389159
0.055883635
-0.49657327
-0.045537945
0.34936234
-0.18809322
-0.25241235
0.20950209
-0.2485514
-0.021363137
0.13278875
0.023912918
-0.41669565
0.01656767
-0.09055859
-0.4543862
-0.11436883
0.039365705
-0.23981369
-0.15082271
-0.37386426
-0.25252435
0.16919294
-0.082634926
0.0034517867
-0.22619133
0.41516277
-0.077233694
-0.039535705
-0.18045068
-0.42728254
-0.061146945
-0.009043275
0.4817005
0.32601914
0.24014314
-0.022926006
0.25678155
-0.15295853
-0.01748371
0.3002691
-0.07963147
-0.09052486
0.055901427
0.14655504
0.2348597
0.18167904
0.2760036
0.14075543
0.0849162
-0.03709511
0.035114266
0.1704921
-0.14511642
-0.026357898
0.08144152
-0.09839989
0.22109543
0.16165201
0.4076951
-0.08301826
-0.31307402
-0.085818
0.04772844
0.07569796
-0.031576455
-0.05069689
0.08654567
0.083252095
0.07358941
0.032109898
-0.17574158
0.21813086
0.33727527
-0.25184888
-0.16837934
-0.19508177
0.04617709
0.20409524
-0.33190116
-0.08232359
0.042400807
-0.14630874
0.35428366
-0.14594668
-0.064711824
0.29656923
0.18488894
0.2688982
0.09029496
-0.035781026
-0.23838125
0.11084092
0.14906317
0.02739179
-0.2340201
-0.27578053
-0.107342534
0.139095
0.28157577
-0.33857298
0.10718389
0.081497125
0.10844213
0.16702078
-0.26986304
-0.25847667
-0.22067685
0.13456093
0.01894665
-0.18942936
-0.036226552
-0.23598433
0.28721997
-0.19334376
-0.30012542
-0.1931996
0.13154371
-0.22066383
-0.22597407
0.022916945
-0.005080357
-0.022717569
0.020419767
0.2476121
0.044173077
0.22463877
-0.18362927
0.004509713
0.04817392
0.22941433
0.08119068
-0.13913722
0.049990267
-0.22536714
0.025929142
-0.19358073
0.0055100364
-0.005070945
0.16445592
-0.16668856
0.21008654
-0.26214516
0.19229178
-0.14327565
0.04137988
-0.37256175
-0.3113645
-0.052847486
0.09560355
-0.1337755
-0.13904397
-0.15409397
0.10646411
0.20286189
0.08199079
0.17580183
-0.21510851
-0.15019383
-0.1231583
-0.58702177
0.10759006
-0.039393555
-0.26653442
-0.015978066
0.2615682
0.18598886
0.024389973
0.108901314
0.16019586
-0.53824526
0.02514413
-0.081956156
-0.049284585
0.111575715
0.009788662
0.3096269
0.1193703
-0.049481492
-0.1802564
-0.12541018
0.23308964
0.35006043
-0.15242545
0.14618604
0.15370856
-0.038142037
-0.06345051
-0.060564816
0.27596182
-0.18321295
-0.0027607617
-0.18936644
0.39211127
-0.03801441
-0.09156001
0.2855098
0.01107625
0.08011409
0.15215322
-0.13622773
0.16254601
-0.032658868
-0.04352933
-0.14315419
0.10928656
-0.017470023
0.12056389
0.047153555
-0.010837072
-0.15682237
-0.05904832
0.0027386677
0.1607524
-0.08128493
0.036373798
0.18002121
-0.23108278
0.1678847
0.24474041
-0.61028033
-0.12216766
-0.28669134
0.15290965
0.19661833
-0.049882438
-0.064673446
0.35090455
-0.119952895
0.022799345
0.0946626
-0.098987795
0.041620266
-0.18434343
-0.10371973
0.08871868
-0.27803525
-0.2780775
0.020842714
-0.10309633
-0.1288462
0.086634174
0.040568173
-0.15799497
-0.06567942
-0.13568342
0.042608637
0.1242371
-0.054975253
-0.017160079
-0.057539202
-0.1509271
-0.06996868
0.17585336
-0.3411387
-0.052246124
0.015348046
0.031965252
0.14299653
0.17913394
0.063466914
-0.0642917
-0.06694052
-0.090101704
-0.024148813
0.25067762
-0.2584275
0.12820031
-0.1561207
-0.23637286
-0.1359859
-0.2985439
-0.05472041
-0.17680828
-0.054362603
0.05213189
0.24345712
-0.012446602
-0.17578025
-0.13873033
-0.26288733
0.07933612
0.39082366
-0.13066547
-0.34205326
0.10830541
-0.0012649385
-0.1196684
0.1858003
-0.16716641
0.1145617
0.3105003
0.18592988
-0.011891449
-0.22795796
0.13095167
-0.028640961
0.0693519
0.11280983
-0.0008709736
0.3584472
-0.1639896
-0.092819445
0.3945053
0.22234395
0.3539864
-0.13978271
0.35910565
-0.21233216
-0.12543464
0.08657935
-0.27430406
0.12816587
0.30729246
-0.23292153
0.07559969
0.5444879
-0.07788331
-0.30793056
-0.12012869
-0.11028198
-0.047605805
0.11447763
-0.22487162
0.04356315
-0.07821047
-0.11329416
-0.5590051
0.17188716
0.14781225
-0.10119593
0.24854791
0.0906007
0.02402087
0.258144
-0.25820664
-0.052020676
0.1608914
-0.14076209
0.16542614
-0.024578283
-0.1564443
0.18710457
0.13637601
0.37710273
-0.10221815
0.0014550126
0.03319974
0.202443
0.13925435
-0.08112135
-0.04317556
-0.174161
-0.34153163
-0.17832865
-0.08458146
0.13152683
0.14310259
0.29275554
-0.080629714
0.29332992
-0.2212727
0.0832211
-0.11865282
0.11107226
0.18041138
0.0115087135
-0.19666468
-0.37498823
-0.23306595
0.05639266
0.22896543
-0.21666293
0.1279234
0.17719547
0.10926457
0.100423016
-0.16898204
0.08952502
-0.30997047
-0.1377436
0.2678913
-0.21042271
-0.115030386
-0.036340915
-0.10773903
0.06698387
-0.110927835
-0.27882883
0.0009759672
-0.023901548
-0.12163848
0.10304649
-0.3953417
0.10646769
0.09964257
0.03507359
-0.086073756
0.3929444
0.13796887
-0.20463078
-0.06902189
0.032083225
-0.20797665
-0.12917808
-0.29949152
-0.019861227
-0.10088368
0.30891517
0.099268965
0.040747963
0.06250091
0.11060982
-0.10751903
-0.200537
-0.042163424
-0.06955304
0.13261744
-0.030170579
0.19302104
0.14617038
-0.24269512
-0.29154932
-0.046472546
0.14562133
0.0916196
0.13878608
-0.0763742
0.015416468
0.20648901
0.061668552
-0.02046281
-0.41990843
0.43844366
0.10247636
-0.090894155
-0.06818835
0.23430343
-0.25092396
-0.03459645
0.10081301
-0.010065302
0.22107618
0.101989806
-0.036586117
-0.053806018
-0.24059665
0.1497229
0.037132706
0.22566734
0.4598043
0.06340783
-0.16679919
0.04357093
0.061524708
-0.1714113
-0.040163074
-0.056373518
0.07895584
-0.2711601
-0.13851316
-0.4938975
0.015693948
0.11247925
0.49183694
-0.32882833
-0.09783783
-0.30275437
0.13058345
-0.12850481
-0.080413684
-0.13238968
0.088088855
0.04182768
0.25568706
0.10555916
0.029952923
-0.14984664
-0.35271576
0.14130591
-0.30389017
-0.02331496
-0.20913486
-0.20087735
-0.1667437
-0.346281
-0.16079699
0.034430902
0.10799699
-0.15960477
-0.18102112
0.1834226
0.24947183
-0.108968906
-0.27655992
-0.42634746
0.08834887
0.15219238
0.005582083
-0.4377769
0.11991762
-0.011049284
-0.0067017237
0.06748084
0.26504794
-0.004597872
0.10264212
-0.19237529
-0.05761677
0.2597496
0.0017743642
0.05823077
0.17761992
0.102385834
0.4968786
-0.15425467
-0.10523591
-0.22821508
-0.12567505
-0.031350464
0.21939829
0.09396344
-0.10697635
-0.08415244
-0.44055757
-0.16264172
-0.053267624
-0.2369139
0.016755698
0.19949622
0.16757809
-0.38436374
0.25376877
0.11993285
-0.16914794
-0.22694993
-0.46238732
-0.49640426
0.012750195
0.23907529
-0.09120097
0.10183399
0.16212593
0.12896647
0.0024168014
0.17128095
-0.11154448
-0.20128332
-0.03290542
0.24108048
-0.13985752
0.19665971
-0.13384339
0.042906847
0.10968218
0.0058632917
-0.124051765
0.11395519
-0.30484268
0.1878128
-0.057420325
0.12098458
0.085390195
0.19263308
-0.06498944
-0.39188263
0.2285225
-0.10547807
-0.08337061
0.2735879
0.093116
0.29226243
0.13523151
-0.16694866
-0.4329234
-0.08112117
-0.15105571
0.041936707
0.37067553
-0.353802
0.10161177
0.251611
0.11754028
0.28696015
-0.12765561
0.26778466
0.07610031
0.016843371
0.48055205
-0.0670185
0.039102204
0.33495197
0.2678773
-0.2649379
-0.24937601
-0.22950593
-0.23471387
0.095718734
0.25872573
-0.0071181855
0.0757276
-0.21487616
-0.19573075
0.17060557
-0.22350848
0.44007906
-0.11461246
0.21622069
0.08094173
0.16825072
-0.050036293
-0.111192994
0.29654127
0.061616547
-0.01576279
-0.37874094
-0.065377265
-0.09659006
0.1079754
0.1216074
-0.024087932
-0.09822362
-0.100144245
0.012500594
-0.3169901
0.11121549
0.122702435
0.089609064
-0.19900684
0.06216951
0.053591635
0.06690038
0.45974478
-0.10702329
-0.10923779
-0.09272316
0.16690592
0.119091235
0.21713367
-0.20924695
-0.3302862
-0.10435625
0.3463672
-0.11286825
0.2690408
0.19193068
-0.160084
-0.03541123
0.3842091
-0.027082333
0.26961848
0.02934154
0.07931338
0.34224653
-0.30669135
0.11861729
-0.09242546
0.05829249
0.23422885
0.021618595
-0.014607434
-0.0730161
-0.19320707
-0.23042415
-0.2840561
-0.15895002
0.10444542
-0.26659173
0.025393203
-0.044632055
0.23863716
0.12765904
0.21175416
-0.3399473
-0.003958938
0.19855322
0.05082021
-0.05315562
0.35408667
-0.29627645
-0.066441156
0.18294373
0.044133328
-0.3240398
-0.08052951
-0.1829911
-0.011547315
-0.119931474
0.02023854
-0.14169268
-0.0013666822
-0.1485792
0.2683406
0.50753325
0.029760558
0.068521425
-0.08204561
-0.22551227
0.079365544
0.1488803
0.18973044
0.26283035
-0.03898818
0.33653504
0.22421098
-0.019912733
-0.042318303
-0.46901226
0.17906334
-0.0449629
0.08314126
-0.0013187103
0.27043584
0.46059057
-0.12233155
-0.07724943
0.2826775
-0.058714896
-0.053108837
0.26219437
-0.14910169
0.12688948
0.0029288286
-0.28802964
0.04870261
-0.07954622
0.19103502
0.30542263
0.11280312
-0.5334957
-0.081962764
-0.10091151
0.03966632
-0.25710076
-0.1069959
0.16167913
0.5152965
0.23715866
0.2042129
0.17297523
0.08650342
-0.0100650275
0.2120956
0.0642916
-0.15253574
0.26467547
-0.057125952
-0.31280443
0.39317325
0.026851485
0.09006562
-0.025312638
0.20551589
0.24711783
-0.042314302
-0.11788169
0.023433978
0.32138667
0.39564425
0.022143671
-0.20673259
0.20536935
-0.1464217
-0.30075273
-0.21109562
0.010627947
0.021956073
0.024097826
-0.21135214
-0.039357822
0.14914261
-0.24683623
-0.3451907
-0.12724929
0.20785008
0.17976703
-0.07377736
0.062721305
0.009313941
0.35400236
-0.28220806
0.14285688
0.22027615
0.2809777
0.2743266
-0.33490235
0.26729417
-0.18941458
0.11857917
-0.046980068
-0.14064918
0.27952132
-0.026319264
0.121082224
-0.18993986
0.3122411
0.0036032342
-0.16532181
0.24960528
0.11514628
0.1508474
-0.023105785
0.051879108
-0.14199632
0.15748052
-0.106195234
0.06480211
0.0832589
0.39492232
-0.402143
0.015218821
0.026567683
0.040284943
-0.13446485
-0.20727678
0.26790556
0.3014668
0.25380948
0.049873512
-0.4242021
-0.04933903
-0.044887934
-0.1599841
0.080850236
-0.46613294
-0.26422298
0.3292896
-0.058051784
0.29846272
-0.18548296
0.051436733
0.043537375
-0.14809977
-0.32308576
0.09144981
-0.016514221
0.012370876
-0.17824413
0.22401415
-0.21545155
-0.4600474
-0.08349036
-0.11851626
0.22208853
-0.036774572
0.4635337
-0.27769065
-0.26786903
-0.33765104
0.24863446
-0.25763664
0.41291866
-0.009137949
-0.1475339
0.046779186
-0.113282934
-0.15959123
-0.3079311
0.13242312
-0.09096735
-0.18741627
0.20494412
-0.2606686
0.08990528
0.32498705
-0.027552003
0.13230896
0.49628314
-0.2713502
0.08316826
0.26856932
-0.18217187
0.3351451
-0.145504
-0.23445308
0.060896363
0.33110404
-0.29237613
-0.28564093
0.017095426
0.16678254
-0.128017
0.012170221
-0.055644806
0.21378934
-0.3228556
-0.004024649
-0.037835266
0.15144151
0.013586975
0.5599582
-0.2934873
-0.20215619
-0.034625422
-0.20938645
0.1867991
-0.066405885
-0.16737719
0.043492276
-0.25505963
-0.08547228
-0.0008900428
0.22448133
0.36839667
-0.49711725
0.19960444
-0.0931117
-0.03515468
0.14051136
-0.16644743
0.32507953
-0.21101753
-0.041840132
0.4768601
0.21711782
0.07822604
0.20331323
0.31235158
-0.02392976
-0.102780156
0.11248048
-0.042810615
-0.24944304
0.39049384
-0.26239946
0.25810847
0.17503014
-0.13480473
0.28149447
0.06759809
-0.13125299
-0.3290744
0.257902
0.17895241
-0.08698782
-0.051087677
0.42722544
-0.48489317
-0.510155
0.27789158
-0.045692515
-0.17554758
0.22415374
0.02009714
0.43427187
0.32616186
0.2560257
-0.23968402
0.044828236
-0.33602253
0.14665942
-0.061068203
0.060786325
0.0049738414
-0.23249863
0.2472527
-0.28978977
0.20044766
-0.13882747
-0.044457357
-0.088174924
0.09236681
0.1182824
0.4024747
-0.00069849397
-0.16244529
-0.24628623
0.12757948
-0.09633
0.2183841
0.05874002
0.16386952
-0.018536903
0.05419418
-0.04101143
-0.12187246
-0.2809514
-0.13487622
-0.027648607
-0.11552604
-0.010828992
0.28111848
-0.004142938
-0.23666056
-0.03974605
-0.20591317
0.24603593
-0.0108243525
-0.028959258
-0.008376659
-0.016232526
0.15498102
-0.469276
-0.124634065
0.14063364
0.20401394
-0.114408985
0.24174552
0.21360393
-0.20216213
0.05938893
-0.15883891
0.22412293
0.11144048
0.5384863
0.41445452
0.27222258
0.041426253
-0.18123546
0.12184532
0.16108364
-0.057821084
-0.037731238
0.029946396
-0.06733107
-0.32019722
-0.03400136
0.09396489
0.013301558
-0.17788883
0.18160616
-0.12854867
0.12818438
-0.2324953
-0.11912852
0.0246022
-0.15017894
-0.17999707
-0.37308523
0.27579162
0.14374088
0.24000204
-0.26237687
0.15781859
-0.018289948
-0.015856348
0.07359339
-0.3094033
-0.23518391
0.37328658
-0.06448582
-0.044581696
0.015124904
-0.14332183
0.18297397
0.1976663
0.083044186
0.115278244
0.005332238
-0.10729238
-0.11204765
0.025446279
0.12690833
-0.14708911
-0.026274676
0.23778997
-0.0865893
-0.07782247
-0.17368755
0.0015360634
-0.1045471
0.0038542158
0.21620171
-0.18796337
-0.28448352
0.29460916
0.057588745
-0.07428441
0.2512711
0.081920885
0.14453252
-0.17732383
0.22778857
-0.20512895
0.022702279
0.019072225
0.022679877
0.47842985
0.1497259
-0.16856532
-0.0902703
0.44934884
-0.010179724
-0.17050175
-0.10526886
-0.06541714
-0.035484366
0.017591208
-0.3005273
0.36980507
-0.15058778
-0.29599643
0.11215734
0.5180885
-0.13940972
-0.119093835
-0.0484129
0.2297519
0.2659716
0.01611588
-0.30650577
-0.1290624
-0.16278733
-0.24304684
-0.1364296
-0.15174536
-0.070437886
0.1145064
0.24370895
0.11829313
0.21221016
0.037029818
0.23956402
-0.15147863
-0.07793336
-0.28826866
-0.07582778
-0.2859993
0.13682881
-0.01265491
0.07358404
0.48603565
0.21216519
0.1283857
0.110171154
-0.12887435
0.056114513
0.40212464
-0.12385507
0.2796452
0.19025433
-0.3768892
-0.13656762
-0.116778545
0.008514736
-0.15918861
-0.15812163
-0.19944407
0.2769533
-0.40435225
-0.1873983
0.15854733
0.4963235
-0.100325264
-0.293871
0.049682587
-0.30172026
0.17826109
-0.055348136
0.011937145
-0.16921239
-0.12624547
-0.09873121
0.07053718
0.2116721
0.11627193
0.17709962
-0.07661764
0.24271479
0.003198479
-0.39080593
0.012657734
-0.20152073
-0.22964144
-0.10085652
-0.1974759
0.20083646
-0.18759094
0.38121143
-0.21175991
-0.15447213
0.16966955
0.1437897
0.06307193
-0.375401
-0.21304174
-0.31942126
-0.24539411
-0.1795495
-0.10134178
-0.17809689
-0.3052399
-0.18075497
0.26967844
0.19908991
0.14712735
-0.3450932
0.37448347
-0.013865824
-0.04787975
-0.20982888
0.01825971
-0.22889303
-0.15090396
0.032358512
-0.24317585
0.2704177
-0.051581014
-0.17280881
0.21648295
-0.35160196
0.02285116
0.012418213
-0.32726896
-0.09879908
0.025137046
0.17196052
0.03679363
-0.026278973
0.1338136
-0.036837447
-0.022565987
0.2499681
0.48182583
-0.019332439
0.47640273
0.12836711
0.09918207
0.13126932
0.181949
-0.19665697
-0.093997724
-0.13999085
-0.095833056
-0.19734581
-0.13442196
-0.21895938
-0.15586732
0.25817496
0.15410416
-0.14398547
0.10261816
-0.22856188
-0.088566914
0.23127823
-0.09698019
0.15337989
0.1599804
0.022892544
0.17301634
-0.407761
-0.09516666
0.5449678
-0.09950953
0.19709885
-0.047300514
-0.0306046
-0.011021812
-0.007844365
0.14641844
-0.2510903
-0.16210186
-0.18639794
0.24501272
0.11420504
-0.0373875
-0.06910409
0.23469463
0.014639537
-0.26997215
-0.1850155
-0.5963424
-0.23273809
0.22748387
-0.2783652
-0.2765877
0.44383612
0.0085289385
-0.030836944
-0.03924096
0.048905965
-0.16816173
0.23899317
0.008586354
0.013079959
-0.058790922
-0.17200117
0.07238259
-0.26222286
-0.017588478
0.15489355
0.17989352
-0.10236831
0.03484993
0.33583495
0.1052262
-0.027069747
0.12739721
0.22092591
0.04932616
0.1069981
-0.22371912
-0.23779705
-0.08665885
-0.1633994
0.04256236
-0.0039415495
0.010410587
-0.30404392
0.15714033
-0.18308409
-0.31368887
0.124144055
0.59516305
0.116180144
-0.22344808
-0.46181598
0.120773874
-0.21801189
-0.017230896
-0.10127386
0.10756873
0.028431425
0.02916078
0.1516191
-0.27351737
-0.2946456
0.22571631
-0.13397734
0.063745596
-0.08404484
0.14016788
0.2704687
0.10967719
-0.016016314
0.0098920455
0.010013856
0.16293837
0.041589826
-0.25731406
-0.09082838
0.063907795
-0.07374482
-0.5172268
0.09540757
-0.29667312
0.012444287
0.19482102
0.06394952
0.10698476
0.10465276
-0.04393862
0.3176975
-0.06133488
0.026513392
-0.16430937
-0.07969908
0.1427273
-0.10717839
0.029362058
0.07233687
0.2600467
-0.29301175
-0.3471106
0.19272302
-0.0056558717
-0.024745965
0.17428102
-0.06239443
-0.11556747
0.22727938
0.16055994
0.5621242
0.083009295
-0.04192826
0.13004582
-0.15880427
0.38878793
0.254805
-0.002876904
-0.22977006
-0.18726079
-0.08508172
0.16791591
-0.22789939
0.022376746
0.35867712
-0.12672238
-0.20454092
0.51858294
0.2211266
0.14376819
-0.16309033
0.06356095
0.24184461
-0.12265197
-0.46762434
0.049692262
0.1398892
0.35711634
0.14635219
-0.10692306
0.24691956
-0.1708767
0.04432577
0.2852226
0.34704927
-0.09881039
-0.04483038
0.26571885
0.10071963
0.16627353
-0.05140966
-0.10348605
-0.09430098
0.35989723
-0.041672967
-0.23718853
0.23861876
0.04505196
0.034473732
-0.24789785
-0.17950684
0.030864155
0.10542076
-0.22274724
-0.1155738
-0.0907514
0.0045326776
0.09199225
-0.035954043
-0.037351467
0.036621056
-0.11085339
-0.08128801
-0.44790077
0.100181095
0.45781952
0.10047193
0.16865174
-0.18343249
0.16308062
0.14080517
-0.12742989
-0.22036849
0.021918764
0.15870762
0.10835641
0.13397436
0.30825323
0.036774896
-0.09208584
-0.115105584
-0.11022375
0.058709264
0.0017209627
0.0698051
0.19832973
0.072347395
-0.10861527
-0.60209244
0.12856026
-0.15211204
0.22500089
0.30230212
-0.11209486
0.27204144
0.08642266
0.07179731
0.09122947
0.13601564
-0.1723489
-0.014348042
-0.063954785
0.08265874
0.11122408
-0.10597801
-0.0071989866
-0.07538592
-0.0008712788
0.13324864
0.41341645
-0.5350232
-0.024935849
0.25024062
-0.12584573
-0.23511107
-0.0752636
0.169763
-0.14013599
-0.12780891
0.010762317
0.13540055
-0.07052695
-0.037050214
-0.048061796
0.1974631
-0.010058819
0.115782976
-0.12288486
-0.033786736
-0.06698034
0.038575675
0.15917014
-0.107511096
0.10095855
-0.1785118
-0.3092659
-0.09050291
-0.26469913
0.22038701
-0.28503034
-0.23380838
0.12923789
-0.51491034
-0.16796692
0.01718128
-0.01717162
-0.1080456
0.08518852
0.38045967
-0.09358047
0.11422093
-0.11195207
-0.28986034
-0.021129495
-0.16078797
0.35014707
-0.10822314
-0.073689826
-0.0673692
-0.06896892
-0.09956305
-0.017317774
-0.30344364
0.16876806
-0.31193563
0.042562608
0.2132
-0.104517
0.04396805
0.044468407
-0.18909234
0.051140297
-0.06463662
-0.20202327
-0.34182626
-0.39563173
-0.024800435
-0.32076928
0.1451172
-0.0497127
0.0039151274
0.076736026
-0.30634928
0.030532364
0.14720438
-0.0102249915
0.13318066
0.10478407
0.23908506
0.007711348
0.04066061
-0.40318155
-0.5225412
-0.4819443
0.39372876
0.10507383
-0.15814397
-0.14175983
0.326902
-0.15487958
0.09921427
0.14274213
0.17183632
0.081642464
0.14026779
0.029753698
0.19987719
-0.11191113
0.24207452
-0.12531295
-0.15385522
0.24592201
0.11548487
0.5922101
-0.14691414
-0.15756528
-0.036320474
0.07429548
-0.08304027
-0.12239033
-0.12668745
0.022861063
-0.07293956
-0.28583646
0.23112924
0.35713977
-0.18989742
-0.06913815
0.23811391
-0.16448371
-0.13354918
0.13232152
0.191044
-0.13776417
0.07151589
-0.054264385
0.04924275
-0.5080485
-0.35372338
-0.025401209
-0.22845833
-0.0004042664
-0.16530763
-0.19695888
0.31555173
-0.10440619
0.10527611
0.20870171
0.3837114
0.07854485
0.49319315
0.29313427
0.1319459
0.14313386
-0.018940609
0.35064778
0.05057332
-0.12716356
0.16341487
-0.31426597
0.01633142
0.0885983
0.042070307
0.2403988
0.010330807
0.1460024
-0.15083174
-0.17278801
-0.1603035
-0.0011191064
-0.16937596
0.21216546
-0.11473079
-0.0028785039
-0.012984707
0.096235774
-0.061777126
-0.46863887
0.009689706
-0.13739192
-0.2596601
-0.25419667
-0.23571108
0.32859132
0.12623832
-0.0861
0.14987549
0.16428624
0.101377666
-0.14749734
-0.049877618
0.022920122
0.17517641
0.25186333
0.105503455
0.12068569
0.10196344
0.23899291
0.21710098
-0.18075825
-0.109892644
0.009358338
0.23617582
-0.11680158
-0.178116
-0.13369426
-0.27482975
0.13782296
0.19120423
0.10336243
-0.13983624
-0.041061345
0.13425915
-0.17670296
0.14618649
0.072191216
0.21659704
0.15876068
-0.36362883
-0.1497607
0.051291116
-0.081108704
0.1876457
0.13967748
-0.22382994
0.2587074
-0.060542483
0.22712338
0.26606923
0.013377062
0.30436537
-0.11493371
-0.20777695
0.06771392
-0.15772258
0.10375994
-0.102725744
-0.20524545
-0.0008028044
0.19964342
-0.0031966527
-0.005901511
0.39166555
0.34815353
0.23972182
-0.046633296
0.17983073
0.155176
0.035716962
-0.09349285
-0.1346149
0.090527736
-0.07860982
-0.2600975
0.10464593
0.23084866
-0.37742895
0.2214508
-0.13610771
0.15152746
0.12019861
-0.11082486
0.085865885
0.020682586
-0.042765006
0.03871747
0.03424296
0.0811296
0.06632169
-0.036410894
-0.09651525
0.19405279
0.5308511
-0.16845733
0.023803612
-0.2868322
-0.27037498
0.31257996
0.19244726
-0.028938843
-0.110236995
-0.16596659
-0.20344587
-0.05867485
-0.33164614
0.3318627
-0.114934735
-0.16379333
0.348793
-0.29127774
-0.02468693
-0.15329884
0.014813884
0.030945692
-0.25968242
0.064418234
0.11526262
-0.24969247
-0.23810227
0.12033472
0.015491418
0.13634531
-0.104957916
-0.46080813
0.02974374
-0.15853284
-0.26327592
0.06588387
-0.38950548
0.06768768
0.2474551
-0.088381104
-0.29857108
0.048763342
0.05507328
-0.42183873
-0.2969417
0.022086946
0.095174305
0.24145763
-0.07299678
-0.1674944
-0.34817764
0.055259634
0.08617297
0.2591276
-0.15993662
0.10554347
0.12719828
0.020299202
-0.024544202
0.07051948
-0.0796586
0.56303215
-0.1907353
-0.25640872
0.18565105
0.0034923225
0.0678104
-0.018902434
-0.25019476
0.088450186
0.14727049
0.15661152
-0.2041256
-0.14615455
0.25412712
0.17782669
-0.034081575
0.03639152
-0.19280502
-0.23060243
0.0295748
-0.2452616
0.03754895
-0.014234756
-0.046667103
-0.04738595
-0.095262796
-0.22319937
-0.027041614
-0.17207472
-0.19958848
0.118764654
-0.32332614
-0.37303838
0.06342437
0.044908296
0.24664293
-0.20142038
0.19444296
0.23257928
0.31271347
-0.23562019
-0.05821087
-0.12613623
0.43653297
0.0011490288
-0.09303216
-0.07419038
-0.41240016
0.10180874
-0.098516874
-0.25066236
0.26675153
-0.107580744
-0.15078302
-0.21488746
-0.721754
0.024141787
-0.099409506
0.31427807
0.0014832517
-0.24058092
0.08417129
-0.12487978
-0.34634495
0.2849382
0.16567689
0.22391796
-0.1701505
0.54444426
0.10047396
0.15269057
-0.0685445
-0.27312958
0.1653833
0.22299424
0.27225956
-0.4471101
-0.056893747
0.018119967
0.115668155
0.032326728
0.1581439
-0.04707003
-0.3351646
-0.009333635
-0.35690495
0.016431896
0.28004
0.0006708133
0.04814633
-0.065471
-0.07571458
-0.10836506
0.12153351
0.05785765
0.045115322
-0.24023227
0.066467665
-0.16703176
0.1715604
0.13819015
-0.4980336
-0.25745925
-0.013555737
-0.096043415
-0.076383665
-0.17057732
0.34005925
0.033521436
0.008257708
-0.039809354
-0.10666523
-0.037404098
-0.098436356
0.037380263
0.46740428
-0.23754473
-0.15564029
0.27317178
-0.43741807
0.09062183
-0.044482883
0.14659551
-0.08328828
0.12946533
-0.25559872
0.18723574
-0.09177535
-0.26837605
0.1995206
-0.122510694
0.12990676
0.30292976
-0.07779696
0.007942046
-0.07631975
-0.028100584
-0.11723211
-0.22122632
-0.06263449
-0.011420775
-0.043739423
0.0399952
0.34387442
-0.20119517
0.15675586
0.052417487
0.09122427
0.2046037
0.14081743
0.27383915
0.4484469
-0.16050519
-0.027091373
0.093840204
-0.32278222
-0.2966657
0.5052273
-0.20041569
0.030854777
-0.18646483
0.17373373
0.5040837
-0.21283782
-0.14233024
0.07424874
-0.22026289
0.3507801
-0.26070535
0.056955434
-0.23728982
-0.15687732
0.009129992
-0.004536051
0.12304987
-0.021834
0.049675003
-0.018437406
0.4420294
0.02990668
-0.022458335
-0.25330967
0.272302
0.081022315
0.009997121
-0.21345893
-0.05182178
0.02449951
0.17086579
-0.24003933
-0.086981535
-0.044135105
0.34000608
0.1420649
-0.04757647
0.19408578
-0.24985409
0.16569857
0.12910114
-0.13831863
-0.32476434
-0.2018498
0.006992562
-0.22068985
-0.1074803
-0.0043528243
0.13326488
0.027473534
-0.08594058
-0.21257158
0.27804905
-0.0726946
0.1928028
-0.15077822
0.06739078
0.23910022
0.03260525
0.3364137
-0.14115424
0.107143335
0.25976878
0.31997856
0.07587675
-0.052939363
-0.38795316
0.0041531553
0.072500765
0.20616527
-0.14618973
-0.11102905
0.103197396
0.09518517
0.10392898
0.34617826
-0.059702944
0.052552998
0.1969162
0.0071680606
-0.14428432
0.3476766
0.21280721
-0.15074469
0.079531275
0.3557845
-0.2403915
-0.13056026
-0.05073672
0.10589112
-0.12622845
-0.09003051
-0.006633825
-0.029913975
0.010725593
0.10492022
-0.0444762
-0.2367857
-0.09033356
-0.21057189
-0.17329273
0.20810893
0.34287345
-0.24240832
0.08380883
-0.16907676
0.12719683
0.2998572
-0.0829038
-0.00085611886
0.15298162
-0.31452358
0.30640635
0.002691075
-0.10630714
0.008418912
-0.35380718
0.10632729
0.035615988
-0.25245222
0.38117427
-0.16243267
0.1485291
-0.5473023
-0.1425331
0.14073455
0.020653566
-0.1483824
0.19063948
0.24034797
0.1853743
0.26290736
0.06872523
-0.14654481
0.13539265
-0.18094023
-0.41382462
-0.12947305
0.23055847
-0.39581433
-0.18638687
0.06595215
-0.40110895
-0.06778259
-0.03483843
-0.06929662
-0.11075681
-0.17406124
-0.10669434
-0.14686902
-0.27740678
-0.10279222
0.52454907
-0.009688315
-0.21147513
-0.06565102
-0.2979054
0.053121466
-0.21025248
-0.26511696
0.21667781
-0.38459492
0.26019228
-0.19774815
-0.15556334
-0.0035862152
0.3324019
0.13865724
0.23367313
-0.036526687
-0.24058123
-0.0075132707
-0.14299397
-0.39793858
-0.32248995
0.10580088
-0.043058254
-0.2908398
0.274415
-0.035700027
-0.018670423
0.20770924
-0.19677976
0.08375991
0.059880372
-0.095546514
-0.027072469
0.008499077
0.075993
0.27826294
0.05951441
0.22040616
0.06682023
0.019296885
0.1291494
-0.17876248
0.07637123
-0.042069696
-0.10890855
0.27474916
0.04589393
0.3026925
-0.22530745
0.04719166
-0.30044428
-0.22645347
-0.40687433
0.2494062
0.2111287
0.3489301
0.024086306
0.23760998
-0.29506192
-0.068803765
0.29910934
-0.2508169
-0.08094623
-0.20739381
-0.06252119
-0.09578841
0.09090461
-0.073560216
0.020425446
0.018935088
-0.04052789
-0.12463137
0.06060766
-0.106071524
-0.039812155
-0.17481041
0.17581414
-0.38600603
0.21070857
0.08451945
0.18672864
0.21773271
-0.07067717
-0.14253177
0.24776669
0.07412613
0.2038132
-0.35411832
-0.13380012
-0.15867399
0.14023127
-0.15092961
-0.37414232
0.1511731
-0.18603308
-0.059666254
-0.3573525
-0.036377683
-0.12635006
-0.09157079
-0.1688935
0.12808438
0.28617486
0.25671798
0.06982311
0.104182996
0.54123855
-0.30489904
0.19595616
0.10615655
-0.045199722
-0.091142945
-0.27157733
0.21136789
0.2201687
-0.02544199
-0.05334391
0.05723506
-0.23580077
0.21636772
0.01065627
-0.08716306
0.44676113
0.228592
-0.17158715
-0.24209261
-0.19160251
0.11536815
0.043269023
-0.015736159
-0.3893715
0.060863007
-0.08508208
-0.3718313
-0.088425204
0.08110798
0.26641062
-0.07100012
-0.081762396
0.099767506
0.16720738
-0.5656872
0.0012429126
-0.2743878
-0.12930937
0.20268488
0.03383047
-0.08292501
0.08371747
-0.10931746
-0.2140361
-0.24373296
0.1797006
-0.03696221
-0.3272519
0.11582669
-0.09138912
0.21858728
-0.14086282
0.20430355
0.27853024
0.27412054
0.16828136
-0.030975072
-0.15870975
0.43886945
0.39084727
0.060892045
0.09532707
0.0827023
0.2245827
0.41218758
0.0023850666
0.09779551
-0.27645186
0.06272385
0.17846625
0.061330486
0.29197297
-0.28336942
-0.22784737
-0.20066376
-0.11223944
-0.09302749
-0.20829058
-0.26175126
-0.22306748
0.17946315
-0.14588395
0.38047966
0.07634131
-0.16604613
-0.09905353
-0.048205342
-0.14404695
-0.31539086
-0.014465868
0.08512536
0.1443301
-0.039017998
-0.030917123
-0.103591755
-0.15093572
0.0035990383
0.002773644
-0.29109982
-0.21740496
-0.027380127
0.11976186
0.068754815
0.2643833
-0.05137666
-0.27043697
0.061863907
0.0039036989
0.31390315
-0.25372645
-0.38248214
-0.19280095
0.09713708
0.28790098
0.031117693
0.56328
0.17859575
-0.0141722355
0.12877576
-0.49178728
0.0024548953
0.13800286
-0.44501978
-0.024620047
0.12363728
-0.04569598
-0.42297325
-0.31706914
-0.3111619
-0.27387747
0.09306168
0.14873555
0.2939772
0.22593422
0.14562117
-0.25298968
-0.060518254
-0.008138165
-0.125471
-0.23940153
-0.11057551
-0.08698201
-0.037924398
0.05244208
-0.04869716
-0.20209177
-0.29139373
-0.09480156
-0.022785004
-0.060941435
0.076632574
0.023944985
0.2054776
0.014043088
0.022622496
0.4265525
0.06954822
0.044897713
0.0530671
0.24876212
0.082722075
0.4217867
0.0055073453
0.06728168
-0.19148298
0.26167324
-0.050403137
-0.19813001
0.06079572
0.14664917
-0.038104188
0.10331394
0.15615356
0.044786867
-0.30156052
-0.13384563
0.22103725
0.04352612
-0.1730455
0.4046627
-0.1201153
-0.18193883
-0.1746258
-0.054825474
0.1614107
-0.35305938
-0.40135977
-0.07271292
0.14725278
-0.206561
0.5352121
-0.03407463
-0.32723102
-0.02707482
-0.0153181255
0.2126855
0.15020914
-0.29447886
0.1888713
0.12731479
0.18860845
-0.306725
0.039423976
0.0817985
-0.20652619
-0.04861104
0.27075592
0.33921582
0.26003274
-0.14801216
0.222118
-0.0020473727
-0.26191905
-0.07116863
-0.21940468
0.1657298
0.07325808
-0.27342856
0.30112
-0.0014103603
0.09557995
-0.0548356
-0.44195372
0.02952951
-0.20576124
0.1130804
0.121973455
0.12270665
0.05090815
0.0585501
0.082688436
-0.2232062
-0.2326412
0.05459869
0.084572904
-0.33589005
-0.026239226
0.03785151
-0.106908455
-0.4333797
-0.20452233
-0.21372846
0.3683123
0.2460414
0.06320792
-0.038239643
0.0141277835
0.05667457
-0.049346622
-0.45425603
-0.21271072
0.19399966
-0.17551453
0.10540601
-0.2184202
0.21420312
-0.14713375
0.11064138
0.18820894
0.20344909
-0.059512503
0.22124095
0.3521105
-0.10932636
0.15637693
0.009059075
-0.32296446
-0.18555038
-0.25156832
0.238919
-0.07245932
-0.0826104
0.23238781
0.24056435
0.47512427
-0.17005853
-0.18180718
0.1123025
0.055373188
-0.18582134
0.12707426
-0.016600216
0.052130353
-0.061817914
-0.39429852
-0.14103878
0.04936993
0.24482298
0.0057440475
0.13654275
0.18536182
0.20911148
0.17131107
0.25200453
0.06375375
-0.46304002
-0.15371726
-0.17721158
0.13387443
0.066057764
0.1774032
0.08280559
0.03660908
-0.118356846
0.18912165
-0.05797034
-0.20882297
-0.31761834
0.12605794
0.2360215
0.05603565
-0.08675542
-0.009302164
0.100151256
0.13729185
0.10213403
-0.44735685
0.16782323
-0.01816179
-0.01560382
0.12803875
-0.054493923
0.39466867
0.18904793
-0.03566094
-0.22810009
0.14822492
-0.032549422
-0.09217482
0.17958386
-0.17693864
0.19135933
-0.0495276
0.04925715
-0.044914424
0.05674649
-0.027357686
-0.15798591
-0.20094661
-0.16196285
-0.030713512
0.17448662
0.27812102
-0.096803375
0.20964654
-0.16363734
-0.06360284
0.29862687
-0.30367926
0.06121583
-0.13070934
0.23841503
-0.06110626
0.22457264
-0.042946637
0.05644546
0.077008545
0.097572885
-0.37667304
0.020588737
-0.086710565
0.09025311
0.19507971
0.38233528
-0.02728856
0.3082169
0.15001361
-0.6126395
-0.20985153
-0.24698153
0.03251853
-0.2555337
-0.11009566
-0.053154
-0.059890956
0.09606359
0.038057815
-0.055048835
0.015029937
0.21162291
-0.02057473
0.17719193
0.0599568
-0.11564342
0.052456196
0.09917982
-0.035919543
0.18491425
-0.12096944
0.3096776
0.24085568
-0.07672826
0.08268932
-0.1108761
-0.021321481
0.37244686
-0.05817715
0.05902013
0.09991783
-0.09567473
0.24968266
0.1684575
0.033500668
-0.18431708
-0.124277346
-0.19479209
-0.028196145
0.11289225
-0.01790859
0.01877427
-0.09250103
0.03649746
0.10272955
0.3284652
0.29252684
0.11733699
-0.069752775
-0.24304748
-0.032655284
-0.22102557
-0.21309927
0.61618555
0.20258887
-0.17071246
-0.090418786
-0.1675782
-0.22785342
-0.14462283
-0.4779584
-0.33996686
0.14496672
0.014071009
-0.06744742
0.4758842
0.29098555
-0.020430807
0.26363334
-0.2118218
0.14873208
-0.04615195
-0.10511615
0.23388565
-0.2240216
0.016057497
-0.05637293
-0.17030983
0.065882795
0.2625085
0.041965753
0.009158372
-0.05249838
0.10069428
0.1413439
-0.41243234
0.09001475
-0.047131702
-0.09719163
-0.01782833
-0.039866116
0.124872565
0.34209862
0.16271794
-0.018891847
0.19129774
0.0050663515
0.118751325
0.09343115
-0.092541896
-0.07233913
-0.22669287
0.38702115
0.21572676
0.08708209
-0.41382918
0.09086513
0.15300985
0.0040166876
0.11867435
-0.30369315
-0.2505314
0.116231285
-0.069421805
0.03604063
-0.0679798
0.13462858
-0.09235775
-0.023337537
0.012742087
0.18542261
0.15328072
-0.047308024
-0.14431132
0.041892793
-0.061755706
-0.25758308
-0.019134818
-0.24368925
0.504626
-0.1620332
-0.27328876
0.13922845
-0.30215552
0.09834673
-0.34381348
-0.10684218
-0.25040063
-0.09095242
-0.12444208
0.09447773
-0.2707357
0.030217964
0.19693042
-0.09944739
-0.43384042
-0.32506812
-0.0050703012
-0.11809974
0.37816203
0.22418748
0.06675016
0.14057486
0.11089531
0.10201333
0.27080873
-0.34165323
0.101088606
0.1139302
-0.06676997
-0.104641154
-0.02499015
-0.04106636
0.4570763
-0.13864824
-0.18786454
0.10427395
0.116523206
0.021123843
-0.038632717
0.035717696
-0.50360936
-0.25227895
-0.1982551
-0.25506642
0.05162374
0.19582732
0.35479075
0.17440599
0.19870327
-0.25791213
0.07045868
0.3158103
0.13674401
-0.40812546
-0.2863576
-0.05130899
-0.060191195
-0.117280684
0.11605592
0.18240778
-0.48290634
-0.3134709
0.30383477
0.027083794
0.07662626
0.2977898
0.09702609
0.018051479
0.08808038
0.1203836
-0.22074263
-0.085719906
0.020554975
0.16277944
-0.14244977
0.13197184
-0.034365233
-0.043786306
0.2600235
-0.04542326
-0.1137159
0.5304131
0.123861276
0.2098177
0.34518877
-0.027066955
-0.29673088
0.036662843
0.31243646
0.26192424
-0.049273457
0.00043215422
0.21771328
0.22989552
-0.31690243
-0.16769342
-0.059212178
-0.30125788
-0.14240418
-0.22416186
-0.08521522
0.23333584
0.01595482
-0.29208606
0.044347566
-0.07313019
-0.12326115
0.3462205
0.10437224
0.23677683
0.21305726
0.43205997
0.0913954
-0.31006798
-0.18467297
0.23365684
0.2727853
0.41192833
-0.06477225
0.097592615
0.2909681
-0.13333055
0.06923673
0.15801887
0.079597116
-0.034322973
0.2636114
-0.1503973
-0.2607827
-0.20871396
-0.15766713
0.16029333
0.06404049
0.05275135
0.33162633
-0.25918657
-0.026802868
0.19940482
-0.08254716
-0.1890445
0.072082475
0.02916441
0.4613339
0.025015226
-0.11112986
0.33109328
0.17926876
0.018799482
-0.08189623
0.15624593
0.10869165
-0.039314203
0.044170547
-0.083592854
-0.11277787
0.24744442
0.061009288
-0.01193643
0.31298456
-0.014619991
0.06609947
-0.056495767
0.08174535
0.06351124
0.16543923
-0.24334125
0.03682068
-0.36313602
-0.07661267
0.12198696
-0.2841439
0.13348092
-0.10272429
-0.008382219
-0.06799917
0.02609253
0.27119592
0.04594949
0.061864205
-0.004196378
-0.11584436
0.029326996
0.2690434
0.1121135
-0.22326629
-0.06816598
-0.093439125
-0.15821901
-0.05969384
-0.10156369
0.015133959
0.030306587
0.113571
0.13733508
-0.15719466
0.014746904
-0.23390101
0.105636775
0.18179218
-0.042783078
-0.14882551
-0.060798086
0.17590849
-0.12869328
0.053840894
0.11200934
0.14981614
-0.2117724
-0.042471226
0.041142773
0.13039514
-0.4070045
-0.22612599
-0.019823374
-0.02120361
-0.018166682
-0.3302902
0.16695864
0.38660344
-0.30389997
-0.30090055
-0.20352976
0.24697338
0.1483095
0.12981966
0.04269188
0.20850258
0.1565288
0.116142765
0.24502395
-0.105053544
-0.1047424
0.2014982
-0.25751975
0.12061349
-0.1236727
-0.12587944
0.2989363
-0.3812276
0.023913153
0.43288118
-0.32571128
0.14278491
-0.018972265
0.33188048
-0.1578571
0.39026052
-0.09721209
0.18090807
0.06932576
0.39553103
0.18542145
0.091258615
0.014367438
0.055055905
-0.094919235
-0.030109921
0.1535262
0.18923824
0.10644094
0.05077629
-0.44424722
0.06744982
0.23298793
0.1841202
-0.07434817
0.02349978
0.0684
-0.016883997
-0.015314464
0.2759036
0.21426164
0.053736635
-0.01637456
-0.050188113
0.2861486
-0.102713905
0.18281002
-0.44554496
0.12238663
0.045315076
-0.15370749
-0.017094426
0.032269713
-0.32028362
0.025116121
0.026421065
0.046698432
-0.025512008
0.28092703
0.14261566
0.19844061
0.00027716457
0.2582192
0.09300434
-0.26687643
-0.12962653
0.14480408
0.1959935
-0.23343813
-0.14519276
-0.16626619
-0.07304185
-0.2792761
0.027225683
-0.39042595
0.09971632
-0.015827
0.38577962
0.19544487
-0.009227666
0.107799746
-0.015645673
-0.11621951
-0.1434444
-0.6282244
-0.029702265
0.1328324
0.06448189
0.36312658
0.18603955
0.23576765
0.019949688
0.07182975
-0.23383515
0.09501457
0.4708334
0.24022567
-0.0763612
-0.02692831
-0.34730962
0.20203657
0.056433495
0.14880091
0.3792381
0.030483544
0.23870063
0.32623193
0.03782619
0.16642067
0.21994571
-0.24607186
-0.08548334
0.08918798
-0.16672273
-0.11948186
-0.20359619
-0.53076255
-0.28320584
-0.07809202
-0.009663437
0.271513
0.1281021
-0.43617663
0.40807596
-0.26404068
0.1325641
0.28606695
0.25500152
-0.10509586
-0.2505171
-0.31169102
0.045458414
-0.058183488
0.07869853
-0.40206176
0.15724912
0.06116831
0.21465826
0.014514776
0.27077487
-0.14883123
-0.26191825
0.09561772
-0.06698206
-0.1174793
0.21443728
-0.0782173
-0.3641887
0.108011715
0.23543201
0.10048671
0.08782657
0.16232736
-0.2179135
-0.024276165
-0.07604586
0.1735699
-0.10767776
-0.293876
-0.040839236
0.014637261
0.29586738
0.5671073
0.17245935
-0.028821796
-0.42360267
-0.21839051
-0.012668091
-0.11461599
0.23233779
-0.15402971
0.3238287
0.10777982
0.09660731
-0.03193632
-0.34796843
-0.12456503
-0.24334288
0.095496126
0.16212247
-0.05421796
-0.04401749
-0.13792348
0.1694604
-0.028260252
-0.24349256
-0.41795102
0.15967822
0.019483654
0.18668696
0.0010537922
0.2855155
0.29037333
-0.06712165
-0.17873847
0.26620838
-0.5308088
0.05474877
0.0071267816
-0.15576057
0.22692294
0.053155508
0.1726482
0.15506902
0.120692514
-0.16626044
-0.114405565
0.0735421
-0.59268826
-0.29631257
0.23619361
0.30376855
0.013292752
0.02112232
-0.057031598
0.041685686
0.22434285
-0.029794147
-0.056980997
0.18411396
-0.14195906
-0.14465752
-0.06128731
-0.088570185
-0.17444679
-0.2544391
0.08703917
-0.036861606
0.24852519
-0.43065515
0.010296565
-0.13940313
-0.13880758
-0.1378799
0.043945763
-0.12400579
0.051647224
-0.16010748
0.009101779
-0.1215565
-0.03385846
-0.22589175
-0.099680096
0.02085354
-0.2513776
0.23367916
0.04398108
0.33094832
0.13388889
0.6000754
0.25748405
0.043855928
0.098065734
0.08330684
-0.1577686
-0.17477489
0.31141168
0.096097074
-0.08720919
0.09145098
0.2549383
0.354765
0.17259179
0.022758318
-0.26325694
0.05652768
0.24288332
-0.0256232
0.13635257
-0.24771178
0.091076456
-0.3513919
-0.03711262
0.26907015
0.1238811
-0.3216496
-0.09161456
0.23347357
0.05865198
0.20388071
-0.040366627
-0.10786655
0.0033913918
0.37530518
0.23996401
0.044936545
-0.06253695
-0.15103696
-0.20382638
-0.06583743
0.09459435
0.20529814
-0.021743892
0.43408114
0.3646036
-0.051452395
-0.07987773
-0.14891991
-0.026777918
0.004228153
0.06081412
0.27286154
0.0022147605
0.014504132
-0.13287894
0.007658967
-0.16652332
0.28436685
0.03428677
-0.09088781
0.17372674
-0.10463208
0.06034831
0.24093957
0.46478835
-0.30509743
0.10579932
-0.08430153
-0.18517588
0.040443387
0.24219607
0.34257331
0.62239385
-0.09353144
-0.27538893
-0.090753324
0.20300959
0.16325215
-0.061630853
0.17783406
0.29434845
0.019476501
-0.095618226
0.17156832
-0.27693582
-0.44532663
0.12017856
-0.016355824
0.17909844
0.18034321
-0.022867655
0.1622723
0.11831256
-0.14048776
-0.100267306
0.20006354
-0.24469815
0.09723836
0.5157829
0.043908786
-0.048171304
-0.020445352
0.1300407
-0.34029728
0.05578475
0.31906348
0.11090076
0.19834916
0.22239256
0.009955716
-0.12538911
-0.08440813
0.12529425
-0.17619024
-0.0940673
0.38687825
-0.036308013
-0.20692866
0.20180154
0.5215096
-0.08431274
0.43625614
0.040913578
0.25259718
0.08505373
-0.1727206
0.028199991
0.28192317
-0.13751899
0.07770635
-0.23985448
-0.37467834
0.22633696
-0.08336844
0.23754852
-0.057166673
-0.009224998
0.1640727
-0.551835
0.22644071
0.3892979
0.36227927
-0.09393603
-0.042321954
0.32845423
0.48767763
-0.09595867
0.037678923
0.026686523
0.11438912
-0.025941972
0.19774659
-0.4512391
-0.09609975
-0.014716513
0.11021624
0.13460533
0.02337617
0.047638368
0.19960599
-0.41323015
-0.32426685
0.013020155
0.11730682
-0.42906436
0.029435376
-0.34498313
-0.20827846
-0.17582671
-0.4682169
-0.023139039
0.023634227
0.05103435
-0.083678834
-0.13009599
0.08697524
0.22455347
0.10859167
-0.311843
-0.1362996
-0.4724813
0.13468723
0.1869478
-0.2568452
-0.0130913695
0.09397348
0.05318507
-0.111989476
-0.058681477
0.07259523
-0.024360534
0.17944133
-0.18082047
-0.26404935
-0.21720378
-0.075184785
0.04107627
0.0683104
-0.045162685
0.42973062
0.23879154
-0.1109846
-0.39426258
-0.1674672
-0.3800301
0.1615821
-0.10283353
-0.055249203
-0.23231435
-0.027158422
0.089026205
0.088713065
-0.026231403
-0.10296599
-0.3168781
-0.23322847
-0.18711942
-0.08227612
-0.15225731
0.10820556
0.016877098
0.20289448
0.057003874
-0.07028759
0.15621398
0.062420387
0.008248435
-0.30961096
0.002515445
-0.2460258
0.2509087
-0.02828664
-0.022065545
0.24125694
-0.09836915
0.16899548
0.0833269
-0.038230103
0.28629282
0.07165008
0.16148905
0.0010164707
-0.021306893
-0.11999049
0.3627201
0.43158332
-0.09552329
-0.10203933
-0.021615716
0.025504595
-0.35180208
-0.050166346
0.28674695
0.049194492
0.113225214
-0.15304379
-0.19518167
0.14895302
0.035125736
-0.060413033
0.14945938
0.11379931
-0.005786202
0.03129276
-0.08557145
0.11871336
0.01349767
-0.43205506
-0.24934383
0.022353385
-0.026361769
0.22808845
0.057655692
-0.08674679
0.23352806
-0.20910576
0.28201625
-0.041784976
-0.041401338
-0.0898011
0.03508779
-0.15536425
0.12463798
0.25809988
-0.23693167
0.18489106
-0.037553232
0.18009298
0.0189763
0.03440691
-0.19124453
-0.246276
-0.029403463
0.033385944
-0.07237993
-0.020105084
-0.12732522
-0.040807292
0.18512796
-0.0095461225
0.2053595
-0.15508975
0.039656933
0.19645806
-0.16331832
-0.28259227
0.28798446
0.12637655
0.121046655
0.047727607
0.17547897
-0.19795123
-0.11400824
-0.3071822
-0.45372096
0.1545987
-0.061913993
0.23259929
-0.038941294
-0.008092938
0.34898922
-0.017619194
0.13971876
-0.4304153
-0.12334458
-0.14216666
-0.16633008
0.16684686
0.22915034
-0.029588928
-0.22936125
-0.066611655
-0.058402844
-0.23851135
0.3238939
-0.13185002
-0.12427149
-0.054271113
-0.2502056
0.0040036286
0.06981304
-0.1047579
-0.45063874
0.052337736
0.16134481
0.15646192
-0.12759508
0.2845898
0.16415082
0.009239089
-0.13203125
0.13350856
0.34308156
-0.032548383
0.03900333
-0.007093256
-0.19785945
0.057033032
0.14312835
-0.0324056
-0.1814315
0.28972083
-0.18416187
-0.0040109004
0.13394813
-0.0077848057
0.19658493
-0.04804076
0.29246873
0.15783587
0.0379021
-0.03300379
0.17990063
-0.0128209395
0.08583961
-0.08874687
-0.17903659
-0.119611576
-0.0055357716
-0.18840562
0.2621171
0.44323763
0.06472023
-0.022605976
-0.24539399
0.15955956
0.096880846
0.18196458
0.115091816
0.14942229
-0.001847485
-0.0006425279
0.103683375
0.1799665
-0.2101213
-0.15690474
-0.18074577
0.21780227
0.18063924
0.13341808
-0.18167216
0.029026834
0.39212254
-0.027702501
0.09252452
0.07429975
-0.06875306
-0.05512144
-0.11130742
0.011326465
-0.22204208
-0.28123036
-0.24830306
0.0763837
-0.08988526
0.25365183
-0.05284992
0.3008437
-0.38693765
0.08093744
-0.06454037
-0.09452831
0.21886416
-0.16507421
-0.03385597
0.021733139
-0.26605123
-0.11849469
-0.010607168
-0.21741436
-0.18806426
-0.09513253
-0.10770444
-0.1279826
-0.028029997
-0.083232395
-0.37820855
0.096216284
-0.06569394
0.026165033
0.26633668
0.0071243863
-0.14271323
-0.33893877
-0.25421607
0.0510055
-0.23783222
-0.06956758
-0.0006481588
0.62801576
0.101142265
0.123588376
0.22236793
-0.46200943
-0.24017803
0.19751245
-0.30548832
0.21766339
0.19717748
-0.062175926
-0.20729144
-0.04475573
-0.22954796
-0.023466125
0.2520026
0.021499127
0.123718694
0.041487586
-0.024307882
0.05906849
0.21620694
0.07593107
-0.13590612
0.33005795
0.06722836
-0.030013336
-0.06289715
-0.12060197
-0.2459821
-0.16787782
-0.18891218
-0.042737626
-0.11090048
0.19960034
0.36788258
-0.16603617
0.3509036
0.03492243
-0.1639071
-0.14810713
-0.00029804013
0.2781
-0.034944654
0.08095547
-0.17761415
0.39446184
0.21635199
0.40602908
-0.14096484
-0.15855621
0.59315264
-0.2400538
0.2173364
0.08146941
-0.24112037
0.35531846
-0.32761472
0.26852903
-0.28587762
0.15588836
-0.121122874
0.02979884
-0.06405516
0.16601501
-0.20053776
0.06574302
0.16708146
0.0066306083
0.006537122
-0.1966498
-0.08388287
0.04835112
-0.1753588
-0.23961616
0.22149582
-0.3528154
-0.16660148
-0.15292655
-0.16854247
0.18331207
-0.18225326
0.09091338
-0.2090687
-0.11386281
0.0693719
-0.17303109
0.037624694
0.23530085
0.07096698
0.14700171
0.06735744
-0.14396583
0.049576636
0.035473663
-0.2552255
0.06669315
0.111566626
-0.14435095
0.05037996
-0.053697564
-0.24933504
-0.12686102
0.14464466
-0.09456792
0.23714963
-0.28375757
0.00011452685
-0.24184544
0.09867906
0.23027149
0.16156963
-0.038188305
0.2420671
0.22902751
-0.027061302
-0.37165576
0.048381817
-0.10749187
0.25149652
-0.2145165
-0.19488677
0.22103266
0.38360354
-0.21258807
0.33795705
0.026434079
0.027152319
0.448119
0.24245827
0.07991009
-0.2003132
-0.286923
0.15549383
-0.24288161
-0.10145451
0.028556583
-0.013376102
-0.12869193
-0.0066466965
-0.10926169
0.16916601
-0.22158246
-0.26429704
0.2538999
0.19915873
-0.101749994
-0.2773536
-0.12404163
0.035219554
-0.05315551
-0.06700794
-0.22372358
-0.09890149
0.2510986
-0.062299963
-0.36468938
-0.0046826242
-0.43165842
0.34748
-0.18653844
0.26544315
0.44535494
-0.06047818
-0.02440862
0.051490605
0.0061047277
-0.028770912
-0.41027132
-0.10555567
0.46291763
-0.09870394
-0.48452377
0.050453782
-0.015437074
-0.20473528
0.3992537
0.16005865
0.23023418
0.20744453
-0.09708735
-0.05193317
0.2143921
-0.16331902
0.21991174
0.009894685
0.084187455
-0.18411486
-0.05801947
-0.026283657
-0.053153783
0.03373903
-0.082698666
-0.18351656
-0.091754064
-0.059767522
-0.141739
-0.06313435
-0.2225117
0.037989214
0.16937564
-0.2141186
-0.18516345
0.34928718
0.039906397
0.05419599
-0.15192233
0.032529514
0.06397115
0.50187683
0.18543905
0.119496
0.30819997
-0.23379631
-0.08851925
-0.41167575
-0.03982692
-0.042783543
0.1780733
-0.120550595
-0.18648158
0.05228706
-0.092056684
-0.2517137
-0.45118466
0.0020435036
-0.18877944
0.15170184
0.18345663
0.013079955
-0.03867105
0.21591006
-0.2496355
0.104712546
-0.3110201
0.05903353
-0.31953427
-0.30190083
-0.17269711
0.67942995
0.4527498
-0.1730827
-0.09028723
0.08821904
0.111627914
-0.037951943
0.26013237
0.21438947
-0.012208155
-0.25799277
0.08034196
0.110686265
-0.18075489
-0.10862433
-0.40667135
0.29292825
-0.07515003
-0.15122525
0.14297958
-0.124464564
-0.23675905
0.021910321
0.011158667
-0.15839873
0.014675957
0.2969508
0.16026239
-0.08877749
0.17111467
-0.17820248
-0.25410318
0.123179175
0.021979641
0.20592955
0.015457041
-0.099610515
0.12740122
0.14522485
0.3349188
-0.05895214
0.3842162
0.23900178
0.08942073
-0.47300243
0.19803177
-0.23810089
0.39965355
0.33632597
-0.1036204
0.20819607
0.03906354
-0.087703876
0.06034413
0.1177905
-0.24191216
0.5121774
0.22866844
0.110300235
-0.117213525
0.1117506
0.08602326
-0.1577
0.02345104
0.12209769
0.016360184
-0.03163271
0.26204634
-0.059702903
0.15125751
0.3854327
-0.08415918
0.09467757
0.21509635
0.088109545
0.0671595
0.14440207
0.22192407
-0.015018645
-0.10828998
-0.021892322
-0.3750641
0.49073887
0.10105999
0.39761385
-0.17151612
0.0739974
0.019886889
-0.14522137
-0.18845636
-0.1090093
0.39131764
-0.0071392166
-0.058279324
0.022980442
0.04137304
0.20162857
-0.16433941
-0.55101395
-0.19856201
-0.13784604
0.2556989
0.13251437
0.17006281
0.28832978
0.010223194
-0.31044114
0.18656418
0.08039388
0.14084582
-0.15602814
-0.062412806
-0.0049855644
0.3874701
-0.24065922
0.048032444
-0.053455662
0.016352316
0.2647578
-0.0077067837
-0.10553948
-0.09561393
-0.1249671
-0.030798731
0.029451936
0.1980741
0.017929526
-0.23087358
0.3836064
0.13651605
-0.09768715
0.060825825
0.26437867
-0.26416323
-0.046046387
-0.09449643
0.15171571
-0.30318937
-0.10426656
0.18427698
-0.0113038225
0.031109372
0.008894983
0.20035651
-0.1828011
-0.16454665
0.19658121
-0.0014686598
-0.23635857
0.011566131
-0.24558504
-0.400237
-0.24341373
-0.19758712
-0.24081635
0.13139798
-0.09275795
-0.16532387
-0.01179443
-0.18528908
-0.054882016
-0.27769968
0.020103356
-0.24134038
0.017390395
0.035955485
0.13566044
0.1147066
-0.22468923
-0.073026024
-0.01791176
-0.10115118
0.019563481
-0.069415666
0.06879943
0.04293355
0.010253761
-0.28365254
0.27755305
0.41850716
-0.15643974
-0.16777204
0.09745526
0.21984401
0.3702688
0.2886835
-0.032620564
0.111934185
-0.06188292
-0.032362036
-0.18566324
0.08198643
0.0342779
0.22251521
0.121345006
0.097370386
0.31222683
-0.17625287
0.06053066
0.40236178
0.038261823
-0.09903597
0.5210542
-0.185863
-0.032136798
-0.039607156
-0.29476434
-0.28925774
0.10114228
0.1236997
-0.02869894
0.008810188
-0.0358434
-0.48140693
-0.3825173
0.1888636
0.18993212
-0.024112483
-0.019823035
-0.29075962
-0.108058564
-0.08916699
-0.25908926
-0.12662928
-0.14040452
0.3416278
0.051127028
0.32168707
-0.075217
-0.066583216
0.017222114
0.10711125
0.00378504
0.30503482
0.009829236
-0.26183665
-0.13461895
0.37473413
-0.07326327
-0.022855518
-0.055610683
-0.2383291
0.6094791
0.21882334
-0.042055722
-0.4010314
0.11441212
-0.1499846
-0.044231795
0.45240673
-0.05091371
-0.07170301
-0.10959567
0.34148595
0.28114116
0.17557897
0.29093966
0.3202399
-0.05019934
-0.127237
-0.19869211
-0.0042986474
-0.4043366
0.088125214
0.12054455
-0.35203147
0.08181018
0.058146447
0.23687413
-0.16696796
-0.041592225
-0.50271916
0.105679266
0.1207179
-0.13525592
-0.01740793
-0.19918956
0.35741737
0.1025308
0.30235705
-0.16196631
0.17464389
0.09189778
-0.0052074473
-0.36863187
0.09000225
0.00814801
-0.15066688
0.08205879
-0.26853392
-0.09784701
0.028185604
0.051351137
-0.19185244
-0.07943149
-0.18332224
-0.15920536
-0.079412125
-0.0715657
0.088659495
-0.009332232
0.38715097
0.037964087
-0.08429701
-0.4932354
-0.515188
-0.04192808
0.12583908
-0.25217435
-0.311676
-0.037215367
-0.10314113
-0.103632286
-0.24229293
0.30064055
-0.2949034
0.029006405
-0.25920397
-0.18581767
0.19773841
-0.08408388
-0.08324956
0.40985867
0.023163682
0.18201278
0.25792432
0.090041034
-0.002476186
-0.2799794
0.32431933
-0.45107785
0.13932432
-0.061577685
-0.10494472
0.20583366
0.013096586
-0.21620429
-0.27199823
0.16000046
-0.1617264
0.39126703
-0.07958072
-0.13685219
-0.21986769
0.21580377
-0.11726401
0.4441534
0.21509497
0.17939486
-0.06805988
0.020085385
-0.32009393
0.013141706
0.016767813
-0.17467716
-0.22722505
-0.28450882
-0.044651855
0.18181977
-0.07164564
-0.31880292
0.1167114
0.16955319
-0.15438487
0.049081203
-0.118132554
0.12880702
0.14754717
0.0020737422
0.18062249
-0.15544242
-0.08107876
0.30987862
0.046308387
0.045851417
0.11425517
0.023171624
-0.32323602
0.11262802
0.07191731
-0.22249225
0.2655556
-0.2478466
-0.001903617
-0.026691446
-0.13542025
0.083512716
-0.038226828
-0.14290334
0.08293189
-0.09088172
-0.22060461
0.07231791
-0.2677363
0.32026264
-0.13584778
0.4307724
-0.011234763
0.13807957
0.00025891216
0.12340324
0.09846323
0.09358585
0.25769743
0.052300464
-0.18164398
0.3972815
-0.061489284
-0.34273764
-0.14176488
0.27895206
-0.19506815
0.039578147
0.00034665948
-0.02740541
-0.025824428
-0.04111444
0.17000803
0.25211513
-0.17314017
-0.12089229
0.009540389
0.08674637
0.13324104
0.41194493
0.34832662
-0.36787564
-0.07732864
0.21128404
0.20577756
-0.47241536
0.08871022
-0.0029556707
0.33632755
0.15802753
-0.16706438
-0.026438827
-0.07389065
0.15948558
-0.0016862106
-0.21113203
0.034647375
0.017701987
0.007068445
0.08245776
-0.17591703
-0.34229285
0.115837865
-0.15025003
0.0014656207
-0.037570667
-0.080424316
0.25590876
-0.042501684
0.18970136
-0.22574988
0.16636424
-0.034428213
0.14020225
-0.3375542
-0.21304066
0.20614576
-0.17071271
-0.27852094
0.38596183
-0.045074027
-0.44040418
0.08518257
0.43363363
0.23578195
-0.08475457
0.124550775
0.20892453
-0.33924064
0.10261631
-0.16582601
0.31799942
-0.18176945
-0.04023448
-0.30052784
-0.30883056
-0.12580907
0.3504522
-0.28767106
-0.15629153
-0.023001794
-0.25027868
-0.20974974
0.0156077435
-0.23526946
0.04275797
0.23152518
0.07645466
-0.023981132
-0.114726715
-0.20310894
-0.099578135
0.118136026
-0.017643703
0.09541464
0.2475425
0.0090970155
0.18859686
0.42615634
0.15534915
-0.10589085
0.1263104
-0.15737943
0.20325361
0.040783256
-0.19241945
0.04533756
0.03085309
0.26870164
-0.02976811
0.096395515
0.21750627
0.40245992
0.11986188
-0.1328213
-0.38344583
-0.25821504
-0.07812814
-0.09976508
-0.114052534
0.2334671
0.06771172
0.33119807
-0.038936794
0.17321382
-0.09588643
0.045273345
-0.118485846
0.3502848
-0.021595683
0.072893076
0.04281984
-0.0023956744
0.20230392
0.3167408
-0.36085638
0.17826523
0.19348638
-0.19492179
0.1568638
-0.23167717
0.10546004
0.27368793
0.019165538
0.015071324
-0.103619315
0.26613596
0.13078599
-0.12677985
-0.131905
0.18053727
0.063781075
0.027176592
-0.11434274
-0.15028639
0.086339496
-0.1381414
0.112811744
-0.5253409
0.2864884
0.2409073
-0.16758555
-0.4443472
-0.08733221
-0.13608912
-0.32541257
0.23302053
-0.25511062
-0.077691846
0.28806016
-0.1351643
0.15565597
-0.09091561
-0.045548163
0.2230312
0.0038353845
0.06352813
-0.07824433
-0.07248705
-0.1226263
0.17288777
0.21369922
0.16120106
0.12926465
-0.1568711
-0.04248184
-0.17905018
0.17468853
-0.26415986
-0.1453589
-0.044472523
0.24086355
0.6519529
0.27501562
-0.0040803915
0.05237478
-0.43199736
-0.16678698
-0.0018383673
0.038264133
-0.1749177
-0.19275068
-0.06826978
0.3043668
0.10433375
0.26632857
-0.11701385
0.48411328
-0.062160313
-0.5527086
0.11219255
-0.09150929
0.030286593
-0.43085882
-0.20565002
0.27241388
0.17003638
-0.11197273
-0.052313086
0.058277924
-0.053018104
0.15322079
-0.0071321465
0.04340608
0.19469391
-0.15699758
0.14716068
0.09553729
0.016543666
-0.11496768
0.09353175
-0.24745272
0.035591107
-0.2762631
-0.030704036
-0.12602627
-0.42769223
-0.16551058
-0.11491405
0.16642353
0.00092948426
-0.22739327
-0.24132812
-0.28839955
0.15099797
0.10821392
0.19569123
-0.15373604
-0.083248764
0.034494687
-0.009135001
-0.08346936
-0.18691759
0.24653952
0.4558544
-0.1778287
0.05186336
-0.049911547
-0.08248719
-0.2710559
0.09235895
-0.11161858
0.17726426
0.017116595
0.400261
-0.48842287
0.21972428
-0.13504945
0.11108784
-0.06768366
-0.08297329
-0.021874378
0.19797611
0.15475467
-0.01425647
0.077083774
-0.025744189
-0.07903437
0.012041367
-0.14308167
-0.45174956
-0.11488458
0.057387393
0.0140725095
0.39590558
0.14326018
0.50888175
0.17268464
0.4353385
-0.1714764
-0.35600227
-0.17299883
0.32277405
-0.24970447
0.03906295
0.15380596
0.012486702
-0.1988961
-0.14224645
0.029804671
0.0330387
-0.056936275
0.02772724
0.121616535
-0.22433977
-0.1385418
0.21462141
0.16329476
0.25666422
0.25049332
0.034221817
-0.0071782814
0.013297142
-0.35846457
0.11560345
-0.23801748
-0.03313194
-0.21853058
-0.1407847
-0.13380891
0.13717648
-0.0504008
0.41222683
0.15268004
-0.30809617
0.0030737815
0.20947365
0.21767266
-0.44445893
0.14320703
-0.18459861
-0.18479292
0.004536861
0.3101426
0.3542056
0.20567946
0.26264068
-0.22008252
-0.114216745
-0.2150399
-0.18321362
0.21964245
0.05681
0.21509714
-0.0862036
-0.21267568
0.19290899
-0.0850225
-0.32822722
-0.10739428
-0.09121791
-0.1782187
-0.21998528
0.35821098
-0.12535703
-0.23751698
0.16216204
0.16318752
0.06836902
0.23699005
0.07042035
0.109067015
-0.43773538
0.043835532
0.15443277
0.17437522
-0.0042459955
-0.10172154
0.23988132
0.086836874
-0.004075094
0.16218273
-0.27784714
-0.11920581
-0.055099286
0.1049724
-0.1038123
-0.10252736
0.06298994
0.051131338
0.19769453
-0.007626191
0.19660006
0.06115536
-0.15982358
-0.21063247
0.10875298
-0.14134854
0.16468783
0.19903626
-0.13100742
-0.050511282
0.00095768814
-0.07428163
-0.15496929
-0.21772285
-0.1333194
-0.06570517
-0.44723374
0.08226779
-0.233348
-0.002938437
-0.09993418
-0.1301326
0.022646641
0.28899705
0.008708472
-0.19749257
-0.0073406855
-0.3265256
0.21892646
0.15816276
-0.059098106
0.12973611
-0.30768636
0.13388494
0.13335662
-0.28107354
-0.047158938
-0.12252229
0.052812275
0.030588035
0.017208455
0.3722672
-0.3429792
0.20630789
-0.392894
-0.39066184
0.06501818
-0.16713907
-0.26359075
0.042674493
-0.06334777
-0.2567185
0.08907256
0.23636825
0.3672646
0.3298007
0.47308198
-0.065393135
0.17561929
-0.10912722
-0.18110956
-0.029540116
-0.08593487
-0.10135098
-0.3333376
0.18240882
-0.28362298
0.120335594
0.023596553
0.072983816
0.20348394
0.08884781
0.003484966
-0.1053622
0.062570475
-0.013743194
0.36432418
0.16972783
-0.2087185
0.066773705
-0.19706434
0.06254371
0.5165254
0.22857915
-0.13171975
-0.10316383
-0.047505494
0.4506863
0.42221865
-0.014863904
-0.20063601
0.24037896
0.17053336
-0.21373771
-0.043899294
-0.21555448
0.46475583
-0.25852057
-0.008314356
-0.2767925
0.053625327
0.11309626
-0.08950437
-0.053604867
0.033127274
0.34419474
-0.10133799
0.11130764
0.010723435
-0.4502688
-0.02528703
0.063727126
-0.061715394
-0.014615104
0.101575315
-0.13713175
-0.28765103
-0.32848814
0.23704314
0.17583142
-0.061495937
0.13148133
0.39969215
0.034655
-0.007457105
-0.18167621
0.00978591
-0.18706195
-0.19865118
0.19272912
-0.036996856
-0.0073504667
0.2358977
0.030733017
0.11474451
0.02608013
-0.04121619
0.13596755
0.031996496
0.104692034
-0.025302483
-0.042781476
-0.09862503
-0.2844555
0.23077968
-0.008637951
-0.22870374
-0.006601771
-0.16118011
0.2252016
0.049994677
0.17650053
-0.2767278
-0.28099677
-0.040134963
0.072817795
-0.042776477
-0.29089442
0.061505735
-0.011683527
0.08382165
0.16322611
-0.3126101
0.1985636
0.24511038
0.31973955
-0.16750935
-0.38003498
0.12454184
-0.287649
0.050842147
0.2046582
0.28629515
-0.06558036
-0.14585744
0.013003123
0.03866548
0.14566453
0.07707234
-0.2050796
-0.44332895
0.06266
0.25455093
0.28312385
0.02799851
0.083836555
-0.19096087
0.13045506
-0.11849469
0.018332591
0.027364237
-0.28564784
-0.0003648378
0.085986786
-0.096643835
0.077581994
0.20329045
-0.40946895
-0.007956135
0.02695728
-0.10311913
-0.1310041
-0.33247197
0.2972619
-0.07346665
-0.23536797
-0.012205082
0.13778765
-0.3548921
0.22470187
-0.14439382
0.06754853
-0.14651059
-0.116920345
0.085517816
-0.17307137
-0.050822146
-0.041426018
-0.23856035
-0.19047663
0.09520369
-0.03761768
-0.20801464
0.15808752
0.1431495
-0.042760134
-0.047615368
0.08876238
0.13346016
-0.10317588
0.4779594
0.24268709
0.024506457
0.13435943
0.06624496
-0.18453811
-0.33316275
-0.03216491
-0.084247895
0.11895203
-0.050652858
-0.14967875
-0.25052258
0.021905271
0.08495623
-0.41956815
-0.34471968
-0.17597453
0.1007937
0.20003712
-0.1422609
-0.050028868
0.52417
-0.019875005
0.13760892
-0.27584538
-0.021437682
0.36438206
0.10078076
0.026924951
-0.35004225
0.10939646
0.063884616
0.094608776
-0.023442915
-0.2129048
0.014368668
0.047902744
0.04137707
0.052414685
0.014611122
-0.5210853
-0.05338773
-0.38974926
0.13470434
0.19710605
-0.09627252
0.082707964
-0.017625503
-0.066636056
0.14516102
0.15381543
-0.39957178
0.020197727
0.00796655
-0.020312859
-0.060989946
0.03947399
0.2089264
0.16330622
-0.032449804
0.10754188
0.10654353
0.20314188
-0.42368427
0.1904858
-0.15849854
0.21980166
0.14542545
-0.3759864
0.15573429
-0.14574203
0.09387687
-0.24389122
-0.2561715
0.08243978
-0.16200101
0.42545494
0.21505141
0.109648466
-0.22458874
0.3590718
-0.17456493
0.09435381
0.00875371
0.1491745
0.04742628
-0.07206789
-0.21342413
-0.16338615
-0.015748156
-0.00744728
0.13750844
-0.2962244
-0.06377437
-0.027721206
0.032119613
0.14118919
-0.05780358
-0.051713407
0.0423205
0.27540475
0.17793696
-0.24990454
0.25486496
0.13923596
-0.28400096
-0.12080296
0.07651826
0.026715381
-0.13981204
0.14053167
-0.07603342
-0.04625778
-0.114493564
0.13853502
-0.26746464
-0.20783615
-0.1827337
-0.10811924
-0.12431832
-0.24031882
0.092144325
0.18841398
-0.06301572
0.15896918
0.28984964
0.21097247
-0.2520125
-0.0784919
-0.058909245
-0.0263102
0.20199335
0.05886841
0.2177345
-0.13671695
-0.03247759
-0.2823462
-0.55796367
-0.025328225
0.18158175
0.115245715
0.085619435
-0.20036554
-0.21515976
-0.23853834
0.08396538
-0.18706961
0.19597964
-0.23240113
0.016008249
0.11588313
-0.124953665
0.119541824
0.010768082
0.21236332
0.1475275
0.24192266
0.10938376
0.15810956
0.18711703
-0.03635605
0.23005615
0.08826628
-0.13413805
-0.19928785
-0.17003745
0.3594022
-0.4081417
-0.061170407
-0.13428755
0.29488307
0.29956365
-0.18892919
0.072112665
-0.3477137
0.01527778
0.13969393
0.17142066
0.074581645
-0.09742083
-0.38185057
-0.26778442
-0.28746527
0.09201588
0.10504613
-0.013113712
0.103825666
-0.05262329
-0.12183374
-0.020313425
-0.2886589
0.2925085
0.033470042
0.2724454
0.06727251
0.47406617
-0.049822684
0.24907081
-0.22659777
-0.084458485
0.06201869
0.022611136
-0.56094855
-0.049895134
0.26224944
0.16454129
-0.23343371
0.30766186
-0.0767389
0.5222814
-0.17338328
-0.2038955
-0.115917735
-0.43085662
0.016630005
-0.29063216
0.053549137
-0.102602065
-0.03560699
0.09182753
0.15502508
0.020378126
0.21729532
-0.30967626
0.07923838
-0.36980364
0.070123635
0.19184105
0.39686975
0.08047781
0.06863222
0.25393325
-0.38572097
0.10011871
-0.02932769
-0.043238144
0.27425584
-0.102194406
0.26368195
-0.38825762
0.18681465
-0.12815034
0.19454055
-0.17188126
-0.27601445
-0.03888252
0.04042153
0.05955456
0.34784445
0.16021477
0.21090797
-0.1660379
0.156127
0.27254882
-0.44851157
-0.12187499
-0.2184064
0.12048461
0.057973076
-0.3507808
0.05490894
0.42549634
-0.16476974
0.009522415
0.016965969
0.22869726
0.042200852
-0.44772306
0.15662648
-0.018814659
0.08895068
-0.07967035
0.39331213
0.080946855
-0.08790678
-0.25940296
0.2266482
0.124056995
-0.23326318
0.12071133
-0.13131556
-0.354758
-0.17467836
0.11652378
0.15454333
-0.17774612
0.07042258
0.21544729
0.31315222
-0.30867204
-0.04083887
-0.07713569
-0.027367458
-0.03562254
0.16851379
0.14525871
-0.18851246
-0.27599376
0.019791743
0.326967
-0.1308876
-0.3296829
0.17879121
0.0581343
-0.21230607
-0.05639233
-0.030587638
0.043897364
0.22606245
-0.052420318
0.08158057
0.22840023
0.074409306
-0.27849108
0.053472914
-0.34073853
-0.39489007
-0.27898315
-0.12677068
-0.27453545
0.2736984
0.4411367
-0.14257884
0.327068
0.015626138
-0.0020876294
0.1850712
-0.032263495
0.34690765
-0.094653785
-0.014818686
0.18875374
-0.35814583
-0.22202407
0.5054989
0.30803114
0.06573256
-0.06363396
-0.06258446
0.11053033
0.27518812
0.1146958
-0.019959284
0.012655626
-0.039066624
0.0021790056
0.30327106
-0.084916554
0.036613163
-0.0081761265
-0.35611892
0.064048134
-0.17349373
-0.081948034
0.19571924
0.062374096
0.109257996
0.20602
0.10735222
-0.03331162
-0.06543838
-0.22597988
0.054300077
-0.025599385
0.4296982
0.027514651
-0.15054838
0.28587234
0.10580923
-0.11422733
-0.1214669
-0.04444108
-0.24461403
0.29732653
0.19496614
-0.14903703
0.21868186
-0.08621236
-0.02155639
-0.04124796
-0.10101481
0.1902463
-0.009674105
-0.03948443
-0.066671655
-0.26858243
0.2303493
-0.2337594
-0.102050245
-0.016383685
0.027470304
-0.0378275
0.03792693
-0.29549
-0.07398643
0.47451043
-0.194299
-0.099391215
-0.15179293
-0.17168854
-0.22980516
-0.1518784
0.34349295
0.060367793
-0.06366458
0.43410644
-0.30927536
-0.07664584
-0.09008417
0.13725714
0.17032051
0.13955139
0.23133981
0.04595428
0.30966517
0.17297022
-0.130382
-0.08643904
0.1657804
-0.22980773
-0.052971136
0.20620663
0.24368528
0.13271476
0.09694921
0.12950891
-0.2574672
0.057261746
0.39836463
-0.0063335965
0.2057693
-0.2610382
-0.0806592
-0.20716034
0.06357719
0.091534585
-0.33221775
-0.0058159004
0.01832549
0.19847403
0.047683857
0.13634261
-0.20683491
-0.14990829
0.0130613325
0.072994344
-0.074122146
-0.1927173
-0.3452906
0.05465728
0.43863675
0.23040533
0.016687185
0.0040687933
0.07385205
0.028322652
0.38945982
-0.329477
-0.0026839338
0.012069983
-0.12624846
0.11022259
-0.23751317
-0.19322209
0.4577653
-0.3110834
-0.088795885
0.015338509
0.14606115
-0.3179063
-0.025378851
0.04328144
0.07062416
-0.20521557
-0.027741868
-0.36553374
-0.05592848
-0.06200398
-0.16357398
0.07923374
0.14735846
-0.21849246
-0.09475186
0.0068382956
0.16464819
0.22245745
-0.04584319
0.19929229
0.14117394
0.11896574
0.22492218
0.011345552
0.3238717
0.35688692
0.28520662
-0.039064102
0.29284528
-0.18055612
0.074130796
-0.090192445
-0.043984916
-0.06108843
0.24420086
0.11540393
0.05174783
-0.33640873
0.08535976
0.033231623
-0.24566892
-0.18985985
-0.25585645
0.20126832
0.28302374
-0.48099166
0.40165606
-0.12972745
0.2665287
0.27686146
-0.07330728
0.38710597
0.067892775
0.035082486
0.010629569
-0.14683472
-0.11081493
0.30175707
-0.24290743
-0.1451162
-0.0979941
-0.38329908
-0.059242856
-0.3551055
0.07184189
0.3149091
-0.27211565
0.25275654
0.32383713
0.09398749
-0.023185585
0.2038784
-0.5371836
0.23546425
0.29931575
-0.066287376
0.01327459
0.15490341
-0.30194423
0.0448299
0.029101295
-0.052606184
0.05198148
-0.1782963
0.06700679
-0.20765558
-0.09789118
-0.0020119715
-0.21262804
-0.12955579
-0.3885362
-0.0020893503
0.17630734
0.28936705
-0.1850305
-0.008610679
0.07034153
-0.39978078
0.2220807
0.14692375
-0.04098996
0.18570033
-0.029831612
0.32307458
-0.19660854
0.07663011
0.001524209
-0.14351545
-0.16493401
0.06730043
0.44251427
0.033848707
-0.39762387
-0.41262245
0.21870387
0.09144508
-0.09982941
0.39755848
0.15124637
0.36905876
0.06274315
0.22503148
0.1312743
0.04543067
-0.37531325
-0.037655976
0.06790715
0.071080156
0.2609379
-0.07955123
0.040155686
0.07576593
0.19990356
-0.37343973
-0.26672432
-0.062148254
-0.072742656
-0.32090315
-0.20351486
-0.022849185
-0.2394183
-0.042275444
0.050832927
-0.1956985
-0.31343162
0.0028460384
-0.2870293
0.22462426
-0.16344734
0.06281145
-0.26425707
0.24216203
0.10805055
-0.2095551
-0.517183
0.0507217
0.254305
0.032150906
-0.039296847
-0.037810367
0.029993862
-0.13981229
-0.09478759
0.19072
0.13154112
-0.022013951
0.16224284
-0.06887024
-0.19530116
-0.23950605
-0.035613015
0.13330601
-0.10288247
0.26366445
-0.17199278
0.07449218
0.13422467
0.12949722
0.33037075
0.420852
0.20655183
-0.103514425
-0.42688957
-0.21226011
0.120876685
-0.08700701
0.4341197
0.011937658
-0.16510738
0.19317989
-0.23552635
-0.024355615
0.13017263
0.20272534
-0.18710707
0.084979884
-0.34572044
-0.25479743
-0.04267614
0.09512884
0.15360989
0.2079839
-0.044744655
0.33844864
-0.008435744
-0.14562693
0.10480505
-0.04899133
0.3694367
-0.31294775
0.40043655
-0.10148331
-0.115336254
0.27628493
0.2281485
-0.18107103
0.083898365
0.18212765
0.033068173
-0.027360408
0.04980448
-0.32632306
0.05931709
-0.06909633
0.59575886
-0.24260776
0.069469355
0.24240859
-0.47965503
-0.13824898
-0.250056
0.18820505
0.04369302
0.49675685
-0.2666249
0.07564025
-0.0008053244
0.17487387
-0.16738105
0.011887623
-0.051358677
0.081656665
-0.018568328
0.08414912
-0.01896189
0.16496722
-0.153978
-0.22034426
0.36533016
0.3822507
-0.19364986
0.18097527
-0.22744453
0.049903955
-0.10693344
-0.116977625
-0.35196242
-0.3199875
-0.17313172
-0.27601808
0.09797449
-0.14000678
0.26583475
0.05229597
0.07774783
0.22531314
0.24448036
-0.111114874
0.34156406
0.47063708
0.073695555
0.21752937
0.43888694
0.31133923
-0.08296444
0.33399227
0.21346295
-0.15509216
-0.023283515
0.13503684
0.0488101
0.13083449
-0.011095136
-0.04170273
-0.062914945
0.12219366
0.32141143
0.25061828
0.036314297
-0.0848865
-0.34882507
-0.17106658
0.13894166
-0.26736224
0.121382155
-0.10388855
-0.30228665
0.28484395
-0.15272239
-0.2240279
0.3685362
0.09740077
0.03957269
-0.032292288
-0.23158832
-0.11868347
0.17943214
0.28002366
-0.15330783
-0.07110407
-0.101997115
0.19710852
-0.0038066618
-0.042038392
0.07389958
0.059480608
-0.2080479
-0.3433115
-0.062202066
0.23982361
0.16810893
0.015810465
0.09773257
-0.1387208
-0.43883735
0.24629553
0.21810435
-0.06819867
0.3132945
-0.16110922
0.18945637
0.1339131
0.041770626
-0.113863446
0.07382724
0.366212
0.01733901
-0.2644677
0.39608714
0.005920715
0.24368392
0.08962633
-0.0697941
0.042462565
0.16368522
-0.14942087
-0.28647804
0.0064943857
-0.09064563
-0.12815468
-0.3391184
0.20600604
0.049460907
0.11461307
-0.38434628
0.051092923
0.052383196
0.22034203
-0.024655536
0.011920835
-0.12773812
0.20287898
0.13990486
0.08391398
0.051533617
0.0064636157
-0.061745692
0.17639647
0.25801358
-0.026368001
0.100923195
-0.22756629
-0.23094526
-0.1166955
0.026674965
0.08345134
0.22004984
0.08130686
0.06896871
-0.5548322
0.09076434
0.20435785
-0.3653217
-0.3152569
0.08570566
-0.104287505
0.3479372
-0.19108734
-0.23008803
0.016111558
-0.111161664
-0.11191528
0.21904801
0.19068491
-0.0062579582
-0.062374175
-0.110931374
-0.11762636
-0.01992154
-0.012422508
0.098916605
0.13244165
0.09335975
-0.100852706
0.030425955
-0.13661772
-0.048458137
0.2330875
-0.042309117
0.14888874
-0.2682709
-0.19284718
-0.22898178
0.22376232
-0.16312435
0.034948535
0.010368467
-0.1631945
-0.012458547
-0.11129683
0.06535559
-0.14012922
0.056214835
-0.14338855
0.0781821
-0.065077454
0.07582795
0.02498384
0.19825478
-0.15099442
0.21689141
0.21400309
0.19184713
0.47469378
0.2411753
-0.17668079
-0.01896025
-0.13637552
-0.44358632
0.115257554
0.071401395
-0.014915201
-0.3030636
0.16205126
0.12338119
0.113436006
0.014082405
-0.04351966
-0.1741379
0.31030154
0.2019295
0.1200392
-0.30311903
-0.42436796
0.04160746
0.1361087
0.26144552
0.010628699
-0.08765848
-0.13504174
-0.27672216
-0.13131729
0.030317772
0.08043555
0.1229957
0.3905131
-0.07442321
-0.19674233
-0.24784051
0.047276393
-0.037330873
0.3246151
0.06058106
0.07128328
0.04482628
0.1413431
-0.34190425
-0.28849262
-0.085175514
0.041008264
-0.09795688
-0.13839144
0.16899984
-0.20455368
0.42610317
-0.09664957
-0.015495797
0.08958164
0.10818263
-0.4609414
0.074445054
-0.07721531
-0.057903327
0.037897963
-0.1445721
0.44326493
0.24381821
-0.12792742
0.17978321
0.33949313
0.2746273
0.035206046
-0.21217027
0.05920994
0.13165253
-0.25523537
-0.060669035
0.25489128
-0.25187904
-0.17615655
0.39670452
-0.056403138
0.1618182
-0.05530274
0.10792219
0.12709038
0.06992178
0.07655784
-0.045200743
-0.21906272
-0.19937582
0.29916617
0.10631081
0.022477167
-0.21899965
-0.050823074
0.14557312
-0.16385017
-0.037848495
0.12687208
0.2118479
-0.09650208
-0.19169143
0.10438144
0.13031797
-0.17143792
0.4819587
0.49997362
-0.07810106
-0.21626161
-0.16236703
0.046672653
-0.22289704
0.27981162
0.006598116
0.2825686
0.05334961
-0.50866747
-0.3318342
0.030304471
-0.024653766
0.32008508
0.07341242
0.0085669
0.13496423
-0.12693448
-0.2688205
-0.2521974
-0.5317481
0.10256473
0.29545975
-0.08927456
-0.1150054
0.054910745
-0.03110913
0.22208142
0.3796533
-0.4068422
-0.23717223
-0.16675067
0.16894697
0.08768334
-0.41493312
-0.0070453654
0.078807116
0.24086244
-0.041086327
0.29479074
0.28115228
-0.4012632
-0.05124299
0.119893156
0.33405003
0.12702242
0.05172486
0.15301953
0.0058788336
0.23018609
0.096596956
0.5781011
-0.27284744
-0.020386484
-0.25060374
0.3506361
0.18964706
-0.1598004
-0.023108117
0.06002412
-0.03949623
-0.060622163
0.020631531
0.36838073
0.17248867
-0.26508173
0.1272653
-0.12118677
-0.026158992
-0.24856429
-0.15998109
0.14104038
-0.117163934
0.01025873
0.031243458
-0.25781566
0.21597421
0.23556827
0.024160748
0.22238842
0.25686958
-0.13622013
0.15329604
0.10965629
0.25362942
-0.115334764
-0.3621394
-0.021333782
0.24378884
-0.1317434
0.022853862
-0.00083488243
-0.10755693
0.40207896
0.077346824
-0.3276317
0.0013497161
-0.0318604
0.23883219
-0.07729673
-0.020887224
-0.49191356
0.2432506
-0.063508436
-0.21011917
0.07777329
0.46381995
0.26560542
-0.10576637
-0.059186995
-0.06224836
0.18969178
-0.16133782
0.095387064
0.08547481
0.09761409
-0.050053444
0.12404062
0.042222325
0.14286529
-0.17682804
-0.18190686
-0.18060015
0.27911106
-0.17194186
-0.117561
0.10646569
-0.091067284
0.032378983
0.14195281
0.09030975
0.06352668
-0.015869403
-0.18460232
0.0678068
-0.11503898
0.18058549
0.29141414
-0.2438344
-0.045243718
0.12929596
-0.26829368
0.39045736
0.13213913
0.15866113
-0.18059176
-0.16367565
-0.1948333
0.29138508
-0.24219167
0.35721502
0.24168403
0.11283585
0.100317456
0.12707077
0.08153019
0.05094123
0.3511301
-0.021849612
0.21006243
-0.038722124
0.08901905
0.03833412
-0.049865063
-0.17337313
-0.025227645
0.33449015
0.06914153
0.17788483
-0.11710485
0.12779054
0.20964216
0.13002388
-0.041629735
-0.033047076
0.16366641
0.18221489
-0.1307361
-0.0039608967
-0.25840852
-0.27320608
0.07740738
-0.12611015
-0.0062452853
0.16291188
-0.255545
-0.40154418
-0.17401387
0.15864073
-0.37799466
-0.26580444
0.10881757
-0.29259574
-0.20677643
-0.26668295
-0.1945163
-0.04188677
0.13739404
-0.121134
-0.1477839
0.016956223
0.04104214
-0.15507285
-0.2864487
-0.20819855
-0.0051634787
-0.092626415
0.1489095
0.034798715
0.18596238
-0.30298862
0.0042510773
0.123627916
0.026576018
-0.043135367
-0.0007287811
-0.035405695
0.026263509
0.08476002
0.10298021
-0.1300223
0.016649595
-0.07842291
-0.27357084
0.06650436
0.033559844
0.27984005
0.011166699
-0.07034663
0.06654727
-0.0037839995
-0.069263875
-0.050887436
0.07960611
0.3779548
0.25572342
-0.12412403
0.40239763
0.12529512
0.24580827
-0.14768714
-0.18351044
-0.026322609
0.037431996
0.07505905
-0.028944045
-0.031083751
-0.24977612
-0.26704183
0.12288765
-0.18362138
0.018687898
-0.02747097
0.02019046
0.079779156
0.19014148
0.1859323
0.07903884
-0.18409269
0.39510116
0.25763905
0.2596372
-0.16281977
-0.3487557
0.04537423
0.31468266
0.018679453
-0.04428975
0.1772225
-0.17442344
0.08931705
-0.14044717
0.013839686
0.10106136
-0.1010852
0.050399598
-0.23035593
0.003874005
-0.26239154
-0.13967754
-0.008643436
0.10217706
0.11549624
0.052571733
-0.23160975
0.04323391
0.20975874
-0.120448194
-0.23250774
0.024462102
-0.097489335
-0.029011607
-0.49604893
0.21221176
-0.08683031
-0.17521493
0.22271891
-0.012355474
0.1205247
0.06693964
-0.2033778
-0.17133452
0.07813578
-0.10579971
0.007913462
-0.16324095
0.31401637
0.21147345
0.3425421
0.070552945
0.38624138
0.12664394
0.057090636
-0.038509864
-0.32729688
-0.028344253
0.051069107
-0.09202621
-0.44713908
-0.09172232
-0.043586742
-0.20068388
0.49248895
0.06329533
0.23204724
-0.1760115
-0.21955664
0.23375455
-0.053986397
-0.11386319
-0.020716527
-0.10665438
0.24303065
-0.21237087
0.07543554
-0.018459052
-0.027840635
0.13670272
0.08600473
-0.21143635
-0.045736548
-0.12636155
0.111501835
0.0072164186
-0.29460254
0.1496815
0.62073815
0.027320853
-0.057006937
-0.009393784
0.25354874
-0.009027812
-0.05106147
-0.05049848
0.07894223
-0.038787868
-0.13901791
0.14357577
-0.39176184
0.30650336
0.03472316
-0.19971678
0.3219686
0.06276741
0.2470136
0.005451811
-0.023163702
0.19045825
0.2216289
-0.13030708
0.103961684
0.074646905
-0.14159054
0.21666531
-0.51906
0.043613892
-0.0059193927
-0.022862865
-0.12942223
0.00714664
0.15214579
-0.36067736
0.17343508
-0.27752438
0.09873739
0.06757064
0.085752435
0.17312388
-0.23445742
0.15060596
-0.10991659
0.010717333
-0.13202597
0.3469377
0.03612983
0.07424795
0.2262116
-0.06844146
-0.17078085
0.012623617
0.31218335
-0.1117567
0.23498996
-0.2913075
0.092411906
0.15907906
0.14591429
0.1908987
0.44075146
-0.00069894054
0.21927023
-0.02444731
0.40813404
0.10100186
-0.16912036
0.2769531
0.09951999
-0.18983953
0.12089634
-0.17714705
-0.12671694
0.043170743
-0.15419078
-0.2786437
-0.21487378
-0.32064176
0.049034506
0.10448513
-0.18617587
-0.032187544
-0.072380535
0.037280124
0.026441682
0.23165892
-0.05785668
0.39007828
0.054829426
0.13791923
-0.16072027
-0.10110589
-0.015273953
0.03832916
-0.2538129
0.040345382
0.16656561
-0.24766918
-0.004675324
0.104852
0.28173453
-0.3419279
-0.054532565
0.24845688
-0.010991182
0.07589266
0.12004866
-0.08959645
0.15269594
-0.14212817
-0.20487252
-0.027519925
-0.35380793
-0.19028315
0.1521726
-0.14807169
0.047101006
0.41768572
0.38894716
0.13188192
0.4087161
0.09643315
0.20504454
0.14784573
0.22806692
-0.101724885
0.23465514
-0.14359866
0.23662834
-0.117478125
0.26374665
0.08919393
-0.097163096
0.25582504
-0.10443361
-0.051174738
0.02696749
-0.37854406
0.23950629
-0.24317549
-0.15019593
-0.05854671
-0.007970835
-0.14693339
0.28269866
-0.2802263
-0.12653878
0.19990203
0.17266668
-0.20856114
0.25320414
0.15780051
-0.35045823
0.07666713
0.04330009
-0.04227774
0.031421494
0.0921694
-0.2190901
-0.04817536
-0.34492877
-0.2903157
-0.14351274
0.1297903
0.26191786
-0.08876052
0.4444205
0.055022907
-0.10612464
0.072159104
-0.1317559
0.009923315
0.1611983
0.15679179
0.013349726
0.039596256
0.089890614
0.1289317
-0.053570416
-0.2804314
0.18371637
-0.16352129
0.11286992
-0.17890231
0.16537535
0.17991622
0.28385898
0.15075491
0.23334049
0.32212013
0.053202778
0.16056189
-0.06303229
0.018773664
-0.1530818
0.15811664
0.41042992
0.1400931
-0.14984857
-0.113978915
-0.23838751
-0.3478154
-0.2911224
0.107290484
0.08016717
0.10208992
-0.047533378
0.082018875
0.31404895
-0.2845428
-0.08682475
0.11653664
0.21711664
0.24167724
-0.33468097
0.0868203
0.11893516
-0.132143
-0.42736998
-0.031931523
-0.064453356
-0.052354973
0.16756721
-0.18677822
-0.22031403
-0.03009961
0.4090499
0.06984111
0.06666597
0.088253476
0.18791616
0.10383822
-0.05020405
-0.09771675
-0.34795374
-0.0812157
-0.13889208
-0.07182173
0.23881488
-0.10908587
0.04758816
0.13561909
-0.25553447
0.18542144
0.18110575
0.23904474
-0.023856586
-0.16722833
-0.045965634
-0.19264399
-0.034776416
0.08351316
-0.22905222
-0.10813599
-0.2645413
-0.20096801
-0.0074545303
-0.1980264
0.286211
0.15008281
0.24143477
-0.06825506
0.13643973
-0.13734768
0.09776951
0.0047035827
-0.100554906
0.32375583
-0.27777946
0.41016784
0.095914625
0.24589555
0.25161526
-0.15750991
-0.11770902
0.21231034
0.24019797
-0.20075507
0.09425997
-0.13090184
0.2589877
-0.29495975
0.19929346
0.10057707
0.07670634
-0.069308005
-0.0049783112
-0.040546622
0.055138487
-0.082131974
-0.13710338
0.21574798
0.30416662
0.024383275
0.29168054
-0.18421744
-0.23435621
0.07937039
0.08852778
0.3752099
-0.096826464
-0.21725094
-0.084677376
0.19231348
-0.3334734
0.1953894
-0.18096246
0.20744546
-0.0812044
-0.29201177
0.013773039
-0.19581555
-0.33709332
-0.22043052
-0.09193
0.027921
0.04234912
0.23771052
-0.706608
0.030960962
0.08933895
-0.0027752486
0.030172989
0.1560456
0.0829715
0.31899095
-0.3118316
-0.029586885
-0.21545331
-0.04388756
-0.07192654
-0.09183575
-0.1705036
-0.14876431
-0.032689724
-0.09560575
-0.007800208
0.14766262
0.24134111
-0.24027227
0.15115578
-0.11648208
-0.018118497
0.13996714
0.38417
-0.22749798
-0.2239161
0.024972482
-0.08336545
0.4832358
-0.16316219
0.043610353
0.009455933
-0.10862738
0.04469391
0.1217904
-0.21365051
0.014697336
-0.04201187
0.08831665
-0.13063042
0.17939506
0.08844348
-0.11298753
0.3290869
0.23848772
-0.05665877
0.11231949
-0.34581617
-0.15765241
0.028041327
-0.12343619
-0.07434941
-0.123673275
-0.23647645
0.034473572
0.030838517
-0.1401417
0.11237214
0.084717385
0.47494698
-0.1074424
0.13275675
0.015451565
0.0073660626
0.0024244632
-0.013797457
-0.33470806
-0.0453165
-0.21840005
-0.13831475
0.252122
0.12635516
-0.058824923
-0.09600491
-0.13213478
-0.059062846
0.14116679
-0.024213761
-0.38288245
0.26065978
0.030487588
0.14499542
-0.3336732
-0.017947145
-0.22709635
-0.037787
-0.21527652
0.14915054
0.022045117
-0.16893132
-0.24491768
0.35013348
0.273773
0.30486786
-0.5444778
-0.030207535
-0.18333538
-0.2366453
0.053516667
-0.05636105
-0.009686019
-0.004029663
-0.10803719
0.18346596
0.19599931
0.20393799
-0.05818836
-0.16446404
0.09798865
0.11768892
-0.1084819
0.21326609
-0.297648
-0.44930497
-0.012857328
-0.21625605
0.22207749
0.09258553
-0.2502639
0.074665785
-0.217048
0.17384556
-0.12542795
-0.11068338
0.23301856
0.050809678
0.07959976
0.26718858
-0.090241894
0.07182749
0.27917904
0.28645378
-0.16648479
0.13079533
0.21657558
-0.0022204265
0.29728284
-0.11763944
-0.22791974
0.18967366
0.037059963
0.026097476
-0.03292234
-0.33427426
0.15604886
0.23117828
0.023429407
0.0050813905
-0.09480157
0.31052727
0.11781185
-0.096331395
0.10023882
0.21829005
0.31904024
0.12722728
0.13487089
0.08212223
-0.35367996
0.16266596
-0.20121443
0.15420705
0.43240285
-0.14295894
-0.08100243
0.006171511
-0.04029071
0.095940135
-0.05160008
0.04932228
0.087231785
0.29676908
-0.32052875
-0.18175156
-0.18167268
-0.4807497
-0.2126929
0.013934252
-0.009066292
0.3238999
0.11714685
-0.15379803
0.023442784
0.12673222
-0.44929025
0.10017367
-0.17704713
-0.42075357
-0.31343567
-0.00069605606
-0.467338
0.092029855
0.1821271
0.2940552
0.15034066
-0.15715338
-0.4038108
-0.3254331
0.007871437
0.08844806
-0.10572398
0.14889304
-0.15326211
-0.1940997
0.27374125
-0.18932898
0.1785039
0.10926714
0.026077459
-0.024026858
-0.11434008
-0.28030762
0.37775916
0.007918383
-0.17204624
0.06501628
0.22965041
0.12869437
0.26439598
0.21579404
0.2311837
0.09412804
0.109670974
0.08853402
0.06939336
0.09916849
0.11036084
-0.13364471
-0.18212366
-0.079941995
-0.17982851
0.15947933
-0.014288348
0.044207
-0.051298786
0.024106998
0.2887963
-0.014617308
0.04537822
0.37183267
-0.14712735
0.19377634
-0.015107216
0.17470092
0.16531444
-0.123460285
0.17296402
-0.46084014
-0.1097392
0.08819719
0.08878594
0.13015862
0.018363988
0.08272802
-0.0075551705
-0.08310244
-0.019879844
0.0052775755
0.1213932
-0.11444044
-0.0047557326
0.10718236
-0.115874246
-0.29109588
0.1620451
-0.013367623
0.1917442
-0.1415808
-0.099478036
0.24736507
0.46463513
0.35695305
-0.20677769
0.06271795
0.14612772
-0.19384903
0.061970443
-0.21251781
-0.08067339
-0.16049907
0.24512222
0.19485351
0.2515144
0.33040306
0.11888905
0.08536705
-0.010094229
0.12371917
-0.1521281
0.2108709
0.11020297
0.14469855
-0.16029637
0.024431981
0.23811279
-0.33303484
0.020658193
-0.18864502
0.1552852
-0.012349426
0.044379804
-0.03833055
-0.09171432
0.22375874
-0.07687599
-0.32946488
0.44659176
-0.07995674
-0.22426441
-0.27975854
-0.095377974
0.19215177
-0.011171079
0.04295297
0.22269742
0.029540105
-0.13587962
0.1024326
-0.49875075
-0.18695281
-0.23150615
-0.218679
-0.3155917
0.30017835
0.034997847
-0.14090942
-0.1120134
-0.24288149
0.024808127
-0.15452395
0.26390457
0.40424824
0.18103607
0.11619804
0.3229927
0.08653894
-0.27089998
0.111581676
0.31199616
-0.19380866
0.4070184
0.06789609
-0.20951436
-0.1489837
0.15317623
0.15916507
-0.22336213
-0.22541983
-0.31409448
-0.23451976
0.07201063
-0.30214366
0.083859704
-0.1658084
0.15157217
-0.031317983
-0.31839815
-0.09079392
-0.28312135
0.07179874
-0.00012866496
-0.25087598
-0.1763037
0.0060627214
0.29576892
-0.14570689
-0.08605348
-0.058558863
-0.12735686
-0.079492725
-0.08489486
-0.21927829
-0.044083513
0.12466675
0.24049206
-0.18445958
0.011135872
-0.4010639
-0.12354225
-0.009769141
0.07113167
0.075407594
-0.03565599
-0.029357243
-0.14859213
0.014838258
-0.10380733
-0.21323109
-0.22547166
-0.09376222
0.26410538
-0.018669216
-0.17211379
-0.17936926
-0.26622954
-0.124748945
-0.13575055
0.2587026
-0.12484031
-0.17209516
-0.076826
0.15817821
0.16549921
0.031967588
-0.023524333
0.07198248
0.0063354657
0.49118733
-0.27786422
0.19381274
0.08064143
0.053379532
-0.46898174
-0.019595437
0.20365098
0.24829014
0.1390865
-0.12529092
0.24726461
-0.4230259
-0.2726539
0.10117841
0.0021053262
-0.049443584
0.09167696
-0.063021414
0.06433984
-0.09624975
0.023976265
-0.19796681
-0.18721102
0.14199215
-0.39228103
0.085512735
-0.17925116
0.012347647
-0.10378351
-0.0013481484
0.28137574
0.122527055
0.40085107
0.25731248
0.11006715
0.08361173
-0.05974322
-0.03643516
0.2188028
0.15670843
0.038369752
-0.20028666
0.06174603
-0.1186159
-0.26106966
-0.18361112
0.01770298
-0.034600493
-0.20785932
0.05328366
0.17121802
0.11495667
-0.043209117
-0.19905731
-0.08003131
0.23901682
0.070254564
-0.14852284
0.10322578
-0.021724356
0.17482106
-0.22916427
0.32989937
0.0057276315
0.033165913
0.3738457
0.09705602
0.5386983
0.2578769
-0.33420917
-0.29050988
-0.24174777
-0.21722706
0.05311475
-0.1274315
-0.16913353
-0.2679151
-0.3226783
-0.054671705
-0.14664595
0.26270926
-0.12487163
-0.14328721
0.4294419
0.036154967
0.044019386
-0.07315375
-0.11024958
-0.003221105
0.04607671
-0.17721696
-0.11233691
-0.1854317
0.2561724
-0.021950128
0.019259509
0.19838856
0.0439564
-0.021681815
0.06293779
-0.008334368
0.21544755
-0.13543142
-0.019339215
-0.15595783
0.36026508
-0.048645467
-0.107609235
-0.022612508
-0.30968833
-0.2434948
0.234556
0.25575998
0.16650173
-0.0992031
-0.23985897
-0.015129511
-0.038430516
-0.40856418
0.13564156
0.035277784
-0.07291591
0.131387
0.11788257
0.084501855
-0.3863952
0.02350607
-0.049247313
0.31202778
-0.2159915
0.394376
-0.24645582
0.1286954
-0.22782691
-0.21226096
0.06015368
-0.04708992
0.07608751
0.18190286
0.18328343
-0.07484441
0.15127939
-0.28830567
-0.30285582
-0.06129817
0.056910504
0.25104764
-0.20416978
0.15931895
0.11372473
-0.10592923
0.274473
0.21096766
-0.28835636
-0.014433912
0.15145539
-0.034750275
-0.13110495
-0.0073671318
0.281888
-0.07238999
0.19746563
0.21094678
0.0032340481
-0.010299004
-0.39531308
-0.06764127
0.09149211
0.025463894
-0.30998096
0.2626718
-0.20681286
0.009690115
-0.029984457
0.25034496
0.03727662
0.11088778
0.10248417
-0.107900135
0.07040796
-0.22012518
0.16811225
0.34004152
-0.42448956
-0.5394029
0.12809566
0.1976888
0.14860283
0.09021132
-0.098977044
0.19880688
0.12601642
-0.10024275
0.15755935
-0.11447131
-0.056192663
0.11533477
-0.018707775
-0.059682097
-0.04580252
-0.11233469
-0.001699569
0.36077675
0.23396598
0.056520324
-0.027196312
-0.088783704
-0.06795583
0.24905828
-0.153566
-0.08770361
0.31986555
-0.069326915
0.1708436
0.023380378
-0.23282476
-0.20163679
-0.005319263
-0.42454147
-0.22563706
-0.08708181
-0.050869565
-0.010012793
-0.18489106
-0.15274848
0.2474459
-0.13576247
0.032100882
-0.05124435
-0.18466018
-0.125377
0.07528386
-0.18535088
0.0695278
-0.22736052
0.018767888
0.32596788
-0.10950103
0.007087879
-0.35207996
-0.20171778
-0.15460785
0.038194492
0.2684879
0.00086040254
-0.090404324
-0.45189053
-0.4439838
0.16379961
0.019966714
0.040790223
-0.016199246
-0.43421498
-0.31319118
-0.26163766
-0.099669434
0.07311499
0.22559975
-0.04099459
-0.09424701
0.22014092
0.069324195
0.34594652
-0.37561688
-0.015326071
-0.10810367
-0.04142807
0.09275299
0.08912754
0.24573508
-0.10145328
0.10059897
-0.07130503
-0.11821933
-0.23934053
-0.07917374
-0.19241542
0.012435966
0.29945862
0.20600784
-0.09398412
-0.3587028
-0.13019666
0.30992883
-0.21682397
0.01844096
-0.042643618
-0.25178027
-0.19843464
0.0025979837
0.30793527
-0.0988011
0.31626633
0.22806464
0.462905
0.041348573
0.10942475
0.3510664
0.3422043
0.37341812
-0.08039072
0.3679919
0.110669985
-0.1351786
0.04754068
0.28295845
0.2269301
-0.03574448
0.13263579
-0.09262785
-0.18797098
-0.28449374
-0.016207531
0.114661805
-0.078925036
-0.15436064
0.039239492
-0.11717677
-0.035253976
0.04527515
0.16789289
-0.08565503
0.13700084
0.053020157
-0.35189864
0.20006035
0.03676806
-0.3745189
0.2020992
-0.08011107
0.07198566
0.5075911
0.24729633
0.36488593
0.18838686
0.4160975
-0.08544888
-0.039916545
-0.33144754
0.01466127
-0.013483778
0.09778573
-0.26807523
-0.11466241
-0.10651977
-0.03517043
-0.05881045
0.3010885
-0.03421567
-0.020786
-0.16748174
0.019159038
-0.10853877
-0.00038167424
0.11128702
-0.079158716
0.0044011003
0.13143113
0.1330963
0.13253273
0.3751501
-0.37024105
-0.08053106
-0.11559483
-0.13714267
0.2816195
0.040473387
-0.104189895
-0.16534919
0.05097809
0.14643802
-0.22122271
0.096899875
0.018823285
0.34988332
-0.025960425
-0.30824554
0.15145779
0.0034236
-0.09667395
0.13593279
0.0016010775
0.192254
